{"out_head.weight": [[-0.2102116197347641, 0.1488548368215561, 0.25381898880004883, -0.2355114221572876, 0.283974826335907, -0.1792026162147522, -0.3209897577762604, 0.5641944408416748, -0.1472315937280655, 0.2941786050796509, -0.30286672711372375, 0.33872130513191223, -0.1134701743721962, 0.3293820023536682, 0.043638214468955994, -0.12062263488769531, 0.2228788584470749, 0.3948216736316681, 0.3027108311653137, -0.3682331144809723, -0.7756214737892151, 0.1123741865158081, -0.1783529669046402, 0.2299373894929886, -0.12523740530014038, -0.4810183048248291, -0.24139967560768127, 0.1590815931558609, -0.049499329179525375, -0.23746100068092346, -0.031155584380030632, -0.3409264385700226], [0.19260069727897644, -0.10844770073890686, 0.42423591017723083, 0.39490026235580444, 0.6150894165039062, 0.4299568235874176, 0.2052690088748932, 0.050755251199007034, 0.34189608693122864, 0.4417330026626587, -0.38672441244125366, -0.5376887917518616, 0.4978243410587311, 0.8276379704475403, -0.3576217591762543, 0.4381799101829529, 0.00943177193403244, 0.23040568828582764, 0.06803702563047409, -0.4978909194469452, -0.7193244695663452, -0.7651880383491516, -0.1733134537935257, -0.5453449487686157, 0.199327751994133, -0.7658458948135376, 0.18436697125434875, -0.24311621487140656, 0.6660320162773132, -0.34260720014572144, -0.9381839036941528, -0.22850659489631653], [-0.17084956169128418, 0.21131950616836548, 0.21223236620426178, -0.23061233758926392, 0.32550355792045593, -0.24349339306354523, -0.3065272569656372, 0.5929127335548401, -0.1976148933172226, 0.3447519838809967, -0.2967061698436737, 0.24217376112937927, -0.10702281445264816, 0.2998412847518921, 0.09609706699848175, -0.15750277042388916, 0.19747664034366608, 0.40418699383735657, 0.2601543068885803, -0.37115687131881714, -0.7196581363677979, 0.10419129580259323, -0.12291759252548218, 0.18293079733848572, -0.14931248128414154, -0.5466501116752625, -0.09465880692005157, 0.1596953123807907, 0.022181348875164986, -0.18865376710891724, -0.01358203124254942, -0.3622172772884369], [-0.19865575432777405, 0.16175566613674164, 0.2308487445116043, -0.2695659101009369, 0.2159806340932846, -0.29787638783454895, -0.2321394383907318, 0.5951352715492249, -0.23052743077278137, 0.34870484471321106, -0.46869373321533203, 0.28943806886672974, -0.13980253040790558, 0.23469430208206177, 0.07915817201137543, -0.12561383843421936, 0.2219773381948471, 0.421410471200943, 0.2623133361339569, -0.511901319026947, -0.4878526031970978, 0.09569215029478073, -0.18884305655956268, 0.26999431848526, -0.13510417938232422, -0.44252559542655945, -0.1369847059249878, 0.21186915040016174, 0.03697512671351433, -0.17010629177093506, -0.09550017863512039, -0.4657633900642395], [0.10645867884159088, 0.5208417773246765, 0.16279025375843048, 0.4865720570087433, 0.4181075692176819, 0.21667778491973877, -0.8428109288215637, 0.9139685034751892, 0.7446871399879456, -0.13463211059570312, 0.45963364839553833, -0.029383664950728416, 0.1519010215997696, -0.47812435030937195, 0.28499820828437805, -0.6944662928581238, 0.8929755091667175, -0.4801989793777466, -0.10354596376419067, -0.8004112839698792, -0.18506979942321777, -0.43554532527923584, -0.3550053536891937, -0.34157970547676086, 0.09725149720907211, -0.26220187544822693, 0.07289760559797287, -0.5093734264373779, 0.08978545665740967, 0.20468804240226746, 0.14771679043769836, 0.3567505180835724], [0.36823251843452454, -0.049804359674453735, -0.2630639374256134, 0.05376390740275383, -0.332336962223053, -0.03160278499126434, 0.4106316566467285, -0.2740944027900696, -0.07178594917058945, 0.149666428565979, 0.4110252559185028, -0.3425576090812683, 0.3119453191757202, 0.44033095240592957, -0.04662501811981201, 0.4619033932685852, -0.363773912191391, -0.38971656560897827, -0.10133913904428482, 0.551932156085968, 0.4900766611099243, 0.2776634097099304, 0.2727265954017639, -0.17769907414913177, 0.14487861096858978, -0.5284603238105774, -0.16226626932621002, 0.041967589408159256, -0.4272492229938507, 0.18736228346824646, -0.31229299306869507, -0.48964300751686096], [0.4045184552669525, 0.34236231446266174, -0.44461846351623535, 0.27765953540802, -0.48669904470443726, 0.0768493041396141, 0.4484717845916748, -0.05068916827440262, 0.028969772160053253, 0.03877623751759529, 0.5180510878562927, -0.11344387382268906, 0.2495126873254776, -0.3129069209098816, -0.16280199587345123, 0.5581743121147156, -0.21606478095054626, -0.22566257417201996, -0.028144551441073418, 0.5461062788963318, 0.44783759117126465, -0.11507221311330795, 0.2999853491783142, -0.49519073963165283, 0.5094512701034546, 0.010311136953532696, -0.08584694564342499, -0.3672598898410797, -0.6127303838729858, 0.08024809509515762, -0.4121346175670624, 0.20399902760982513], [-0.07244181632995605, -0.14566214382648468, 0.27815237641334534, -0.47475045919418335, 0.3510937988758087, 0.22919729351997375, 0.04394767805933952, -0.5254249572753906, -0.10019392520189285, -0.36517032980918884, 0.4761221408843994, -0.42651739716529846, 0.427796334028244, -0.5538793802261353, 0.06244208663702011, 0.43795135617256165, 0.00011587305925786495, -0.4130224585533142, -0.37344080209732056, -0.13789746165275574, -0.5277631282806396, -0.3349694311618805, 0.03527691587805748, 0.28509464859962463, -0.19718603789806366, 0.48528409004211426, 0.1687823086977005, 0.515839695930481, 0.17542849481105804, 0.30074307322502136, 0.10167817771434784, 0.5203927159309387], [0.31846678256988525, -0.22038187086582184, -0.00890069454908371, 0.5745013952255249, -0.2730019986629486, -0.37834158539772034, 0.3906751275062561, -0.3726951479911804, 0.11576741933822632, -0.10449333488941193, -0.07082216441631317, -0.10106968134641647, -0.53220134973526, 0.5838348269462585, -0.4116314947605133, -0.39660653471946716, -0.010646134614944458, -0.06794228404760361, 0.5755572319030762, -0.17579934000968933, -0.10532298684120178, 0.4719109833240509, -0.31335148215293884, 0.02892190031707287, -0.33928781747817993, 0.13808925449848175, 0.23535525798797607, 0.6553221940994263, 0.2586691081523895, 0.022562751546502113, 0.572797417640686, -0.41877278685569763], [-0.2919650375843048, -0.21010635793209076, 0.011325418949127197, 0.5577936172485352, 0.5906528234481812, 0.3641355633735657, 0.8409106731414795, 0.6049372553825378, -0.02500537596642971, -0.17890895903110504, 0.3963305652141571, -0.3334888517856598, -0.0655314028263092, 0.04784756526350975, 0.7994554042816162, -0.024535445496439934, 0.07724833488464355, 0.47733211517333984, -0.43527501821517944, -0.48965907096862793, -0.13852085173130035, -0.19784840941429138, -0.9940783977508545, -0.08041577786207199, 0.40749049186706543, -0.560473620891571, 0.5390893816947937, 0.149404376745224, -0.5304148197174072, -0.6701973080635071, 0.286013662815094, -0.8779359459877014], [-0.91234290599823, -0.219954714179039, 0.5863839387893677, 0.40456709265708923, 0.9020394086837769, -0.446372389793396, 0.5725517868995667, 0.3176601231098175, -0.5019084811210632, -0.3799128830432892, 0.09235469251871109, 0.7205946445465088, -0.5128608345985413, 0.8411117792129517, 0.6369577646255493, -0.5220253467559814, 0.034681521356105804, -0.3906109631061554, 0.34537893533706665, -0.14759308099746704, 0.4840119779109955, -0.38562896847724915, -0.8636605739593506, -0.14827105402946472, -0.41866326332092285, -1.1185619831085205, 0.28426113724708557, 0.48916932940483093, -0.25872114300727844, 0.16776452958583832, 0.0299651138484478, 0.4311220943927765], [0.5208211541175842, 0.14653851091861725, 0.5404235124588013, 0.08563429117202759, -0.7930701375007629, 0.49186334013938904, 0.007510214578360319, 0.6991360187530518, -0.5348934531211853, -0.46122223138809204, 0.4260571300983429, -0.3414548933506012, -0.4312565326690674, 0.3282880485057831, 0.23390880227088928, 0.2406492680311203, 0.20768895745277405, 0.5516449809074402, -0.47799113392829895, -0.053203284740448, -0.20460477471351624, -0.14927057921886444, 0.1706809103488922, -0.15303966403007507, 0.20205985009670258, 0.09105851501226425, 0.20633475482463837, -0.5261076092720032, -0.5027989745140076, -0.46122506260871887, 0.40503010153770447, 0.480821818113327], [0.28259003162384033, -0.15171295404434204, 0.1834278702735901, -0.4066202938556671, 0.11357051134109497, 0.20220981538295746, 0.2890914976596832, 0.49889200925827026, 0.12429741024971008, 0.6063317656517029, -0.17524898052215576, -0.3484050929546356, 0.2188863456249237, -0.44172924757003784, -0.42322102189064026, -0.5204818844795227, 0.3184446096420288, 0.4831533432006836, 0.41314154863357544, -0.41668230295181274, 0.018292974680662155, 0.5229248404502869, -0.40159672498703003, 0.5704418420791626, 0.15958401560783386, 0.14702415466308594, -0.7296501398086548, 0.5703867077827454, -0.35955360531806946, -0.6523460745811462, 0.23776987195014954, -0.25834518671035767], [0.31474733352661133, -0.4588257968425751, 0.08716104924678802, 0.07887838780879974, 0.7253583073616028, -0.6309705972671509, 0.6719281673431396, 0.7622241377830505, -0.29504749178886414, -0.17254739999771118, -1.1430561542510986, 0.7288005352020264, 0.05479107052087784, -0.5649606585502625, -0.1968509554862976, 0.5659449696540833, 0.4264979660511017, 0.7947514653205872, 0.5587788224220276, -0.8145497441291809, -0.3847520649433136, 0.6327969431877136, 0.23132890462875366, -0.24042290449142456, -0.16743704676628113, -0.2742753028869629, -0.06930378824472427, -0.6179694533348083, -0.6096495389938354, -1.0533721446990967, 0.7916211485862732, 0.017814040184020996], [0.2672346234321594, -0.2169153243303299, -0.002510197926312685, 0.09877927601337433, 0.3977402150630951, 0.3506819009780884, -0.05484190583229065, -0.4229241609573364, -0.3006281852722168, -0.46290940046310425, 0.057306624948978424, 0.12197314947843552, 0.42490676045417786, -0.24409820139408112, -0.4798182547092438, -0.31352242827415466, -0.4063272476196289, -0.2324940711259842, -0.633220374584198, -0.5199927687644958, 0.01390695758163929, 0.35783863067626953, 0.30444663763046265, -0.2271253764629364, 0.24646101891994476, 0.41775909066200256, 0.48447003960609436, 0.17422854900360107, 0.34060385823249817, 0.211244136095047, -0.05185256898403168, 0.4880019724369049], [-0.797431230545044, -0.554924726486206, 1.1307796239852905, 0.489244669675827, 0.6927106976509094, -0.21823476254940033, 0.53889399766922, 0.34798189997673035, -0.47761720418930054, 0.681198000907898, -0.6664023399353027, 0.2544361352920532, 0.13974520564079285, -0.17551656067371368, 0.3170951306819916, -0.4690077006816864, 0.07291915267705917, 1.2075008153915405, 0.8916743397712708, 0.14860647916793823, 0.05539162829518318, 0.5391444563865662, -0.0008312904974445701, 0.22664092481136322, 0.49011456966400146, -1.3510191440582275, -0.556404173374176, 0.0498657263815403, -0.47978219389915466, -0.01501270942389965, 0.11775290966033936, -0.5305148363113403], [-0.07220743596553802, 0.6728541254997253, -0.12750229239463806, 0.23018740117549896, -0.3684464991092682, 0.03457058593630791, 0.27413690090179443, 0.44257330894470215, -0.25698480010032654, 0.16137127578258514, 0.420921266078949, 0.27557629346847534, -0.15586930513381958, -0.24788105487823486, -0.011118609458208084, 0.539243221282959, -0.3405188024044037, -0.18010421097278595, -0.23779453337192535, 0.34800010919570923, 0.4544124901294708, -0.07111610472202301, 0.2952359616756439, -0.4699844717979431, 0.17732901871204376, 0.12111419439315796, -0.031195027753710747, -0.30050963163375854, -0.45248985290527344, 0.47790423035621643, -0.0207465011626482, 0.1765291392803192], [-0.516102135181427, 0.4597482979297638, 0.1528214067220688, -0.5004172921180725, 0.5159541368484497, 0.20766772329807281, 0.18496493995189667, -0.06711235642433167, 0.11449694633483887, -0.015427350997924805, 0.3034626543521881, -0.30276381969451904, 0.008256439119577408, -0.2402515560388565, 0.25865527987480164, 0.3256976902484894, 0.4499801695346832, -0.2589746117591858, -0.23831602931022644, -0.466492235660553, 0.23025137186050415, -0.0352090559899807, 0.46221789717674255, 0.3880305886268616, -0.023147545754909515, 0.036050695925951004, 0.30245456099510193, 0.41918864846229553, -0.22959789633750916, 0.018106691539287567, 0.21108698844909668, -0.29154083132743835], [-0.18429209291934967, -0.2671988606452942, -0.5508512258529663, 0.13688115775585175, 0.41957181692123413, -0.1716233193874359, -0.746554434299469, -0.07198334485292435, -0.5631057620048523, 0.0053030746057629585, 0.1319819539785385, 0.15833702683448792, -0.8024213314056396, 0.002870341530069709, 0.7828112840652466, 0.32024338841438293, -0.026795683428645134, 1.220528483390808, 0.44069141149520874, 0.4169325828552246, -0.3467962145805359, 0.16896213591098785, 0.2865571081638336, 0.22840209305286407, 0.49666133522987366, 0.10802921652793884, -0.3673251271247864, 0.5803236365318298, 0.13916350901126862, -0.4341900944709778, -0.08549672365188599, -0.5730055570602417], [-0.5891293287277222, -0.44421476125717163, 0.37137752771377563, 0.29233917593955994, 0.12166135758161545, 0.24217824637889862, -0.26785099506378174, 0.2543608248233795, -0.09812213480472565, -0.45366740226745605, -0.07663663476705551, -0.5267019867897034, -0.45867618918418884, 0.39468857645988464, -0.6746299266815186, -0.1785287857055664, -0.13343633711338043, 0.3698255717754364, -0.14404557645320892, 0.30510932207107544, 0.2325906604528427, 0.25598323345184326, 0.6807196140289307, 0.8828834891319275, 0.07003754377365112, 0.5184095501899719, -0.22992518544197083, -0.37521034479141235, 0.2935548722743988, 0.6401404738426208, 0.3391968309879303, -0.9196895956993103], [-0.4905044436454773, 0.5347021818161011, -0.1853044331073761, 0.03492344543337822, -0.14765645563602448, 0.22924615442752838, -0.3086605668067932, 0.3049958348274231, 0.1515422761440277, 0.3459518849849701, -0.805431067943573, 0.5430546402931213, -0.3564976155757904, 0.8184621334075928, 0.6340722441673279, 0.04341355711221695, -0.1676379144191742, 0.4218573272228241, -0.22483013570308685, 0.01214658934623003, -0.6271877884864807, 0.09409018605947495, 0.6188753843307495, -0.4267294108867645, 0.17325876653194427, 0.215411975979805, -0.38916847109794617, -0.020993158221244812, 0.06047839671373367, -0.9392783641815186, 0.15172667801380157, -0.7424546480178833], [0.09422402828931808, -0.3348691761493683, 0.08219993114471436, 0.2456938475370407, -0.27821069955825806, 0.2743460536003113, -0.6083093881607056, 0.18264086544513702, 0.1676856428384781, 1.2080143690109253, -0.09667916595935822, -0.12294718623161316, 0.17566844820976257, 0.1712934672832489, -0.042214710265398026, -0.3082602918148041, -0.24229644238948822, 0.8867363929748535, -0.4234682619571686, -0.19213223457336426, 0.4133930802345276, -0.08363568037748337, 0.17804673314094543, 0.8281484842300415, -0.18987597525119781, -0.8148056864738464, -0.12721112370491028, 0.2679593861103058, 0.5615525841712952, -0.6383752822875977, 0.36244434118270874, -0.14875921607017517], [-0.16887901723384857, 0.5121373534202576, -0.14494821429252625, -0.2545291781425476, -0.4073740839958191, 0.3598080277442932, 0.3031463921070099, -0.11205819249153137, 0.11654264479875565, 1.4365483522415161, -0.6339379549026489, -0.24236491322517395, 0.6350306272506714, 0.7284470796585083, 0.4619062840938568, -0.3718600869178772, 0.45931050181388855, -0.6244975328445435, -0.3758431375026703, -0.428165465593338, -0.860435426235199, -0.14893397688865662, -0.5696021914482117, 0.6381450891494751, -0.16513362526893616, 0.19577498733997345, 0.36417460441589355, -0.14262712001800537, -0.6481269598007202, 0.2597074806690216, 0.4819531738758087, -0.8934464454650879], [0.20380866527557373, -0.5178715586662292, -0.4479413628578186, 0.16497275233268738, 0.5378671288490295, -0.41892367601394653, -0.13100208342075348, 0.10043926537036896, 0.23221607506275177, 0.0963776707649231, -0.3064521849155426, -0.20043152570724487, -0.32087254524230957, 0.30275246500968933, 0.5515211224555969, 0.40847164392471313, 0.2494003176689148, 1.081459879875183, 1.0699999332427979, -0.3224806785583496, -0.3298971354961395, 0.5837822556495667, -0.17266109585762024, 0.14593704044818878, -0.07344779372215271, 0.43397045135498047, -0.3979383111000061, -0.23687176406383514, -0.15012574195861816, -0.33702805638313293, -0.5476576685905457, -0.1161213293671608], [0.6435055136680603, 0.18970634043216705, -0.5201612710952759, -0.4620887041091919, -0.4383229613304138, -0.05398259311914444, 0.33400586247444153, 0.22736378014087677, -0.12768593430519104, -0.044775690883398056, -0.32843366265296936, 0.3057236671447754, -0.6248427033424377, 0.1330452561378479, 0.35782429575920105, -0.023041043430566788, 0.6270358562469482, -0.0869382843375206, -0.5938739776611328, 0.4526708722114563, 0.13113367557525635, 0.06490243226289749, 0.4989786446094513, -0.32794779539108276, -0.39380958676338196, 0.38692715764045715, 0.3026581108570099, 0.26730138063430786, -0.4248587489128113, -0.15796442329883575, 0.3197996914386749, 0.4940895438194275], [0.6163460612297058, 0.3008478879928589, -0.1553562432527542, 0.5840487480163574, -0.372266560792923, 0.2568745017051697, 0.38974398374557495, -0.11390339583158493, -0.24751292169094086, 0.2645187973976135, 0.07685690373182297, -0.22932498157024384, 0.04671618342399597, -0.2563864290714264, 0.4938347637653351, 0.4564838111400604, -0.36673644185066223, -0.2899228036403656, -0.17583656311035156, 0.3973415195941925, 0.3486642837524414, -0.37668538093566895, 0.397213339805603, -0.5600870251655579, -0.00447390042245388, 0.007727130316197872, -0.30522412061691284, -0.22267954051494598, -0.3889034390449524, 0.18644453585147858, 0.20091548562049866, 0.2725726068019867], [0.10264687240123749, 0.272589772939682, 0.41928887367248535, -0.1293146163225174, 0.40673771500587463, 0.11395412683486938, -0.39955127239227295, -0.022061074152588844, -0.4779876172542572, 0.518291711807251, 0.14525914192199707, -0.20717711746692657, -0.40788501501083374, -0.1441570669412613, -0.1933308243751526, 0.40000250935554504, -0.3744681179523468, -0.12556234002113342, -0.05721795931458473, 0.14894048869609833, -0.5101209282875061, -0.15095500648021698, -0.3550128936767578, 0.30706992745399475, -0.2355210930109024, 0.15390682220458984, 0.2758554518222809, -0.06203898787498474, -0.20010152459144592, -0.12797324359416962, 0.2964099943637848, 0.006584602408111095], [-0.11117645353078842, -0.010697402060031891, 0.5695983171463013, 0.8520588278770447, 0.3345417082309723, 0.39041879773139954, 0.6770319938659668, 0.20806658267974854, 0.45368653535842896, 0.3729844391345978, -0.9289250373840332, 0.13480693101882935, -0.0985153540968895, -0.20208977162837982, -0.24458768963813782, -0.4701152741909027, 0.5653661489486694, -0.7809737920761108, 0.9494137763977051, -0.18078291416168213, 0.47971105575561523, -0.5383519530296326, -0.1545242816209793, 0.4314095079898834, -0.33933496475219727, -0.6313027143478394, -0.4350472092628479, 0.8855924606323242, 0.20820452272891998, -0.8834537267684937, -0.5366895794868469, -0.8082999587059021], [-0.4114740788936615, -0.47390955686569214, 1.0166785717010498, -0.7137031555175781, -0.09750702232122421, -0.5615723729133606, 0.1990286260843277, 0.8840577602386475, -0.7098603844642639, 0.4857979416847229, -0.3440726399421692, 0.44861340522766113, -0.07593007385730743, 0.6319956183433533, 0.288889080286026, 0.01756768487393856, -0.1899004876613617, 0.9943222403526306, 0.9801790118217468, 0.034007854759693146, -0.2795059382915497, -0.1876404881477356, 0.25443196296691895, 0.6499758362770081, -0.5644672513008118, 0.4204885959625244, -0.8604274988174438, -0.007150639314204454, 0.0613996647298336, -0.12754757702350616, -0.42175009846687317, -0.6312870979309082], [-0.2557501792907715, 0.5331401228904724, -0.08882714062929153, -0.3630748689174652, 0.04201735928654671, -0.003410657402127981, -0.337449312210083, 0.8493447303771973, -0.1621648073196411, 0.48897048830986023, -0.6533738970756531, 0.35949862003326416, -0.01705935224890709, 0.8731966614723206, -0.3538535535335541, -0.4215106666088104, -0.08322900533676147, 0.8004308342933655, -0.06550371646881104, -0.13437539339065552, -0.06629887223243713, -0.36018964648246765, 0.2959480583667755, 0.10031762719154358, -0.8271424174308777, 0.18289795517921448, -0.5558304190635681, 0.8055899739265442, -0.10719168931245804, 0.32955071330070496, -0.601881742477417, 0.08497148007154465], [0.242513507604599, -0.13699106872081757, -0.13076812028884888, -0.05092134699225426, -0.16785863041877747, 0.10455267876386642, 0.15237931907176971, 0.013761288486421108, -0.07542040944099426, -0.08224630355834961, 0.1313820630311966, -0.22927044332027435, 0.187196284532547, 0.41895443201065063, 0.0010576443746685982, 0.31135740876197815, -0.26224544644355774, -0.21031376719474792, 0.014078695327043533, 0.17957592010498047, 0.20290043950080872, 0.3114875555038452, 0.1990952491760254, -0.11182654649019241, 0.13591386377811432, -0.4909282624721527, 0.0710030272603035, -0.015139425173401833, -0.2619042992591858, 0.14244228601455688, -0.29795074462890625, -0.4978676438331604], [0.6578822731971741, -0.6552969217300415, -0.03991297259926796, 0.509012758731842, -0.7448101043701172, -0.5486484169960022, 0.42727717757225037, 0.07994303852319717, -0.06916210055351257, -0.04037974774837494, -0.740917444229126, 0.8233709931373596, -0.11140920966863632, 1.1302553415298462, 0.6245005130767822, -0.2437080293893814, 0.6041705012321472, -0.21561744809150696, -0.03812180086970329, -0.3320982754230499, 0.07117870450019836, -0.2666197121143341, -0.37932878732681274, -0.6705046892166138, 0.3238838315010071, -0.13745026290416718, -0.2489239126443863, -0.21268148720264435, 0.26074591279029846, -0.054534558206796646, -0.6581885814666748, 0.2928946018218994], [-0.6279058456420898, 0.9704247117042542, -0.25404009222984314, -0.19866515696048737, 0.3914772868156433, -0.6525480151176453, -0.8076754212379456, -0.17391729354858398, 0.21184459328651428, -0.09648100286722183, 0.08545096963644028, 0.4415261149406433, 0.12387249618768692, 0.23240163922309875, 0.0016911978600546718, 0.09485936164855957, -0.33384615182876587, 0.6769096851348877, -0.24121008813381195, -0.14966605603694916, -0.6098591089248657, 0.6635666489601135, -0.2061275839805603, 0.5445621609687805, -0.8881891369819641, -0.022738119587302208, -0.019530540332198143, 0.12985891103744507, -0.6944589018821716, -0.9938914179801941, 0.4387838840484619, -0.9364128708839417], [0.6210267543792725, 0.3976564407348633, -0.627530574798584, -0.43685969710350037, -0.28265511989593506, -0.23954451084136963, -0.537990927696228, 0.3436354696750641, 0.3483056426048279, -0.21667887270450592, 0.42332273721694946, 0.16489097476005554, -0.5587456822395325, 0.3990578353404999, 0.7053654789924622, -0.14413081109523773, 0.14660218358039856, 0.6295348405838013, -0.011586067266762257, -0.20775996148586273, 0.017012981697916985, 0.34458163380622864, -0.05894726142287254, -0.18673941493034363, -0.09681655466556549, 0.08187641948461533, -0.6453880071640015, -0.5033897757530212, 0.18119820952415466, 0.479015976190567, 0.7266221046447754, -0.7832985520362854], [0.24941103160381317, -0.3099450170993805, 0.2805447280406952, 0.04577427729964256, 0.04040646180510521, -0.08813909441232681, 0.6167747974395752, -0.146785169839859, 0.4544197916984558, -0.49594587087631226, 0.07212123274803162, 0.23348945379257202, 0.51181960105896, -0.0896945521235466, -0.14168258011341095, -0.7429260611534119, -0.25954946875572205, -0.34182778000831604, -0.24957315623760223, -0.4599991738796234, -0.2644565999507904, 0.4396841824054718, -0.1835724264383316, 0.5970091223716736, 0.37061554193496704, -0.28966471552848816, 0.09937089681625366, -0.04802000895142555, 0.5726864337921143, 0.19019711017608643, -0.4525075852870941, -0.11128631979227066], [-0.2759315073490143, 1.0536781549453735, 0.28392088413238525, 0.22196705639362335, 0.5337393283843994, -0.18217356503009796, 0.13564930856227875, -0.440017431974411, -0.07964712381362915, 0.9548298120498657, 0.11693090945482254, 0.7880654335021973, 0.5381247997283936, 0.5520285367965698, 0.14112475514411926, -0.6785818338394165, 0.40998202562332153, 1.040503740310669, -0.33791306614875793, -0.29586562514305115, -0.24633370339870453, 0.05115355923771858, -0.30107221007347107, -0.2741719186306, -0.3068687915802002, -0.8010205626487732, -0.7054429054260254, -0.7111822962760925, -0.264432817697525, -0.7894037365913391, -0.22627677023410797, -0.20299981534481049], [0.6346336007118225, 0.0011984426528215408, -0.29618018865585327, 0.01395634189248085, -0.22722968459129333, -0.5352469682693481, 0.09273188561201096, 0.09552290290594101, 0.03394421935081482, 0.0036583486944437027, 0.06362617760896683, -0.08557798713445663, 0.36286622285842896, 0.7087370157241821, -0.34251874685287476, 0.3473510146141052, -0.5635296106338501, -0.002041658153757453, -0.005009445361793041, 0.2432008534669876, 0.43186071515083313, -0.04172304645180702, 0.4009178876876831, -0.31190386414527893, 0.29187074303627014, -0.5993589162826538, -0.20297075808048248, 0.18901541829109192, 0.14440906047821045, 0.09599567949771881, -0.15569427609443665, -0.4829851984977722], [-0.24395939707756042, 0.024827178567647934, 0.014237959869205952, 0.4375130236148834, 0.6517096161842346, -0.8226198554039001, -0.8735897541046143, 0.5216625928878784, -0.03867417573928833, 0.35082846879959106, -0.3210812211036682, 0.8884455561637878, -0.37816521525382996, 0.06032523512840271, -0.30735889077186584, 0.2712397873401642, -0.5138721466064453, 0.864372730255127, -0.08192119747400284, 0.2747061550617218, -0.5550050139427185, 0.7981712222099304, -0.5984115600585938, 0.038338758051395416, -0.5637827515602112, 0.05787590518593788, -0.029444295912981033, -0.35766395926475525, -0.17914049327373505, 0.026663782075047493, -0.248216450214386, 0.07628045976161957], [0.3891805410385132, 1.1251999139785767, -0.12778303027153015, -0.06906349211931229, -0.1713886857032776, -0.14732275903224945, 0.3481467068195343, -0.12018893659114838, -0.5553046464920044, 1.0836552381515503, -0.38949280977249146, 0.743086040019989, -0.6423190236091614, 0.9145220518112183, 0.585598886013031, -0.24465560913085938, -0.09994813799858093, 0.1018109992146492, 0.2925072908401489, -0.37086763978004456, 0.14699041843414307, 0.2055213451385498, -0.5609606504440308, -0.10679353028535843, -0.136149063706398, -0.7847967743873596, -0.7778232097625732, 0.25742048025131226, 0.20688848197460175, 0.2741822600364685, -0.04892117902636528, -0.19859543442726135], [-0.6503266096115112, -0.20345216989517212, 0.8982088565826416, 0.03552627936005592, 0.4544088840484619, -0.3946116864681244, -0.11045292019844055, -0.03970939293503761, -0.10411233454942703, 0.28893816471099854, -0.7254209518432617, 0.6378938555717468, 0.32567474246025085, 0.37402746081352234, 0.42165273427963257, 0.31300827860832214, -0.26305732131004333, 0.7850837111473083, -0.05560314282774925, 0.2267933487892151, -0.43438029289245605, -0.2927473783493042, -0.86777263879776, 0.2073172628879547, -0.1726357340812683, -0.7067840695381165, -0.9072379469871521, -0.2809634208679199, 0.11138320714235306, 0.3974892497062683, 0.09185665100812912, -0.03771181032061577], [-0.22471342980861664, -0.5720647573471069, 0.42919638752937317, 0.26406559348106384, 0.0851377546787262, -0.17650099098682404, -0.6691352725028992, 0.29639407992362976, -0.6006054878234863, 0.43706148862838745, -0.8653887510299683, -0.15577846765518188, 0.447611927986145, 0.43397513031959534, 0.5819249153137207, 0.45714446902275085, 0.5150128602981567, 0.20072025060653687, 0.8331015706062317, -0.3774653673171997, -0.2887229919433594, 0.5758607387542725, 0.36262691020965576, -0.09683585911989212, 0.557004988193512, -0.972671389579773, 0.20079821348190308, 0.5882754921913147, 0.12935012578964233, -0.9317410588264465, 0.12802784144878387, 0.13845904171466827], [-0.20286332070827484, 0.882165789604187, 0.23500743508338928, -0.9713535904884338, 0.4589821994304657, -0.1567377746105194, 0.28541457653045654, 0.22134743630886078, -0.4801987111568451, 0.16200271248817444, -0.3628008961677551, -0.212538942694664, 0.4630061089992523, 0.03337978199124336, 0.3206789791584015, -0.5117416381835938, 0.11457785964012146, 0.8146007061004639, 0.9275230765342712, -0.24528934061527252, -0.26143795251846313, -0.35870781540870667, -0.27480560541152954, -0.29588592052459717, -0.4075954854488373, -0.6038344502449036, -0.15782728791236877, -0.4218648076057434, 0.20270401239395142, 0.2094561755657196, 0.51069176197052, 0.11052513867616653], [0.28309595584869385, -0.19900551438331604, -0.1659267097711563, -0.21102479100227356, -0.08869707584381104, -0.031145256012678146, 0.2424534410238266, -0.04936858266592026, 0.07440520077943802, 0.40383124351501465, 0.240680530667305, -0.19286629557609558, 0.2212497889995575, 0.5290526151657104, 0.007441520690917969, 0.22857460379600525, -0.2161397635936737, -0.15693773329257965, -0.068471260368824, 0.13305436074733734, 0.31226474046707153, 0.29797089099884033, 0.2517167627811432, -0.11074123531579971, 0.047118425369262695, -0.48476412892341614, -0.22026939690113068, -0.020919939503073692, -0.2120804786682129, 0.13821493089199066, -0.22519651055335999, -0.478660523891449], [0.22989943623542786, -0.395553320646286, 0.5090398788452148, -0.2130368947982788, 0.07050551474094391, -0.5706382393836975, 0.3231695592403412, 0.8359292149543762, -0.5679675936698914, -0.2649698257446289, -0.4090678095817566, 0.9113205075263977, 0.4517693817615509, 0.4609624743461609, -0.4024289548397064, -0.6308344602584839, 0.48943936824798584, -0.21866250038146973, 0.0034818772692233324, -0.3557359278202057, 0.17612598836421967, -0.12524299323558807, -0.31518182158470154, 0.7871657609939575, 0.02787655033171177, 0.15506233274936676, -0.1135847270488739, 0.3089366555213928, -0.4060751795768738, -0.46929824352264404, 0.022074205800890923, 0.14473208785057068], [0.15128572285175323, -0.371884822845459, -0.028168903663754463, -0.5939682126045227, 1.0936224460601807, -1.1598762273788452, -0.7658001780509949, 0.6900923848152161, -0.546257734298706, 1.003859043121338, -0.3274965286254883, -0.5336416363716125, 0.3170819580554962, 0.3618096113204956, 0.388808012008667, -0.26839497685432434, 0.5398640632629395, 0.3793472647666931, 0.4711773097515106, 0.05406264588236809, -0.16327160596847534, -0.4461815357208252, 0.03932070732116699, -0.15707999467849731, 0.2645357549190521, 0.5401402115821838, 0.28202685713768005, -0.28825652599334717, -0.5609295964241028, 0.2749710977077484, -0.2585207223892212, 0.22179082036018372], [-0.698436439037323, -0.5092208385467529, -0.4333489239215851, 0.2757275402545929, 0.5052744150161743, -0.02930542454123497, 0.39860624074935913, 1.098834753036499, -0.2928559482097626, 0.3378180265426636, -0.3075411915779114, 0.6075261831283569, 0.46497291326522827, 3.4428139770170674e-05, -0.47309786081314087, 0.45526018738746643, 0.10336333513259888, -0.31291770935058594, 0.009435500018298626, -0.28411418199539185, -0.3707476854324341, -0.04194025322794914, 0.5123129487037659, -0.3368203639984131, -1.1304434537887573, 0.4241941273212433, -0.10316427797079086, 0.49407196044921875, -0.17404891550540924, -0.11561713367700577, 0.1152721643447876, -0.6098110675811768], [-0.24935583770275116, 0.21576769649982452, -0.3464961051940918, 0.7075834274291992, 0.6689061522483826, 0.10559982061386108, -0.13106031715869904, 0.9056035280227661, -0.6041409373283386, -0.40845513343811035, 0.28131699562072754, 0.11440269649028778, -0.2885206341743469, -0.021451227366924286, 0.5247484445571899, -0.45633718371391296, -0.36047425866127014, 0.2108779102563858, 0.5151418447494507, -0.1780499517917633, -0.5013957619667053, -0.4509773552417755, -0.1284952312707901, 0.3121798634529114, 0.5954880118370056, -0.947213888168335, 0.2723729908466339, -0.2776140868663788, 0.31391793489456177, 0.09835208207368851, -0.7395859956741333, -0.8098210692405701], [0.18528740108013153, 0.23338229954242706, 0.011842451058328152, -0.5811625719070435, 0.508349597454071, 0.07980349659919739, 0.4938700795173645, 0.9383362531661987, 0.06697193533182144, 0.20963333547115326, -0.22098995745182037, 0.7944365739822388, -0.7952572703361511, 0.1673433929681778, 0.23036152124404907, 0.031309109181165695, -0.561295747756958, 0.030878474935889244, 0.16895893216133118, -0.4643626809120178, -0.2293994277715683, -0.7371695637702942, -0.5858631730079651, 0.6786836385726929, -0.7805314064025879, 0.08657830953598022, 0.3490261435508728, -0.06656035035848618, 0.26418471336364746, 0.2110491394996643, -0.6196633577346802, -0.45725134015083313], [0.10857411473989487, -0.017744019627571106, -0.4651906490325928, 0.3770209550857544, 0.23564991354942322, -0.522851824760437, -0.31371691823005676, 0.6972063183784485, 0.5189430117607117, 0.3264474868774414, 0.0925622433423996, 0.41530275344848633, -0.13896343111991882, 0.7243385910987854, -0.17915472388267517, 0.026465145871043205, -0.3464604914188385, 0.4463872015476227, -0.2960427701473236, -0.2670740783214569, -0.7249282002449036, -0.49211809039115906, -0.25751230120658875, 0.3537314236164093, -0.7633861303329468, -0.46572545170783997, -0.05163685604929924, 0.7299243211746216, -0.16360078752040863, -0.42980554699897766, 0.1864645630121231, -0.5772262215614319], [-0.2082551270723343, -0.5657382011413574, -0.11406729370355606, 0.035360634326934814, -0.22379939258098602, -1.02507483959198, -0.334439218044281, 0.7239930629730225, -0.020658807829022408, -0.6288057565689087, -0.63434898853302, 0.40951499342918396, -0.47568750381469727, -0.04768706485629082, -0.459979385137558, 0.9107597470283508, 0.11491330713033676, 1.0921903848648071, 0.2815095782279968, -0.5856120586395264, -0.23502390086650848, -0.6701375246047974, 0.0728500634431839, 0.2288348227739334, 0.09565138071775436, 0.2579309344291687, 0.1691761463880539, 0.484878808259964, 0.4891124367713928, -0.20526574552059174, 0.2541366219520569, 0.40202340483665466], [-0.17737801373004913, 0.5956909656524658, -0.3474087715148926, 0.249215766787529, 0.12875573337078094, -1.0455392599105835, -0.5302556157112122, 0.9096493721008301, -0.2984727919101715, 0.883027970790863, -0.12356585264205933, -0.05683586746454239, 0.23375330865383148, 0.5911261439323425, -0.3659774959087372, -0.0025297109968960285, -0.2738226652145386, -0.14945149421691895, 0.6860198974609375, -0.16356723010540009, -0.8088254332542419, 0.25045284628868103, -0.40051817893981934, 0.3665653467178345, -0.791472852230072, -0.016507156193256378, -0.833440899848938, -0.06618665903806686, 0.45841512084007263, 0.15817637741565704, -0.37986302375793457, 0.3583774268627167], [0.10284741222858429, -0.37700939178466797, -0.6179226636886597, -0.04645531624555588, -0.270502507686615, 0.044250957667827606, 0.24308547377586365, 0.10034684091806412, -0.1445537805557251, 0.16294820606708527, 0.31986162066459656, -0.11870597302913666, 0.2605499029159546, 0.5474795699119568, -0.3182772397994995, 0.18596111238002777, -0.08034077286720276, -0.4344979226589203, -0.4336155354976654, 0.13867226243019104, 0.47834303975105286, 0.16991658508777618, 0.14475849270820618, -0.21104362607002258, 0.3193681836128235, -0.5373229384422302, -0.5418769717216492, 0.18688412010669708, -0.029473626986145973, 0.5007258057594299, -0.23574090003967285, -0.31630605459213257], [0.09914419054985046, -0.2043170928955078, 0.4816136956214905, -0.2134196162223816, 0.41808757185935974, 0.19626706838607788, 0.13771776854991913, 0.33962342143058777, -0.0821695476770401, 0.07310140132904053, 0.3715766370296478, -0.08450500667095184, -0.09381310641765594, -0.3415391147136688, -0.1598067581653595, -0.23193976283073425, 0.21816352009773254, -0.17435231804847717, 0.0818651095032692, 0.21925795078277588, -0.46520084142684937, -0.458854079246521, 0.2453618347644806, 0.45003825426101685, -0.04714776575565338, 0.29948532581329346, -0.13936883211135864, 0.2881718575954437, -0.20913659036159515, 0.040057919919490814, -0.4844944179058075, 0.24588611721992493], [0.241213858127594, 0.28949058055877686, 0.17275717854499817, 0.16339653730392456, -0.1236901506781578, -0.7371317744255066, -0.29314321279525757, 0.5019944906234741, -0.6330779194831848, 0.9817495346069336, -0.37160325050354004, -0.1120656207203865, -0.41408517956733704, 0.33756792545318604, 0.7196487188339233, 0.29480236768722534, 0.4338400959968567, -0.539289653301239, 0.3032831847667694, -0.24462932348251343, -0.7747126221656799, 0.10515489429235458, 0.27888914942741394, 0.2886972725391388, 0.5817661881446838, 0.40032175183296204, 0.09432076662778854, 0.7144705653190613, -0.3187222480773926, -0.5720129013061523, -0.5521658062934875, -0.9311760663986206], [-0.01835971139371395, -0.0929742231965065, -0.3064442276954651, 0.27068132162094116, 0.8939272165298462, -0.6549610495567322, -0.08794255554676056, 0.8952897191047668, -0.6933274269104004, -0.19791045784950256, 0.047774538397789, 0.09660039842128754, -0.12815141677856445, 0.871891975402832, 0.7587681412696838, 0.4739162027835846, 0.28882285952568054, 0.8240966200828552, -0.1113651692867279, 0.348596453666687, -0.8182382583618164, -0.4359005391597748, -0.31843459606170654, 0.5850307941436768, 0.17064666748046875, -0.5814616084098816, -0.6977415084838867, 0.5559220910072327, -0.09135809540748596, 0.3147895932197571, -0.03029066137969494, -0.6299542784690857], [0.04324887692928314, -0.2121587097644806, -0.019462021067738533, -0.6645635962486267, -0.3609986901283264, 0.5924402475357056, -0.5404923558235168, 0.6013640761375427, -0.7654745578765869, -0.4629274010658264, -0.1311713457107544, 0.3664744794368744, -0.38423824310302734, 1.0197705030441284, -0.2656501829624176, -0.08060593903064728, -0.19957883656024933, -0.15870070457458496, 0.28596583008766174, 0.1551394909620285, -0.03749346733093262, -0.44775208830833435, 0.31721243262290955, -0.3721400797367096, -0.1265544444322586, -0.6263473033905029, 0.3422885835170746, -0.3104454278945923, 0.6047991514205933, 0.7450180053710938, -0.1363503336906433, -0.3301140069961548], [0.27441173791885376, -0.19197024405002594, -0.2704818546772003, -0.2668406069278717, 0.505590558052063, -0.7336190342903137, -0.327425092458725, 0.9099797010421753, 0.34123560786247253, 0.06017553061246872, -0.22952772676944733, -0.4276692271232605, 0.5439617037773132, -0.02515871450304985, 0.7682469487190247, 0.03812023624777794, -0.22163952887058258, 0.738821804523468, 0.8441084623336792, -0.2867144048213959, -0.12796619534492493, -0.34721195697784424, 0.3108486235141754, 0.6731172800064087, -0.5961395502090454, -0.5200738310813904, -0.681267261505127, 0.43689242005348206, -0.02053959108889103, 0.13950806856155396, -0.06094658002257347, -0.02272995002567768], [0.31817692518234253, -0.05693324655294418, 0.5251062512397766, 0.01779238134622574, -0.2391488254070282, 0.08108936250209808, 0.152431920170784, 0.1418057233095169, -0.6769988536834717, -0.18261075019836426, 0.5691279768943787, -0.2583995461463928, -0.3506765067577362, 0.7432091236114502, -0.12199904769659042, -0.08277799934148788, 0.30358195304870605, 0.1561073213815689, -0.12984003126621246, -0.12035053968429565, -0.45338642597198486, -0.30087611079216003, -0.06806641072034836, -0.26617297530174255, 0.25139784812927246, -0.17341874539852142, 0.2072789967060089, 0.2826565206050873, -0.29353266954421997, -0.5558479428291321, 0.3528110682964325, 0.32999733090400696], [-0.3618429899215698, -0.18935300409793854, -0.6966587901115417, 0.09855525940656662, -0.00814895797520876, 0.09460191428661346, 0.009848788380622864, -0.3991119861602783, 0.5302234888076782, -0.39669719338417053, -0.5416978001594543, 0.05278005078434944, 0.1519491970539093, -0.39072394371032715, -0.6569284796714783, -0.5040218830108643, -0.2346441149711609, 0.09163620322942734, -0.23901474475860596, 0.2316318154335022, 0.25793877243995667, 0.5042548775672913, 0.718812882900238, 0.263981431722641, 0.36131551861763, -0.04085129126906395, 0.22022093832492828, -0.1429818719625473, 0.32431095838546753, 0.1367442011833191, -0.7085568904876709, 0.30186665058135986], [-0.505731999874115, -0.5776883363723755, 0.8040976524353027, -0.5825695991516113, 0.061455145478248596, -0.02921425737440586, 0.23831599950790405, 1.1659349203109741, 0.4241313636302948, -0.13975518941879272, -0.11877946555614471, 0.6010564565658569, -0.7704519033432007, -0.42083093523979187, 0.35712555050849915, -0.34148919582366943, 0.27110931277275085, -0.3983994126319885, 0.22298921644687653, 0.07299896329641342, -0.35989996790885925, -0.6011621952056885, 0.4327428936958313, -0.256980299949646, 0.503028392791748, -0.28933507204055786, 0.408735454082489, -0.0817522332072258, 0.3217577338218689, -0.9889587759971619, 0.9037001729011536, -0.4480288326740265], [-0.028479311615228653, 0.17453262209892273, -0.2084646075963974, 0.8049158453941345, -0.3842008411884308, -0.5074784159660339, -0.3615098297595978, 0.4864961802959442, -0.09868855029344559, 0.35074383020401, -0.0120450584217906, 0.23708853125572205, 0.10514490306377411, 0.6447878479957581, 0.2532848119735718, 0.2342839539051056, 0.6401709914207458, -0.0976143479347229, 0.27986258268356323, -0.731899619102478, -0.23422123491764069, -0.16017255187034607, -0.031070878729224205, 0.9373236894607544, 0.1286792904138565, 0.42353734374046326, -0.8897085189819336, 0.4424402415752411, -0.17651529610157013, -0.2564167380332947, 0.4489034414291382, -0.9323195219039917], [-0.45844560861587524, -0.08705805242061615, 0.752264142036438, 0.6769524812698364, -0.22741402685642242, 0.27476897835731506, -0.9040194749832153, 0.6601164937019348, 0.14035388827323914, 0.5150495171546936, 0.06962268799543381, 0.9216359257698059, 0.6004399657249451, -0.03647596761584282, -0.5103636384010315, -0.2624965310096741, -0.37769588828086853, -0.23455390334129333, 0.09919670969247818, -0.14623291790485382, -0.16496148705482483, 0.3128979504108429, 0.3203897476196289, -0.04929322004318237, 0.08617616444826126, -0.218287393450737, 0.18071328103542328, -0.3443219065666199, -0.00931561179459095, -0.21895547211170197, -0.5380827784538269, -1.1148630380630493], [-0.5873312950134277, 0.19692462682724, -0.27741315960884094, 0.13893678784370422, 0.20690149068832397, -0.815384030342102, -0.05082711577415466, 0.5554049015045166, 0.3030029535293579, 0.5561787486076355, -0.669671356678009, 0.1631498485803604, 0.025297105312347412, -0.010401101782917976, 0.364215224981308, 0.002457414520904422, -0.5290902853012085, 0.8019083738327026, -0.030709290876984596, -0.36702778935432434, -0.5565428733825684, -0.22745460271835327, 0.5475267767906189, 0.9323130249977112, 0.15257743000984192, 0.22145144641399384, -0.17150472104549408, -0.34472227096557617, -0.41559669375419617, -0.28470826148986816, 0.6152915358543396, -0.8381110429763794], [-0.3741675615310669, 0.006830465979874134, -0.5224605798721313, -0.2960722744464874, -0.6757469773292542, -1.0475519895553589, -0.47212329506874084, 0.5105637907981873, -0.3082216680049896, 0.9229201674461365, -0.7483146786689758, 0.6979256868362427, 0.0648774579167366, 0.5805314183235168, -0.26966044306755066, 0.054888106882572174, -0.3833532929420471, -0.21349263191223145, -0.3216169476509094, -0.17114856839179993, 0.35713648796081543, 0.1893991082906723, 0.5121569633483887, 1.108555555343628, -0.20434756577014923, -0.22053642570972443, -0.49413567781448364, 0.18617881834506989, 0.5792299509048462, -0.08819065243005753, 0.09567394852638245, -0.12756890058517456], [-0.039314113557338715, 0.47127965092658997, -0.33607345819473267, 0.5059692859649658, 0.24206411838531494, -0.7067095637321472, 0.7765450477600098, 0.3407832086086273, -0.04766659811139107, 0.34533998370170593, -0.4740385115146637, 0.6170361042022705, -0.6939762830734253, 0.6333554983139038, 0.023002780973911285, -0.1095375046133995, 0.5350327491760254, 0.027550868690013885, 0.12667560577392578, 0.046336233615875244, 0.18255218863487244, 0.8862637281417847, -0.2034100443124771, 0.05857709050178528, -0.9996325969696045, -0.06055234372615814, -0.22748295962810516, 0.07023777812719345, 0.06597814708948135, 0.3656619191169739, -0.7070105671882629, -0.02840483747422695], [0.07744435966014862, -0.5464447736740112, -0.4352891445159912, -0.20466561615467072, -0.5858926773071289, 0.6668044328689575, -0.30574241280555725, -0.05595272034406662, -0.8775246143341064, 0.4955502152442932, -0.44432303309440613, -0.4088325500488281, 0.7122700810432434, -0.08714600652456284, 0.0696277990937233, -0.382223904132843, 0.6189805269241333, 0.7686456441879272, 0.6214882731437683, -0.6175893545150757, 0.2200952023267746, 0.08252432197332382, -0.5197421908378601, 0.7109650373458862, 0.5704350471496582, -0.28115326166152954, -0.4764390289783478, -0.7716062664985657, 0.01636079140007496, 0.31907200813293457, -0.16206786036491394, 0.7627032995223999], [-0.026852333918213844, 0.10267677158117294, -0.13459526002407074, 0.4427093267440796, -0.2814548909664154, -0.19515682756900787, -0.7554222345352173, 1.0010381937026978, -0.4679338335990906, 0.9815695285797119, -0.05024214833974838, 0.5224382877349854, 0.39321133494377136, 0.4990522563457489, 0.8905931711196899, 0.2984488010406494, -0.5464733839035034, 0.21831125020980835, 0.8060702085494995, -0.800692081451416, -0.3556523323059082, 0.11965234577655792, 0.014650359749794006, 0.5528074502944946, 0.632591724395752, -0.10989045351743698, 0.46901804208755493, -0.6105229258537292, -0.6033719778060913, -0.4465184211730957, 0.579818844795227, -0.6760440468788147], [0.20807713270187378, 0.5119196772575378, 0.48592671751976013, -0.4121960401535034, 0.6672437787055969, -0.25934794545173645, -0.12190721929073334, 0.7878309488296509, -0.3813236653804779, 0.9946541786193848, -0.3210006058216095, 0.15352453291416168, 0.22992372512817383, 0.37827634811401367, -0.42910969257354736, -0.010704653337597847, 0.8159452676773071, -0.218449205160141, -0.11928113549947739, -0.3874305784702301, -0.9000171422958374, 0.3223636746406555, 0.83031165599823, -0.06189990043640137, -0.20937480032444, 0.3364099860191345, -0.6680604815483093, 0.04353433847427368, -0.4539318084716797, -0.5832746624946594, 0.2053213268518448, -0.8652541041374207], [0.6179056167602539, 0.5219674110412598, -0.26322808861732483, -0.05741675943136215, -0.22944873571395874, -0.05194690078496933, -0.09965242445468903, 0.8636937141418457, -0.18770745396614075, 0.2321757972240448, 0.19311410188674927, 0.12624774873256683, 0.19802667200565338, -0.3592497706413269, 0.35304176807403564, -0.18153853714466095, -0.15044476091861725, -0.16352027654647827, -0.037889063358306885, 0.18632131814956665, 0.6464393734931946, -0.02423904463648796, 0.20189236104488373, -0.46541476249694824, 0.23176555335521698, 0.6585947275161743, -0.013220934197306633, 0.012597881257534027, -0.29745036363601685, -0.9293370842933655, 0.20558993518352509, 0.5042505264282227], [-0.3865996301174164, -0.0711011290550232, -0.20271961390972137, -0.35816314816474915, 0.30452367663383484, -0.5212109088897705, -0.5440092086791992, -0.21911798417568207, -0.1650622934103012, 0.4362693727016449, 0.4059765934944153, -0.4791783392429352, -0.24783824384212494, -0.23646634817123413, 0.24668243527412415, -0.028299890458583832, 0.5145758390426636, 1.0031152963638306, -0.04874517023563385, -0.07079790532588959, -0.04152115061879158, 0.7053708434104919, 0.20045043528079987, -0.05335761234164238, 0.14343701303005219, -0.23291471600532532, -0.1343442052602768, 0.2480688840150833, -0.25442081689834595, -0.07336955517530441, 0.37370193004608154, 0.14927519857883453], [-0.08351307362318039, 0.1619822084903717, -0.10208725929260254, -0.41946229338645935, 0.25344526767730713, -0.4981381297111511, -0.07758652418851852, 0.6500436067581177, -1.0755581855773926, 0.9925819039344788, -0.47796306014060974, 0.6161034107208252, -0.03961886465549469, 0.7731658816337585, -0.38825279474258423, -0.5065985918045044, -0.012970647774636745, -0.16010931134223938, 0.526282548904419, -0.08074133843183517, 0.4537223279476166, 0.010490836575627327, 0.512457013130188, -0.1016116738319397, 0.23653803765773773, 0.3713781535625458, 0.04437120631337166, 0.18948711454868317, 0.5196946263313293, -0.7637567520141602, 0.35357144474983215, -0.8706332445144653], [-0.44577834010124207, 0.7159661650657654, -0.2687264680862427, 0.4094824194908142, 0.4858359694480896, -0.11540763080120087, 0.19173882901668549, 0.503092348575592, -0.27481910586357117, 0.8748896718025208, 0.14065338671207428, -0.5618386268615723, -0.2978228032588959, 0.2358076572418213, 0.3484094738960266, -0.16921992599964142, 0.26547369360923767, 0.2028374969959259, 0.9241896271705627, -0.7765489816665649, -0.14222697913646698, 0.6021440029144287, -0.2555523216724396, 0.9964255094528198, -0.01607391983270645, 0.14677035808563232, -0.6812366843223572, -0.41238653659820557, -0.5503267645835876, -0.6471047401428223, -0.16316720843315125, -0.4485265612602234], [-0.5574120879173279, 0.4487948715686798, -0.14587393403053284, 0.612768828868866, -0.15832416713237762, 0.03846817463636398, -0.29879093170166016, 0.9891820549964905, -0.2245461493730545, 0.24963009357452393, 0.1496736854314804, 0.2968490719795227, -0.6642524003982544, 0.0806518942117691, -0.4641261100769043, 0.5519216060638428, 0.4102182686328888, -0.18382959067821503, 0.4206022322177887, -0.737592875957489, -0.2944602370262146, 0.6910767555236816, 0.2559998631477356, -0.0013826685026288033, -0.5251626372337341, 0.16414982080459595, -0.18257266283035278, 0.9839154481887817, 0.05436498299241066, -1.386089563369751, -0.005916486028581858, -0.7613032460212708], [-0.889580249786377, 0.48671576380729675, 0.013112192042171955, 0.6867254972457886, 0.364645779132843, 0.05518686771392822, -0.7309580445289612, 0.7705773711204529, 0.4717732071876526, 0.8702776432037354, -0.640267014503479, 0.2700270116329193, -0.6632187366485596, 0.2590906023979187, 0.1835469901561737, 0.08421266824007034, 0.10473141074180603, -0.6368056535720825, 0.41414979100227356, -0.014718844555318356, -1.0761100053787231, 0.08336880803108215, 0.506523609161377, -0.23752295970916748, -0.4911256432533264, 0.07299692928791046, 0.26814883947372437, 0.2503608167171478, -0.25901174545288086, -0.18049141764640808, 0.4100292921066284, -0.3378932774066925], [-0.3972497582435608, -0.12625139951705933, -0.24882827699184418, -0.9260739088058472, 0.6172172427177429, -0.05728680640459061, 0.18294018507003784, 0.6579419374465942, -0.2966797351837158, 0.8006594777107239, -0.552993655204773, -0.07168012857437134, -0.7725030183792114, -0.2117835283279419, 0.5928769111633301, -0.0427052341401577, -0.1492588371038437, 0.1483961045742035, 0.71856689453125, -0.7492130398750305, -0.0033290793653577566, 1.1066974401474, -0.007233849726617336, 0.4356297254562378, -0.07664807885885239, 0.31120339035987854, -0.2963850200176239, 0.6640189290046692, -0.6234263777732849, -0.11763311922550201, -0.5477662682533264, 0.14697951078414917], [-0.5256246328353882, 0.40486857295036316, -0.27935001254081726, 0.5297514796257019, -0.21512821316719055, 0.6534147262573242, 0.16502247750759125, -0.11917667090892792, 0.11621743440628052, 0.24029427766799927, 0.5094979405403137, 0.14335660636425018, -0.34856414794921875, 0.4023629426956177, 0.3083963692188263, 0.5092884302139282, 0.7521579265594482, 1.1200133562088013, -0.25747042894363403, -0.5475144386291504, -0.6048151254653931, 0.07324337214231491, -0.389888197183609, -0.2322481870651245, -0.24056001007556915, 0.06199363246560097, -1.4015226364135742, -0.06088018789887428, 0.4192062318325043, -0.6374568343162537, 0.25058630108833313, -0.9751786589622498], [-0.20286089181900024, -0.3630368709564209, -0.18297527730464935, -0.38073667883872986, 0.23393487930297852, 0.21781094372272491, 0.25126609206199646, 0.07542113214731216, 0.37857234477996826, -0.6345090866088867, -0.28047940135002136, 0.6949224472045898, -0.2321922332048416, 0.3599584996700287, -0.47995609045028687, -0.23255106806755066, -0.25045183300971985, 0.4236622154712677, 0.5921388864517212, 0.5486554503440857, 0.488332599401474, 0.5509033799171448, -1.035539984703064, -0.3142169713973999, -0.08417736738920212, 0.10459534823894501, 0.17248260974884033, -0.5789731740951538, -0.20665495097637177, 0.07161363959312439, 0.240520641207695, -0.582059383392334], [-0.41912442445755005, -0.3402459919452667, -0.6722990870475769, -0.6742136478424072, 0.21027201414108276, -0.14729763567447662, 0.3480798602104187, 0.6333299279212952, 0.30503034591674805, 0.15390576422214508, 0.44116008281707764, 0.08778861165046692, -0.05380341410636902, -0.08694655448198318, -0.45946308970451355, 0.3491784334182739, -0.46096187829971313, -0.4286433160305023, 0.4851972758769989, -0.0682598203420639, -0.3894508481025696, -0.4872237741947174, -0.5859853029251099, 0.25345519185066223, 0.5453006029129028, 0.2571047246456146, -0.0740344226360321, 0.1615617722272873, 0.48582398891448975, -0.11503194272518158, 0.5617430806159973, -0.2156403660774231], [-0.3732116222381592, 0.04479759931564331, 0.0962301567196846, 0.5178767442703247, -0.37751469016075134, -0.6191849112510681, -0.15173208713531494, 0.8607566356658936, 0.3513650596141815, 0.32584846019744873, -0.2457415610551834, 0.34951603412628174, 0.47697222232818604, -0.5986064672470093, -0.0155734121799469, 0.3200715482234955, -0.04202737659215927, -0.027975991368293762, 0.08780360221862793, 0.08520615100860596, 0.17224954068660736, 0.20608551800251007, -0.3661184310913086, -0.48723304271698, -0.02518262155354023, 0.3030528128147125, -0.6771514415740967, -0.2238815873861313, -0.29620230197906494, 0.21221637725830078, -0.02776625007390976, 0.22344183921813965], [-0.6351317167282104, 0.44874319434165955, 0.4916650354862213, 0.09565592557191849, 0.36283543705940247, 0.05045740306377411, -0.4372105002403259, 0.20385198295116425, 0.22990766167640686, 0.7484870553016663, -0.9654120206832886, 0.9135522246360779, 0.26117101311683655, 0.14551366865634918, 0.9809908270835876, 0.40713027119636536, -0.5962710380554199, 0.22110895812511444, 0.6372725367546082, 0.14252471923828125, -0.5237630009651184, -0.15778866410255432, 0.5107045769691467, 0.06808453053236008, -0.7445154786109924, 0.29745379090309143, -0.8864777684211731, 0.6066306233406067, -0.4952320456504822, -0.6271975636482239, 0.8569796085357666, -1.025495171546936], [-0.8783527612686157, -0.08030964434146881, -0.27581244707107544, 0.2677878141403198, 0.6807448267936707, 0.20572489500045776, -0.281735360622406, 0.27921149134635925, 0.15864582359790802, 0.5220522880554199, -0.44856470823287964, 0.09601219743490219, -0.2003975361585617, 0.7219531536102295, -0.3062991499900818, -0.633152961730957, -0.6135194301605225, -0.10816681385040283, 0.46438148617744446, -0.4426976442337036, 0.2781863510608673, 0.4467790424823761, -0.8423237204551697, 0.7779297828674316, 0.10049335658550262, -0.7374022603034973, 0.24702435731887817, -0.3424830436706543, 0.03435024991631508, 0.6614530086517334, 0.2613612711429596, 0.2986752390861511], [0.6058616042137146, 0.2932434678077698, -0.5851282477378845, 0.10151564329862595, 0.9972958564758301, 0.26822584867477417, 0.0215873084962368, -0.13858534395694733, 0.40457379817962646, 1.0537446737289429, -0.12399280816316605, 0.01922891102731228, -0.8764206171035767, -0.01601899042725563, -0.028343645855784416, -0.4170580804347992, -0.16168594360351562, 0.2635645568370819, 0.10215634852647781, -0.3069259822368622, 0.12776197493076324, -0.10073058307170868, -0.8553793430328369, -0.36960044503211975, -0.7952012419700623, -0.7581977248191833, 0.23918721079826355, 0.4436132609844208, -0.389645516872406, -0.1425008773803711, -0.16590677201747894, 0.6835455298423767], [1.033045768737793, 1.0750843286514282, -0.1800888031721115, -0.3426281809806824, -0.4558178186416626, 0.2934240996837616, -0.6736631989479065, -0.14755533635616302, 0.10359257459640503, 0.24962782859802246, -0.7614148855209351, -0.050388529896736145, -0.4037218391895294, 0.26280122995376587, 0.8120676279067993, -0.07885163277387619, 0.7342881560325623, 0.5514174103736877, 0.2768031656742096, 0.33539384603500366, -0.07126017659902573, 0.47929638624191284, -0.465312659740448, 0.4950810968875885, 0.3034210503101349, -0.5004937052726746, -0.37646517157554626, 0.058887507766485214, 0.5733007192611694, -0.4883919954299927, -0.605302631855011, -0.5391250252723694], [0.09197743237018585, 0.4946669042110443, -0.09481455385684967, -0.3611423969268799, 0.3555830121040344, 0.31532737612724304, -0.09698318690061569, 0.1341393142938614, 0.006698206532746553, 0.7952316999435425, -0.6837019920349121, 0.722109854221344, -0.7895134091377258, 0.8408962488174438, 0.7965238690376282, -0.08578554540872574, -0.46881380677223206, 0.1941414177417755, 0.9746851921081543, -0.545932948589325, -0.6482863426208496, -0.40266889333724976, -0.5343302488327026, 0.07242555171251297, -0.11971252411603928, 0.40629059076309204, -0.10608994960784912, 0.18155592679977417, -0.49009397625923157, -0.1541198492050171, 0.36155572533607483, 0.11611651629209518], [0.20628783106803894, 0.5981428027153015, -0.7027388215065002, 0.527209460735321, -0.22520305216312408, -0.380652517080307, 0.0210897084325552, 0.12894465029239655, -0.14881683886051178, 0.22025568783283234, -0.09681928902864456, 0.3686498701572418, -0.22126655280590057, -0.34476298093795776, 0.307169109582901, 0.4154905080795288, -0.1521846055984497, -0.0346287339925766, 0.0230872742831707, 0.2438196837902069, 0.3498416543006897, -0.2733183801174164, 0.12613612413406372, -0.37266433238983154, 0.378602534532547, 0.29695019125938416, 0.26955077052116394, -0.27068445086479187, -0.3920169770717621, 0.09979717433452606, -0.06870581209659576, 0.32875946164131165], [-0.4177584946155548, -0.23903582990169525, 0.31740397214889526, -0.5491262078285217, -0.32185083627700806, -0.000497677770908922, 0.3196936845779419, -0.2158467173576355, 0.39873331785202026, -0.0005518356920219958, -0.6331802606582642, 0.23762890696525574, 0.11778056621551514, 0.21669624745845795, -0.46059489250183105, 0.2766527235507965, -0.0882510393857956, 0.7727466225624084, -0.5284517407417297, 0.2567874789237976, -0.27647680044174194, 0.5423694252967834, 0.3092458248138428, 0.09387102723121643, 0.4520997107028961, 0.009948684833943844, 0.10250978916883469, -0.028140947222709656, 0.23212316632270813, -0.033860575407743454, -0.5465751886367798, 0.04328184947371483], [-0.09284880757331848, 0.05467003956437111, 0.2490081638097763, -0.6286519169807434, 0.3245779275894165, 0.057968877255916595, -0.7170282602310181, -0.05676057189702988, -0.2865559458732605, -0.23257766664028168, -0.8033886551856995, 0.24551284313201904, 0.6128145456314087, 0.37411215901374817, 0.3530256748199463, 0.3991904854774475, 0.4564990997314453, -0.18967841565608978, 0.011837867088615894, -0.5427237749099731, -0.5942894220352173, 0.39179375767707825, -0.12011872231960297, -0.3541991710662842, -0.3111066520214081, 0.3095199167728424, 0.0046976786106824875, 0.15219362080097198, 0.13082852959632874, 0.48860326409339905, 0.14078348875045776, 0.25917544960975647], [0.12904542684555054, 0.8373420238494873, 0.1880502849817276, -0.5855971574783325, 0.8681566715240479, -0.014058141969144344, -0.7721927165985107, 0.16051596403121948, 0.011747755110263824, -0.27906838059425354, -1.0888396501541138, 0.8481433987617493, 0.02535966970026493, 0.43132758140563965, 0.746150016784668, 0.17183013260364532, 0.16757869720458984, 0.6982782483100891, -0.02750660665333271, 0.3239794969558716, -0.5768024325370789, -0.40947240591049194, -0.2627538740634918, -0.1054958775639534, -1.0470768213272095, -0.35254302620887756, -0.45262324810028076, 0.020680852234363556, -0.39415448904037476, -0.005906742997467518, 0.2647899389266968, -0.45286211371421814], [-0.5241006016731262, 0.13194851577281952, 0.23597311973571777, -0.5838050246238708, -0.4164164364337921, 0.09457884728908539, -0.13637420535087585, 0.8186854124069214, -0.05399542674422264, 0.4215455949306488, -0.27639448642730713, -0.1769203394651413, -0.47796544432640076, 0.5632607936859131, 0.510556161403656, 0.6273107528686523, -0.4196065664291382, 0.6720359921455383, -0.02199716307222843, -0.468173623085022, -0.23724864423274994, -0.2657460868358612, -0.057699646800756454, 0.48519739508628845, 0.0794413834810257, -0.6746729016304016, -1.2832127809524536, -0.388520210981369, 0.8358470797538757, 0.18830175697803497, -0.2869569957256317, 0.4909133017063141], [-0.032966095954179764, -0.47894155979156494, -0.18830686807632446, -0.6158286333084106, -0.10452579706907272, -0.15464293956756592, 0.6614033579826355, -0.0758415013551712, 0.46864232420921326, 0.5503671765327454, 0.06997226923704147, 0.9018096327781677, -0.47962555289268494, 0.42932480573654175, 0.649863600730896, -0.5848730802536011, 0.13605819642543793, 0.5495808124542236, 0.9496658444404602, 0.0897531509399414, -0.12891025841236115, -0.5479573011398315, -0.4493800699710846, 0.43171101808547974, -0.1950221061706543, -0.6724614500999451, -0.9568220376968384, -0.47612258791923523, 0.1634712517261505, 0.11645186692476273, -0.21996070444583893, 0.17365066707134247], [-0.38128194212913513, -0.050629179924726486, 0.06420959532260895, -0.15150286257266998, 0.24876108765602112, 0.03662895783782005, 0.3120809495449066, -0.4791688621044159, -0.022900564596056938, -0.36355045437812805, 0.14206673204898834, -0.39076006412506104, 0.24289268255233765, -0.38491398096084595, -0.31361839175224304, -0.07554236799478531, 0.6082391738891602, -0.313779354095459, -0.3630448281764984, -0.52810138463974, 0.1794920563697815, 0.29826366901397705, 0.15148736536502838, 0.16503340005874634, -0.017380595207214355, 0.2023579478263855, 0.2841794788837433, 0.21452882885932922, 0.22074361145496368, 0.08835695683956146, 0.10661614686250687, 0.4523761570453644], [-0.03995196893811226, 1.01669180393219, 0.6151718497276306, -0.455302894115448, 0.3565390408039093, 0.573432207107544, 0.3334375321865082, 0.38329607248306274, -0.9144892692565918, -0.4499247670173645, -0.7249916195869446, 0.1488993614912033, 0.24412140250205994, 0.7298828363418579, -0.3935583829879761, -0.818675696849823, 0.9047902822494507, -0.035034485161304474, -0.47251951694488525, 0.3360576033592224, -0.11218934506177902, -0.2910566031932831, 0.09866932779550552, 0.014455387368798256, -0.28062865138053894, -0.35304826498031616, -0.06787384301424026, -0.06210089847445488, -0.04328691586852074, -0.8004010319709778, -0.0006658610654994845, -0.31408146023750305], [-0.6121432185173035, 0.9813714623451233, 0.378975510597229, 0.1943761557340622, -0.31001681089401245, 0.10606955736875534, -0.3171653151512146, 0.7728940844535828, 0.5005057454109192, -0.12113635241985321, -0.4466336667537689, 0.08830957114696503, 0.35069918632507324, 0.35693010687828064, 0.016021864488720894, -0.3701941668987274, 0.3317796587944031, -0.09023738652467728, 0.12893308699131012, -0.34104520082473755, -0.24362049996852875, 0.5383301377296448, -0.28615596890449524, -0.21788562834262848, 0.1865950971841812, 0.12776252627372742, -0.24085044860839844, -0.4165394604206085, 0.11521407216787338, -0.6956115961074829, -0.3449563980102539, -0.9628046154975891], [0.44996654987335205, 0.7622122764587402, 0.2843908369541168, 0.39211103320121765, 0.5558724999427795, -0.32829749584198, -0.7210008502006531, -0.020992131903767586, -0.7619504332542419, -0.08814647048711777, -0.09379161149263382, 0.27709096670150757, -0.73994380235672, -0.06050939857959747, -0.16405263543128967, -0.384892076253891, 0.40512967109680176, 0.9028857946395874, 0.025718534365296364, -0.5893235206604004, 0.3818303644657135, -0.39144963026046753, 0.20424135029315948, 0.6381514072418213, -0.6309824585914612, -0.6275752782821655, -0.2136687934398651, 0.7005678415298462, -0.08229956775903702, 0.18836751580238342, -0.5224393010139465, -0.07003609091043472], [-0.5353062748908997, 0.7702986598014832, 0.7894508242607117, 0.3577938675880432, -0.9014829397201538, -0.33612769842147827, -0.049507591873407364, 0.08857782185077667, -0.8144347667694092, 0.030245790258049965, -0.4960283935070038, 0.45999881625175476, -0.06194112449884415, 0.1651926040649414, -0.15574206411838531, -0.40114322304725647, -0.20031902194023132, 0.9733105897903442, 0.3112342059612274, -0.06367836892604828, -0.19270311295986176, -0.48790594935417175, 0.34257927536964417, 0.5703782439231873, 0.16509903967380524, 0.16546431183815002, 0.07254590094089508, 0.12253370136022568, 0.6689273715019226, -0.3686842918395996, -0.4364946782588959, -1.385838270187378], [-0.33609944581985474, 0.7348113656044006, 0.38689538836479187, -0.01494316104799509, 0.4882868528366089, -0.5699536204338074, 0.048148926347494125, 0.5930805206298828, 0.2329879254102707, 0.10058221966028214, -0.7481184005737305, -0.44343915581703186, -0.321476548910141, 0.6273759603500366, -0.0540226511657238, -0.41875407099723816, -0.19327114522457123, 0.7556005716323853, -0.13874317705631256, 0.5289888978004456, -0.5909205675125122, 0.035950981080532074, 0.05544808506965637, 0.45271235704421997, -0.9196246862411499, 0.26413488388061523, 0.20501892268657684, -0.4104533791542053, 0.004984801169484854, -0.6200857758522034, -0.3804217576980591, -1.1653701066970825], [0.7526342868804932, -0.3719666302204132, -0.14566738903522491, -0.1433858573436737, -0.26855766773223877, 0.25315845012664795, 0.3562595248222351, 0.12750506401062012, -0.1722385287284851, -0.024156766012310982, 0.24613125622272491, -0.2545122802257538, 0.18419811129570007, 0.30816733837127686, -0.3147997260093689, 0.22483603656291962, -0.24043312668800354, -0.10549762845039368, -0.2173410803079605, 0.26971614360809326, 0.27028095722198486, 0.48062923550605774, 0.2304379642009735, -0.12191569805145264, 0.10166895389556885, -0.45617979764938354, -0.2771611511707306, 0.41523152589797974, -0.31422463059425354, 0.2227124720811844, -0.3191610872745514, -0.5342516303062439], [-0.0837036743760109, -0.01224695798009634, 0.1254059374332428, -0.18407650291919708, -0.1351437270641327, -0.4218093454837799, -0.6286616921424866, 0.5682687759399414, -0.39791902899742126, -0.289620965719223, 0.21043741703033447, -0.20616769790649414, 0.19235199689865112, 0.16339750587940216, -0.3766508996486664, -0.5769426822662354, 0.10684346407651901, 0.12633934617042542, 0.16988275945186615, 0.44066205620765686, -0.46122071146965027, -0.32066118717193604, 0.2533467411994934, 0.5683369040489197, 0.10112214088439941, 0.10992953926324844, -0.5119886994361877, -0.06855392456054688, -0.09686075896024704, 0.19400890171527863, 0.3399345576763153, 0.2161766141653061], [0.02856176346540451, -0.14625687897205353, -0.4224686920642853, 0.41578835248947144, 0.1322854459285736, -0.9581353664398193, -0.8851388692855835, -0.10351843386888504, -0.6905376315116882, 1.3794350624084473, -0.3431447446346283, 0.058023601770401, 0.2363234907388687, 0.21481360495090485, -0.8502575755119324, 0.2114574909210205, 0.39670851826667786, 0.5152758955955505, 0.5652855038642883, 0.43902674317359924, -0.32541850209236145, 0.5825811624526978, -0.10060419142246246, 0.6651504635810852, -0.2715113162994385, -0.611829936504364, 0.44251179695129395, 0.47160959243774414, -0.02858099713921547, -0.47179752588272095, -0.10963807255029678, 0.11632957309484482], [-0.7451876401901245, -0.5386173129081726, -0.7398650646209717, -0.28044813871383667, -0.2540110945701599, -0.2684364318847656, 0.1449556201696396, 0.02250177599489689, -0.2105822116136551, 0.7035844326019287, -0.6032355427742004, -0.26721182465553284, 0.2138841599225998, -0.13606640696525574, 0.754448652267456, 0.1506759524345398, 0.5381230711936951, 0.401953786611557, 0.20843316614627838, 0.4474734663963318, -0.665422797203064, -0.2031927853822708, 0.21614840626716614, -0.6216234564781189, 0.16713152825832367, -0.04588531702756882, 0.5309669375419617, 0.9580138325691223, 0.4184646010398865, -0.2565188705921173, -0.3053087890148163, -0.30654990673065186], [0.7085718512535095, 0.4821135103702545, -0.04329495131969452, -0.2329866886138916, -0.3367972671985626, -0.27566713094711304, 0.018345683813095093, 0.7995749115943909, -0.3706633746623993, 0.412408709526062, 0.089020736515522, 0.5450899004936218, -0.2624072730541229, -0.18939194083213806, 0.2979428470134735, 0.19746197760105133, 0.15696287155151367, -0.46025875210762024, 0.3691951036453247, 0.2582824230194092, -0.03516509756445885, -0.010752160102128983, 0.4075838029384613, -0.4267149567604065, 0.25002020597457886, 0.45667046308517456, -0.3534018099308014, -0.36032986640930176, -0.34993818402290344, 0.4311642348766327, 0.050393301993608475, 0.3344060778617859], [0.040166787803173065, 0.08940058201551437, -0.5469073057174683, -0.22393181920051575, 0.1227491945028305, 0.057468999177217484, -0.3851809501647949, 0.8149749040603638, 0.4312402606010437, 0.8729876279830933, -0.9815762042999268, 0.27033600211143494, 0.27860984206199646, -0.1085418164730072, 0.445357084274292, 0.33100956678390503, 0.08013453334569931, -0.06488949060440063, 0.19196012616157532, -0.39753568172454834, 0.16559645533561707, -0.20856884121894836, -0.287494421005249, -0.34129244089126587, -0.25922635197639465, -0.8620662689208984, -0.11338363587856293, 0.5076478719711304, 0.641435444355011, 0.2581610381603241, 0.02192557603120804, 0.6203826665878296], [-0.2926764190196991, -0.42292603850364685, 0.3867456614971161, -0.535370945930481, 0.2605660855770111, 0.2854047417640686, -0.4527377188205719, 0.537345826625824, -0.049435827881097794, -0.09557413309812546, -0.9412358403205872, 0.2898418605327606, 0.20342382788658142, 1.068541407585144, 0.19740858674049377, 0.5036241412162781, 0.36469149589538574, 0.8072483539581299, 0.31805312633514404, -0.3433453142642975, -0.13672088086605072, -0.14194355905056, -0.9279881119728088, 0.4379540681838989, -0.4709097445011139, 0.16582636535167694, -0.049320440739393234, 0.2684570252895355, -0.02964518591761589, -0.8801500797271729, -0.42956069111824036, 0.012834996916353703], [-0.9036991596221924, 0.32320845127105713, 0.08770287036895752, -0.6379998326301575, 0.20342764258384705, 0.10756061971187592, 0.20510244369506836, -0.03251921385526657, -0.28734490275382996, 0.6449369788169861, -0.6227927803993225, 0.44047364592552185, 0.8870349526405334, -0.03897124528884888, 0.057826828211545944, -0.12823039293289185, 0.8221042156219482, 0.5677356123924255, 0.617202877998352, 0.39309781789779663, -0.502399742603302, 0.40404826402664185, -0.05053696036338806, -0.46237191557884216, 0.055727943778038025, -0.7880896925926208, -0.6056884527206421, 0.3800637423992157, 0.4668837785720825, -0.09380166977643967, 0.19560958445072174, -0.6179139018058777], [0.2529812455177307, -0.29995977878570557, 0.20520304143428802, 0.2668167054653168, 0.35433855652809143, 0.34400370717048645, -1.2087336778640747, 0.3251773416996002, -0.06448451429605484, 0.5472134947776794, -0.5385478138923645, 0.949203372001648, 0.039971813559532166, -0.2273866981267929, 0.5278344750404358, -0.225417822599411, -0.2825509309768677, -0.05150352418422699, -0.27545005083084106, 0.11484279483556747, -0.07049831748008728, -0.24891385436058044, -0.4580039978027344, -0.006426677573472261, -0.3421774208545685, 0.46756523847579956, 0.3217675983905792, -0.021032072603702545, 0.07959272712469101, -0.5507360696792603, -0.8788924813270569, 0.20566242933273315], [-0.7300896644592285, 0.0896807610988617, 0.27216818928718567, 0.3440171480178833, 0.41159486770629883, -0.5345116257667542, -0.4438665211200714, 0.8378118276596069, -0.9796728491783142, -0.11198274791240692, -0.8177782297134399, 0.13509857654571533, -0.36216720938682556, 0.9195529222488403, 0.4109715521335602, -0.287734717130661, 0.6659776568412781, 0.06806725263595581, -0.07522547990083694, -0.43704280257225037, 0.17128083109855652, -0.4253416657447815, 0.5028729438781738, -0.2668439745903015, -0.07496615499258041, 0.39625734090805054, 0.1582036167383194, 0.281439870595932, -0.25064945220947266, -0.30674460530281067, 0.567204475402832, -0.12940041720867157], [-0.33815062046051025, -0.2478698194026947, -0.13427512347698212, -0.5480067729949951, -0.3338231146335602, -0.2930224537849426, 0.29753270745277405, 0.7581521272659302, -0.2998723089694977, 0.683732807636261, -0.7142216563224792, -0.40094611048698425, -0.3509698510169983, 0.69471275806427, 0.38868680596351624, -0.3254489004611969, 0.8499836325645447, 0.19194962084293365, -0.21877054870128632, 0.3796507716178894, 0.11346150934696198, -0.5072644352912903, -0.5146393179893494, 0.3459832966327667, -0.6343980431556702, -0.19534654915332794, -1.0965319871902466, -0.22584949433803558, 0.5367627143859863, 0.3439056873321533, 0.4772912561893463, -0.48814794421195984], [0.2984444200992584, -0.5853177309036255, 0.2780052125453949, -0.5529661178588867, 0.19325633347034454, 0.34397774934768677, -0.273657888174057, 0.19346249103546143, -0.8795248866081238, 0.22633503377437592, -0.8103764653205872, 0.32975736260414124, 0.12508875131607056, 0.9185981154441833, 0.8625604510307312, -0.6775219440460205, 0.6830716133117676, 0.19051286578178406, 0.21475456655025482, -0.3096833825111389, 0.18783333897590637, -0.44075122475624084, -0.17013446986675262, 0.4834403395652771, -0.6252385973930359, 0.2565254271030426, -0.05506173148751259, 0.07926710695028305, 0.049394216388463974, 0.22392073273658752, -0.37026411294937134, -0.44181063771247864], [0.00010161891987081617, -0.38638150691986084, 0.20103275775909424, -0.37305811047554016, 0.21226266026496887, -0.2797808349132538, -0.36825504899024963, -0.2217254340648651, -0.15848487615585327, -0.027649423107504845, -0.05892319977283478, 0.12437726557254791, 0.4412388205528259, 0.2794174253940582, 0.4025125205516815, 0.4942084848880768, -0.40092992782592773, -0.23914331197738647, -0.25471943616867065, -0.6185900568962097, -0.31124255061149597, 0.404813677072525, 0.23143047094345093, -0.5144305229187012, -0.5479400157928467, 0.4017519950866699, -0.16994798183441162, 0.06824778765439987, 0.2906915247440338, 0.4301038384437561, 0.028617078438401222, 0.22119103372097015], [0.20400436222553253, -0.21606388688087463, -0.3347362279891968, 0.6103392839431763, 0.2513616681098938, -0.5672408938407898, -0.2238132804632187, 0.6819435358047485, -0.4867790937423706, 0.6489966511726379, -0.4468434154987335, -0.7847407460212708, 0.7385532855987549, -0.7278647422790527, 0.4923713505268097, -0.23000812530517578, 0.3524657189846039, 0.3964294195175171, -0.2438194751739502, -0.23502938449382782, -0.21375243365764618, 0.18238765001296997, 0.3955221474170685, -0.015114068053662777, 0.42345401644706726, 0.4678892493247986, 0.2205512523651123, -0.5698530077934265, 0.6806622743606567, -0.5913102030754089, -0.389126718044281, -0.6930290460586548], [-0.44221317768096924, 0.0991227999329567, 0.1575588583946228, -0.3464055359363556, -0.12330973893404007, 0.3115251362323761, -0.5579896569252014, -0.043430645018815994, -0.6492655873298645, -0.17367060482501984, 0.5188538432121277, 0.2474324107170105, 0.14820994436740875, -0.3133683204650879, 0.16000385582447052, 0.44481801986694336, 0.15399089455604553, -0.04593799263238907, 0.006150320637971163, -0.4047989249229431, -0.08391764014959335, -0.02292962744832039, -0.45454010367393494, 0.46717458963394165, -0.14926691353321075, -0.13115178048610687, -0.18977214395999908, 0.29911747574806213, 0.04557017982006073, 0.440009742975235, 0.35501694679260254, 0.1323973387479782], [-1.0243901014328003, -0.38950616121292114, -0.3679298162460327, -0.22192887961864471, 0.0047391802072525024, 0.5166513919830322, -0.6478121280670166, 0.33247098326683044, -0.1523866355419159, 0.08748746663331985, -0.2601756155490875, 0.20613522827625275, 0.19139035046100616, 0.005672249011695385, 0.10628087818622589, -0.1802610456943512, 0.9697339534759521, 0.20093967020511627, 0.24540548026561737, -0.13712523877620697, -0.4794522225856781, -0.33290451765060425, 0.6724483966827393, 0.295693039894104, 0.4583861529827118, -0.6227734684944153, -0.016974471509456635, 0.17693229019641876, -0.3477824330329895, 0.29624101519584656, 0.6345958709716797, -0.47151127457618713], [-1.0427196025848389, 0.04738543555140495, 0.4857203960418701, -0.7106302976608276, -0.4554664194583893, 0.6133973598480225, -0.702232837677002, 0.4649355709552765, 0.4772808849811554, 1.2031705379486084, 0.16999001801013947, 0.7401421666145325, -0.4609522819519043, -0.07251317799091339, 0.8233608603477478, -0.5844430923461914, 0.13640938699245453, -0.44057995080947876, 0.9344642162322998, -0.569678008556366, -0.29582083225250244, 0.08253659307956696, -0.1979116052389145, 0.3856562376022339, 0.09904182702302933, -0.5990443825721741, -0.4683012068271637, 0.29269543290138245, 0.04473572224378586, -0.1515776365995407, -0.5796577334403992, 0.14689892530441284], [-0.060967642813920975, 0.10576830804347992, -0.13491211831569672, 0.11527901142835617, 0.3272475302219391, 0.5166491866111755, -0.17581722140312195, 0.2838878333568573, -0.7871288061141968, 0.0324351042509079, -0.7755506038665771, 0.44217491149902344, 0.5428382754325867, 0.5786510109901428, -0.2776157557964325, -0.43582597374916077, 0.7546799182891846, -0.28440386056900024, 0.41331833600997925, -0.48496127128601074, -0.38490524888038635, -0.3859432339668274, 0.7782226204872131, 0.4502919316291809, 0.13322298228740692, -0.2058498114347458, 0.2958671748638153, 0.0069306883960962296, -0.0410415455698967, 0.16151630878448486, -0.0274764746427536, -0.7632714509963989], [-0.12645618617534637, 0.01368750911206007, -0.4236873686313629, -0.19102315604686737, 0.5798620581626892, -0.3956839442253113, -0.5866150856018066, 0.3920401632785797, -0.8153224587440491, -0.10411391407251358, -0.818207323551178, -0.20000925660133362, -0.3254489004611969, 0.40000680088996887, 0.25664022564888, 0.14864559471607208, 0.7372334003448486, 0.4667685627937317, 0.3282175362110138, -0.004906239453703165, 0.8435083627700806, -0.07183100283145905, -0.5492833256721497, -0.12538790702819824, 0.007762928027659655, -0.44454577565193176, 0.8743889331817627, 0.49184608459472656, 0.36823487281799316, -0.7936813831329346, -0.49797359108924866, -0.13151124119758606], [-0.04374249652028084, 0.4618609845638275, -0.3394433557987213, 0.04659778252243996, -0.2772899568080902, -0.23582465946674347, -0.09593826532363892, 0.29619312286376953, -0.06074690818786621, 0.14095811545848846, -0.11006277799606323, 0.330473393201828, -0.13458426296710968, -0.2640673518180847, 0.07946108281612396, 0.2824389636516571, -0.04093332216143608, 0.08774169534444809, -0.1385493278503418, 0.17016014456748962, 0.18465343117713928, -0.1994672566652298, 0.04873836785554886, -0.2528492212295532, 0.15903113782405853, 0.10771398991346359, -0.34056171774864197, -0.2928195595741272, -0.28160327672958374, -0.13235794007778168, -0.16520436108112335, 0.26697489619255066], [0.38322681188583374, 0.8552408218383789, -0.09107660502195358, -0.27171677350997925, 0.6394190192222595, 0.1243370771408081, 0.43969884514808655, 0.6323198080062866, 0.34690648317337036, 0.1776018887758255, -0.6756857633590698, -0.55459064245224, -0.6752008199691772, -0.08445774763822556, 1.0303337574005127, -0.025487815961241722, 0.7028120756149292, -0.09544893354177475, 0.6915276050567627, -0.8900137543678284, 0.3933539092540741, 0.11552278697490692, -0.3863726854324341, -0.10993712395429611, 0.10436394810676575, -0.28817370533943176, -0.9686310887336731, -0.3384895920753479, -0.08651858568191528, 0.18457047641277313, -0.3842723071575165, -0.6361908316612244], [-0.14555053412914276, 0.1951163113117218, -0.6395053863525391, -0.22592680156230927, 0.09242518246173859, -0.013815678656101227, -0.7269877195358276, 0.4481339156627655, -0.060831379145383835, 0.18256011605262756, -1.1957539319992065, 0.18046948313713074, -0.32825303077697754, 0.6497705578804016, -0.560433030128479, 0.021629156544804573, -0.170990452170372, 0.5251815319061279, 0.4140477776527405, 0.5049951672554016, -0.7840250730514526, 0.4300183355808258, -0.14895731210708618, 1.062752604484558, 0.6327979564666748, -0.9845718741416931, 0.7981016635894775, 0.0022424261551350355, -0.518155574798584, -0.041766420006752014, 0.4130678176879883, -0.565180242061615], [-0.3020089268684387, 0.5119488835334778, -0.5367988348007202, -0.46311265230178833, 0.1453244686126709, 0.71940016746521, 0.21221096813678741, -0.4069679081439972, 0.6821267604827881, 0.01150351483374834, -0.4303895831108093, 1.0885851383209229, -0.5347543954849243, -0.5155409574508667, 0.9480469822883606, -0.016693422570824623, -0.5637010931968689, 0.4013752341270447, -0.14664512872695923, -0.48471635580062866, 0.6938713788986206, 0.04610993713140488, -0.1336333006620407, 0.2343423217535019, 0.1083754226565361, -0.5403656363487244, -0.7456188201904297, 0.9244046211242676, -0.23303890228271484, 0.07011925429105759, 0.2791827619075775, -0.8323011994361877], [-0.30964159965515137, 0.65187668800354, 0.4423988461494446, 0.44582700729370117, 0.1254611313343048, 0.4303797483444214, -0.5818461775779724, -0.46063899993896484, 0.19369663298130035, 0.17084087431430817, -0.7520161867141724, -0.5149754881858826, 0.2676834464073181, -0.28905656933784485, -0.33878928422927856, 0.0409415140748024, -0.47375059127807617, 0.9374736547470093, 0.6123213171958923, -0.2238524705171585, -0.6785896420478821, 0.4530276656150818, -0.20479081571102142, 0.5161807537078857, 0.26614686846733093, -0.10702286660671234, -0.6180717945098877, 0.13197392225265503, -0.02059890143573284, 0.10246123373508453, 0.29452911019325256, -0.26815882325172424], [0.050859205424785614, -0.4060181975364685, 0.5890548825263977, -0.15718083083629608, 0.8189404010772705, -0.38140255212783813, -0.5439722537994385, 1.0858960151672363, -0.38750290870666504, 0.5329498052597046, -0.6427485942840576, -0.5070294141769409, 0.21215234696865082, 0.5797044634819031, 0.6347059011459351, -0.7416240572929382, -0.26446783542633057, -0.3289073705673218, -0.0743490532040596, 0.1341596096754074, 0.5869830250740051, 0.35506299138069153, -0.47655966877937317, 0.6233855485916138, 0.4420541226863861, -0.38372495770454407, 0.4263770282268524, -0.21361979842185974, 0.11867117881774902, -0.6670041084289551, 0.4575284719467163, 0.5575538873672485], [-0.4965136647224426, -0.4325621426105499, 0.28269004821777344, -0.1740989089012146, -0.3289411664009094, -0.16559624671936035, -0.4504571557044983, 0.36423459649086, -0.68536776304245, -0.15613971650600433, -0.050163500010967255, 0.9048383831977844, 0.6679779887199402, 0.26438915729522705, 0.789982795715332, -0.13993404805660248, 0.39512553811073303, -0.4534553587436676, 0.7918556928634644, -0.3392552435398102, 0.6842654943466187, 0.10239485651254654, -0.5973624587059021, 0.6765466928482056, -0.2328045815229416, 0.25258737802505493, 0.013084149919450283, -0.17719730734825134, 0.20769652724266052, -0.4506355822086334, -0.21131397783756256, -0.02186957374215126], [-0.549886167049408, -0.11348370462656021, -0.2587745189666748, 0.37211644649505615, 0.10605142265558243, 0.5812888145446777, -0.46364957094192505, 0.48284220695495605, 0.41435080766677856, 1.0294609069824219, 0.30398452281951904, 0.2843725085258484, -0.27832862734794617, 0.26005807518959045, 0.5516611337661743, 0.32383623719215393, -0.19162529706954956, 0.6749424934387207, 0.6204990744590759, -0.7558645606040955, -0.578540563583374, -0.08745886385440826, 0.7320486307144165, 0.16245464980602264, -0.27534934878349304, -0.8707547187805176, 0.251618355512619, 0.5730764865875244, -0.6091856360435486, -0.20346350967884064, 0.05455585941672325, -0.4037526547908783], [-0.3636758625507355, -0.2579759955406189, -0.01331004872918129, 0.20823228359222412, -0.6060829758644104, 0.20739325881004333, -0.6606989502906799, 0.7762206792831421, -0.5849928855895996, 0.7863204479217529, -0.6960609555244446, 0.3527317941188812, -0.013484430499374866, 0.5312229990959167, 0.2174086719751358, 0.5752630829811096, 0.4908328652381897, -0.17642834782600403, 0.03920372202992439, -0.49772220849990845, -0.42061707377433777, 0.07524174451828003, -0.42131149768829346, -0.05206591635942459, 0.46865221858024597, 0.010813046246767044, 0.09288925677537918, 0.6743503212928772, 0.19789941608905792, 0.3789736032485962, -0.23378705978393555, -0.6217069029808044], [0.0494186095893383, -0.21686506271362305, 0.6331706643104553, 0.6013304591178894, 0.2059508115053177, 0.007253736723214388, 0.20265306532382965, 0.6550711393356323, -0.8228528499603271, -0.33574238419532776, -1.044987440109253, 0.19430984556674957, -0.4864858090877533, 0.4682340621948242, -0.5041186213493347, 0.4289625883102417, -0.0643424317240715, 0.35713228583335876, -0.0792827382683754, 0.1152404323220253, 0.10537309944629669, -0.02019241452217102, -0.9354569911956787, 0.12501850724220276, 0.09733159840106964, -0.08057821542024612, -0.12927037477493286, 0.5301826596260071, 0.36863672733306885, -0.24231809377670288, -0.13339605927467346, -0.22863318026065826], [-0.10348168760538101, 0.2983101010322571, 0.4300321936607361, -0.4183390736579895, -0.1453457474708557, -0.036362506449222565, -1.1821141242980957, 0.39834123849868774, 0.6352402567863464, 0.08364029228687286, -0.48602429032325745, 0.49893707036972046, -0.22802503407001495, -0.24708101153373718, 0.26721271872520447, -0.25472766160964966, 0.060564640909433365, 1.2973573207855225, -0.11230652034282684, -0.35944780707359314, -0.11847226321697235, -0.5729888081550598, -0.32962197065353394, -0.2662835121154785, 0.9278644323348999, -0.45582348108291626, -0.4822622537612915, 0.4016473591327667, 0.5622227787971497, 0.1513659656047821, -0.2965884506702423, -0.658625602722168], [0.16921527683734894, 0.049139633774757385, -0.20940275490283966, 0.30641254782676697, -0.4139345586299896, 0.33815810084342957, -0.6371586918830872, 0.6470404863357544, 0.28591570258140564, 0.09718506783246994, -0.02857697755098343, 0.7655792236328125, 0.05205428972840309, -0.0032271011732518673, 0.2215784639120102, 0.6397918462753296, -0.13807465136051178, 0.1977367103099823, -0.3647020161151886, 0.16437043249607086, 0.2777012288570404, -0.34868723154067993, 0.33715933561325073, -0.23850759863853455, 0.4042821526527405, 0.15105190873146057, -0.1351078450679779, -0.059616588056087494, -0.33345070481300354, -0.3228622376918793, 0.27801984548568726, 0.26061081886291504], [0.10173383355140686, 0.5583996176719666, -0.3732740879058838, -0.10824528336524963, -0.1010565310716629, 0.10252495855093002, -0.5336287021636963, -0.06894577294588089, -0.7085604667663574, 0.9400720596313477, -0.5322461724281311, 0.47209611535072327, 0.30760374665260315, -0.1301845908164978, 0.6777592897415161, 0.5876847505569458, 0.023355504497885704, 1.1527924537658691, -0.48184841871261597, -0.5801156163215637, -0.16181547939777374, 0.5049883723258972, -0.3090602457523346, -0.13451728224754333, 0.0027931593358516693, -0.7144656181335449, -0.260495126247406, 0.4455689489841461, 0.5194529891014099, -0.9328141212463379, -0.11201868951320648, -0.004742872901260853], [-0.41050177812576294, 0.25389713048934937, -0.22337374091148376, 0.029613394290208817, -0.37856805324554443, -0.3957275152206421, -0.462240070104599, 0.8578926920890808, 0.06869945675134659, -0.6616664528846741, 0.17024356126785278, 0.03581324592232704, -0.3369407653808594, -0.3168241083621979, -0.11327096074819565, -0.10334756225347519, 0.2720756232738495, -0.10572279989719391, 0.9659138321876526, 0.04050981625914574, 0.45306286215782166, 0.6899743676185608, -0.7604503035545349, 0.6519927382469177, -0.8255789875984192, 0.008901781402528286, -0.00998490210622549, 0.9533978700637817, 0.5299651622772217, 0.10512611269950867, -0.4197949469089508, -0.015734931454062462], [-0.35232970118522644, 0.2014824002981186, 0.580963134765625, 0.21794961392879486, -0.13637395203113556, -0.6927221417427063, 0.05866868421435356, 0.9063480496406555, -0.49853891134262085, -0.0758255198597908, 0.26026201248168945, 0.9631292223930359, 0.4990169405937195, 0.1981615573167801, 0.6525816321372986, -0.04360179975628853, 0.3792719841003418, -0.10222960263490677, -0.3328116536140442, -0.4181993007659912, -0.6523333191871643, 0.7734799981117249, -0.973425567150116, -0.22752922773361206, -0.48192092776298523, 0.10343526303768158, -0.09378312528133392, 0.35220175981521606, 0.442242294549942, -0.47723865509033203, -0.28439775109291077, 0.10272973775863647], [-1.4088940620422363, -0.3320331871509552, 0.4488004446029663, 0.35357245802879333, -0.1387668401002884, -0.06131817772984505, -0.5017899870872498, 0.96482914686203, -0.04295889660716057, -0.16728262603282928, -0.1579188108444214, -0.10048923641443253, -0.2360946387052536, 0.6452211737632751, 0.6129360795021057, 0.19079594314098358, 0.0488540418446064, 0.4601065516471863, 0.19153179228305817, -0.2286635935306549, -0.5556075572967529, 0.467861533164978, -0.6614769101142883, -0.40987953543663025, 0.16544435918331146, -0.1109214723110199, -0.0026506888680160046, 0.5832067728042603, 0.07779871672391891, 0.04892941191792488, -0.17847469449043274, 0.13159877061843872], [-0.16019366681575775, -0.909183144569397, 0.633947491645813, 0.3807196319103241, 0.9039618372917175, -0.5714731216430664, -0.902505099773407, 0.8400733470916748, -0.45393458008766174, -0.08653891086578369, -0.4251854717731476, 0.5437721610069275, 0.20808032155036926, 0.843841552734375, -0.379876047372818, 0.47253990173339844, 0.3507237732410431, 0.33881431818008423, 0.22846682369709015, -0.2789347469806671, 0.2617875337600708, 0.01946769282221794, -0.02929871343076229, -0.41901931166648865, -0.6644895076751709, 0.035300690680742264, 0.2557811737060547, 0.5467382669448853, -0.8331348299980164, -0.6468517184257507, -0.017229115590453148, -0.024574987590312958], [0.40115296840667725, 0.6287776231765747, -0.42845362424850464, -0.18448090553283691, 0.4257124960422516, -0.5617276430130005, 0.329342782497406, 0.07663190364837646, -0.47411367297172546, 0.6015515327453613, 0.30598533153533936, 0.060563553124666214, -0.050889752805233, 0.16426171362400055, -0.2079285979270935, 0.3984098434448242, -0.4888867735862732, 1.1083344221115112, 0.48485109210014343, -0.9165592193603516, -0.2997060716152191, 0.4879212975502014, 0.009111576713621616, 0.05585023760795593, -0.16988706588745117, 0.20825543999671936, -0.5222324132919312, 0.5613150596618652, -0.08988150209188461, -0.6968220472335815, -0.06870048493146896, -0.05222368240356445], [0.13454097509384155, -0.48413118720054626, -0.6907864212989807, 0.2572025656700134, 0.46622931957244873, -0.6219375729560852, 0.34473541378974915, 0.45539677143096924, -0.13541625440120697, 0.20585212111473083, -0.78053218126297, 0.796525776386261, 0.0856349989771843, 0.6266739964485168, 0.6955520510673523, 0.23431482911109924, 0.6554244756698608, -0.29656365513801575, -0.37417474389076233, -0.7269169688224792, -0.5874001383781433, 0.8508684635162354, -0.25528353452682495, 0.9997339844703674, 0.4441378712654114, 0.09744449704885483, -0.19290614128112793, 0.1674911230802536, -1.0067955255508423, -0.5851262807846069, 0.5018475651741028, -0.035391665995121], [-0.182747021317482, 0.30633699893951416, -0.15680940449237823, 0.4674263596534729, -0.6485819220542908, 0.4737411439418793, 0.05168485641479492, 0.48937031626701355, -0.3746827244758606, -0.15408803522586823, -0.3841739892959595, 0.4764411747455597, 0.8715751767158508, -0.20891836285591125, -0.7564259767532349, 0.06344595551490784, 0.04314916208386421, 0.742145299911499, 0.01990286447107792, -0.4419409930706024, -0.6933462023735046, 0.6345871686935425, -0.3223111629486084, 0.3660946488380432, -0.8075351715087891, -0.36736762523651123, -0.5698866248130798, 0.6033104658126831, 0.1641460657119751, -0.8830019235610962, -0.2574382722377777, 0.21785514056682587], [-0.33111220598220825, 0.6120536923408508, -0.09770611673593521, 0.25178420543670654, -0.31394827365875244, -0.16990254819393158, 0.2043236345052719, 0.7134552597999573, -0.058526717126369476, 0.11746761202812195, -0.3319108188152313, 0.19338884949684143, 0.11180343478918076, -0.07478200644254684, 0.42793580889701843, 0.32230639457702637, 0.15287578105926514, 0.07844281941652298, -0.5051490068435669, 0.17365476489067078, 0.13458795845508575, -0.36256542801856995, 0.22672758996486664, -0.40911349654197693, 0.33976128697395325, 0.06852475553750992, -0.22513864934444427, -0.3224785327911377, -0.32685190439224243, 0.49607816338539124, 0.4001966416835785, 0.1676739603281021], [0.11314408481121063, 0.1597367376089096, 0.7162805199623108, 0.07816987484693527, -0.04052314534783363, -0.6323095560073853, -0.7299948334693909, 0.3356151580810547, -0.056851230561733246, 1.2034096717834473, -0.2563656270503998, 0.7908539772033691, -0.08834622800350189, 0.1482057273387909, -0.05889555811882019, -0.3196052610874176, -0.11666673421859741, 0.9069162011146545, 0.1986245959997177, -0.4497196078300476, -0.1293330192565918, -0.05172256380319595, 0.4731396734714508, -0.4976060688495636, -0.4892132580280304, -0.5388855934143066, 0.15156491100788116, -0.5385972261428833, 0.4386465549468994, -0.9485442638397217, 0.328381210565567, 0.04798547178506851], [0.24327781796455383, 0.251448392868042, 0.4185728430747986, 0.29656586050987244, 0.4560195505619049, 0.3714405298233032, -0.278691828250885, -0.07059471309185028, -0.5117761492729187, 0.6701757311820984, 0.03118942305445671, -0.06405998766422272, -0.17726992070674896, -0.26719826459884644, -0.41613638401031494, 0.47748690843582153, -0.32291287183761597, -0.2247544527053833, -0.002148653846234083, 0.1270093321800232, -0.6581615805625916, -0.2942383587360382, -0.4754665791988373, 0.27315786480903625, -0.26634055376052856, 0.08284126222133636, 0.06922618299722672, -0.22023721039295197, -0.04332723468542099, 0.1618073284626007, 0.0786118134856224, -0.06696046888828278], [0.0015062789898365736, 0.5983911156654358, 0.32464170455932617, 0.008401764556765556, 0.06771068274974823, 0.1974157989025116, -0.2484370917081833, 0.04927435517311096, -0.3961315155029297, 0.3819126486778259, 0.02968740463256836, -0.18804024159908295, -0.48495420813560486, -0.407258003950119, -0.12919092178344727, 0.6329216361045837, -0.4174010455608368, -0.06647545099258423, -0.2283460795879364, 0.3329426646232605, -0.041011396795511246, -0.15298165380954742, -0.42459532618522644, 0.052026379853487015, -0.25723087787628174, 0.4679643213748932, 0.5119211673736572, -0.6221701502799988, -0.31491315364837646, -0.2020866870880127, 0.3439933657646179, 0.33219417929649353], [-0.05641552433371544, -0.37185198068618774, -0.09291421622037888, -0.3243759870529175, -0.3607798218727112, -0.6049876809120178, 0.4325357973575592, 0.7480254173278809, 0.11037550121545792, 0.8399630188941956, -0.9992841482162476, 0.5544361472129822, 0.5606558918952942, 0.2530750334262848, 0.4479884207248688, -0.5542039275169373, -0.5767990350723267, 0.21050918102264404, 0.010729372501373291, 0.7233366370201111, -0.10358215868473053, 0.5204814672470093, -0.6147652268409729, -0.34063825011253357, -0.9054186344146729, -0.7282543778419495, -0.1800387054681778, 0.5643029808998108, 0.8973938822746277, -0.6704587340354919, -0.04775102064013481, 0.4461717903614044], [-0.9612038135528564, 0.5554493069648743, -0.679559051990509, -0.21223317086696625, 0.27761486172676086, 0.03254276141524315, -0.394898384809494, 0.4789772033691406, 0.11795555055141449, -0.21321451663970947, -0.9228940010070801, 0.2641163170337677, -0.10183732211589813, 0.6003827452659607, 0.8122449517250061, -0.19350340962409973, -0.601655900478363, 0.5897766351699829, 0.49278488755226135, 0.3642265498638153, -0.10510624200105667, -0.3563738465309143, -0.4697555899620056, 0.0712585374712944, 0.2807696461677551, -0.5589088201522827, -0.45013099908828735, 0.5539829730987549, -0.015030569396913052, 0.32964345812797546, -0.07512999325990677, -0.28385940194129944], [-0.05805066600441933, 0.46649402379989624, 0.5445653200149536, 0.05152567848563194, 0.1284911185503006, 0.19150826334953308, -0.002148436149582267, 0.3440140187740326, 0.26738935708999634, 0.09851270914077759, -0.5307658910751343, 0.7804227471351624, -0.2204291820526123, 0.3967658281326294, 0.4649668335914612, -0.38659077882766724, -0.38436099886894226, 0.7311283349990845, -0.19743776321411133, -0.5089185833930969, 0.051523081958293915, 0.08878298848867416, -0.9804296493530273, 0.026086580008268356, -0.3164669871330261, -0.3305956721305847, -0.8227169513702393, 0.40459689497947693, -0.052346136420965195, 0.42858752608299255, -0.6064987778663635, 0.26769524812698364], [-0.41324034333229065, 0.11816152185201645, 0.4613049328327179, -0.4209209382534027, 0.057972170412540436, -0.3427535593509674, -0.6251925230026245, 0.6509658694267273, -0.06443551182746887, -0.27359673380851746, -0.9771260023117065, 0.5863871574401855, 0.5816094279289246, 0.8897363543510437, -0.7366306781768799, -0.221796914935112, 0.7076951265335083, 0.33133426308631897, -0.19481535255908966, 0.6758757829666138, 0.11620155721902847, -0.33242881298065186, -0.3017086386680603, -0.39795809984207153, -0.34043803811073303, 0.0001648484030738473, -0.23535631597042084, -0.04612355679273605, 0.6536308526992798, -0.43295523524284363, 0.13583703339099884, -0.338767409324646], [0.1921834945678711, -0.1376265436410904, 0.03338714689016342, -0.32988178730010986, 0.21241164207458496, 0.04911313205957413, -0.4090769290924072, -0.2793273329734802, -0.11986466497182846, -0.10691457986831665, -0.29272395372390747, -0.07462391257286072, 0.36465397477149963, 0.498771071434021, 0.40213122963905334, 0.3625500202178955, -0.09869205206632614, -0.2580477297306061, -0.18313802778720856, -0.3437289893627167, -0.38258954882621765, 0.2654931843280792, -0.0763172060251236, -0.285152792930603, -0.3343227803707123, 0.2709057629108429, -0.14864154160022736, 0.1792328804731369, 0.2119418829679489, 0.255873441696167, 0.21063898503780365, 0.0770234614610672], [-0.61257004737854, -0.048841431736946106, -0.03800106793642044, 0.5031758546829224, 0.23388995230197906, -0.5697871446609497, -0.4698156416416168, 0.03955651447176933, -0.16816018521785736, -0.14784997701644897, 0.40665096044540405, 0.06922756880521774, -0.2470119148492813, -0.03414357453584671, 0.9142264127731323, 0.41449737548828125, 0.5338849425315857, 0.732570230960846, 0.7842327356338501, -0.7178589105606079, 0.006112625822424889, -0.33514469861984253, 0.33028507232666016, 0.8124762177467346, 0.24382908642292023, -0.7940019369125366, 0.06315384805202484, 0.15220969915390015, -0.27983736991882324, 0.24616728723049164, 0.22055044770240784, -0.8643062710762024], [-0.8449333906173706, 0.2736392915248871, 0.1385246366262436, 0.250605046749115, 0.6004894375801086, 0.027414720505475998, -0.33110758662223816, 1.2391492128372192, -0.5836806893348694, -0.29714107513427734, -0.29717373847961426, 0.5864407420158386, -0.3319084644317627, 0.678363561630249, 0.699187159538269, -0.27873629331588745, 0.17317461967468262, -0.21707576513290405, -0.24863575398921967, -0.531397819519043, 0.7876946330070496, 0.33588701486587524, -0.7246033549308777, 0.7093133926391602, -0.07407000660896301, 0.13092546164989471, -0.3316720128059387, 0.7927770614624023, 0.3107055127620697, -0.6929254531860352, -0.18601922690868378, -0.3657758831977844], [-0.5991494059562683, -0.23267263174057007, -0.02044636383652687, 0.5384451746940613, 0.47329890727996826, -0.45420628786087036, -0.26312610507011414, 1.0047236680984497, -0.05266036465764046, 0.7802647352218628, -0.8131886720657349, -0.13065357506275177, 0.05441727861762047, 0.890481173992157, -0.23860837519168854, -0.5524903535842896, 0.26864510774612427, 0.09819713234901428, -0.23988719284534454, 0.702259361743927, 0.3495325446128845, -0.30715686082839966, -0.8561974167823792, 0.3755902051925659, -0.20005087554454803, 0.5833572149276733, -0.1342090368270874, -0.3289550244808197, -0.20830567181110382, -0.08975819498300552, -0.0966094583272934, -0.6401267647743225], [0.013850764371454716, 0.3735422194004059, -0.04323083534836769, -0.3949006497859955, 0.002012542448937893, 0.351598858833313, -0.12205009907484055, -0.19840744137763977, 0.31861603260040283, -0.3002736568450928, -0.5343213081359863, 0.20198053121566772, -0.12037912011146545, -0.24916008114814758, -0.41512036323547363, -0.763634443283081, 0.6472127437591553, -0.11215310543775558, -0.2483108788728714, -0.28746461868286133, 0.05779184401035309, -0.06498922407627106, 0.41000139713287354, 0.5135031342506409, 0.04457440599799156, 0.04976130276918411, -0.2937135100364685, 0.1829887479543686, 0.15953855216503143, 0.042665328830480576, -0.47599273920059204, 0.2292768806219101], [-0.5245392322540283, 0.12788325548171997, -0.241631880402565, -0.7399012446403503, 0.5243732333183289, 0.36779260635375977, 0.12461631000041962, -0.656595766544342, 0.029601307585835457, 1.5480930805206299, -1.3228144645690918, 0.23938967287540436, -0.5171483755111694, 0.19000568985939026, 0.17771928012371063, -0.40229588747024536, -0.17696595191955566, 