{"tok_emb.weight": [[0.0978645607829094, -0.2185611128807068, 0.026609918102622032, -0.6511805653572083, 0.25373467803001404, 0.4230952560901642, -0.3435789942741394, -0.02914470061659813, 0.5826573371887207, -1.0726344585418701, 0.4191857874393463, -0.9269459843635559, 1.0143749713897705, 1.5641227960586548, 0.5376958250999451, -0.02994076907634735, -0.18775315582752228, -0.8507233262062073, -0.032391492277383804, 1.0637354850769043, 1.0828039646148682, 1.0636451244354248, 1.1169074773788452, -0.2697417438030243, 0.20794159173965454, -2.4724373817443848, 0.7363900542259216, -0.6625767946243286, -0.6278601884841919, 0.2445680946111679, -0.39874017238616943, -2.022739887237549], [-0.8880680799484253, 0.11959388852119446, -1.4301739931106567, 0.7053554654121399, -0.26038557291030884, -0.6262561082839966, -0.334557443857193, -0.7283423542976379, 0.5901947617530823, 1.0416940450668335, 0.4199969470500946, -0.11762242764234543, 0.06587589532136917, -0.06267451494932175, 0.1784336417913437, -0.3921273350715637, 0.5877109169960022, 1.0872621536254883, -0.9906084537506104, 0.7594789862632751, -0.817914605140686, 0.8806264400482178, 0.7059869766235352, 0.09303587675094604, 1.506300687789917, -0.5386471152305603, -0.18823808431625366, 0.5158849954605103, -0.44207775592803955, -0.5348197817802429, 0.12321501225233078, 0.15372291207313538], [0.3449362814426422, 0.6660823822021484, -0.17341916263103485, -0.7255929708480835, -0.029747571796178818, 1.0882076025009155, -1.5569320917129517, 0.7291315197944641, 0.4501175582408905, 0.46468955278396606, -0.6358943581581116, -0.051279887557029724, -0.10230910032987595, 0.07824718952178955, 0.29509007930755615, -0.9695656895637512, 0.17111286520957947, -0.3683946132659912, 0.6730946898460388, 0.5544618964195251, -0.2646254897117615, 0.3279106020927429, -0.14532263576984406, -1.1710585355758667, -1.0741009712219238, -0.7214608192443848, 0.6053462624549866, -0.48382455110549927, -0.39886224269866943, -0.47670239210128784, 0.41754987835884094, -0.9201910495758057], [-1.4846234321594238, -0.8842836618423462, -1.4018518924713135, 0.6453632712364197, -0.021355384960770607, -0.32102566957473755, 0.5139631628990173, 0.018410898745059967, 1.3357640504837036, 0.9188272356987, -0.3357127010822296, -0.18718835711479187, -1.3826287984848022, 0.0042726038955152035, -0.6632611751556396, 0.470262348651886, -0.6304001808166504, -0.31372547149658203, 0.6918456554412842, -0.18968509137630463, 0.3302735984325409, -0.00943605974316597, -0.18409597873687744, -0.512141764163971, 0.9360775947570801, -0.6668514609336853, -0.001060501323081553, 0.8358762860298157, -0.05168026685714722, 0.8561772704124451, -0.9783342480659485, -1.447448968887329], [-0.02398265339434147, -2.110416889190674, -0.6569318771362305, -1.0807839632034302, -0.9862851500511169, 0.17842164635658264, -0.4887443780899048, 0.8167226910591125, -1.3650543689727783, 0.08239033073186874, -0.3264506161212921, 1.2297749519348145, -0.009845261462032795, 0.7532703280448914, -0.9369708895683289, -0.34172189235687256, -1.2209357023239136, 0.5187555551528931, -0.4829353988170624, 1.2791509628295898, 0.6494916081428528, -0.37191179394721985, 0.819091796875, 0.05873560905456543, 0.15541259944438934, -0.3151409924030304, -0.7390708327293396, -0.8122015595436096, 0.23076938092708588, 0.3295896649360657, 0.2630015015602112, -0.8083099126815796], [0.2179606556892395, 1.7216557264328003, -0.09618215262889862, 1.2973461151123047, -3.37388014793396, -1.3632049560546875, -0.03263281285762787, 0.6183328628540039, -1.0173749923706055, -1.4389469623565674, -0.6118500232696533, 1.1907166242599487, -0.1995764821767807, -0.543587863445282, 1.1355186700820923, 2.0243136882781982, -0.13676275312900543, -0.3716273009777069, 0.4358111321926117, 0.3069661557674408, 0.7404487729072571, 0.971710741519928, 1.211595892906189, -0.04035601392388344, -0.4245768189430237, 0.5100671052932739, 1.606449007987976, -1.2960515022277832, -1.1189192533493042, 0.5507201552391052, 0.7031668424606323, 0.22678299248218536], [-0.41268980503082275, -1.9089752435684204, 0.21644695103168488, -0.9710414409637451, 1.3233721256256104, -0.28402772545814514, -1.9234737157821655, -1.1558802127838135, 0.9490705132484436, -0.5190984010696411, -0.7997292280197144, 0.7829151153564453, 0.8405304551124573, 0.08987302333116531, -0.6885727047920227, 0.13153523206710815, -0.19801485538482666, 0.15623101592063904, -0.661668062210083, -0.7366240620613098, 1.0805846452713013, 0.0981491431593895, 0.029502740129828453, -0.5842508673667908, -0.9359945058822632, 2.286299467086792, -0.10814471542835236, -0.6050944924354553, 0.6336613297462463, 0.6567566990852356, -1.0723093748092651, 0.7634714841842651], [1.2166926860809326, -0.4255278408527374, -0.771864116191864, 0.06977169960737228, -0.07025434076786041, -0.97658371925354, 0.4203329384326935, 0.5066096782684326, 1.1494128704071045, -0.32636475563049316, -0.7576836943626404, 0.7299649119377136, -1.3685376644134521, 0.5150197744369507, 0.16710467636585236, -1.3750183582305908, 0.47607141733169556, -0.4737851619720459, 0.13018247485160828, 0.07282648980617523, 1.5741488933563232, 1.9806504249572754, -0.28618714213371277, -0.33293548226356506, -0.5490974187850952, -0.4505319893360138, -0.7154169082641602, 0.8285380601882935, -1.0899980068206787, 1.7315146923065186, 0.2912295460700989, -0.16275334358215332], [0.8497039675712585, 1.0639439821243286, 0.026944121345877647, -3.12886643409729, 1.1024138927459717, -0.6461172699928284, -1.128056526184082, -0.3504261374473572, -1.6068862676620483, -1.0883580446243286, -1.9167943000793457, 1.4398424625396729, -0.5504457950592041, 0.26610106229782104, 0.7838383316993713, -1.5174965858459473, 0.598122775554657, 0.02387375198304653, 1.1890029907226562, 1.2130095958709717, -0.3274506628513336, 0.4352993667125702, -0.22723069787025452, 0.6320177912712097, -0.5286058187484741, 0.09127382934093475, -0.10969126969575882, 0.6351462006568909, -0.9859615564346313, -0.17174139618873596, -0.40658822655677795, -0.4405182898044586], [-0.7009768486022949, -1.058045506477356, 1.1737536191940308, -0.5553712248802185, -1.6537500619888306, 0.15991003811359406, 0.7444494366645813, -0.9548138976097107, -0.3842577040195465, -0.1594424694776535, -1.8869611024856567, -1.4629396200180054, 0.6649080514907837, -0.33054986596107483, -0.6951370239257812, -1.2815337181091309, 0.41839733719825745, 1.6102991104125977, -0.9553079009056091, 0.015379338525235653, 0.17563532292842865, 0.04991171881556511, 0.29487621784210205, -0.8386700749397278, 0.6734282970428467, 0.23534780740737915, 1.2252317667007446, 0.41776806116104126, 0.6072404384613037, 1.2532050609588623, -1.053443193435669, 1.3438917398452759], [0.043469175696372986, -0.36686089634895325, -1.5377552509307861, 0.3599626123905182, -0.3554193675518036, -0.39335042238235474, -1.1091301441192627, -0.6380652785301208, 0.4408898651599884, 0.6939871907234192, -0.21103855967521667, 1.9792696237564087, 1.9175914525985718, -0.6673514246940613, 1.1032201051712036, 0.020872075110673904, 0.10708936303853989, -0.232627734541893, -0.5580960512161255, -0.18874798715114594, 0.1775713413953781, -0.35634705424308777, 0.12551969289779663, -0.3399549722671509, -0.6849899291992188, -0.2697460651397705, 1.4894917011260986, -1.5882917642593384, -0.14889585971832275, -0.8492136001586914, 0.32902291417121887, 0.31192901730537415], [1.6988459825515747, 0.0802641287446022, -0.13324959576129913, -1.3976243734359741, -0.2780059278011322, 1.6457411050796509, 0.13747982680797577, 0.8329085111618042, -0.9451472759246826, -0.9503424167633057, 1.2482831478118896, -0.8677532076835632, -0.45707517862319946, -1.5492258071899414, -0.8713179230690002, -0.5738211274147034, -1.3141865730285645, 0.11196527630090714, 1.3249247074127197, -0.5731043219566345, 0.08930277079343796, 0.4207964241504669, 0.6604089140892029, -0.616950511932373, -0.3927936851978302, 0.12051646411418915, 0.4389309585094452, -0.22657209634780884, -1.6114598512649536, -0.7082769274711609, -0.17962414026260376, -0.4626387655735016], [-1.33919358253479, -1.648046612739563, -0.45717504620552063, 0.5867612361907959, 1.1622334718704224, -0.029964638873934746, -0.23219598829746246, 0.3938857913017273, 0.13031913340091705, 0.41588523983955383, -0.7681413888931274, -0.6052849888801575, 1.605326771736145, -0.705037534236908, 1.3336764574050903, -0.18094998598098755, 1.7085912227630615, 0.2832706570625305, 0.12268868833780289, -0.4995145797729492, -0.2144702672958374, 0.09448093175888062, 0.5200188159942627, 0.7076075077056885, 0.10904709994792938, -0.14991961419582367, -0.5978525876998901, -0.8780184984207153, 1.1364877223968506, -0.6688039898872375, 2.740922689437866, 0.17911376059055328], [0.4805048704147339, 0.5923036932945251, -0.2620128095149994, 0.9287187457084656, -2.0519120693206787, -0.1505386233329773, 0.17554178833961487, 0.7089774012565613, 0.4054814875125885, 0.6720189452171326, 0.39520102739334106, -0.021152229979634285, 0.06990725547075272, 0.2146906703710556, 1.8569821119308472, 0.2231379896402359, 0.015110891312360764, 0.8465623259544373, 0.4245116710662842, 0.5803159475326538, -1.0959105491638184, -0.05635323375463486, 0.5197859406471252, -0.29689377546310425, -0.5364024043083191, -0.309986412525177, 1.3133149147033691, -1.1258087158203125, 0.5433815717697144, 0.151215061545372, -2.126067638397217, 0.9991470575332642], [-0.2288515716791153, 1.1652380228042603, 0.38569241762161255, 0.2554037272930145, 0.8567240834236145, 0.4840129017829895, -1.257779598236084, 0.22761483490467072, 0.6482293009757996, -0.8201091289520264, 0.2156679779291153, 0.23343545198440552, -1.1848573684692383, 0.5448526740074158, -0.038728922605514526, 1.3630650043487549, -0.9524844288825989, 0.41765907406806946, 1.2684118747711182, 2.4131741523742676, -0.2745763659477234, 0.72113037109375, -0.2436247020959854, 0.28121525049209595, 2.46943736076355, 0.42235371470451355, -0.07242542505264282, -0.1171121746301651, -0.2890591025352478, 2.0481765270233154, 0.09220633655786514, -0.7494181990623474], [-0.08140365034341812, 0.22323110699653625, 0.6357914209365845, -0.9362244606018066, 0.4979856312274933, 0.2298486828804016, 0.5847127437591553, -0.681721031665802, -1.0454717874526978, 0.16037555038928986, -0.17009218037128448, 1.1500638723373413, -0.11438050121068954, 0.14871031045913696, -0.2124355137348175, 1.2476024627685547, 0.6407904028892517, -0.3186352849006653, 0.35954031348228455, 0.07873532921075821, 1.157900094985962, 0.11990740150213242, -0.3801223933696747, -0.42999523878097534, 0.12200875580310822, 0.6554560661315918, -0.11939125508069992, -0.5081950426101685, 0.40109002590179443, -0.6097769737243652, -0.6133580207824707, 0.5415263772010803], [-1.5197409391403198, -0.09175889194011688, 0.791081428527832, -0.6091155409812927, 0.5598868727684021, 1.2529528141021729, -0.2134425789117813, -0.353991836309433, -0.4708981215953827, 0.20478031039237976, 1.2004632949829102, 0.23345382511615753, 0.8116361498832703, -0.4197562634944916, -0.5307088494300842, 0.2153777778148651, 2.0323894023895264, -0.8789576888084412, -1.4631927013397217, -1.240269422531128, 2.041738986968994, -0.5716996192932129, 0.3224606215953827, 0.6180452108383179, -0.3935902416706085, -0.7827860116958618, 0.16686274111270905, -0.9402758479118347, 0.8767095804214478, -0.7666524648666382, -1.6180901527404785, -0.12238597124814987], [1.2131656408309937, 0.38174936175346375, 1.8743230104446411, 0.4689846634864807, -0.1979353278875351, 0.05963222682476044, 0.6350515484809875, -0.15799112617969513, -0.20662954449653625, -0.4645143747329712, 0.6020336151123047, -0.4307646155357361, -1.5501189231872559, -1.4517234563827515, -1.773007869720459, -0.6800724864006042, 0.7843446135520935, 1.304508924484253, 0.0367269292473793, -0.67580646276474, -0.29490289092063904, 0.24210461974143982, 1.678265929222107, -2.644047975540161, -0.9406327605247498, -1.5804619789123535, 0.4224010705947876, 0.02667153999209404, -0.41741350293159485, 1.0230249166488647, 1.1257293224334717, -1.2217751741409302], [1.388258695602417, -0.7693707942962646, 0.10286984592676163, 1.1884819269180298, 0.6801117658615112, -1.1983003616333008, -0.8206711411476135, -0.9070731997489929, 0.677991509437561, -0.4396812915802002, 0.2867376506328583, 0.17860157787799835, 0.12598086893558502, 1.351777195930481, -1.126587986946106, -0.42845797538757324, -0.07948178797960281, 0.8261057734489441, -2.0196852684020996, 0.24483147263526917, 1.380573034286499, -0.2797428071498871, -0.027648359537124634, 0.7273387312889099, 1.4508754014968872, 1.101840615272522, -0.26596805453300476, -0.3074438273906708, -0.7790051102638245, 0.07969808578491211, -2.0536820888519287, -1.6345062255859375], [-1.7250213623046875, 0.8219073414802551, 0.16728715598583221, -0.2755392789840698, -0.47293347120285034, 2.2588868141174316, 0.8209688663482666, -0.19206514954566956, 0.25585252046585083, -0.5854979157447815, -0.1324990689754486, -0.3229331970214844, -0.5469186305999756, -0.2283073216676712, 0.5092593431472778, -0.02045474573969841, -0.45007097721099854, -0.05771268904209137, 0.029002077877521515, -0.22448121011257172, -0.9465789794921875, 0.7355130314826965, 0.5145330429077148, -1.512369990348816, -0.2655109465122223, 1.3530086278915405, -1.0264889001846313, -0.45323416590690613, 2.5185465812683105, -0.9360318779945374, 1.2418663501739502, -0.525434136390686], [-0.03910086676478386, 1.2082600593566895, -0.15306276082992554, 0.2170584350824356, -0.13068599998950958, -1.4417482614517212, -0.671879231929779, 0.6307916045188904, 0.17253194749355316, -0.23868192732334137, 0.322618693113327, 0.6375711560249329, 0.3042328953742981, 0.17218169569969177, 1.202109456062317, 0.6473729014396667, -0.5294830203056335, -1.106243371963501, 0.5637387633323669, 0.24402649700641632, 1.1345776319503784, -0.8708537220954895, -1.1346960067749023, -0.7492198944091797, -0.9982460141181946, 0.06218033283948898, -0.37973880767822266, -0.41690629720687866, -0.06375721842050552, -1.3942347764968872, -0.561767041683197, 1.3464244604110718], [0.0504804328083992, -0.002975247800350189, -1.1482927799224854, 0.2877246141433716, -0.016773603856563568, 1.4293965101242065, 0.7158384919166565, -0.8897313475608826, 1.183031439781189, 1.6673691272735596, -0.6158605813980103, -0.6578231453895569, 0.6862379312515259, 1.884360909461975, 0.14959345757961273, 0.44716858863830566, -0.30103734135627747, -0.936606228351593, -0.44687530398368835, 0.46910637617111206, 0.01940537430346012, -0.24476201832294464, -1.3586896657943726, -0.8995398879051208, -0.3314681053161621, 0.2145995795726776, -0.5675935745239258, 0.044061459600925446, 0.3345821797847748, -0.12165915966033936, -0.7250270247459412, -0.04943061247467995], [0.43067240715026855, -1.9100357294082642, -1.1617099046707153, -0.01436782069504261, 0.4093419313430786, -1.2971398830413818, -0.3172132670879364, -0.47702404856681824, 0.4394451081752777, -0.8214611411094666, -0.5496866106987, -0.293379008769989, 0.7702686190605164, -0.4547022879123688, 0.2483341097831726, 0.44799190759658813, 0.9656220078468323, 0.2135516107082367, 2.105708599090576, -0.6778578162193298, 0.38878461718559265, -0.07505008578300476, 0.06428588926792145, 0.1381128430366516, 0.5622232556343079, 1.1369144916534424, -1.0604416131973267, -0.6640391945838928, 0.20753704011440277, -0.3113615810871124, -0.7574934959411621, 0.5532703995704651], [0.5641040205955505, 0.3742363452911377, -0.06588099151849747, -0.34206074476242065, -0.2332022339105606, -0.7479209899902344, -1.1895594596862793, 0.6781967878341675, 0.2923634648323059, -0.8323326706886292, -0.40097540616989136, 0.6255303621292114, -0.06633884459733963, 0.8295215964317322, 1.865455985069275, -0.6434864401817322, 0.6322720646858215, 0.4030578136444092, 0.6307018399238586, 0.7123928070068359, -0.6962061524391174, 0.31561514735221863, 1.0831871032714844, -1.8634189367294312, 0.29707667231559753, -0.6500810980796814, 0.986081063747406, -0.10476604849100113, 0.15578392148017883, 0.39730969071388245, -1.6458660364151, 0.731261670589447], [0.16323000192642212, 0.7198293805122375, -0.6408817172050476, 1.5679205656051636, -0.3726448118686676, 0.4797656536102295, 0.2257235050201416, 0.5874921083450317, 0.2761193513870239, -1.1793409585952759, 0.21536557376384735, -0.7669768929481506, 0.39769110083580017, 1.0063332319259644, -0.6012821197509766, -1.0092312097549438, 1.1173096895217896, -0.665279746055603, 0.6909724473953247, 0.473105788230896, 1.467740774154663, -0.11223456263542175, -0.3849465548992157, -0.24046985805034637, -0.128438800573349, 0.3613967001438141, -1.450517177581787, 0.4987233281135559, -0.05258675664663315, -0.6816940307617188, -0.7111914753913879, -0.3262607157230377], [1.2582042217254639, -0.819641649723053, 0.931208074092865, 0.23069985210895538, 2.1285674571990967, 0.7834197878837585, -0.06320273876190186, -0.4931238889694214, -1.2031253576278687, 0.1322660893201828, 0.36627838015556335, 0.9240282773971558, 0.3304183781147003, -1.4859588146209717, -0.9732582569122314, 0.43834638595581055, -1.5826305150985718, -0.9778395295143127, 0.3175555169582367, 1.265660285949707, -0.28408271074295044, -0.7638493776321411, 0.4670271873474121, 1.2242462635040283, -0.32333818078041077, 0.9738369584083557, -0.6861953139305115, 0.7543593049049377, -0.04936810955405235, -0.07046323269605637, -0.6945562958717346, 0.8055587410926819], [-2.0190203189849854, 1.0337848663330078, -0.3790075182914734, 1.151394009590149, -0.00872025266289711, 1.1113847494125366, 1.4558420181274414, 0.9148304462432861, 1.5336709022521973, -1.2112878561019897, -0.9230926036834717, -1.3459603786468506, 0.11200480163097382, -0.3331042528152466, -0.27420565485954285, -0.4843066930770874, 1.0309807062149048, -1.406028151512146, 1.5409061908721924, -0.3795209228992462, 1.732506513595581, -0.37649011611938477, 0.6916264891624451, -0.41993337869644165, -0.7820255756378174, -0.12429863959550858, -1.0298550128936768, 0.6706115007400513, 0.2587090730667114, -0.18889610469341278, 0.402144193649292, -2.004739761352539], [-0.08968207240104675, -0.6589961051940918, -0.6768496036529541, 1.139250636100769, 0.8922686576843262, -0.3819293975830078, 0.3314950466156006, 1.6051536798477173, 0.7151183485984802, 0.7214375734329224, 0.7105628252029419, 0.3079735040664673, 0.34960684180259705, 0.0949283167719841, 0.38390782475471497, 1.9051357507705688, 0.009201551787555218, -1.4701793193817139, 1.0148826837539673, 0.5922502875328064, -1.01166570186615, -0.19938361644744873, 0.1972639411687851, -0.15632915496826172, 0.8869056105613708, -1.5618464946746826, 0.4655908942222595, -0.7542016506195068, 0.5044902563095093, -1.1791620254516602, -1.4174754619598389, -0.19895566999912262], [0.38005903363227844, -0.277047336101532, -1.7260693311691284, -0.1848960518836975, -1.3579685688018799, 0.6501299738883972, 0.15703772008419037, 1.8354116678237915, -0.502234160900116, 0.7371042966842651, 0.6070764064788818, 0.3218784034252167, 0.733836829662323, 1.0218063592910767, -0.38104137778282166, 0.6240604519844055, -1.0981403589248657, 0.5669469833374023, -0.7932885885238647, 1.735429286956787, 1.575228214263916, 0.09235649555921555, 0.24302707612514496, -0.3478878438472748, -0.7886549234390259, 0.0913960263133049, -1.010560154914856, 0.5676172971725464, -0.2377847582101822, 1.7400486469268799, 0.11901909112930298, -0.630796492099762], [-1.013515591621399, -1.2351373434066772, 0.11049424856901169, -0.2568974196910858, 0.6642164587974548, 0.26925045251846313, -0.11377708613872528, 0.4564599096775055, 1.5153337717056274, -0.4111555814743042, -1.7567765712738037, 0.7566171288490295, 0.7291178107261658, 0.07221894711256027, 0.6137741208076477, -1.367631435394287, 0.05076712369918823, -0.38605159521102905, -0.10402429848909378, 0.9645776152610779, 0.16980424523353577, -0.10897409915924072, 0.8671899437904358, 0.279100239276886, -0.04464899003505707, 1.0784662961959839, -0.4412141442298889, 1.1529287099838257, -1.074684739112854, -0.47895634174346924, 0.5400846004486084, -1.6650707721710205], [-0.32695499062538147, -0.5173871517181396, -1.1736130714416504, 2.6425116062164307, -0.7502754330635071, 1.350928783416748, -0.1511143445968628, -0.9531853199005127, 2.422370672225952, -1.5687158107757568, -0.07162369042634964, 2.3627095222473145, 0.23412230610847473, 0.3831315040588379, -0.11013249307870865, 0.22403459250926971, -0.24702277779579163, -1.483180284500122, 0.9066043496131897, -1.1134662628173828, 0.8735494613647461, 0.7999893426895142, 1.9783302545547485, -1.7700445652008057, 1.2672978639602661, 1.1200097799301147, -0.44687721133232117, 0.844060480594635, 0.6623120903968811, -1.5740888118743896, 0.5047037601470947, -0.6331064701080322], [-1.7637803554534912, -0.6484588384628296, -0.8506553769111633, 0.7205630540847778, 0.7548189163208008, -1.5019603967666626, -0.38552209734916687, -0.06923605501651764, -0.1927889585494995, 0.6916411519050598, -0.43906861543655396, 0.9580076336860657, 0.1966973841190338, 1.1170438528060913, -0.9962781071662903, -0.6100536584854126, -0.8410374522209167, 0.8260283470153809, -0.5708501935005188, 1.2281538248062134, 0.02078147791326046, 0.13659103214740753, -0.7394070625305176, 0.5085398554801941, -1.495925784111023, 0.33821818232536316, 0.42782825231552124, -0.0981072410941124, -0.021379558369517326, -0.024780958890914917, 0.17409926652908325, -0.3193001449108124], [0.37527188658714294, 0.9204269051551819, 0.7907976508140564, -0.38799959421157837, 0.9000645875930786, -1.1126289367675781, 0.9023817777633667, 1.1643626689910889, -0.628518283367157, 0.5810725092887878, -0.828864574432373, -0.18190975487232208, -2.730994701385498, -1.291787028312683, 0.7721627950668335, 1.3973188400268555, -2.089609146118164, 0.11038198322057724, -0.6477785110473633, -0.49930086731910706, -0.9248652458190918, -0.3762094974517822, -0.15954560041427612, -0.4950655400753021, -0.6192936301231384, -0.25104352831840515, -0.37926533818244934, 0.27111172676086426, 0.40414687991142273, 0.21296092867851257, -1.522453784942627, -0.6488585472106934], [-0.3380849063396454, 0.8689894676208496, 0.4237312078475952, 0.26139774918556213, 0.8625782132148743, -0.987696647644043, -0.08244505524635315, -2.0003950595855713, -0.19838355481624603, 0.5839465856552124, 1.0126368999481201, -0.02653213031589985, 1.2212333679199219, -0.9952683448791504, -0.43566811084747314, -1.8371691703796387, -0.7662336826324463, 1.2420753240585327, -0.568439781665802, -0.8852217197418213, -0.7451330423355103, 0.5827987194061279, -0.9909794926643372, 0.9459699988365173, 0.5204175710678101, -0.6529908180236816, 1.6415987014770508, -0.147450789809227, 0.11846894025802612, 2.729445695877075, -0.32962682843208313, -0.9227196574211121], [-0.14651130139827728, 0.5316323637962341, -0.5363280773162842, 0.041188795119524, -0.9113157987594604, 1.070684552192688, 1.3418668508529663, -0.23056887090206146, 0.49449753761291504, 1.2722563743591309, -0.6479006409645081, 0.8200560808181763, 1.4043468236923218, -0.617811381816864, -0.23965343832969666, -0.00648348405957222, 0.756084680557251, 0.4962913393974304, -0.4161756932735443, 1.4241955280303955, 0.33023545145988464, -0.5014402866363525, -0.43789181113243103, -0.27182838320732117, -0.7509722113609314, -0.8829671740531921, -1.1122581958770752, 0.550631582736969, -0.7904797196388245, -1.4886568784713745, -0.02863599918782711, -0.7481207251548767], [0.04991203919053078, -0.6817722916603088, -0.3733212947845459, 1.1259373426437378, 0.4720989465713501, 0.7023825645446777, 0.7715344429016113, -0.11891752481460571, 0.8240841627120972, -0.47866541147232056, 0.8431799411773682, -0.40234747529029846, -0.41846564412117004, -0.4703650176525116, -1.5491913557052612, 0.8785781860351562, 0.6492903232574463, -0.7284191846847534, 0.7025610208511353, -0.13142073154449463, 0.1652679741382599, 0.3877430856227875, 0.04590263217687607, -0.9877311587333679, -0.6692454814910889, -0.010781310498714447, 1.6988906860351562, 0.2585594058036804, 0.679963231086731, -0.31166568398475647, 0.7649950981140137, 0.6113129258155823], [-0.6004736423492432, 0.6369739174842834, 0.4823063015937805, -0.5483683347702026, -0.2684575617313385, -0.15129806101322174, 0.901012122631073, 0.6850004196166992, -1.1852126121520996, -0.6256414651870728, 1.7506192922592163, 0.2129615694284439, -1.4644169807434082, 1.9657173156738281, -0.9287040829658508, -0.05099748820066452, 1.2267285585403442, -1.3125513792037964, 0.12519143521785736, 0.02326216921210289, 0.28353235125541687, -0.8341561555862427, -0.8579028844833374, -2.1634957790374756, 0.02310277335345745, -0.08558514714241028, 0.29650062322616577, -0.5906031727790833, 0.4029363691806793, -1.5196044445037842, 0.7449401021003723, 0.28135716915130615], [0.23991987109184265, 0.12048764526844025, -0.055143650621175766, -0.8613105416297913, 1.5292341709136963, -1.0145612955093384, 0.5170638561248779, -1.5463290214538574, -0.21751007437705994, 1.0016216039657593, 0.6708613038063049, -1.7789008617401123, -0.2659400999546051, 0.0038630093913525343, 1.101597547531128, 1.0405081510543823, 0.6871874332427979, 0.8612461686134338, -1.0684107542037964, -0.5973294973373413, 0.9285998940467834, 0.1660347431898117, 0.8681383728981018, 1.023310661315918, -0.44239017367362976, -0.43716293573379517, 1.1150327920913696, 0.9601338505744934, -0.5207310318946838, 1.5738354921340942, -0.5261510014533997, 0.898494303226471], [-0.26022446155548096, -1.2686680555343628, -0.48025867342948914, 0.05094432458281517, 0.9004783630371094, -1.391675591468811, -0.3061864972114563, -1.2542154788970947, -0.4533132314682007, -1.3769073486328125, -1.097857117652893, -0.9901159405708313, 1.2917728424072266, 0.8778614401817322, -0.4940277338027954, -0.1343822181224823, 0.4498429298400879, 0.8126220107078552, -0.19692948460578918, 0.9873698949813843, -0.5988423824310303, -0.20236259698867798, -1.1178535223007202, 0.09058401733636856, 1.0343022346496582, -0.19406163692474365, -0.12272806465625763, -0.46750080585479736, 1.2849886417388916, 1.7934660911560059, -0.20497871935367584, 0.6869584918022156], [-0.5576409697532654, -1.2347649335861206, 0.40690574049949646, 2.135495662689209, -0.20345014333724976, 0.061511002480983734, -1.572967767715454, -0.22237583994865417, -0.8661142587661743, 0.5574082732200623, -0.4562135934829712, -1.3196288347244263, 0.6740366220474243, 1.0219730138778687, 0.6856133937835693, -0.21936601400375366, 1.014413833618164, 0.2623806893825531, 0.7011040449142456, -1.094595193862915, -0.5663496255874634, 0.6893623471260071, -0.18488028645515442, 0.47281205654144287, 0.5202479958534241, -0.9436875581741333, -0.14938053488731384, 0.5599126815795898, -0.7534658908843994, 0.13884049654006958, 1.1646980047225952, -0.2928289771080017], [0.1312519907951355, 0.40417447686195374, -0.567557156085968, -0.9121894240379333, 0.340119868516922, -0.6422221064567566, -0.14504340291023254, 0.7460915446281433, 0.750150740146637, -0.019932067021727562, -0.17083090543746948, -1.0070124864578247, 1.461656928062439, -0.7880773544311523, 0.20676150918006897, -0.9014585018157959, -0.6194589734077454, -0.07603432238101959, 0.01601886935532093, -0.44214755296707153, 0.49516773223876953, -0.5853513479232788, -0.04357496276497841, 0.8608419299125671, 0.17501631379127502, -1.8740732669830322, -0.9402069449424744, -0.6041759848594666, -0.3214489817619324, 0.483502060174942, 2.0818374156951904, 1.1823928356170654], [0.8378422856330872, 0.7115886211395264, 1.6137784719467163, 0.6748873591423035, -0.46747416257858276, 0.8291446566581726, 0.9319767355918884, -1.6607213020324707, -0.7123206853866577, 0.34166109561920166, 0.1638186126947403, 0.12151692062616348, 0.902525782585144, -0.7491902112960815, -0.3196057081222534, 0.9870213270187378, 0.5979245901107788, -0.39312314987182617, 0.35356199741363525, 0.3838282823562622, 0.11354199051856995, -0.5520047545433044, -0.49709352850914, -0.7454760074615479, -1.3567992448806763, 0.4957626163959503, -0.8406343460083008, 0.8635097742080688, 1.09987211227417, -0.28511080145835876, 0.050371866673231125, 0.48511210083961487], [1.1192519664764404, -0.7710334062576294, 0.08015424013137817, -1.206393837928772, 1.0741676092147827, -1.354973316192627, -0.08803081512451172, 1.4251214265823364, -2.038902759552002, -1.1037437915802002, 0.6641398668289185, 0.7089200019836426, -0.6925070285797119, -0.05774002522230148, 0.04602007195353508, -2.2709152698516846, -0.9491499066352844, -1.314523696899414, -0.4071469008922577, -0.09136483818292618, -0.5672032833099365, 0.16559827327728271, -0.7474443316459656, 0.3183022439479828, 0.0868997573852539, 0.16350023448467255, 0.31960150599479675, -0.2941091060638428, 0.04830770194530487, -0.9032066464424133, -0.818284273147583, -0.26427704095840454], [-1.0842241048812866, -0.10119185596704483, 0.0655704140663147, 0.5977922677993774, 0.7873871922492981, -2.2355446815490723, 0.11609982699155807, 1.1330761909484863, -1.8715180158615112, 1.0405503511428833, 2.0979397296905518, 0.34190633893013, -0.035331834107637405, -1.5492701530456543, -2.234321355819702, -0.35094043612480164, 1.6364675760269165, 0.15711304545402527, 0.9938008785247803, 0.12717510759830475, 0.1585773080587387, -0.8872128129005432, 1.9990570545196533, -0.20734593272209167, -0.7291421294212341, 0.2717616856098175, 0.5563327670097351, -1.3064552545547485, 0.475478857755661, 0.9559730887413025, -2.571902275085449, 0.31393858790397644], [-1.0408666133880615, -0.011743264272809029, -0.266304612159729, 0.11364591121673584, 0.9153168201446533, -0.02864946611225605, -0.5802587270736694, 0.46451178193092346, 0.3939031958580017, -0.9749442338943481, 0.02580663375556469, 0.06821724772453308, 0.8902467489242554, 1.1050736904144287, -2.1123719215393066, 1.2891287803649902, -0.5702071785926819, -0.2281191349029541, -0.05843416973948479, -0.0226876363158226, -0.5582735538482666, -0.05708435922861099, 2.156095027923584, 0.843479573726654, 0.30585357546806335, 1.292533278465271, -0.3238813579082489, 0.5125372409820557, 1.0246661901474, 2.6244428157806396, 0.0137788662686944, -1.2410101890563965], [0.41460344195365906, 0.6274451017379761, 0.19275614619255066, 0.18379323184490204, 0.7734169960021973, 0.0687258392572403, -1.0365321636199951, 1.4088258743286133, -0.45953890681266785, -0.1465272456407547, 0.33042922616004944, 0.6466845273971558, -0.3823844790458679, 1.3150461912155151, -0.8576864004135132, -0.9673182368278503, -1.4686901569366455, -0.7361288070678711, -1.4532066583633423, 0.15270084142684937, -0.8047420382499695, 1.0307331085205078, 1.671830177307129, -0.578414261341095, 0.4901087284088135, -0.3184991180896759, -1.9089829921722412, -2.0917632579803467, 1.1481776237487793, 0.22222691774368286, -0.465859055519104, -0.3556109070777893], [0.2702157497406006, 0.032737016677856445, -0.7861849069595337, -0.15566754341125488, 1.0837500095367432, 0.4574970602989197, 1.1053258180618286, -0.6577445864677429, -1.445231556892395, -0.45042750239372253, 0.3810666501522064, -0.36470988392829895, 0.31336110830307007, -1.046889305114746, -0.19998550415039062, -1.8032889366149902, -0.6289493441581726, -0.7630128860473633, -0.26095083355903625, -0.43784335255622864, 1.827138900756836, -0.25512170791625977, -0.5596774816513062, 0.005232757423073053, 0.5910710692405701, -0.423963338136673, 0.9216635227203369, 1.1460148096084595, 1.2668384313583374, 0.5479720830917358, -0.34223249554634094, -0.22022730112075806], [0.4484424889087677, -1.5029774904251099, -0.8677812218666077, 2.729945659637451, 0.08596314489841461, -0.8792665004730225, 0.39918068051338196, 1.0325982570648193, 0.48030728101730347, -0.6625101566314697, -0.9092555642127991, 0.1191854253411293, -0.6340424418449402, 1.048083782196045, -0.44084230065345764, -1.2863513231277466, -1.2209221124649048, -0.20987161993980408, -2.358802556991577, 0.6567972302436829, -1.5176995992660522, -0.2671613395214081, -1.112173318862915, 0.6784409880638123, 1.0047436952590942, 0.2809172570705414, 0.46549707651138306, 0.7179237008094788, -0.9228237867355347, 0.21252258121967316, 1.1152492761611938, -0.3428552746772766], [0.6732665300369263, 0.8643036484718323, 0.6517824530601501, -0.8658334612846375, 1.8794543743133545, -0.5518404841423035, 0.43544134497642517, -1.7921028137207031, -1.3553433418273926, 0.5137948989868164, 1.0332629680633545, -0.4220963418483734, -0.5565842986106873, -0.1711593121290207, 0.8236914277076721, 0.9067434072494507, -0.4431193470954895, 0.6466917395591736, -0.33521386981010437, -0.3573657274246216, -1.3738666772842407, -0.04963981732726097, -1.9718964099884033, 0.25677624344825745, 1.0701252222061157, -0.8875405192375183, 1.1552940607070923, -0.6989648938179016, 0.14921961724758148, -1.6797720193862915, 0.09766555577516556, 0.4254287779331207], [-0.8543593883514404, 0.6683946251869202, -1.3224655389785767, 0.8759065866470337, 0.6171265244483948, -0.8201419115066528, -1.1130930185317993, -0.7337453365325928, -0.1166265457868576, 1.4962705373764038, -0.3896747827529907, 0.013573889620602131, -0.2066739946603775, 0.7808111310005188, -0.46135443449020386, -2.037149429321289, -0.1871502697467804, -0.347763329744339, 1.3450614213943481, -1.5486780405044556, 0.8622069954872131, 0.4194715619087219, -1.1253427267074585, 0.3878709077835083, 0.3970335125923157, 0.24824927747249603, -0.6276524066925049, 0.3747383952140808, 0.5258628129959106, 1.5311146974563599, 0.2963661551475525, -0.07710433006286621], [-0.006575403735041618, 0.6404520869255066, 1.129978060722351, -0.12457246333360672, -0.6368771195411682, 0.2978473901748657, -1.5246776342391968, 0.10479622334241867, -0.0383504219353199, 0.272121787071228, -0.12535889446735382, -0.5245267748832703, 0.2121545523405075, -1.5383309125900269, 0.31689581274986267, 0.598360538482666, 1.4998037815093994, -0.5040504336357117, -1.008438229560852, -1.0777145624160767, -0.23176246881484985, -0.6937024593353271, -1.1328176259994507, 1.2331888675689697, -0.9075920581817627, -1.2968066930770874, -0.31860119104385376, 0.3263065218925476, 1.7040777206420898, -1.7637217044830322, 1.170059084892273, 0.15231715142726898], [-0.05077221244573593, -0.27398964762687683, 0.5038644671440125, -1.292707920074463, 0.9752949476242065, 0.03046957403421402, 1.2165932655334473, 0.687755286693573, 0.7197170257568359, 0.40351662039756775, 0.2099430412054062, 0.9774713516235352, -0.35520192980766296, -0.10851886123418808, -0.18543265759944916, -0.32743826508522034, -0.6962176561355591, -0.4185865819454193, 2.2901973724365234, -0.5509088635444641, 0.004701331257820129, -0.22175365686416626, 0.8539154529571533, 1.0168273448944092, -1.236952781677246, -0.1122962236404419, 0.6213661432266235, 1.4933969974517822, -0.7944064140319824, -2.4507462978363037, -0.7271719574928284, 0.13099347054958344], [0.06607963144779205, -2.589369773864746, -0.39464157819747925, -0.08894649147987366, -0.07168811559677124, -0.562000572681427, 1.4192358255386353, 1.0975054502487183, -1.1272343397140503, 0.8404963612556458, 1.2640923261642456, -0.3042251169681549, -1.0534999370574951, -1.6003745794296265, 1.9574288129806519, 0.1908464878797531, 0.49728524684906006, -1.5028531551361084, 0.49346715211868286, -0.724263072013855, -0.4253852069377899, 0.06637260317802429, 0.48710745573043823, -0.47027313709259033, -0.7425225973129272, 1.2161766290664673, 0.6929609179496765, -0.4487782418727875, 1.185814619064331, -0.682212233543396, -0.4121275842189789, -0.05475957691669464], [1.7478649616241455, 2.4504849910736084, -0.11836373805999756, 0.8954944610595703, 0.030070526525378227, -0.7644774317741394, 1.799775242805481, -0.055171236395835876, 1.6210023164749146, -0.22614480555057526, -1.2832244634628296, 2.3953347206115723, -1.3531314134597778, -0.8178350329399109, -0.24967922270298004, -0.08863183856010437, -0.6717860698699951, -0.4239305853843689, -0.13480141758918762, -0.017164412885904312, 0.19397997856140137, -0.23559114336967468, 0.40209031105041504, -0.7768007516860962, -0.5989046096801758, 0.15544281899929047, 1.382815957069397, 0.9833225607872009, -0.2844850718975067, 0.4316244125366211, -0.8130685687065125, -1.607833981513977], [-1.4548029899597168, 1.1911808252334595, 0.29258066415786743, -0.5059515237808228, 0.6886284351348877, -0.33432039618492126, -0.17650504410266876, -0.05742352828383446, 0.36640483140945435, 0.24148443341255188, 0.6955453157424927, -0.5131137371063232, 1.1865640878677368, 0.10134389996528625, 1.2819336652755737, 0.34546613693237305, -0.1802002638578415, -0.3706548511981964, -0.7942799925804138, -0.7746824026107788, 0.02563619241118431, 0.30685633420944214, -0.3273320496082306, 0.5607996582984924, -0.8428153991699219, -0.9176120162010193, 1.083889365196228, -0.371718168258667, 0.5028663277626038, -1.6312309503555298, 0.05388118326663971, 0.41321542859077454], [0.04677557945251465, 0.36606287956237793, 0.28196296095848083, 1.276476502418518, 0.7781243920326233, -0.5265968441963196, -0.46311116218566895, -0.3231354057788849, -1.425140142440796, 1.207887053489685, -0.6447157859802246, -0.8682498931884766, 1.7337979078292847, -1.0686967372894287, -0.4702179729938507, 0.24938899278640747, -0.5573980212211609, 0.50544673204422, 0.5811007618904114, 0.40098726749420166, 1.1472350358963013, 0.058802876621484756, 1.0866597890853882, 2.310805082321167, -1.7281608581542969, -0.6284864544868469, -0.27890658378601074, 0.7446082830429077, 0.2845647633075714, 1.550425410270691, -0.7379793524742126, 0.5859379768371582], [-1.4865959882736206, -0.6454468965530396, 0.11477525532245636, -0.542558491230011, -0.8586196899414062, -0.599980354309082, 0.1339104026556015, -0.19767418503761292, -0.22314634919166565, 0.8934718370437622, 0.7390856146812439, 1.4784822463989258, 0.6796557903289795, -0.17440533638000488, -0.8110342621803284, -0.2589108645915985, 0.7627397179603577, 0.5800341367721558, 0.8344764113426208, -0.6474198698997498, 1.184617042541504, 1.1371275186538696, -1.521304965019226, -0.5861734747886658, 2.179664373397827, -1.2708266973495483, -1.2802213430404663, -0.269570529460907, -0.8129506707191467, -0.8885264992713928, 0.8411194682121277, -0.13480566442012787], [1.183549404144287, 1.7536814212799072, 0.5232902765274048, 2.0220718383789062, 0.07310157269239426, -0.34302008152008057, -1.2213294506072998, 0.3485035002231598, 0.07102207094430923, -1.2890857458114624, -0.4767000675201416, 2.273164987564087, 1.7327020168304443, -1.2502784729003906, -1.4450105428695679, -1.171146273612976, -0.4980619251728058, -0.04274943470954895, -1.669716715812683, 0.9184839129447937, 1.819535493850708, 0.4698356091976166, 1.3200262784957886, -1.0186728239059448, 1.030347228050232, 0.4575450122356415, 0.34765541553497314, -1.1382933855056763, -0.30735281109809875, 0.24537411332130432, 0.2487802356481552, 0.36977696418762207], [-0.20674802362918854, -1.1863064765930176, 1.1899060010910034, -0.4055056571960449, -0.5625070929527283, 0.5774280428886414, 0.23713678121566772, 0.07348866015672684, 1.0735284090042114, 0.07297183573246002, 0.2824017405509949, -0.31903016567230225, -1.819496750831604, -0.9101695418357849, 0.09234769642353058, -0.08599895238876343, -0.28629136085510254, 0.6369431018829346, 0.6815199255943298, 0.2544892430305481, 1.539513111114502, -0.6173915266990662, 1.7025926113128662, -0.20307061076164246, -0.08304903656244278, -1.34371018409729, 0.0014649758813902736, 0.44707727432250977, 1.6408888101577759, -1.306696891784668, 0.4344165027141571, -0.9154189825057983], [0.09551256150007248, 0.1316787749528885, -0.5005459189414978, -0.028577040880918503, -1.8668911457061768, 0.14256879687309265, -0.2134179025888443, -0.5727532505989075, 0.024539368227124214, -0.4678906500339508, 1.2949273586273193, -1.2088518142700195, 0.001238237600773573, 0.42189911007881165, -0.3493642508983612, 0.08009279519319534, 1.4267793893814087, -1.0496797561645508, 0.04867253825068474, -1.6952407360076904, 0.635462760925293, -0.4556792974472046, 0.03217265009880066, 0.42961448431015015, 0.8256417512893677, 0.2040959596633911, -0.9357545375823975, 0.2869163155555725, -0.8794848918914795, -0.4125271439552307, 0.5961450338363647, 0.1286502629518509], [-0.23648038506507874, 0.6784345507621765, 0.08547277748584747, 1.0147777795791626, -1.2550833225250244, -1.399787425994873, -1.3856688737869263, -0.05661490559577942, 0.9650800228118896, -0.852826714515686, 0.30429697036743164, 2.1822235584259033, 0.06403808295726776, 0.10574573278427124, -1.150957465171814, 1.4819931983947754, 0.12841498851776123, 1.3999972343444824, 0.3510115146636963, 0.1216563805937767, -0.09755263477563858, 2.0216310024261475, -0.08201013505458832, 0.558799684047699, -0.0723506286740303, 0.5620035529136658, 0.5591282248497009, -0.6003237366676331, 0.430414617061615, 1.003076434135437, 0.4882480502128601, -0.632537305355072], [-0.07348734885454178, -0.4164932072162628, -0.7839865684509277, 1.378570556640625, -0.2267647236585617, -0.27250581979751587, 1.3428598642349243, -1.5056912899017334, -0.19835150241851807, -0.6144470572471619, -0.48504874110221863, 0.5324041843414307, 0.9009696841239929, 0.5362915992736816, 0.013754506595432758, -2.2649953365325928, -0.8113387227058411, 1.8030803203582764, 0.38963890075683594, -1.2035274505615234, -0.4908008873462677, -0.3753732442855835, 0.46798551082611084, 1.215377926826477, 1.2176765203475952, 0.6322585940361023, 1.302395224571228, 0.8300786018371582, -1.1913375854492188, 0.6190124154090881, -0.3433944880962372, -0.3440094590187073], [0.9141574501991272, 0.9756704568862915, -0.11925924569368362, -0.19271038472652435, 0.5118891000747681, -0.3368743360042572, -0.9391571283340454, 0.8866142630577087, -0.13407807052135468, -1.3039137125015259, -0.4678972661495209, -0.06017599254846573, -0.5614360570907593, 0.17072921991348267, 0.40254026651382446, -0.08009463548660278, 2.347827672958374, -1.0798194408416748, 0.6852183938026428, -0.6360900402069092, -0.9065871834754944, -0.14444200694561005, -0.39027899503707886, -0.2008025199174881, -0.43483155965805054, 0.08246327936649323, 0.4430893361568451, -0.34368398785591125, -0.6774597764015198, -0.77996426820755, 1.349269986152649, 0.915580689907074], [0.3481449484825134, -0.49664923548698425, 1.6370785236358643, 0.6333813667297363, -0.639008104801178, 0.4630318284034729, 1.9198819398880005, -0.2684909999370575, -1.3166446685791016, 0.8177058696746826, 1.2232626676559448, -0.6329155564308167, -0.5095188617706299, -0.8481519818305969, -0.2861243188381195, -0.4370841979980469, -0.17758797109127045, 0.8915654420852661, 0.17237459123134613, -1.6109751462936401, 1.5047798156738281, 0.7009662389755249, 1.0942084789276123, 0.825482189655304, 0.2707899212837219, 0.5746949911117554, 0.20481932163238525, 0.3827275335788727, 0.5464716553688049, 0.3877018988132477, -2.5578293800354004, 1.5796412229537964], [-1.5385887622833252, 0.7779584527015686, -0.37675052881240845, 0.22585822641849518, -0.482589453458786, -0.4889104664325714, -0.36801788210868835, 0.29625004529953003, 0.6448332667350769, 0.798104465007782, 0.13637740910053253, -0.8388386368751526, 0.7644955515861511, -1.3822752237319946, -0.08761373907327652, 0.9068637490272522, 0.6512397527694702, 0.6155338883399963, 0.8863137364387512, -0.7462108731269836, -0.5774573683738708, 0.6765449047088623, -1.0979763269424438, 1.0800917148590088, 0.15303164720535278, -0.8961543440818787, 0.5732915997505188, -0.9395856261253357, -2.177095890045166, 0.24056795239448547, 0.08759097009897232, -0.13470558822155], [0.6223913431167603, -0.04479965195059776, -0.9663774371147156, 1.243397831916809, 0.6627935171127319, 0.7589218616485596, -1.2747973203659058, 0.3438444137573242, 0.542144238948822, -0.37232643365859985, 1.3797433376312256, 0.3284285068511963, -0.6202330589294434, -1.453883409500122, -0.42866894602775574, -0.05870109796524048, -0.9231211543083191, 0.09903861582279205, -0.637920618057251, -1.4554938077926636, -0.7859134078025818, -0.4432298243045807, 0.9838865995407104, -0.9914599657058716, 1.0349290370941162, -0.07932455092668533, 0.8896461129188538, -0.7443748116493225, -1.2575161457061768, 0.9884222745895386, 0.21617497503757477, -1.54829740524292], [1.033971905708313, -0.8382608294487, -0.9203852415084839, -1.0132396221160889, -1.091752529144287, 0.5295221209526062, 0.0728926807641983, 0.6549459099769592, -0.21606869995594025, 0.9274934530258179, 0.40338069200515747, -1.9834598302841187, -1.2128323316574097, 0.19923235476016998, -0.5259369015693665, -0.29255419969558716, 0.185947448015213, -0.9538699984550476, -0.8267846703529358, -0.7915852069854736, -1.4881526231765747, -0.17206218838691711, 0.634687602519989, -0.33806267380714417, 0.4733259379863739, 0.5479633212089539, 0.6561830639839172, -0.2618575096130371, 0.009452546946704388, 0.10642414540052414, 0.37024274468421936, -0.6605821251869202], [0.6029015779495239, 0.047791797667741776, 0.4956109821796417, -1.5862374305725098, 1.5910286903381348, -0.09337668120861053, 0.26738277077674866, -0.5324312448501587, -1.0989816188812256, 0.37753480672836304, -0.6051099896430969, -0.6936017274856567, 0.07950545102357864, 1.219370722770691, 0.08161772787570953, 1.4857810735702515, 0.16411744058132172, -1.2483104467391968, 0.9557563066482544, -0.975378692150116, 0.32471320033073425, -0.39167511463165283, 0.17910534143447876, -0.06096816435456276, -0.3037707209587097, 0.23325654864311218, -0.629698634147644, -0.06037100777029991, 0.5688942670822144, -0.9559497237205505, -0.16305531561374664, 0.4947901666164398], [-0.01448581088334322, -0.17914922535419464, 0.26039645075798035, -0.032641589641571045, -0.6824749708175659, 0.21878479421138763, -1.3086050748825073, 0.25702428817749023, -0.025687096640467644, 0.42095863819122314, 1.5715337991714478, -1.354803204536438, -0.2953767478466034, -0.38282573223114014, 0.3729158639907837, -0.0845881924033165, 2.3334240913391113, 0.9646944403648376, 0.08668246120214462, 0.010499334894120693, 0.86309415102005, -0.4182092845439911, 0.8828974962234497, -0.18087075650691986, 0.5028172731399536, -0.289218544960022, 0.31900644302368164, -0.21938829123973846, -0.25871503353118896, -0.592120885848999, -0.4183700978755951, 0.4222451448440552], [0.4567345380783081, 0.25307750701904297, -0.7764716148376465, -0.3061947822570801, -0.4089414179325104, 0.24791675806045532, 0.3773920238018036, 0.597208559513092, -0.6990951299667358, -0.013904333114624023, -0.3629157841205597, 1.8631200790405273, -1.1380391120910645, 0.4286257326602936, 1.4900822639465332, -0.5676537156105042, -0.051446329802274704, 0.08054662495851517, 0.5663126707077026, 0.06736830621957779, 1.7496936321258545, 0.4079599976539612, -0.19898369908332825, -1.6203469038009644, -0.3354693353176117, 1.3913638591766357, -1.3227591514587402, 1.0283719301223755, 0.01414112001657486, -2.518916606903076, 1.0720499753952026, -1.3652608394622803], [0.1477304846048355, 2.209322452545166, 1.2873036861419678, -0.13819976150989532, 0.2604580521583557, 1.266163945198059, 1.196773886680603, 0.10101710259914398, 0.8468413352966309, 0.19473065435886383, -0.31884995102882385, -2.064014434814453, -0.768798828125, -0.5451331734657288, 0.26851966977119446, -0.6839758157730103, -0.6252961754798889, -1.3684049844741821, 0.4955589175224304, -1.8665294647216797, -0.11140955239534378, 1.0695366859436035, -1.2434312105178833, -0.7523104548454285, -0.27613669633865356, 0.6913655996322632, -1.8009860515594482, -0.3674637973308563, -0.1365090310573578, -0.694281280040741, -0.8059802651405334, 0.4848429560661316], [-0.2849075198173523, -0.5881314277648926, -0.022928869351744652, -1.1189966201782227, -0.6322259306907654, 0.9795975685119629, -0.21684633195400238, -0.2384892851114273, 0.5659498572349548, -0.09587564319372177, 0.7524462342262268, -1.1717771291732788, -0.19477786123752594, 0.6789312958717346, -0.2681776285171509, 1.2828072309494019, 0.5946935415267944, -0.22448883950710297, -0.6140909194946289, -0.5611969828605652, -0.8672794699668884, 0.9920981526374817, -0.5736399292945862, -1.537994384765625, -1.2621269226074219, -0.1812141090631485, -1.2358697652816772, 0.8079543709754944, -0.137094184756279, -0.07359769195318222, 0.21060198545455933, -1.4945317506790161], [-0.657200813293457, 0.8988031148910522, -0.7079104781150818, 1.9262795448303223, -1.3668268918991089, 0.8304644227027893, -0.7856472730636597, 0.7099840641021729, -0.6572263836860657, 0.288004994392395, -0.717459499835968, 1.8459590673446655, 0.8729782104492188, -0.07972739636898041, -0.40650102496147156, -0.6694150567054749, -1.3086600303649902, 0.3203031122684479, -0.16816557943820953, 1.9909504652023315, -0.24155443906784058, -1.703574538230896, -0.5188706517219543, -0.5904572010040283, -0.8853819370269775, 0.707664430141449, 1.0513041019439697, 0.06360585242509842, 0.1656367927789688, -0.8354972004890442, 0.670085608959198, 0.010349893011152744], [-0.7239245772361755, -2.933696985244751, -0.7499808073043823, -0.48458990454673767, 1.02890944480896, -1.3242695331573486, 0.3622283637523651, 0.6482682228088379, -1.1334855556488037, 0.4770851731300354, -0.3119955360889435, -0.6106454133987427, -0.4021584391593933, 0.3815767765045166, -1.2296706438064575, 0.676512598991394, -1.5878452062606812, 0.7490851879119873, 0.022992193698883057, -0.529712438583374, -1.0366616249084473, 1.3289357423782349, 0.03428071364760399, -0.3747802674770355, -0.2861621081829071, 1.7391623258590698, 0.08757239580154419, 1.6618452072143555, -0.6380364298820496, -0.10330495983362198, -0.011134345084428787, 0.5363547205924988], [-2.0270137786865234, 0.18404127657413483, -0.23925413191318512, -0.8840944766998291, 0.14553047716617584, 0.5216223001480103, -0.3338576853275299, 0.5220260620117188, 1.9769929647445679, 0.0510513074696064, -0.5252029299736023, -0.696738064289093, 0.15733671188354492, 0.10455489158630371, -0.01579779013991356, 0.4783574342727661, 0.5880413055419922, 0.2923904061317444, 0.13374418020248413, -0.0015450157225131989, -0.8448629379272461, 0.670325517654419, -0.5958693027496338, 0.33553653955459595, 0.0923699140548706, -0.5220228433609009, 0.749902606010437, -0.1198391541838646, 0.2914605736732483, -0.7715207934379578, -1.0330983400344849, 0.6530173420906067], [-0.22392694652080536, -0.04589313641190529, 0.39091330766677856, 0.05143051967024803, 0.6617695689201355, 0.06031334772706032, 0.37332847714424133, -0.4745430052280426, -0.6638888716697693, 0.2923406660556793, -0.5688506960868835, 0.3964383006095886, 0.821769654750824, -0.15206415951251984, -0.7037320137023926, -0.2890883982181549, 0.3854416608810425, -1.25447416305542, 1.0770655870437622, 0.4829437732696533, -1.7969833612442017, -1.2022392749786377, -0.316385418176651, -0.7633768320083618, -1.0776747465133667, 0.06992826610803604, -0.23821310698986053, 0.1205999106168747, -0.05149353668093681, 0.12513023614883423, -0.6930917501449585, 0.15994368493556976], [-0.5563674569129944, 0.12825186550617218, -0.6096075177192688, 0.8855537176132202, 0.4624443054199219, -0.2734086513519287, 1.321321964263916, -1.4931460618972778, -0.9346920847892761, 1.3230923414230347, 1.1385955810546875, 0.21231816709041595, 0.01617288962006569, -0.7207764387130737, 0.03781353309750557, 0.590654730796814, -0.39730095863342285, -1.7845673561096191, 0.052690453827381134, 0.8103111386299133, 1.4826534986495972, -1.4061483144760132, 0.0456291139125824, -0.49801743030548096, 0.7990047931671143, -1.3362597227096558, 1.8976377248764038, -0.2864956259727478, 0.305779367685318, 0.6658492088317871, 1.6829465627670288, -1.2681022882461548], [-0.11572783440351486, 0.20804230868816376, -2.309774160385132, 1.1429712772369385, 0.053411804139614105, -0.5401033163070679, 0.5021851658821106, 1.4855701923370361, 1.7245677709579468, 0.155012845993042, -0.9181547164916992, 0.35807299613952637, 0.8587678074836731, -0.1382276564836502, 0.8894296884536743, 0.2789558470249176, 0.1657181680202484, -0.07782930135726929, 0.07544088363647461, -0.25896090269088745, -0.7435050010681152, 0.797498345375061, 0.17203667759895325, -0.14252185821533203, 0.6945314407348633, -0.47599950432777405, -0.19283275306224823, 1.0104424953460693, 0.6192421913146973, -0.050783418118953705, -0.023407941684126854, 0.37387144565582275], [-0.490348756313324, -0.6162959933280945, 0.4967820644378662, -0.4183339774608612, -0.733346164226532, 1.6103161573410034, -0.21203267574310303, -0.16403639316558838, -0.2432599514722824, 0.15691326558589935, -0.36559969186782837, -0.9893284440040588, 1.5584092140197754, -0.48208004236221313, -0.8861210942268372, 0.2948008179664612, -2.477806568145752, 0.5841593742370605, 0.7463817000389099, -0.1033257469534874, -0.20560957491397858, -0.13586817681789398, -0.43959009647369385, -0.23944255709648132, -0.39630287885665894, 2.021517515182495, -0.29096245765686035, -0.6689831614494324, -0.8827811479568481, 0.35531964898109436, 0.640839159488678, -1.0108755826950073], [0.43648844957351685, 0.40067166090011597, -0.853447675704956, -0.26333364844322205, -0.11478053033351898, 0.6315779685974121, 0.3355366587638855, -0.7489983439445496, 0.11940345913171768, -0.42514410614967346, 1.1133301258087158, 0.1631019115447998, 1.2808088064193726, -1.567107081413269, -0.5220281481742859, 0.6129288673400879, 0.05567788705229759, 0.024539321660995483, 0.9613510370254517, 0.38473787903785706, 0.365843802690506, -0.5989444851875305, 0.515359103679657, -0.08993063867092133, -0.4018888473510742, -0.3854299485683441, 1.0657639503479004, -1.0384513139724731, 0.33412420749664307, -1.8231589794158936, -1.6266908645629883, 0.8398815393447876], [1.1397885084152222, 0.739829957485199, 0.39336633682250977, 0.9478664398193359, 0.6089285016059875, 1.4393113851547241, 0.7294544577598572, -0.7565630078315735, 0.7635574340820312, 0.8341137766838074, -0.4498860239982605, 1.3129498958587646, 0.43411558866500854, 0.946381151676178, -0.1869601011276245, -0.4215392470359802, 1.3112365007400513, 0.7431337237358093, -0.8038380146026611, 0.34843963384628296, 0.5645630359649658, -0.31282132863998413, -1.2805789709091187, -0.18396253883838654, 1.0308619737625122, -0.8781728744506836, 0.8065823912620544, -0.6962512135505676, 0.2120492160320282, -1.449865698814392, -1.2882431745529175, -0.965840756893158], [0.24875394999980927, -0.4224463105201721, -0.933337390422821, -0.4014521539211273, 0.5678108930587769, 0.23426084220409393, -0.35951584577560425, -0.51467365026474, 0.6588295698165894, -0.4590315520763397, -1.8003013134002686, -0.6501055955886841, 0.5052492618560791, 0.465300977230072, 1.0345971584320068, -1.0692243576049805, 0.7718513011932373, 0.0176926888525486, 0.29832613468170166, 2.130282163619995, -0.6771970391273499, 0.7602865099906921, -0.30068495869636536, -0.3240334093570709, 0.6365370750427246, -0.6144209504127502, -0.4792633652687073, 0.6599515676498413, -0.545031726360321, 1.47235107421875, 0.35853472352027893, -1.8956457376480103], [-0.4894768297672272, 0.5158957242965698, -0.5822455883026123, 1.2175402641296387, 1.4296059608459473, 1.2277294397354126, -0.15384076535701752, -0.7117330431938171, 0.7967692613601685, 0.7626056671142578, -1.4095021486282349, 0.9562828540802002, -2.175172805786133, -1.1793726682662964, 0.5329829454421997, -1.9472917318344116, -1.421381950378418, -0.983150839805603, -0.0738784596323967, 1.2616767883300781, -0.49347832798957825, 0.354891836643219, -0.49544551968574524, -1.282813549041748, 1.3985270261764526, 2.5230884552001953, 1.0241492986679077, -0.44772276282310486, -1.3396224975585938, 0.7987834811210632, 0.35905078053474426, 0.784249484539032], [-1.2911487817764282, -0.8803004026412964, -0.3808419704437256, 0.03535780310630798, -0.522057056427002, -1.7951674461364746, -0.36767417192459106, -0.48356378078460693, 0.5778934955596924, -0.1681702733039856, -0.088277168571949, -0.40467721223831177, -0.1447676122188568, 1.3204255104064941, 0.32118362188339233, 1.0093109607696533, -1.0855116844177246, -0.4627775251865387, 0.1322328746318817, 0.8859380483627319, -0.3750397264957428, -1.1900441646575928, 0.43706199526786804, -0.9978442788124084, 0.4456397294998169, 1.3995575904846191, -0.502167284488678, -0.029022900387644768, 0.330223023891449, 0.17760029435157776, 0.7669898867607117, -0.608391523361206], [1.3265886306762695, 0.1652480661869049, -0.29748639464378357, -0.10138391703367233, 0.6825924515724182, 0.4676736891269684, -0.1036582961678505, 0.5395556092262268, -0.39707300066947937, 0.6129500269889832, 0.3785809278488159, 2.1213083267211914, -0.4719593822956085, -0.674758791923523, 0.059501685202121735, 0.3017981946468353, -0.16020651161670685, 1.282923698425293, 0.551234781742096, 0.8078029751777649, 2.36513090133667, 0.4218750596046448, -1.6339551210403442, 0.1700618714094162, -1.101934552192688, -0.6403657793998718, 1.8482153415679932, -0.2708629369735718, -0.18554705381393433, -0.24678044021129608, 0.1226276308298111, -2.113168716430664], [-0.2760610282421112, 0.721113920211792, -0.6163725852966309, 1.5913413763046265, -0.5129252672195435, 1.7624800205230713, 1.0997587442398071, -0.735965371131897, 0.0733531042933464, -0.045895181596279144, -0.24279341101646423, 0.8546759486198425, 1.2281768321990967, -2.0419301986694336, -1.2194105386734009, 0.7961353063583374, -0.782375156879425, -0.3094298839569092, -0.39729830622673035, -0.13952599465847015, -0.17539571225643158, -0.7498818039894104, -0.26885291934013367, 0.10279531031847, 0.4222290515899658, -0.7168400883674622, 1.1650928258895874, 1.2701077461242676, 1.0199776887893677, -1.417055606842041, -0.18019935488700867, -0.0101906294003129], [-1.0147411823272705, 0.011158585548400879, 0.33484578132629395, -1.1108036041259766, 1.1164323091506958, -0.23685920238494873, -0.23366281390190125, -0.23679079115390778, 0.8209267854690552, -2.028494119644165, 1.1474725008010864, 1.2184090614318848, 1.244933843612671, -0.10106761753559113, 1.33694326877594, 1.4874727725982666, -0.9956561923027039, 0.11735155433416367, 0.030361022800207138, 0.8796718716621399, 0.7943851947784424, 0.46691370010375977, 0.021931705996394157, 0.7688827514648438, -1.6422195434570312, 0.4901348948478699, -2.092092514038086, -0.23789680004119873, 0.8806862235069275, 0.18569478392601013, -0.3984716832637787, 0.22232548892498016], [-0.3641315698623657, 0.34566226601600647, -2.3448522090911865, 0.3422975242137909, -0.6069905757904053, -0.36752235889434814, 0.2004341334104538, 0.44288140535354614, 0.6038889288902283, 0.5309314131736755, -0.8089531660079956, 0.05145515501499176, 0.7778740525245667, -0.909509539604187, 0.23448659479618073, -0.19882981479167938, 0.08491035550832748, -0.43087315559387207, -0.8786898851394653, 1.9511302709579468, 0.7108357548713684, -1.3186572790145874, -0.16761407256126404, -0.22885072231292725, 0.3157780170440674, -1.0717837810516357, 0.3495408296585083, -1.0100834369659424, -0.4572523236274719, -2.153205633163452, -2.0334537029266357, -0.19947928190231323], [0.025467362254858017, -0.980398416519165, -0.6320092082023621, -0.8311061263084412, -0.8672932386398315, 0.15780292451381683, 0.5985559821128845, -0.04842277243733406, 0.10949131846427917, 0.8772004246711731, -0.2035931795835495, 1.3042272329330444, 0.9937127232551575, -0.45461925864219666, 1.7613022327423096, 0.599062979221344, -1.9581388235092163, -0.7085726857185364, 1.6051337718963623, 0.3253181278705597, 1.5797076225280762, 0.10587389767169952, -0.5554298758506775, -1.210657000541687, 0.7183583378791809, 1.5471738576889038, -0.7627398371696472, -0.2025577276945114, 0.4384344220161438, 0.1719663441181183, 1.99252450466156, -0.3455657958984375], [0.1365259885787964, 0.9557574391365051, 0.9011586904525757, -1.1440948247909546, -0.5681236982345581, 0.8529073596000671, 0.12938551604747772, 1.6720428466796875, 0.933229386806488, 1.1179484128952026, -0.857768714427948, -0.7866321802139282, 0.45959457755088806, -0.32678061723709106, -0.4224167466163635, 0.8459761738777161, 1.4670029878616333, 0.29751360416412354, -1.837443232536316, -0.14532750844955444, 1.4125787019729614, 0.45463037490844727, -1.3866480588912964, -1.1566288471221924, 1.204891562461853, 1.9598414897918701, -0.040337011218070984, 0.7287502884864807, -1.3996262550354004, 1.5942845344543457, -0.5305209755897522, 0.12474306672811508], [0.9240861535072327, 0.7405032515525818, 0.12414015829563141, 0.2429458647966385, 0.6477455496788025, -1.4243067502975464, 0.006454988848417997, -0.36918947100639343, -0.05381939560174942, -0.11096882820129395, -0.6261090040206909, 1.9600820541381836, -0.3718760907649994, -1.5382497310638428, 0.49548521637916565, -0.8051488399505615, -1.039230465888977, -0.04798038676381111, -0.8425225019454956, 0.43387407064437866, -1.1264052391052246, 1.7197164297103882, 0.7000504732131958, 0.9019564986228943, 0.797091543674469, -1.200469970703125, 0.8796195387840271, -1.9830663204193115, 0.8515860438346863, 1.5967025756835938, -2.2963509559631348, -0.6659573912620544], [-0.6950198411941528, -0.1191115751862526, 1.0852354764938354, 0.5979485511779785, 0.5680443644523621, 0.930992066860199, -1.6998263597488403, -0.4793870151042938, -1.1267117261886597, 1.9707947969436646, 0.3918170630931854, -1.5810033082962036, 0.2833101451396942, -0.7893036603927612, -1.6167702674865723, -0.0361262671649456, 1.020699381828308, 1.7799760103225708, 0.6572970747947693, -0.11120521277189255, -1.4137353897094727, 0.7815983295440674, -1.7268894910812378, 0.8721108436584473, 0.7915533185005188, -1.350661277770996, -0.612175464630127, -1.1187083721160889, -2.30268931388855, -0.050573479384183884, 0.5945436358451843, 0.5170444250106812], [-0.2772023379802704, 0.7543721199035645, 0.7397127151489258, -0.34949541091918945, 0.4556082785129547, -0.34282663464546204, 1.5651614665985107, -0.23039992153644562, -0.987551748752594, 0.7707818150520325, 0.18999899923801422, 0.6686447262763977, 0.2286650389432907, -2.194269895553589, -0.2229975163936615, -0.03925167769193649, 1.0198609828948975, 0.09455917775630951, -0.3842238783836365, -1.241956114768982, -1.805025577545166, -0.6343643665313721, -0.2153797298669815, -0.8273088335990906, 0.2915940582752228, -1.1524014472961426, 0.3186521530151367, 0.4062004089355469, 0.9648693203926086, -0.3691648542881012, -0.994129478931427, 1.0099163055419922], [0.34329697489738464, -0.5449437499046326, -1.1559369564056396, 1.0842665433883667, 0.04862755909562111, -0.42163628339767456, 1.195521354675293, 0.0078878840431571, -0.4316726326942444, 0.10777880996465683, 0.8803673982620239, 0.546871542930603, 0.11726360768079758, -0.0004552011378109455, -2.149812936782837, 1.1501476764678955, -0.4087441563606262, 0.15930882096290588, -0.8003844618797302, -0.15903471410274506, -0.11442223191261292, -0.4796479046344757, 2.5808017253875732, -1.0709712505340576, 0.49247920513153076, 0.184469535946846, 0.46483299136161804, 0.0768226832151413, -0.15877491235733032, 0.26057085394859314, -0.05135207995772362, 1.1480695009231567], [1.697653889656067, -0.47365039587020874, -0.2848289906978607, 1.2377145290374756, -0.6185740828514099, 0.24467863142490387, -1.3435872793197632, 0.816408634185791, 1.2570406198501587, -1.9851038455963135, -0.15581007301807404, 0.9262973070144653, -0.9595997929573059, -0.6658560633659363, 1.1606379747390747, 0.3299787938594818, -0.6111963987350464, -2.6148111820220947, -0.6809662580490112, -0.1537947803735733, -0.8075175285339355, -1.3782687187194824, 0.31608137488365173, -0.5364259481430054, 1.1256396770477295, 0.9224551320075989, -0.46771812438964844, -0.8569148182868958, 0.46983832120895386, 0.023901166394352913, -1.120259165763855, 0.5657901167869568], [0.005480191204696894, -1.1193201541900635, -0.5111396312713623, -0.5301701426506042, -0.5041114687919617, 1.052651047706604, -0.049063291400671005, -0.9563192129135132, -0.07911715656518936, -0.5663749575614929, -1.0511678457260132, -0.1475074291229248, -0.5547217726707458, 0.7683664560317993, -0.2306836098432541, 1.189700961112976, 1.1838805675506592, 1.0104924440383911, 0.594551682472229, -0.1847388744354248, 0.18210187554359436, -1.3336495161056519, -0.7853922843933105, -0.3882095217704773, -0.6412277221679688, 0.20661909878253937, -0.3942735493183136, -0.044475965201854706, 0.567879319190979, -0.6843861937522888, -0.14197024703025818, -0.13202647864818573], [-0.5707799196243286, 0.45462748408317566, -0.7524101138114929, 0.13093379139900208, 0.08803234249353409, -0.8359777331352234, -0.5910438299179077, 0.6790135502815247, 0.44496428966522217, -1.5986441373825073, 0.9949336051940918, -0.08638718724250793, 1.1683231592178345, 1.8218648433685303, 0.0659957006573677, -0.2620905041694641, -0.3551182448863983, 0.9033454656600952, 0.262783944606781, 0.0043349373154342175, 0.315287321805954, 0.33405637741088867, -1.1533575057983398, 2.165130853652954, 0.5422157049179077, 1.7746073007583618, -0.24276477098464966, -0.32855355739593506, -0.33507129549980164, 0.6539503931999207, 0.6154042482376099, -0.27606573700904846], [-0.2584938108921051, -0.4275687634944916, -0.5254065990447998, 1.3570281267166138, -0.28268128633499146, -1.247734546661377, -0.9926877021789551, -0.057261206209659576, -0.9440662860870361, 1.093000054359436, -0.4785175621509552, -0.5369054079055786, 0.5601674914360046, 0.9595867991447449, -1.0149630308151245, -0.3974021375179291, 1.8338125944137573, 0.0852421224117279, -0.22558574378490448, 0.6464748382568359, 0.6388802528381348, -0.31187984347343445, -1.8595019578933716, 1.4985932111740112, -1.1201579570770264, -0.3842218816280365, 0.3046727180480957, 0.8942294120788574, -0.8020436763763428, 1.1648510694503784, -0.602267861366272, -0.480105459690094], [0.9895871877670288, 0.8715782761573792, -0.10092642158269882, -0.7366914749145508, 1.875667691230774, -0.02922317013144493, -0.36053675413131714, 0.029022151604294777, -1.139249324798584, 0.9380345940589905, 1.0160259008407593, 0.11528712511062622, -1.8711457252502441, -0.16598153114318848, -0.732266366481781, -0.9356590509414673, -0.8575766682624817, 0.1845565289258957, -0.1571110337972641, 0.6004297137260437, 0.07558110356330872, 0.37376174330711365, -1.3806788921356201, 1.1785812377929688, 1.587900996208191, -0.5379517674446106, 0.7213162183761597, 0.5082453489303589, -0.9509803652763367, 0.0975678414106369, -0.5609006285667419, -1.6484495401382446], [1.467278242111206, 0.7115703821182251, -0.23833738267421722, -0.6960387825965881, 0.47126510739326477, 0.6362180709838867, -0.4483012855052948, -1.075268268585205, -0.7431100010871887, -0.379722535610199, -0.19564227759838104, 0.6435415744781494, -2.1933071613311768, -0.6489021182060242, 0.37138983607292175, 0.6269823908805847, 1.0466063022613525, -1.7084566354751587, 0.714353621006012, 1.117384910583496, -0.8162045478820801, -0.8097748160362244, -0.3451298475265503, -0.20545199513435364, 0.3691830635070801, 0.6220000982284546, -0.42454200983047485, -0.5018733143806458, -0.6685055494308472, 1.2899104356765747, -0.8175719976425171, 0.014121722429990768], [-0.48505955934524536, 1.2659761905670166, -1.1805044412612915, 1.1871562004089355, 0.38448479771614075, -1.9487125873565674, 0.23023425042629242, -0.7437204122543335, 0.22284063696861267, 0.950053334236145, 0.9232757687568665, 0.8889111876487732, 1.1425479650497437, -1.9779953956604004, 1.1098922491073608, 0.1655212640762329, -0.27732202410697937, -0.6170536875724792, -0.46586379408836365, -0.4462752640247345, -0.1734699308872223, 0.1833488941192627, -0.6794226765632629, 1.3939491510391235, -0.8780726790428162, -0.3472568094730377, 1.1207574605941772, -1.2440773248672485, 0.29339849948883057, -0.33572572469711304, 0.42172566056251526, 1.3378859758377075], [-0.26736128330230713, 0.9213032126426697, 0.5528442859649658, 0.9677301049232483, -1.0471168756484985, -0.6668103337287903, 0.9326956868171692, 0.8278437256813049, -0.7030014991760254, 1.2687402963638306, 0.798886775970459, -1.0001729726791382, 0.4710453152656555, 0.4496481418609619, -0.3065284788608551, -0.6013361215591431, 0.6219021081924438, 0.592100203037262, -0.670438289642334, 0.9951599836349487, 0.6935940980911255, 0.4089486300945282, -0.046099063009023666, -2.196887969970703, -0.023182764649391174, 0.13522076606750488, 1.0378689765930176, 1.0361297130584717, -1.2302495241165161, -0.3423256278038025, -1.7076908349990845, -0.043189335614442825], [0.49622946977615356, 1.0031075477600098, -0.5427970886230469, 1.5963863134384155, 1.1889002323150635, 0.014477919787168503, 0.7456179857254028, -0.6231256723403931, 0.3425653576850891, 0.2875629663467407, -1.280780553817749, -0.041037674993276596, -0.33849024772644043, -0.727648913860321, 0.09186993539333344, -0.8823411464691162, -0.06085110083222389, 0.2374749332666397, -0.8958668112754822, -0.3579874634742737, 0.5548968315124512, 0.540063202381134, -1.0985320806503296, -1.3808693885803223, -0.7520266771316528, -0.841327965259552, 1.4061015844345093, -0.7953189015388489, -1.9342561960220337, -0.20192845165729523, 0.5280095338821411, -0.7337915897369385], [-0.03379190340638161, -0.9357929229736328, 0.4852446913719177, 0.7886931896209717, -0.08637277036905289, -0.030406659469008446, 1.1076809167861938, 0.734042227268219, -0.009979363530874252, 0.507899284362793, -0.0420895516872406, -0.8970959186553955, 0.22807654738426208, -0.3043459355831146, 0.0994662493467331, -0.6659205555915833, 0.3323802053928375, -1.0602130889892578, -0.6164395809173584, -0.589900553226471, 0.6825451254844666, -0.3064713180065155, 0.6260771751403809, -0.9785634875297546, -0.0044672670774161816, -0.6914693713188171, -0.5995576977729797, -0.4342127740383148, 1.5994833707809448, -0.3331954777240753, -1.6321783065795898, -0.21944934129714966], [-0.29924482107162476, 0.23157720267772675, 0.7264314889907837, 1.236892819404602, -0.19235312938690186, -0.6785358786582947, -1.1596059799194336, 0.015039811842143536, -1.5678523778915405, 1.068890929222107, 0.34150445461273193, -0.19211505353450775, -0.6435312032699585, 0.8313811421394348, -0.3648788332939148, -1.0543590784072876, 0.41244983673095703, 0.08017262816429138, 0.42263928055763245, 0.2953561544418335, 1.2594338655471802, -0.3641507625579834, 1.085210919380188, -0.06103266775608063, -1.2737791538238525, 0.6306830644607544, 0.7006649374961853, 0.7886747121810913, -0.21478857100009918, -0.1454639732837677, 0.3308320641517639, 0.3842681348323822], [-2.33036732673645, -0.6127884387969971, -1.0495673418045044, -1.0728776454925537, 1.5551507472991943, -0.08744624257087708, 0.3920701742172241, -1.4541949033737183, 0.1865200251340866, 1.476093053817749, -1.1443240642547607, -0.3845173418521881, -1.1642637252807617, 1.313963532447815, 1.5988402366638184, -0.9118010401725769, -0.5923038721084595, -1.204728603363037, 0.42381471395492554, -0.06569700688123703, 0.12166599184274673, -0.05464590713381767, -0.014316264539957047, -0.13627184927463531, 0.5004010796546936, 0.08855430036783218, 0.04362035170197487, -0.15904738008975983, 0.4306483268737793, 0.9208944439888, 0.7259780168533325, -0.454677551984787], [-0.2748515009880066, 1.1185663938522339, 0.4665926694869995, -0.9733642935752869, -0.6998968124389648, 0.026841958984732628, 0.8020296692848206, 0.60872882604599, -0.09477593749761581, 0.9337231516838074, -0.22938798367977142, -0.5795710682868958, 1.6004565954208374, 0.9126514792442322, 0.7535661458969116, -1.287814736366272, 0.44470229744911194, 1.3365768194198608, -2.0259969234466553, 0.2687222957611084, 1.3849588632583618, -0.13731911778450012, 0.221921905875206, -0.5454538464546204, -0.03717559576034546, -0.0793842151761055, 1.3773139715194702, 1.0268625020980835, -1.1507236957550049, -1.1020681858062744, -0.3662627339363098, -1.0321199893951416], [0.48701971769332886, 0.717718243598938, 0.7747839093208313, -0.3754976987838745, -0.7817754745483398, 0.3742195963859558, 0.5921430587768555, -1.8822540044784546, 0.4979623854160309, -0.19102858006954193, 0.08052688837051392, -0.33973199129104614, -0.17692799866199493, -0.5274534821510315, -0.7592499256134033, 0.9473947882652283, 0.21835380792617798, -0.558209240436554, 0.5983617901802063, 0.08066017925739288, 0.5565240383148193, -0.10344959050416946, -0.2948257029056549, 0.4023730456829071, -1.0994157791137695, -0.3482326865196228, -0.5359262228012085, 0.5094358921051025, 1.551588535308838, -1.255109429359436, -0.17336511611938477, 0.3105141222476959], [0.7182623147964478, -0.3295738399028778, -1.186705231666565, 0.4110754132270813, 0.10082355886697769, -1.7608189582824707, -1.680670976638794, 1.6924962997436523, 1.1340982913970947, -0.6168508529663086, 0.35144373774528503, -0.7968090772628784, 1.330471396446228, 0.1718253791332245, 0.3890012204647064, 1.0973775386810303, 1.4275541305541992, 2.28305983543396, 1.4119516611099243, -0.4073796570301056, 0.07533092051744461, -0.3266442120075226, -1.5307759046554565, -0.8050066828727722, -0.959840714931488, -0.16294008493423462, -0.10186779499053955, -0.6576474905014038, -0.13711149990558624, -0.21578794717788696, 0.2401021420955658, 1.0469591617584229], [0.15005619823932648, 0.3349120020866394, 0.9356087446212769, 0.41042327880859375, -0.37502196431159973, 0.7101225256919861, -0.8001638054847717, -2.100327968597412, -0.2260325849056244, -1.07792067527771, 0.41374489665031433, -1.4012377262115479, 1.2647664546966553, 0.666471540927887, -1.3922359943389893, -1.230015516281128, -0.21296127140522003, -0.2543700337409973, -0.7323106527328491, -0.5251723527908325, 0.03857479989528656, 2.1118295192718506, -0.5662105679512024, 0.15694749355316162, -0.39244890213012695, 0.21590988337993622, -0.0004828225646633655, 1.2283761501312256, -1.5587999820709229, 0.5136978030204773, -1.9448317289352417, 1.134297251701355], [-0.022236362099647522, 0.8306589722633362, -0.4252447783946991, 0.25066015124320984, 0.7986684441566467, -1.5404465198516846, 0.02784123085439205, -0.041643381118774414, -1.4301587343215942, 1.165449857711792, 0.9685109853744507, -0.829674243927002, 0.506801426410675, -0.40752720832824707, -0.2681637704372406, 0.11815319210290909, 0.8312020897865295, 0.4471701979637146, 0.6691963076591492, 0.6831003427505493, 0.17574183642864227, -0.2822991609573364, 0.2895517647266388, -0.20304317772388458, -0.12823447585105896, 1.0628533363342285, -0.2665919363498688, -0.8830927014350891, -0.31032150983810425, -0.08597298711538315, -0.43743622303009033, 1.7734720706939697], [-0.9529201984405518, 0.7132748365402222, 0.5201380252838135, 0.17598408460617065, -1.095503807067871, -0.7435333728790283, 0.33443203568458557, -0.7304401993751526, -0.9485442042350769, 0.1982114613056183, 1.3175715208053589, 0.5724953413009644, -0.6208311915397644, 0.23315995931625366, 1.0357980728149414, -1.20427405834198, -0.052102670073509216, -0.6739685535430908, -1.3334097862243652, -1.0724108219146729, 0.1989058554172516, 0.7631359696388245, 0.16846811771392822, 1.1401234865188599, 0.3800106346607208, -0.01766759157180786, -1.7352153062820435, 0.9073709845542908, -0.9696819186210632, 0.7208542227745056, 0.9537255167961121, 1.4329087734222412], [1.509021282196045, 0.5683863759040833, -0.09816393256187439, 0.21213914453983307, -0.6650733947753906, -1.680309534072876, -1.2234020233154297, 0.06418510526418686, 0.11117301881313324, -0.8862113356590271, 0.6694324612617493, -0.7374940514564514, 1.3669426441192627, -0.222791850566864, 0.873845636844635, 0.14043642580509186, 0.5000602602958679, -1.235846757888794, -1.6259593963623047, 0.14452438056468964, 1.0880835056304932, -0.11230208724737167, 0.26821181178092957, 0.5316041707992554, -1.0994374752044678, -0.7780008912086487, 1.5639777183532715, -0.07675868272781372, -0.42377281188964844, 0.0083889439702034, 0.6446196436882019, -0.35172343254089355], [-1.59890878200531, -0.834628701210022, 0.5874186158180237, 0.818085253238678, 0.23225663602352142, -0.2595721185207367, -1.646881103515625, 1.1951779127120972, 1.3190397024154663, 0.7468328475952148, 1.1189788579940796, 2.406217098236084, -1.4862048625946045, -0.3458203375339508, 0.09473986178636551, 0.3364412486553192, -0.7785016894340515, 0.8229895830154419, 0.13325819373130798, -0.16935376822948456, 1.044175148010254, 0.4389995336532593, 0.0003681799571495503, 0.9781224131584167, 0.6394254565238953, -1.156815528869629, -1.1087384223937988, 0.30178242921829224, -0.3803822696208954, 0.17791979014873505, -1.3937407732009888, -0.3870868980884552], [-0.06503641605377197, 0.22929823398590088, 0.27744993567466736, -0.49118492007255554, 0.546974241733551, 0.25864675641059875, 1.1614848375320435, 0.03504442051053047, -0.833871066570282, -0.5428047180175781, -0.4085519313812256, 0.16543987393379211, -0.46709662675857544, -1.24606454372406, -0.2374948263168335, 0.6047253608703613, -0.7309566140174866, -0.7388505339622498, 0.6693594455718994, 0.09587214142084122, -0.1118224635720253, -0.2820333242416382, 0.24886640906333923, -0.3689573109149933, -1.4113701581954956, -0.3960905373096466, -0.2756204307079315, 0.02445424161851406, 1.0487890243530273, -1.1898874044418335, 0.9020528793334961, 1.1830832958221436], [-0.30554839968681335, -0.8074659705162048, -1.037047266960144, 0.44650179147720337, -0.26260533928871155, -1.0432043075561523, -1.4640130996704102, 1.8256529569625854, 0.27821919322013855, 0.11908220499753952, 1.0000412464141846, 0.0677398070693016, -0.5628737211227417, -1.1355221271514893, 0.640335202217102, -0.77395099401474, 0.6216913461685181, 1.3962782621383667, 0.4301629662513733, 1.033534049987793, 0.2595139741897583, 1.8528252840042114, -0.23512987792491913, 0.6560903191566467, -1.2664508819580078, -0.3329159915447235, 0.15742968022823334, -0.7974764704704285, -0.5890671610832214, 1.1459647417068481, 0.9764627814292908, -1.0755290985107422], [1.2955193519592285, -0.24382641911506653, -0.3495434522628784, 0.7418169975280762, -0.04762660339474678, -1.6564092636108398, -0.0808248370885849, 0.061491917818784714, 0.6378599405288696, -0.7103113532066345, 0.3635231852531433, 1.1358921527862549, 0.7204985618591309, 0.544602632522583, -0.09733182936906815, 0.39717528223991394, 1.8924068212509155, -0.8784830570220947, 0.22895653545856476, -0.9066866040229797, -1.1832770109176636, 0.9852977395057678, -0.036754682660102844, -0.839076042175293, 0.20174606144428253, 1.1123037338256836, 0.3456317186355591, 0.23945696651935577, -0.36086276173591614, -0.6178470849990845, 0.13436362147331238, -0.388040691614151], [0.3709312677383423, 2.1332995891571045, -1.4272133111953735, 0.5653124451637268, -0.5699543952941895, 0.8957006931304932, 0.6134055256843567, -1.9672143459320068, 2.0968799591064453, -0.7962571382522583, 0.41602474451065063, 1.896932601928711, 1.4100935459136963, 0.46004804968833923, 0.04181264340877533, -0.016522061079740524, -1.2697410583496094, -0.009931596927344799, 0.40414583683013916, -0.43789464235305786, 0.25890758633613586, 0.15965846180915833, 0.1608934849500656, 0.7286431193351746, 1.4355601072311401, 0.16048204898834229, 0.1497035175561905, 0.6212430596351624, -0.5611286759376526, 0.36733293533325195, -0.2735567092895508, -1.80070161819458], [0.10648591816425323, 0.9552027583122253, 0.8407227993011475, 0.27332189679145813, -0.8756616115570068, 0.4704393446445465, 0.5431466102600098, -0.43880191445350647, 0.03269459307193756, 1.25135338306427, -0.3195691406726837, 0.23771026730537415, 0.8952739834785461, 1.001219630241394, 0.05534975603222847, 0.025243308395147324, 0.8722221255302429, 0.8865377902984619, -0.1513565629720688, -1.4076969623565674, -0.2912612557411194, -0.9212948679924011, -0.40881457924842834, -0.13700786232948303, -0.07701393216848373, 0.2517034411430359, -0.9776338934898376, -0.42302554845809937, 0.07506223767995834, -0.2957000136375427, 0.9007791876792908, 0.1720343828201294], [0.6161690354347229, -0.14568115770816803, -0.9423421621322632, 1.154642105102539, -0.0816735029220581, -2.076148748397827, -0.7404966354370117, 0.7497846484184265, -0.050843194127082825, -0.07971496134996414, -1.9487234354019165, -0.8759013414382935, 0.42705661058425903, 0.4457431733608246, 0.6869217157363892, -0.6180831789970398, -1.1269025802612305, -1.272676944732666, 0.42510825395584106, 0.8807569742202759, 1.810093879699707, 0.7733347415924072, -1.0665833950042725, 0.2571139633655548, 0.28052788972854614, -0.42631879448890686, 1.0400195121765137, 0.43492165207862854, -0.19046664237976074, 0.5039315819740295, 0.4331323504447937, 0.22133499383926392], [0.7558897733688354, -0.3325307369232178, -0.4442988336086273, -2.184427261352539, -1.2044752836227417, -1.2222254276275635, 0.1456443816423416, -1.149280309677124, 0.6947110891342163, -0.1524762064218521, 1.424451231956482, 0.4359080493450165, 0.14959238469600677, -1.664655327796936, -0.522593080997467, 0.857082724571228, -0.027656665071845055, 0.3955003619194031, -0.5348715782165527, -0.3923664093017578, 1.4426990747451782, 0.5180516242980957, 1.194223165512085, 1.027538537979126, -0.9967176914215088, 0.39682915806770325, -1.1013389825820923, 0.8908255100250244, 0.4572334587574005, 0.3614470362663269, -0.5214894413948059, 0.6053184270858765], [-0.6140024065971375, 0.37286514043807983, 0.5332629680633545, -1.2356280088424683, 1.254090428352356, 0.9456720352172852, 1.4677259922027588, 0.1294548660516739, 0.8246904015541077, -0.15754744410514832, 0.037272702902555466, -0.07075440883636475, 0.11500239372253418, -0.602080225944519, 0.27534499764442444, 1.742913007736206, 0.8340975046157837, -0.3868757486343384, 1.0054832696914673, -1.4301968812942505, 0.5314155220985413, -0.9334049224853516, 0.0032671766821295023, -0.023036643862724304, 0.6334181427955627, -1.1010000705718994, -0.7722885608673096, -0.3593888282775879, 0.7601437568664551, -1.37345552444458, -0.7138529419898987, 1.8335919380187988], [-0.18149365484714508, -1.1693929433822632, -1.9373353719711304, 0.8435363173484802, -1.5995609760284424, -0.35675665736198425, -1.3911162614822388, -0.10524537414312363, -1.3391071557998657, -0.7436826229095459, 0.613032877445221, -0.5146215558052063, 1.1894460916519165, 0.00557553069666028, 0.7063783407211304, 1.1644423007965088, -0.12692227959632874, 0.7846552729606628, -0.3037279546260834, -1.272159218788147, -1.1609183549880981, 0.24069447815418243, 0.2457103282213211, -0.26996007561683655, 2.3184428215026855, 2.416323184967041, 0.4464949369430542, 0.9886025786399841, 0.29009634256362915, 1.369890570640564, -0.048313263803720474, -0.5040214657783508], [1.7404468059539795, -0.7264419198036194, 0.2294439822435379, 0.9963964819908142, -0.5728569626808167, 0.23655575513839722, 1.1759092807769775, 0.8781026005744934, -0.2702123820781708, -1.0402079820632935, 0.2426806539297104, -0.2618873715400696, -0.08355358988046646, 0.9265781044960022, -0.40605029463768005, 0.024388261139392853, -0.6698215007781982, -0.5622509717941284, -0.9278134107589722, 0.6086061596870422, 1.862276554107666, 0.3289557695388794, -0.08429805189371109, 0.3477284014225006, 0.7230627536773682, 0.13852764666080475, 0.5205422043800354, 0.3351273834705353, 0.29333481192588806, -0.18503709137439728, 0.16723157465457916, 0.36531901359558105], [-0.6375912427902222, 0.3533726632595062, -0.6114587187767029, -1.2891359329223633, 0.5957851409912109, -0.4639069736003876, 0.9168793559074402, -1.0235694646835327, -0.3994929790496826, 0.614363968372345, -0.5531212687492371, -0.18967436254024506, 1.0034971237182617, -0.24525250494480133, -0.5050932765007019, 0.6605798602104187, 0.18278120458126068, -1.5457677841186523, 0.22831642627716064, -0.39708879590034485, 0.44031208753585815, -0.5710156559944153, 0.6363120675086975, -0.6367059946060181, 0.14229997992515564, -1.1411422491073608, 0.023453395813703537, 0.4525606334209442, -0.41088181734085083, -0.1774863600730896, 0.3577517569065094, 0.781517744064331], [-0.20134630799293518, -0.2592698335647583, -0.05256449058651924, 0.05772033706307411, -0.9915056228637695, 0.7312824726104736, 0.4610273241996765, -1.2448407411575317, 0.218019500374794, -0.7473741769790649, 2.0932509899139404, -0.5565500855445862, 0.9458732008934021, -0.9564200043678284, 0.39770200848579407, -0.8026738166809082, -0.270209401845932, 0.21170935034751892, -0.5891937017440796, -0.8559025526046753, -0.9632077217102051, -0.7659714818000793, 0.504054605960846, -0.9775172472000122, -1.6620285511016846, -0.4730721116065979, -0.5201670527458191, -0.21399715542793274, 1.0435043573379517, -0.31671494245529175, 1.8973406553268433, -0.7685968279838562], [-0.04407813027501106, -0.7032850980758667, -1.0668846368789673, 0.07013937085866928, -0.6711367964744568, 0.2722390294075012, -0.22448129951953888, 0.4110104739665985, -2.3459420204162598, 0.8234227895736694, 0.04071950539946556, 1.3119723796844482, 1.2797578573226929, -1.1276841163635254, 0.6431424021720886, 0.9627029299736023, 0.2896328270435333, 1.1413084268569946, 0.40116336941719055, 1.2787959575653076, 0.1285741776227951, 0.3187747597694397, 0.14752474427223206, -0.9703286290168762, 1.2410941123962402, 0.6609761714935303, -0.7432602643966675, -1.1730937957763672, 1.2874107360839844, -0.6817941665649414, 0.7335106134414673, -0.1653883159160614], [-0.2502918541431427, 1.5799310207366943, 1.3222510814666748, 0.41097578406333923, 0.09985452890396118, -1.2438684701919556, 1.377886414527893, -0.14349442720413208, -0.5465567708015442, 1.6695114374160767, 1.2116591930389404, -0.35327908396720886, 0.07178384810686111, 0.8470795154571533, 0.9270712733268738, 0.47783270478248596, 1.2461035251617432, 0.6801353096961975, -0.17946933209896088, -0.21502336859703064, -2.0644099712371826, 0.1691397726535797, -2.8558595180511475, -0.5664231777191162, -0.7041910886764526, -0.587524950504303, 0.1796778291463852, 0.3002258837223053, 0.9931378364562988, 0.16760548949241638, -0.021677784621715546, -0.48698118329048157], [-0.7895984053611755, 0.24315281212329865, -0.4571112096309662, 0.19929669797420502, -0.3032931387424469, -1.164581537246704, 0.6337006688117981, 0.6373799443244934, -0.22037388384342194, -0.3892136216163635, 0.8885650038719177, -0.2946344017982483, 0.2269120216369629, -0.5047006011009216, 0.11914293467998505, 1.8151689767837524, 0.29894378781318665, -0.452560156583786, -0.40024372935295105, -0.38556545972824097, 0.17861241102218628, 0.407272607088089, -1.4440538883209229, 0.04559953883290291, -1.144627332687378, 0.8784801959991455, 0.43645092844963074, -0.01422069687396288, 0.6811259388923645, 0.15566889941692352, -0.9337164163589478, 0.2599329948425293], [-0.36860930919647217, -0.5562101006507874, 0.23549959063529968, 0.5617294311523438, -1.236676812171936, 0.0011078817769885063, 0.1734941303730011, 0.7506037950515747, -0.1865454763174057, 0.365072637796402, 0.872372567653656, -1.9475210905075073, -0.8789199590682983, 0.5646576285362244, 0.9025659561157227, 0.2829281687736511, -0.1477489024400711, -0.9453566670417786, 0.06063075736165047, -0.662338137626648, 1.668481707572937, 1.61052405834198, -2.0942304134368896, 0.9764935374259949, -0.3373793661594391, -0.4520299732685089, -0.3749297261238098, 0.1199861615896225, -0.2730172574520111, 0.007700607180595398, 0.7848998308181763, 0.4267681837081909], [-0.570859432220459, 0.4067407250404358, 0.35787340998649597, 0.512173593044281, -0.696990966796875, -1.010758638381958, -0.40339452028274536, 0.6048223972320557, -0.5105138421058655, 0.654245913028717, -1.5832301378250122, -0.022168079391121864, 0.7468206286430359, -1.4371984004974365, -1.129866123199463, 0.8138721585273743, 0.2613690197467804, -0.5858074426651001, -0.3247819244861603, -0.034558698534965515, -0.5769485831260681, 0.7458087801933289, -0.8543905019760132, -1.238179326057434, 0.4790535569190979, -0.5635748505592346, 0.9748608469963074, -0.9412418603897095, 0.13939110934734344, 0.7903070449829102, 0.5620537400245667, -0.5324180722236633], [0.2933255136013031, 0.6999172568321228, -0.8866904377937317, 0.5117748379707336, 0.1728217750787735, 0.8575957417488098, 0.739151120185852, -0.25527021288871765, -0.8964135050773621, -0.7973373532295227, -0.608566164970398, -0.37300145626068115, 1.05526602268219, -0.41298237442970276, -0.5651335120201111, 0.877811074256897, 0.12184320390224457, 0.40608134865760803, 1.012300729751587, 0.39693787693977356, -0.0170154869556427, -0.4165481925010681, -0.8270026445388794, -0.6128110885620117, -1.6902992725372314, -0.5830037593841553, -0.7195897102355957, 0.0003619883209466934, 1.1420140266418457, -0.501721203327179, -0.4539252817630768, -0.2071581929922104], [-0.24926762282848358, 0.44160696864128113, -1.279478907585144, 0.9433034658432007, 0.5928046703338623, 0.17675752937793732, -0.706131100654602, -2.0015199184417725, 0.800720751285553, 0.23237812519073486, 0.576720118522644, 0.7370836138725281, 0.6675608158111572, 0.7628916501998901, -0.4010259807109833, 0.6818154454231262, 1.3668763637542725, 0.5595262050628662, 1.4870274066925049, -0.5074819326400757, -0.1395527869462967, 1.1397405862808228, -1.4988828897476196, 1.1714856624603271, 0.6956533193588257, 0.07355739176273346, 0.7316309213638306, 2.00762677192688, -0.7907477021217346, -0.16921833157539368, 0.4541971683502197, 0.5278609395027161], [-0.1311759501695633, 1.5364090204238892, -0.9825011491775513, -1.7035799026489258, 0.40687623620033264, -0.6030873656272888, -1.520308494567871, 0.29162532091140747, -0.9767360091209412, 0.4767898917198181, 2.302184581756592, -0.0766889676451683, -0.323075532913208, -0.7342880368232727, -1.4212762117385864, -0.7030201554298401, -0.6832466125488281, -0.9013871550559998, -0.4474949538707733, 0.7148815393447876, -0.15838080644607544, 0.9748196005821228, 1.0643372535705566, 0.7670071125030518, -1.2279183864593506, 0.6939362287521362, 0.4502967894077301, -1.0842576026916504, 1.3691446781158447, 0.21130692958831787, -1.944533109664917, -1.4266000986099243], [-0.36084800958633423, 1.2485450506210327, 0.48508480191230774, -0.438147634267807, -0.30218037962913513, -0.003317811293527484, 1.652127742767334, -0.9878665208816528, -1.4572237730026245, -0.3811119496822357, -0.8827254772186279, -0.4728472828865051, -0.09125557541847229, 0.8804686665534973, 0.6777805685997009, 0.10365177690982819, 0.056652527302503586, -0.03221134841442108, 0.03991202637553215, 0.6688989400863647, 0.9812580943107605, -2.0568618774414062, 0.2606661915779114, -0.2806066870689392, -0.6016972661018372, 0.6253184676170349, -0.6529556512832642, -0.7436996698379517, 0.8085011839866638, 0.8627359867095947, 1.372622013092041, -0.5400827527046204], [0.46282902359962463, -0.6900350451469421, 0.7483457922935486, 0.41859596967697144, 1.465477466583252, -0.6882851719856262, 0.5331148505210876, 0.6173316240310669, 0.574982762336731, 0.20844200253486633, 0.08938723802566528, 1.0309513807296753, 2.4298579692840576, -0.3962189853191376, 0.31720688939094543, 0.10694477707147598, 0.12723535299301147, 1.0733871459960938, 0.3814966380596161, 0.42462870478630066, -0.9140934348106384, -0.9814534187316895, -0.5264695286750793, 0.3377975821495056, -0.1289801448583603, 0.7222980260848999, 0.8086644411087036, -1.3882206678390503, -0.2297394722700119, -1.2547695636749268, -0.3262116014957428, 0.2405328005552292], [0.8070740699768066, 0.615958034992218, -1.3968417644500732, 0.3590490221977234, 0.26007547974586487, -3.368776321411133, -1.512869954109192, 0.48360955715179443, -0.43186336755752563, 0.4487166702747345, 0.837612509727478, -1.389522671699524, -0.8237625956535339, -0.465434730052948, -0.28674107789993286, 0.12662538886070251, 1.332541584968567, 3.0583863258361816, 0.9346232414245605, 0.4984886646270752, 0.0113045210018754, 0.18266157805919647, 1.2112541198730469, 0.38396111130714417, -0.018782315775752068, 0.8647544384002686, -0.4803188145160675, -0.7064039707183838, -0.5186218023300171, 0.36974602937698364, -0.5839272737503052, -0.40676021575927734], [-1.256543517112732, -1.1498363018035889, -1.2073819637298584, -1.2168855667114258, 0.6227442622184753, -0.18324925005435944, 1.4961336851119995, 0.4164724051952362, 0.112653948366642, 2.4247548580169678, -0.8432348370552063, -0.3923504054546356, 0.4191153049468994, 0.6176513433456421, -1.0219992399215698, 1.0990574359893799, 1.184346318244934, -0.5389220118522644, -1.136855125427246, -0.052205588668584824, 1.501775860786438, -0.14099988341331482, 0.06691145151853561, -0.29247114062309265, 2.0730392932891846, 0.6485147476196289, -1.0734425783157349, 0.31484511494636536, 0.26426607370376587, -1.0338654518127441, -0.6789653897285461, 0.41114166378974915], [0.6795090436935425, -0.6507362127304077, -1.6477594375610352, -1.983672857284546, 1.4139323234558105, -0.17694906890392303, 0.035312309861183167, -1.7940353155136108, -1.0907260179519653, 0.6258325576782227, 2.403656244277954, 0.6653636693954468, -0.4284345209598541, 0.10782138258218765, 1.8036541938781738, 1.20083487033844, 0.04469373822212219, 0.4919450283050537, -0.8854838013648987, 0.4624016284942627, -0.6791497468948364, -1.3623225688934326, -0.3582116365432739, 0.7842639684677124, -0.47450917959213257, -1.4734997749328613, -0.021123507991433144, 0.4538063704967499, -1.0595014095306396, -1.168151617050171, -0.5768322944641113, -0.29967981576919556], [-0.08066811412572861, -0.3805806040763855, 0.3968064486980438, -2.083674907684326, 1.2098748683929443, 0.8428804874420166, -0.3004113435745239, 0.13837184011936188, -2.1399919986724854, 1.0085194110870361, -0.1738060563802719, -0.03705434501171112, -0.1257297694683075, -1.210874319076538, -0.10367647558450699, -0.1695903092622757, -1.3921769857406616, 0.22530584037303925, -1.3987067937850952, 1.273412823677063, -1.5655618906021118, 0.31216567754745483, 0.9224969744682312, 0.6728448867797852, 0.411859393119812, -0.19920697808265686, 0.17719103395938873, -0.3464014232158661, -1.044289469718933, -1.6447111368179321, -0.03142954781651497, -1.3025964498519897], [1.8114887475967407, 0.5838262438774109, 0.6751660704612732, 0.29118818044662476, -0.3912617564201355, 1.7396903038024902, -0.19989994168281555, -0.8725256323814392, -0.4835287034511566, -0.969010591506958, -1.1293895244598389, 0.6451835632324219, -0.9502704739570618, 0.8113829493522644, -0.44579166173934937, 0.17612260580062866, -1.1490780115127563, -0.06160398945212364, -0.44381067156791687, 1.8030558824539185, 0.3946332335472107, -0.6840109825134277, -1.201751470565796, -0.6138294339179993, 0.9905006289482117, 0.586348831653595, -0.869772732257843, 0.24333249032497406, -0.585224449634552, 0.7039608359336853, 0.06464231759309769, 0.6723487973213196], [-0.08013568818569183, -0.790365993976593, -1.6316490173339844, -1.602392554283142, -0.4946203827857971, -0.029428401961922646, 0.18018671870231628, 1.4663509130477905, -0.09323976188898087, -0.3329218924045563, 0.8180847764015198, -0.1453389823436737, 0.46819868683815, -0.272485613822937, 0.4292421340942383, -0.505989670753479, -0.19009588658809662, 0.7106818556785583, -1.7705316543579102, -0.7163873314857483, 0.6835681796073914, -0.4817952811717987, -1.2804723978042603, -0.08003576099872589, 0.6283321976661682, -0.3147510290145874, -0.009636265225708485, -0.25347036123275757, 0.1117020696401596, -0.3503345251083374, -1.2368358373641968, 1.031148076057434], [0.29208773374557495, -1.507061243057251, -0.444117933511734, -1.0408437252044678, -0.2633124589920044, 0.21217729151248932, 1.136755347251892, 0.271209716796875, -0.745193600654602, -0.35232505202293396, -0.07296352833509445, 0.7133058905601501, 0.234346404671669, -1.5760743618011475, 0.8088058829307556, -0.4139074981212616, -0.5222466588020325, 0.8473201990127563, 0.2595077455043793, -1.2353211641311646, -0.5608733892440796, -0.03184900060296059, 0.014992190524935722, 0.5557729005813599, 0.2812342643737793, -0.014281000941991806, 1.4105849266052246, -0.36209261417388916, 0.7004668116569519, -0.8029485940933228, -0.05702003464102745, 1.2849239110946655], [0.39081698656082153, -0.03581796959042549, 0.12227455526590347, 1.001436471939087, -1.6307052373886108, 1.5013096332550049, 1.3415818214416504, -1.1150821447372437, -1.2217904329299927, -0.2835969924926758, 1.451097846031189, -1.3689676523208618, 1.8471482992172241, -1.2247626781463623, 0.04730015993118286, 1.410871148109436, 1.3400381803512573, 0.5797800421714783, 0.5576540231704712, 1.187294363975525, -0.38659796118736267, -0.18021956086158752, -1.6143392324447632, 0.21734113991260529, 0.9057979583740234, -1.0225387811660767, -0.5388926267623901, -0.2575083374977112, -1.3109716176986694, 1.2812355756759644, 1.095096468925476, -0.6347686052322388], [-1.0750435590744019, -0.789483904838562, -0.9928343892097473, 0.6916117668151855, 2.6727306842803955, 0.4594988524913788, -0.20488543808460236, -1.087733268737793, 0.19247214496135712, -0.3557676672935486, -0.9683852195739746, -0.64314866065979, 0.39466673135757446, 0.992458701133728, 0.17254327237606049, 0.43958571553230286, -0.34048184752464294, -0.41842079162597656, -1.6589106321334839, 0.2802380621433258, 0.8522125482559204, -0.1319037526845932, -2.008113384246826, 1.1706187725067139, -0.5916603803634644, 0.48952585458755493, -0.6152436137199402, 0.10094921290874481, 0.18912598490715027, -1.0878589153289795, 0.2665508985519409, -1.2517035007476807], [1.2877541780471802, 1.1078425645828247, -2.0982887744903564, -1.054840087890625, -0.7289729714393616, -0.006393043790012598, 2.0635948181152344, -0.1502295881509781, -0.04138161614537239, 1.3309729099273682, 0.9146140813827515, 0.43035998940467834, 0.20720550417900085, -0.4507972300052643, 0.034674905240535736, 0.6782529354095459, 0.377221018075943, 0.1712670624256134, 0.6862817406654358, -0.030929870903491974, 0.2775420844554901, 0.44777026772499084, -1.8056888580322266, -0.6013727784156799, -0.21334227919578552, -0.6998355388641357, 1.3388071060180664, 0.11506646871566772, -0.5542922019958496, -0.4113682508468628, 0.7319915294647217, -0.6114529967308044], [-0.20150798559188843, 0.6280379295349121, -0.5936650633811951, 0.6143145561218262, 1.261707067489624, 0.5800505876541138, -0.2442672848701477, 0.9732850193977356, -1.0017759799957275, 0.6841123104095459, -0.12484490871429443, -0.18128180503845215, -0.3259047865867615, -0.045895807445049286, 1.5177984237670898, 0.45999523997306824, 0.9245177507400513, -0.23432527482509613, -1.403612732887268, 2.5742383003234863, -0.07732793688774109, 0.22445113956928253, 0.3444902002811432, 0.9825974106788635, -1.1641753911972046, -1.8759121894836426, 0.4177052080631256, 0.909984290599823, 0.1803048551082611, -0.5842475891113281, 0.5259062051773071, -0.96778804063797], [0.6825110912322998, 0.5975891351699829, 0.6602318286895752, 0.36006078124046326, -0.46990007162094116, 0.6462475657463074, -0.40611231327056885, 0.5566427707672119, -1.1693146228790283, -0.5146445035934448, -0.30813542008399963, 0.15387000143527985, -0.07333821803331375, -1.8584465980529785, -0.8768321871757507, -0.7560932040214539, 1.0554327964782715, -0.1584249585866928, 1.2360457181930542, 1.5365978479385376, -0.3285205066204071, -0.3772495985031128, 0.9429982304573059, -0.44772642850875854, 0.30886030197143555, -0.5349920988082886, 1.5867220163345337, 0.90562504529953, -1.396873116493225, 0.0528312511742115, 0.5821189284324646, 0.5500147938728333], [1.1469073295593262, 2.107012987136841, -0.4495891034603119, 1.7325602769851685, 1.0867990255355835, -0.992282509803772, -0.6531364321708679, -0.9787214994430542, -0.4069303870201111, -0.3734399974346161, -0.32733187079429626, -0.49592065811157227, -0.08784899860620499, -0.2794981896877289, 1.5506644248962402, -0.08662132173776627, 1.3569961786270142, 0.8321149349212646, 1.0384379625320435, 0.9354791641235352, 0.501967191696167, -1.0179023742675781, -0.8511128425598145, -0.572293221950531, -3.0085573196411133, -0.2980692684650421, 1.122153639793396, -0.07130125910043716, 0.34268903732299805, 0.848566472530365, -0.9645633697509766, 1.2809250354766846], [1.5282171964645386, 0.15383367240428925, 0.7787606120109558, -0.9468388557434082, 0.9255194067955017, -0.6553081274032593, -1.0687745809555054, 0.8637946248054504, 0.4971465468406677, 0.4799274802207947, 1.3995100259780884, 0.3938436210155487, -0.4459337294101715, -0.665147066116333, -0.9634382724761963, 0.9238274693489075, 0.15159083902835846, 0.36881953477859497, 0.4917418956756592, 0.24242551624774933, -0.8050116896629333, -1.5586819648742676, 0.277090460062027, -0.05165959522128105, -0.1714213490486145, 0.19553470611572266, -0.6796733140945435, 0.4137937128543854, -0.9551876783370972, -0.2786565124988556, -0.5322220325469971, -0.7748379707336426], [0.724687933921814, 1.8887194395065308, 0.6447092294692993, -1.432256817817688, 1.0483769178390503, 0.16378262639045715, -1.5423551797866821, -0.9057226777076721, 1.0101590156555176, 0.4048755168914795, 0.4960074722766876, -0.38454669713974, -0.23488742113113403, -1.1837612390518188, -0.4484746754169464, -2.704157829284668, 1.27583909034729, -0.6632368564605713, -0.9456393122673035, -0.7760833501815796, 0.21276061236858368, -0.5359452366828918, -0.2538035213947296, 