{"block_0": {"att.W_query.weight": [[0.2011360079050064, 0.4583130478858948, 0.32840484380722046, -0.05354965850710869, 0.23482491075992584, -0.5009297728538513, 0.09265070408582687, -0.19362320005893707, -0.007203858345746994, -0.08421612530946732, -0.23502303659915924, -0.3446485102176666, 0.029937850311398506, 0.10739768296480179, 0.376211017370224, -0.30282965302467346, -0.07160624861717224, -0.4172796607017517, -0.0583922304213047, -0.7953575253486633, 0.30265918374061584, 0.7028200626373291, -0.19272813200950623, -0.02465488761663437, -0.13856996595859528, 0.6679218411445618, -0.679266631603241, 0.03801853582262993, -0.03161713108420372, 0.03941800817847252, 0.10340382903814316, 0.2662159204483032], [0.386375367641449, 0.23576632142066956, 0.37685176730155945, -0.6914574503898621, -0.2398756444454193, -0.11331383883953094, 0.34054192900657654, 0.15249617397785187, 0.2576465308666229, 0.24005231261253357, -0.29668474197387695, -0.09194494783878326, -0.3573398292064667, 0.3017922043800354, -0.060191281139850616, -0.800784707069397, -0.39355745911598206, -0.18303096294403076, 0.46818602085113525, -0.24823318421840668, -0.010454745963215828, 0.4637086093425751, -0.04103078693151474, -0.6655413508415222, 0.2916358709335327, -0.2700069546699524, 0.8467341065406799, -0.03131771832704544, 0.3808031380176544, -0.7249608635902405, -0.1575767695903778, 0.5451627373695374], [0.055721625685691833, 0.4040146470069885, 0.27986711263656616, 0.25266870856285095, -0.7892646789550781, -0.5988193154335022, -0.1868450790643692, -0.1381382793188095, -0.40656381845474243, 0.18142744898796082, 0.2875431776046753, 0.1927613615989685, -0.5683170557022095, -0.21004539728164673, 0.30892205238342285, -0.119998037815094, -0.11573909968137741, 0.6395595669746399, -0.12289712578058243, 0.3504071831703186, -0.17998401820659637, -0.3550030291080475, 0.37538501620292664, 0.34791892766952515, -0.41516369581222534, -0.5932469367980957, -0.5090815424919128, 0.5807269811630249, -0.11990219354629517, 0.5433154702186584, 0.22652965784072876, 0.26079627871513367], [0.11431525647640228, -0.4350990355014801, -0.3786824345588684, -0.10436692833900452, 0.8180444240570068, 0.11383017152547836, -0.0012089345837011933, 0.415435791015625, 0.4590427577495575, 0.42017248272895813, -0.5605394244194031, 0.46339529752731323, -0.3559986352920532, 0.39064571261405945, -0.1984976977109909, -0.6481363773345947, 0.407347708940506, -0.9022166132926941, -0.17160049080848694, 0.20674891769886017, 0.18850576877593994, -0.023271609097719193, -0.16027824580669403, -0.06859718263149261, 0.0339200422167778, -0.07946716248989105, 0.5195733308792114, -0.3940218985080719, -0.1892220824956894, -0.013135061599314213, 0.6734146475791931, -0.09916970878839493], [-0.49267974495887756, -0.28640490770339966, -0.0676858127117157, -0.22159017622470856, -0.3470126688480377, -0.7141396999359131, 0.31005141139030457, 0.12123333662748337, -0.40460366010665894, -0.09443027526140213, 0.14904621243476868, 0.5620129704475403, 0.6590654850006104, 0.2821491062641144, -0.06469132006168365, -0.1931755244731903, -0.643782377243042, -0.17259152233600616, -0.029085125774145126, 0.0775015577673912, -0.2948935925960541, 0.4112776219844818, 0.0745023563504219, 0.30255642533302307, -0.07229603081941605, 0.3047032952308655, 0.369028776884079, -0.32523268461227417, 0.5624858140945435, 0.39544761180877686, -0.13280287384986877, 0.5823584198951721], [-0.31647658348083496, -0.3254649341106415, -0.29891106486320496, -0.7669190168380737, 0.2790372967720032, 0.2638389766216278, -0.4803426265716553, -0.35953620076179504, 0.5553532242774963, 0.440888911485672, 0.06255130469799042, 0.558490514755249, -0.22776521742343903, 0.07752954959869385, 0.2678133249282837, -0.4179549217224121, -0.13123880326747894, 0.2017894983291626, -0.07958026975393295, 0.3768911361694336, -0.2755293846130371, -0.1808101236820221, 0.015192744322121143, 0.6335180997848511, -0.10291349142789841, -0.3853991627693176, 0.33657678961753845, 0.3100591003894806, 0.2246766835451126, -0.05818738788366318, 0.33768144249916077, -0.5971102714538574], [-0.04805762320756912, 0.10704201459884644, -0.06879428774118423, 0.08494994789361954, -0.6303587555885315, 0.20646916329860687, -0.1525268852710724, 0.5757264494895935, 0.22254574298858643, 0.10549228638410568, -0.4011552631855011, 0.24030226469039917, -0.10568474978208542, -0.6231321096420288, -0.11274567991495132, -0.03413684666156769, -0.050773315131664276, 0.13653118908405304, 0.47120559215545654, 0.2798670828342438, -0.134796142578125, 0.09536661207675934, 0.13985322415828705, 0.0949883982539177, -0.2760131061077118, -0.5240980982780457, 0.4067768156528473, 0.2990068793296814, 0.2813529670238495, 0.7818634510040283, -0.7915472984313965, -0.24274016916751862], [0.23811066150665283, -0.07622232288122177, 0.027450067922472954, 0.2678060531616211, -0.22056391835212708, -0.6291444301605225, -0.3703213036060333, 0.11855464428663254, 0.06840099394321442, 0.4676484763622284, -0.37532520294189453, 0.9884902238845825, 0.28789275884628296, 0.1115882620215416, -0.6871913075447083, 0.5011374950408936, -0.29520314931869507, 0.13934530317783356, -0.610044002532959, 0.10458120703697205, -0.12835517525672913, -0.0703543946146965, 0.3628254532814026, 0.860927164554596, -0.20017555356025696, -0.46701881289482117, -0.4899318814277649, -0.3424575924873352, -0.2763623297214508, 0.04018958657979965, 0.07587927579879761, 0.06467025727033615], [-0.5651200413703918, -0.12407050281763077, 0.05737393721938133, 0.3257817029953003, 0.29481399059295654, 0.03265644609928131, -0.41648533940315247, -0.02797900140285492, 0.38529980182647705, -0.41747575998306274, 0.45202580094337463, -0.06901347637176514, -0.6565955877304077, 0.2797321379184723, 0.010818114504218102, 0.3862607777118683, -0.4784640967845917, 0.16384759545326233, 0.03742159903049469, 0.01855984702706337, 0.3437020480632782, -0.11174438893795013, 0.6191003322601318, -0.5401371717453003, 0.6274420022964478, -0.5018165111541748, -0.6407156586647034, 0.032476067543029785, -0.4325962960720062, 0.9214146137237549, 0.3324801027774811, 0.09580156952142715], [0.463055819272995, 0.2504545748233795, 0.31417685747146606, 0.6774926781654358, 0.14187166094779968, -0.20293250679969788, -0.08075546473264694, -0.35622650384902954, -0.3350432515144348, 0.7181241512298584, 0.3518199324607849, -0.34862497448921204, -0.2134883552789688, 0.12099537253379822, 0.2435409426689148, 0.04795612394809723, 0.01005500927567482, -0.8490583300590515, -0.18958544731140137, -0.24764329195022583, 0.5035908818244934, -0.2673945128917694, -0.4651764929294586, -0.5028110146522522, 0.1214507594704628, -0.3084462881088257, -0.21224936842918396, 0.2713787853717804, -0.05196676403284073, 0.020133383572101593, 0.3379577696323395, 0.31381067633628845], [0.24574939906597137, 0.18675711750984192, -0.013704776763916016, -0.3137842118740082, -0.3839961290359497, -0.0953654795885086, -0.4104432463645935, 0.4826433062553406, 0.04792063310742378, 0.20929577946662903, -0.27238160371780396, 0.07488097250461578, -0.7001962661743164, 0.6305367946624756, -0.37742555141448975, 0.14043445885181427, -0.2556668817996979, 0.2110758125782013, -0.23480898141860962, 0.46458521485328674, 0.2680540978908539, -0.05408427491784096, 0.480635404586792, -0.19382917881011963, 0.011882646940648556, -0.3969936668872833, 0.16628123819828033, 0.10668060183525085, -0.4432724714279175, 0.32086965441703796, 0.7416070103645325, -0.3299993872642517], [-0.02259894087910652, 0.3129650354385376, -0.42569756507873535, -0.012102150358259678, 0.15116605162620544, 0.7042402625083923, -0.16398628056049347, -0.4804586172103882, 0.3436110317707062, 0.3732145130634308, -0.34714147448539734, -0.3484500050544739, -0.003802782855927944, 0.6617618799209595, 0.2031354010105133, 0.0016927281394600868, -0.02650287188589573, -0.05409947410225868, 0.3744437098503113, -0.2588385045528412, 0.3892572820186615, -0.06598522514104843, -0.21325284242630005, 0.235006645321846, 0.10943367332220078, -0.27955079078674316, 0.22716127336025238, 0.04203379526734352, 0.5093067288398743, -0.41215384006500244, 0.11355355381965637, -0.3638155162334442], [0.3381805121898651, -0.786418616771698, -0.386345773935318, -0.05038972198963165, -0.05196302756667137, -0.00045280641643330455, 0.08848832547664642, 0.08336878567934036, 0.2852078378200531, 0.05978637561202049, 0.4459128677845001, 0.26878654956817627, -0.015931017696857452, -0.28582996129989624, -0.5533607602119446, -0.1825823187828064, 0.13451631367206573, 0.265767902135849, -0.36702436208724976, 0.13076356053352356, 0.36396172642707825, -0.12357684969902039, -0.08574408292770386, -0.4688287377357483, -0.09067928045988083, -0.04885895922780037, -0.08494213968515396, -0.1723913848400116, -0.005681527778506279, 0.6960917115211487, -0.18939104676246643, 0.3608355224132538], [0.7584299445152283, 0.08496628701686859, -0.3946201503276825, 0.25028184056282043, -0.486140638589859, 0.2121855467557907, -0.23653650283813477, -0.14076368510723114, 0.2484317272901535, 0.13260969519615173, -0.46928176283836365, 0.03411991894245148, 0.10476282984018326, -0.0017890500603243709, 0.0029545666184276342, -0.13370013236999512, 0.8421911001205444, -0.13849543035030365, -0.11126770079135895, -0.30779433250427246, 0.26415616273880005, 0.22492046654224396, -0.36499714851379395, 0.05222110077738762, -0.248513326048851, 0.42822960019111633, -0.5420786142349243, -0.18492357432842255, 0.0661798045039177, -0.11528545618057251, 0.42256614565849304, 0.43354126811027527], [-0.41068562865257263, 0.36697831749916077, -0.23513945937156677, 0.222450390458107, -0.2179495245218277, -0.24830712378025055, -0.43895119428634644, -0.009188074618577957, 0.07551794499158859, -0.15916524827480316, -0.10536385327577591, 0.04689701274037361, -0.26031166315078735, 0.5914553999900818, -0.37118029594421387, 0.6300264596939087, 0.5249007344245911, 0.11803820729255676, 0.20423948764801025, 0.21482917666435242, 0.2801835834980011, 0.13304904103279114, 0.015724416822195053, 0.05574341118335724, -0.008984566666185856, -0.23224465548992157, -0.6789835095405579, -0.02415759302675724, -0.7508784532546997, 0.14728236198425293, 0.13531534373760223, -0.23358258605003357], [-0.1131909042596817, -0.8958330750465393, -0.2977065145969391, -0.15035246312618256, -0.11168623715639114, 0.2102235108613968, 0.14443881809711456, -0.05784297734498978, -0.06602329760789871, 0.041721563786268234, 0.2738984525203705, 0.08608851581811905, 0.39227887988090515, -0.3273656666278839, 0.4751059412956238, -0.5681754350662231, 0.0898001492023468, 0.009572241455316544, -0.22434955835342407, -0.0004661100683733821, -0.2917453646659851, 0.2980090081691742, 0.3560897409915924, 0.15938027203083038, -0.2052738070487976, 0.35628801584243774, -0.34640735387802124, -0.5725958347320557, 0.2316116839647293, 0.4987823963165283, -0.584541916847229, 0.7932897806167603], [-0.5253597497940063, -0.3512885272502899, 0.14297489821910858, 0.12170050293207169, -0.08665858954191208, -0.09738381952047348, 0.43386343121528625, -0.9009993672370911, 0.1709492802619934, -0.2154952883720398, -0.13368159532546997, -0.17077206075191498, -0.2227552831172943, -0.3497266471385956, 0.06406228244304657, -0.3044360280036926, 0.24197013676166534, -0.6680679321289062, 0.008848360739648342, -0.6948007345199585, 0.24566228687763214, 0.6035168170928955, 0.39039066433906555, -0.011543337255716324, 0.0678325891494751, 0.7348189353942871, 0.30788302421569824, -0.25282931327819824, 0.6402339935302734, 0.626672089099884, -0.10438436269760132, 0.36629030108451843], [0.15657231211662292, -0.2552989423274994, 0.20832735300064087, 0.29062995314598083, -0.21327893435955048, 0.07811031490564346, 0.029034188017249107, 0.15322300791740417, -0.10486198216676712, 0.4233968257904053, -0.006130320951342583, 0.20673811435699463, -0.2587811052799225, 0.22612951695919037, -0.6849958300590515, -0.27560779452323914, -0.23864036798477173, 0.10152845084667206, -0.33312439918518066, -0.2682633697986603, 0.014100227504968643, 0.07362483441829681, -0.08206501603126526, 0.3674599528312683, -0.3211716115474701, -0.4802887737751007, 0.3256864845752716, 0.27137237787246704, 0.3332287669181824, -0.06088944524526596, 0.3091156482696533, 0.0365951731801033], [-0.3321792483329773, -0.05035160109400749, -0.18678827583789825, -0.11294688284397125, -0.11481421440839767, -0.21097542345523834, 0.013177912682294846, 0.6470907330513, -0.654143750667572, -0.23095263540744781, -0.0925416573882103, -0.2790083587169647, 0.24406760931015015, 0.44347280263900757, -0.28567394614219666, 0.9093019962310791, -0.08621915429830551, 0.6808739304542542, 0.7778542637825012, 0.5767079591751099, -0.23171739280223846, -0.17577306926250458, 0.010223139077425003, 0.3360188603401184, -0.09789695590734482, -0.28682389855384827, -0.424667626619339, 0.30313873291015625, -0.21968892216682434, -0.22048445045948029, -0.43005868792533875, -0.25183212757110596], [-0.6920090913772583, 0.1844552606344223, -0.13038229942321777, 0.17888353765010834, 0.2706710398197174, 0.20660243928432465, 0.6665170788764954, 0.14080940186977386, -0.27240389585494995, -0.00737234391272068, 0.11206746846437454, -0.19562451541423798, 0.6113941669464111, 0.1936272531747818, -0.2690559923648834, -0.08141569048166275, 0.0045858388766646385, -0.3713934123516083, -0.3352411389350891, -0.23798778653144836, -0.3072209358215332, 0.6987596750259399, -0.3271169066429138, -0.061158761382102966, -0.13351187109947205, 0.31077077984809875, 0.43018993735313416, -0.6561324000358582, -0.37478309869766235, 0.00983351469039917, -0.5873975157737732, 0.06462720036506653], [0.05085409805178642, 0.4226776957511902, -0.40797606110572815, -0.21721091866493225, -0.12434311211109161, -0.2501058280467987, 0.10245266556739807, -0.2325599640607834, 0.5299132466316223, -0.12163406610488892, -0.09077595174312592, -0.37759479880332947, 0.09369159489870071, 0.25727298855781555, 0.010841899551451206, -0.2253180593252182, 0.6519156694412231, 0.32004818320274353, 0.19730649888515472, -0.08652327954769135, 0.04329116269946098, 0.3250749409198761, -0.44631609320640564, 0.3654748797416687, -0.17936739325523376, -0.4721207022666931, -0.2448028326034546, 0.5367565751075745, -0.2618541121482849, 0.007136054802685976, -0.046128012239933014, 0.2804016172885895], [0.46650588512420654, -0.5553502440452576, -0.23517809808254242, -0.4841647446155548, -0.31633466482162476, 0.18663321435451508, 0.2393292784690857, 0.036913394927978516, -0.042654335498809814, -0.5582114458084106, 0.3706906735897064, 0.550695538520813, -0.47215020656585693, 0.09857814759016037, -0.12454093247652054, -0.31773754954338074, 0.20775280892848969, 0.2624092698097229, 0.20315536856651306, -0.4288352429866791, 0.41855213046073914, -0.07705652713775635, 0.35438424348831177, -0.23190216720104218, -0.8152382373809814, 0.4842442572116852, 0.3215448260307312, -0.09588641673326492, 0.31505805253982544, 0.41464078426361084, 0.1982492208480835, -0.11643433570861816], [0.27710241079330444, 0.6052384376525879, -0.5520406365394592, 0.6906434893608093, -0.18948258459568024, -0.10877896845340729, 0.6812911629676819, 0.24810904264450073, -0.3545944094657898, -0.19442249834537506, 0.07328378409147263, -0.022767040878534317, -0.12417346984148026, -0.5672013759613037, -0.023919587954878807, -0.008459247648715973, -0.047259826213121414, -0.08282005786895752, 0.272369384765625, -0.5866339802742004, 0.21682260930538177, 0.353517085313797, 0.2581029534339905, 0.030027825385332108, 0.30276158452033997, -0.7079498171806335, -0.331389844417572, 0.35499146580696106, 0.05712142959237099, 0.2576901316642761, -0.2899894714355469, -0.08478483557701111], [-0.13858246803283691, -0.27821511030197144, -0.24893704056739807, -0.33399808406829834, -0.029565036296844482, 0.6533997654914856, 0.6771562695503235, 0.33402329683303833, 0.6739112734794617, -0.2236122190952301, -0.1357632428407669, -0.25906962156295776, 0.1111220046877861, -0.19245541095733643, 0.07619242370128632, -0.08498711884021759, 0.013150589540600777, -0.6001731157302856, 0.2617262005805969, -0.3185121417045593, 0.2722758948802948, -0.4670286178588867, -0.019373511895537376, -0.4591449201107025, 0.6427108645439148, 0.08290509134531021, 0.5946869850158691, -0.11626219749450684, 0.013233921490609646, -0.03960327059030533, -0.2525501549243927, 0.14749233424663544], [-0.5909474492073059, -0.06435699760913849, -0.0652681514620781, -0.05595628172159195, -0.12214580178260803, 0.48335468769073486, -0.6350516080856323, 0.31775346398353577, -0.1254117637872696, -0.2126327008008957, 0.361273854970932, 0.4848804175853729, 0.05365563556551933, 0.070745550096035, 0.4645107090473175, 0.36636826395988464, 0.04218004271388054, -0.15343451499938965, 0.1386614590883255, 0.452432245016098, 0.07706314325332642, -0.6108325719833374, 0.023173095658421516, -0.46534958481788635, 0.21289579570293427, -0.8951727151870728, -0.03614825755357742, -0.6623703241348267, 0.330752968788147, -0.21514026820659637, 0.3391753137111664, -0.667300820350647], [-0.1606275588274002, 0.3689092993736267, 0.1254705786705017, 0.15365661680698395, -0.5375887751579285, 0.16358241438865662, -0.09269159287214279, 0.2002447098493576, 0.06371650844812393, 0.016094116494059563, -0.10537946969270706, 0.16583360731601715, -0.07439049333333969, -0.555169939994812, 0.4677516222000122, -0.37038540840148926, 0.3813881576061249, 0.08549726754426956, 0.5841224789619446, 0.16363820433616638, 0.591845691204071, -0.131306454539299, -0.1663270741701126, -0.33493438363075256, -0.08773729205131531, -0.7813037037849426, -0.5342614054679871, 0.4702709913253784, 0.03251876309514046, -0.007145646493881941, 0.030380411073565483, -0.1300615668296814], [-0.2514946460723877, 0.08771705627441406, 0.21636299788951874, -0.454241544008255, 0.0012676706537604332, -0.1546562761068344, -0.19574227929115295, -0.5040392279624939, -0.2307298481464386, -0.8344464898109436, 0.6314224600791931, -0.43500208854675293, -0.48055335879325867, 0.4140052795410156, 0.43757331371307373, 0.3496643602848053, 0.4658849537372589, 0.7134594321250916, 0.41167911887168884, 0.13397042453289032, -0.11208917200565338, -0.38690778613090515, 0.1301015019416809, -0.7462372779846191, 0.8356297016143799, 0.3789200782775879, -0.4107283353805542, -0.31803756952285767, -0.01911834254860878, 0.0643567442893982, -0.04361932724714279, -0.053305733948946], [0.48840296268463135, -0.39284613728523254, -0.16967558860778809, -0.2939779460430145, 0.4827031195163727, -0.6127691268920898, 0.22854213416576385, 0.09239868819713593, 0.191046342253685, 0.7085261344909668, -0.6664192080497742, 0.2333735227584839, -0.8506329655647278, 0.351142942905426, 0.09444334357976913, 0.6079654693603516, 0.07403100281953812, 0.12765786051750183, 0.3611143231391907, 0.422155499458313, 0.45245644450187683, -0.12566828727722168, -0.09641486406326294, -0.17529387772083282, 0.18704114854335785, -0.5892365574836731, -0.3847635090351105, -0.040932513773441315, -0.3038346469402313, -0.3367187976837158, 0.5265846848487854, 0.03812089562416077], [-0.5645128488540649, -0.6238470077514648, -0.11912736296653748, 0.7190360426902771, -0.012737967073917389, 0.2655375599861145, -0.24685418605804443, -0.05955718830227852, 0.7710773348808289, 0.37956956028938293, -0.41582760214805603, 0.3504312336444855, -0.1806860864162445, 0.10923521965742111, 0.03729582950472832, -0.07889458537101746, -0.6491278409957886, 0.08192859590053558, -0.19535602629184723, 0.8382439613342285, 0.19195371866226196, -0.13111096620559692, 0.7258069515228271, 0.012445077300071716, -0.42173537611961365, -0.5971828103065491, 0.008485883474349976, -0.13906489312648773, -0.13858264684677124, 0.44661861658096313, -0.5284191966056824, 0.14212113618850708], [0.6146711111068726, -0.24033105373382568, 0.275162935256958, 0.004926304332911968, -0.2196427434682846, 0.011026439256966114, 0.45447689294815063, -0.7018105983734131, -0.11413470655679703, 0.6235063076019287, 0.10033433884382248, -0.018926361575722694, -0.3345620334148407, -0.7978807091712952, 0.6182146668434143, -0.04670604690909386, -0.05444777011871338, 0.49028870463371277, -0.042429111897945404, -0.16830773651599884, -0.13322396576404572, -0.5152927041053772, 0.9006813168525696, -0.7470384240150452, -0.1665945202112198, -0.4952465295791626, -0.23301628232002258, -0.2063474804162979, 0.4837613105773926, 0.41535961627960205, 0.2230949103832245, 0.6720896363258362], [-0.28257983922958374, -0.012143053114414215, -0.06546717882156372, 0.4344679117202759, -0.5388641357421875, -0.22622616589069366, 0.7749186754226685, -0.21201303601264954, -0.598580002784729, -0.5460312962532043, 0.4893374741077423, 0.26358696818351746, 0.32976239919662476, 0.10440254956483841, 0.25046539306640625, -0.30082255601882935, -0.4594908058643341, 0.053677286952733994, -0.1973503679037094, -0.027264520525932312, -0.27009084820747375, 0.49192938208580017, 0.27314281463623047, 0.058003395795822144, -0.09902463853359222, 0.40884721279144287, -0.08209046721458435, -0.0888461321592331, 0.27369582653045654, 0.0834306851029396, -0.1316615790128708, -0.09940411895513535], [0.5430106520652771, 0.745733380317688, 0.8472445011138916, -0.11236285418272018, -0.057203032076358795, -0.08252901583909988, -0.07385459542274475, 0.14903849363327026, -0.19376784563064575, 0.33316531777381897, -0.026664774864912033, -0.7228033542633057, 0.16661806404590607, 0.08491899818181992, 0.24753330647945404, -0.5475546717643738, 0.26237189769744873, -0.34486669301986694, 0.06648486107587814, -0.6505540013313293, -0.031771767884492874, 0.40316319465637207, 0.2710857391357422, -0.2494821399450302, 0.03473448008298874, 0.09205728024244308, -0.4822477102279663, 0.2439035326242447, 0.15731854736804962, -0.542683482170105, -0.8151423931121826, 0.32280436158180237]], "att.W_query.bias": null, "att.W_key.weight": [[-0.06680895388126373, 0.06146279349923134, 0.22878843545913696, 0.013540733605623245, -0.048248041421175, -0.09121963381767273, -0.31116947531700134, -0.2364734709262848, -0.5752207636833191, 0.29744428396224976, 0.35493314266204834, 0.015107697807252407, 0.16307440400123596, -0.23122429847717285, -0.10697346925735474, 0.6271378993988037, 0.27561086416244507, -0.24356137216091156, 0.18270085752010345, 0.21320277452468872, 0.5119198560714722, -0.198724165558815, 0.11755745857954025, 0.5126808881759644, -0.61605304479599, -0.4896099865436554, 0.05116775631904602, -0.041968826204538345, -0.4187283515930176, -1.0534617900848389, 0.22511230409145355, 0.05714286118745804], [-0.542942225933075, 0.4707631766796112, -0.0710536390542984, -0.6063176989555359, 0.1426151543855667, 0.45233362913131714, 0.07129444181919098, -0.12890055775642395, -0.237657830119133, 0.8903173208236694, 0.024451259523630142, -0.10176175087690353, -0.13878372311592102, 0.017228834331035614, -0.37259915471076965, 0.7611185312271118, -0.4695170521736145, 0.17130528390407562, -0.11594019085168839, -0.2843417525291443, -0.8228832483291626, -0.21247877180576324, 0.3087579309940338, 0.1198892667889595, -0.30857861042022705, -0.21264365315437317, -0.09830450266599655, 0.5352923274040222, -0.28259801864624023, -0.12023060023784637, 0.2467889040708542, 0.2613982856273651], [-0.5643718242645264, 0.2523222267627716, -0.07427959889173508, -0.47398969531059265, 0.1477784663438797, 0.49964219331741333, 0.33314308524131775, 0.13356207311153412, -0.13942663371562958, -0.2560299038887024, -0.2820838689804077, -0.1053830161690712, 0.4221963584423065, 0.07736342400312424, 0.02699260413646698, -0.5828894376754761, -0.7452914714813232, -0.23587265610694885, 0.2903463840484619, -0.19276976585388184, 0.4821195900440216, -0.22152137756347656, -0.4667811095714569, -0.522060215473175, 0.23471902310848236, 0.29137808084487915, 0.5102141499519348, 0.11356604844331741, 0.43806421756744385, -0.6039769649505615, 0.26384997367858887, -0.2662953734397888], [0.23909294605255127, 0.09717341512441635, -0.2592107653617859, 0.2892669439315796, -0.17066915333271027, 0.27446168661117554, 0.5901203155517578, -0.042113229632377625, -0.5193825960159302, -0.04168286547064781, -0.1401299089193344, 0.20887941122055054, -0.07982184737920761, 0.07132772356271744, 0.18260104954242706, 0.7232772707939148, -0.09974416345357895, 0.18973234295845032, -0.20502717792987823, 0.2710748612880707, 0.2748270630836487, -0.12166070193052292, -0.3377324044704437, 0.7046767473220825, 0.3409714102745056, -0.2816944420337677, -0.34907859563827515, -0.2972167432308197, -0.4031434655189514, -0.2660742402076721, -0.8703933358192444, 0.28898757696151733], [0.10249869525432587, -0.07334379106760025, 0.5371090173721313, -0.02589769847691059, -0.22697745263576508, 0.33940285444259644, 0.4420168995857239, -0.7299686074256897, 0.32659396529197693, 0.08177722990512848, 0.23888349533081055, -0.3496277332305908, -0.5426990985870361, 0.05649016425013542, -0.11342572420835495, -0.022673049941658974, 0.4799516797065735, -0.19603009521961212, -0.13973477482795715, -0.20236854255199432, -0.22092898190021515, -0.11843942105770111, -0.29556944966316223, -0.17922550439834595, -0.1650986522436142, -0.734770655632019, 0.43344029784202576, 0.6176384091377258, 0.025052744895219803, -0.1092730462551117, 0.11698843538761139, 0.588985800743103], [-0.20825991034507751, -0.25761234760284424, 0.8436697721481323, -0.35921981930732727, 0.25369054079055786, 0.619539201259613, 0.0308369267731905, 0.07475271075963974, -0.8631979823112488, -0.3537704646587372, 0.7242382168769836, 0.29919901490211487, 0.23306386172771454, -0.31535497307777405, -0.10382825136184692, 0.17973165214061737, -0.19614097476005554, -0.16924288868904114, -0.3016167879104614, 0.030173934996128082, -0.04203815385699272, -0.3044450879096985, -0.15394026041030884, 0.43606022000312805, 0.5104809999465942, -0.1256176084280014, -0.4289187490940094, -0.05495545640587807, 0.09248246252536774, -0.16761623322963715, 0.1606530100107193, 0.12254751473665237], [0.01055034901946783, -0.06092752888798714, 0.25397616624832153, -0.6792969107627869, -0.18313027918338776, -0.7470409870147705, -0.23866809904575348, -0.043523289263248444, -0.31035006046295166, 0.2528046667575836, 0.18711794912815094, -0.08997330814599991, -0.5538985133171082, 0.6047185063362122, -0.419288694858551, -0.09692035615444183, 0.2770249545574188, 0.15733304619789124, 0.24780356884002686, 0.01829562336206436, -0.534292995929718, -0.32133111357688904, -0.20328181982040405, -0.014966418035328388, 0.13536709547042847, 0.23415321111679077, -0.2656855285167694, 0.25212523341178894, 0.22688817977905273, 0.6792882680892944, 0.03592730686068535, 0.5286675095558167], [-0.12673138082027435, 0.14985740184783936, -0.5070065855979919, -0.13830561935901642, 0.08601310104131699, 0.3071439266204834, -0.23617513477802277, 0.5529308319091797, -0.05323958769440651, -0.3650417625904083, 0.03763189911842346, 0.12062367796897888, -0.4502195715904236, 0.28032350540161133, 1.473304033279419, -0.04514331370592117, 0.07951965928077698, -0.42454519867897034, -0.05621827766299248, 0.1787102073431015, -0.2715420126914978, -0.3100259304046631, -0.12584666907787323, -0.5007435083389282, -0.018204281106591225, 0.6320309638977051, -0.40377146005630493, -0.0016506881220266223, -0.07750082015991211, -0.13252140581607819, 0.2586080729961395, -0.16464321315288544], [-0.19036109745502472, 0.16757073998451233, -0.5649325251579285, 0.389443963766098, 0.09248819202184677, -0.953494131565094, 0.05663970112800598, 0.030193565413355827, -0.14781124889850616, -0.12122182548046112, 0.05288829281926155, 0.39529699087142944, -0.1251751333475113, -0.27672380208969116, -0.49902406334877014, 0.7023741602897644, 0.3332883417606354, -0.16749000549316406, 0.02259722352027893, 0.5299442410469055, -0.6033231019973755, -0.3011598587036133, 0.20323002338409424, 0.595532238483429, 0.6172137260437012, -0.1710360199213028, -0.14620010554790497, -0.6155657172203064, 0.054786503314971924, -0.2904960513114929, 0.35593053698539734, 0.2450423240661621], [0.0704789087176323, -0.2521427273750305, -0.20621424913406372, -0.0423026904463768, 0.09982287883758545, -0.19157089293003082, -0.07954319566488266, -0.18497954308986664, -0.03581749275326729, -0.600834846496582, -0.17165090143680573, -0.2310308814048767, -0.8315946459770203, 0.479891836643219, 0.3962857127189636, 0.07778128981590271, -0.3510984778404236, 0.3938271105289459, 0.150241419672966, 0.6463865637779236, 0.025105692446231842, 0.19925491511821747, 0.29187530279159546, 0.16121500730514526, 0.13945603370666504, -0.24392254650592804, 0.15676401555538177, 0.3515513837337494, 0.15597930550575256, 0.5118628144264221, -0.5184540748596191, -0.0019876942969858646], [-0.26014068722724915, -0.04603902995586395, -0.03597387298941612, -0.07507595419883728, -0.20541855692863464, 0.19157320261001587, -0.22391197085380554, -0.33201122283935547, 0.0992947369813919, 0.027032244950532913, -0.5585008859634399, -0.5139672160148621, 0.528097927570343, 0.1353916972875595, 0.22962592542171478, 0.6524689197540283, 0.839282751083374, 0.034503623843193054, -0.30832433700561523, -0.34098178148269653, 0.33829250931739807, -0.21066312491893768, -0.43431124091148376, -0.6234534382820129, 0.40812569856643677, -0.008123209699988365, -0.037445321679115295, 0.3383137583732605, -0.3220446705818176, 0.3675844371318817, -0.06555339694023132, 0.315322607755661], [-0.6078776121139526, 0.17624303698539734, 0.09475003182888031, 0.021453116089105606, -0.4890438914299011, 0.005408392753452063, -0.14024969935417175, 0.7201210260391235, -0.9005834460258484, 0.28393012285232544, 0.17429889738559723, 0.32481569051742554, 0.014071130193769932, 0.09334823489189148, 0.2201564908027649, 0.5340796113014221, -0.18782663345336914, 0.4586358964443207, -0.3409097492694855, 0.2724801003932953, -0.12901832163333893, 0.03316861763596535, 0.4902470111846924, -0.09365080296993256, 0.3607422113418579, 0.0629725530743599, -0.022870859131217003, 0.2048676460981369, 0.02778664603829384, 0.2802783250808716, 0.25048354268074036, -0.2967686355113983], [-0.48835626244544983, 0.5920442342758179, -0.19135557115077972, -0.2758735716342926, 0.2318781018257141, -0.17490357160568237, -0.07722213864326477, 0.24621045589447021, 0.23042553663253784, 0.1449570506811142, -0.1489955633878708, 0.3722623586654663, 0.4318448603153229, -0.1772005409002304, -0.2422410249710083, 0.1738782525062561, -0.37881484627723694, -0.052330341190099716, -0.42196112871170044, -0.1696300059556961, -0.004188585095107555, 0.06871910393238068, 0.3337157070636749, 0.43230685591697693, 0.1554427295923233, 0.4069572985172272, 0.14636392891407013, -0.39371684193611145, -0.5884959697723389, -0.14768515527248383, -0.24546320736408234, -0.009802348911762238], [-0.46823567152023315, -0.4802442491054535, 0.2556699812412262, -0.1569945216178894, -0.16569609940052032, 0.3994494378566742, 0.8582386374473572, 0.0821743831038475, -0.20451833307743073, 0.1982206255197525, 0.09792276471853256, 0.42743656039237976, -0.06728257238864899, -0.10005182772874832, -0.12707142531871796, -0.19865074753761292, -0.22582033276557922, -0.18065184354782104, 0.11988551914691925, 0.09424388408660889, -0.9264564514160156, -0.023412661626935005, 0.01967998594045639, 0.4961255192756653, 0.08722148835659027, 0.18601499497890472, -0.05729013681411743, -0.4292948246002197, 0.0870693102478981, 0.009188677184283733, 0.2651335597038269, -0.4240899085998535], [0.10528706014156342, 0.1638932228088379, -0.07149030268192291, -0.28330928087234497, 0.14093144237995148, 0.0006627729162573814, 0.1498696506023407, 0.04395680874586105, 0.20053730905056, 0.242330864071846, -0.8033086657524109, 0.3608153164386749, 0.35529863834381104, -0.19198733568191528, 0.45388227701187134, -0.4273378252983093, -0.28560373187065125, -1.0482852458953857, -0.2764135003089905, 0.09855882078409195, 0.02465669997036457, 0.580009937286377, 0.47075220942497253, -0.4627017378807068, -0.2276226133108139, -0.018939409404993057, 0.010826126672327518, -0.09347570687532425, 0.512515127658844, -0.620395302772522, 0.11403004825115204, -0.05409317463636398], [0.25517013669013977, 0.22059273719787598, -0.4065828323364258, 0.07617221772670746, 0.33170443773269653, 0.4536605179309845, -0.44844597578048706, -0.15203829109668732, 0.22981975972652435, 0.45986589789390564, 0.6531467437744141, -0.07137773931026459, -0.46351316571235657, 0.0073334104381501675, -0.39159098267555237, 0.08718756586313248, 0.07780313491821289, 0.48056933283805847, 0.01718306541442871, 0.11649981886148453, -0.1773551106452942, -0.8157785534858704, -0.6194730997085571, 0.23171333968639374, -0.7156679630279541, -0.3825458288192749, -0.20681917667388916, 0.71657794713974, 0.2894415259361267, -0.08606359362602234, 0.29633644223213196, -0.030504386872053146], [-0.5103709101676941, -0.14552009105682373, -0.6434422731399536, 0.7465583086013794, -0.2700687050819397, -0.4793139398097992, -0.4543730616569519, 0.3226029872894287, 0.3713173568248749, 0.10285750776529312, 0.45729827880859375, 0.20813409984111786, 0.19063805043697357, -0.22745651006698608, -0.050710566341876984, 0.7073355317115784, 0.25325509905815125, 0.654213011264801, -0.020248262211680412, -0.1514805555343628, -0.10182682424783707, -0.24669480323791504, -0.3339043855667114, 0.29421839118003845, 0.6360962986946106, -0.13998140394687653, -0.7454472184181213, -0.03080175817012787, 0.1933218091726303, 0.1697538048028946, -0.16557534039020538, -0.07907751947641373], [0.2991366386413574, 0.08995227515697479, -0.24535556137561798, 0.02589629963040352, 0.16176998615264893, 0.06563924252986908, 0.5319600701332092, -0.0042433906346559525, 0.5341477990150452, 0.14539313316345215, 0.1412619650363922, -0.28405511379241943, -0.39839968085289, -0.15785712003707886, -0.03377114236354828, 0.20789828896522522, -0.4192832410335541, -0.0769512802362442, -0.43742242455482483, 0.19030387699604034, 0.3868464529514313, 0.25276920199394226, -0.14891083538532257, -0.4064067006111145, 0.46096938848495483, -0.3920802175998688, 0.03578546643257141, -0.05297321081161499, -0.3273673355579376, 0.043733641505241394, -0.08874863386154175, 0.024555545300245285], [0.15462489426136017, 0.7351667881011963, -0.09938772767782211, -0.14152942597866058, 0.32815536856651306, -0.508963942527771, -0.4468233585357666, 0.14911288022994995, 0.03384949266910553, 0.386467844247818, 0.4117942452430725, 0.10469742864370346, -0.8894148468971252, -0.17044252157211304, 0.40652912855148315, -0.24782836437225342, 0.07195840775966644, -0.08091755211353302, -0.09656599909067154, -0.675101101398468, 0.02831924334168434, 0.39678505063056946, -0.4150095283985138, -0.3551006615161896, 0.06092091277241707, -0.25440505146980286, 0.1935337483882904, 0.16603870689868927, -0.22122417390346527, 0.08551757782697678, 0.8402855396270752, -0.6188965439796448], [-0.3621669411659241, -0.43535685539245605, -0.3433975875377655, 0.009312099777162075, 0.034685149788856506, -0.3453778922557831, -0.20456138253211975, -0.14192257821559906, 0.7890885472297668, 0.016391072422266006, -0.27091190218925476, 0.14371399581432343, -0.39983415603637695, 0.6284573078155518, -0.29112178087234497, 0.3508199155330658, -0.9322772026062012, -0.01047497894614935, 0.4698440134525299, 0.7031347155570984, 0.12342582643032074, -0.06271355599164963, 0.30965128540992737, -0.2985505163669586, 0.26911118626594543, -0.18311455845832825, -0.04172615706920624, 0.2985314130783081, 0.42634543776512146, -0.1463046669960022, 0.15132103860378265, 0.24666272103786469], [-0.5449057817459106, -0.1214882880449295, 0.44080618023872375, -0.22404709458351135, 0.23719422519207, 0.7520204186439514, -0.1657370775938034, 0.2951470911502838, 0.12357393652200699, 0.0912812203168869, -0.021922888234257698, 0.278209924697876, -0.16705530881881714, 0.2672663629055023, -0.23547416925430298, -0.16574814915657043, -0.028241099789738655, 0.13949774205684662, 0.04802164062857628, 0.20970915257930756, 0.37422436475753784, -0.11141607165336609, 0.06334832310676575, -0.433309942483902, -0.6553769707679749, 0.017948653548955917, 0.32438668608665466, -0.2921067178249359, -0.03015471063554287, -0.537838876247406, -0.14066678285598755, -0.3076060712337494], [0.4704407751560211, -0.24955037236213684, -0.6198095679283142, 0.6392225623130798, 0.14053812623023987, -0.15368832647800446, -0.11831195652484894, 0.0014544613659381866, 0.36921003460884094, -0.24625621736049652, 0.4883473515510559, -1.067539095878601, 0.3054298460483551, 0.30459198355674744, 0.08852435648441315, 0.17911016941070557, 0.015597980469465256, 0.6946802139282227, 0.13769352436065674, -0.3827044367790222, -0.24468231201171875, 0.023209625855088234, 0.22426272928714752, 0.2603161334991455, 0.2404564619064331, -0.00014464004198089242, 0.05487769469618797, -0.5170755982398987, -0.19101648032665253, -0.029091937467455864, -0.16168473660945892, -0.06980225443840027], [0.09397831559181213, -0.2620660364627838, 0.28767329454421997, -0.20846650004386902, 0.0391099788248539, 0.7182387113571167, -0.48235756158828735, 0.22612737119197845, 0.20777527987957, -0.2548142969608307, 0.390972763299942, -0.3991895616054535, 0.3762754201889038, 0.5652691721916199, 0.2606770396232605, -0.4805901050567627, 0.053028654307127, 0.08872047066688538, -0.7464158535003662, -0.45269009470939636, 0.1337946057319641, -0.2575344741344452, -0.18042123317718506, -0.20162683725357056, 0.6709463000297546, 0.28328731656074524, 0.08905715495347977, 0.08788958191871643, 0.413137286901474, -0.35832643508911133, 0.15925529599189758, -0.1029961109161377], [0.6298394203186035, 0.3654424250125885, 0.1782979965209961, 0.4477175772190094, -0.49232643842697144, 0.7915565967559814, 0.11794842779636383, -0.21279752254486084, -0.2030072659254074, -0.03319152444601059, 0.5438987612724304, -0.08155085146427155, -0.18521641194820404, -0.13873213529586792, -0.2670987844467163, 0.45172154903411865, 0.31273120641708374, 0.10580235719680786, -0.24197441339492798, -0.20029336214065552, 0.35620561242103577, -0.0017702479381114244, -0.04749631881713867, 0.01943662390112877, 0.3367971181869507, -0.40652960538864136, -0.6941460371017456, 0.12439088523387909, -0.8708743453025818, -0.13380396366119385, -0.10546863824129105, -0.21673309803009033], [-0.6913719177246094, 0.12288481742143631, 0.44414031505584717, 0.586342453956604, 0.3531125485897064, -0.22505007684230804, -0.8905311226844788, -0.002809614408761263, 0.8268546462059021, 0.5945653319358826, 0.28863656520843506, -0.115885429084301, -0.12743912637233734, -0.23046079277992249, 0.14470860362052917, -0.21140123903751373, -0.21319113671779633, -0.08237501978874207, 0.19290217757225037, -0.8349878191947937, 0.39529892802238464, 0.017223812639713287, 0.1722128838300705, -0.46544545888900757, 0.013709468767046928, 0.04369641840457916, -0.3302652835845947, 0.09026207774877548, -0.12951494753360748, 0.2560945451259613, 0.2961603105068207, 0.1758217066526413], [-0.5255401134490967, 0.08515588939189911, -0.41739875078201294, 0.3658556342124939, 0.29352113604545593, -0.12990987300872803, -0.2295062243938446, -0.005356777925044298, 0.056259624660015106, 0.8863288164138794, 0.6324862241744995, 0.07430863380432129, -0.26744401454925537, -0.06631463021039963, -0.5467523336410522, 0.11698845028877258, -0.06551837921142578, -0.5059965252876282, -0.3105378746986389, -0.3406207859516144, -0.5039626359939575, -0.1667839139699936, 0.1060490533709526, -0.2026771903038025, 0.3006990849971771, 0.06278962641954422, 0.41524776816368103, 0.2035556435585022, -0.16687975823879242, 0.4917357861995697, 0.32935675978660583, -0.17311909794807434], [0.6109055280685425, -0.7028446793556213, -0.03930247575044632, 0.013726631179451942, 0.04837916046380997, -0.2956908047199249, -0.313936710357666, -0.27712273597717285, 0.017979877069592476, -0.05968010425567627, -0.40395981073379517, 0.5837475061416626, 0.653149425983429, 0.09339495748281479, -0.2910754978656769, 0.05087639391422272, -0.292934387922287, -0.4256802201271057, -0.0947747677564621, 0.20693928003311157, -0.9537966251373291, -0.02353825606405735, 0.6262653470039368, 0.3941343128681183, -0.48063093423843384, 0.36452972888946533, 0.40431293845176697, -0.22940371930599213, 0.6294041275978088, -0.316241055727005, -0.14207956194877625, 0.4951530694961548], [0.6036132574081421, 0.8039040565490723, 0.33158329129219055, -0.07359261065721512, -0.3450404107570648, 0.6717185974121094, 0.21199916303157806, -0.12018026411533356, -0.10483786463737488, -0.09812182188034058, -0.41321027278900146, 0.032182659953832626, 0.16291217505931854, -0.33072739839553833, -0.600018322467804, -0.565263032913208, -0.3486655652523041, -0.04094430431723595, 0.28364047408103943, -0.11749699711799622, 0.28463175892829895, -0.11953578889369965, -0.2299211621284485, -0.07880659401416779, 0.06265228986740112, -0.17769229412078857, 0.3180958926677704, 0.6196736097335815, -0.6863477826118469, -0.03516029566526413, -0.39393913745880127, -0.056850988417863846], [-0.06684400141239166, 0.33716773986816406, -0.5238799452781677, 0.07087764143943787, 0.6557230949401855, -0.2757769823074341, -0.351953387260437, -0.0606440044939518, -0.21070006489753723, 0.7350152730941772, 0.22615720331668854, -0.15121161937713623, 0.3033038377761841, 0.461875855922699, 0.06801257282495499, -0.2894754409790039, 0.49627062678337097, -0.14646020531654358, -0.9242598414421082, -0.20728518068790436, -0.4086269736289978, -0.12344152480363846, 0.05283711105585098, 0.1630311906337738, 0.3679463863372803, 0.26563867926597595, 0.05939687415957451, -0.08903315663337708, 0.2612905204296112, -0.8052776455879211, 0.6999760270118713, -0.35768890380859375], [-0.377702921628952, -0.16279950737953186, 0.3833998739719391, 0.2184840440750122, 0.01928889937698841, -0.11713726818561554, 0.42797476053237915, -0.250590980052948, -0.2666614055633545, 0.08314071595668793, 0.03270880877971649, -0.41755759716033936, 0.1008860319852829, -0.1344396024942398, -0.36019083857536316, -0.44012871384620667, 0.23988549411296844, -0.01667746901512146, -0.17219027876853943, 0.3752843737602234, -0.5691674947738647, 1.17814302444458, -0.8119319081306458, 0.5149478316307068, -0.2999040186405182, -0.18367420136928558, 0.7511440515518188, 0.2655014097690582, -0.7225648164749146, 0.10893447697162628, 0.1927027702331543, 0.08567081391811371], [0.01521804928779602, -0.008502275682985783, 0.18955041468143463, -0.03886401280760765, 0.45594003796577454, 0.3757217824459076, 0.12317567318677902, 0.07388833165168762, -0.05960211157798767, 0.05627508461475372, 0.4960014820098877, 0.053276240825653076, 0.025405170395970345, 0.6704641580581665, -0.450313925743103, -0.07694126665592194, -0.29154565930366516, -0.28321877121925354, -0.6654501557350159, 0.19100642204284668, -0.349554181098938, 0.16428057849407196, -0.4770767390727997, 0.47777852416038513, 0.0891214981675148, -0.07611015439033508, 0.042225297540426254, -0.3307410180568695, 0.40052318572998047, -0.5625240206718445, 0.7152735590934753, -0.11490362882614136], [-0.11156407743692398, -0.6813399791717529, -0.2936875522136688, 0.4245404303073883, -0.4515485167503357, -0.20880404114723206, 0.7269977331161499, 0.1557186245918274, 0.10316433012485504, 0.27478837966918945, -0.7431545257568359, 0.520599901676178, -0.5062004327774048, 0.5476958155632019, -0.38135021924972534, 0.43702802062034607, 0.2699302136898041, -0.06838995963335037, -0.11763349175453186, 0.6359479427337646, -0.1314927637577057, -0.32023558020591736, 0.2679615616798401, 0.29885321855545044, 0.08912649750709534, -0.27410784363746643, 0.4966535270214081, -0.8265122771263123, 0.5397117733955383, 0.2203880250453949, -0.020742183551192284, -0.27857616543769836]], "att.W_key.bias": null, "att.W_value.weight": [[0.34192150831222534, 0.49582546949386597, 0.3473336100578308, -0.11683545261621475, -0.10234551131725311, -0.21550948917865753, -0.0026878342032432556, -0.2995384633541107, -0.031182436272501945, 0.2731013596057892, -0.01877344772219658, 0.02651989832520485, -0.5206149220466614, 0.35082218050956726, 0.3007241487503052, -0.3388460576534271, 0.25199389457702637, -0.19333627820014954, -0.5410990715026855, -0.23003391921520233, 0.05676713213324547, 0.39357590675354004, -0.08593765646219254, -0.1896207183599472, -0.28430014848709106, -0.05694950744509697, -0.1845271736383438, 0.256525456905365, 0.0869058296084404, 0.2657449543476105, -0.3268524706363678, -0.07125811278820038], [0.31810104846954346, -0.09172975271940231, 0.15213969349861145, -0.14902141690254211, -0.3660765290260315, -0.17373105883598328, -0.7578654289245605, 0.004015692509710789, 0.020981473848223686, 0.19853435456752777, 0.10383830964565277, -0.15743602812290192, 0.2863074243068695, -0.21391543745994568, 0.0337894931435585, -0.04513651132583618, 0.0016456048469990492, 0.21650107204914093, 0.4545600116252899, 0.35801854729652405, -0.21992293000221252, -0.4652239680290222, 0.3554108142852783, 0.02704756148159504, -0.0030912223737686872, -0.0672864317893982, -0.35238632559776306, 0.2926393151283264, -0.29313454031944275, 0.265957236289978, -0.0008207609062083066, 0.17355512082576752], [-0.12252037227153778, -0.03231211006641388, 0.18306708335876465, 0.0986115112900734, -0.34494855999946594, 0.38090381026268005, 0.07197992503643036, 0.07865113765001297, 0.036187976598739624, -0.026582911610603333, 0.5250384211540222, -0.23683243989944458, -0.020799605175852776, -0.07397008687257767, -0.28516674041748047, -0.12015226483345032, -0.012966887094080448, 0.17654171586036682, 0.18347083032131195, -0.3913342356681824, -0.19202904403209686, -0.10756627470254898, 0.5284944772720337, -0.1401604413986206, 0.1648753583431244, 0.1470595896244049, -0.05505106598138809, -0.2729804515838623, -0.03147972747683525, -0.03428555279970169, -0.020444530993700027, 0.23163901269435883], [0.20972850918769836, 0.059374090284109116, -0.0877496749162674, 0.19532813131809235, -0.07340899854898453, -0.36006617546081543, 0.4917359948158264, 0.08395688235759735, -0.2273484617471695, 0.0995405986905098, 0.40266579389572144, -0.4312969148159027, -0.23334696888923645, -0.14327527582645416, -0.24443893134593964, -0.25553691387176514, -0.11479400098323822, 0.006210130639374256, 0.14510221779346466, -0.12028755247592926, 0.49102839827537537, -0.3056260943412781, 0.024013979360461235, -0.31552135944366455, 0.26854950189590454, -0.032550349831581116, 0.1283993124961853, 0.16577136516571045, 0.28146758675575256, -0.040361810475587845, 0.11099612712860107, -0.19178014993667603], [-0.008866088464856148, 0.06540105491876602, 0.2978030741214752, -0.18354643881320953, -0.1771104484796524, -0.1506737619638443, -0.03306417539715767, 0.14593790471553802, 0.34034818410873413, 0.012819858267903328, 0.35199111700057983, 0.16657938063144684, 0.06430204957723618, 0.09324967861175537, -0.07506989687681198, -0.4080887734889984, -0.11737790703773499, -0.17816057801246643, 0.6248831748962402, -0.5429331660270691, -0.13769662380218506, 0.3726777136325836, -0.16690869629383087, -0.3689438998699188, -0.1685158908367157, 0.054831404238939285, -0.23022222518920898, -0.3091388940811157, -0.015645690262317657, 0.5155313611030579, 0.0008641930762678385, 0.17154446244239807], [0.43462201952934265, -0.14531873166561127, -0.1767740547657013, -0.38204166293144226, 0.027399402111768723, 0.006233855150640011, 0.6581740379333496, -0.1007399633526802, 0.40207967162132263, -0.1617390364408493, -0.07651381194591522, 0.05099604278802872, -0.16126257181167603, 0.153213769197464, 0.13344284892082214, 0.20717841386795044, -0.8821403384208679, 0.008898023515939713, 0.19654564559459686, 0.4347586929798126, -0.31448495388031006, -0.31052500009536743, 0.05668063461780548, 0.001193958567455411, 0.2147115021944046, 0.10568708181381226, -0.23268206417560577, 0.10495699942111969, 0.15865465998649597, -0.3613417446613312, 0.12135497480630875, 0.0014628625940531492], [0.035742130130529404, -0.22692684829235077, -0.06388940662145615, 0.23553885519504547, -0.4046153724193573, -0.03798830881714821, 0.275819331407547, 0.3551976680755615, 0.019144779071211815, 0.04670625925064087, 0.4574439525604248, 0.5569924712181091, 0.2754065990447998, -0.4845921993255615, 0.1697589010000229, -0.00453948276117444, -0.18105202913284302, 0.05546245723962784, 0.3498326539993286, -0.23019950091838837, 0.17862044274806976, -0.07504241913557053, 0.4297512471675873, -0.4157317876815796, 0.104885533452034, -0.2634480595588684, 0.01647399365901947, 0.030409209430217743, 0.11154037714004517, 0.3202696144580841, -0.8391724824905396, -0.10397055000066757], [-0.2593522071838379, 0.058802299201488495, -0.0765315368771553, -0.23326294124126434, 0.2446763813495636, 0.1067429780960083, 0.062229499220848083, 0.2876311242580414, -0.6317415237426758, -0.13368894159793854, -0.10451793670654297, 0.04263788089156151, -0.1080644279718399, -0.32998737692832947, -0.0464269258081913, -0.10628066956996918, -0.016980765387415886, -0.18063762784004211, 0.3743373453617096, 0.2540833055973053, -0.0976511612534523, 0.061962999403476715, -0.2075234353542328, 0.6349071860313416, 0.45928964018821716, 0.3158990144729614, -0.028687745332717896, -0.6432327628135681, 0.11994040757417679, 0.2374637871980667, -0.06838465481996536, -0.10209982097148895], [0.07338631898164749, 0.03680262714624405, 0.0034167058765888214, -0.005465138703584671, 0.14725035429000854, -0.19403503835201263, -0.39700958132743835, 0.18325543403625488, 0.24676845967769623, 0.3935236930847168, -0.08492575585842133, -0.1220838651061058, -0.1281321793794632, -0.06470488756895065, -0.1151706799864769, 0.30903756618499756, -0.3274611532688141, 0.3500182628631592, -0.14201019704341888, -0.16866326332092285, 0.13101798295974731, -0.0121013717725873, -0.22660084068775177, -0.3259275257587433, -0.08788876980543137, 0.3208714425563812, -0.14228595793247223, 0.10067744553089142, 0.23036906123161316, 0.21232850849628448, 0.7436099052429199, -0.7426812052726746], [-0.21389317512512207, -0.24610044062137604, -0.2854969799518585, -0.11137408763170242, 0.27456334233283997, -0.20027606189250946, -0.2736774981021881, -0.4211846888065338, -0.6468841433525085, -0.15426401793956757, 0.026129167526960373, 0.14241410791873932, 0.2078598141670227, 0.13473576307296753, 0.01457019243389368, -0.07927874475717545, 0.22448739409446716, 0.09808177500963211, 0.5634872913360596, -0.23103973269462585, 0.16106759011745453, -0.15414175391197205, -0.047999732196331024, 0.2077145129442215, 0.06583348661661148, 0.014668157324194908, -0.5542680025100708, 0.4079439640045166, 0.3332007825374603, -0.003917108755558729, 0.08916771411895752, -0.027662599459290504], [0.1131608635187149, -0.24948076903820038, -0.6429729461669922, 0.19224153459072113, 0.009216729551553726, 0.14913614094257355, -0.00142558547668159, -0.1720784306526184, -0.13964486122131348, -0.28293082118034363, 0.5416359901428223, -0.2626866400241852, 0.06273027509450912, -0.05743757262825966, 0.14798054099082947, -0.02596454694867134, -0.10649274289608002, 0.0666445642709732, 0.6393957138061523, 0.18884038925170898, 0.31296977400779724, -0.16178858280181885, 0.10253913700580597, -0.2616332471370697, -0.2901991307735443, -0.012074247933924198, -0.14256775379180908, 0.3606185019016266, -0.037628140300512314, -0.17550046741962433, -0.027430880814790726, -0.20518042147159576], [-0.45791691541671753, 0.12126745283603668, -0.2629452049732208, -0.5546963214874268, -0.33097901940345764, 0.04933490604162216, 0.20730379223823547, -0.038924265652894974, -0.004809878300875425, -0.00563697749748826, -0.005084367468953133, -0.1407943069934845, -0.22995281219482422, 0.6205542683601379, 0.1582932025194168, 0.3616984188556671, -0.1237870305776596, -0.10257633030414581, -0.017949502915143967, -0.25101470947265625, 0.4273304045200348, 0.09202711284160614, 0.38872286677360535, -0.1440861076116562, -0.11616259068250656, 0.2859995663166046, -0.10351269692182541, 0.6257297992706299, 0.3056257963180542, -0.5462036728858948, 0.6318070292472839, -0.09099465608596802], [-0.23245002329349518, -0.2192869633436203, 0.29497942328453064, -0.22728022933006287, 0.017333034425973892, -0.10038851946592331, 0.03459155932068825, 0.3593099117279053, 0.024257484823465347, 0.05981342867016792, 0.27284467220306396, -0.0060959309339523315, 0.05767834559082985, 0.17429541051387787, -0.04931677132844925, -0.06693556904792786, -0.07830987870693207, -0.13252291083335876, 0.26133212447166443, -0.018753712996840477, -0.41153082251548767, -0.19813434779644012, -0.13786186277866364, -0.16720102727413177, 0.45238807797431946, 0.038888342678546906, -0.1820182502269745, 0.1339287906885147, 0.3287004232406616, -0.2127404659986496, -0.49133822321891785, 0.20014582574367523], [-0.1278117448091507, -0.1179373636841774, 0.16705577075481415, 0.302603542804718, -0.045819878578186035, -0.14997345209121704, -0.06835919618606567, -0.033155933022499084, -0.21178239583969116, 0.14911630749702454, 0.23532281816005707, -0.007964763790369034, -0.26958784461021423, 0.23844294250011444, 0.25306886434555054, -0.2629827558994293, -0.5193637609481812, 0.30125099420547485, -0.1299883872270584, -0.07067963480949402, -0.3346291482448578, -0.04198889806866646, 0.09005279839038849, -0.12969748675823212, 0.3049641251564026, 0.09008355438709259, -0.17687444388866425, -0.29981929063796997, -0.07028543949127197, 0.07655280828475952, -0.3654597997665405, 0.2409268021583557], [0.1446940153837204, 0.006850327365100384, 0.48589324951171875, -0.1316787451505661, 0.31311869621276855, 0.44093412160873413, -0.045807190239429474, 0.13519267737865448, -0.17275024950504303, -0.2564806044101715, -0.19631138443946838, 0.014626915566623211, -0.24368450045585632, -0.41783273220062256, 0.011867061257362366, -0.20884957909584045, -0.6820321083068848, -0.005241623613983393, 0.37312260270118713, -0.20153580605983734, 0.015269685536623001, 0.15864092111587524, -0.1700526922941208, -0.4378199577331543, 0.08100778609514236, 0.3864244222640991, -0.5268346071243286, 0.1330082267522812, -0.11217612028121948, 0.2319313883781433, -0.1624566912651062, 0.3831215500831604], [-0.18575304746627808, -0.05977437645196915, -0.2337644100189209, 0.2996847927570343, 0.10546699166297913, -0.4484419822692871, 0.1150975301861763, -0.14781540632247925, 0.3798520267009735, 0.10208094865083694, -0.06231018155813217, -0.06444001197814941, -0.06654518842697144, 0.06191603094339371, -0.026303831487894058, -0.2317935973405838, -0.1357586532831192, -0.2404448539018631, 0.05940132215619087, -0.1930583417415619, -0.44959700107574463, -0.12060946971178055, 0.3503934442996979, 0.5961761474609375, -0.40834149718284607, 0.23751118779182434, 0.36915674805641174, -0.09080777317285538, 0.06830660253763199, 0.08702034503221512, -0.2801509201526642, 0.16196052730083466], [0.006760719697922468, 0.18373556435108185, 0.3647152781486511, -0.4223567843437195, 0.15246270596981049, 0.1253148764371872, 0.02734813652932644, 0.22941458225250244, -0.07845990359783173, -0.2770414352416992, 0.017201609909534454, -0.33358848094940186, -0.05389939248561859, -0.0694817379117012, 0.1208554208278656, 0.11674782633781433, 0.09170443564653397, 0.038502275943756104, 0.1815766841173172, -0.10111366212368011, 0.3153037130832672, -0.4301895797252655, 0.8937550187110901, -0.11264126747846603, 0.1901451200246811, -0.3685551881790161, 0.12765644490718842, -0.19538313150405884, -0.04930443689227104, 0.08041946589946747, 0.06040715426206589, -0.024615995585918427], [-0.3942839801311493, 0.14487405121326447, 0.24392342567443848, 0.5499900579452515, -0.20323172211647034, -0.0524383969604969, 0.20733214914798737, -0.4683457911014557, 0.01877746358513832, -0.40039223432540894, -0.3689631521701813, 0.23861144483089447, 0.23956266045570374, -0.24438664317131042, -0.20034413039684296, 0.28405827283859253, -0.24899932742118835, -0.33230888843536377, -0.3063874840736389, 0.18473324179649353, -0.10098134726285934, 0.19173042476177216, 0.45711588859558105, 0.1103006899356842, -0.463069885969162, 0.33146005868911743, 0.1145087406039238, 0.007315395399928093, -0.24962708353996277, 0.3280804753303528, -0.14269575476646423, 0.07668095082044601], [-0.1038275808095932, -0.2778702974319458, -0.29656553268432617, -0.039405714720487595, 0.1670202910900116, 0.5432880520820618, -0.26208385825157166, -0.4643908739089966, 0.1689392328262329, 0.06904452294111252, 0.12232326716184616, -0.24180614948272705, 0.042941175401210785, 0.16928081214427948, 0.5742554068565369, -0.20839625597000122, 0.1610337197780609, 0.10874023288488388, -0.1436735987663269, -0.18748432397842407, -0.1956419199705124, 0.09485168009996414, 0.004173248074948788, 0.2861713469028473, 0.6950857043266296, 0.20274338126182556, -0.049715615808963776, -0.07479175925254822, -0.4015376567840576, -0.244545117020607, -0.14665092527866364, 0.38164442777633667], [0.021526580676436424, -0.023153984919190407, 0.40465062856674194, -0.059839826077222824, -0.06207960098981857, 0.31058862805366516, 0.2515335977077484, 0.16676245629787445, -0.4579315781593323, 0.19114001095294952, -0.27901673316955566, -0.04381924495100975, -0.4969857931137085, -0.051736291497945786, 0.0997430756688118, 0.24970294535160065, -0.01958395540714264, -0.020248932763934135, 0.061975378543138504, -0.20557953417301178, -0.4454648494720459, 0.20829010009765625, 0.2970876097679138, 0.43609923124313354, 0.24161355197429657, -0.07760468125343323, -0.2571784257888794, 0.09451710432767868, -0.04459657520055771, -0.4591175615787506, -0.27225127816200256, 0.12880061566829681], [-0.011846299283206463, -0.07674791663885117, -0.49156296253204346, 0.12624666094779968, 0.25963449478149414, 0.3578420877456665, 0.14500795304775238, 0.017389507964253426, 0.007963924668729305, 0.34894314408302307, 0.0013456156011670828, -0.014196353033185005, -0.20661720633506775, -0.24284127354621887, 0.5448989272117615, 0.1320541352033615, -0.6964198350906372, -0.10373139381408691, -0.012825602665543556, -0.4223305583000183, 0.43094730377197266, -0.0992596298456192, -0.21514207124710083, -0.13284334540367126, -0.03785121813416481, 0.47130265831947327, 0.12686772644519806, 0.206211656332016, -0.020281799137592316, -0.2624976336956024, -0.34644514322280884, -0.23369057476520538], [0.2130167931318283, -0.560685932636261, -0.527473509311676, 0.02100457437336445, 0.09622292220592499, -0.20361430943012238, 0.0508246012032032, -0.10779589414596558, 0.07595394551753998, -0.34780362248420715, -0.27424484491348267, -0.13266123831272125, -0.28300532698631287, 0.5922684073448181, -0.09998034685850143, 0.3941899538040161, -0.149366557598114, -0.15929746627807617, -0.18941575288772583, 0.3276559114456177, 0.23552100360393524, 0.513769805431366, 0.0662345290184021, 0.1334799826145172, 0.4071187376976013, -0.2417326718568802, -0.17203660309314728, -0.017959153279662132, 0.15725484490394592, 0.2601739466190338, -0.1614454984664917, -0.01559421792626381], [0.1645548939704895, 0.15700247883796692, -0.1660623550415039, 0.10080105811357498, -0.10144167393445969, -0.13118720054626465, -0.28078311681747437, -0.10763957351446152, 0.2557533085346222, -0.05345972999930382, 0.053096622228622437, 0.3026895821094513, -0.27644869685173035, -0.3897416591644287, 0.5240982174873352, 0.17941300570964813, -0.24631758034229279, 0.26576533913612366, -0.18393222987651825, -0.08213838934898376, 0.2763941287994385, -0.42532673478126526, 0.4626663625240326, -0.2750934064388275, 0.4143189489841461, 0.08133336156606674, 0.042477186769247055, -0.37246331572532654, 0.15625247359275818, -0.1611461639404297, -0.21316158771514893, 0.003908341750502586], [0.2606716752052307, -0.3277014493942261, -0.09748927503824234, -0.10811426490545273, -0.14911311864852905, 0.18808504939079285, 0.1673250049352646, -0.0996849462389946, 0.358545184135437, 0.1354449987411499, -0.21698549389839172, 0.03021598979830742, -0.679054856300354, 0.11126848310232162, -0.22180521488189697, 0.1574048548936844, 0.22248201072216034, 0.38484469056129456, -0.3220337927341461, -0.25808876752853394, -0.17676624655723572, -0.20090030133724213, -0.3355184495449066, 0.409594863653183, -0.11571332067251205, -0.34325987100601196, 0.04774731770157814, 0.23948748409748077, -0.0594843365252018, -0.008259981870651245, -0.06231057271361351, 0.3917385935783386], [0.1527147889137268, -0.009718391112983227, 0.20291969180107117, 0.4548311233520508, -0.12972815334796906, 0.4613700211048126, 0.04691462963819504, 0.22765830159187317, -0.29854920506477356, -0.07834626734256744, 0.13875821232795715, 0.31020334362983704, 0.3588409125804901, -0.574993371963501, 0.13228067755699158, -0.20769089460372925, 0.10624478757381439, -0.025625191628932953, 0.0085657499730587, -0.28865113854408264, 0.09080671519041061, -0.3518800735473633, -0.1510622799396515, -0.3282260596752167, 0.46964356303215027, -0.03932330012321472, 0.6032412052154541, 0.10535412281751633, 0.07197270542383194, 0.1255178302526474, -0.16768459975719452, -0.1445661336183548], [0.0658760517835617, -0.3824789822101593, -0.18110275268554688, 0.17943175137043, -0.16037634015083313, 0.29506054520606995, -0.05517341569066048, 0.07915154099464417, 0.44588515162467957, 0.312704861164093, -0.10981667786836624, -0.009170051664113998, 0.19005557894706726, -0.15099550783634186, 0.06441880762577057, 0.011343182064592838, 0.6276139616966248, 0.11043226718902588, -0.027704520151019096, -0.060804300010204315, 0.39863401651382446, -0.36142030358314514, 0.012662316672503948, -0.20990759134292603, -0.4579017162322998, 0.06439018249511719, -0.28789541125297546, -0.17096275091171265, -0.0625368058681488, 0.2563803493976593, -0.037752654403448105, -0.0609426274895668], [-0.5406123995780945, 0.09667292982339859, -0.018117500469088554, -0.03339490666985512, -0.21602104604244232, 0.3064509630203247, -0.002718677744269371, 0.47664976119995117, 0.060822244733572006, -0.193998783826828, 0.03596777841448784, -0.33609238266944885, 0.599616527557373, -0.012042157351970673, -0.01250364724546671, 0.4666399359703064, 0.31862133741378784, 0.14566896855831146, 0.5324426293373108, -0.27631279826164246, -0.3150937259197235, -0.006075168959796429, -0.06784495711326599, -0.013783419504761696, 0.10481931269168854, 0.20122689008712769, -0.3733905851840973, -0.03703802451491356, 0.014484898187220097, -0.3180336356163025, -0.0975257083773613, 0.04118211194872856], [-0.10716848820447922, 0.007230609655380249, -0.3299919068813324, -0.02013966254889965, 0.10284075886011124, -0.188648521900177, -0.14719264209270477, -0.5384299755096436, -0.1561783403158188, -0.040318865329027176, -0.035909444093704224, -0.0687687024474144, -0.006524111609905958, -0.2599988877773285, 0.4078156352043152, -0.03545808047056198, 0.2437809854745865, -0.1777048259973526, 0.14606453478336334, -0.08652502298355103, 0.7351652979850769, 0.3815902769565582, 0.13309992849826813, 0.2186218947172165, 0.15506711602210999, 0.27440860867500305, 0.3172858655452728, -0.22034884989261627, 0.2449626624584198, 0.21583333611488342, -0.3962131142616272, -0.29903891682624817], [-0.3051355183124542, -0.006574988830834627, 0.46000927686691284, -0.45932072401046753, -0.015859272330999374, -0.06094227731227875, 0.4921920597553253, 0.04163546860218048, 0.20454764366149902, 0.3298705220222473, -0.5771493315696716, 0.15475955605506897, -0.13264626264572144, 0.011491112411022186, -0.033784009516239166, 0.20185574889183044, -0.40653443336486816, 0.38661348819732666, -0.2859020233154297, 0.49179375171661377, -0.17686448991298676, 0.22411485016345978, 0.08694569766521454, 0.05358532443642616, -0.39803409576416016, 0.16969706118106842, 0.40897759795188904, -0.48154911398887634, -0.2603139579296112, -0.09945061802864075, -0.31511276960372925, -0.08121176064014435], [0.19593723118305206, -0.18657928705215454, 0.1827968955039978, 0.18542666733264923, -0.25109079480171204, -0.03067033924162388, -0.22668825089931488, 0.3440835773944855, -0.02466103993356228, -0.08847615122795105, -0.17671217024326324, -0.15076617896556854, -0.11406604945659637, 0.29385989904403687, 0.5929847359657288, 0.06806723773479462, 0.16908901929855347, -0.585610032081604, -0.17748653888702393, -0.5363906621932983, -0.10443487018346786, -0.1930638998746872, -0.1596211940050125, 0.25788721442222595, -0.052105098962783813, 0.6085240244865417, -0.06739326566457748, 0.32452768087387085, 0.1176798865199089, 0.15059725940227509, -0.03935636952519417, 0.0060591199435293674], [-0.18404518067836761, -0.009901677258312702, 0.36367902159690857, -0.18974123895168304, -0.12114699184894562, 0.32161805033683777, 0.33559903502464294, -0.051652003079652786, -0.33967089653015137, -0.27294105291366577, -0.1312541365623474, -0.24978113174438477, 0.3401830494403839, -0.1281934231519699, -0.017880059778690338, 0.2001781314611435, 0.500295877456665, 0.10204089432954788, 0.02995840087532997, 0.24815215170383453, 0.003977706655859947, 0.1303195208311081, -0.19292794167995453, 0.3853359520435333, 0.01806020177900791, -0.28217583894729614, -0.1644284427165985, 0.6208035945892334, -0.0688694566488266, 0.12109355628490448, 0.30759197473526, -0.22754521667957306], [-0.00406315503641963, 0.5155934691429138, -0.13835205137729645, 0.073387011885643, -0.17339251935482025, 0.3617940843105316, 0.1717236340045929, -0.18323057889938354, -0.011002848856151104, -0.36395686864852905, 0.07317082583904266, -0.03562837839126587, -0.18611326813697815, 0.2688007652759552, -0.557892918586731, -0.41300904750823975, 0.10233524441719055, -0.45801809430122375, -0.055351607501506805, 0.04241803288459778, 0.051342353224754333, 0.3818008005619049, 0.13781261444091797, 0.0038082513492554426, 0.11323926597833633, 0.6389874815940857, 0.33941179513931274, -0.06701857596635818, -0.02423042804002762, 0.10147347301244736, -0.3492013216018677, 0.0368446484208107]], "att.W_value.bias": null, "att.out_proj.weight": [[-0.02991568110883236, -0.04744533449411392, 0.06546249985694885, 0.012711741030216217, 0.07029043883085251, 0.1729285717010498, -0.22288820147514343, -0.24926605820655823, 0.2157464325428009, 0.16551896929740906, -0.10711240023374557, -0.07912030816078186, 0.3524317443370819, 0.1935013383626938, -0.09775130450725555, -0.14216312766075134, -0.12782515585422516, 0.29134395718574524, -0.2293747067451477, 0.46652379631996155, -0.597990095615387, 0.26788464188575745, 0.27338165044784546, 0.320121169090271, -0.06778109073638916, -0.17153413593769073, 0.3799649775028229, -0.5606216788291931, 0.1517246514558792, -0.1406497359275818, -0.10271422564983368, 0.024425406008958817], [-0.20804399251937866, 0.0031585318502038717, -0.22523140907287598, 0.04151702672243118, 0.23653842508792877, -0.3304290771484375, -0.10916227847337723, -0.14939573407173157, -0.12344776839017868, -0.03286450728774071, 0.16394494473934174, -0.13638991117477417, -0.1522071659564972, -0.04830939695239067, -0.30153635144233704, 0.16398271918296814, 0.08527494966983795, -0.010049940086901188, -0.013843018561601639, 0.0231516994535923, -0.0233746450394392, -0.1343737244606018, -0.09866949170827866, -0.10990922152996063, 0.12354843318462372, -0.1064058467745781, 0.21327662467956543, 0.15991899371147156, 0.1270853877067566, -0.16284716129302979, -0.036557432264089584, 0.22300775349140167], [0.026321662589907646, 0.17387691140174866, -0.31359320878982544, -0.09771780669689178, 0.047686826437711716, 0.09231778234243393, 0.2043953835964203, 0.17091886699199677, 0.09633971750736237, -0.10765286535024643, -0.15647922456264496, 0.016650956124067307, -0.1610347181558609, -0.2450208216905594, 0.26512956619262695, 0.24998360872268677, -0.07922496646642685, 0.2126913219690323, -0.10002277046442032, 0.06739605963230133, 0.11749614775180817, 0.20542852580547333, 0.1180448830127716, -0.1812729388475418, 0.10961785912513733, 0.028729485347867012, -0.0005922860000282526, 0.11125114560127258, -0.012768885120749474, -0.03431807458400726, 0.02190629579126835, 0.14439831674098969], [-0.07732921838760376, 0.19976197183132172, 0.07937998324632645, 0.0600733608007431, 0.056891631335020065, 0.13628940284252167, 0.15605492889881134, 0.4902319610118866, -0.032111864537000656, -0.02502777986228466, 0.28451845049858093, 0.21470876038074493, 0.37700310349464417, -0.23765482008457184, 0.2371346652507782, -0.23764653503894806, -0.19976291060447693, -0.37307465076446533, 0.36743104457855225, 0.08284346759319305, 0.013606701977550983, -0.05370704457163811, -0.49045199155807495, -0.1338292360305786, 0.17506660521030426, 0.2436063140630722, -0.1862674057483673, -0.3638829290866852, -0.008246010169386864, 0.235460564494133, 0.312505304813385, -0.11921228468418121], [-0.2532344460487366, -0.11988494545221329, -0.05604371055960655, 0.06248873844742775, 0.6420462131500244, 0.2938366234302521, 0.051591817289590836, -0.09036918729543686, -0.46630099415779114, 0.2730688750743866, -0.10693634301424026, 0.012846257537603378, 0.09411267191171646, 0.08749141544103622, 0.4822516143321991, 0.4112434685230255, -0.15926600992679596, -0.30820658802986145, -0.06132607161998749, -0.2449401319026947, 0.48189568519592285, -0.19199250638484955, -0.5065822601318359, 0.4918347895145416, 0.5196782946586609, -0.46482717990875244, -0.12794269621372223, -0.17474114894866943, 0.08781527727842331, -0.6717641949653625, -0.602492094039917, 0.21374058723449707], [0.17622840404510498, -0.5230467915534973, -0.11800310015678406, -0.5048871636390686, -0.022458204999566078, -0.007349423132836819, -0.0495026633143425, 0.1415427327156067, -0.19330771267414093, -0.14771853387355804, -0.22471535205841064, 0.006191286724060774, 0.10657291859388351, 0.2608467936515808, 0.2590388357639313, 0.33048075437545776, -0.14118309319019318, 0.176981583237648, -0.24515347182750702, -0.10183390229940414, -0.1774107962846756, -0.2148299366235733, 0.06091194972395897, 0.07321975380182266, 0.07489988952875137, 0.19928638637065887, 0.6323965787887573, 0.11629846692085266, 0.1915445476770401, 0.08368469029664993, 0.22104506194591522, -0.16806569695472717], [0.03600823134183884, 0.04270649328827858, -0.21406275033950806, 0.1359979808330536, 0.006226522382348776, 0.7482905983924866, 0.44365039467811584, -0.22347046434879303, 0.06251230090856552, 0.07233507931232452, 0.1889113336801529, 0.34072476625442505, -0.15379005670547485, -0.22807662189006805, 0.023687798529863358, -0.0011004257248714566, 0.15213775634765625, -0.5790969729423523, -0.09396865218877792, -0.1781645566225052, -0.008877329528331757, 0.28895607590675354, -0.2151540368795395, 0.16381946206092834, -0.25427693128585815, 0.3537767231464386, -0.3016885221004486, -0.2949792146682739, 0.6023645997047424, 0.0269281305372715, 0.1443006843328476, -0.36234763264656067], [0.32805657386779785, -0.4228391647338867, 0.207503542304039, 0.32818475365638733, 0.06148923188447952, 0.08226890116930008, -0.23262088000774384, 0.6194071769714355, 0.16938425600528717, -0.19985301792621613, -0.2938046157360077, -0.2219066470861435, 0.17300578951835632, -0.18304893374443054, -0.025612618774175644, 0.08045008033514023, -0.21863879263401031, -0.18077778816223145, -0.14905992150306702, 0.6347163915634155, 0.41080909967422485, -0.07306838035583496, -0.2745053470134735, 0.10674108564853668, 0.06855399906635284, -0.1180458590388298, -0.1438549906015396, -0.1892726868391037, -0.06865818053483963, 0.6360755562782288, 0.08193700760602951, 0.4864189624786377], [-0.1483066976070404, -0.39795753359794617, 0.3062056303024292, 0.3331133723258972, 0.264813095331192, -0.08922522515058517, 0.5172410607337952, -0.4039387106895447, 0.42362165451049805, 0.3763546645641327, 0.28336384892463684, 0.3485531210899353, -0.23701341450214386, -0.3231053352355957, 0.13650260865688324, -0.030437206849455833, -0.2181444615125656, 0.24697071313858032, 0.25991976261138916, -0.07958851754665375, 0.33457398414611816, -0.3410629332065582, -0.17240041494369507, 0.09192640334367752, -0.008202146738767624, 0.04134534299373627, -0.09804204851388931, 0.34279829263687134, -0.01745525188744068, -0.5026350617408752, -0.2708743214607239, 0.1826046258211136], [-0.5902487635612488, 0.4325644373893738, -0.03080875612795353, -0.02269933559000492, 0.04994649812579155, 0.3842698335647583, -0.21490155160427094, 0.4242788255214691, 0.4192039966583252, 0.04849942401051521, 0.10668081045150757, 0.24507585167884827, -0.0871175155043602, -0.02004598267376423, 0.05565828084945679, -0.4490453898906708, 0.13994012773036957, 0.01796741411089897, -0.20444148778915405, -0.6383635401725769, -0.31162211298942566, 0.06374506652355194, -0.2044835090637207, 0.048758070915937424, -0.09276346862316132, 0.3526468575000763, -0.047385696321725845, -0.06713196635246277, -0.01726590283215046, 0.08897680044174194, 0.27725350856781006, 0.0014027452562004328], [0.8122625946998596, 0.15952162444591522, -0.24718669056892395, 0.27435562014579773, 0.056698378175497055, -0.12077547609806061, 0.5165724754333496, 0.21141844987869263, -0.13057756423950195, -0.10104577988386154, -0.046252842992544174, -0.28264689445495605, 0.11660753190517426, -0.07127315551042557, -0.29114899039268494, -0.4585086405277252, 0.47156545519828796, -0.002588191768154502, 0.0013440342154353857, 0.2597278654575348, -0.3248293101787567, -0.1491958498954773, -0.30969810485839844, 0.1697818785905838, -0.1773597002029419, -0.18588684499263763, 0.16545236110687256, -0.25035375356674194, 0.3582056760787964, -0.01872921921312809, 0.12669944763183594, 0.08726083487272263], [0.25815507769584656, 0.04716172814369202, 0.18461577594280243, 0.09197083115577698, -0.6058167219161987, -0.42833012342453003, 0.8147673606872559, 0.1169494092464447, -0.2911115884780884, -0.16235379874706268, 0.5797420144081116, -0.29249969124794006, -0.02120058611035347, 0.30249589681625366, 0.18770702183246613, 0.3023599088191986, -0.48103007674217224, 0.47637245059013367, -0.08847609907388687, -0.42863765358924866, 0.18475139141082764, 0.2457839697599411, 0.16296780109405518, -0.404938280582428, 0.38078001141548157, 0.37347352504730225, -0.33585986495018005, -0.33810898661613464, 0.06137751787900925, -0.13959985971450806, 0.3089196979999542, -0.18625783920288086], [-0.05152921751141548, 0.38148170709609985, -0.05617499724030495, 0.32406753301620483, 0.20656487345695496, -0.20370905101299286, -0.04229070991277695, -0.255253404378891, 0.3814172148704529, 0.008615207858383656, 0.17443504929542542, -0.10694821923971176, -0.19789105653762817, -0.028785990551114082, -0.13319098949432373, -0.058218907564878464, -0.11400771886110306, -0.00835801474750042, 0.16671143472194672, -0.1760355830192566, -0.41510456800460815, 0.15955626964569092, -0.18866200745105743, -0.13171233236789703, 0.10397233068943024, -0.36777597665786743, -0.13746127486228943, 0.15319110453128815, 0.22850936651229858, -0.1645638793706894, 0.11132614314556122, -0.24992145597934723], [-0.1724991798400879, 0.1667441725730896, -0.05298718437552452, -0.07518183439970016, -0.34667593240737915, -0.09515701979398727, 0.47616979479789734, 0.3107496500015259, -0.17668309807777405, 0.486997127532959, 0.07303186506032944, -0.08752863854169846, 0.4287673532962799, 0.3165930211544037, 0.4419093132019043, -0.2054809182882309, 0.17051060497760773, 0.43020927906036377, 0.15248575806617737, 0.26099541783332825, -0.2004128247499466, 0.7075595855712891, -0.08350586146116257, -0.13253669440746307, 0.027189120650291443, 0.5499841570854187, -0.19178983569145203, 0.11120448261499405, -0.2198036164045334, 0.2624993324279785, 0.20843054354190826, -0.09122302383184433], [-0.04258641600608826, 0.007698983419686556, 0.12901541590690613, 0.03317524492740631, -0.4560769498348236, 0.34761476516723633, -0.11485005915164948, 0.10939891636371613, 0.1654658317565918, -0.3736254572868347, 0.07878181338310242, 0.3651801347732544, 0.11266215890645981, 0.3167230784893036, -0.7472183704376221, 0.2697870433330536, 0.13573366403579712, -0.0093760434538126, 0.06866832822561264, 0.012722773477435112, 0.20870280265808105, -0.37053820490837097, 0.21383100748062134, -0.252695232629776, -0.19593973457813263, -0.31836503744125366, -0.4051739275455475, 0.13426369428634644, -0.34731587767601013, 0.35221225023269653, -0.13165953755378723, 0.11380428820848465], [-0.005905824713408947, -0.11144284158945084, -0.3086628317832947, 0.18433786928653717, -0.006044839043170214, 0.009555221535265446, -0.0066628544591367245, -0.33856087923049927, 0.2814249098300934, -0.4233243465423584, 0.2304234653711319, 0.7728425860404968, -0.25427988171577454, -0.0554310642182827, -0.17808890342712402, -0.1438678801059723, 0.17461521923542023, 0.235574871301651, -0.820288896560669, -0.08057093620300293, 0.2171623706817627, 0.3253462612628937, 0.06468505412340164, 0.13628172874450684, 0.3276882767677307, -0.1771983802318573, 0.054544735699892044, -0.141463041305542, 0.5120750069618225, -0.05272383615374565, 0.003370690857991576, -0.18633653223514557], [-0.24725604057312012, -0.17202840745449066, -0.27175405621528625, -0.2778989374637604, -0.17365698516368866, 0.03608614578843117, -0.23122377693653107, 0.19861921668052673, -0.3386381268501282, 0.21838994324207306, -0.10810641199350357, -0.3111497759819031, -0.025144347921013832, -0.01691425032913685, 0.34261345863342285, 0.10539316385984421, -0.022989479824900627, 0.6178999543190002, 0.10214036703109741, -0.15800584852695465, 0.1551629900932312, -0.4968586266040802, 0.1333072930574417, -0.23972073197364807, 0.06433171778917313, 0.13199807703495026, -0.1218251958489418, 0.1500834971666336, 0.3813663423061371, 0.2847396433353424, -0.2743895649909973, -0.10571174323558807], [-0.058137573301792145, 0.08442411571741104, 0.2552853524684906, -0.2658255696296692, -0.5164267420768738, 0.2101311981678009, -0.2999482750892639, -0.17414811253547668, 0.16319639980793, -0.024147896096110344, -0.2111949920654297, 0.14307476580142975, 0.19539768993854523, 0.1178993508219719, 0.2703569531440735, -0.1526423990726471, -0.5570322275161743, -0.6444693207740784, 0.7138800024986267, 0.4594082236289978, 0.21314825117588043, -0.02638658508658409, 0.5844746232032776, 0.7441464066505432, 0.743848979473114, 0.22717611491680145, -0.3440012037754059, -0.6811617016792297, -0.3094411790370941, -0.4747663140296936, -0.6051493883132935, -0.6132688522338867], [-0.22750891745090485, -0.15015700459480286, -0.3612259328365326, -0.004051214549690485, -0.271979421377182, -0.3762180805206299, -0.04115353152155876, -0.15227240324020386, 0.22948461771011353, 0.638779878616333, -0.15981239080429077, -0.6928961873054504, 0.2739267945289612, 0.3576488494873047, -0.44482937455177307, -0.11222247779369354, -0.40485087037086487, -0.38063663244247437, -0.44670552015304565, 0.322887122631073, 0.1702934354543686, 0.23731228709220886, 0.1317635178565979, -0.10251371562480927, -0.044885169714689255, 0.02847917191684246, 0.12536141276359558, 0.14414462447166443, -0.5629616975784302, 0.4817464351654053, -0.2987958788871765, -0.15068300068378448], [0.0597015917301178, -0.3968953490257263, -0.053375113755464554, -0.2507709264755249, -0.5188741683959961, -0.3971392512321472, -0.34242793917655945, 0.30055272579193115, -0.5852904319763184, -0.37722301483154297, -0.14829929172992706, -0.11313469707965851, -0.23231352865695953, -0.5301384329795837, -0.49784645438194275, -0.0504545159637928, 0.531439483165741, 0.11461818963289261, -0.24731194972991943, -0.03177022561430931, -0.3814568519592285, -0.2727780044078827, 0.14255887269973755, -0.27972227334976196, -0.24777226150035858, 0.00332916178740561, 0.07821293920278549, 0.1537993997335434, -0.5194205641746521, -0.43823063373565674, 0.7045676112174988, 0.269494891166687], [-0.12682394683361053, -0.15230125188827515, -0.036149971187114716, -0.5436917543411255, 0.2790243923664093, -0.1021772176027298, -0.15668313205242157, -0.1398719698190689, -0.23265007138252258, -0.01062496192753315, -0.17672626674175262, 0.5579420328140259, -0.1118452325463295, -0.25313177704811096, 0.18456335365772247, 0.10697116702795029, 0.30156180262565613, 0.25304171442985535, -0.3836177587509155, -0.019662758335471153, -0.23681889474391937, 0.05110770836472511, -0.1155126541852951, -0.40493977069854736, -0.30759260058403015, -0.13070546090602875, -0.238174706697464, 0.5560674667358398, -0.14057649672031403, 0.0654308870434761, 0.07451429218053818, -0.05355085805058479], [0.14758826792240143, -0.34494999051094055, 0.2996619939804077, -0.07707992196083069, -0.2112504541873932, 0.03751504048705101, -0.38416588306427, 0.16772183775901794, 0.583646297454834, -0.32396501302719116, 0.003286816645413637, -0.11302335560321808, -0.15219447016716003, 0.03031805157661438, 0.22754257917404175, -0.2620711624622345, 0.049012236297130585, 0.3608958423137665, 0.1734592616558075, 0.07375131547451019, -0.03965694457292557, 0.1366603821516037, 0.08826650679111481, -0.4172072112560272, -0.26227107644081116, -0.2671954333782196, 0.25084003806114197, 0.057001788169145584, -0.004368780646473169, -0.15937787294387817, 0.0431002676486969, 0.30660372972488403], [-0.2441098839044571, 0.6056684851646423, 0.37266379594802856, 0.09502353519201279, 0.5092800259590149, 0.09218282252550125, -0.0001511010341346264, -0.09271296113729477, -0.3540344834327698, -0.5554026961326599, -0.07207385450601578, -0.23988831043243408, -0.25470051169395447, -0.000947840919252485, 0.4290642738342285, -0.5197505354881287, 0.3429912030696869, -0.16281312704086304, 0.26110872626304626, -0.04309628903865814, 0.0022015422582626343, 0.0007308376953005791, 0.5126382112503052, -0.12549234926700592, -0.37668678164482117, -0.5533938407897949, 0.7016422152519226, -0.2651776969432831, 0.23264747858047485, 0.06547120213508606, -0.08905719220638275, -0.2882499694824219], [0.5284574031829834, 0.3953551650047302, -0.15857765078544617, -0.3875952959060669, -0.20449325442314148, 0.2731364667415619, -0.19061283767223358, -0.5605232119560242, 0.5467838048934937, 0.010332988575100899, 0.45064932107925415, 0.3534959554672241, 0.23484782874584198, -0.07257155328989029, 0.234259232878685, -0.18905521929264069, 0.17461730539798737, -0.49725550413131714, 0.30901584029197693, -0.17714229226112366, 0.23226766288280487, 0.24864456057548523, -0.07638731598854065, -0.25089865922927856, -0.5653250813484192, 0.08782530575990677, 0.33775103092193604, -0.24808308482170105, -0.406717449426651, -0.30298277735710144, -0.11685729026794434, 0.23281927406787872], [-0.2073816955089569, -0.054955851286649704, -0.09572956711053848, -0.1925973892211914, 0.28929755091667175, -0.8133382797241211, 0.13331791758537292, -0.16560661792755127, 0.07956671714782715, -0.015955934301018715, -0.4603767395019531, -0.2138478010892868, -0.13222388923168182, -0.193189337849617, 0.017975740134716034, -0.13342352211475372, 0.16017048060894012, 0.012707212939858437, 0.2101355791091919, 0.2903859615325928, -0.49035418033599854, -0.2064553052186966, -0.13977710902690887, 0.2680858373641968, -0.08244676142930984, 0.03943132609128952, 0.05589265376329422, -0.2938316762447357, 0.12176346033811569, 0.09376180917024612, 0.048870205879211426, -0.3787420392036438], [-0.34954574704170227, -0.3362279236316681, 0.37305542826652527, 0.2235783487558365, -0.07797476649284363, -0.4698302745819092, 0.26818498969078064, 0.0890493392944336, -0.24283568561077118, 0.4684807062149048, -0.2744379937648773, 0.35445261001586914, 0.1034943237900734, -0.3550015389919281, -0.22804629802703857, -0.20990264415740967, 0.22576381266117096, -0.22029511630535126, -0.12527641654014587, 0.2891003489494324, -0.12288376688957214, -0.7379062175750732, 0.42972347140312195, 0.04626699164509773, -0.09742679446935654, -0.030850039795041084, -0.15032225847244263, 0.07859186083078384, 0.01582983322441578, 0.04510091617703438, 0.5123875737190247, -0.022190796211361885], [0.6330859661102295, 0.07501446455717087, 0.4105193018913269, 0.2201615273952484, -0.11515506356954575, 0.06723258644342422, -0.14706870913505554, -0.21827265620231628, -0.009689152240753174, 0.15469060838222504, -0.1209225058555603, -0.41612446308135986, -0.03643187880516052, 0.1269330233335495, -0.017797883599996567, -0.05424924194812775, -0.09800124913454056, -0.17217710614204407, -0.2826163172721863, -0.214040145277977, -0.16246208548545837, 0.1869804710149765, -0.2060706615447998, 0.2000889927148819, 0.29846301674842834, 0.2962857186794281, 0.23138712346553802, -0.028447093442082405, -0.3982168734073639, 0.0704311653971672, -0.0952785536646843, 0.3952062129974365], [-0.38658979535102844, 0.2568812966346741, 0.04841975122690201, 0.04158245399594307, 0.6030932664871216, 0.15435418486595154, 0.09968267381191254, -0.010880292393267155, -0.06911785900592804, -0.2790709435939789, 0.10148327052593231, 0.21153624355793, -0.3124507963657379, 0.08711501210927963, -0.2216520607471466, 0.40445733070373535, 0.1271599531173706, 0.0902346596121788, -0.040614016354084015, -0.021125860512256622, -0.05145607516169548, -0.3581927418708801, -0.1148420050740242, 0.11423666030168533, -0.13038459420204163, -0.15582963824272156, 0.3206084072589874, -0.03164352476596832, -0.21647970378398895, 0.1634652465581894, 0.20343656837940216, -0.2341034710407257], [-0.17420899868011475, -0.10952044278383255, 0.1654174029827118, 0.6829816102981567, -0.13908781111240387, -0.030657729133963585, -0.4890478551387787, -0.5000712275505066, -0.2236003428697586, 0.2283964902162552, -0.03094279021024704, -0.5916566848754883, -0.15384358167648315, -0.1844969242811203, -0.05466302111744881, 0.22554342448711395, -0.2992052733898163, 0.23889344930648804, 0.3057403266429901, -0.07341332733631134, 0.35143178701400757, 0.03697768598794937, 0.7158902883529663, 0.3114129900932312, 0.556990921497345, -0.23452003300189972, 0.12786965072155, 0.3327236473560333, 0.1311366707086563, 0.1471533626317978, -0.5843437314033508, -0.41360315680503845], [-0.030765898525714874, 0.270563542842865, 0.32406696677207947, -0.21548816561698914, -0.10398875176906586, 0.3410418629646301, -0.10590343177318573, 0.26977667212486267, -0.12893813848495483, 0.1688527762889862, -0.07598024606704712, -0.003490479663014412, 0.42514732480049133, 0.43144482374191284, -0.30196693539619446, 0.20099101960659027, 0.23367565870285034, -0.15377071499824524, -0.24247021973133087, -0.15665298700332642, 0.41414356231689453, 0.027173861861228943, 0.3293468952178955, -0.045981742441654205, 0.2557298243045807, 0.02926464192569256, 0.07876883447170258, 0.2971996068954468, 0.2905358076095581, -0.04362395033240318, -0.09502631425857544, -0.03057022951543331], [0.4245949685573578, -0.3863798975944519, -0.11793188005685806, -0.27975407242774963, -0.04512649029493332, -0.3599255681037903, 0.0306592658162117, 0.11340484768152237, -0.07558857649564743, -0.025692151859402657, -0.42285630106925964, 0.3082908093929291, -0.38155096769332886, -0.4624538719654083, -0.42739200592041016, 0.3445594310760498, -0.07681497186422348, -0.032403722405433655, 0.14688481390476227, 0.16428953409194946, 0.06313808262348175, -0.04699636995792389, 0.07277105003595352, -0.041726112365722656, -0.2913338243961334, -0.21148093044757843, -0.5691250562667847, 0.22564350068569183, -0.3126201331615448, -0.022080279886722565, -0.33042973279953003, 0.6130464673042297], [0.13215726613998413, 0.04492191597819328, -0.25857117772102356, 0.004255336709320545, 0.008470447733998299, 0.275328129529953, -0.28568190336227417, -0.0979684591293335, -0.1675708144903183, -0.13607531785964966, -0.01405035424977541, -0.1771928071975708, 0.12079450488090515, 0.3055754005908966, 0.13178245723247528, 0.17010901868343353, 0.04304823651909828, 0.12437110394239426, 0.011645514518022537, -0.38225477933883667, -0.2318941354751587, 0.23752926290035248, 0.1781359761953354, -0.15278267860412598, 0.1745656430721283, -0.0528433658182621, -0.028867047280073166, -0.08992311358451843, 0.018912771716713905, -0.2693699896335602, -0.22083306312561035, -0.28132638335227966]], "att.out_proj.bias": [-0.0053289602510631084, -0.18358254432678223, -0.10286321491003036, 0.15540874004364014, -0.13106998801231384, 0.08516444265842438, 0.2749312222003937, 0.03146611154079437, -0.012180901132524014, -0.016553984954953194, 0.07682248204946518, -0.3075532019138336, 0.035569824278354645, -0.021582456305623055, -0.06191110983490944, -0.07154262810945511, -0.13831102848052979, -0.13215459883213043, -0.05377054959535599, 0.21224398910999298, -0.13925950229167938, 0.00294610857963562, 0.09588557481765747, -0.07136427611112595, 0.06929787248373032, 0.18887567520141602, 0.06701043993234634, 0.10771296173334122, -0.10855209827423096, 0.22545234858989716, -0.02612404339015484, -0.03776201978325844], "norm1.scale": [0.5039424896240234, 0.37463080883026123, 0.4499071538448334, 0.3897559642791748, 0.1436976045370102, 0.625339150428772, 0.4428788721561432, 0.25881272554397583, 0.5114568471908569, 0.31560832262039185, 0.43923184275627136, 0.39068803191185, 0.5796539783477783, 0.4570033550262451, 0.5149168968200684, 0.4955326318740845, 0.5604792237281799, 0.34500065445899963, 0.5125441551208496, 0.371029794216156, 0.39850541949272156, 0.3089579939842224, 0.44774001836776733, 0.5950261354446411, 0.48019078373908997, 0.5224086046218872, 0.5333866477012634, 0.4919441342353821, 0.29657620191574097, 0.5363897085189819, 0.6467328071594238, 0.25165534019470215], "norm1.shift": [-0.16644233465194702, -0.07461261004209518, -0.03012641705572605, 0.07641351968050003, 0.09265987575054169, -0.0011715409345924854, -0.03977786377072334, 0.1265079230070114, -0.06595548242330551, 0.2389635294675827, -0.10222674161195755, 0.18918733298778534, -0.11678571254014969, 0.08418001234531403, -0.07663524895906448, -0.16578224301338196, 0.09515760838985443, 0.3504117727279663, 0.030958687886595726, -0.24092207849025726, -0.16585412621498108, -0.12364334613084793, -0.1829085797071457, 0.07366538792848587, -0.035452552139759064, 0.044927630573511124, -0.0904308408498764, 0.1219724491238594, -0.028694184496998787, -0.09568221867084503, -0.037394989281892776, 0.04168280214071274], "norm2.scale": [0.332282692193985, 0.684717059135437, 0.6324479579925537, 0.5477246046066284, 0.5168651342391968, 0.6429483294487, 0.5570900440216064, 0.44413623213768005, 0.5883065462112427, 0.6296713948249817, 0.38894379138946533, 0.3451666235923767, 0.4946143925189972, 0.4780966341495514, 0.4487525522708893, 0.43618667125701904, 0.6316453218460083, 0.4057524502277374, 0.49978703260421753, 0.38285231590270996, 0.6829433441162109, 0.4804103970527649, 0.28924116492271423, 0.47725793719291687, 0.5728888511657715, 0.4698036313056946, 0.5509997010231018, 0.5977540612220764, 0.5124825239181519, 0.5334736704826355, 0.44707685708999634, 0.6052102446556091], "norm2.shift": [0.017557300627231598, -0.4906958341598511, -0.25835055112838745, 0.2816925346851349, -0.19378985464572906, 0.10249868780374527, 0.19804711639881134, 0.13420283794403076, 0.16704249382019043, -0.005206917878240347, -0.12472346425056458, 0.014956183731555939, -0.24372078478336334, 0.15959742665290833, -0.10450530797243118, -0.11951898038387299, -0.4445248246192932, -0.07225383818149567, 0.0560610257089138, 0.2715652287006378, -0.06899014860391617, 0.21230056881904602, 0.09780292958021164, -0.03312116861343384, -0.09744487702846527, -0.05574766546487808, 0.08989863097667694, -0.08694826811552048, -0.06472774595022202, 0.18224193155765533, 0.04118912294507027, -0.21453678607940674], "ff.lin1.weight": [[-0.3245055377483368, 0.46263328194618225, 0.21261927485466003, -0.7530341744422913, 0.046591464430093765, 0.07625921070575714, 0.06697385013103485, -0.058086417615413666, -0.49861112236976624, 0.14609327912330627, 0.8548241257667542, -0.4795798361301422, 0.7292196154594421, 0.8659154772758484, 0.43517646193504333, 0.17353200912475586, 0.4603252112865448, -0.6725708842277527, -0.528465747833252, 0.3629785180091858, 0.5105434656143188, 0.141089528799057, -0.24845154583454132, 0.6351219415664673, -0.10006648302078247, -0.4333152770996094, -0.11983922123908997, -0.12769247591495514, -0.469290167093277, -0.07466279715299606, -0.20335762202739716, -0.5517526268959045], [0.27701735496520996, 0.41639840602874756, -0.02558986283838749, -0.1963137537240982, -0.11212146282196045, -0.4974795877933502, 0.06157783791422844, -0.22064027190208435, -0.35946691036224365, -0.03373342752456665, -0.27886441349983215, -0.26857778429985046, 0.004691143985837698, -0.24998986721038818, 0.025213485583662987, -0.3777821958065033, 0.2975260615348816, 0.08215869218111038, 0.46710899472236633, -0.34367749094963074, 0.1929720789194107, 0.21360348165035248, 0.183024063706398, 0.20818066596984863, -0.07931516319513321, -0.09321345388889313, -0.25503799319267273, 0.06600680202245712, 0.4707086682319641, -0.03791392222046852, 0.023342084139585495, 0.1368543654680252], [0.026313168928027153, 0.20569226145744324, 0.024610325694084167, -0.07555000483989716, -0.12209264189004898, -0.7209898829460144, -0.704109251499176, -0.20882435142993927, -0.11394872516393661, -0.20966273546218872, 0.24730265140533447, -0.11906325817108154, -0.1334022879600525, 0.19983308017253876, 0.5383678674697876, -0.6094250679016113, 0.6621159315109253, 0.17423351109027863, 0.24064497649669647, -0.3627108037471771, 0.22678355872631073, -0.24512295424938202, -0.022791970521211624, 0.14046046137809753, 0.7095996737480164, -0.0320567823946476, -0.4670470952987671, 0.5594034194946289, 0.4056333005428314, -0.4549928307533264, 0.26521214842796326, 0.40155211091041565], [-0.8467119336128235, 0.045184530317783356, 0.731235921382904, -0.6351892352104187, 0.6005018949508667, -0.07537383586168289, -0.6859260201454163, -0.5383201241493225, 0.5401551723480225, 0.27176329493522644, -0.44989633560180664, -0.30525997281074524, 0.7475924491882324, -0.5192872285842896, -0.28668537735939026, 0.03171440586447716, 0.397967129945755, -0.5779291987419128, -0.6261329054832458, -0.2677951455116272, 1.3048546314239502, 0.18918947875499725, -0.11891108006238937, 0.10225032269954681, 0.14770397543907166, 0.32619625329971313, -0.03864504024386406, -0.33401602506637573, 0.4708420932292938, 0.43461066484451294, 0.18145497143268585, 0.6732211112976074], [0.5273371338844299, 0.32508385181427, -0.25679847598075867, -0.32467207312583923, 0.24495114386081696, -0.34957170486450195, 0.04040380194783211, -0.24747930467128754, 0.2298852503299713, -0.19960635900497437, 0.0972086563706398, 0.2384917289018631, -0.001924244686961174, 0.06293192505836487, 0.22290600836277008, -0.6941086649894714, 0.1225598007440567, 0.12412863224744797, -0.13630835711956024, -0.32225728034973145, 0.0359417162835598, -0.039050135761499405, -0.27745506167411804, 0.2068384885787964, 0.6512590646743774, 0.07552549242973328, -0.036796070635318756, 0.25469765067100525, 0.06065261736512184, -0.16330716013908386, 0.1405152827501297, -0.4669465124607086], [0.30566510558128357, 0.4220893085002899, 0.35389387607574463, -0.21052023768424988, 0.0601876936852932, -0.8605387210845947, -0.287130206823349, 0.0733676478266716, -0.5921417474746704, 0.2546093165874481, 0.2685914933681488, 0.08810070902109146, 0.5215754508972168, -0.29918771982192993, -0.32462143898010254, -0.5155371427536011, 0.34809771180152893, -0.04939611628651619, 0.2500167191028595, -0.19628983736038208, 0.26274964213371277, 0.03759558126330376, -0.07899735122919083, -0.17580148577690125, 0.6264160871505737, -0.16568191349506378, 0.33272650837898254, -0.5427577495574951, -0.23094113171100616, 0.08176811039447784, 0.2617572546005249, -0.14180819690227509], [0.1504465937614441, 0.4224528670310974, -0.21352432668209076, -0.35437777638435364, -0.05173774063587189, -0.47412076592445374, 0.2851172983646393, -0.11902271956205368, 0.5239627957344055, 0.4725770056247711, 0.2935623228549957, -0.26322245597839355, 0.2380874752998352, -0.22844058275222778, -0.28711166977882385, -0.4632238447666168, 0.3898952305316925, 0.15544521808624268, 0.17840979993343353, -0.4205719530582428, -0.08849485218524933, 0.4721561670303345, 0.031470246613025665, -0.19964972138404846, -0.24574866890907288, 0.10027338564395905, -0.031192539259791374, 0.21453379094600677, -0.31546640396118164, -0.14824916422367096, 0.06306503713130951, -0.1992722749710083], [0.14058686792850494, 0.19946929812431335, 0.029133040457963943, -0.17149513959884644, -0.052532754838466644, 0.20813845098018646, -0.018242228776216507, -0.03222431614995003, -0.12243197858333588, 0.39967048168182373, -0.11780562996864319, 0.10010861605405807, -0.12198788672685623, -0.14795935153961182, 0.16125568747520447, 0.06628777831792831, 0.29471543431282043, 0.9546403288841248, -0.22582626342773438, -0.4881543517112732, -0.2427005171775818, -0.11566738039255142, -0.34235939383506775, -0.8427729606628418, 0.2172653079032898, 0.5881511569023132, 0.044123563915491104, 0.46118271350860596, -0.3659335970878601, 0.2830493748188019, -0.1985301673412323, 0.09072647988796234], [-0.504065990447998, 0.1388527899980545, -0.5140056014060974, -0.007533239666372538, 0.41453731060028076, -0.12238938361406326, -0.39123281836509705, 0.7131266593933105, 0.30798980593681335, -0.4048864245414734, 0.7430662512779236, 0.06660883128643036, 0.29401537775993347, 0.1276601105928421, 0.3366061747074127, 0.35902631282806396, 0.3369906544685364, 0.032487429678440094, 0.07272479683160782, -0.624779224395752, -0.23049680888652802, -0.36743029952049255, -0.1666908711194992, -0.07301422208547592, 0.18350020051002502, -0.18187938630580902, 0.1535700410604477, -0.2497214376926422, 0.10754872858524323, -0.2089064121246338, -0.4950859844684601, 0.6028999090194702], [0.09540870785713196, 0.2188630998134613, 0.6178702116012573, -0.15402613580226898, 0.06922654807567596, 0.11682617664337158, -0.10903122276067734, -0.17194290459156036, -0.7935647368431091, 0.16827787458896637, -0.25749918818473816, 0.0032721548341214657, -0.010290759615600109, -0.11176195740699768, 0.3748991787433624, -0.42868122458457947, 0.5962488651275635, 0.7084087133407593, -0.15160295367240906, -0.17217010259628296, 0.15306049585342407, -0.11018121987581253, -0.12887632846832275, 0.21286535263061523, -0.37310144305229187, -0.26228809356689453, 0.05716364085674286, 0.22007788717746735, 0.10055779665708542, 0.15937700867652893, -0.48318785429000854, 0.30047479271888733], [0.10980914533138275, 0.19819700717926025, 0.23709407448768616, 0.23962755501270294, -0.11147880554199219, 0.5178095698356628, 0.4967314302921295, -0.5459025502204895, 0.08251834660768509, -0.1299733817577362, -0.12787562608718872, 0.03381619602441788, 0.33749738335609436, 0.16366532444953918, -0.19639582931995392, 0.13457369804382324, 0.5291389226913452, 0.42812952399253845, -0.01460937224328518, -0.4391847550868988, -0.07810373604297638, -0.5555313229560852, -0.5867730975151062, 0.14117757976055145, -0.18615876138210297, -0.2285560965538025, -0.08905182778835297, 0.03647366166114807, 0.4400189518928528, -0.4849533438682556, -0.06894010305404663, -0.46897444128990173], [-0.29559603333473206, 0.17664892971515656, 0.053675103932619095, -0.4772834777832031, 0.19699539244174957, -0.41040101647377014, -0.011413797736167908, 0.40179210901260376, -0.3532694876194, -0.4466376304626465, 0.14302630722522736, 0.1342952847480774, 0.30301806330680847, 0.02123168483376503, 0.4162868559360504, 0.23066824674606323, 0.1289505660533905, -0.08401774615049362, 0.41567692160606384, 0.03832925856113434, 0.02993973344564438, 0.40413522720336914, -0.03583148121833801, -0.16100957989692688, 0.18840643763542175, -0.4534720480442047, -0.19939196109771729, -0.34574568271636963, -0.4591403603553772, 0.5505351424217224, -0.0104934461414814, -0.5251300930976868], [0.05344952642917633, -0.05374801903963089, -0.02641478180885315, -0.13124772906303406, -0.1319611668586731, -0.25027236342430115, -0.3232817053794861, 0.22837667167186737, -0.12133314460515976, 0.9242839217185974, 0.035645708441734314, 0.20514777302742004, -0.42168647050857544, 0.05933617800474167, 0.306282103061676, 0.2516399919986725, 0.36742618680000305, 0.1337902992963791, -0.21057628095149994, -0.5903944969177246, -0.21349701285362244, -0.35726702213287354, -0.2717674672603607, 0.09058207273483276, 0.4651035964488983, -0.2072412371635437, -0.101021409034729, 0.3947720527648926, -0.09476199746131897, 0.22437666356563568, 0.3804822862148285, 0.24251942336559296], [0.26683738827705383, 0.294708251953125, 0.6271317005157471, -0.037241265177726746, 0.20822320878505707, -0.3277769684791565, -0.23779945075511932, 0.32327157258987427, 0.342026025056839, -0.07991399616003036, 0.09138511121273041, 0.2929176986217499, -0.27566689252853394, -0.7783225774765015, -0.24219249188899994, 0.387556791305542, 0.21818283200263977, 0.4170641005039215, 0.5399389266967773, -0.482881098985672, 0.09264136105775833, 0.1710616499185562, -0.44224441051483154, -0.044159334152936935, -0.12285593897104263, -0.3013748526573181, 