{"out_head.weight": [[-0.3007168769836426, 0.09231019020080566, 0.22723808884620667, 0.03713797777891159, -0.3417338728904724, 0.09256861358880997, -0.4463021457195282, -0.2647799253463745, -0.4732035994529724, -0.3706973195075989, 0.1501796841621399, -0.3384550213813782, 0.32632750272750854, 0.29911503195762634, -0.3674236238002777, -0.12294059991836548, 0.20567548274993896, 0.1524963527917862, -0.3712714612483978, -0.3093986511230469, 0.20890946686267853, -0.012936237268149853, -0.2500295042991638, 0.8994218111038208, -0.2545512616634369, 0.14127811789512634, -0.15304486453533173, 0.08151673525571823, -0.15865741670131683, 0.02418055757880211, 0.21111270785331726, -0.33951282501220703], [0.2689308226108551, 0.0698612779378891, -0.27462658286094666, 0.03943683207035065, -0.6514826416969299, 0.087076336145401, 0.2844434678554535, -0.8766824007034302, -0.9223858714103699, 0.35898494720458984, 0.05155719071626663, 0.0012624470982700586, -0.11657404899597168, 0.4957193434238434, -0.11178125441074371, 0.3561604619026184, -0.06897842884063721, -0.3331248462200165, 0.5944883227348328, 0.315153032541275, 0.011331180110573769, -0.22236181795597076, 0.35273826122283936, 0.004763725213706493, -0.33430781960487366, -0.34841904044151306, 0.4693923890590668, 0.4646480679512024, 0.7840739488601685, -0.20260216295719147, -0.5749732255935669, -0.6851878762245178], [-0.24429364502429962, 0.03215193375945091, 0.1667863428592682, 0.012525441125035286, -0.2729402184486389, 0.02928655408322811, -0.3250589370727539, -0.2216159552335739, -0.3701312243938446, -0.31914404034614563, 0.07158894836902618, -0.1501249521970749, 0.21664728224277496, 0.40628787875175476, -0.2723727524280548, -0.11985280364751816, 0.16825270652770996, 0.18970617651939392, -0.3891119360923767, -0.10584405809640884, 0.08280457556247711, 0.05974641069769859, -0.2346412092447281, 0.6246910691261292, -0.19742462038993835, 0.13488216698169708, -0.05597127601504326, 0.11505136638879776, -0.16095322370529175, 0.01378952618688345, 0.1151622086763382, -0.321210116147995], [-0.2526344358921051, 0.16835710406303406, 0.2275865226984024, 0.046278662979602814, -0.2716776132583618, 0.10086420923471451, -0.43659958243370056, -0.20730505883693695, -0.4869884252548218, -0.33854997158050537, 0.08260106295347214, -0.26092764735221863, 0.3440074026584625, 0.34432029724121094, -0.29075872898101807, -0.03466533124446869, 0.15048348903656006, 0.23438630998134613, -0.3052726089954376, -0.25877612829208374, 0.300363689661026, 0.0014077144442126155, -0.2954738140106201, 0.7822736501693726, -0.30308249592781067, 0.13255389034748077, -0.17858919501304626, 0.07854834944009781, -0.13376078009605408, 0.024475058540701866, 0.24532440304756165, -0.3430413007736206], [-0.6483933329582214, 0.42938047647476196, -0.6489174365997314, -0.4529561698436737, -0.8999874591827393, -0.29610979557037354, 0.0011067617451772094, 0.3217601776123047, 0.6926296949386597, -0.7939083576202393, 0.0538807213306427, 0.07693281024694443, 0.014926436357200146, 0.12045927345752716, 0.2740139961242676, 0.08864478766918182, 0.6122156977653503, -0.5280677676200867, -0.1742461919784546, 0.310252845287323, -0.17228539288043976, -0.5450395345687866, 0.25540226697921753, 0.23910267651081085, -0.1738881915807724, 0.591566801071167, 0.36256104707717896, -0.2515503764152527, 0.591431736946106, -0.7692912817001343, 0.4773881435394287, 0.06131191924214363], [-0.3095255494117737, -0.15222714841365814, 0.08981849253177643, -0.3705075979232788, 0.4185243844985962, 0.2613838016986847, 0.25986289978027344, -0.018813667818903923, 0.44455817341804504, -0.05914873257279396, 0.06561709940433502, -0.5147179365158081, 0.4274027943611145, -0.2851138114929199, 0.24794383347034454, -0.3436063230037689, -0.4409012496471405, 0.03637147322297096, 0.2755553722381592, 0.2815934419631958, 0.11114362627267838, 0.35033997893333435, -0.047354556620121, -0.3979005813598633, 0.6305429339408875, -0.585759162902832, -0.3765721917152405, -0.24464735388755798, -0.2798711955547333, -0.05223200470209122, 0.32065844535827637, 0.3377348780632019], [0.2101271152496338, -0.1117616519331932, -0.10232415795326233, -0.45337730646133423, 0.11172094941139221, 0.19071947038173676, -0.0636570155620575, -0.20562168955802917, 0.3836229145526886, 0.05057304725050926, 0.19965115189552307, 0.09780274331569672, -0.3030978739261627, -0.4218728840351105, 0.5706775784492493, -0.33498820662498474, 0.04080704227089882, 0.023822776973247528, 0.6196849942207336, 0.4291408061981201, -0.3761714696884155, -0.27507641911506653, -0.04670567065477371, -0.5504511594772339, 0.6427145004272461, -0.3247884213924408, 0.05399896949529648, -0.4610346555709839, -0.3413970172405243, -0.17846401035785675, 0.18863238394260406, 0.4258226752281189], [0.22808365523815155, 0.2938077747821808, 0.07038643956184387, 0.3821541666984558, 0.11911313980817795, -0.2374929040670395, 0.4654434025287628, -0.14145678281784058, 0.24006743729114532, 0.45641258358955383, 0.59989333152771, 0.5504176020622253, 0.21995070576667786, -0.4486483633518219, -0.20487439632415771, 0.18068373203277588, 0.30480578541755676, -0.44108307361602783, -0.5836567282676697, 0.09509606659412384, -0.3862517774105072, 0.06582655012607574, 0.30719831585884094, -0.5653007626533508, -0.5653640627861023, 0.21418659389019012, 0.07865001261234283, 0.5249008536338806, -0.15246650576591492, -0.2930808663368225, -0.35071656107902527, 0.5826314091682434], [0.5556373596191406, -0.2513369023799896, 0.2351069301366806, -0.1898285448551178, -0.5127081871032715, 0.35883814096450806, 0.3820119798183441, 0.36361947655677795, 0.33263862133026123, -0.07172243297100067, -0.22644765675067902, -0.5578579306602478, -0.33108267188072205, 0.31169599294662476, -0.03827846795320511, -0.4824914038181305, 0.4007081091403961, 0.434292197227478, -0.24332377314567566, -0.08973117172718048, -0.28028374910354614, 0.47963204979896545, -0.5562430620193481, -0.2697003483772278, -0.3151320219039917, 0.0666104331612587, -0.5662397742271423, 0.5025341510772705, -0.1788928210735321, 0.3599633276462555, 0.6551077365875244, 0.24735961854457855], [0.4652698040008545, -0.12438385933637619, -0.3332351744174957, -0.8615009188652039, 0.4481678009033203, 0.47184476256370544, -0.14686578512191772, -0.1958436220884323, -0.23362411558628082, -0.48812562227249146, 0.2902153730392456, 0.712837815284729, -0.5582336187362671, 0.09090730547904968, 0.16498196125030518, 0.5483977198600769, 0.27648770809173584, -0.24384349584579468, -0.8313672542572021, -0.04934682324528694, 0.04759443178772926, 0.5957959890365601, 0.14627878367900848, 0.035509634763002396, -0.5852203965187073, -0.7892147302627563, 0.06779860705137253, 0.24057938158512115, 0.4861760139465332, 0.16659612953662872, 0.24511148035526276, -0.3653995394706726], [-0.1513650119304657, -0.44620659947395325, 0.05917055904865265, 0.38582056760787964, -0.2529080808162689, 1.0428240299224854, 0.058782920241355896, -0.15657319128513336, -0.5738924741744995, -1.0148165225982666, -0.016394268721342087, -0.680466890335083, -0.15940356254577637, 0.18686561286449432, 0.8458983302116394, 0.13090841472148895, 0.10705387592315674, -0.5751307010650635, -0.44150277972221375, 0.06842534989118576, 0.411469966173172, 0.1911052167415619, 0.2722054421901703, 0.07507334649562836, 0.06425943225622177, 0.028808031231164932, 0.5584734082221985, 0.5680734515190125, -0.7050226926803589, 0.35173675417900085, 0.6826707720756531, -0.08147456496953964], [0.2176816314458847, 0.3578494191169739, 0.4112774133682251, -0.5330053567886353, -0.25238218903541565, 0.4385859966278076, -0.2904963493347168, 0.24251411855220795, -0.37165725231170654, 0.36325597763061523, -0.014710851944983006, 0.511779248714447, -0.6866366863250732, 0.2351856827735901, 0.37615838646888733, -0.03175681456923485, -0.2251070886850357, -0.3818802833557129, -0.15409299731254578, -0.41907379031181335, -0.016649940982460976, -0.6299165487289429, 0.04573921486735344, -0.0405113510787487, 0.3020751178264618, 0.15421627461910248, 0.3666621446609497, -0.46117064356803894, 0.4185565710067749, -0.4332027733325958, -0.29728463292121887, 0.41157597303390503], [-0.06246180087327957, -0.40431246161460876, 0.950428307056427, -0.03842213377356529, 0.07866453379392624, -0.15379679203033447, 0.10906080156564713, 0.597282886505127, 0.22790372371673584, -0.5674147009849548, -0.22101178765296936, 0.06076386570930481, 0.2506335973739624, -0.3264941871166229, -0.49417227506637573, -0.44287097454071045, 0.251693457365036, 0.3837275505065918, -0.18460552394390106, -0.03248217701911926, 0.28700071573257446, 0.15202151238918304, -0.7052322030067444, 0.7046540975570679, 0.13191159069538116, -0.11596608906984329, 0.2744288444519043, 0.7697573304176331, -0.5880818963050842, 0.17246995866298676, -0.12717680633068085, 0.16045410931110382], [-0.41329336166381836, -0.4069197475910187, 0.6496734023094177, 0.23326607048511505, -0.09800808876752853, 0.31602510809898376, -0.09805277734994888, 0.17250578105449677, -0.5701686143875122, -0.3069092035293579, -0.07731891423463821, -0.6806119084358215, 0.7646529674530029, -0.4497908353805542, -0.19610516726970673, 0.5768457651138306, 0.7371547222137451, -0.22447682917118073, 0.051125310361385345, -0.17501845955848694, 0.8037946820259094, 0.5341516733169556, 0.014781294390559196, 0.4725343883037567, -0.24206595122814178, -0.24219778180122375, -0.31900885701179504, -0.5695873498916626, -0.5751122832298279, -0.3516714870929718, 0.8577653765678406, -0.8630185723304749], [-0.1151149570941925, -0.14075852930545807, -0.37375712394714355, 0.08424776047468185, 0.37836548686027527, -0.4382355213165283, 0.1936090886592865, 0.2344018965959549, 0.5255587100982666, 0.4857557713985443, -0.14421996474266052, 0.43173056840896606, 0.1693054735660553, -0.5544078946113586, 0.06311774998903275, 0.28225475549697876, -0.6072691082954407, -0.25785204768180847, -0.42451387643814087, -0.25278201699256897, -0.10997336357831955, -0.029079021885991096, 0.03463558480143547, -0.1749531775712967, -0.49320149421691895, 0.311869353055954, 0.5397793650627136, 0.3927491009235382, -0.10062932223081589, 0.2956223487854004, -0.25595322251319885, 0.48636898398399353], [-0.4945136308670044, -0.07900552451610565, 1.174317479133606, 0.012404202483594418, 0.14219993352890015, 0.6280601024627686, -0.6368723511695862, 0.3206283748149872, -0.30286747217178345, -0.3155125677585602, 0.309004545211792, -0.7838746309280396, -0.233425110578537, 0.13932953774929047, -0.7064210176467896, 0.45306017994880676, 0.19881942868232727, -0.002337607555091381, 0.28192827105522156, 0.1262226104736328, 0.45452991127967834, 0.6136216521263123, 0.04959574341773987, 0.2597522437572479, 0.005746274255216122, 0.4982028007507324, -0.3512316346168518, 0.36752843856811523, -0.7627752423286438, 0.5767907500267029, -0.1572834551334381, -0.5872315764427185], [0.21385397017002106, 0.232551708817482, -0.28137826919555664, -0.4442594051361084, 0.05843069404363632, 0.2519598603248596, -0.15547789633274078, -0.12457451224327087, -0.06790044158697128, -0.19501188397407532, 0.2570974826812744, 0.3541785776615143, -0.45368632674217224, -0.4983351528644562, 0.07847456634044647, -0.37961822748184204, 0.29087817668914795, 0.31888848543167114, 0.5313931703567505, 0.17365118861198425, -0.1274576485157013, -0.3097609281539917, 0.233422189950943, -0.37484195828437805, 0.5117157697677612, -0.26292410492897034, -0.01361412275582552, -0.329164981842041, -0.14101745188236237, 0.2571064531803131, 0.10327881574630737, 0.30162522196769714], [-0.07068714499473572, 0.39101675152778625, 0.5048812627792358, -0.17477209866046906, 0.04912750422954559, 0.11051134765148163, 0.017703721299767494, 0.06458031386137009, -0.3032897710800171, 0.028337253257632256, 0.47247859835624695, -0.40923598408699036, 0.4671008586883545, -0.4519248306751251, -0.0049108583480119705, -0.05487922579050064, 0.5493842959403992, -0.006974364630877972, -0.566279947757721, -0.1986609548330307, 0.4853646457195282, -0.28167641162872314, 0.3040786385536194, -0.16978678107261658, -0.2950620651245117, 0.020714636892080307, -0.23150379955768585, 0.1998329907655716, -0.41696155071258545, -0.048398979008197784, -0.10327550023794174, 0.3284009099006653], [-0.31618615984916687, 0.5151700973510742, 0.11865433305501938, -0.3183719217777252, 0.5131822228431702, 0.2328052520751953, -0.387645959854126, -0.05726705119013786, 0.4777865707874298, -0.3967655897140503, 0.19158673286437988, -0.20197825133800507, 0.2196342647075653, 0.3706057369709015, 0.1347542703151703, 0.0717410072684288, 0.1978500336408615, 0.8687119483947754, -0.5399680733680725, -0.5476705431938171, -0.028653422370553017, -0.1140771210193634, -0.7521793842315674, 1.0088750123977661, 0.08583443611860275, 0.19932693243026733, -0.9086166620254517, 0.14286233484745026, 0.11737915873527527, 0.0717456117272377, 0.20230412483215332, -0.6471461653709412], [-0.13163016736507416, 0.08667562156915665, -0.6427357196807861, 0.10792827606201172, 0.09606420993804932, 0.15890094637870789, 0.5647040009498596, -0.3502824604511261, -0.12983399629592896, 0.05103455111384392, -0.25640010833740234, -0.07612971216440201, 0.5788949131965637, 0.7216945290565491, -0.26650747656822205, 0.19970816373825073, -0.3092830777168274, 0.14684411883354187, -0.728046178817749, -0.6579042077064514, -0.3175886571407318, 0.7075202465057373, 0.18357817828655243, 0.03139311447739601, 0.2901902198791504, 0.15181952714920044, -0.5539557337760925, 0.28943291306495667, 0.20741167664527893, -0.3665040135383606, 0.2339632511138916, -0.8069749474525452], [-0.6133597493171692, 0.43808019161224365, 0.29180508852005005, 0.14766500890254974, -0.5530374050140381, 0.08995730429887772, -0.0021896944381296635, -0.811676561832428, -0.6689079403877258, 0.16873253881931305, 0.3250982165336609, -0.8281171917915344, 0.4242873787879944, 0.18974460661411285, -0.017783118411898613, -0.6343953013420105, -0.21087920665740967, 0.6105148792266846, -0.6297558546066284, 0.29144012928009033, 0.2620723247528076, 0.1565828025341034, 0.12191429734230042, 0.5569332838058472, 0.00011964319855906069, 0.7995614409446716, 0.09877556562423706, -0.5641407370567322, 0.6019830107688904, -0.573691189289093, 0.6870947480201721, 0.09620541334152222], [0.4536125063896179, -0.02583104558289051, -0.6392499804496765, 0.1626105159521103, -0.24030427634716034, 0.040285319089889526, -0.35519132018089294, -0.7293663024902344, 0.23295237123966217, 0.5768746733665466, 0.06966165453195572, -0.3527483642101288, -0.055769793689250946, 0.14140617847442627, -0.15423153340816498, -0.16980329155921936, -0.06662409752607346, 0.5171478986740112, -0.6930135488510132, -0.5249625444412231, 0.8807487487792969, -0.21474003791809082, -0.23006941378116608, 0.9363515377044678, 0.23700423538684845, -0.02743961103260517, -0.23577572405338287, -0.428709477186203, 0.6563559770584106, -0.5166158080101013, 0.7489429116249084, -0.031241221353411674], [0.13207046687602997, 0.10452131181955338, -0.05500876531004906, -0.7630117535591125, -0.8315033316612244, 0.7115116119384766, 0.48135751485824585, -0.1999407857656479, 0.21417835354804993, 0.42023617029190063, -0.3103444278240204, -0.6982454657554626, 0.9829071760177612, -0.025481529533863068, 0.3587303161621094, -0.14390447735786438, 0.3077947199344635, -0.6370982527732849, -0.3852900564670563, 0.21941502392292023, 0.1723182499408722, -0.06263105571269989, 0.12921054661273956, 0.9616361856460571, -0.05450047552585602, -0.17491719126701355, 0.1259223073720932, -0.3969523310661316, 0.01313311979174614, -0.3668228089809418, 0.004009801894426346, -0.34760934114456177], [0.27782881259918213, -0.25266382098197937, -0.4537328779697418, 0.4804127812385559, 0.045473214238882065, -0.5099464654922485, 0.06175992265343666, -0.5011637210845947, 0.1182376965880394, -0.18455420434474945, -0.05935940146446228, -0.12472844868898392, 0.22727487981319427, -0.30635830760002136, -0.5862358212471008, 0.29597264528274536, 0.4136790931224823, 0.5229201316833496, 0.35370364785194397, -0.2934732437133789, 0.44982850551605225, 0.1735178679227829, -0.9015316367149353, 1.0719845294952393, -0.28810590505599976, 0.5899413824081421, -0.10863681137561798, -0.645379364490509, 0.2348119020462036, -0.02080167457461357, 0.1892966628074646, -0.5960193872451782], [0.5856145620346069, 0.3196048140525818, -0.2406928837299347, -0.400099515914917, -0.544597327709198, -0.21492114663124084, -0.14613822102546692, -0.26419809460639954, 0.10264545679092407, 0.06562294065952301, -0.3498436510562897, 0.215364471077919, -0.4873230457305908, 0.27840471267700195, 0.40048590302467346, -0.4702884256839752, 0.679599404335022, 0.04608083888888359, 0.18822568655014038, -0.2952016592025757, -0.4098895192146301, 0.003143003676086664, 0.1210617944598198, -0.09693557769060135, 0.11026124656200409, -0.18598031997680664, 0.5025230646133423, -0.5539165735244751, -0.19736847281455994, 0.31029951572418213, 0.021021271124482155, 0.16818317770957947], [0.39815202355384827, 0.19622427225112915, -0.42379242181777954, -0.31314200162887573, 0.0060577793046832085, 0.2409006655216217, 0.04291465878486633, -0.21559567749500275, 0.13093025982379913, -0.029888110235333443, 0.19030366837978363, 0.2732742428779602, -0.4718707501888275, -0.19978958368301392, 0.26620590686798096, -0.497995525598526, -0.26385340094566345, -0.29324451088905334, 0.46623942255973816, 0.16341400146484375, -0.08015353232622147, -0.31309834122657776, -0.30522871017456055, -0.3229590356349945, 0.38834232091903687, -0.29076671600341797, 0.017629697918891907, -0.2927168905735016, -0.09820081293582916, -0.0258643701672554, 0.8659782409667969, 0.3895963728427887], [0.14081469178199768, 0.42427515983581543, 0.32358166575431824, 0.284078449010849, 0.3767276108264923, 0.442658007144928, -0.18733564019203186, -0.1721104085445404, -0.6394081115722656, 0.08502808213233948, 0.5820727944374084, 0.31122690439224243, -0.1359635889530182, -0.1408165991306305, -0.5210599899291992, -0.09872151911258698, -0.17642737925052643, -0.08377119153738022, -0.2132643312215805, 0.215646892786026, -0.2915310263633728, -0.0323382169008255, -0.04162168502807617, -0.22278045117855072, -0.4037665128707886, -0.3234346807003021, -0.10007644444704056, 0.4054122269153595, -0.42734235525131226, -0.44919976592063904, 0.369807630777359, 0.1230403408408165], [-0.4345710277557373, -0.26158949732780457, 0.3722369968891144, -0.4208310544490814, 0.2226293683052063, 0.3313886821269989, 0.15065668523311615, 0.06044971942901611, -0.5406531691551208, -0.28375279903411865, -0.6368153691291809, -0.2797997295856476, -0.2702653408050537, 0.7576118111610413, -0.12267840653657913, -0.5750085115432739, 0.2839645743370056, -0.5359036922454834, 0.4909721314907074, -0.9645181894302368, -0.037873245775699615, 0.38875314593315125, 0.4058840870857239, 1.03994882106781, -0.35952839255332947, -0.42702728509902954, 0.5111711621284485, 0.5783909559249878, -0.06278783828020096, -0.4479183852672577, 0.048182643949985504, 0.30312928557395935], [-0.2395034283399582, -0.21739059686660767, 0.6671472191810608, 0.5419553518295288, -0.33235275745391846, -0.4074282944202423, -0.6258909702301025, 0.17992253601551056, 0.32526886463165283, -0.4500976502895355, 0.09885396808385849, 0.41220271587371826, 0.20973335206508636, 0.6695389151573181, -0.9152445197105408, 0.018274281173944473, -0.13691937923431396, -0.06111842393875122, 0.17849387228488922, -0.8788273930549622, 0.4049797058105469, -0.06265193223953247, -0.16723765432834625, 0.7048043012619019, -0.06902310252189636, -0.34096360206604004, 0.05455424264073372, -0.16687704622745514, -0.1743503361940384, 0.8805922269821167, 0.04694664478302002, -0.27317366003990173], [-0.4165642559528351, 0.7578538656234741, -0.4457167685031891, 0.7468923926353455, -0.47715088725090027, -0.18338486552238464, -0.32368654012680054, 0.04188612475991249, 0.22344332933425903, -0.05823089927434921, 0.06931845098733902, 0.011262075044214725, 0.6008924245834351, 0.8082081079483032, -0.8660135269165039, 0.05010117590427399, 0.20773394405841827, 0.28564608097076416, 0.2143118679523468, -0.1855069249868393, 0.6006180047988892, -0.5167039632797241, -0.07641247659921646, 0.8436991572380066, 0.0929160863161087, 0.49516862630844116, 0.2185211032629013, -0.12473151832818985, -0.6302978992462158, 0.7783839702606201, -0.5721361637115479, 0.052355844527482986], [-0.40913626551628113, -0.2764495015144348, -0.07301473617553711, -0.2942534387111664, 0.30433782935142517, -0.03614334762096405, 0.1031455248594284, -0.14787016808986664, 0.2517147958278656, -0.41717806458473206, -0.07383468747138977, -0.26984164118766785, 0.4387228190898895, -0.2117227464914322, 0.10617729276418686, -0.3745642304420471, -0.32542356848716736, -0.04203572869300842, 0.11309494823217392, 0.17002341151237488, 0.06453061103820801, 0.3873221278190613, -0.06749358773231506, -0.021952662616968155, 0.350085973739624, -0.4293268322944641, -0.38875821232795715, -0.24367386102676392, -0.30999860167503357, -0.10382276773452759, 0.4265568256378174, 0.19429545104503632], [-0.08869898319244385, -0.01085294596850872, -0.1962878704071045, 0.16111436486244202, 0.6008406281471252, -0.06327446550130844, -0.01759282872080803, -0.5357102155685425, 0.3546791076660156, -0.38262709975242615, -0.4234088659286499, 0.4070304334163666, -0.10085700452327728, 0.9551821351051331, -0.41247400641441345, -0.9475633502006531, 0.5434409976005554, -0.5263556241989136, 0.5737956762313843, 0.21936585009098053, 0.7713250517845154, 0.8344506025314331, -0.0867459625005722, 0.1696138232946396, -0.21010622382164001, -0.07252397388219833, -0.20341308414936066, -0.37850281596183777, 0.10205813497304916, -0.583027720451355, -0.07982417941093445, -0.4959490895271301], [0.4703315198421478, 0.6992971897125244, 0.8331865072250366, -0.2394067943096161, 0.025944607332348824, -0.660370945930481, -0.2880169749259949, 0.06035240739583969, -0.029210953041911125, 0.20026861131191254, -0.014583324082195759, -0.6132668256759644, 0.47226831316947937, -0.1402857005596161, -0.6417854428291321, 0.16481882333755493, -0.09056621789932251, 0.4829023778438568, -0.2797488272190094, 0.43173742294311523, -0.04869784042239189, 0.043152064085006714, -0.9323689341545105, 0.7593610286712646, -0.4516533315181732, -0.5681732892990112, 0.24671907722949982, -0.039700597524642944, 0.38864970207214355, -0.019029701128602028, 0.7068886160850525, 0.10464887320995331], [-0.8301110863685608, -0.28122422099113464, 0.16469408571720123, 0.18946973979473114, -0.6443758606910706, -0.4879796802997589, -0.742559552192688, 0.3021954596042633, 0.12094418704509735, 0.20878726243972778, -0.672102689743042, -0.2942335307598114, 0.16471582651138306, 0.2945235073566437, 0.6214967370033264, -0.48448705673217773, 0.1936473399400711, 0.033009011298418045, -0.33295536041259766, -0.5959738492965698, 0.5708920955657959, 0.7813386917114258, 0.147012859582901, 0.40184199810028076, 0.17062798142433167, -0.17560015618801117, 0.026515904814004898, 0.5370020866394043, 0.08335914462804794, -0.48096898198127747, 0.6849430203437805, -0.5590633749961853], [-0.22474680840969086, -0.36782899498939514, -0.1688351184129715, -0.12522511184215546, -0.411805659532547, 0.09041517972946167, -0.022615142166614532, 0.16215386986732483, 0.24491778016090393, 0.074944406747818, -0.30691051483154297, 0.296195924282074, 0.12074112892150879, -0.25740858912467957, 0.22380657494068146, 0.1404772400856018, -0.4149833619594574, -0.0336194671690464, -0.46461284160614014, -0.7075390219688416, -0.560621440410614, 0.18952268362045288, -0.04615652933716774, -0.2547229528427124, 0.017896028235554695, 0.495809942483902, -0.10818199813365936, 0.46735039353370667, 0.8833253383636475, 0.7108166217803955, -0.4662107825279236, 0.07897176593542099], [-0.4164701998233795, 0.22967417538166046, -0.14101795852184296, -0.5762287974357605, -0.45680034160614014, -0.7733979225158691, 0.05940393730998039, -0.2627529501914978, -0.7755354642868042, 0.32529816031455994, -0.10463682562112808, 0.37199491262435913, 0.5466712713241577, 0.32016414403915405, -0.23720470070838928, -0.6921871900558472, 0.028625894337892532, 0.6886706948280334, -0.1866438090801239, 0.3334556519985199, 0.5509341955184937, 0.42037785053253174, -0.017939137294888496, 0.8551658987998962, -0.4466724693775177, -0.031219959259033203, -0.38992998003959656, -0.07972128689289093, 0.6523393392562866, -0.1462472379207611, -0.4472235441207886, 0.12373202294111252], [-0.13038533926010132, -0.36964038014411926, -0.22102127969264984, -0.1904946267604828, 0.07991088181734085, 0.11864840239286423, -0.39800214767456055, 0.3783304989337921, 0.3436436653137207, -0.09456207603216171, -0.3944344222545624, -0.5816861987113953, 0.3222024440765381, -0.06273561716079712, -0.02905329503118992, -0.3247809112071991, -0.3125637173652649, 0.14103978872299194, 0.22332949936389923, 0.11536309868097305, 0.05417899414896965, 0.39223864674568176, 0.29422685503959656, -0.01804555393755436, 0.2724347412586212, -0.45419764518737793, -0.6250370740890503, 0.06060998886823654, -0.07629693299531937, -0.20013955235481262, 0.702837347984314, 0.274095356464386], [-0.14659082889556885, 0.04284869134426117, 0.4923205077648163, 0.1586308777332306, 0.29144278168678284, -0.4046194553375244, -1.259100079536438, 0.44703081250190735, -0.06332883983850479, -0.5624276995658875, 0.1193295270204544, -0.3002658486366272, 0.9481547474861145, -0.37596532702445984, -0.9063765406608582, 0.17205595970153809, 0.6586605310440063, 0.7536461353302002, 0.17671816051006317, 0.411648154258728, 0.41448208689689636, 0.728421151638031, -0.5521537661552429, 0.8021096587181091, -0.3963577449321747, -0.2311200201511383, -0.2685999572277069, -0.18528734147548676, -0.23348088562488556, 0.5992966890335083, 0.7369547486305237, 0.1877429187297821], [0.36457154154777527, -0.1782066524028778, -0.5166981220245361, 0.1450900137424469, -0.16708433628082275, 0.0926276370882988, -0.5097987055778503, -0.46449676156044006, 0.11750895529985428, -0.6214537620544434, -0.12722747027873993, -0.43190041184425354, 0.6185166239738464, 0.515688955783844, -0.0920206606388092, -0.5163565874099731, 0.25622060894966125, 0.26980283856391907, 0.5387576818466187, -0.6219089031219482, 0.6523879766464233, 0.45738163590431213, -0.43129515647888184, 0.9163464307785034, -0.30125054717063904, 0.026316236704587936, 0.08974113315343857, 0.10984572023153305, -0.00778435030952096, 0.5560188293457031, 0.045001059770584106, 0.7556682825088501], [-0.3254770040512085, -0.34366345405578613, 0.43163764476776123, 0.6474295258522034, -0.2060195952653885, 0.08512739837169647, -0.5181765556335449, -0.53428053855896, -0.2785941958427429, -0.21085800230503082, -0.23284800350666046, -0.44263502955436707, 0.7637062668800354, 0.2783186733722687, -0.7056769132614136, 0.3036178946495056, 0.2683549225330353, -0.0052713812328875065, 0.3582823872566223, 0.21199658513069153, -0.046364061534404755, 0.4887999892234802, -0.31482383608818054, 0.7675765156745911, -0.44754862785339355, -0.25564044713974, -0.9252793788909912, -0.43838727474212646, 0.11932126432657242, 0.5991220474243164, 0.05161145702004433, 0.6277011632919312], [-0.2795715034008026, 0.7642536759376526, 0.2557729482650757, 0.08745720237493515, -0.33468517661094666, -0.24274030327796936, -0.36318278312683105, 0.0027923372108489275, -0.35163092613220215, -0.020331503823399544, -0.13618995249271393, -0.9302104711532593, -0.14914649724960327, 0.054611582309007645, 0.12699632346630096, -0.24221333861351013, 0.5759190320968628, -0.37656906247138977, 0.34017354249954224, -0.150761216878891, -0.2687009871006012, 0.6322420239448547, -0.10949287563562393, 0.7075045704841614, -0.23177164793014526, -0.46504783630371094, 0.14585614204406738, 0.510059654712677, 0.3425372540950775, 0.6808859705924988, 0.3619604706764221, 0.010383582673966885], [0.2052466869354248, 0.4380671977996826, -0.030225982889533043, -0.4641602337360382, -0.19707724452018738, -0.052856095135211945, 0.14321568608283997, 0.1270015984773636, -0.6115474104881287, 0.04165150597691536, -0.26140135526657104, -0.09383007138967514, 0.6845996975898743, -0.30404043197631836, -0.5747575163841248, 0.4349559545516968, 0.15801233053207397, 0.24701428413391113, 0.19896633923053741, -0.24293412268161774, 0.8513576984405518, -0.7843082547187805, 0.1821897029876709, 0.9106687307357788, -0.21624724566936493, -0.34988537430763245, -0.673099935054779, 0.27964773774147034, 0.3643020987510681, -0.17473769187927246, 0.3181411921977997, 0.37119314074516296], [-0.4926450252532959, -0.21311987936496735, 0.1246907114982605, -0.18345272541046143, 0.26296183466911316, 0.16455714404582977, 0.06750267744064331, -0.17794464528560638, 0.2590419054031372, -0.28526613116264343, 0.17516973614692688, -0.6506146192550659, 0.46567076444625854, -0.22729180753231049, 0.06737221032381058, -0.3302015960216522, -0.31213483214378357, -0.18591515719890594, 0.15353140234947205, 0.20511166751384735, 0.130426287651062, 0.2528236508369446, -0.06894070655107498, -0.008742875419557095, 0.30165934562683105, -0.40255415439605713, -0.4545693099498749, -0.20814229547977448, -0.2722931206226349, -0.1584559828042984, -0.05828631669282913, 0.23497158288955688], [0.37426769733428955, -0.06392152607440948, 0.4282817542552948, 0.25699639320373535, 0.209749236702919, 0.22763432562351227, -0.34961357712745667, -0.4032576084136963, -1.05314302444458, -0.27075088024139404, 0.5966113805770874, -0.10867585986852646, -0.29185301065444946, 0.24689820408821106, 0.3854239284992218, -0.6343433260917664, 0.0019639793317764997, 0.5712310671806335, -1.0794095993041992, -0.7442281246185303, 0.3818475902080536, -0.25588661432266235, -0.31830060482025146, 1.0245788097381592, -0.021593626588582993, 0.20024393498897552, 0.10781954228878021, 0.01830870844423771, -0.5804789662361145, 0.30656465888023376, -0.11269016563892365, 0.49491241574287415], [0.4574815630912781, 0.4381319284439087, -0.28239357471466064, -0.6193310022354126, -0.09887436032295227, -0.5990057587623596, -0.6229164004325867, -0.08087486028671265, -0.5261244773864746, 0.3138987421989441, 0.6341832876205444, 0.45165300369262695, 0.19136910140514374, 0.039707329124212265, 0.3464238941669464, 0.26731306314468384, 0.8735888004302979, 0.33765485882759094, -0.30980321764945984, -0.27196204662323, 0.5834477543830872, -0.7815259099006653, -0.12117984890937805, 0.5450935959815979, -0.2538451850414276, 0.7833350300788879, -0.24533860385417938, 0.15978696942329407, -0.2984267771244049, -0.26660093665122986, -0.410297155380249, -0.974647581577301], [-0.30317223072052, -0.6422099471092224, 0.13411904871463776, 0.48290905356407166, -0.27904513478279114, -0.22923240065574646, -0.16896271705627441, 0.11260505020618439, -0.8699958920478821, -0.9364797472953796, 0.3397594094276428, -0.742486834526062, 0.6919904351234436, 0.7125244140625, -0.45632779598236084, 0.49745526909828186, 0.2791633903980255, -0.16595062613487244, -0.6269589066505432, -0.35138681530952454, 0.06815086305141449, -0.34880444407463074, 0.6237898468971252, 0.45140504837036133, -0.02534783072769642, 0.40522530674934387, 0.3221486210823059, 0.045617714524269104, -0.18176333606243134, 0.07070504873991013, 0.31897667050361633, -0.5383720397949219], [-0.1907607913017273, 0.7744626998901367, 0.005793043412268162, 0.399528443813324, 0.48448866605758667, -0.1344432234764099, -0.7987844347953796, 0.5423719882965088, -0.6282148957252502, -0.9876868724822998, 0.3200617730617523, -0.5226129293441772, 0.10742796212434769, 0.3589125871658325, 0.371770977973938, -0.06523236632347107, -0.4748741686344147, -0.1839410960674286, -0.2062326818704605, -0.016014698892831802, -0.2539432942867279, 0.22118578851222992, 0.28084811568260193, 0.3743922710418701, 0.48890453577041626, 0.8293070197105408, -0.48106807470321655, 0.3664230704307556, -0.36246344447135925, -0.280282199382782, 0.39492470026016235, -0.7697955965995789], [0.618158221244812, 0.15827298164367676, -0.41237592697143555, 0.5910305976867676, 0.3895518183708191, -0.4648020267486572, 0.1952703595161438, 0.11309276521205902, -0.04032381251454353, -0.811015248298645, 0.06862463057041168, 0.38630837202072144, -0.0037330458872020245, 0.34250399470329285, -1.1027073860168457, 0.17392376065254211, -0.23383799195289612, -0.2917514741420746, 0.3638652265071869, -0.2943404018878937, 0.8206044435501099, -0.6971694231033325, -0.1481485515832901, 1.0486559867858887, -0.6871129274368286, 0.6119986176490784, 0.02810846082866192, -0.00516611197963357, -0.41669583320617676, -0.07324239611625671, -0.0015011708019301295, -0.6684539914131165], [-0.20776918530464172, 0.6313090324401855, -0.08305773884057999, 0.3623698055744171, 0.13736023008823395, -0.18847836554050446, -0.9857499003410339, -0.36403658986091614, -0.06984738260507584, -0.05198574811220169, -0.22075174748897552, -0.5877646207809448, -0.28401389718055725, 0.7840868830680847, -0.7126153707504272, 0.20236368477344513, 0.5148472189903259, 0.18971574306488037, -0.5725460648536682, 0.2746500074863434, 0.4990956485271454, -0.5007649660110474, -0.11763811856508255, 0.882388710975647, 0.09817159175872803, -0.27367034554481506, 0.02285623736679554, 0.44845637679100037, -0.16866344213485718, -0.5190677642822266, 0.45795902609825134, -0.4757310748100281], [0.5040464997291565, -0.34469836950302124, 0.16328933835029602, -0.43132051825523376, -0.07044034451246262, -0.4212321937084198, 0.06148488074541092, -0.8495973944664001, 0.4277593493461609, 0.6812085509300232, -0.054113466292619705, 0.01612822152674198, -0.2315504103899002, 0.28352418541908264, -0.18824636936187744, 0.11705541610717773, 0.510476291179657, -0.06498590111732483, -0.44780874252319336, 0.009659900330007076, 0.33931964635849, -0.5015181303024292, 0.4830609858036041, 1.0906288623809814, -0.3035544157028198, -0.08018797636032104, -0.5191160440444946, -0.029116829857230186, -0.042334094643592834, 0.24704258143901825, -0.7291842103004456, -0.12397901713848114], [-0.13390077650547028, 0.8473290801048279, 0.1874711811542511, -0.126588836312294, -0.1030813604593277, -0.17413082718849182, -1.031986117362976, 0.10394024103879929, 0.09180847555398941, -0.5364785194396973, 0.06342263519763947, -0.21676196157932281, -0.08015457540750504, 0.6029557585716248, -0.41318225860595703, 0.4000040888786316, -0.698905348777771, -0.06314970552921295, 0.10628990083932877, -0.5009633302688599, -0.38510218262672424, -0.19252720475196838, -0.0925457626581192, 1.1703848838806152, -0.2236223965883255, 0.4734710156917572, -0.7170979976654053, -0.3243348002433777, 0.5571895241737366, -0.12622958421707153, 0.9048944711685181, -0.31348785758018494], [-0.28332552313804626, -0.20271418988704681, -0.1710464209318161, -0.16024425625801086, 0.1268911063671112, 0.10752403736114502, 0.4368226230144501, 0.06250543147325516, 0.2758926451206207, 0.11214747279882431, 0.21363316476345062, -0.7136566638946533, 0.3639952838420868, -0.07120616734027863, 0.053697369992733, -0.46495333313941956, -0.19713789224624634, -0.32283541560173035, -0.12215958535671234, 0.4518195688724518, 0.6416091918945312, 0.09895025193691254, 0.33716654777526855, 0.02794818952679634, 0.42124462127685547, -0.4452306628227234, -0.7184685468673706, -0.33856847882270813, -0.038693685084581375, -0.44248613715171814, 0.2906647324562073, 0.32722288370132446], [0.45538249611854553, -0.4163999855518341, 0.288446307182312, 0.6583496928215027, 0.0873897522687912, 0.07464592158794403, 0.21252089738845825, 0.07318803668022156, 0.0421389639377594, 0.3164823055267334, 0.5707436800003052, 0.0226240623742342, 0.25147300958633423, -0.41211649775505066, -0.5750405192375183, -0.4733595550060272, 0.04423443600535393, -0.16628260910511017, -0.2684629261493683, -0.30143383145332336, -0.31117817759513855, -0.20494240522384644, -0.1565161496400833, 0.16310641169548035, 0.1436251848936081, 0.31106433272361755, 0.0052310083992779255, -0.10817340761423111, -0.5496787428855896, -0.4698029160499573, -0.35555630922317505, 0.05427749082446098], [0.4966093599796295, 0.3881511688232422, 0.0013843929627910256, 0.6275240778923035, -0.0897221714258194, -0.6427742838859558, -0.46091166138648987, -0.043099720031023026, -0.7113813757896423, -0.09271661192178726, 0.4572232961654663, -0.5370786786079407, -0.13011348247528076, -0.43933340907096863, -0.11218448728322983, -0.17704986035823822, 0.5319598913192749, 0.2470763623714447, -0.5841695070266724, -0.6097556352615356, 0.4394136965274811, 0.12933790683746338, 0.13365833461284637, 0.9397399425506592, -0.20622673630714417, -0.28535693883895874, 0.32036465406417847, 0.39926353096961975, -0.7309758067131042, -0.25674164295196533, 0.5556495785713196, 0.1274348795413971], [0.2816093862056732, 0.3278527557849884, 0.051050737500190735, 0.5991743206977844, 0.009358949027955532, -0.3923831284046173, -0.748956561088562, -0.4915556013584137, 0.21931561827659607, -0.6101070642471313, 0.7483739256858826, 0.0429408960044384, -0.1584119200706482, 0.6798630952835083, 0.11700474470853806, 0.40787985920906067, 0.45579808950424194, 0.052208393812179565, -0.5751250982284546, 0.18608298897743225, -0.37943682074546814, -0.04109884798526764, -0.6850713491439819, 1.0024988651275635, 0.006417239084839821, -0.15169183909893036, -0.5444676876068115, -0.08658366650342941, -0.004084331449121237, 0.49178871512413025, 0.7379204630851746, -0.475126713514328], [0.3287881910800934, -0.4702591300010681, -0.49974942207336426, 0.119548000395298, -0.7117919921875, 0.1372464895248413, -0.6166335344314575, 0.3970896303653717, -0.09811200946569443, -0.1279737502336502, 0.06998442858457565, 0.3818643391132355, 0.3599562644958496, 0.6211545467376709, 0.1639733761548996, -0.3578989505767822, -0.7112958431243896, 0.49493154883384705, 0.3996913433074951, 0.44307681918144226, 0.006764344871044159, -0.2455197125673294, 0.3582862317562103, 1.0530662536621094, -0.12910670042037964, -0.5159533619880676, -0.0912698283791542, -0.3124905824661255, 0.06240077689290047, 0.3470175564289093, -0.3300618827342987, 0.06244901567697525], [0.22335995733737946, 0.3987734019756317, -0.3827522397041321, 0.25686711072921753, -0.39334836602211, -0.03240981698036194, -0.5989609360694885, -0.24838478863239288, 0.09551684558391571, -0.19156503677368164, 0.19883953034877777, -0.5949815511703491, 0.7526932954788208, 0.6993049383163452, -0.32472899556159973, 0.20700538158416748, 0.21337781846523285, -0.32662710547447205, 0.2857491075992584, -0.408164381980896, -0.12684699892997742, -0.5433350205421448, 0.38635608553886414, 0.9333444237709045, -0.7513933181762695, -0.4752291738986969, 0.07725147902965546, 0.5480055809020996, 0.3829110264778137, -0.13284356892108917, 0.34798407554626465, -0.27311888337135315], [0.15454645454883575, 0.4913395345211029, 0.5420835614204407, -0.6461774110794067, 0.03987303748726845, 0.430442750453949, 0.1955762654542923, -0.06332030892372131, -0.5359663367271423, 0.30793777108192444, 0.3824824392795563, -0.14814870059490204, -0.37892332673072815, 0.4859674274921417, -0.3574174642562866, 0.11941550672054291, -0.13868948817253113, -0.20022021234035492, -0.5314064621925354, -0.7431096434593201, 0.2318972647190094, -0.4541691839694977, -0.29388943314552307, -0.07538412511348724, 0.09976912289857864, 0.39824801683425903, 0.1693306416273117, -0.40386778116226196, 0.3572610020637512, -0.5218876600265503, -0.06215100735425949, 0.3783477544784546], [-0.48103147745132446, -0.1944734901189804, -0.46784719824790955, -0.15999047458171844, 0.6617037057876587, -0.11123941838741302, 0.45670193433761597, -0.012931322678923607, -0.12560947239398956, 0.0749797448515892, -0.7377912998199463, -0.051791924983263016, -0.18455246090888977, 0.07329434901475906, -0.3081311583518982, 0.26646313071250916, 0.041394490748643875, -0.2506621479988098, -0.2740600109100342, 0.3969516456127167, -0.4137973487377167, -0.17683196067810059, 0.25674712657928467, -0.38265419006347656, -0.31776106357574463, 0.656841516494751, -0.35899797081947327, 0.36527734994888306, 0.19468289613723755, 0.6229131817817688, -0.30508455634117126, 0.3180389702320099], [-0.2679481506347656, -0.6582391858100891, 0.7099865078926086, -0.5541855096817017, -0.24502204358577728, 0.6498309969902039, 0.1388896405696869, 0.15685045719146729, -0.3647313416004181, -0.36774247884750366, -0.25689539313316345, 0.012157170102000237, -0.4921174943447113, 0.01592489331960678, 0.14066804945468903, -0.17144237458705902, 0.5199729800224304, 0.1469241976737976, -0.5781382918357849, 0.05378219857811928, 0.0012627779506146908, 0.08826399594545364, 0.18203306198120117, 0.841621994972229, -0.24274437129497528, 0.11680469661951065, 0.11418623477220535, -0.6245299577713013, 0.4307422935962677, -0.3418130576610565, 0.5790965557098389, -0.48486149311065674], [-0.38492512702941895, -0.1941448450088501, -0.12153445929288864, -0.15943221747875214, -0.15233223140239716, 0.04697559401392937, -0.6492056250572205, -0.6487057209014893, 0.2703729569911957, -0.07411406189203262, 0.49700719118118286, 0.09634140133857727, 0.25446921586990356, 0.6217665672302246, 0.1986081302165985, 0.12421691417694092, 0.5132295489311218, -0.5481656193733215, 0.2024139016866684, -0.9053646922111511, 0.13307207822799683, -0.3756478428840637, -0.17899827659130096, 0.8454447388648987, 0.2103676199913025, 0.6728633046150208, -0.5020796656608582, 0.33764487504959106, -0.48591485619544983, 0.3251979649066925, 0.5243186354637146, -0.4877502918243408], [-0.43372243642807007, -0.15355420112609863, -0.18245460093021393, 0.0626269280910492, 0.1318184733390808, -0.11904843896627426, -1.016739845275879, 0.3656295835971832, 0.2610240578651428, -0.16055291891098022, 0.6454230546951294, -0.1662769764661789, -0.3402099311351776, 0.7678471803665161, -0.42015764117240906, -0.28227731585502625, -0.6269394159317017, -0.40835443139076233, 0.2952796518802643, 0.3120509684085846, 0.004124713595956564, 0.8603042364120483, -0.060928840190172195, 0.1888553947210312, -0.13360163569450378, 0.6825979351997375, 0.10853844881057739, -0.5063824653625488, -0.5632523894309998, 0.4148050546646118, 0.5244507193565369, -0.3338835537433624], [-0.42749613523483276, 0.230860635638237, 0.22143876552581787, 0.42898380756378174, -0.28990405797958374, -0.43763548135757446, 0.049995630979537964, -0.6787362098693848, -0.19384656846523285, 0.6644546389579773, -0.08011803776025772, 0.1231439933180809, 0.22288446128368378, -0.5355796217918396, 0.16741250455379486, 0.019866041839122772, 0.1201496496796608, 0.3166579604148865, -0.5806183218955994, -0.6109640002250671, -0.03324016183614731, -0.15284521877765656, 0.15399527549743652, 1.029101014137268, -0.0351405031979084, 0.011382411234080791, -0.344847708940506, 0.29478493332862854, -0.02989303506910801, 0.38977673649787903, 0.5022372007369995, -0.9756515622138977], [-0.16224585473537445, -0.4132149815559387, 0.029200119897723198, 0.6164419054985046, -0.6654444932937622, 0.5909460783004761, -0.11396001279354095, -0.39426442980766296, 0.059187863022089005, 0.021959267556667328, -0.310562402009964, 0.3057621419429779, 0.3322221338748932, 0.3778398633003235, -0.03705911710858345, -0.19564293324947357, 0.4818037152290344, -0.002326537622138858, -0.6421001553535461, 0.05437963455915451, -0.3042509853839874, -0.2546316981315613, -0.01148439571261406, 0.6128455996513367, 0.24400268495082855, -0.5395817160606384, -0.5157170295715332, 0.020426632836461067, 0.40176135301589966, 0.21808001399040222, 1.10696542263031, -0.45784708857536316], [-0.017712650820612907, -0.7716769576072693, -0.31067144870758057, 0.14557628333568573, -0.03796382248401642, -0.4441223740577698, -0.3871164321899414, -0.729056715965271, -0.5224692821502686, -0.11035684496164322, -0.20245787501335144, 0.09783577173948288, 0.4377199709415436, 0.6040430665016174, 0.24327322840690613, -0.6570636034011841, 0.09531714022159576, -0.2081911712884903, 0.17919118702411652, 0.1330483853816986, 0.6348763704299927, 0.5570579767227173, 0.05957253277301788, 0.47389158606529236, -0.3308056890964508, 0.373744398355484, -0.15750572085380554, 0.3471587896347046, -0.5721536874771118, 0.6706773638725281, 0.2759224772453308, 0.06672699004411697], [0.07145281136035919, -0.37346312403678894, 0.3848033547401428, -0.3838558793067932, -0.17537009716033936, -0.45078572630882263, -0.5181677937507629, 0.15196430683135986, -0.3067748546600342, -0.17795680463314056, -0.019011450931429863, 0.20782369375228882, 0.41215780377388, 0.7911668419837952, 0.3541698753833771, 0.9150978922843933, 0.1862647831439972, -0.49228647351264954, 0.45836588740348816, -0.32595255970954895, -0.7992962002754211, 0.49411970376968384, -0.3765098750591278, 0.18086960911750793, 0.0755833312869072, -0.2670312523841858, 0.3960074484348297, 0.4342910647392273, -0.1833193302154541, -0.34190359711647034, -0.4517262578010559, 0.12217893451452255], [0.1709853708744049, -0.43857330083847046, -0.4979363679885864, 0.6958308219909668, 0.2098064422607422, 0.6800190806388855, -0.5271759033203125, 0.5270105004310608, 0.2886332869529724, 0.5340036749839783, 0.06787188351154327, -0.33522269129753113, -0.1273701786994934, 0.2200516313314438, -0.12621241807937622, -0.10485915839672089, -0.2572413384914398, 0.22330625355243683, 0.03471798822283745, -0.9083186984062195, -0.02305404469370842, -0.21169036626815796, -0.23444300889968872, 0.672370970249176, -0.2811664342880249, -0.18901574611663818, 0.004506372846662998, -0.2867726981639862, -0.5006384253501892, 0.6154844760894775, 0.2933446764945984, -0.8189486265182495], [-0.14431045949459076, -0.3902255594730377, -0.2892698645591736, -0.32792389392852783, 0.025206096470355988, 0.4613376259803772, -0.40829020738601685, 0.07969614118337631, -0.769481360912323, 0.5184541344642639, 0.12626560032367706, -0.6047550439834595, 0.31382331252098083, 0.001114151207730174, -0.2966443598270416, 0.47425153851509094, 0.11927187442779541, -0.12804655730724335, 0.2523088753223419, -0.22961927950382233, 0.18236906826496124, -0.02920258790254593, 0.44069865345954895, 0.7257974743843079, -0.022475779056549072, -0.009915901347994804, 0.1095719113945961, 0.04340554401278496, -0.5912125110626221, 0.7261027097702026, 0.7510992288589478, -0.3554168939590454], [0.30665314197540283, 0.14014847576618195, -0.11957583576440811, -0.3108755052089691, -0.15691369771957397, 0.1590111404657364, 0.18642723560333252, -0.2712482511997223, -0.38549524545669556, -0.26142334938049316, 0.259947270154953, 0.5070284008979797, -0.46834856271743774, -0.2819528877735138, 0.17520177364349365, -0.7787180542945862, -0.028369490057229996, 0.3528204560279846, 0.49374914169311523, -0.5629484057426453, -0.07590401917695999, 0.04157997667789459, 0.1171286404132843, -0.20568837225437164, 0.09264431148767471, 0.354928195476532, 0.4379628896713257, -0.39442381262779236, -0.1294591873884201, -0.5322783589363098, 0.25948938727378845, 0.12874996662139893], [0.32602182030677795, 0.4975578188896179, 0.39870649576187134, -0.37430769205093384, -0.3951021134853363, -0.6123755574226379, -0.2877817451953888, -0.3249362111091614, 0.13152310252189636, 0.3105103373527527, 0.27455008029937744, -0.36958959698677063, 0.08582710474729538, -0.023041192442178726, 0.13171182572841644, -0.24072235822677612, 0.6201057434082031, 0.7225374579429626, -0.6808392405509949, -0.6099588871002197, -0.4092264771461487, 0.6317451596260071, -0.33447322249412537, -0.004346086177974939, 0.17300012707710266, 0.021574292331933975, -0.3591445982456207, -0.382954865694046, -0.49319756031036377, -0.3671470880508423, 0.562067449092865, 0.16505052149295807], [-0.053694333881139755, 0.5308457612991333, -0.07162418961524963, 0.08803008496761322, 0.3816910982131958, 0.4368663728237152, 0.3677588105201721, 0.3171294927597046, -0.5800097584724426, 0.16027532517910004, 0.5570883750915527, 0.3543553948402405, 0.27720171213150024, 0.2915290296077728, 0.0069717466831207275, -0.6418383717536926, -0.3221637010574341, 0.4041023552417755, -0.3614141643047333, -0.54800945520401, 0.44312843680381775, 0.054531075060367584, -0.3138407766819, 0.8734519481658936, -0.4849572479724884, 0.14082345366477966, -0.12791086733341217, -0.4907298684120178, 0.13603563606739044, -0.4189271926879883, 0.5069313049316406, -1.098851203918457], [-0.5585451722145081, 0.8894919157028198, 0.2971688508987427, -0.391082227230072, 0.48577311635017395, -0.028985869139432907, 0.3037957549095154, -0.014576952904462814, -0.06323399394750595, -0.2702192962169647, 0.5896998643875122, -0.8520627021789551, -0.028848806396126747, 0.21243950724601746, -0.10645519196987152, -0.24925650656223297, 0.6082503795623779, -0.07806701213121414, 0.26809772849082947, -0.27938881516456604, 0.26608574390411377, 0.2813083529472351, -0.9825308322906494, 1.0184452533721924, -0.2783590257167816, -0.02265009842813015, -0.588973343372345, -0.784952700138092, -0.561371922492981, -0.5525147318840027, 0.6367812156677246, -0.41563472151756287], [-0.6296099424362183, -0.13943833112716675, 0.056898415088653564, -0.5623411536216736, -0.10322845727205276, -0.5180178880691528, -0.3308207392692566, 0.17949338257312775, 0.2745000123977661, -0.3761161267757416, 0.8845624327659607, -0.705744206905365, -0.19528591632843018, 0.7621393203735352, -0.5345092415809631, 0.2829957902431488, 0.6421606540679932, -0.28433775901794434, -0.686967670917511, -0.013975526206195354, 0.12093686312437057, 0.3531187176704407, -0.22954605519771576, 0.6893593072891235, -0.07979040592908859, -0.051567696034908295, 0.0018924011383205652, -0.34991127252578735, -0.8329605460166931, 0.6254979968070984, 0.46745333075523376, -0.39862194657325745], [-0.1962568461894989, 0.5438289046287537, -0.7472590208053589, 0.7711026072502136, -0.7713024616241455, -0.2675124406814575, 0.43950730562210083, -0.2977394759654999, -0.24857141077518463, -0.030807681381702423, -0.018408184871077538, 0.09573353826999664, 0.6046077609062195, 0.070308618247509, -0.021542271599173546, -0.16137242317199707, 0.20409342646598816, 0.6979641914367676, -0.3484130799770355, -0.47530224919319153, 0.32900500297546387, -0.6960218548774719, -0.06071578338742256, 0.9154303669929504, 0.009766392409801483, 0.23082472383975983, 0.4787587523460388, -0.7134735584259033, 0.23103956878185272, -0.0184632558375597, 0.21480615437030792, -0.7892783880233765], [-0.8831398487091064, 0.145650252699852, -0.5484871864318848, 0.38272568583488464, 0.38560619950294495, -0.097109854221344, 0.03268933296203613, -0.1374940425157547, -0.22339984774589539, -0.2546364665031433, 0.8836295008659363, -0.4588828384876251, -0.38193896412849426, 0.2974795401096344, -0.6017811298370361, 0.5583884716033936, 0.47942423820495605, 0.6096236705780029, -0.06288903206586838, -0.7303401827812195, 0.3213333785533905, -0.2208678275346756, -0.2528989613056183, 1.1106648445129395, -0.3015326261520386, 0.34393903613090515, 0.023164214566349983, 0.1556200534105301, -0.21462607383728027, -0.29425573348999023, 0.036268800497055054, 0.28432273864746094], [-0.3752186596393585, -0.09282808750867844, -0.17835786938667297, 0.3339901864528656, -0.3743930757045746, 0.1249033659696579, 0.2859470546245575, -0.49329519271850586, -0.3967365622520447, -0.5978580713272095, 0.4938828647136688, -1.1159723997116089, 0.17312483489513397, -0.13929300010204315, 0.1257244497537613, 0.5836361646652222, 0.667096734046936, 0.43121299147605896, 0.5517003536224365, -0.6776189804077148, -0.21968479454517365, 0.27758845686912537, 0.35290080308914185, 0.16041596233844757, -0.4421241879463196, 0.45099198818206787, 0.3320084512233734, -0.20635072886943817, 0.6236198544502258, -0.2744397819042206, 0.7296075820922852, -0.27630677819252014], [0.10863825678825378, -0.7695817947387695, 0.07651811093091965, -0.17297223210334778, -0.11682330816984177, 0.1790117472410202, 0.30938056111335754, 0.659591555595398, -0.24963490664958954, -0.5686992406845093, -0.24087755382061005, -0.3018571734428406, 0.017724819481372833, 0.484584242105484, 0.09630461037158966, 0.17171406745910645, -0.2811442017555237, 0.5697569251060486, 0.01618468388915062, 0.5988827347755432, -0.20654630661010742, 0.4222310781478882, -0.3935965299606323, -0.16871459782123566, -0.13739259541034698, 0.30013635754585266, 0.06453018635511398, 0.3547513484954834, -0.30740854144096375, 0.33525142073631287, -0.44213226437568665, -0.871773898601532], [-0.3189573884010315, -0.653643012046814, 0.027568068355321884, 0.013600150123238564, 0.5037909746170044, 0.15057243406772614, 0.47547081112861633, 0.5655421018600464, -0.1803392618894577, -0.4522765874862671, 0.32625865936279297, 0.3671324849128723, -0.14999651908874512, 0.3170973062515259, 0.4530279338359833, 0.5103031992912292, -0.45166015625, -0.41787439584732056, -0.3353513777256012, -0.4280651807785034, 0.48903998732566833, -0.5700305700302124, -0.29400748014450073, 0.2881157398223877, -0.4455435574054718, -0.26353946328163147, 0.08830086886882782, -0.36787179112434387, -0.017044594511389732, -0.24288414418697357, 0.3855704367160797, -0.31940001249313354], [-0.016124747693538666, 0.27159979939460754, -0.03812520578503609, 0.21251234412193298, -0.7278311252593994, 0.04543201997876167, 0.1249992847442627, 0.03077472746372223, -0.1315579116344452, -0.4768633246421814, 0.24263466894626617, -0.013007908128201962, -0.45798149704933167, -0.6308965682983398, -0.034490831196308136, 0.44122692942619324, 0.8510618805885315, -0.32494503259658813, 0.31374967098236084, 0.1482638716697693, -0.22507569193840027, 0.08407504856586456, -0.17103105783462524, -0.11856550723314285, 0.44711804389953613, 0.10169007629156113, 0.2581765055656433, -0.5133227705955505, -0.179549902677536, -0.19878898561000824, -0.29760879278182983, -0.17238624393939972], [-0.47167766094207764, 0.32187601923942566, 0.6814214587211609, -0.35277679562568665, -0.07383491843938828, -0.11828140914440155, 0.5041319727897644, -0.33958980441093445, -0.32859593629837036, 0.17959517240524292, -0.17438894510269165, -0.46403858065605164, -0.006685338448733091, -0.2636016607284546, 0.17399775981903076, 0.0488407239317894, -0.4470963776111603, 0.6401253938674927, 0.4583266079425812, -0.2317461371421814, 0.48466628789901733, 0.1738816201686859, 0.4744357764720917, 0.5876436233520508, -0.14679023623466492, 0.22745481133460999, 0.14539572596549988, -0.4330526888370514, -0.034402117133140564, -0.24055534601211548, 0.2789781391620636, -0.9111666679382324], [0.218086376786232, 0.07058665156364441, -0.6038420796394348, -0.1588374227285385, -0.20354370772838593, 0.3956575393676758, 0.302425742149353, -0.5679998397827148, -0.2639821767807007, 0.02220710553228855, -0.20438235998153687, -0.2614899277687073, 0.7356594800949097, 0.21439309418201447, -0.34539783000946045, 0.1266518086194992, -0.5681142210960388, 0.11505941301584244, -0.1620115339756012, 0.4481871724128723, 0.03887858986854553, -0.32526370882987976, -0.7876128554344177, 0.8101143836975098, -0.3493671417236328, 0.4583819508552551, 0.18398556113243103, -0.047337181866168976, 0.5645878314971924, 0.36343327164649963, 0.23236411809921265, -0.7407407164573669], [0.44561341404914856, 0.2541810870170593, 0.26996901631355286, 0.2751280665397644, 0.4977027475833893, -0.44167131185531616, 0.4141763150691986, -0.5176087617874146, -0.08241446316242218, -0.18988676369190216, -0.3594202995300293, 0.003091092687100172, -0.46094295382499695, -0.37737390398979187, 0.20615634322166443, -0.8914166688919067, 0.22504884004592896, 0.2434903234243393, -0.6427685618400574, 0.2616719603538513, 0.45757532119750977, -0.4736138582229614, 0.17195627093315125, 0.5134307146072388, 0.19154652953147888, -0.3725965917110443, 0.5313681960105896, 0.697334349155426, -0.19431376457214355, 0.07980914413928986, -0.2173890471458435, -0.7783260941505432], [-0.1723877489566803, 0.8477154970169067, 0.2553829252719879, -0.9654216170310974, 0.14886096119880676, -0.10276272892951965, 0.009605439379811287, -0.37376490235328674, -0.1516386717557907, 0.27217599749565125, -0.3464837074279785, -0.36970850825309753, 0.5170048475265503, -0.12948739528656006, -0.30907049775123596, 0.1731424331665039, 0.7585089802742004, 0.08792129158973694, 0.17555108666419983, 0.32831892371177673, -0.0012838143156841397, -0.1408442258834839, -0.08213923126459122, 0.8949643969535828, 0.07275435328483582, 0.22654575109481812, -0.6929001808166504, 0.38984453678131104, 0.1151338517665863, 0.5926520824432373, -0.002656330121681094, -0.7525917887687683], [0.10537631064653397, 0.6622021198272705, 0.0676509290933609, 0.18225032091140747, 0.2966306805610657, 0.32357269525527954, 0.05346246808767319, 0.09561413526535034, -0.25550851225852966, 0.16642378270626068, -0.4674835801124573, -0.072657011449337, 0.44983550906181335, -0.05273665115237236, -0.19497768580913544, -0.7141444683074951, -0.31436383724212646, 0.3595806360244751, 0.1392420083284378, -0.41169431805610657, 0.6060907244682312, -0.41633620858192444, 0.01601732149720192, 0.8760589957237244, -0.1697997897863388, 0.3124089241027832, 0.43500852584838867, -0.4688834846019745, -0.13761338591575623, 0.38153356313705444, -0.41613930463790894, -0.8246821761131287], [0.52557772397995, 0.29225659370422363, -0.01874667964875698, -0.06918402016162872, -0.3071316182613373, 0.2550971508026123, -0.30231741070747375, -0.48916661739349365, 0.10969038307666779, -0.43372100591659546, -0.23482687771320343, 0.28464066982269287, -0.3092474937438965, -0.48227354884147644, 0.4473883807659149, -0.1476808786392212, 0.5133448839187622, 0.36579033732414246, 0.4749247431755066, -0.1339898258447647, -0.23873038589954376, -0.40845006704330444, -0.1283433586359024, -0.30552300810813904, 0.19854950904846191, 0.04463043808937073, 0.07490500807762146, -0.3288591504096985, -0.04969775304198265, -0.14998313784599304, 0.6254065036773682, 0.2902719974517822], [-0.6108807921409607, -0.5139486193656921, 0.158910870552063, -0.39792945981025696, 0.21884335577487946, -0.07093539088964462, 0.2928915023803711, -0.20653915405273438, -0.4560382068157196, -0.17741696536540985, -0.2867942452430725, -0.4846038818359375, -0.1629437655210495, 0.5408034324645996, -0.27845314145088196, 0.38058286905288696, 0.3335650861263275, 0.2946998178958893, -0.33347535133361816, 0.44143933057785034, 0.1133977398276329, -0.4342901408672333, -0.2575702369213104, -0.2516949474811554, -0.28726425766944885, 0.2476184070110321, 0.08619150519371033, 0.2071862518787384, -0.11373712122440338, 0.3617098331451416, 0.10177241265773773, 0.526448667049408], [-0.7619346976280212, 0.4907846450805664, 0.29752737283706665, 0.5388258695602417, -0.5390028357505798, -0.3400682806968689, -0.04172903671860695, -0.3611559569835663, 0.14654521644115448, 0.13168223202228546, 0.467739075422287, 0.4083767533302307, 0.2220296859741211, -0.13133114576339722, -0.27907729148864746, 0.2656782269477844, -0.3099530339241028, -0.07706327736377716, -0.35602402687072754, 0.12438555061817169, 0.4097135365009308, 0.41070660948753357, -0.35832440853118896, -0.15125326812267303, -0.267991304397583, -0.0036021762061864138, -0.22248540818691254, 0.07576057314872742, 0.30274221301078796, -0.35176289081573486, -0.004023923072963953, 0.3393343985080719], [-0.4807840585708618, 0.9574832916259766, 0.5147045254707336, 0.13145579397678375, -0.7255663275718689, 0.3561255633831024, -0.45835036039352417, -0.6623661518096924, 0.18052580952644348, -0.5305207371711731, 0.13772928714752197, 0.12566250562667847, 0.4235466718673706, -0.36452797055244446, -0.0454571470618248, -0.2239488959312439, -0.322920560836792, 0.9065384864807129, 0.11324521154165268, 0.31458741426467896, 0.5045700669288635, -0.4834735095500946, -0.04252869635820389, 0.5380067229270935, -0.6050691604614258, -0.2977903187274933, -0.19773131608963013, -0.3597946763038635, 0.1543205976486206, -0.20687809586524963, -0.3333381414413452, 0.10968530178070068], [0.27990129590034485, 0.31754064559936523, 0.8477084636688232, 0.7429515719413757, -0.49494704604148865, 0.6933475136756897, -0.5156251788139343, -0.3866976499557495, 0.2217193841934204, 0.03834939002990723, -0.14694543182849884, -0.1368435025215149, 0.46061956882476807, -0.08189965039491653, -0.09182567149400711, -0.3430164158344269, -0.11103863269090652, 0.9187884330749512, -0.019854728132486343, -0.5013208389282227, -0.04341735690832138, -0.6179396510124207, 0.03885292634367943, 0.26026007533073425, -0.405651330947876, -0.369383305311203, -0.3842209279537201, 0.399890661239624, 0.3024115562438965, -0.2865748405456543, -0.23964133858680725, -0.5037661790847778], [-0.39226415753364563, 0.17977941036224365, 0.7997522354125977, 0.5672546625137329, -0.66292405128479, 0.7142933011054993, 0.20028862357139587, 0.07492610067129135, -0.08712107688188553, 0.01014750450849533, -0.2813054323196411, 0.26692837476730347, 0.6044021248817444, -0.16938556730747223, -0.10145067423582077, 0.06056462600827217, -0.06350158900022507, -0.024210983887314796, 0.8314651846885681, -0.3833123743534088, 0.9736652970314026, -0.22181165218353271, -0.7486551403999329, 0.8414471745491028, -0.3766489624977112, 0.2811185419559479, -0.7073147892951965, -0.29602107405662537, 0.014599191956222057, -0.44978055357933044, -0.5318368673324585, -0.3995499908924103], [-0.41933301091194153, 0.014956947416067123, 0.23739109933376312, 0.40627169609069824, 0.1025441512465477, -0.3021908402442932, 0.3796086609363556, 0.4111286699771881, 0.4334234595298767, 0.19406181573867798, 0.27868562936782837, 0.032824911177158356, 0.3294423222541809, -0.5202816128730774, 0.3211483061313629, 0.025957779958844185, 0.08161703497171402, -0.4050997793674469, -0.4745241105556488, -0.2879393696784973, -0.25197651982307434, -0.10720784962177277, 0.3444094955921173, -0.48104771971702576, -0.458523154258728, 0.28185799717903137, -0.03546135127544403, 0.3775589168071747, -0.2448865920305252, 0.44665512442588806, -0.41132909059524536, 0.662689208984375], [0.23498812317848206, -0.20037057995796204, 0.6988861560821533, -0.0458897165954113, -0.6157822608947754, 0.2743834853172302, 0.38698330521583557, 0.2993451654911041, -0.7454884052276611, -0.061094265431165695, -0.8801279067993164, -0.31246718764305115, 0.6336669921875, 0.3808744251728058, -0.45696017146110535, 0.30460813641548157, -0.16285976767539978, 0.5373607277870178, 0.3332689106464386, -0.010959572158753872, -0.3960345983505249, 0.1912112981081009, 0.45348986983299255, 0.7789515256881714, 0.07120604068040848, 0.17394815385341644, 0.2879646122455597, -0.4197714924812317, -0.05451937019824982, -0.7942914962768555, -0.2993738353252411, 0.4685453772544861], [-0.44977378845214844, -0.23861990869045258, -0.34966689348220825, -0.2631155848503113, -0.5815057754516602, -0.4233444631099701, -0.4045788049697876, 0.4933716654777527, -0.44557762145996094, -0.32652798295021057, 0.08214017748832703, -1.329728364944458, 0.31075766682624817, 0.4340398609638214, -0.06761139631271362, -0.12895885109901428, -0.08824975788593292, 0.4004842936992645, 0.1725507229566574, 0.057464029639959335, 0.24733927845954895, 0.6247467994689941, 0.18947020173072815, 0.2548443377017975, -0.22320201992988586, 0.41599807143211365, 0.24771182239055634, -0.05421886220574379, 0.19371497631072998, -0.11150148510932922, 0.5100709795951843, 0.2815806269645691], [0.45930495858192444, 0.1259319931268692, -0.5652847290039062, 0.26448243856430054, 0.6605916023254395, -0.46548157930374146, -0.32914483547210693, -0.4909753203392029, -0.42101773619651794, 0.3237301707267761, 0.23413878679275513, -0.515116810798645, 0.3427678346633911, -0.17044074833393097, -1.1118061542510986, -0.4071696698665619, -0.14277765154838562, 0.4698171019554138, -0.09755369275808334, -0.5255999565124512, 0.9355682134628296, -0.1746927946805954, 0.3486989438533783, 0.7072615623474121, -0.04272468388080597, 0.026650363579392433, -0.47007572650909424, 0.2967987060546875, 0.18259954452514648, 0.698587954044342, -0.34627196192741394, -0.1951276808977127], [0.2579366862773895, 0.563936710357666, -0.11318925023078918, 0.3123577833175659, -0.5444043874740601, -0.2880922853946686, 0.06868566572666168, -0.31746745109558105, -0.458024799823761, 0.17302225530147552, -0.23453716933727264, 0.06790981441736221, 0.22319495677947998, -0.08831808716058731, -0.7322079539299011, -0.1672593653202057, -0.33520522713661194, 0.6671234965324402, 0.2275152951478958, -0.6624183058738708, -0.25571444630622864, 0.7515711784362793, 0.068806491792202, 0.6235495209693909, -0.00094036286463961, -0.4049783945083618, 0.014722048304975033, 0.11425908654928207, 0.27722442150115967, 0.18101906776428223, -0.1928495615720749, -0.671148955821991], [-0.24172744154930115, 0.20568683743476868, 0.5638062357902527, 0.1653023064136505, -0.3088158071041107, -0.17140167951583862, -0.2756877839565277, -0.15395553410053253, -0.5673527121543884, -0.05704411864280701, 0.03500225394964218, -0.7273436784744263, 0.23016619682312012, 0.433651864528656, -0.7098841071128845, 0.12177782505750656, -0.5361435413360596, 0.7831878662109375, -0.2645007371902466, 0.29623493552207947, -0.26951926946640015, -0.5189167261123657, -0.011665873229503632, 0.821097195148468, -0.012163151055574417, -0.4541075527667999, 0.06871017813682556, -0.320330947637558, 0.7648962736129761, 0.1632375866174698, -0.1350664347410202, 0.11569749563932419], [-0.5523410439491272, -0.42967817187309265, 0.1368962526321411, -0.48683521151542664, 0.3633451759815216, 0.017949704080820084, 0.3377286195755005, 0.28300368785858154, 0.29403671622276306, -0.2647741138935089, -0.14008429646492004, -0.40112632513046265, 0.4133923351764679, -0.3915408253669739, 0.2618010938167572, -0.4601791203022003, -0.28110894560813904, -0.08698513358831406, 0.3127249777317047, 0.44397932291030884, 0.2244744598865509, 0.4806673526763916, 0.17416390776634216, -0.01379409246146679, 0.4091012179851532, -0.33431383967399597, 0.07390550523996353, -0.1762130856513977, -0.6317418217658997, -0.1982436180114746, 0.2998288869857788, 0.22559118270874023], [0.3825153708457947, -0.07651591300964355, 0.16547612845897675, 0.14846308529376984, -0.21360911428928375, 0.4023461937904358, 0.08002784848213196, 0.3042775094509125, -0.30669966340065, 0.07982209324836731, 0.4278995096683502, -0.21173954010009766, 0.3009454905986786, -0.05928608402609825, -0.4388073682785034, -0.2964418828487396, -0.20448186993598938, -0.3016853630542755, -0.42640218138694763, -0.3789673447608948, -0.24983665347099304, -0.41001754999160767, -0.2439601868391037, 0.13753953576087952, 0.347774863243103, 0.4813823401927948, -0.6367266178131104, -0.27777454257011414, -0.384232759475708, 0.4247690439224243, 0.13997481763362885, -0.2923445999622345], [0.3997829556465149, 0.1083330288529396, 0.11598503589630127, -0.02482694759964943, 0.024114616215229034, 0.23252740502357483, -0.4151587188243866, -0.05917314067482948, -0.6829001903533936, 0.3988492786884308, 0.409959077835083, -0.596182644367218, 0.10535599291324615, 0.2532173991203308, -0.36210814118385315, 0.1172800213098526, -0.09567131847143173, -0.3540806174278259, -0.7071463465690613, -0.5686458349227905, -0.09348957240581512, -0.13735316693782806, -0.9678877592086792, 0.6126070022583008, 0.06503096967935562, -0.1609920859336853, 0.13976266980171204, 0.4585283398628235, -0.7884035706520081, 0.35059699416160583, 0.4498271644115448, -0.045545924454927444], [-0.3618720471858978, -0.38867345452308655, 0.9076119065284729, 0.2647016644477844, -0.104864202439785, -0.5679060220718384, 0.2815554440021515, -0.6492882370948792, -0.832497775554657, -0.44560563564300537, -0.21349745988845825, 0.2012970894575119, -0.1421334594488144, -0.16650143265724182, 0.2948544919490814, 0.3328119218349457, 0.6388759016990662, -0.17913487553596497, -0.5464941263198853, 0.0026133947540074587, 0.24519824981689453, 0.45760682225227356, 0.8019658327102661, 0.3290981948375702, -0.05239205062389374, -0.28652679920196533, -0.02147318795323372, -0.4493313729763031, 0.2938132584095001, 0.12260670214891434, 0.5384606719017029, -0.3567526340484619], [-0.0137355150654912, 0.3764297664165497, -0.08920451998710632, -0.48015153408050537, -0.3224320709705353, -0.13515247404575348, -0.651197612285614, -0.20365603268146515, -0.1840001493692398, -0.421522319316864, 0.1395907700061798, 0.21404719352722168, -0.4004332721233368, -0.36340388655662537, 0.5292940735816956, -0.31297698616981506, 0.2755761742591858, -0.5735114812850952, 0.2644411623477936, -0.2586595416069031, -0.08409669995307922, -0.18414698541164398, 0.16336101293563843, -0.12838734686374664, 0.11547661572694778, 0.2686043679714203, 0.10017950087785721, -0.4714144468307495, -0.4306885600090027, 0.10267987847328186, 0.15881489217281342, 0.24876175820827484], [-0.6581225395202637, 0.30207857489585876, 0.12862151861190796, 0.5419386029243469, -0.5585145950317383, 0.09660972654819489, -0.9521574974060059, -0.2041591852903366, -0.117939792573452, 0.371703565120697, -0.2858850359916687, -0.7962148189544678, -0.25344082713127136, 0.4425814151763916, 0.042089007794857025, 0.16247539222240448, 0.5156399607658386, -0.40768060088157654, -0.18790048360824585, 0.33585962653160095, -0.3644917607307434, 0.3217799663543701, 0.2406442016363144, 0.795687198638916, 0.2899349629878998, -0.26133066415786743, 0.20721730589866638, -0.5687430500984192, 0.10301687568426132, -0.33345359563827515, 0.3293750584125519, -0.02655511163175106], [-0.6517607569694519, 0.17777878046035767, 0.4768582582473755, 0.5440696477890015, 0.1358727514743805, 0.04743577912449837, -1.014791488647461, -0.6837877035140991, -0.3444916009902954, -0.15380533039569855, 0.011249709874391556, 0.3125259280204773, -0.2182055562734604, 0.38285955786705017, -0.1269637793302536, 0.2928430140018463, 0.36837515234947205, 0.5330484509468079, -0.41682061553001404, 0.2088886946439743, 0.0129125090315938, 0.7823448777198792, 0.21916332840919495, 0.4019678831100464, -0.036261241883039474, 0.5168065428733826, -0.26287776231765747, -0.44945505261421204, -0.023518577218055725, -0.5336310267448425, -0.23247995972633362, -0.46759718656539917], [-0.3313103914260864, -0.1622837632894516, -0.15194882452487946, -0.09957123547792435, -0.271696537733078, 0.43393027782440186, -0.3895113468170166, -0.23525165021419525, -0.868050217628479, -0.10606484115123749, -0.21733307838439941, -0.3472346365451813, 0.4928002655506134, 0.35520291328430176, 0.4334734082221985, 0.27233535051345825, 0.5011190176010132, -0.13081401586532593, -0.07982376962900162, 0.406262069940567, -0.24785934388637543, 0.5337210297584534, 0.5211797952651978, 0.4752567410469055, -0.248107448220253, -0.604759156703949, -0.5553466081619263, -0.11986470222473145, -0.15467658638954163, 0.3444320857524872, 0.49769675731658936, -0.47772300243377686], [-0.08596639335155487, -0.3370926082134247, 0.9016208052635193, 0.7878670692443848, -0.07288547605276108, -0.37496417760849, -0.8679764270782471, -0.2669734060764313, -0.7146415114402771, -0.15113309025764465, -0.005224592052400112, 0.5839443802833557, -0.1781678944826126, -0.10146944224834442, -0.15058943629264832, 0.33810698986053467, -0.44532790780067444, -0.20131734013557434, 0.12587709724903107, 0.6314224004745483, 0.27299273014068604, -0.10396603494882584, -0.5273289680480957, 0.5371955037117004, -0.3700941205024719, 0.681023120880127, 0.4610987603664398, -0.09428787976503372, -0.22119729220867157, 0.22055071592330933, -0.36347514390945435, -0.4530472159385681], [-0.26511871814727783, 0.5252349376678467, 0.472912073135376, -0.19041423499584198, -0.213764026761055, -0.4989757239818573, -0.7381017804145813, -0.16280435025691986, -0.6187037229537964, -0.1402529776096344, 0.6935495734214783, 0.031792182475328445, -0.1982673704624176, 0.31454846262931824, 0.31474772095680237, -0.09529228508472443, -0.04272342100739479, 0.40790730714797974, -0.5456949472427368, 0.234172061085701, 0.4029826521873474, -0.5410292744636536, -0.22509276866912842, 0.7414507269859314, -0.47294512391090393, 0.3417523205280304, 0.6606194376945496, -0.4956124424934387, -0.5272781252861023, -0.1865842044353485, 0.33026227355003357, 0.47154197096824646], [-0.04887188598513603, 0.20131835341453552, 0.26189395785331726, 0.48718830943107605, -0.6083945035934448, 0.48672226071357727, -0.4339609444141388, 0.44504159688949585, -0.7454153299331665, -0.44838011264801025, 0.05771830305457115, -0.22617073357105255, 0.6768447160720825, 0.2873937487602234, 0.3694966435432434, -0.31811970472335815, 0.1078372448682785, -0.29048678278923035, -0.8497399687767029, -0.31071457266807556, -0.07215845584869385, 0.001405725721269846, 0.16647619009017944, 0.9950286149978638, 0.2545415759086609, 0.08227157592773438, -0.33497172594070435, -0.754661500453949, 0.14952456951141357, -0.6839457154273987, -0.030684035271406174, -0.3827062249183655], [-0.45725077390670776, -0.11480073630809784, -0.1351826936006546, 0.8155435919761658, 0.17317675054073334, 0.40458184480667114, -0.5043644309043884, -0.6517140865325928, -0.5780746936798096, -0.29089057445526123, 0.10536806285381317, 0.2787412703037262, -0.036837439984083176, 0.5638011693954468, 0.13913655281066895, 0.40641623735427856, 0.29240041971206665, -0.25000685453414917, -0.12766310572624207, -0.9188066720962524, 0.40059423446655273, 0.224848210811615, -0.4221561849117279, 0.37669840455055237, -0.3022622764110565, 0.2858121395111084, 0.2678545117378235, -0.5051289200782776, 0.42498767375946045, 0.18794047832489014, -0.1876351237297058, -0.5842177867889404], [-0.5150840878486633, 0.45052945613861084, 0.3163624405860901, 0.37614354491233826, -0.1351720541715622, -0.5260865688323975, -0.39886999130249023, -0.4231332838535309, 0.6040871143341064, 0.24560238420963287, 0.11876992881298065, 0.3626044988632202, 0.3708953857421875, -0.2852485477924347, 0.005805532447993755, 0.48060938715934753, 0.002959602978080511, -0.5262361168861389, -0.3238487243652344, -0.08838600665330887, 0.14682160317897797, 0.2876010239124298, -0.26284080743789673, -0.09076178818941116, -0.35079243779182434, 0.03135063499212265, 0.1625547856092453, 0.29773539304733276, -0.29655370116233826, -0.09562594443559647, -0.08122951537370682, 0.09902395308017731], [0.44216710329055786, 0.4441635310649872, -0.2960498631000519, 0.36158183217048645, 0.434386283159256, -0.27059924602508545, 0.13419198989868164, 0.2806611657142639, 0.49967503547668457, -0.16822321712970734, -0.017964128404855728, 0.15616050362586975, 1.0644673109054565, -0.4280979037284851, 0.1813221126794815, -0.10693424940109253, -0.10091345012187958, -0.29213905334472656, 0.3999447226524353, -0.5834389925003052, -0.3413987457752228, -0.10385897755622864, -0.09418881684541702, 0.716632068157196, -0.3145362138748169, -0.3426785469055176, 0.48438185453414917, -0.9676545858383179, 0.20136548578739166, -0.5393330454826355, -0.23572124540805817, -0.9017791748046875], [0.42804646492004395, 0.15395906567573547, -0.42241692543029785, 0.4031173586845398, -0.11345517635345459, 0.04285173490643501, -0.34227874875068665, -0.18790020048618317, -0.7325723767280579, -0.1626458615064621, 0.5971364378929138, 0.31753331422805786, 0.14544719457626343, 0.0008754479931667447, -0.07550348341464996, -0.012952292338013649, 0.6101090908050537, -0.260281503200531, -0.2026323825120926, -0.13878679275512695, -0.4050620496273041, 0.5315129160881042, -0.024005841463804245, -0.18856026232242584, -0.2732148766517639, 0.3795202374458313, -0.7787818312644958, 0.2735386788845062, -0.36766067147254944, -0.16769373416900635, -0.15883657336235046, 0.4808827340602875], [0.3947206735610962, 0.6186814904212952, -0.2062493860721588, 0.8232607245445251, 0.11612022668123245, 0.26542359590530396, -0.3898819386959076, 0.49953681230545044, -0.32212361693382263, -0.4025421440601349, -0.4893699884414673, -0.2955145835876465, 0.33233895897865295, 0.5078609585762024, -0.08785348385572433, 0.5407689809799194, 0.6890587210655212, 0.532514214515686, -0.7088707089424133, -0.20530296862125397, -0.27781641483306885, 0.12750793993473053, 0.5071678757667542, 0.4956757128238678, 0.07104626297950745, 0.4977351129055023, -0.008206476457417011, -0.5399477481842041, -0.8877195119857788, -0.5108017921447754, 0.3051045536994934, -0.3820236623287201], [-0.5947811007499695, 0.5610879063606262, -0.3051970303058624, 0.46982645988464355, -0.5400482416152954, 0.4875413775444031, -0.7198062539100647, 0.2961881160736084, -0.8738846778869629, 0.41562536358833313, 0.6068404912948608, -0.1690390557050705, -0.6167800426483154, 0.7200382351875305, 0.29347357153892517, -0.5479318499565125, 0.14958152174949646, 0.01648452691733837, -0.2743466794490814, -0.26928478479385376, 0.6047083139419556, 0.2340298593044281, 0.285559743642807, 0.3831728398799896, -0.3298164904117584, 0.4119589924812317, -0.7249709367752075, 0.24399647116661072, -0.3156302273273468, 0.003444282105192542, -0.3836020529270172, 0.19193848967552185], [0.4047625958919525, 0.30848759412765503, -0.3137955069541931, 0.7345201373100281, -0.3076207637786865, 0.6817732453346252, -0.5262647271156311, -0.263892263174057, -0.8417403101921082, -0.021146440878510475, 0.07945513725280762, -0.5078983902931213, 0.3122212588787079, 0.38556763529777527, -0.8594733476638794, 0.5114990472793579, 0.2075415551662445, -0.2549663484096527, -0.024816248565912247, -0.9704710841178894, -0.07563399523496628, 0.29033568501472473, 0.46778538823127747, 0.12419303506612778, -0.09875500202178955, -0.27876222133636475, -0.08137241005897522, 0.15142463147640228, -0.36405226588249207, 0.4206378757953644, 0.045856133103370667, -0.32401755452156067], [0.36279216408729553, 0.47454068064689636, -0.3759492039680481, 0.03313948214054108, 0.3834277391433716, -0.37813419103622437, -0.6212934851646423, 0.2599114775657654, -0.8051380515098572, -0.670603334903717, -0.5792962312698364, -0.5761997103691101, 0.29255154728889465, 0.3577941060066223, -0.19932052493095398, -0.20076392590999603, 0.7073656320571899, 0.46225181221961975, 0.04894718900322914, -0.12248518317937851, -0.04781486839056015, 0.6774098873138428, 0.09925366193056107, 0.7970149517059326, -0.27617812156677246, 0.03327106311917305, 0.1702650636434555, 0.4797358214855194, 0.48080214858055115, -0.5346288681030273, -0.02423618733882904, -0.22254441678524017], [0.2112855166196823, 0.2536907196044922, -0.1318095475435257, -0.07490400224924088, -0.40801188349723816, 0.10179150849580765, -0.5096445679664612, -0.2193940132856369, -0.5289417505264282, -0.016015004366636276, 0.19909270107746124, 0.0974196121096611, -0.22547969222068787, -0.2080232948064804, 0.12681131064891815, -0.34638336300849915, 0.39878860116004944, 0.1827232390642166, 0.3159015476703644, -0.10217761993408203, -0.0982017070055008, -0.3045833110809326, -0.2070801705121994, -0.09797398746013641, 0.3181651532649994, 0.16021712124347687, 0.19559626281261444, -0.358717679977417, -0.15756365656852722, -0.06975838541984558, 0.20868588984012604, 0.24768532812595367], [-1.0023622512817383, 0.3498263955116272, 0.16573487222194672, -0.1464218944311142, -0.0086689293384552, 0.6618556380271912, -0.2373088300228119, -0.23516137897968292, 0.3776067793369293, -0.23480266332626343, -0.2928517162799835, -0.7639415264129639, -0.5650326609611511, -0.156368687748909, -0.03087104670703411, -0.0597793348133564, 0.9443770051002502, -0.26141586899757385, 0.3653634786605835, 0.06064523383975029, 1.1419522762298584, 0.11900586634874344, -0.23643627762794495, 0.5620971322059631, -0.09778028726577759, 0.5085525512695312, -0.13297823071479797, -0.2260642796754837, -0.35220837593078613, 0.15184064209461212, -0.30921420454978943, 0.25477713346481323], [-0.666783332824707, 0.015427689999341965, 0.867887556552887, -0.19614414870738983, 0.441256582736969, 0.30315446853637695, -0.2450203150510788, -0.7189554572105408, -0.27996355295181274, -0.8871126770973206, 0.15474605560302734, -0.520113468170166, -0.1852709800004959, 0.33606961369514465, -1.213565707206726, 0.5825605988502502, 0.10639727115631104, 0.2776433229446411, -0.25156140327453613, 0.46264922618865967, -0.08386266976594925, 0.04361746832728386, -0.8812223076820374, 0.9422809481620789, 0.7277798652648926, 0.2870675325393677, -0.02750159427523613, 0.2701292932033539, 0.2624727487564087, 0.06673088669776917, -0.11057546734809875, -0.6331397891044617], [-0.38856562972068787, 0.004614863079041243, -0.24825440347194672, -0.14740490913391113, 0.23378124833106995, 0.32425448298454285, 0.2659558057785034, -0.8096062541007996, 0.6941224336624146, -0.8650216460227966, -0.19402645528316498, 0.6066383719444275, 0.6711844205856323, 0.10541874170303345, 0.226533904671669, 0.4126843512058258, -0.002443173201754689, 0.5801632404327393, 0.3898398280143738, -0.4008936882019043, 0.4263964891433716, 0.05412039905786514, 0.1592184454202652, 0.4705175757408142, -0.4700602889060974, 0.18863242864608765, -0.34041348099708557, 0.5199477672576904, -0.3538069725036621, -0.17101000249385834, -0.23531047999858856, -0.756115734577179], [-0.029454655945301056, 0.629288375377655, -0.2745322287082672, -0.43938371539115906, -0.06124471127986908, 0.2975904047489166, 0.1717844009399414, -0.5051440000534058, -0.659959077835083, 0.40812918543815613, 0.1831919252872467, -0.6875371336936951, 0.4643552601337433, -0.34169548749923706, -0.049936674535274506, 0.5447777509689331, -0.3151446282863617, 0.17304904758930206, 0.5367969870567322, -0.05867916718125343, -0.542214572429657, 0.47125479578971863, -0.44414088129997253, 0.1625204086303711, 0.2639889717102051, 0.5009200572967529, 0.22413326799869537, 0.3460484743118286, 0.037268489599227905, -0.3835805654525757, -0.045549724251031876, -0.43368640542030334], [0.600772500038147, -0.38655033707618713, 0.14116474986076355, -0.3203601837158203, 0.06986639648675919, 0.22640950977802277, 0.0816468670964241, 0.2631259858608246, -0.29449912905693054, -0.10195945203304291, -0.24515248835086823, -0.5828469395637512, 0.5775681734085083, 0.03378138691186905, 0.41182205080986023, -0.6975268721580505, -0.1054283082485199, -0.33858728408813477, -0.2646697759628296, 0.1971741020679474, 0.02776377648115158, 0.21292254328727722, -0.540299654006958, 1.0560493469238281, -0.21764539182186127, 0.20838361978530884, 0.45555657148361206, -0.5829120874404907, 0.12778720259666443, -0.19052055478096008, 0.38486170768737793, 0.3918220102787018], [-0.5248913168907166, -0.3996923267841339, -0.14737951755523682, 0.23377254605293274, -0.15910811722278595, -0.43118366599082947, -0.7351669073104858, -0.02544497512280941, 0.06252875179052353, -0.7247989177703857, 1.0067789554595947, 0.22011229395866394, 0.6167247891426086, -0.34697166085243225, 0.1929854452610016, 0.44537651538848877, 0.10114150494337082, 0.040611740201711655, -0.288931280374527, -0.2791752219200134, 0.2138909101486206, 0.5516932010650635, 0.2368055284023285, 1.077752709388733, -0.4287397861480713, 0.5681325197219849, -0.3496273159980774, -0.8900337219238281, 0.2537382245063782, -0.04937271028757095, -0.07523225992918015, 0.08700680732727051], [0.06528780609369278, 0.39383193850517273, -0.16239644587039948, 0.4038963317871094, -0.481496125459671, -0.3736294209957123, -0.8578415513038635, 0.21763166785240173, 0.21752570569515228, -0.1828172206878662, 0.5561147332191467, -1.0257179737091064, 0.015874724835157394, 0.650766134262085, -0.05721975117921829, 0.49282342195510864, -0.15190435945987701, 0.3038925230503082, -0.016289839521050453, -0.0382300429046154, -0.04061628878116608, -0.1745716780424118, 0.12817315757274628, 0.4926415681838989, 0.17068718373775482, 0.031575076282024384, 0.6282457709312439, 0.3201538622379303, -0.3991934657096863, -0.1867683380842209, 0.22043673694133759, -0.6109704971313477], [0.31194329261779785, -0.18198718130588531, -0.2142057567834854, 0.10903071612119675, -0.4637788236141205, -0.26021069288253784, -1.0417238473892212, -0.38869205117225647, -0.5913260579109192, 0.15070390701293945, -0.056748781353235245, -0.0739661455154419, 0.7463974356651306, 0.5326016545295715, 0.11896378546953201, -0.030425172299146652, 0.2745647430419922, 0.13510550558567047, -0.2368728518486023, -0.04621855169534683, -0.2418016791343689, 0.19676902890205383, 0.2718740999698639, 1.0359723567962646, 0.7049691081047058, -0.11349491029977798, 0.8511989712715149, 0.1792110651731491, -0.16489513218402863, 0.6946268677711487, -0.1431351900100708, -0.41244277358055115], [0.3324282765388489, -0.5211091041564941, 0.11477700620889664, 0.33695462346076965, 0.08370903879404068, -0.35642001032829285, 0.3107181191444397, -0.4975505471229553, -0.5887998342514038, -0.6578238010406494, 0.4817648231983185, -0.029599621891975403, -0.015904294326901436, 0.7820082902908325, -0.5865421891212463, -0.26433244347572327, 0.4689995348453522, -0.19430066645145416, 0.08537441492080688, 0.5557709336280823, 0.4870337247848511, -0.3315141201019287, -0.4528740346431732, 0.5215686559677124, 0.14203210175037384, -0.18838395178318024, -0.39768877625465393, 0.577312171459198, -0.38136422634124756, 0.3587273955345154, -0.20820625126361847, -0.34925204515457153], [-0.5117822289466858, 0.44594791531562805, 0.05360817536711693, -0.2798435688018799, -0.7863029837608337, -0.5791805982589722, -0.08164986968040466, 0.15852104127407074, 0.6282331943511963, -0.24234069883823395, -0.27780213952064514, -0.49519598484039307, -0.37225106358528137, -0.133986234664917, -0.1113324835896492, 0.8162487745285034, -0.014265055768191814, 0.4593726694583893, -0.4859299063682556, 0.7156844735145569, 0.658542275428772, -0.14177541434764862, 0.008731605485081673, 0.6524154543876648, 0.015175002627074718, 0.036357082426548004, -0.7199437022209167, 0.5475648641586304, -0.29609259963035583, -0.07250180095434189, -0.00446880841627717, -0.12848971784114838], [0.39866140484809875, 0.14776861667633057, -0.45841073989868164, 0.19837914407253265, -0.2936403453350067, 0.3327828645706177, -0.9648439884185791, -0.055697713047266006, -0.10705501586198807, -0.05043169856071472, 0.4820874035358429, 0.29130297899246216, -0.4898846447467804, -0.16430576145648956, -0.21005061268806458, -0.2630728781223297, 0.2359997183084488, 0.1449889987707138, 0.20259666442871094, 0.08642301708459854, 0.0013545678230002522, -0.21605698764324188, 0.27624988555908203, -0.015111745335161686, 0.35014286637306213, 0.054276734590530396, -0.011538641527295113, -0.32380208373069763, 0.32126256823539734, -0.05466519296169281, 0.2805476486682892, 0.16273283958435059], [-0.05426899343729019, 0.23564520478248596, 0.5818668007850647, -0.13769516348838806, -0.6810243129730225, 0.28877049684524536, -1.2270848751068115, 0.5611730813980103, -1.464329481124878, 0.3336552381515503, -0.17454485595226288, 0.11887526512145996, 0.538254976272583, -0.6091424822807312, -0.9941954016685486, 0.7308496832847595, 0.08079855144023895, 0.6624242663383484, 0.05126797780394554, -0.4060649275779724, 0.14186467230319977, 0.404851496219635, -0.6186728477478027, 0.2513439357280731, -0.11542157083749771, 0.31064537167549133, -0.29582488536834717, 0.23934780061244965, -0.41276994347572327, -0.27053096890449524, 0.3192763924598694, 0.32664474844932556], [-0.6715465188026428, 0.09402060508728027, -0.45195603370666504, 0.2929244637489319, 0.00488594314083457, 0.5650585293769836, -0.10873593389987946, 0.7604011297225952, -0.09702443331480026, -0.8305156230926514, 0.4230709373950958, 0.04405274987220764, 0.035495877265930176, -0.0864713042974472, 0.18534570932388306, -0.31349530816078186, 0.18954789638519287, -0.28921353816986084, -0.35520055890083313, -0.7863507866859436, 0.4899519085884094, 0.6987890601158142, -0.8117304444313049, 0.9392211437225342, -0.2784682810306549, 0.09566109627485275, 0.04448704421520233, 0.44978898763656616, -0.6269222497940063, 0.019486675038933754, -0.3430033326148987, 0.20346474647521973], [-0.4897044003009796, -0.03328751400113106, 0.11346551030874252, 0.31351035833358765, 0.1016622856259346, -0.09372412413358688, -0.7432990074157715, 0.8268847465515137, -0.9054592847824097, -0.6706240177154541, 0.5215021371841431, -0.1610683649778366, 0.6448958516120911, -0.1515437215566635, 0.5154894590377808, 0.46780237555503845, 0.41599172353744507, -0.18820244073867798, 0.19730156660079956, -0.10105016827583313, 0.10810931026935577, -0.03870800882577896, -0.6275028586387634, 0.4902290403842926, -0.4087713062763214, 0.07682295888662338, 0.2741497755050659, -0.45955660939216614, -0.50161212682724, 0.46706634759902954, -0.5021566152572632, 0.024504074826836586], [-0.4733542799949646, 0.3763400614261627, 0.5126765966415405, 0.24450545012950897, -0.5419151782989502, -0.2785366475582123, -0.45958030223846436, 0.415252149105072, -0.4768282473087311, -0.5141305923461914, 0.7395275235176086, -0.6484031677246094, -0.2885098159313202, 0.6183697581291199, 0.24932895600795746, -0.594669759273529, 0.4236311614513397, 0.11572758853435516, -0.9759401082992554, -0.27707603573799133, 0.5641603469848633, 0.47476354241371155, 0.2335153967142105, 0.7871432900428772, 0.3920802175998688, 0.03826526924967766, 0.6110937595367432, -0.3635915219783783, 0.17766083776950836, -0.16845077276229858, 0.19417741894721985, 0.18172091245651245], [0.0010364983463659883, -0.27528464794158936, 0.17852169275283813, 0.19915302097797394, 0.0455695241689682, -0.6918561458587646, -0.1253872662782669, -0.062160931527614594, -0.8324398398399353, 0.27208662033081055, 0.8537194132804871, 0.09286430478096008, -0.4108400046825409, 0.3934073746204376, -0.26950645446777344, -0.2751076817512512, 0.4355557858943939, 0.44489362835884094, 0.3325679898262024, -0.04741427302360535, 1.1200429201126099, -0.4598228931427002, -0.6904513239860535, 0.40440088510513306, -0.8364376425743103, -0.08212907612323761, 0.3246402144432068, -0.16767223179340363, -0.7943454384803772, 0.2522864043712616, 0.2696199119091034, -0.35583844780921936], [0.2908788025379181, 0.3631424605846405, -0.3864888846874237, -0.2189403474330902, 0.11459874361753464, 0.048927199095487595, -0.13692925870418549, 0.33994540572166443, -0.4644467234611511, 0.0734209269285202, 0.6232948899269104, -0.020126989111304283, -0.17519623041152954, -0.25997838377952576, -0.6374072432518005, -0.17637409269809723, -0.1850779950618744, 1.0443261861801147, -0.2545417249202728, -0.8251957893371582, 1.0246522426605225, 0.30083316564559937, -0.20168536901474, 0.5917313694953918, -0.16352713108062744, -0.29646503925323486, 0.23433060944080353, 0.310723215341568, -0.5073127150535583, 0.04043445736169815, 0.3167957663536072, 0.22362612187862396], [0.07254382967948914, -0.38544437289237976, 0.13188175857067108, -0.2670382261276245, 0.256492018699646, -0.08027596026659012, -0.06602118164300919, -0.9677023887634277, 0.21779166162014008, -0.011237545870244503, 0.01321364101022482, 0.3547898530960083, 0.6023764610290527, -0.0006538080051541328, -0.11850626021623611, 0.31691786646842957, 0.6523951888084412, -0.2477182149887085, -0.643553614616394, 0.38306179642677307, 0.05878211930394173, 0.5456326007843018, -0.34099623560905457, 0.7574048638343811, -0.21240897476673126, 0.5764359831809998, -0.5075861215591431, -0.8676962852478027, -0.6615568399429321, -0.18765409290790558, 0.5772918462753296, -0.5910838842391968], [-0.42890557646751404, -0.19976024329662323, 0.42312803864479065, 0.21897868812084198, -0.2343394160270691, -0.1392189860343933, 0.32264596223831177, 0.16805897653102875, -0.7356833815574646, -0.4348437488079071, 0.3063729703426361, -0.46053048968315125, -0.1686175912618637, 0.2942273020744324, -0.7727112174034119, -0.08909009397029877, 0.18550696969032288, -0.12993070483207703, 0.4605432152748108, 0.4709848463535309, -0.3549361526966095, 0.39428839087486267, 0.008747299201786518, 0.9592985510826111, -0.25679144263267517, 0.4450441002845764, 0.267126202583313, 0.45392170548439026, -0.631357729434967, -0.3560739755630493, -0.2658850848674774, 0.5155826210975647], [-0.014658128842711449, 0.10303835570812225, -0.030461419373750687, 0.16753561794757843, -0.29427599906921387, -0.013584926724433899, -0.40389570593833923, -0.7355547547340393, -0.41201338171958923, -0.34618517756462097, -0.38874998688697815, 0.0560222789645195, -0.06910649687051773, -0.18603837490081787, 0.3198009133338928, -0.2549239695072174, 0.5638917088508606, -0.013099400326609612, 0.219369038939476, 0.15636014938354492, -0.028054436668753624, -0.5493443608283997, 0.5113895535469055, -0.1582554578781128, 0.3704921305179596, 0.3075861930847168, 0.3574073016643524, -0.4155937433242798, -0.6444720029830933, 0.3632180988788605, 0.4757595360279083, 0.0869026929140091], [0.21908636391162872, 0.2772753834724426, 0.24192924797534943, 0.26318830251693726, 0.31085386872291565, 0.23595154285430908, -0.6648185849189758, 0.2689805328845978, 0.040198251605033875, 0.18429803848266602, -0.5151283740997314, -0.45734265446662903, -0.17340043187141418, 0.1124783530831337, -0.533639669418335, -0.3358685374259949, 0.020564012229442596, -0.13599558174610138, -0.3738439977169037, -0.018148139119148254, 0.28715234994888306, -0.4146248698234558, 0.40450331568717957, 0.8976702690124512, -0.008886297233402729, 0.5104756951332092, -0.541892945766449, -0.19314990937709808, -0.34310832619667053, -0.1743236929178238, 0.7457285523414612, 0.44086673855781555], [0.329038143157959, 0.08565345406532288, 0.3378485441207886, 0.20625720918178558, 0.41177353262901306, 0.5070204138755798, -0.2274833768606186, -0.5495585799217224, -0.7389543056488037, 0.09933832287788391, 0.3058217465877533, 0.29548075795173645, -0.13451820611953735, -0.20134371519088745, -0.45667773485183716, -0.13074813783168793, -0.2040632665157318, -0.1760607361793518, -0.04098028689622879, 0.510566771030426, -0.2305314540863037, -0.13952045142650604, -0.04284410551190376, -0.05715848132967949, -0.5008419752120972, -0.3396238386631012, -0.20778119564056396, 0.36944612860679626, -0.5176732540130615, -0.3133136034011841, 0.21662195026874542, 0.14161807298660278], [0.1374041736125946, 0.5853142142295837, 0.31361255049705505, 0.17745763063430786, 0.29743510484695435, 0.4007509648799896, -0.5771437883377075, -0.3658762574195862, -0.6183035373687744, 0.09901127964258194, 0.5982598662376404, 0.5518264174461365, -0.47714853286743164, -0.3077053129673004, -0.5458846688270569, -0.04645126312971115, 0.07474436610937119, 0.38342157006263733, 0.2275339514017105, 0.38176247477531433, -0.5102145075798035, -0.3161934018135071, -0.22518911957740784, -0.337243914604187, 0.13304592669010162, -0.13145771622657776, 0.2201353907585144, 0.03898271918296814, -0.06963273137807846, -0.21006758511066437, 0.2055899053812027, 0.12932926416397095], [0.29939350485801697, -0.21490003168582916, -0.21298560500144958, -0.006102972198277712, 0.40290817618370056, 0.5559018850326538, 0.2804332375526428, -0.02804259955883026, -0.6594436764717102, 0.5281671285629272, -0.5188567638397217, 0.26624271273612976, 0.5237107276916504, -0.2845071256160736, -0.07838524132966995, -0.34533798694610596, 0.08708783984184265, 0.05763215571641922, 0.1480845808982849, -0.5269352793693542, 0.5224372744560242, 0.6006795167922974, -0.4417736530303955, 0.7449602484703064, -0.5311383605003357, -0.3999005854129791, -0.27261054515838623, -0.5603457689285278, -0.5207517743110657, 0.5726585984230042, 0.35487356781959534, -0.32964086532592773], [-0.8679170608520508, 0.48729249835014343, -0.15575642883777618, -0.01543760672211647, 0.20603813230991364, 0.5544487237930298, -0.38615167140960693, 0.27196675539016724, -0.02334851771593094, -0.6308113932609558, 0.06461509317159653, -0.2609064280986786, 0.1563117653131485, 0.19458387792110443, -0.6388523578643799, -0.7386858463287354, 0.13296353816986084, 1.064035415649414, -0.6558112502098083, 0.08233973383903503, 0.1529119908809662, 0.362212598323822, 0.5040236711502075, 0.4240562319755554, 0.05300316959619522, 0.2179071009159088, -0.8299893140792847, 0.03358419984579086, 0.3587163984775543, -0.16057534515857697, -0.4301699101924896, -0.26197338104248047], [-0.8118947744369507, 0.3007940351963043, -0.3275314271450043, -0.2588951587677002, -0.27141639590263367, 0.7638444304466248, 0.235196053981781, -0.0834040716290474, 0.08002986013889313, -0.8186819553375244, 0.046030133962631226, 0.1594138741493225, 0.02571708709001541, 0.6474595069885254, -0.17939262092113495, -0.5711784958839417, 0.3862150311470032, 0.461773544549942, -0.38928863406181335, 0.05931542441248894, 0.6489654779434204, -0.42817485332489014, -0.8840419054031372, 0.8508455753326416, 0.2677318751811981, 0.44042885303497314, -0.0187094584107399, 0.13775666058063507, -0.7008271813392639, 0.09349364042282104, -0.34553584456443787, 0.014920821413397789], [0.003419764107093215, -0.19376282393932343, -0.38027381896972656, 0.48011723160743713, 0.23045408725738525, 0.30390292406082153, -0.03610211983323097, 0.33884942531585693, -0.9151401519775391, 0.6664371490478516, -0.45261311531066895, -0.0074355946853756905, 0.3655066192150116, -0.07364713400602341, 0.06933250278234482, 0.3629704713821411, -0.15778467059135437, 0.3024228513240814, -0.3361433148384094, -0.26883256435394287, 0.2672002911567688, -0.28952908515930176, -0.337072491645813, 1.0459415912628174, 0.0631188377737999, -0.5442410707473755, -0.2819463014602661, -0.4668619632720947, 0.499586820602417, 0.10371281206607819, -0.34116625785827637, -0.47399240732192993], [-0.3480607569217682, 0.45275622606277466, 0.16602279245853424, 0.42871057987213135, -0.25569605827331543, -0.34441646933555603, -0.3215429186820984, -0.35075974464416504, 0.35681551694869995, 0.34271669387817383, 0.23747344315052032, 0.27648302912712097, 0.20011116564273834, -0.08915775269269943, -0.03972489386796951, 0.23443374037742615, -0.21052058041095734, -0.3416728675365448, -0.43781349062919617, -0.029767217114567757, 0.25411921739578247, 0.28458479046821594, -0.0010138934012502432, -0.19081030786037445, -0.1985209882259369, 0.11079856008291245, -0.1496174931526184, 0.3410423696041107, -0.07730250060558319, -0.16610927879810333, 0.464835524559021, 0.215389221906662], [-0.056947775185108185, -0.2149692177772522, -0.6473351120948792, 0.23327943682670593, 0.33531755208969116, 0.009950971230864525, -0.6837655901908875, 0.29607558250427246, 0.23736578226089478, -0.4057846665382385, 0.590873122215271, -0.25010380148887634, 0.7411816120147705, -0.13846801221370697, 0.0792207270860672, 0.23099572956562042, 0.5901505351066589, 0.34993720054626465, -0.22468502819538116, -0.6492632627487183, -0.33766403794288635, 0.08759142458438873, -0.16110734641551971, 0.35645565390586853, -0.08045526593923569, 0.17981278896331787, -0.1921159029006958, 0.2071586549282074, -0.5940173268318176, -0.2594497799873352, 0.4234834909439087, -0.7714115381240845], [-0.2966298758983612, 0.5488875508308411, 0.3195078670978546, 0.41594013571739197, -0.07176133990287781, -0.1628248393535614, 0.21709424257278442, -0.04057270660996437, -0.6616138815879822, -0.4140324890613556, 0.3886452317237854, -0.30222266912460327, 0.53792405128479, -0.6310003399848938, -0.8259202241897583, 0.11185944825410843, 0.530213475227356, 0.2895365357398987, -0.1357799619436264, -0.48884060978889465, -0.2230665683746338, 0.28813621401786804, 0.254226416349411, 0.7543298006057739, -0.022609464824199677, -0.5354629755020142, -0.6462691426277161, -0.6846411824226379, 0.313837468624115, -0.3183072507381439, 0.3084355592727661, -0.4591216742992401], [-0.18205063045024872, -0.015318764373660088, -0.10088247805833817, 0.9098738431930542, -0.23811781406402588, -0.2765887975692749, 0.6749522089958191, 0.11343099176883698, -0.1642896980047226, 0.24892117083072662, -0.43475186824798584, -0.6273046135902405, 0.8431031703948975, 0.35111430287361145, -0.791777491569519, -0.5447109937667847, -0.007963307201862335, 0.6937924027442932, -0.38833460211753845, 0.39204660058021545, -0.30858737230300903, -0.18820147216320038, -0.7222517728805542, 0.9529577493667603, 0.008467881008982658, -0.26731160283088684, -0.34707438945770264, -0.4153541922569275, 0.2706504166126251, -0.3401005268096924, -0.376370906829834, 0.09223555028438568], [0.06858039647340775, 0.07800907641649246, -0.15271984040737152, 0.48748335242271423, -0.0724455788731575, 0.2506019175052643, 0.14728659391403198, 0.06033939868211746, 0.1462031453847885, 0.1275564432144165, -0.5825579762458801, -0.5514633059501648, 0.28308212757110596, -0.3585335612297058, -0.3486114740371704, -0.40200188755989075, 0.03522561863064766, -0.0960974171757698, -0.2524677515029907, 0.19590847194194794, -0.29450732469558716, -0.37939366698265076, 0.07724092900753021, -0.08758151531219482, -0.20312967896461487, 0.43087854981422424, 0.10578396916389465, 0.05610697343945503, 0.4438781142234802, 0.5075013041496277, -0.3707698583602905, 0.2252548485994339], [0.18695932626724243, -0.0727873295545578, 0.9556379914283752, 0.26737695932388306, 0.051512788981199265, 0.47214382886886597, -0.4248049855232239, -0.6497876644134521, -0.3974469006061554, -1.0118684768676758, 0.31861063838005066, 