{"block_0": {"att.W_query.weight": [[0.008426591753959656, -0.22173449397087097, 0.3351576328277588, 0.23185832798480988, 0.10760482400655746, -0.21604837477207184, -0.21234168112277985, -0.8073921203613281, 0.13696540892124176, 0.29357466101646423, -0.6607257127761841, -0.3112642467021942, 0.4922586977481842, 0.18188385665416718, 0.34290575981140137, -0.24167101085186005, 0.23215176165103912, 0.44108664989471436, -0.4185532033443451, -0.4462538957595825, 0.02052803710103035, -0.07496055960655212, -0.393257737159729, 0.33813193440437317, 0.007038156036287546, -0.0008869305602274835, 0.11016474664211273, 0.187632754445076, 0.5139084458351135, -0.2981794476509094, -0.5233045220375061, 0.5767187476158142], [-0.2722519040107727, -0.11125475913286209, 0.3869388699531555, -0.24486471712589264, 0.8208720684051514, 0.10614215582609177, -0.009776986204087734, 0.4227335751056671, -0.524387776851654, 0.3487241566181183, -0.5271279215812683, -0.3075697124004364, 0.35867056250572205, -0.1788511425256729, -0.02604805864393711, -0.05090700089931488, 0.1519956737756729, 0.205746129155159, 0.08597128093242645, 0.6863572001457214, -0.14739632606506348, -0.04504544287919998, -0.3806304633617401, 0.20202483236789703, -0.16725262999534607, -0.22442001104354858, -0.22462233901023865, -0.237124964594841, -0.07445733994245529, -0.7247328758239746, 0.7052527666091919, -0.16711853444576263], [0.7169650793075562, -0.17903822660446167, 0.17544656991958618, -0.29342737793922424, 0.5897422432899475, -0.2689387798309326, 0.17546318471431732, 0.19915176928043365, -0.03641422092914581, -0.5025623440742493, 0.3998764455318451, -0.14506347477436066, -0.690269410610199, -0.4764787256717682, -0.17547784745693207, 0.4473975896835327, 0.13290052115917206, 0.20726585388183594, 0.12476221472024918, 0.34811124205589294, -0.08106989413499832, -0.4850376546382904, -0.17114059627056122, 0.499472975730896, -0.07910171896219254, -0.48373836278915405, 0.5550863742828369, 0.22840489447116852, -0.4668208062648773, -0.35420870780944824, 0.473347008228302, -0.7814753651618958], [-0.09470608085393906, 0.08499271422624588, -0.3198974132537842, 0.13431242108345032, 0.41152170300483704, -0.7344380021095276, -0.4189174473285675, 0.3260580599308014, 0.15691621601581573, -0.1925172060728073, -0.19180436432361603, 0.0919618085026741, -0.2495850771665573, -0.02052958682179451, 0.25200238823890686, 0.6383506655693054, 0.36463621258735657, 0.2046554833650589, -0.06778311729431152, -0.340401828289032, 0.03937550634145737, -0.3285924196243286, -0.14709793031215668, 0.4164027273654938, -0.301570862531662, 0.2862691581249237, 0.45726197957992554, -0.15543866157531738, -0.6766798496246338, 0.10488823801279068, 0.0846581757068634, 0.5057457685470581], [0.018641242757439613, -0.011711843311786652, 0.16347636282444, 0.13216297328472137, -0.5371492505073547, -0.17382600903511047, 0.23713810741901398, 0.2945311665534973, 0.33209696412086487, -0.14014345407485962, -0.04853424057364464, 0.2078079879283905, 0.10516833513975143, 0.0903736799955368, -0.3229627013206482, -0.024754805490374565, -0.29817888140678406, -0.2250637412071228, 0.11540677398443222, -0.16696995496749878, 0.3335047662258148, 0.20488591492176056, 0.3756960332393646, 0.26573091745376587, 0.1856665313243866, -0.19006255269050598, -0.10199275612831116, -0.3035123646259308, -0.11007662117481232, 0.13347038626670837, -0.03324512764811516, -0.13054397702217102], [0.026497410610318184, 0.13779304921627045, 0.43281447887420654, 0.18747760355472565, -0.2420993596315384, 0.03218735381960869, -0.22073958814144135, -0.14801041781902313, -0.38666820526123047, -0.3060281574726105, 0.16934974491596222, -0.22076912224292755, 0.41567185521125793, -0.11555241048336029, -0.013498115353286266, -0.020706577226519585, -0.26746290922164917, -0.23159271478652954, 0.3865150809288025, -0.13504116237163544, -0.14052560925483704, 0.31556764245033264, -0.13619136810302734, -0.1484774947166443, 0.27133461833000183, 0.2829359471797943, 0.12487650662660599, -0.03129860758781433, 0.015187688171863556, 0.12931303679943085, -0.2640177309513092, -0.10828667879104614], [-0.10035372525453568, 0.006273668725043535, -0.5666143894195557, -0.2275412529706955, 0.19552390277385712, 0.28624799847602844, -0.7238742709159851, 0.7130016684532166, -0.013226540759205818, -0.28153929114341736, -0.09657912701368332, -0.18522152304649353, -0.10710607469081879, 0.013051849789917469, -0.21481958031654358, 0.21978047490119934, 0.08446933329105377, 0.050976917147636414, 0.15560472011566162, 0.2176135629415512, 0.08961514383554459, -0.027358075603842735, -0.3998200297355652, 0.5743082761764526, 0.2227708101272583, -0.5249853730201721, -0.2703286409378052, 1.0790274143218994, 0.30713263154029846, 0.12955471873283386, -0.05811602249741554, -0.3837086260318756], [-0.014092175289988518, -0.12480363249778748, -0.07744060456752777, 0.43804797530174255, 0.009304014965891838, -0.03443867713212967, 0.21177582442760468, 0.4581206142902374, 0.48441869020462036, 0.07484360784292221, -0.31971317529678345, 0.35701802372932434, 0.015256743878126144, -0.1956457644701004, -0.36374667286872864, 0.002531864447519183, 0.07049619406461716, -0.019430477172136307, -0.2058829665184021, 0.2907869815826416, -0.23598243296146393, -0.4259573221206665, 0.2476586252450943, -0.19623726606369019, -0.43988898396492004, -0.4665783941745758, 0.07228291034698486, -0.0009287240682169795, -0.23402053117752075, -0.1813126653432846, 0.5320543646812439, -0.15088970959186554], [0.30113664269447327, -0.4470807909965515, -0.3698699176311493, 0.15628811717033386, 0.025941843166947365, -0.1663745939731598, -0.15489906072616577, 0.22710224986076355, 0.13552126288414001, -0.07235320657491684, 0.23241746425628662, -0.220284566283226, -0.178367480635643, 0.25609272718429565, 0.3959444761276245, 0.5350989699363708, 0.437429815530777, -0.10536479949951172, 0.3246486485004425, 0.42150160670280457, 0.43024948239326477, -0.5732389092445374, -0.05434519425034523, -0.4150347411632538, -0.11816926300525665, -0.4699660837650299, -0.057622384279966354, -0.4761575162410736, -0.39321741461753845, -0.1357971429824829, 0.8488272428512573, -0.24853646755218506], [0.07250410318374634, -0.13973253965377808, 0.5156075954437256, 0.20615747570991516, -0.5397459864616394, -0.12204207479953766, 0.7104411125183105, -0.33963051438331604, -0.22553510963916779, 0.2550427317619324, -0.2324805110692978, 0.0940568596124649, -0.18575520813465118, -0.5791125297546387, -0.1400415599346161, -0.25108227133750916, -0.04895675182342529, 0.11130128800868988, -0.12270278483629227, 0.03480643033981323, 0.3010028302669525, 0.2902774512767792, 0.16600476205348969, -0.34086430072784424, 0.1172167956829071, -0.15366144478321075, 0.21238291263580322, 0.23082293570041656, 0.19085542857646942, 0.4304710328578949, -0.051030829548835754, 0.2035023272037506], [0.06459159404039383, -0.051170170307159424, 0.4672573208808899, -0.1315241903066635, -0.03689371049404144, -0.05385077744722366, 0.17712990939617157, -0.06800858676433563, -0.5460731387138367, -0.679072916507721, -0.48572078347206116, 0.21935981512069702, -0.0362500324845314, 0.12504607439041138, 0.11071594804525375, -0.22115378081798553, -0.09106692671775818, 0.11226625740528107, -0.47218185663223267, 0.12633901834487915, -0.14994847774505615, 0.5198911428451538, -0.16142074763774872, -0.3132593631744385, 0.5482662320137024, 0.9380580186843872, -0.3246975541114807, 0.3977234959602356, 0.10819105803966522, 0.5598747134208679, -0.255998820066452, 0.19313012063503265], [-0.0662742331624031, 0.7838847041130066, -0.4885123372077942, -0.033684104681015015, 0.45412877202033997, 0.8144405484199524, -0.4986917972564697, -0.2662440538406372, 0.03270043060183525, -0.3190653920173645, -0.08488692343235016, -0.09895064681768417, 0.24803173542022705, 0.6054126024246216, 0.22481538355350494, -0.05686815083026886, -0.5290257334709167, 0.2149924635887146, -0.037990257143974304, -0.2209804356098175, -0.3590448498725891, -0.3157450556755066, 0.32920709252357483, 0.013049841858446598, 0.9430515170097351, 0.12505115568637848, -0.6663312911987305, -0.15823152661323547, -0.2669773995876312, -0.3641844093799591, -0.0758516937494278, 0.14033742249011993], [0.37291988730430603, -0.5200890898704529, -0.12459804862737656, 0.22683601081371307, -0.09600343555212021, -0.3979523479938507, -0.28978878259658813, 0.2833349406719208, 0.02809128537774086, -0.3512924313545227, 0.41288477182388306, 0.573695957660675, -0.4736153483390808, 0.5150060653686523, -0.29443517327308655, -0.07634669542312622, -0.4261164367198944, 0.2556160092353821, 0.08111729472875595, -0.4680589437484741, 0.23258616030216217, 0.2767673432826996, 0.48553231358528137, 0.10856001079082489, -0.1409921646118164, -0.2863996624946594, -0.3396318852901459, 0.17183297872543335, -0.19641222059726715, 0.39219626784324646, 0.5185076594352722, -0.10762498527765274], [-0.23347899317741394, -0.1472889631986618, 0.12283955514431, 0.2353750318288803, 0.029897134751081467, 0.1802469789981842, -0.3171839118003845, 0.34324702620506287, -0.04733744263648987, 0.33715975284576416, -0.0965229794383049, 0.110991470515728, -0.04697839915752411, 0.11057213693857193, -0.1555141806602478, 0.03619074448943138, -0.6869710087776184, -0.15785114467144012, 0.5057433247566223, -0.24918001890182495, 0.3306722044944763, 0.06027412414550781, 0.14652051031589508, 0.31715428829193115, -0.4945579469203949, -0.6312044858932495, 0.11728127300739288, 0.5219897627830505, -0.011592334136366844, -0.2008218616247177, 0.4278956651687622, -0.08876984566450119], [-0.040568556636571884, -0.2729170322418213, -0.3243407607078552, -0.5321842432022095, -0.44612038135528564, -0.17240820825099945, 0.10547589510679245, 0.09490299969911575, -0.08911611139774323, -0.26412081718444824, 0.3851185142993927, 0.21686793863773346, -0.03567514196038246, 0.321388840675354, -0.019044052809476852, -0.018372349441051483, 0.35580378770828247, 0.1755744367837906, 0.13903573155403137, 0.1545451432466507, 0.3189985454082489, -0.03739465773105621, -0.17868949472904205, -0.27915453910827637, 0.39046090841293335, 0.13056758046150208, -0.48192352056503296, -0.31387725472450256, 0.07128410041332245, -0.18401554226875305, 0.04657180234789848, 0.14498062431812286], [-0.16498683393001556, -0.6401251554489136, -0.36528700590133667, -0.013907735235989094, -0.24855868518352509, 0.06881192326545715, 0.15440846979618073, 0.004592369310557842, -0.059698767960071564, -0.10109546035528183, 0.29829221963882446, 0.5731942653656006, -0.2775441110134125, 0.13004086911678314, 0.02556883916258812, 0.16315509378910065, -0.09134787321090698, 0.2231946438550949, 0.22378921508789062, 0.18117929995059967, 0.3741663098335266, 0.2006482183933258, -0.28208282589912415, 0.25631141662597656, 0.12000969797372818, -0.01366430800408125, -0.7729867696762085, -0.15776413679122925, -0.38620278239250183, -0.1674148142337799, 0.0981985479593277, 0.030896227806806564], [-0.4125330448150635, 0.7625012397766113, 0.25533807277679443, 0.04191061481833458, 0.38750988245010376, -0.1620980054140091, 0.4134940505027771, -0.14120341837406158, -0.17100688815116882, -0.17112092673778534, 0.18380902707576752, -0.22137442231178284, -0.5631028413772583, 0.19693496823310852, -0.331550657749176, -0.15967310965061188, -0.35658371448516846, -0.9831620454788208, 0.0034123824443668127, -0.19986951351165771, -0.1132703572511673, 0.371024489402771, 0.5277178287506104, -0.19809670746326447, -0.42666739225387573, 0.7491841316223145, -0.06930031627416611, -0.5046231150627136, 0.27731531858444214, -0.05376585200428963, 0.09129153192043304, 0.46807152032852173], [0.0931154265999794, -0.019864849746227264, -0.16132929921150208, 0.3776901066303253, 0.19075845181941986, 0.020737215876579285, -0.10992506146430969, -0.1312907338142395, -0.3772500455379486, -0.16184376180171967, -0.4758858382701874, -0.048998989164829254, -0.23922322690486908, 0.44718167185783386, 0.4260892868041992, 0.1244354099035263, 0.04817778989672661, -0.10741841048002243, -0.05693305283784866, 0.40674200654029846, -0.39093416929244995, -0.14771965146064758, 0.13428030908107758, 0.49201005697250366, 0.5524306893348694, -0.21967297792434692, -0.3840441107749939, -0.3076569736003876, -0.14681769907474518, 0.28989070653915405, 0.2545643448829651, -0.30982425808906555], [0.12004391849040985, -0.3812529742717743, -0.5452948212623596, 0.16669517755508423, 0.14328885078430176, 0.19729173183441162, -0.26696068048477173, -0.5864892601966858, 0.0546557791531086, -0.4047471880912781, 0.04753290116786957, -0.04507780075073242, 0.012288353405892849, -0.16996145248413086, 0.16755832731723785, 0.3024311661720276, 0.05914492532610893, 0.6856491565704346, -0.17182111740112305, 0.1946580410003662, -0.36292287707328796, -0.43406862020492554, -0.06126604974269867, 0.13385726511478424, 0.698448121547699, 0.08258336037397385, -0.13252903521060944, 0.39193981885910034, 0.18673144280910492, 0.6204200983047485, -0.45620155334472656, -0.13199473917484283], [-0.8808752298355103, 0.3600146174430847, -0.5673075914382935, 0.1284620612859726, 0.1304694265127182, -0.1396869570016861, -0.37589552998542786, -0.27778735756874084, 0.18343161046504974, -0.32416924834251404, 0.0934515967965126, -0.8979241251945496, 0.4013860821723938, 0.6233020424842834, 0.4540224075317383, 0.028726940974593163, 0.24916473031044006, 0.16648484766483307, -0.19660456478595734, -0.10035420954227448, -0.3744548559188843, -0.3617323935031891, 0.010763202793896198, 0.4800650477409363, 0.29592111706733704, 0.32483670115470886, 0.205555722117424, 0.04335952177643776, 0.0300909411162138, -0.10104025155305862, -0.1370842605829239, 0.31047728657722473], [0.0041715712286531925, -0.05432171747088432, -0.2782551646232605, -0.14634814858436584, 0.22327858209609985, -0.004427980165928602, 0.11685779690742493, -0.03092675842344761, 0.4374372065067291, -0.20862649381160736, -0.09477708488702774, 0.42313653230667114, 0.03626513108611107, -0.2616564929485321, 0.08002829551696777, -0.5493854880332947, -0.32378023862838745, -0.4187631905078888, -0.30725136399269104, -0.26833078265190125, 0.4087755084037781, 0.3523915708065033, -0.3008056879043579, 0.4798107147216797, 0.3505059480667114, -0.5460721254348755, 0.1334080845117569, 0.28237384557724, 0.27926602959632874, 0.07903314381837845, -0.10986993461847305, 0.2845209538936615], [0.2765638530254364, -0.6797184348106384, -0.530846118927002, -0.18986482918262482, -0.1277284026145935, 0.21575085818767548, -0.43348705768585205, 0.4429595172405243, -0.14235351979732513, -0.6633759140968323, -0.34694045782089233, 0.6544226408004761, 0.2756851613521576, 0.5518043041229248, 0.2077340930700302, 0.491839736700058, -0.20475897192955017, -0.2045048028230667, 0.5534372329711914, 0.013497108593583107, -0.09848664700984955, -0.17603084444999695, 0.07845090329647064, 0.6159998774528503, -0.47920405864715576, 0.26232028007507324, -0.044558797031641006, 0.26796165108680725, -0.06193132326006889, 0.40411514043807983, -0.04836792126297951, -0.05823381245136261], [0.5304876565933228, 0.19811131060123444, -0.42822691798210144, 0.47781991958618164, -0.20255807042121887, 0.14604757726192474, 0.5115414261817932, 0.30794477462768555, -0.03711635619401932, -0.3454720377922058, 0.25021934509277344, -0.0222496148198843, -0.39294108748435974, -0.3504523038864136, -0.36551958322525024, -0.5202445387840271, -0.034062109887599945, -0.2610812783241272, 0.28001946210861206, 0.3224771320819855, 0.3294820785522461, -0.03407195955514908, -0.2597218453884125, 0.31298843026161194, -0.5270527601242065, -0.17834870517253876, 0.4064852297306061, 0.019041959196329117, -0.2520856261253357, 0.3563721477985382, -0.0001473801676183939, -0.32106813788414], [-0.03864610940217972, -0.9000990390777588, -0.06534641981124878, -0.9542607069015503, -0.11107805371284485, 0.15769413113594055, 0.3457603454589844, 0.3700171113014221, 0.084615558385849, -0.0010804279008880258, -0.24983713030815125, 0.5537881255149841, 0.5092570781707764, 0.31528440117836, -0.07920043170452118, -0.2790338099002838, -0.4364224672317505, -0.245194211602211, -0.4055137634277344, -0.11297713220119476, 0.3732433021068573, 0.41118118166923523, 0.29361945390701294, 0.19466440379619598, 0.025366628542542458, -0.2382066696882248, 0.5425297021865845, -0.2854597270488739, -0.05094144120812416, -0.027067940682172775, 0.364775151014328, 0.008455405943095684], [-0.7032674551010132, 0.7324022650718689, 0.018419936299324036, 0.65587317943573, 0.1409483551979065, -0.41147083044052124, -0.2317170649766922, -0.2889103293418884, -0.04667636752128601, 0.04512806609272957, 0.4270789623260498, -0.7983762621879578, -0.2756938636302948, -0.4190371334552765, 0.001348791061900556, 0.23632068932056427, -0.765075147151947, 0.06069442257285118, 0.6844741106033325, -0.28893885016441345, -0.30016618967056274, 0.866283655166626, -0.4643726050853729, -0.509867787361145, -0.2021876573562622, 0.0452212356030941, -0.008026334457099438, 0.6526597142219543, -0.17071188986301422, -0.13651862740516663, 0.20650386810302734, 0.022303691133856773], [-0.15672306716442108, -0.062475983053445816, -0.033869948238134384, 0.15532700717449188, 0.3139186203479767, -0.199186310172081, -0.08161501586437225, -0.3044753968715668, -0.22133097052574158, -0.4546049237251282, 0.4555491805076599, 0.19293402135372162, 0.08386793732643127, -0.3392903208732605, 0.15132027864456177, 0.12198008596897125, -0.18585896492004395, 0.5190953612327576, 0.2213122695684433, -0.24016058444976807, -0.1103677749633789, 0.12474319338798523, 0.02489389292895794, 0.2666747272014618, 0.022904841229319572, 0.40850117802619934, -0.15846538543701172, 0.02152111381292343, -0.03340062499046326, 0.05101437866687775, -0.28390026092529297, -0.19150784611701965], [-0.21761949360370636, 0.2851695120334625, -0.3562142550945282, 0.1488475501537323, -0.05862914398312569, -0.20876909792423248, -0.053333885967731476, 0.3710077404975891, 0.20243550837039948, -0.11203291267156601, 0.2527625262737274, 0.21280795335769653, 0.11959963291883469, -0.3007795512676239, -0.14988559484481812, 0.429417222738266, -0.19685396552085876, 0.769579291343689, 0.13682903349399567, -0.8427619934082031, -0.2336876094341278, 0.1284201592206955, 0.030229609459638596, -0.30360135436058044, -0.45632562041282654, -0.20356588065624237, 0.1460408866405487, 0.14256851375102997, -0.4765740931034088, -0.18046525120735168, -0.06405936181545258, 0.39871907234191895], [0.030643310397863388, 0.05087289586663246, 0.016399389132857323, 0.7113621234893799, 0.4480155110359192, -0.07409494370222092, -0.009231404401361942, 0.17855042219161987, -0.11089629679918289, 0.0374726802110672, -0.47362083196640015, -0.07828041166067123, -0.23498566448688507, -0.3307035565376282, -0.3250063359737396, 0.06436275690793991, -0.510359525680542, 0.3906790018081665, -0.04865191504359245, 0.15737780928611755, 0.2154114544391632, -0.13822244107723236, -0.24824479222297668, -0.16521401703357697, 0.5365647077560425, 0.11649743467569351, -0.23511236906051636, 0.031158914789557457, 0.42180323600769043, -0.11547885835170746, 0.07900112122297287, -0.0968829020857811], [-0.13731534779071808, -0.8077387809753418, 0.1399633139371872, 0.30346399545669556, 0.47341498732566833, -0.07105391472578049, -0.13309159874916077, -0.012289644218981266, 0.08958091586828232, 0.4134594798088074, -0.3860660493373871, 0.3567556142807007, -0.4565230906009674, 0.3557746410369873, -0.27932167053222656, -0.050794292241334915, -0.5261116623878479, -0.26001185178756714, -0.34576424956321716, 0.14779382944107056, 0.44429367780685425, 0.49156653881073, 0.5584392547607422, -0.45477041602134705, -0.043737828731536865, -0.3476250171661377, -0.02941322699189186, -0.18345294892787933, 0.260497123003006, 0.1089014858007431, 0.5284584164619446, -0.35053151845932007], [0.07062564045190811, 0.39312800765037537, 0.2149164229631424, 0.1849381923675537, 0.016630157828330994, -0.5148635506629944, 0.30348536372184753, -0.49463486671447754, -0.055172499269247055, 0.30272069573402405, 0.2585534453392029, 0.009687883779406548, 0.11441255360841751, -0.4421258568763733, 0.10521500557661057, 0.29685303568840027, 0.09872891753911972, 0.035148341208696365, 0.23674240708351135, -0.6002285480499268, -0.3160555064678192, -0.7070819735527039, 0.023787742480635643, 0.23091229796409607, 0.05883471667766571, -0.3717622458934784, 0.14504650235176086, -0.2604573369026184, 0.7505612373352051, -0.46888643503189087, -0.13906243443489075, 0.5593291521072388], [-0.14939896762371063, 0.5275174379348755, 0.26523879170417786, 0.5398308038711548, -0.4105856120586395, -0.3084104359149933, -0.07418986409902573, 0.18769729137420654, -0.6538292765617371, 0.05014825239777565, -0.11954852938652039, -0.1707584708929062, -0.234749898314476, 0.4290544390678406, 0.22668342292308807, 0.052513279020786285, -0.31939181685447693, -0.23196424543857574, 0.22154177725315094, 0.2972928583621979, -0.23745042085647583, -0.22977305948734283, 0.45013442635536194, 0.2773776650428772, 0.12728188931941986, -0.13732482492923737, -0.2335154265165329, -0.3240154981613159, 0.036119069904088974, -0.008806683123111725, 0.24948254227638245, -0.09532615542411804], [0.20336544513702393, 0.6755462884902954, 0.1645462065935135, -0.33285120129585266, -0.24327099323272705, 0.03031771443784237, 0.8763394355773926, -0.18191327154636383, 0.3886090815067291, 0.4161672294139862, -0.3148452341556549, -0.32148492336273193, 0.1313045620918274, -0.06832769513130188, -0.012186430394649506, -0.09448426961898804, 0.5249618887901306, -0.29089000821113586, -0.3593825697898865, -0.48790907859802246, 0.0053020622581243515, 0.04463377594947815, -0.16030465066432953, 0.19320012629032135, 0.034417394548654556, -0.25291410088539124, 0.027210524305701256, 0.2911902964115143, -0.26412302255630493, -0.4747534692287445, -0.5263993740081787, 0.9892165064811707]], "att.W_query.bias": null, "att.W_key.weight": [[-0.08210586756467819, 0.5456158518791199, 0.4172351062297821, 0.24072015285491943, 0.23632481694221497, -0.23819714784622192, -0.17511770129203796, 0.24863789975643158, -0.15830929577350616, 0.5368427038192749, -0.07065043598413467, 0.18486027419567108, 0.238345205783844, -0.6888850927352905, 0.0020735259167850018, -0.36332759261131287, 0.07696939259767532, -0.21978799998760223, 0.3026626408100128, 0.08790574967861176, -0.041494742035865784, -0.2758037745952606, 0.07364920526742935, 0.25990745425224304, -0.0658753290772438, -0.6985338926315308, -0.01635908894240856, -0.34052300453186035, -0.7816171646118164, 0.16455665230751038, 0.11984337866306305, -0.14684709906578064], [0.1721038520336151, 0.7088839411735535, 0.19442616403102875, 0.027851305902004242, -0.31889769434928894, -0.4277995526790619, -0.1922030746936798, -0.46227508783340454, 0.23907044529914856, 0.18643078207969666, -0.52198326587677, -0.11277712881565094, -0.39066970348358154, 0.35767844319343567, -0.30477750301361084, -0.031286902725696564, 0.1650926172733307, -0.1319005787372589, -0.25586527585983276, -0.26066070795059204, 0.5365790128707886, 0.1930207461118698, -0.4373760521411896, -0.7000737190246582, 0.4151618778705597, -0.012520987540483475, 0.24453648924827576, 0.427264928817749, -0.3510827422142029, 0.6487517356872559, -0.07577718049287796, -0.13923189043998718], [0.18936865031719208, 0.604474663734436, -0.4678357243537903, -0.32776644825935364, -1.2754900455474854, 0.453135222196579, 0.19484402239322662, -0.14890669286251068, 0.17445723712444305, -0.27135276794433594, -0.3431560695171356, 0.02591610513627529, 0.014393503777682781, 0.1736251264810562, -0.062477514147758484, -0.3754059374332428, -0.20100992918014526, -0.37793320417404175, 0.20018994808197021, -0.5112873911857605, 0.24229100346565247, 0.41370952129364014, -0.048689763993024826, -0.3752843737602234, -0.1780400276184082, 0.3252078890800476, 0.3108990788459778, 0.17580647766590118, 0.09359541535377502, 0.31466880440711975, -0.20459218323230743, 0.15450884401798248], [-0.8017502427101135, 0.19199365377426147, -0.43300148844718933, 0.21173545718193054, -0.03519461676478386, 0.29284051060676575, 0.6795051097869873, -0.014678661711513996, -0.5802510380744934, 0.1821763515472412, -0.42730435729026794, -0.13784591853618622, 0.08568937331438065, -0.022892901673913002, 0.3206144869327545, 0.06548099964857101, -0.19402427971363068, -0.28138384222984314, -0.4892164170742035, 0.18916049599647522, 0.42455318570137024, 0.3230494558811188, 0.5001169443130493, 0.48321855068206787, -0.01826692931354046, -0.16987329721450806, -0.13541968166828156, -0.1552150845527649, 0.11793873459100723, 0.45683538913726807, -0.6721905469894409, 0.1865123212337494], [0.23074983060359955, 0.09477373212575912, -0.45708221197128296, -0.03738809749484062, -0.009708697907626629, 0.19362831115722656, -0.037608787417411804, -0.06309483200311661, 0.20484411716461182, 0.15779055655002594, 0.18431873619556427, 0.07917288690805435, -0.34467440843582153, -0.066632941365242, 0.28781405091285706, 0.10084463655948639, 0.1730521321296692, 0.008444131352007389, -0.04889291897416115, 0.30450859665870667, 0.2526163160800934, 0.10040485858917236, -0.5780265927314758, -0.35394614934921265, -0.4001404643058777, 0.010289075784385204, -0.23170244693756104, 0.29846063256263733, -0.2715660333633423, -0.324897825717926, 0.03404184803366661, -0.04368165135383606], [0.3667900860309601, -0.10926942527294159, 0.26134034991264343, 0.3831717073917389, -0.09179619699716568, 0.22710540890693665, 0.198832169175148, -0.29878658056259155, -0.16569937765598297, -0.05614299327135086, 0.1350623369216919, -0.29029202461242676, -0.216705784201622, -0.14526699483394623, -0.2495739609003067, -0.11425085365772247, -0.13180449604988098, -0.032436516135931015, -0.46864673495292664, 0.34149840474128723, 0.3752806782722473, 0.2531944513320923, 0.19547630846500397, -0.33480262756347656, -0.19908320903778076, -0.05004865303635597, -0.08293678611516953, -0.21606037020683289, 0.32993555068969727, 0.06933054327964783, 0.2161678820848465, 0.0567774772644043], [-0.23991023004055023, 0.13646195828914642, -0.1380116492509842, -0.14809595048427582, 0.19546645879745483, -0.8097741603851318, -0.36281830072402954, 0.1349979192018509, -0.0555688738822937, 0.05702716112136841, 0.006952094845473766, -0.2930620312690735, 0.028749866411089897, 0.10501064360141754, 0.07194431871175766, -0.26084840297698975, 0.4592509865760803, -0.1721137911081314, 0.5134270787239075, -0.4778703451156616, -0.25448736548423767, 0.34595656394958496, -0.23749589920043945, -0.18451106548309326, -0.11968427151441574, -0.15612977743148804, -0.45697304606437683, 0.25244343280792236, -0.4847526550292969, 0.5470957159996033, 0.7382697463035583, 0.08351757377386093], [-0.6950744390487671, 0.06741463392972946, -0.5872036218643188, -0.33033549785614014, 0.020571865141391754, 0.19471678137779236, -0.4332166016101837, 0.284475177526474, 0.5819882750511169, 0.4518941342830658, -0.042863912880420685, 0.40758848190307617, 0.16232141852378845, -0.11218847334384918, 0.3029140532016754, 0.3908941149711609, -0.048786550760269165, 0.005660420283675194, 0.24692106246948242, -0.34252938628196716, -0.00669087702408433, -0.21542982757091522, -0.2927221357822418, -0.19314685463905334, -0.18653376400470734, 0.3951876759529114, 0.1613808572292328, -0.2585190534591675, -0.04791593924164772, -0.1810474991798401, 0.08071596920490265, 0.0491279698908329], [0.1271732598543167, 0.16132819652557373, 0.46321824193000793, -0.42577120661735535, -0.10596319288015366, 0.2152714878320694, 0.26433390378952026, -0.07019970566034317, 0.5911948084831238, 0.5935391187667847, 0.12808112800121307, 0.2135593295097351, 0.003804396139457822, 0.06576752662658691, -0.6565237641334534, -0.13193635642528534, -0.563627302646637, -0.27823585271835327, -0.47370684146881104, -0.008480220101773739, -0.5545445680618286, -0.4320925176143646, 0.0037978440523147583, -0.20704740285873413, 0.2467920035123825, 0.5527463555335999, 0.8524419665336609, -0.2093617022037506, 0.22434258460998535, 0.041693203151226044, -0.00646352581679821, -0.0015448054764419794], [-0.25231030583381653, -0.15514808893203735, 0.005900669377297163, 0.005037760827690363, 0.06843927502632141, -0.1666819453239441, 0.11425307393074036, 0.4126822352409363, -0.5558323264122009, -0.27320396900177, 0.2451738864183426, 0.3636036515235901, 0.011307843029499054, 0.3786332607269287, 0.31968337297439575, 0.1705159842967987, -0.14501085877418518, -0.012108765542507172, 0.6359946131706238, -0.2139301598072052, -0.49655118584632874, 0.03857215493917465, 0.23139667510986328, 0.18324927985668182, -0.12860004603862762, 0.0888613909482956, -0.1350380927324295, -0.5825023055076599, 0.1732734888792038, -0.15803413093090057, 0.49443328380584717, -0.17269623279571533], [-0.12114136666059494, 0.19304196536540985, -0.28854089975357056, 0.1305476576089859, -0.21899224817752838, 0.00629353616386652, -0.3348013460636139, 0.3024497628211975, -0.41502687335014343, -0.2172231674194336, 0.12231143563985825, 0.25990867614746094, 0.059269145131111145, -0.08976881206035614, 0.1340416669845581, 0.1512443721294403, 0.22348196804523468, 0.02052571251988411, 0.0249306820333004, -0.19215571880340576, 0.4532068967819214, 0.12156828492879868, -0.3174739480018616, 0.7300930023193359, -0.8950352072715759, -0.8311903476715088, 0.05865583196282387, 0.011188742704689503, -0.39665672183036804, 0.4297744333744049, -0.31386908888816833, 0.2349497228860855], [0.3490862548351288, 0.12496321648359299, -0.074924536049366, 0.2237502783536911, 0.06059953570365906, 0.1924169808626175, -0.30588385462760925, -0.4091086685657501, 0.24358168244361877, -0.3722037374973297, -0.4312877357006073, -0.29546812176704407, -0.3397909700870514, -0.05318918824195862, -0.07847144454717636, -0.03655280917882919, -0.0009673105087131262, 0.4217642545700073, -0.8401843905448914, 0.9444562792778015, 0.6688255071640015, 1.0304226875305176, -0.12530337274074554, 0.47094544768333435, -0.39407098293304443, -0.25311779975891113, -0.12826795876026154, 0.4057595133781433, -0.09583190083503723, -0.020857667550444603, -0.48241695761680603, 0.2052265852689743], [-0.22647841274738312, 0.3299776315689087, 0.17680108547210693, 0.1382550597190857, 0.3618609607219696, -0.48738914728164673, 0.4175979197025299, -0.2946208119392395, -0.028767447918653488, 0.09002824872732162, 0.19836926460266113, 0.12538251280784607, 0.16621187329292297, -0.18814589083194733, -0.33371269702911377, 0.5983725786209106, 0.4833098351955414, -0.22834932804107666, -0.06154891476035118, 0.5204927325248718, 0.011788303963840008, -0.5129001140594482, -0.7070273756980896, 0.30297428369522095, -0.29566940665245056, -0.32871782779693604, -0.08563347160816193, 0.3849930465221405, -0.2027616649866104, -0.46083498001098633, -0.0050269840285182, 0.04563700407743454], [-0.09387078136205673, 0.49062466621398926, -0.07298889756202698, -0.41388964653015137, 0.047618966549634933, -0.7252960801124573, 0.251913845539093, -0.04429918900132179, -0.44418957829475403, -0.021545151248574257, 0.6914059519767761, -0.15957939624786377, -0.3608733117580414, -0.24261973798274994, 0.03199118375778198, 0.22030684351921082, 0.19394077360630035, -0.006244697142392397, 0.4791300594806671, 0.12044315785169601, -0.07773653417825699, -0.34937912225723267, -0.17929725348949432, 0.28779348731040955, 0.06110873445868492, -0.3898041844367981, 0.01987779513001442, 0.1402302086353302, -0.09659244120121002, -0.6281513571739197, 0.19563275575637817, -0.0864693745970726], [-0.06039075180888176, -0.06818113476037979, 0.2906804382801056, 0.192090705037117, 0.04751870781183243, -0.1427595019340515, 0.07583250850439072, -0.2631423771381378, 0.5623689889907837, 0.22642002999782562, -0.7819598913192749, 0.250299334526062, 0.5036271214485168, -0.06558647006750107, -0.07564414292573929, 0.09029374271631241, -0.6121370792388916, 0.12184011191129684, -0.2897627055644989, 0.1383792757987976, 0.2129708230495453, -0.11513159424066544, -0.36129069328308105, 0.041027382016181946, -0.050982069224119186, -0.31813156604766846, -0.006469475105404854, -0.08004501461982727, 0.10459882766008377, -0.3280971944332123, 0.2801360785961151, 0.1641618311405182], [-0.06572850793600082, 0.0022767367772758007, 0.469719260931015, 0.10106252133846283, 0.19651366770267487, -0.393071711063385, 0.1853138506412506, -0.24473917484283447, 0.3083145022392273, 0.1916932314634323, -0.27836039662361145, 0.37822073698043823, -0.14060400426387787, -0.11311474442481995, -0.4089180529117584, 0.5501461625099182, 0.016831345856189728, 0.08722183108329773, -0.2701486051082611, 0.23600998520851135, -0.10967548191547394, -0.18677745759487152, -0.4686638116836548, 0.07627366483211517, -0.12261924892663956, -0.4643440544605255, 0.02095934748649597, 0.16669084131717682, 0.16021567583084106, -0.13863225281238556, 0.5563705563545227, 0.10902678966522217], [-0.3632086515426636, -0.2097841501235962, -0.15319062769412994, 0.40756404399871826, -0.42986148595809937, -0.2321949154138565, 0.1994774043560028, -0.12550969421863556, -0.3967984914779663, -0.7435154914855957, -0.6700754165649414, -0.2113814502954483, 0.28481119871139526, 0.5369364619255066, 0.24008618295192719, 0.24042659997940063, 0.012790702283382416, 0.3359382748603821, -0.2050689309835434, 0.5384600162506104, 0.4960841238498688, 0.5567219257354736, 0.06564421951770782, 0.2932519316673279, -0.4131304621696472, -0.15342925488948822, 0.042040884494781494, -0.11666220426559448, -0.17992009222507477, 0.1481596678495407, -0.2673845589160919, 0.11524126678705215], [0.5588893890380859, 0.04156558960676193, -0.2318378984928131, -0.14836160838603973, -0.2550070583820343, -0.18342293798923492, 0.021385740488767624, 0.38229379057884216, 0.3860040307044983, 0.8380996584892273, -0.6121681332588196, -0.14821216464042664, -0.2662663757801056, -0.28339874744415283, -0.09994371980428696, 0.029182670637965202, -0.21731670200824738, 0.09843192994594574, -0.0699925348162651, 0.22290943562984467, 0.06409118324518204, -0.5291526913642883, 0.007733473088592291, -0.5170782804489136, -0.21826066076755524, -0.0667039006948471, -0.02041432447731495, 0.18209198117256165, 0.12139836698770523, -0.06855178624391556, 0.315292626619339, -0.04515090957283974], [0.36749663949012756, 0.13109205663204193, 0.2334415763616562, -0.07526525110006332, 0.26429733633995056, 0.01967722177505493, -0.1021566167473793, 0.20362165570259094, -0.25374019145965576, 0.9946445822715759, 0.479623407125473, 0.014470402151346207, -0.02967117726802826, -0.28541162610054016, 0.03643101453781128, -0.36093929409980774, -0.07202397286891937, -0.6518177390098572, 0.02076641656458378, 0.03646431118249893, 0.09128744900226593, 0.12293736636638641, -0.3302357792854309, -0.4643312990665436, -0.27128177881240845, -0.1490892767906189, -0.18797867000102997, 0.6152122616767883, 0.011932778172194958, -0.6246625781059265, 0.1877458244562149, -0.6375486254692078], [-0.22462067008018494, -0.0003953325212933123, -0.3771783709526062, -0.04114920645952225, -0.027090130373835564, -0.3037649393081665, 0.4015968143939972, -0.20626100897789001, 0.14270982146263123, 0.8215242624282837, -0.705527663230896, -0.3459621071815491, -0.27191001176834106, 0.6014291048049927, 0.2501427233219147, 0.20046773552894592, -0.5003653168678284, -1.014967679977417, -0.1359364092350006, -0.16038408875465393, 0.42005065083503723, 0.42995685338974, 0.12010179460048676, 0.19268521666526794, -0.1923021674156189, 0.06345973908901215, 0.19121256470680237, 0.37002110481262207, -0.14837533235549927, -0.6537784337997437, 0.2161979377269745, 0.23187792301177979], [0.10813888162374496, 0.15984149277210236, 0.13562068343162537, -0.09427716583013535, 0.4299693703651428, 0.3882491886615753, -0.21256975829601288, 0.1612832248210907, 0.5039874315261841, 0.07524163275957108, -0.4412403106689453, 0.29322153329849243, 0.2735251784324646, 0.03751644864678383, -0.37961578369140625, 0.20213524997234344, 0.041713375598192215, 0.3740001320838928, 0.21915334463119507, -0.029862448573112488, -0.3887057900428772, -0.17098112404346466, -0.08335211127996445, 0.012393736280500889, -0.18183721601963043, 0.03961857408285141, -0.15375995635986328, -0.15256214141845703, -0.11966405063867569, -0.607990026473999, 0.13255824148654938, -0.37371957302093506], [0.10749289393424988, -0.2469378411769867, -0.2629674971103668, 0.31930312514305115, 0.43464866280555725, 0.045365847647190094, 0.13778384029865265, -0.16524037718772888, -0.4568463861942291, 0.3444076478481293, -0.07432690262794495, -0.12835077941417694, 0.683003842830658, 1.2255581617355347, 0.1714060753583908, 0.009761064313352108, 0.02814614586532116, 0.05579836666584015, -0.3009907901287079, -0.5534032583236694, -1.0052011013031006, -0.42124301195144653, -0.12887316942214966, 0.17831020057201385, 0.11285263299942017, -0.0028836329001933336, 0.13367345929145813, -0.4586455523967743, 0.000492047518491745, 0.24059006571769714, -0.29651033878326416, 0.14142857491970062], [0.09515996277332306, -0.01594587229192257, -0.4623119533061981, -0.5270771980285645, -0.10269086062908173, 0.39158791303634644, 0.006024160422384739, 0.12211232632398605, 0.3958117365837097, 0.0014754896983504295, 0.08359161019325256, -0.025933904573321342, 0.07407388091087341, 0.7351353764533997, 0.13384558260440826, -0.042117826640605927, -0.3524615168571472, 0.3546069860458374, -0.1808343231678009, -0.27529671788215637, 0.19469037652015686, -0.008611384779214859, 0.2624284625053406, -0.6391324996948242, -0.0510280467569828, 0.6759307980537415, 0.15853144228458405, -0.17435622215270996, -0.17600688338279724, 0.0807804986834526, -0.08437224477529526, -0.20081911981105804], [0.4771527945995331, 0.4388069212436676, 0.10217545181512833, 0.050504352897405624, 0.4486449658870697, 0.015176089480519295, -0.2769158184528351, -0.5771370530128479, 0.32441648840904236, -0.016072828322649002, 0.2729368507862091, -0.13849490880966187, 0.2030438631772995, 0.15048831701278687, -0.38891059160232544, 0.5316134691238403, 0.49871256947517395, 0.6697782278060913, -0.49234628677368164, -0.1518937647342682, -0.5949692726135254, -0.4657417833805084, -0.6227753758430481, 0.3467611074447632, 0.43618279695510864, 0.11278700083494186, -0.18521414697170258, 0.36546608805656433, -0.2797996699810028, -0.6881831288337708, -0.45173171162605286, 0.3718217611312866], [0.07645260542631149, -0.11499153822660446, 0.576926052570343, 0.23644419014453888, 0.49479398131370544, -0.7639442086219788, 0.35155540704727173, -0.33682864904403687, 0.07503827661275864, 0.42088592052459717, -0.1475764513015747, 0.6183393001556396, 0.07652972638607025, -0.49508851766586304, -0.6496167182922363, -0.25957053899765015, 0.13832321763038635, -0.07477480918169022, -0.1956048607826233, 0.9098447561264038, -0.5315842032432556, 0.006373858544975519, -0.44491463899612427, -0.1339477151632309, -0.23205424845218658, -0.3851294219493866, -0.281221866607666, -0.11048463732004166, 0.533625066280365, -0.0437573678791523, 0.38755306601524353, -0.025368956848978996], [-0.2653748691082001, -0.2842015326023102, 0.22231058776378632, 0.06424114853143692, -0.05815136805176735, -0.4137279987335205, 0.023217670619487762, 0.008866029791533947, 0.10832680016756058, -0.309858500957489, -0.25443264842033386, 0.5373461246490479, 0.11222004890441895, 0.14177003502845764, 0.2276153713464737, 0.4560403525829315, 0.030227866023778915, -0.006054019555449486, -0.3610554039478302, 0.35428422689437866, -0.2839738428592682, 0.12353053689002991, 0.02469276636838913, 0.09855997562408447, 0.09993216395378113, 0.0398668572306633, 0.25401243567466736, -0.48011648654937744, -0.19595226645469666, 0.022852156311273575, 0.1364813596010208, -0.2561311721801758], [0.14299744367599487, -0.6256476044654846, 0.06361144036054611, 0.5543894171714783, 0.06546890735626221, 0.13221119344234467, -0.13961495459079742, -0.47481468319892883, 0.4059658944606781, -0.2279670685529709, 0.19147233664989471, 0.278376966714859, 0.1337624043226242, 0.36311760544776917, 0.1732420027256012, -0.4767818748950958, -0.003985893446952105, -0.10734745115041733, -0.262746125459671, 0.25837090611457825, -0.4742361903190613, -0.20837657153606415, -0.26656386256217957, 0.0597899965941906, -0.28691715002059937, 0.025571489706635475, 0.5536627173423767, -0.597449541091919, 0.2491799294948578, 0.12859928607940674, 0.14817728102207184, 0.3916577994823456], [0.6606341600418091, 0.0032518277876079082, -0.025617387145757675, -0.09652875363826752, 0.04635995998978615, -0.18237225711345673, 0.3114829361438751, -0.16837050020694733, -0.6640419960021973, -0.31199997663497925, 0.21115103363990784, -0.038728125393390656, -0.16499294340610504, 0.4211394786834717, 0.2249373346567154, -0.46784573793411255, -0.2295214682817459, -0.2872929871082306, -0.19665713608264923, -0.15583139657974243, -0.0435386598110199, 0.33720648288726807, 0.4797087609767914, 0.2788233458995819, 0.05892394855618477, -0.06198785454034805, -0.06932463496923447, 0.0017478936351835728, 0.059168774634599686, -0.1110115647315979, -0.14378036558628082, 0.47150665521621704], [0.2186693400144577, -0.032826654613018036, -0.9073997735977173, -0.2179713398218155, 0.12190347164869308, -0.08771058917045593, -0.573797345161438, -0.8824284672737122, 0.31579336524009705, 0.37156781554222107, 0.1696421355009079, 0.200076624751091, 0.22267760336399078, 0.4200221598148346, 0.1454308032989502, -0.5970776677131653, 0.5991487503051758, 0.05864699184894562, 0.7882832884788513, -0.09438330680131912, -0.3446369469165802, 0.23321440815925598, -0.9127926826477051, 0.4849196672439575, 0.28201723098754883, -0.11295177042484283, 0.0879502147436142, -0.07828247547149658, 0.1386266052722931, 0.061224378645420074, -0.02394796535372734, -0.10737325996160507], [0.14349645376205444, 0.5248201489448547, 0.3621998429298401, 0.05443360656499863, -0.5130720734596252, 0.19489173591136932, 0.5268025994300842, 0.09967463463544846, 0.22981181740760803, 0.17528222501277924, 0.21419143676757812, 0.08968192338943481, 0.1145494356751442, -0.061385635286569595, -0.24530242383480072, 0.38607165217399597, -0.38465768098831177, -0.048576582223176956, -0.2641414701938629, 0.16446970403194427, 0.20972736179828644, 0.08456733822822571, -0.1491861641407013, -0.9062730669975281, 0.003132707206532359, -0.5326470136642456, 0.560050368309021, -0.15393520891666412, -0.15883071720600128, -0.03035840578377247, 0.37023383378982544, -0.2809441089630127], [-0.25088390707969666, 0.00983508676290512, -0.04568767547607422, 0.0867278203368187, -0.039827410131692886, 0.014292539097368717, -0.10492348670959473, -0.37143030762672424, 0.062406349927186966, 0.13862362504005432, -0.25322461128234863, 0.6840335726737976, 0.5995378494262695, 0.10579843074083328, -0.9699515104293823, -0.19332058727741241, -0.17706865072250366, 0.19142332673072815, 0.4204334020614624, -0.3898653984069824, 0.007007345091551542, 0.5572952628135681, -0.2504771947860718, -0.4438683092594147, 0.261030375957489, 0.5325073599815369, -0.24996930360794067, -0.16757744550704956, -0.06477203220129013, 0.14853928983211517, 0.5358691215515137, 0.0025079543702304363], [0.14667494595050812, 0.12042563408613205, 0.4665338397026062, 0.10639120638370514, -0.47184887528419495, 0.4885251820087433, 0.5230538845062256, 0.28042349219322205, -0.05341445654630661, 0.09561683237552643, -0.4699484705924988, 0.2924951910972595, 0.08449694514274597, -0.06390746682882309, -0.39826738834381104, 0.37290555238723755, -0.3653474450111389, 0.08433210849761963, -0.1662168800830841, 0.4413551092147827, -0.5018589496612549, -0.5046766400337219, 0.8681049346923828, -0.2874428331851959, 0.04391509294509888, -0.6906223893165588, 0.11537426710128784, -0.3757016062736511, 0.6248968839645386, 0.05109748989343643, -0.10225383937358856, -0.16194866597652435]], "att.W_key.bias": null, "att.W_value.weight": [[0.22187888622283936, 0.10129793733358383, 0.07102163881063461, -0.3146866261959076, 0.14291967451572418, -0.14198514819145203, 0.3982110023498535, -0.10253392159938812, -0.12109749764204025, 0.10891547054052353, 0.10738317668437958, -0.046576909720897675, -0.2553458511829376, 0.09109511971473694, 0.2350260466337204, -0.11230333149433136, 0.5935280323028564, -0.30046454071998596, -0.23528070747852325, -0.07341848313808441, 0.08263956010341644, 0.2079891413450241, -0.1997656673192978, -0.4501907229423523, 0.12104262411594391, 0.2573143541812897, -0.5243305563926697, -0.06648591160774231, -0.17962421476840973, -0.26688969135284424, -0.20805226266384125, 0.4215138554573059], [0.12024854868650436, 0.0023580847773700953, 0.07741605490446091, 0.21164436638355255, -0.1410941630601883, 0.26376762986183167, -0.04733003303408623, 0.2681761384010315, 0.027608975768089294, 0.13072840869426727, -0.20737822353839874, -0.26660609245300293, 0.008130224421620369, -0.0897877961397171, 0.07432779669761658, 0.14319773018360138, -0.08268246054649353, 0.008194366469979286, 0.6482198238372803, -0.11364949494600296, -0.20288068056106567, -0.23709534108638763, 0.15082813799381256, 0.30347439646720886, -0.3484562933444977, -0.17289122939109802, -0.30562838912010193, -0.05554728955030441, -0.14042946696281433, -0.09727923572063446, -0.0678030401468277, 0.3534888029098511], [-0.2502744197845459, 0.09797303378582001, 0.07386240363121033, -0.20468464493751526, -0.0700426697731018, 0.06042349338531494, 0.4850662350654602, 0.22728949785232544, 0.13178521394729614, 0.02500605583190918, -0.306763231754303, 0.07052528113126755, 0.033680740743875504, -0.13193859159946442, 0.05644518509507179, -0.3326250910758972, -0.07413971424102783, -0.0838293582201004, -0.2284643054008484, -0.15158696472644806, -0.5833948850631714, 0.04357007145881653, 0.2781941890716553, -0.10690070688724518, 0.26021626591682434, 0.24125619232654572, -0.12464559078216553, -0.009183899499475956, -0.19177672266960144, -0.2691277861595154, 0.33727216720581055, 0.3253612220287323], [-0.5884474515914917, 0.08997097611427307, 0.21574145555496216, -0.14807865023612976, 0.3550857901573181, -0.03238760307431221, 0.020587101578712463, 0.125052809715271, 0.11617005616426468, 0.03813805803656578, 0.028470123186707497, 0.12802977859973907, -0.28505977988243103, -0.09182348847389221, -0.0028192976024001837, -0.22138765454292297, -0.07288362085819244, -0.4044798016548157, -0.07713493704795837, -0.18866145610809326, -0.04458273574709892, -0.3309952914714813, 0.17416618764400482, -0.06097269803285599, 0.3862541615962982, 0.13928435742855072, 0.3447496294975281, 0.06678283959627151, -0.011608547531068325, -0.3049854636192322, 0.020107509568333626, 0.016757844015955925], [0.1075405552983284, -0.018963154405355453, 0.15096986293792725, -0.24398185312747955, 0.07568101584911346, -0.24446521699428558, 0.2441151738166809, -0.022560032084584236, 0.03006484918296337, -0.2511591911315918, 0.4373168647289276, 0.03158268705010414, -0.26205435395240784, 0.18904511630535126, -0.22944793105125427, -0.3650239408016205, 0.06658528745174408, 0.13900484144687653, 0.3823774755001068, -0.16688601672649384, -0.2979670464992523, -0.08597208559513092, 0.10917618870735168, -0.22617152333259583, 0.0898280143737793, -0.03775569051504135, 0.15924930572509766, 0.10980378091335297, -0.283568799495697, 0.37476587295532227, -0.14165426790714264, -0.021597273647785187], [0.05975011736154556, -0.030265068635344505, 0.0711338073015213, -0.33518290519714355, -0.283807635307312, 0.16451047360897064, 0.029428016394376755, -0.08004768937826157, 0.17510490119457245, 0.00736619159579277, 0.27312764525413513, -0.012064027599990368, 0.21547749638557434, 0.12572181224822998, 0.07068691402673721, 0.20141708850860596, 0.13165119290351868, -0.0505121573805809, 0.15387502312660217, -0.2063254415988922, 0.23493236303329468, -0.12678974866867065, -0.17476539313793182, -0.310523122549057, 0.24667683243751526, 0.04121285304427147, -0.251031756401062, 0.019478585571050644, -0.18412087857723236, -0.06347254663705826, 0.042193468660116196, 0.12272276729345322], [-0.30173784494400024, -0.13028362393379211, 0.2027370184659958, 0.10370433330535889, -0.15501612424850464, -0.03650456666946411, 0.3639974594116211, 0.09578733891248703, -0.38012489676475525, 0.13874851167201996, 0.2942035496234894, 0.08695854991674423, 0.15507419407367706, 0.37871378660202026, -0.06437718868255615, -0.18352125585079193, 0.008617186918854713, 0.0163540318608284, 0.13166490197181702, 0.038456521928310394, 0.12018634378910065, -0.1376425325870514, 0.22597263753414154, -0.225447878241539, -0.0430554524064064, -0.14574268460273743, 0.07448301464319229, 0.18416191637516022, 0.027367858216166496, 0.13099032640457153, -0.23615029454231262, -0.0041978140361607075], [-0.05390379950404167, 0.026537491008639336, 0.029617806896567345, -0.054869942367076874, -0.1338818371295929, 0.0697106197476387, 0.2813175320625305, 0.29974865913391113, -0.21313726902008057, 0.2879272997379303, 0.32449090480804443, -0.030410224571824074, 0.07191918790340424, -0.12078719586133957, -0.005291346460580826, 0.28784769773483276, -0.1370704621076584, -0.17888054251670837, 0.23959852755069733, -0.15821737051010132, -0.13032567501068115, -0.15348276495933533, -0.11702121049165726, 0.12565119564533234, 0.20123149454593658, 0.08938663452863693, 0.08184491842985153, -0.08955157548189163, -0.21913130581378937, -0.1528664231300354, -0.11451654881238937, 0.03794943913817406], [0.09995003789663315, -0.056749749928712845, 0.1625824272632599, -0.20864728093147278, -0.09470663964748383, -0.09228885918855667, -0.036553673446178436, 0.1086200401186943, 0.11804869025945663, 0.10054398328065872, 0.3771459460258484, 0.0464242659509182, -0.059722740203142166, -0.18652714788913727, 0.062444381415843964, 0.16545122861862183, -0.32864078879356384, -0.17555449903011322, 0.2996431291103363, -0.0521988607943058, 0.4984813630580902, -0.2898835837841034, 0.4340120851993561, -0.1950293928384781, -0.07192109525203705, 0.08297734707593918, 0.029033420607447624, 0.1236548125743866, 0.05356627330183983, -0.11875412613153458, 0.13446050882339478, -0.1324552446603775], [-0.14655806124210358, -0.18923579156398773, -0.1530349999666214, 0.1578204184770584, -0.05222681909799576, 0.25307250022888184, 0.03207675367593765, 0.2864954471588135, -0.07366576045751572, -0.11937002837657928, 0.28252002596855164, 0.0832294374704361, -0.2542158365249634, -0.14445553719997406, 0.13169904053211212, -0.2752867639064789, 0.4722146987915039, -0.11979299038648605, -0.014081686735153198, -0.07750537246465683, 0.42307010293006897, 0.0353066623210907, 0.1661641150712967, -0.36644434928894043, -0.2260563224554062, -0.06613751500844955, -0.04290749505162239, 0.06910593062639236, -0.15193237364292145, -0.307901531457901, 0.5465500354766846, -0.10834190249443054], [-0.557264506816864, -0.07525454461574554, 0.18790306150913239, 0.2791409492492676, 0.4495599567890167, -0.226719468832016, -0.14100679755210876, -0.1918957680463791, -0.22880396246910095, -0.03907536342740059, 0.042982809245586395, -0.2249288260936737, 0.2104264348745346, 0.19517573714256287, 0.12487512826919556, -0.06309722363948822, -0.13262003660202026, 0.044251345098018646, 0.2671509087085724, -0.150553897023201, -0.01652340777218342, 0.11341414600610733, 0.054798953235149384, 0.17329829931259155, -0.539933443069458, -0.30393198132514954, -0.14517079293727875, 0.09389319270849228, -0.023352259770035744, -0.02854776754975319, 0.3251541256904602, -0.31145769357681274], [-0.08664246648550034, -0.21061880886554718, -0.2051410973072052, -0.22304236888885498, -0.17699524760246277, 0.28021931648254395, 0.08038996905088425, 0.0804993286728859, 0.38901716470718384, -0.2961748540401459, 0.030214911326766014, 0.14806783199310303, -0.06219210848212242, 0.3723240792751312, -0.026230497285723686, 0.2420380562543869, -0.3338490426540375, -0.22099213302135468, -0.3250683844089508, 0.17822693288326263, 0.21586617827415466, -0.1653396636247635, 0.26327186822891235, 0.16611450910568237, -0.027815120294690132, 0.4550011157989502, 0.34438061714172363, -0.063410684466362, 0.040244705975055695, 0.13038913905620575, -0.3118736147880554, -0.06194811686873436], [-0.2903278172016144, 0.3202010691165924, -0.016744250431656837, -0.08597217500209808, 0.09231896698474884, -0.5159344673156738, 0.35898828506469727, 0.007819987833499908, -0.08918995410203934, 0.14144925773143768, 0.14456921815872192, 0.1452605426311493, 0.0007171265315264463, -0.16728799045085907, -0.08678604662418365, -0.28337419033050537, 0.0894225686788559, -0.2322189062833786, 0.016932789236307144, 0.2407495677471161, -0.41985490918159485, 0.159077450633049, 0.06915131211280823, -0.11863701045513153, -0.17399892210960388, 0.2550758719444275, 0.13564416766166687, -0.006034964695572853, -0.23003482818603516, 0.1695900708436966, -0.3565611243247986, 0.08252277970314026], [0.2682933211326599, -0.12641578912734985, -0.03563171625137329, 0.1651405245065689, -0.26319119334220886, -0.20552346110343933, 0.17159777879714966, 0.033837419003248215, -0.4647458493709564, -0.15997934341430664, 0.07841504365205765, 0.2514781653881073, 0.195685014128685, 0.1094997376203537, -0.07316213846206665, -0.46573516726493835, -0.1349724680185318, 0.33463457226753235, 0.1828804761171341, 0.028357231989502907, 0.14585354924201965, 0.24578151106834412, -0.11162685602903366, -0.05008147284388542, -0.3844739496707916, 0.031812045723199844, -0.2415621429681778, -0.20539194345474243, 0.14965175092220306, -0.06660154461860657, -0.017857614904642105, 0.06874223053455353], [0.33164849877357483, -0.26158884167671204, -0.1897817999124527, -0.014266613870859146, 0.03153018280863762, 0.43856102228164673, -0.23421955108642578, 0.2685859799385071, 0.13183647394180298, -0.19294767081737518, -0.05654659867286682, 0.3085695505142212, 0.0833762064576149, -0.11247082054615021, 0.2870664596557617, -0.002718341536819935, -0.04850603640079498, 0.08044406026601791, 0.3512990176677704, -0.06419321149587631, 0.638641357421875, -0.33884885907173157, 0.11222104728221893, -0.4192916452884674, -0.027896465733647346, -0.022775035351514816, 0.0027071803342550993, -0.058465972542762756, -0.1566038578748703, 0.0233173631131649, -0.1695060282945633, 0.025263534858822823], [-0.025607798248529434, -0.21162837743759155, -0.07913310080766678, -0.03228569030761719, 0.16364166140556335, -0.26358872652053833, -0.14504072070121765, -0.1922747790813446, -0.3119960427284241, -0.09752306342124939, -0.10791708528995514, -0.3845514953136444, -0.1755630522966385, 0.029749257490038872, 0.02916426584124565, 0.05855324864387512, 0.040213968604803085, -0.06053797900676727, -0.1529565155506134, -0.18250583112239838, 0.00048652401892468333, 0.13358788192272186, 0.07798103243112564, 0.5403327941894531, -0.04162432253360748, 0.2568007707595825, 0.15719234943389893, 0.03538823500275612, 0.0978674441576004, 0.3297300934791565, -0.02937822788953781, 0.2490522265434265], [0.08807048946619034, 0.5112459659576416, -0.23339016735553741, -0.11909083276987076, -0.24197666347026825, 0.2444002777338028, 0.014079908840358257, 0.010719622485339642, -0.11642420291900635, -0.11099632829427719, 0.2485784888267517, -0.29127711057662964, -0.31048792600631714, 0.043990425765514374, 0.12763476371765137, 0.13361431658267975, 0.12731142342090607, 0.10636700689792633, -0.02559596672654152, -0.47937506437301636, 0.3083266317844391, 0.029615493491292, -0.1335759162902832, 0.018426962196826935, -0.18254373967647552, -0.12672121822834015, 0.2709566354751587, -0.033900342881679535, -0.5284421443939209, 0.17586450278759003, 0.12143350392580032, 0.21658572554588318], [-0.08682091534137726, 0.03749570623040199, 0.4898793697357178, 0.2001769095659256, 0.012455093674361706, -0.3278576135635376, -0.20513717830181122, -0.2756234109401703, -0.025715911760926247, 0.2352440506219864, -0.09512542933225632, 0.022480420768260956, 0.07187993824481964, -0.11351212859153748, -0.1237463727593422, -0.31832921504974365, 0.2555394470691681, -0.5127004384994507, -0.2465810477733612, 0.2313237339258194, -0.23408930003643036, -0.19191838800907135, 0.24171781539916992, 0.16640415787696838, -0.34023866057395935, 0.2533922493457794, -0.6814615726470947, 0.057099878787994385, 0.19191819429397583, -0.26630353927612305, 0.321158230304718, 0.2812986671924591], [0.054251570254564285, -0.2919282019138336, -0.44333386421203613, 0.5608605742454529, 0.24716803431510925, 0.32961031794548035, 0.17345906794071198, -0.14698940515518188, 0.16121543943881989, 0.16269761323928833, 0.18259082734584808, -0.14517442882061005, 0.20805774629116058, 0.3002457022666931, 0.09889249503612518, -0.22463218867778778, -0.14566278457641602, -0.26232948899269104, -0.23396803438663483, -0.1469888985157013, -0.4531722366809845, -0.06470129638910294, 0.01641729101538658, 0.054611098021268845, 0.6725441217422485, 0.025327565148472786, 0.056883301585912704, -0.16230688989162445, -0.24661129713058472, 0.0007457348983734846, -0.11680074781179428, 0.3955751359462738], [0.06488311290740967, -0.16812986135482788, 0.07270479202270508, 0.0005815495387651026, -0.47531384229660034, 0.42374688386917114, -0.10461227595806122, 0.06238988786935806, -0.07910510152578354, 0.07366206496953964, 0.07594384253025055, 0.03363347053527832, -0.014453697018325329, 0.1793564409017563, 0.0063170986250042915, 0.34951844811439514, -0.06622064113616943, -0.2299548089504242, -0.17837724089622498, -0.3464471399784088, -0.18107563257217407, 0.24246321618556976, 0.17437176406383514, -0.024346735328435898, 0.4380623698234558, 0.055253177881240845, -0.5268511772155762, -0.31870895624160767, 0.5332880020141602, 0.005422043614089489, -0.179810032248497, 0.3113176226615906], [-0.2620605230331421, 0.27507832646369934, 0.019901737570762634, 0.04434468597173691, 0.19494067132472992, -0.14655627310276031, 0.1192755326628685, -0.14026173949241638, -0.07150190323591232, 0.2623583674430847, -0.18012981116771698, -0.1585598587989807, -0.20715276896953583, -0.10944753885269165, 0.018743667751550674, -0.033188845962285995, -0.21963419020175934, -0.14068147540092468, -0.30189192295074463, -0.3347863554954529, 0.2615361213684082, 0.06884113699197769, 0.27040740847587585, -0.3058706820011139, -0.17964249849319458, 0.2516833245754242, 0.5121699571609497, -0.03477432206273079, 0.15307454764842987, -0.0693272203207016, 0.5416392683982849, 0.11589328199625015], [0.3054863512516022, -0.3474772572517395, -0.4455636739730835, 0.34815824031829834, 0.10854867100715637, -0.08849334716796875, -0.1038198471069336, -0.051930610090494156, 0.015340495854616165, 0.16793707013130188, -0.2526853680610657, -0.02377929911017418, -0.1413949429988861, -0.14106601476669312, -0.2178327739238739, 0.4667131304740906, -0.29580244421958923, -0.15827913582324982, -0.2511267364025116, 0.42818698287010193, 0.1259118765592575, 0.1777905821800232, 0.009003156796097755, 0.47728562355041504, -0.050931453704833984, -0.3162272572517395, -0.18235400319099426, 0.2293313443660736, -0.11995820701122284, 0.08147989213466644, -0.2666604816913605, 0.15983101725578308], [-0.4009004533290863, 0.0428914800286293, 0.09695834666490555, 0.08204757422208786, -0.05443158000707626, -0.08926671743392944, 0.06359215825796127, 0.21844136714935303, 0.22071513533592224, 0.06613277643918991, 0.02085970900952816, 0.14195778965950012, 0.2208588719367981, 0.299900621175766, -0.051984697580337524, 0.6694769263267517, -0.09508912265300751, 0.07712402939796448, 0.06590322405099869, -0.21386153995990753, 0.16032245755195618, -0.11614103615283966, 0.14725935459136963, -0.11205308884382248, -0.22883115708827972, 0.14221793413162231, -0.19527672231197357, -0.10590501874685287, -0.10859011113643646, -0.32430198788642883, -0.09778092056512833, -0.13105212152004242], [0.15371717512607574, 0.16816309094429016, 0.1923435777425766, -0.16099394857883453, 0.129375159740448, 0.157099187374115, 0.16954340040683746, 0.205457866191864, -0.04474906995892525, -0.033495739102363586, -0.20784766972064972, -0.3468420207500458, -0.1861768662929535, 0.3719666004180908, -0.1593632996082306, 0.2773756980895996, -0.4255621135234833, 0.0365721732378006, -0.037957414984703064, 0.2047240138053894, 0.17267583310604095, -0.1713181436061859, -0.1342020034790039, 0.24365435540676117, -0.5328280329704285, 0.24238558113574982, -0.6589701175689697, 0.019819367676973343, 0.08297265321016312, -0.020352566614747047, -0.014970225282013416, -0.08478833734989166], [0.009263060986995697, 0.19423353672027588, -0.04687042534351349, 0.3253835141658783, 0.17126095294952393, -0.15634185075759888, -0.12266496568918228, 0.10537585616111755, 0.21172083914279938, -0.15589149296283722, 0.16573776304721832, 0.3019220232963562, -0.12248130142688751, -0.049242209643125534, -0.15769176185131073, -0.30212166905403137, -0.013573968783020973, -0.1440497785806656, 0.0898498073220253, -0.03425652161240578, -0.07939226925373077, -0.01972932368516922, -0.05973296985030174, -0.13808073103427887, 0.07796386629343033, 0.02726498804986477, 0.1358828842639923, -0.15125763416290283, 0.17000065743923187, 0.13332322239875793, 0.021540137007832527, 0.1282075196504593], [0.12104737013578415, -0.06681125611066818, -0.25513777136802673, 0.09406214207410812, -0.1876666396856308, -0.20683689415454865, 0.05555746704339981, 0.4028952121734619, 0.6964825987815857, 0.08478746563196182, -0.16291110217571259, -0.24260497093200684, 0.11807237565517426, 0.10365501791238785, 0.0931144654750824, 0.0729030892252922, 0.138373464345932, 0.1842455416917801, 0.3107379972934723, -0.15636076033115387, 0.13700063526630402, -0.03548421338200569, -0.4144757091999054, -0.2580503225326538, 0.06300489604473114, 0.0411958210170269, -0.3596004247665405, -0.1573866307735443, -0.30040979385375977, 0.05697887763381004, 0.35584965348243713, -0.1073988676071167], [0.012810488231480122, 0.010685047134757042, -0.10599051415920258, 0.07047031074762344, -0.01045962329953909, 0.30060073733329773, -0.007602714467793703, 0.007055113557726145, 0.10766137391328812, 0.05676719546318054, -0.18045301735401154, -0.13958589732646942, -0.08280239254236221, 0.13516801595687866, -0.12291816622018814, 0.26118728518486023, -0.07342302054166794, -0.1791771948337555, 0.2575899064540863, -0.28709879517555237, -0.1328660100698471, 0.011105976998806, -0.4846304655075073, -0.11102505028247833, 0.29513993859291077, 0.12926392257213593, -0.5895578861236572, 0.31801149249076843, 0.19151461124420166, -0.15335609018802643, 0.12673090398311615, 0.06396732479333878], [-0.2687550187110901, -0.19654913246631622, 0.12266327440738678, 0.17401224374771118, -0.02922321856021881, 0.5133461952209473, -0.2900397777557373, -0.28635188937187195, 0.02402050979435444, 0.177873432636261, -0.06152736395597458, 0.06799115240573883, -0.2803069055080414, -0.19093750417232513, -0.0794324278831482, -0.2143642008304596, 0.3432413637638092, -0.1539805680513382, 0.2882692217826843, 0.387760728597641, 0.015550525858998299, -0.3929208815097809, -0.26621097326278687, 0.10172377526760101, 0.47626829147338867, -0.08288144320249557, 0.2287464290857315, -0.03375396132469177, 0.41916412115097046, 0.032505396753549576, -0.03686228394508362, -0.40162038803100586], [-0.11668175458908081, 0.17680732905864716, 0.17054705321788788, 0.1877320110797882, 0.20052208006381989, 0.443386435508728, 0.05254407227039337, -0.16783109307289124, 0.18429164588451385, -0.014177704229950905, 0.09491182118654251, -0.3240710198879242, -0.2975222170352936, -0.0741012841463089, -0.12340603768825531, -0.12330400198698044, -0.43077269196510315, 0.2238822877407074, -0.2883484661579132, 0.2647149860858917, -0.16633892059326172, 0.3870741128921509, -0.23000364005565643, 0.08687585592269897, -0.0774320513010025, -0.2402806431055069, 0.21072730422019958, -0.062315575778484344, -0.1743854284286499, 0.21366620063781738, -0.07959595322608948, 0.2180383950471878], [0.07102376967668533, 0.013067456893622875, 0.22002440690994263, 0.22101065516471863, 0.11015306413173676, 0.024916067719459534, 0.14864538609981537, 0.11151069402694702, -0.17319267988204956, 0.17976897954940796, -0.16293589770793915, -0.19031304121017456, 0.035248007625341415, -0.16221989691257477, 0.1013631597161293, 0.020610706880688667, 0.2363356053829193, -0.06437809020280838, -0.1794375777244568, 0.023699568584561348, 0.06616850942373276, -0.3794043958187103, -0.1338302046060562, 0.394718736410141, 0.1868150383234024, -0.0968131273984909, 0.28384795784950256, -0.2713129222393036, 0.22465842962265015, 0.048397306352853775, -0.30388882756233215, -0.24264006316661835], [-0.2387295365333557, 0.0530814491212368, 0.35950762033462524, -0.046447958797216415, 0.19301313161849976, -0.05535224825143814, 0.02580856718122959, -0.20086191594600677, -0.3486587405204773, -0.11001358181238174, -0.022147463634610176, 0.09040021896362305, 0.43233442306518555, -0.17537705600261688, -0.19383518397808075, 0.003792224684730172, -0.24697589874267578, -0.07436612248420715, -0.09268399327993393, -0.10671896487474442, 0.1380872279405594, 0.27575448155403137, 0.006871175020933151, 0.44022586941719055, 0.35199403762817383, 0.27708855271339417, -0.4406600296497345, 0.16243286430835724, 0.08951528370380402, -0.1070285513997078, 0.6482753157615662, -0.19770193099975586], [0.4068518579006195, 0.6082789301872253, -0.07936140894889832, -0.3148854076862335, -0.13464298844337463, -0.20045338571071625, -0.20578645169734955, 0.28648921847343445, -0.16355140507221222, -0.22749130427837372, -0.2363012582063675, 0.0866570919752121, -0.07966280728578568, 0.17101635038852692, -0.022444581612944603, -0.08294813334941864, 0.014928163029253483, 0.057707227766513824, 0.061820853501558304, -0.07950470596551895, -0.12439298629760742, 0.04897673428058624, -0.24327480792999268, 0.24264511466026306, -0.6123293042182922, -0.09243208169937134, 0.040757909417152405, 0.17669685184955597, 0.048603884875774384, 0.35754749178886414, -0.09098658710718155, 0.36911675333976746]], "att.W_value.bias": null, "att.out_proj.weight": [[-0.17710287868976593, 0.2656605541706085, -0.04259798303246498, -0.28609272837638855, 0.1591564267873764, 0.03182556480169296, -0.04754988104104996, -0.023981764912605286, -0.36092841625213623, -0.1171366423368454, 0.37902745604515076, -0.4637851417064667, 0.11114821583032608, -0.00840211845934391, 0.14040781557559967, -0.20651118457317352, -0.12467077374458313, 0.44807928800582886, -0.2539684772491455, -0.17582641541957855, -0.05089198425412178, 0.1050560474395752, 0.2568698823451996, 0.3677869737148285, 0.13407005369663239, 0.3900133967399597, 0.0697711855173111, -0.2221280336380005, 0.22117333114147186, 0.10917501896619797, -0.23431171476840973, 0.32596731185913086], [-0.34704145789146423, 0.12892253696918488, 0.14928124845027924, 0.28712978959083557, -0.08519690483808517, -0.08725195378065109, -0.41470998525619507, 0.11243753135204315, -0.050941407680511475, 0.2812099754810333, -0.029787352308630943, -0.04537450894713402, -0.4687967896461487, 0.15544432401657104, 0.055870816111564636, 0.0612434446811676, 0.3532184064388275, -0.5444356203079224, 0.08482959866523743, -0.013555524870753288, 0.07338248938322067, -0.010065254755318165, -0.21664860844612122, 0.0034342524595558643, 0.021928658708930016, -0.004789554048329592, 0.15522854030132294, 0.07762295007705688, 0.41426244378089905, -0.162161186337471, 0.1166319027543068, -0.05177802965044975], [0.25263598561286926, 0.05516790226101875, -0.31381693482398987, -0.26361724734306335, 0.029249317944049835, -0.13440728187561035, 0.22863785922527313, -0.08556896448135376, -0.09191626310348511, 0.32374107837677, 0.06588955223560333, 0.066185861825943, -0.30866533517837524, 0.24364668130874634, 0.5440354347229004, -0.11815734207630157, -0.057526618242263794, 0.15102742612361908, -0.3438297510147095, -0.004587153904139996, -0.14916257560253143, 0.23044708371162415, -0.07339388877153397, -0.19655176997184753, -0.22169817984104156, -0.17345328629016876, 0.12667471170425415, -0.011789951473474503, -0.16760775446891785, 0.002622683998197317, -0.39494791626930237, -0.05857741832733154], [0.23942413926124573, 0.3294248580932617, 0.26089829206466675, -0.06706511229276657, -0.04032742604613304, 0.04951032996177673, 0.0416112095117569, 0.3420299291610718, -0.01239030621945858, -0.39770591259002686, 0.2025473266839981, -0.017353812232613564, -0.02112332358956337, 0.3268035650253296, 0.03290199115872383, 0.24637676775455475, -0.02436533197760582, -0.41290566325187683, 0.19841530919075012, -0.2066006064414978, -0.09325747191905975, -0.01651621237397194, 0.19378787279129028, 0.34268489480018616, 0.053866028785705566, 0.18310275673866272, -0.1302964836359024, -0.35974493622779846, -0.30529358983039856, 0.26233530044555664, 0.2977871596813202, -0.07323799282312393], [0.16531626880168915, 0.20691971480846405, -0.07359112054109573, 0.053815484046936035, 0.10003498196601868, 0.09107270836830139, 0.10229165107011795, 0.14497539401054382, 0.10984905064105988, 0.1312195509672165, 0.13085587322711945, -0.07491765916347504, 0.0012813098728656769, -0.28963205218315125, -0.11794018745422363, 0.2021264284849167, 0.0763818770647049, 0.05524072423577309, 0.20935039222240448, -0.12233082205057144, 0.04438014328479767, -0.1553305685520172, -0.24612434208393097, -0.05919647961854935, 0.15483587980270386, 0.250461608171463, -0.19004403054714203, 0.09671121835708618, 0.26242366433143616, -0.1364908069372177, -0.20690229535102844, -0.01320127584040165], [0.00418097572401166, -0.146671861410141, -0.5586416721343994, -0.2723735570907593, -0.16482612490653992, -0.03881871700286865, -0.08075741678476334, -0.4630255401134491, -0.3565060496330261, -0.09642703086137772, -0.08989402651786804, -0.0230435561388731, 0.3231625258922577, 0.13671021163463593, 0.1474868208169937, 0.29013970494270325, -0.2655675709247589, -0.13106004893779755, -0.2196102887392044, 0.02312835305929184, -0.14655396342277527, 0.09143678098917007, 0.3460431396961212, 0.0939483717083931, -0.21035997569561005, -0.01710808090865612, -0.030725056305527687, 0.15121254324913025, -0.16103142499923706, -0.0036554851103574038, -0.24010610580444336, 0.2674689292907715], [0.07589904963970184, -0.30983415246009827, -0.2815222442150116, -0.05208307504653931, -0.140479177236557, 0.28311827778816223, 0.1781626045703888, -0.18926241993904114, 0.011940648779273033, 0.1274072825908661, 0.6270623803138733, 0.21579641103744507, -0.3942694365978241, -0.051845259964466095, 0.4638056755065918, -0.04995299130678177, -0.25336870551109314, 0.2035011202096939, -0.04894983023405075, 0.0984712764620781, 0.2081761360168457, -0.0404285304248333, -0.13795927166938782, 0.15502916276454926, -0.12278023362159729, 0.02267533540725708, -0.06618739664554596, 0.15468651056289673, 0.2727131247520447, -0.22278223931789398, -0.1589059680700302, -0.11003927141427994], [0.4922325015068054, -0.1448744535446167, 0.04907803237438202, -0.22039839625358582, 0.03162438049912453, 0.03295622020959854, -0.19790245592594147, -0.025793632492423058, -0.01247697789222002, -0.10010587424039841, -0.15728692710399628, -0.13011516630649567, 0.3502747118473053, 0.17573153972625732, -0.20917323231697083, 0.26501917839050293, 0.048914190381765366, -0.2422083616256714, 0.16045866906642914, 0.24026146531105042, 0.28070950508117676, 0.07520118355751038, 0.06968963891267776, 0.13294358551502228, 0.015618402510881424, -0.0616980716586113, -0.09585120528936386, -0.3337697982788086, 0.08358343690633774, 0.0752965658903122, 0.2979104220867157, -0.14961357414722443], [-0.19504643976688385, -0.34955835342407227, 0.41182059049606323, 0.4114573001861572, 0.03869207203388214, 0.09526246786117554, 0.01683812588453293, -0.2584468424320221, -0.1226269006729126, 0.27891457080841064, 0.08322183787822723, 0.17068661749362946, 0.14993542432785034, 0.3047889173030853, 0.11257660388946533, -0.4777623414993286, -0.22475317120552063, 0.4362882077693939, -0.2743137776851654, -0.17508655786514282, 0.4270065128803253, -0.44367754459381104, 0.3325631320476532, -0.2597717046737671, 0.021856185048818588, -0.006100181490182877, -0.0017507768934592605, -0.04361489415168762, -0.010913989506661892, -0.42000797390937805, -0.3522334098815918, -0.22111225128173828], [0.04997914656996727, 0.27034991979599, 0.1139499619603157, 0.09275205433368683, 0.1078653559088707, 0.5520685911178589, -0.3194425106048584, 0.16053444147109985, 0.23702740669250488, 0.37652987241744995, 0.14948433637619019, 0.28585222363471985, -0.30776068568229675, -0.01740589551627636, 0.1199524849653244, 0.2008735090494156, 0.1957194209098816, -0.08885259181261063, -0.354979544878006, -0.1514926701784134, -0.11872605979442596, 0.2080634981393814, 0.24464792013168335, 0.38780277967453003, -0.2109854817390442, 0.4661155045032501, 0.22849398851394653, -0.2882753014564514, 0.10407373309135437, -0.380392849445343, 0.0781010091304779, 0.062338490039110184], [0.15175747871398926, 0.22886182367801666, 0.033672995865345, -0.07059553265571594, 0.11627171188592911, -0.009669814258813858, 0.4602856934070587, 0.33563196659088135, -0.2810198664665222, -0.20100919902324677, 0.08264712244272232, -0.1781114637851715, -0.050009384751319885, -0.20312289893627167, -0.4274131655693054, -0.09767115861177444, 0.4043481945991516, -0.05649140477180481, -0.17798198759555817, 0.24209259450435638, 0.09923134744167328, -0.44239675998687744, -0.16855552792549133, -0.2826244831085205, 0.12392160296440125, -0.1390896439552307, -0.23222091794013977, 0.5174912214279175, 0.3230173587799072, 0.43161290884017944, 0.18175314366817474, 0.041978757828474045], [-0.2537851333618164, -0.1430223435163498, 0.15417025983333588, -0.0462137795984745, -0.011896361596882343, -0.39851781725883484, 0.17372775077819824, 0.05288082733750343, -0.35539644956588745, 0.25751587748527527, 0.11508317291736603, -0.1705193817615509, -0.4790481925010681, 0.2243974804878235, 0.3220892548561096, -0.03792354464530945, -0.08556792885065079, 0.4015636742115021, -0.2483092099428177, -0.010909324511885643, 0.05776282399892807, 0.04303664341568947, 0.15179888904094696, -0.31484365463256836, -0.035784315317869186, -0.36223918199539185, -0.4290122389793396, -0.3465159833431244, 0.18758192658424377, -0.28036266565322876, -0.1308571845293045, 0.028443366289138794], [-0.10211057215929031, 0.0086782556027174, -0.1934216022491455, -0.2627774775028229, -0.10283558070659637, 0.050955306738615036, -0.40334343910217285, -0.19880011677742004, 0.023789703845977783, 0.09223676472902298, -0.23264086246490479, 0.198633074760437, 0.14088431000709534, -0.4216943383216858, 0.29185378551483154, -0.216360941529274, -0.4639863073825836, 0.3373146653175354, 0.22178302705287933, -0.0288019347935915, -0.2041315734386444, 0.026244839653372765, -0.11211933195590973, -0.09803937375545502, -0.1778910756111145, -0.18564875423908234, -0.20540548861026764, 0.26763856410980225, -0.1873209923505783, 0.05304986983537674, 0.21511560678482056, -0.26784586906433105], [0.15994885563850403, 0.10583528131246567, -0.21572363376617432, -0.11070048063993454, 0.23616428673267365, 0.16634373366832733, 0.19505524635314941, 0.19004610180854797, -0.003436313709244132, 0.41327404975891113, -0.22759859263896942, 0.1024637222290039, 0.15906399488449097, 0.12533648312091827, -0.13218311965465546, -0.09203805029392242, 0.1154671311378479, -0.049079179763793945, 0.5647484660148621, 0.18800970911979675, -0.5720654129981995, 0.3139159679412842, 0.25453275442123413, -0.13600388169288635, 0.1228015348315239, -0.16036511957645416, 0.4146363139152527, -0.050893113017082214, -0.41924864053726196, 0.20810607075691223, 0.037980299443006516, -0.3039121627807617], [0.13650286197662354, -0.11956760287284851, -0.19205856323242188, 0.049576278775930405, 0.007250604219734669, 0.0958508551120758, -0.1064084842801094, -0.050310105085372925, 0.4084010422229767, 0.24296963214874268, -0.13434955477714539, 0.0058182887732982635, -0.04532977566123009, 0.1587253361940384, -0.4899294376373291, 0.4554687440395355, 0.02344461716711521, 0.05862993746995926, 0.08417290449142456, 0.08745653927326202, -0.10876449942588806, 0.19852131605148315, -0.13976113498210907, -0.02698824740946293, -0.001121411332860589, 0.28507643938064575, 0.12740719318389893, 0.005159309133887291, -0.03222750872373581, 0.07420756667852402, -0.2332020401954651, 0.0036259405314922333], [0.1224144995212555, -0.22665871679782867, -0.18753601610660553, 0.0207689069211483, 0.39014875888824463, 0.1457517296075821, 0.1354571133852005, -0.04892916977405548, 0.29997965693473816, -0.14398905634880066, -0.048803940415382385, 0.3678586184978485, 0.04438241943717003, -0.26000937819480896, 0.06449984014034271, 0.24647283554077148, -0.3540269136428833, 0.10721820592880249, -0.15934213995933533, -0.2653617560863495, 0.18273702263832092, -0.17837420105934143, 0.04070257395505905, -0.06200822442770004, 0.03535847365856171, -0.40547114610671997, -0.1843784600496292, -0.10648644715547562, -0.002350596245378256, -0.11809790879487991, -0.30857881903648376, 0.400582879781723], [-0.09198231995105743, 0.010114005766808987, 0.07774539291858673, 0.023934511467814445, 0.12386749684810638, 0.20190024375915527, -0.08414671570062637, -0.0716608315706253, -0.1402922421693802, -0.005755802616477013, -0.12419792264699936, -0.0740215852856636, 0.06689593940973282, 0.07621757686138153, 0.001963826362043619, 0.0083555206656456, 0.27434661984443665, -0.0413888618350029, 0.32213252782821655, 0.0835859477519989, 0.19472315907478333, -0.15952104330062866, 0.35545605421066284, -0.167767733335495, 0.10964522510766983, -0.061020735651254654, 0.15450191497802734, 0.07247118651866913, -0.004501840565353632, -0.10218741744756699, -0.13513422012329102, -0.4209131598472595], [-0.1159743070602417, 0.01126319169998169, -0.1138034239411354, -0.11637570708990097, 0.0188139695674181, -0.0547281913459301, 0.12559403479099274, 0.1255795955657959, 0.533920407295227, 0.15763285756111145, -0.04963972046971321, 0.10202977061271667, -0.007756137754768133, -0.2382342517375946, -0.10191678255796432, -0.09584163129329681, -0.20866867899894714, 0.1399311125278473, 0.13679015636444092, 0.14846691489219666, 0.35089632868766785, 0.14358586072921753, -0.12334611266851425, -0.11888356506824493, 0.028921684250235558, 0.16751344501972198, -0.3423481583595276, -0.09422329068183899, 0.04214194416999817, -0.058978691697120667, 0.19678108394145966, -0.10404220968484879], [-0.30504268407821655, 0.32233771681785583, -0.2358676791191101, -0.14742916822433472, -0.5431987047195435, -0.08749618381261826, -0.23226900398731232, 0.17664331197738647, 0.13327692449092865, 0.13184908032417297, -0.09902311861515045, -0.07652842998504639, 0.22118040919303894, -0.07411981374025345, -0.3332422077655792, -0.16945935785770416, 0.00326045835390687, 0.02970951795578003, -0.3381868004798889, -0.11692839860916138, -0.3292587399482727, 0.534670352935791, -0.011747780255973339, 0.2880663275718689, 0.07942193001508713, -0.04443039372563362, 0.33040162920951843, 0.3055284023284912, -0.19126752018928528, 0.004154750611633062, -0.07495789229869843, -0.24192139506340027], [-0.34382539987564087, -0.20786762237548828, -0.32592418789863586, 0.16222204267978668, -0.17906419932842255, -0.09111243486404419, -0.20464807748794556, 0.010344678536057472, -0.4210246205329895, -0.11222559958696365, -0.19286179542541504, -0.04263639077544212, -0.08155807107686996, 0.08793176710605621, 0.08216259628534317, -0.4244801998138428, 0.6556222438812256, -0.26506415009498596, -0.1159207671880722, -0.5679285526275635, 0.10860773175954819, 0.1124805212020874, -0.03665671870112419, -0.3638230860233307, -0.0021239151246845722, -0.014398897998034954, -0.1673537939786911, 0.19581229984760284, 0.01755749061703682, 0.4342465400695801, 0.19715861976146698, -0.5314895510673523], [-0.11996697634458542, -0.11370836198329926, -0.03806506097316742, -0.22045883536338806, -0.10404307395219803, 0.2159787267446518, 0.21062175929546356, 0.3075571358203888, 0.19391275942325592, 0.1482045203447342, -0.0059498087503015995, 0.09501923620700836, -0.5022742748260498, 0.14926142990589142, 0.0959833487868309, -0.4012400209903717, -0.24207542836666107, 0.0009060875745490193, -0.06796450912952423, 0.22157540917396545, -0.16395306587219238, -0.28375425934791565, 0.21070672571659088, 0.2511705756187439, 0.14886516332626343, -0.2590893805027008, 0.08077771961688995, -0.12782756984233856, -0.2553355395793915, -0.12674961984157562, 0.3241961598396301, -0.2781907021999359], [0.1889047622680664, -0.11445678025484085, 0.24240227043628693, 0.002010827884078026, -0.335064560174942, 0.25615745782852173, -0.23878213763237, -0.03337055444717407, -0.06314626336097717, -0.3413243293762207, -0.24263319373130798, -0.27616187930107117, 0.1742670089006424, -0.1908523440361023, 0.03451784327626228, -0.28041309118270874, -0.11154192686080933, 0.19343318045139313, 0.20257489383220673, 0.5104994773864746, 0.10312505811452866, 0.33062243461608887, 0.02708912268280983, -0.3040541708469391, -0.0779949277639389, 0.2560567259788513, 0.14068467915058136, -0.21964986622333527, -0.2086464762687683, -0.2606716752052307, -0.06062933802604675, 0.2718827426433563], [-0.37041953206062317, 0.29043838381767273, 0.11724546551704407, -0.04127281531691551, 0.177671417593956, -0.03948644548654556, -0.05168493092060089, 0.054332345724105835, 0.1272365301847458, -0.2565951645374298, 0.18799494206905365, 0.08104848861694336, -0.020215312018990517, -0.22307075560092926, -0.028321441262960434, -0.0932665765285492, 0.09670524299144745, -0.19317221641540527, -0.036751292645931244, 0.10637570172548294, 0.020901136100292206, -0.3302643597126007, -0.006994869094341993, -0.2523748278617859, -0.14935286343097687, -0.06609365344047546, 0.145804762840271, 0.5839755535125732, 0.4640102982521057, 0.13817772269248962, -0.08448077738285065, -0.10488410294055939], [0.36333969235420227, 0.15743495523929596, 0.2542678713798523, 0.2137426882982254, 0.1793561428785324, -0.10056785494089127, 0.17641958594322205, -0.31738924980163574, 0.36595654487609863, 0.27702879905700684, 0.38307124376296997, -0.06813400238752365, 0.22532162070274353, -0.09911008924245834, -0.18103376030921936, 0.024789433926343918, 0.0544014535844326, 0.5393796563148499, 0.25482481718063354, -0.05892240256071091, -0.22708287835121155, -0.34158751368522644, -0.11917632818222046, -0.09477649629116058, 0.008638923987746239, 0.06461434811353683, -0.05568821355700493, 0.001456179772503674, -0.0061740148812532425, 0.19714494049549103, -0.19784501194953918, -0.0014620842412114143], [-0.2311421036720276, 0.10021694004535675, 0.1543639749288559, -0.3257027268409729, 0.2966383695602417, -0.06193291395902634, 0.07486634701490402, -0.02290193922817707, 0.06975317001342773, -0.46885576844215393, -0.2009231150150299, 0.31896546483039856, -0.24550595879554749, -0.41574615240097046, -0.06950891762971878, 0.0842755064368248, -0.3169889748096466, -0.20688222348690033, 0.24416299164295197, 0.06614431738853455, -0.4070456027984619, -0.09498415142297745, -0.08806164562702179, -0.13267764449119568, -0.15311850607395172, 0.22660969197750092, 0.06948038935661316, -0.6814686059951782, -0.00447446433827281, -0.18337464332580566, 0.16057325899600983, 0.48671072721481323], [-0.012557093985378742, -0.08429023623466492, 0.32213595509529114, 0.10220424085855484, -0.26595744490623474, 0.08858606964349747, 0.15854111313819885, 0.10535646229982376, -0.17609703540802002, 0.0004969211295247078, -0.30820363759994507, -0.1688229739665985, -0.22319674491882324, -0.13257478177547455, 0.3538497984409332, 0.15162140130996704, 0.2939218282699585, -0.14938275516033173, -0.1087009385228157, 0.6675537824630737, -0.13264429569244385, -0.20821891725063324, 0.041770320385694504, 0.017387831583619118, 0.013810952194035053, -0.31184816360473633, 0.06664509326219559, -0.22496362030506134, -0.02932884730398655, 0.1436794251203537, 0.7123960852622986, 0.01872134394943714], [0.10546713322401047, 0.2578737437725067, 0.09585598111152649, 0.11557940393686295, -0.19474560022354126, -0.1374494433403015, 0.11487165093421936, -0.03681141138076782, 0.23081117868423462, 0.285728394985199, 0.2743551433086395, -0.26493632793426514, 0.5112012028694153, 0.12348506599664688, -0.17452602088451385, 0.020660173147916794, 0.0005498495884239674, 0.3849365711212158, -0.03485698997974396, -0.09264881908893585, -0.4856722354888916, 0.41210779547691345, -0.2815430462360382, 0.35832643508911133, 0.053468625992536545, -0.08250480890274048, -0.15894223749637604, 0.09969398379325867, -0.16455714404582977, -0.05492006242275238, -0.16173578798770905, 0.18142862617969513], [-0.2989654242992401, 0.021901065483689308, -0.193792462348938, 0.047318797558546066, 0.19663022458553314, 0.035637568682432175, 0.1152302622795105, -0.19326721131801605, 0.007952996529638767, -0.19552701711654663, -0.15827824175357819, 0.5192230939865112, 0.16175778210163116, 0.12700043618679047, -0.06218245252966881, 0.280141681432724, -0.10555008053779602, 0.0280937347561121, -0.18876363337039948, 0.13905814290046692, -0.0033356761559844017, -0.10230589658021927, 0.0633927434682846, -0.07369480282068253, 0.20475351810455322, -0.31162476539611816, 0.1769244521856308, 0.1319178342819214, -0.1948724389076233, -0.19606728851795197, 0.10574567317962646, -0.04455343261361122], [-0.1453946977853775, -0.2722000777721405, -0.1574048548936844, 0.08295078575611115, -0.27806881070137024, -0.40420272946357727, -0.1382809728384018, -0.1517784595489502, -0.2042831927537918, -0.027879200875759125, -0.1760348677635193, 0.1620202213525772, 0.18127651512622833, 0.20530012249946594, 0.10453937947750092, -0.01334731187671423, -0.09223788231611252, -0.26013097167015076, 0.26299160718917847, 0.15750396251678467, 0.2696079611778259, 0.16003015637397766, 0.08579999953508377, 0.13363254070281982, 0.06390228867530823, -0.0983603447675705, 0.15085667371749878, 0.08308030664920807, 0.3203810155391693, 0.1361454427242279, -0.39765283465385437, -0.1517294943332672], [0.008874109946191311, -0.07456706464290619, 0.07624897360801697, 0.3111046850681305, 0.15169507265090942, -0.24821540713310242, -0.07837525755167007, -0.05772516503930092, 0.18793851137161255, 0.16215133666992188, -0.2641410529613495, -0.13704481720924377, -0.1800570785999298, -0.1440133899450302, 0.039932962507009506, 0.3226390480995178, 0.5436431169509888, -0.12204404920339584, -0.660362958908081, -0.5665774345397949, 0.07918485999107361, -0.40566813945770264, -0.19432388246059418, 0.2402605265378952, -0.0075197056867182255, 0.03174928203225136, -0.19818910956382751, 0.13427409529685974, 0.1682053655385971, 0.17675980925559998, 0.5350053310394287, -0.0024368350859731436], [0.2154272198677063, -0.332556813955307, 0.08987069129943848, 0.16147416830062866, 0.03154387325048447, -0.18949539959430695, -0.18075266480445862, -0.2648810148239136, 0.39964911341667175, -0.2890383303165436, -0.425264835357666, 0.21214886009693146, 0.02755753882229328, -0.1164957731962204, -0.49510669708251953, 0.196260005235672, -0.021761013194918633, -0.357279896736145, 0.3351705074310303, 0.08507750183343887, 0.1308949589729309, 0.3742648661136627, -0.2552098333835602, 0.07342568039894104, 0.365662157535553, 0.2575846314430237, 0.10498294234275818, 0.11942947655916214, -0.32676735520362854, -0.26522478461265564, 0.08529313653707504, 0.16726915538311005], [0.22262196242809296, -0.20591001212596893, 0.18550096452236176, 0.07862351834774017, -0.28828707337379456, -0.04614519700407982, 0.17564646899700165, 0.035869114100933075, -0.19538664817810059, -0.22202271223068237, 0.30444571375846863, -0.2866751551628113, 0.09993132203817368, 0.14860385656356812, 0.17423957586288452, -0.07113561034202576, 0.030651187524199486, 0.0894744023680687, -0.22934842109680176, -0.20794421434402466, 0.00037352106301113963, -0.17910581827163696, -0.058548107743263245, -0.11180097609758377, -0.14916642010211945, 0.004413235001266003, 0.02301880531013012, -0.30442801117897034, 0.11678482592105865, 0.16935910284519196, 0.08067575097084045, 0.2158230096101761]], "att.out_proj.bias": [0.0170254185795784, -0.12244608253240585, -0.039458706974983215, -0.005339555907994509, -0.013942324556410313, -0.06415446102619171, 0.13375431299209595, 0.15205590426921844, -0.007554625626653433, 0.0369298979640007, -0.18853150308132172, -0.018888002261519432, 0.01810184121131897, -0.1283382922410965, -0.1286444216966629, -0.011393904685974121, 0.1139710322022438, 0.09165722876787186, 0.15083402395248413, -0.09453954547643661, -0.11171375960111618, -0.001763251842930913, 0.02270328253507614, 0.009423958137631416, -0.1164969652891159, -0.012230769731104374, 0.05122191458940506, -0.04553132876753807, -0.0053978487849235535, 0.0441410057246685, -0.0631353110074997, -0.09193485230207443], "norm1.scale": [0.3385371267795563, 0.35138407349586487, 0.394193172454834, 0.2771800756454468, 0.23060870170593262, 0.43831902742385864, 0.29928696155548096, 0.35210785269737244, 0.4004383087158203, 0.26094961166381836, 0.45852917432785034, 0.34346282482147217, 0.22937341034412384, 0.4383891820907593, 0.13212577998638153, 0.416976660490036, 0.3535878658294678, 0.3630903363227844, 0.34031912684440613, 0.4127762019634247, 0.5511463284492493, 0.3574865162372589, 0.32091161608695984, 0.5974647998809814, 0.5621243715286255, 0.39109110832214355, 0.4096304774284363, 0.19475290179252625, 0.3218842148780823, 0.26395702362060547, 0.5063901543617249, 0.222285196185112], "norm1.shift": [-0.16273559629917145, -0.019498905166983604, -0.05598955601453781, 0.08357453346252441, 0.09774485975503922, -0.07657864689826965, -0.039513759315013885, 0.02926488034427166, -0.06727436929941177, 0.23064866662025452, -0.11395484954118729, 0.05011666938662529, -0.049777545034885406, 0.13850055634975433, -0.05917124077677727, -0.0849878117442131, 0.019173545762896538, 0.21068920195102692, 0.02859899029135704, -0.13525345921516418, -0.010527163743972778, -0.09520668536424637, -0.10109994560480118, 0.16214892268180847, -0.057489410042762756, 0.12860830128192902, -0.05848167464137077, 0.1141950711607933, -0.0336642824113369, -0.06334812939167023, -0.013758061453700066, -0.00718969851732254], "norm2.scale": [0.7926820516586304, 0.7917653322219849, 0.8510903716087341, 0.790772020816803, 0.9203280210494995, 0.8701685667037964, 0.7991002202033997, 0.6533185243606567, 0.955896258354187, 0.8397250175476074, 0.66911381483078, 0.9223821759223938, 0.8060358762741089, 0.70417720079422, 0.7885989546775818, 0.9030545949935913, 0.8968394994735718, 0.9872056245803833, 0.7854002118110657, 0.675831139087677, 0.817893385887146, 0.7744348049163818, 0.9614388942718506, 0.8028751015663147, 0.8572336435317993, 0.7581411004066467, 0.9189789891242981, 0.925753653049469, 0.8622965216636658, 0.8100733160972595, 0.7280827164649963, 0.862780749797821], "norm2.shift": [-0.039962008595466614, 0.07380715757608414, -0.04286257550120354, 0.12776139378547668, 0.042144760489463806, 0.06671822816133499, 0.034781403839588165, 0.039609089493751526, -0.08239598572254181, 0.2313515841960907, -0.032387685030698776, -0.022230779752135277, -0.14418816566467285, 0.029394254088401794, 0.019594449549913406, -0.02022424340248108, 0.019903413951396942, 0.09086082875728607, 0.032810769975185394, 0.01568831317126751, 0.08390504121780396, -0.1756696254014969, -0.15235482156276703, -0.010479102842509747, 0.0015152066480368376, -0.06476442515850067, 0.05583193153142929, -0.137053981423378, -0.05723947286605835, -0.011499241925776005, 0.12877386808395386, -0.14092256128787994], "ff.lin1.weight": [[-0.4149276316165924, 0.11663047969341278, -0.2744096517562866, 0.01647704653441906, -0.1675540655851364, 0.5119408369064331, -0.8864552974700928, 0.15890133380889893, -0.30384013056755066, -0.04364388808608055, 0.6014476418495178, -0.7058254480361938, 0.24826160073280334, 0.13070322573184967, 0.26263439655303955, 0.44484251737594604, 0.5207431316375732, -0.5048875212669373, 0.04651449993252754, -0.05745844915509224, -0.20868182182312012, 0.38807493448257446, -0.33521193265914917, 0.13672377169132233, 0.04988420009613037, -0.6485540866851807, 0.42685556411743164, 0.3507247269153595, -0.15104098618030548, -0.15239931643009186, -0.3496691882610321, 0.5873313546180725], [0.23182940483093262, 0.3295172452926636, -0.17414987087249756, 0.017897695302963257, -0.2363233119249344, -0.467404305934906, -0.0021574432030320168, 0.05618177354335785, 0.07218533754348755, 0.6213459968566895, 0.025198133662343025, -0.10444188117980957, -0.4503316283226013, 0.2843848466873169, -0.7041381597518921, -0.32151323556900024, -0.25059664249420166, 0.7842777371406555, 0.5024663805961609, 0.08229255676269531, 0.3285581171512604, 0.23197954893112183, -0.10223857313394547, -0.29905587434768677, -0.2831125557422638, 0.13857078552246094, -0.13911192119121552, -0.3155074119567871, -0.16746515035629272, -0.6138277053833008, 0.47051024436950684, -0.31469714641571045], [-0.3478808104991913, -0.5163679122924805, 0.1263909488916397, 0.30937764048576355, 0.02201271615922451, 0.5677670240402222, 0.18299373984336853, -0.17197945713996887, -0.001984440255910158, -0.2026222050189972, -0.6375370621681213, -0.17810975015163422, -0.13074153661727905, -0.13092514872550964, 0.26825231313705444, 0.3979978561401367, 0.13978344202041626, 0.26120704412460327, 0.22644972801208496, 0.2779237926006317, -0.20742915570735931, -0.09065234661102295, -0.20071855187416077, 0.049102783203125, 0.3433791399002075, 0.04448939114809036, -0.6192395091056824, -0.17528077960014343, 0.3311927020549774, -0.2527971863746643, 0.3764329254627228, -0.0825938731431961], [-0.28519847989082336, -0.431438684463501, -0.4608471691608429, 0.32288652658462524, 0.1848382204771042, -0.7478943467140198, -0.5137326717376709, -0.1858772337436676, 0.13296280801296234, 0.15546466410160065, -0.09172838926315308, -0.16997282207012177, 0.4330402910709381, 0.1193590834736824, 0.05891729146242142, -0.321833074092865, 0.5836597681045532, 0.1805591732263565, -0.1274242252111435, -0.13625593483448029, 0.5011574029922485, 0.1265442967414856, 0.24707584083080292, 0.14600364863872528, 0.34771475195884705, 0.31655365228652954, -0.764388918876648, -0.2491980493068695, 0.2960301637649536, 0.5917529463768005, -0.23921054601669312, 0.009152408689260483], [0.3190919756889343, 0.5733329653739929, -0.434716135263443, -0.27148839831352234, -0.35633161664009094, -0.3639910817146301, -0.17240498960018158, 0.13521084189414978, 0.247053325176239, -0.059911999851465225, 0.524643063545227, 0.44673195481300354, -0.6318105459213257, 0.08923929929733276, 0.17507994174957275, -0.48737531900405884, -0.268526554107666, 0.1877073347568512, 0.0411728210747242, -0.7023482322692871, 0.26315394043922424, 0.23962800204753876, -0.3568739593029022, 0.2840610146522522, 0.36267444491386414, -0.08937165886163712, -0.13909733295440674, 0.45257166028022766, 0.29351338744163513, 0.27270200848579407, -0.18974626064300537, -0.47791633009910583], [0.16846592724323273, 0.24532943964004517, -0.046980150043964386, 0.3764660060405731, 0.8419317603111267, -0.06110859662294388, -0.36099618673324585, -0.07337203621864319, -0.23473474383354187, 0.033860016614198685, -0.32452094554901123, 0.36223670840263367, -0.6150406002998352, -0.2699887752532959, 0.08163038641214371, -0.6674755811691284, -0.21135684847831726, -0.011274410411715508, -0.2547071874141693, 0.4397679567337036, -0.10080936551094055, 0.2223396599292755, -0.5674049854278564, 0.310718834400177, 0.11480357497930527, -0.10279364883899689, 0.43193280696868896, -0.11953214555978775, -0.17425833642482758, 0.390338271856308, -0.35211822390556335, -0.4872068166732788], [-0.21711702644824982, -0.27383050322532654, 0.12294864654541016, 0.26444318890571594, -0.26028192043304443, -0.42310643196105957, -0.10725048184394836, -0.12644940614700317, -0.02192752994596958, 0.3353029787540436, -0.04317133128643036, 0.2552873194217682, 0.6059793829917908, 0.05790746957063675, -0.22566333413124084, 0.4052845239639282, -0.26573604345321655, -0.17601171135902405, 0.4078525900840759, -1.0517643690109253, -0.5745870471000671, 0.37166836857795715, 0.03210068121552467, 0.1259986013174057, 0.14337453246116638, -0.07207494974136353, 0.48812174797058105, 0.3669615387916565, 0.0016218355158343911, 0.37457016110420227, -0.18451818823814392, -0.22406527400016785], [-0.08065062761306763, -0.3907455801963806, 0.17547763884067535, 0.47636014223098755, 0.23306173086166382, 0.47041529417037964, -0.3124626576900482, -0.21286745369434357, -0.3699842691421509, -0.44566425681114197, 0.4593707025051117, 0.2540864646434784, 0.1169436052441597, 0.022141683846712112, 0.006585523020476103, 0.2447570413351059, 0.041471581906080246, -0.3936872184276581, -0.060269176959991455, 0.2861815392971039, -0.3723435699939728, 0.11594770848751068, -0.8208760023117065, 0.016074184328317642, 0.17344693839550018, 0.553114652633667, 0.19205327332019806, 0.34838801622390747, -1.2498935461044312, 0.3021215796470642, -0.10376191139221191, 0.12289457768201828], [-0.11126488447189331, 0.321087121963501, 0.12093672156333923, -0.1836114376783371, 0.29579371213912964, -0.44447970390319824, -0.2881172299385071, 0.4450381398200989, -0.07460245490074158, 0.14334405958652496, 0.4098283350467682, -0.3545116186141968, -0.1899353414773941, 0.7635248303413391, 0.08289769291877747, -0.14257726073265076, -0.023258937522768974, 0.8085572123527527, -0.4181560277938843, -0.0600861981511116, -0.25990158319473267, -0.21279288828372955, -0.6391351222991943, 0.2489328533411026, -0.10218958556652069, -0.09765400737524033, 0.6688289642333984, -0.22733396291732788, -0.4481468200683594, -0.5290254354476929, 0.10705666244029999, -0.03138790652155876], [0.28285306692123413, 0.290968120098114, 0.3393462002277374, 0.1148986667394638, -0.17951098084449768, 0.43274983763694763, -0.25020313262939453, -0.3454311192035675, -0.3209371566772461, 0.4988381862640381, -0.31172868609428406, -0.9145867824554443, -0.0007887544925324619, 0.5903182029724121, -0.29431888461112976, -0.10685060918331146, -0.45793575048446655, 0.17290882766246796, 0.2581706643104553, 0.26937735080718994, -0.056618787348270416, -0.6357480883598328, -0.5534225702285767, 0.5340815782546997, 0.0709758847951889, 0.3317004442214966, -0.5865468978881836, -0.47049185633659363, 0.39267465472221375, 0.2619311809539795, -0.28350305557250977, 0.38776037096977234], [-0.34611478447914124, 0.012054168619215488, -0.14595314860343933, 0.7396910786628723, -0.3942341208457947, 0.0157991424202919, 0.21091614663600922, -0.5961443781852722, -0.021761296316981316, -0.060515396296978, -0.19054467976093292, -0.299550861120224, 0.4872891902923584, -0.1387241631746292, 0.7377516031265259, 0.06549205631017685, 0.9466925263404846, -0.21048785746097565, -0.27919137477874756, 0.21884685754776, -0.12269097566604614, -0.5353678464889526, 0.1953379362821579, -0.602779746055603, -0.03367580845952034, -0.0046842023730278015, 0.16961809992790222, 0.18516993522644043, 0.4985497295856476, -0.32881656289100647, 0.11915892362594604, -0.12534157931804657], [0.013579873368144035, -0.2257983535528183, 0.2540334165096283, 0.26134711503982544, -0.45129114389419556, -0.5829346179962158, 0.12440215051174164, 0.2552281320095062, -0.803812563419342, -0.25665462017059326, 0.31113114953041077, -0.2700369954109192, 0.4983583390712738, 0.15853314101696014, 0.8120283484458923, -0.15945744514465332, 0.16021347045898438, -0.6296599507331848, 0.7002091407775879, 0.0003375879896339029, 0.4190634489059448, -0.29516172409057617, -0.06701787561178207, -0.18008938431739807, 0.4759250581264496, -0.7796610593795776, -0.20579098165035248, -0.3468513786792755, 0.281953901052475, 0.48616740107536316, 0.42329493165016174, -0.5759381651878357], [-0.09522834420204163, -0.03715164214372635, 0.2400568574666977, 0.06459678709506989, 0.5865265130996704, -0.7274974584579468, -0.17572687566280365, -0.5448811054229736, 0.5381730794906616, 0.4347333312034607, 0.19560179114341736, 0.5215003490447998, 0.0600602887570858, 0.16010253131389618, 0.04349856823682785, 0.2383064478635788, -0.26462551951408386, -0.08924362063407898, 0.27262356877326965, -0.4599323272705078, -0.43457478284835815, -0.36725378036499023, 0.09180805087089539, -0.12233549356460571, -0.1610182821750641, 0.4599250257015228, 0.0801425352692604, 0.7234789133071899, -0.6076958179473877, -0.2639600932598114, -0.27543672919273376, -0.07358523458242416], [-0.11692270636558533, 0.44358718395233154, 0.5676888823509216, -0.2836478054523468, 0.02163005992770195, 0.03520757704973221, -0.004391282796859741, -0.2994421124458313, 0.30635806918144226, -0.4742051362991333, -0.036418333649635315, 0.1431882381439209, -0.07307488471269608, 0.3561868369579315, 0.10250022262334824, -0.2176680713891983, -0.2396106868982315, 