{"out_head.weight": [[-0.20547473430633545, 0.12819160521030426, 0.24556957185268402, -0.2339787781238556, 0.4562583863735199, -0.18492454290390015, -0.29434922337532043, 0.414970725774765, -0.13543309271335602, 0.2579313814640045, -0.4053475856781006, 0.30370932817459106, -0.09973155707120895, 0.28681495785713196, 0.016924520954489708, -0.12640760838985443, 0.2267189919948578, 0.6023670434951782, 0.30560779571533203, -0.30813848972320557, -0.5964306592941284, 0.1030181422829628, -0.2511133551597595, 0.2556987702846527, -0.12143033742904663, -0.46671822667121887, -0.24322330951690674, 0.049495112150907516, -0.09255458414554596, -0.2332574874162674, 0.030783677473664284, -0.3166177272796631], [0.08563294261693954, -0.34838181734085083, 0.5070062875747681, 0.35919201374053955, 0.6731082797050476, 0.2731105387210846, 0.38846680521965027, -0.061560068279504776, 0.13823990523815155, 0.2583344280719757, -0.363509863615036, -0.18658769130706787, 0.24392743408679962, 0.7413994073867798, -0.3292170464992523, 0.19454671442508698, 0.07474815845489502, 0.685364305973053, 0.3884451687335968, -0.7185696959495544, -0.5176916122436523, -0.883205235004425, -0.4677065312862396, -0.4971405863761902, 0.04383499547839165, -0.7054327726364136, 0.36954861879348755, -0.2459038347005844, 0.7527593970298767, -0.3072165250778198, -0.8242688179016113, -0.08589618653059006], [-0.1609741747379303, 0.1920708268880844, 0.20061653852462769, -0.2323535680770874, 0.4998999834060669, -0.2502085864543915, -0.30496740341186523, 0.4529101252555847, -0.19099061191082, 0.3149421811103821, -0.38479548692703247, 0.21896220743656158, -0.10631299018859863, 0.25150206685066223, 0.08577550202608109, -0.1405666470527649, 0.20013107359409332, 0.6015445590019226, 0.2598157823085785, -0.30387839674949646, -0.5440844297409058, 0.10023369640111923, -0.226514995098114, 0.20346583425998688, -0.14766378700733185, -0.5210685133934021, -0.09390818327665329, 0.060495905578136444, -0.015147177502512932, -0.19455121457576752, 0.05652673915028572, -0.3440536856651306], [-0.19774819910526276, 0.13302086293697357, 0.21458931267261505, -0.2893415093421936, 0.33132702112197876, -0.3058581054210663, -0.20734113454818726, 0.45062145590782166, -0.2230829894542694, 0.3125341832637787, -0.584826648235321, 0.25184211134910583, -0.1300622969865799, 0.18705964088439941, 0.05716336518526077, -0.08579042553901672, 0.2258021980524063, 0.615202784538269, 0.24884583055973053, -0.4530391991138458, -0.3877187669277191, 0.10167147219181061, -0.29409441351890564, 0.30984175205230713, -0.12232235074043274, -0.4255979359149933, -0.13519595563411713, 0.054842788726091385, -0.003627296071499586, -0.1854010969400406, -0.025879811495542526, -0.4504970610141754], [0.29959505796432495, 0.4097174108028412, 0.020029092207551003, 0.44751909375190735, 0.1903594434261322, 0.07559063285589218, -0.5143826007843018, 0.9129241704940796, 0.8201797604560852, -0.022525446489453316, 0.2531956434249878, 0.24517308175563812, 0.39752763509750366, -0.5593539476394653, 0.25398844480514526, -0.7251566052436829, 0.8262230753898621, -0.20959995687007904, -0.14941303431987762, -0.7068461179733276, -0.12534868717193604, -0.3656867444515228, -0.27870652079582214, -0.5089250206947327, -0.006217155605554581, -0.3342967927455902, 0.24544256925582886, -0.8482100963592529, 0.025788161903619766, 0.42061734199523926, -0.04390730708837509, 0.21187901496887207], [0.36048197746276855, -0.053510796278715134, -0.24259041249752045, 0.02637486904859543, -0.25042375922203064, -0.000865704845637083, 0.44782745838165283, -0.001220349338836968, -0.0568452849984169, 0.23054718971252441, 0.43661490082740784, -0.3392355442047119, 0.3552040159702301, 0.3799371123313904, 0.015255643986165524, 0.44359081983566284, -0.3089214265346527, -0.4934074282646179, 0.10777132958173752, 0.5369369387626648, 0.45899680256843567, 0.28032007813453674, 0.3951343894004822, -0.17354339361190796, 0.23313187062740326, -0.4691352844238281, -0.12475166469812393, -0.14725759625434875, -0.2769393026828766, 0.21960994601249695, -0.2564872205257416, -0.4733254611492157], [0.4230087101459503, 0.3928200602531433, -0.46674561500549316, 0.23413310945034027, -0.45979803800582886, -0.11002541333436966, 0.39515987038612366, -0.026596836745738983, -0.15763650834560394, 0.08378953486680984, 0.49473753571510315, -0.10203348845243454, 0.30247631669044495, -0.2180272787809372, -0.17604248225688934, 0.5620696544647217, -0.2831686735153198, -0.2836110293865204, 0.05603405460715294, 0.5650883913040161, 0.48709139227867126, -0.15018214285373688, 0.3860945999622345, -0.5218902826309204, 0.5004505515098572, 0.15005898475646973, -0.09871964901685715, -0.35586631298065186, -0.6171773672103882, 0.154462069272995, -0.4557439982891083, 0.11582580953836441], [-0.10949304699897766, -0.10597880929708481, 0.29589295387268066, -0.43869689106941223, 0.19777187705039978, 0.17562080919742584, -0.16525983810424805, -0.4101557731628418, -0.19504961371421814, -0.28146255016326904, 0.4576863646507263, -0.4074517488479614, 0.2324306070804596, -0.5628274083137512, 0.08169534057378769, 0.4526664912700653, 0.13987112045288086, -0.4922177195549011, -0.36119741201400757, -0.2807983160018921, -0.39408785104751587, -0.3669595420360565, -0.07759997248649597, 0.18127930164337158, -0.15846134722232819, 0.5128481388092041, 0.06266357004642487, 0.4434943199157715, 0.28727009892463684, 0.29694798588752747, 0.17561012506484985, 0.5362544059753418], [0.36727872490882874, -0.1461855173110962, 0.03703188896179199, 0.6711205244064331, -0.3624441623687744, -0.46730440855026245, 0.3639918863773346, -0.3682982623577118, 0.25791892409324646, 0.14280779659748077, -0.2284870743751526, 0.2910054624080658, -0.46109244227409363, 0.6405798196792603, -0.3458471894264221, -0.2632181942462921, -0.16662918031215668, -0.21953009068965912, 0.6266860365867615, -0.0031306766904890537, 0.002007235772907734, 0.45808205008506775, -0.23933321237564087, -0.12320385128259659, -0.03082849085330963, 0.2713013291358948, 0.0533025786280632, 0.5759690999984741, 0.26855218410491943, -0.17001907527446747, 0.3884772062301636, -0.5480533838272095], [-0.03127392753958702, 0.2282857447862625, -0.39520397782325745, 0.637006402015686, 0.44004955887794495, 0.008012567646801472, 0.7604215145111084, 0.35758909583091736, -0.2047232985496521, 0.10182929784059525, 0.026329180225729942, -0.530552864074707, 0.12298214435577393, -0.18919813632965088, 0.7249857783317566, 0.3077082931995392, 0.3273775577545166, 0.7342270016670227, -0.52596515417099, -0.5754922032356262, -0.10292694717645645, 0.09640944004058838, -0.8191584944725037, -0.19161444902420044, 0.17899498343467712, -0.5576000213623047, 0.647780179977417, 0.05321745574474335, -0.5976521372795105, -0.9564060568809509, 0.6658632159233093, -0.42428144812583923], [-0.5736379027366638, 0.062175508588552475, -0.3162170350551605, 0.636277973651886, 0.739536702632904, -0.6959182620048523, 0.5682408809661865, -0.4885103404521942, -0.2217455506324768, -0.14650575816631317, 0.33355259895324707, 0.5888952016830444, -0.5847992300987244, 0.38641881942749023, 0.626133143901825, -0.7929847836494446, -0.27727586030960083, 0.43936657905578613, 0.33507925271987915, -0.5472612380981445, 0.7251653075218201, -0.3446923792362213, -0.0698070079088211, 0.27659568190574646, -0.022333120927214622, -0.9114888310432434, 0.055903200060129166, 0.12630805373191833, -0.7175229787826538, 0.4942496418952942, 0.28591910004615784, 0.30387941002845764], [0.362628698348999, 0.1580011248588562, 0.26196420192718506, -0.023923080414533615, -0.7271583676338196, 0.24405691027641296, -0.1749861240386963, 1.086357593536377, -0.48722541332244873, -0.6553013324737549, 0.5418601036071777, -0.16292619705200195, -0.340925931930542, 0.3591999411582947, 0.5528762340545654, 0.0919717326760292, 0.008694197051227093, 0.2272707223892212, -0.3092776834964752, -0.09584661573171616, -0.22129300236701965, -0.16995374858379364, -0.029797587543725967, -0.16900958120822906, 0.4585268795490265, 0.12646684050559998, 0.4284978210926056, -0.4548412263393402, -0.5978604555130005, -0.3701017498970032, 0.2762269675731659, 0.4773733615875244], [0.4331711232662201, -0.2459632158279419, -0.03380929306149483, -0.010746506974101067, -0.3247425854206085, -0.05825507640838623, 0.28865259885787964, 0.3818087875843048, -0.41418710350990295, 0.9591894745826721, -0.5804121494293213, 0.22291244566440582, 0.4447450041770935, -0.40337052941322327, -0.14491215348243713, -0.28950944542884827, 0.42916139960289, 0.5336337089538574, 0.6763749122619629, -0.6147488951683044, -0.15901216864585876, 0.4462081491947174, -0.2715201675891876, 0.17188166081905365, 0.1631399393081665, -1.0163671970367432, 0.02325398474931717, 0.49738574028015137, -0.3616578280925751, -0.4379613399505615, 0.5225865840911865, -0.12287905067205429], [0.0502401702105999, -0.18707695603370667, -0.33683595061302185, -0.3077908754348755, 0.7069562077522278, -0.7499520182609558, 0.18037988245487213, 0.7294846773147583, -0.2692282199859619, -0.1104387566447258, -1.1330395936965942, 0.7071654200553894, 0.17138881981372833, -0.2431165724992752, 0.38612639904022217, 0.31411370635032654, 0.43267613649368286, 0.5164039731025696, 0.6863287687301636, -0.542388916015625, -0.12410308420658112, 0.4481709897518158, 0.1704333871603012, -0.3911418318748474, -0.172931507229805, -0.5122855305671692, -0.2157665193080902, -0.3912205100059509, -0.2820267677307129, -0.9458532929420471, 0.715989887714386, -0.19784227013587952], [0.301899254322052, -0.30809298157691956, 0.06855740398168564, 0.05154114216566086, 0.23390169441699982, 0.35736966133117676, 0.05795843154191971, -0.4728977680206299, -0.22997069358825684, -0.4495815336704254, 0.009622892364859581, -0.02530505321919918, 0.3176409900188446, -0.2565379738807678, -0.27508389949798584, -0.30125224590301514, -0.20315611362457275, -0.21650837361812592, -0.6659736633300781, -0.5610489845275879, -0.08758493512868881, 0.3591079115867615, 0.3740438222885132, -0.009104812517762184, 0.33353719115257263, 0.4789806008338928, 0.46537911891937256, -0.11156955361366272, 0.34318938851356506, 0.2797488570213318, 0.05798918008804321, 0.4942393898963928], [-0.676673173904419, -0.2837837040424347, 0.6273353695869446, 0.1613144874572754, 0.5633789896965027, -0.2541465163230896, 0.5494744777679443, -0.021016325801610947, -0.43664515018463135, 0.5327911376953125, -1.0803204774856567, 0.3794719874858856, 0.21278055012226105, -0.2532061040401459, 0.09254360944032669, 0.19416886568069458, -0.14833024144172668, 0.9987284541130066, 0.6299482583999634, 0.07772765308618546, -0.04082804545760155, 0.6738283038139343, -0.7892653346061707, 0.10708828270435333, 0.3796820640563965, -0.8901023864746094, -0.23743990063667297, -0.4079854190349579, -0.9969931840896606, 0.4164387583732605, 0.06758163869380951, -0.389932245016098], [0.16466061770915985, 0.556390643119812, -0.19433802366256714, 0.30743807554244995, -0.33317819237709045, 0.08540945500135422, 0.26102906465530396, 0.3987436890602112, -0.2216060310602188, 0.06788144260644913, 0.3926810622215271, 0.18494516611099243, -0.1674494743347168, -0.212689608335495, -0.06020732223987579, 0.5376520752906799, -0.05473839119076729, -0.1337667554616928, -0.2804833948612213, 0.4012828767299652, 0.42551445960998535, -0.11549659818410873, 0.4013137221336365, -0.555720329284668, -0.053434424102306366, 0.12081284821033478, -0.0934305191040039, -0.3415084779262543, -0.4529174566268921, 0.5646777749061584, -0.1674109250307083, 0.13516998291015625], [-0.5012509226799011, 0.22819784283638, 0.23456425964832306, -0.44661805033683777, 0.4297013580799103, 0.27302995324134827, -0.3341757655143738, -0.0426054373383522, 0.3185102343559265, -0.15553323924541473, 0.38348227739334106, -0.2583811283111572, 0.07648149132728577, -0.24343621730804443, 0.2854384481906891, 0.33325570821762085, 0.4677608609199524, -0.2477380782365799, -0.24839694797992706, -0.4276902675628662, 0.0975191593170166, 0.0341833122074604, 0.12438379973173141, 0.39529862999916077, -0.07805124670267105, 0.12109623849391937, 0.11750326305627823, 0.46867454051971436, -0.1853664517402649, -0.0034760835114866495, 0.36421090364456177, -0.546657919883728], [-0.5496658086776733, 0.1729954034090042, -0.37777361273765564, 0.09019611775875092, 0.4447995126247406, -0.2736785113811493, -0.5531197786331177, -0.21151545643806458, -0.48970097303390503, 0.09146718680858612, 0.021206624805927277, -0.14445476233959198, -0.7900537848472595, -0.05101995915174484, 0.42836907505989075, 0.41206949949264526, 0.632991373538971, 0.7501489520072937, 0.38756516575813293, 0.47433793544769287, 0.5648418664932251, 0.01367455255240202, -0.18253283202648163, 0.20679718255996704, 0.37286704778671265, 0.11198414862155914, -0.8173498511314392, -0.02777579054236412, 0.49952900409698486, 0.009121374227106571, 0.022365795448422432, -0.9282378554344177], [-0.4021371603012085, -0.4247279763221741, 0.263723224401474, 0.5562357902526855, -0.31172189116477966, 0.24422593414783478, -0.21101073920726776, 0.057316798716783524, -0.6312635540962219, 0.2759053707122803, -0.4270112216472626, -0.5102381110191345, -0.4884074032306671, 0.612133264541626, -0.6234980821609497, -0.15461573004722595, -0.07728066295385361, 0.5297139286994934, 0.061176151037216187, 0.3841261565685272, 0.30550819635391235, 0.33003726601600647, 0.44074758887290955, 1.0768004655838013, 0.1334020048379898, 0.6093806028366089, -0.331169456243515, -0.32083770632743835, -0.06092098727822304, 0.6137744784355164, 0.13147549331188202, -0.8529603481292725], [-0.3503098487854004, 0.4316609501838684, 0.1886158287525177, -0.04765055701136589, 0.4940281808376312, 0.08430998027324677, -0.17801639437675476, 0.44799214601516724, 0.1613766998052597, -0.13136884570121765, -0.5820046067237854, 0.29411780834198, -0.33879658579826355, 0.7012332081794739, 0.14306825399398804, -0.0291703250259161, -0.1339939832687378, 0.4532706141471863, -0.04595828428864479, -0.3618670105934143, -0.7666006088256836, 0.3903755247592926, 0.7829088568687439, -0.33826637268066406, 0.1040339395403862, 0.39805325865745544, -0.3463192284107208, -0.30113717913627625, 0.07031527906656265, -1.10347580909729, 0.366508424282074, -0.6185126304626465], [0.15045756101608276, -0.0332573801279068, 0.03905676305294037, -0.47066646814346313, -0.02356387861073017, -0.5117816925048828, -0.6995188593864441, 0.5651543140411377, 0.10860222578048706, 0.4956022799015045, -0.029519282281398773, -0.5288511514663696, -0.8770610094070435, 0.5679972767829895, 0.3378308117389679, 0.266723096370697, -0.044569384306669235, 1.0150973796844482, -0.4137481451034546, 0.03580343723297119, 0.2884696125984192, -0.14736583828926086, 0.3790709972381592, 0.21267931163311005, 0.20396237075328827, -0.1879284679889679, -0.4672069549560547, 0.028123697265982628, 0.6012870073318481, -0.08370498567819595, 0.3663163483142853, -0.7247584462165833], [-0.132078155875206, 0.35221293568611145, -0.06576471775770187, -0.5046839118003845, -0.20245243608951569, 0.6799976825714111, 0.29638752341270447, -0.2737448215484619, 0.5001392364501953, 1.1213024854660034, -0.7365903258323669, -0.03658778965473175, 0.35691288113594055, 0.6273599863052368, 0.237213134765625, -0.2642037272453308, 0.5753920078277588, -0.15380768477916718, -0.2079349309206009, -0.43477728962898254, -0.7584330439567566, -0.21389774978160858, -0.9204169511795044, 0.3382689952850342, 0.48369094729423523, 0.14760640263557434, 0.33816877007484436, -0.24651943147182465, -0.6355465054512024, 0.049125757068395615, -0.12107067555189133, -0.6944750547409058], [0.21892483532428741, -0.46785566210746765, -0.16768184304237366, 0.4051123559474945, 0.537789523601532, -0.5585730075836182, -0.4723227024078369, 0.2866610288619995, 0.02185969427227974, -0.23486043512821198, -0.44529134035110474, 0.34228184819221497, -0.509478747844696, 0.20239941775798798, -0.024519817903637886, 0.2809273600578308, 0.3889005482196808, 0.854035496711731, 0.8923594355583191, -0.23123547434806824, -0.9480769634246826, 0.534538984298706, 0.173601895570755, -0.015206323005259037, -0.2010427862405777, 0.19665025174617767, -0.28032219409942627, -0.2412470281124115, 0.09913714230060577, -0.40402519702911377, -0.13148759305477142, 0.22627519071102142], [0.7513675093650818, 0.25056830048561096, -0.24149534106254578, -0.2588391900062561, -0.47931018471717834, -0.14059872925281525, 0.2586355209350586, 0.48682528734207153, 0.0759018287062645, -0.33645543456077576, -0.10479941964149475, 0.6585818529129028, -0.5954977869987488, 0.23984645307064056, 0.3593023121356964, -0.1352262794971466, 0.28358030319213867, -0.0203399658203125, -0.5792956948280334, 0.47565481066703796, 0.21519464254379272, 0.15427270531654358, 0.20422489941120148, -0.2139095962047577, -0.45120352506637573, 0.521354079246521, 0.2753921449184418, -0.05249154940247536, -0.41120705008506775, -0.049317866563797, -0.17743311822414398, 0.25099626183509827], [0.5533109307289124, 0.28964054584503174, -0.08807650953531265, 0.47991979122161865, -0.33051788806915283, 0.1844891756772995, 0.3614961504936218, 0.04113154858350754, -0.2124941051006317, 0.5242068767547607, 0.1404644101858139, -0.3644750714302063, -0.09511355310678482, -0.21814607083797455, 0.4827723205089569, 0.48690590262413025, -0.270929753780365, -0.32200515270233154, -0.13204069435596466, 0.3348589539527893, 0.38048699498176575, -0.32764723896980286, 0.3206026256084442, -0.6504870057106018, 0.03548641502857208, 0.06216201186180115, -0.33811190724372864, -0.11884543299674988, -0.46049660444259644, 0.2451580911874771, 0.08344660699367523, 0.2980816066265106], [0.28731077909469604, 0.1933305263519287, 0.4588034749031067, -0.22579726576805115, 0.42620009183883667, 0.105400949716568, -0.3777061402797699, -0.03783388435840607, -0.43581846356391907, 0.5383819937705994, 0.22512350976467133, -0.17126299440860748, -0.41845205426216125, -0.19125184416770935, -0.276074081659317, 0.347568154335022, -0.3436649441719055, -0.10735863447189331, -0.23454347252845764, 0.04204313084483147, -0.3508751094341278, -0.08489615470170975, -0.33234670758247375, 0.35445383191108704, -0.22565333545207977, 0.15684249997138977, -0.16938042640686035, -0.13465175032615662, -0.2168971449136734, -0.22719238698482513, 0.10082189738750458, 0.14981529116630554], [0.2929060459136963, -0.11141602694988251, 0.33017122745513916, 0.38547617197036743, 0.4250527620315552, 0.3636758327484131, 0.5554957985877991, 0.4266361594200134, 0.24975202977657318, 0.3744993209838867, -1.376267910003662, 0.024828115478157997, -0.3988059163093567, 0.030043331906199455, -0.4812599718570709, -0.27259787917137146, 0.05355357751250267, -0.5926794409751892, 0.44528499245643616, -0.36231982707977295, 0.7433659434318542, -0.23655128479003906, -0.2979739308357239, 0.5295669436454773, 0.1541050374507904, 0.007926912046968937, -0.020652562379837036, 0.8557131290435791, -0.09433886408805847, -0.755451500415802, -0.6355313658714294, -0.6688935160636902], [0.2240392565727234, -0.246425062417984, 1.0898939371109009, -0.5343756079673767, -0.14416468143463135, -0.4933680593967438, -0.25005587935447693, 1.0474603176116943, -0.5800897479057312, 0.31596508622169495, 0.08352681249380112, 0.35403579473495483, -0.25208643078804016, 0.43532171845436096, -0.210302472114563, 0.07795502990484238, -0.21176300942897797, 0.929063618183136, 0.03972608596086502, -0.004984848201274872, -0.221126526594162, 0.6939672231674194, 0.058385372161865234, 0.05852812901139259, -0.38743311166763306, -0.09475100785493851, -0.7451043725013733, -0.516226053237915, 0.3703283667564392, 0.28047189116477966, -0.4860619902610779, -0.5673282146453857], [-0.26221761107444763, 0.3552795648574829, -0.32629239559173584, -0.6272878050804138, -0.019343627616763115, 0.27209874987602234, -0.6680517792701721, 1.0073298215866089, -0.24746651947498322, 0.2842921316623688, -0.42109692096710205, -0.013445569202303886, 0.2353261262178421, 0.9655708074569702, 0.8145251274108887, -0.3524673879146576, -0.15481291711330414, 0.3994218111038208, -0.10332659631967545, 0.03270438686013222, -0.25277164578437805, -0.21270960569381714, 0.1411866843700409, 0.2304069846868515, -0.4753493368625641, -0.13636277616024017, -0.6326399445533752, 0.664529025554657, 0.29559072852134705, 0.4607255756855011, -0.36937010288238525, -0.2956019937992096], [0.1809839904308319, -0.19628655910491943, -0.1835913509130478, 0.0455305241048336, -0.12877745926380157, 0.09093844145536423, 0.17749647796154022, 0.03250686824321747, -0.19629637897014618, -0.05852404981851578, 0.09658659994602203, -0.2411118894815445, 0.2640882730484009, 0.34112024307250977, 0.04271332919597626, 0.28000378608703613, -0.25967103242874146, -0.1420838087797165, 0.019547972828149796, 0.2056964784860611, 0.20755431056022644, 0.2915571331977844, 0.24972735345363617, -0.06731929630041122, 0.2081599235534668, -0.5009610652923584, 0.028822164982557297, -0.16596268117427826, -0.22601887583732605, 0.0798797458410263, -0.2895064651966095, -0.4866670072078705], [0.6751000285148621, -0.8602727651596069, 0.3621003329753876, 0.2747012674808502, -0.04463085159659386, -0.5030829906463623, 0.6534056663513184, -0.10998842865228653, 0.18480899930000305, -0.1685337871313095, -0.39315903186798096, 0.903361976146698, -0.43500441312789917, 0.7891228199005127, 0.8711671829223633, 0.01163722574710846, 0.7680068016052246, -0.088160939514637, 0.14105486869812012, -0.2207849621772766, -0.24986574053764343, -0.5084531307220459, -0.2860819697380066, -0.7168006300926208, 0.30927184224128723, -0.7704783082008362, -0.1479184627532959, 0.24627263844013214, -0.3116806149482727, -0.43390193581581116, -0.535227358341217, 0.46106240153312683], [-0.4500971734523773, 0.3195670247077942, 0.1950710415840149, 0.12037669122219086, 0.5388047695159912, -0.8384309411048889, -0.6768723726272583, -0.40052831172943115, 0.3940413296222687, 0.3071574568748474, -0.09139464795589447, 0.13571707904338837, -0.24110467731952667, 0.33259791135787964, -0.4411929249763489, 0.09288909286260605, -0.2092684954404831, 0.7479943037033081, -0.2811669111251831, -0.4358406364917755, -0.5040380954742432, 0.4649413228034973, -0.09275242686271667, 0.36676040291786194, -1.2549281120300293, 0.10004764795303345, -0.17355355620384216, -0.03527407720685005, -0.6684861183166504, 0.08064152300357819, 0.625664472579956, -0.5644850134849548], [0.4740165174007416, 0.202680766582489, -0.7087150812149048, -0.6184600591659546, -0.07908590883016586, -0.502375066280365, -0.6587880253791809, -0.24189652502536774, 0.09728846698999405, -0.037925850600004196, 0.09777115285396576, 0.81583571434021, -0.610751211643219, 0.050920553505420685, 0.6470627188682556, -0.3330395519733429, 0.49855053424835205, 0.8015523552894592, -0.20378170907497406, -0.3830101490020752, 0.5010538101196289, 0.2439490705728531, 0.00622616708278656, 0.5231996774673462, -0.020207159221172333, 0.3078596591949463, -0.4651375114917755, -0.5537923574447632, -0.0255449116230011, 0.6237407922744751, 0.7788251042366028, -0.7473706007003784], [0.3848251700401306, -0.19470000267028809, 0.3026595115661621, 0.10886813700199127, -0.18309055268764496, -0.0652683824300766, 0.3991876542568207, -0.2371937334537506, 0.37463170289993286, -0.49457353353500366, -0.18564075231552124, 0.28101667761802673, 0.605274498462677, -0.1597217619419098, 0.06315740197896957, -0.7207781076431274, -0.19470812380313873, -0.25160834193229675, -0.30890753865242004, -0.2881149649620056, -0.2427949607372284, 0.509283721446991, -0.1364382952451706, 0.7089293003082275, 0.4526887834072113, -0.21462823450565338, -0.005362411495298147, -0.34470608830451965, 0.4819096028804779, 0.2258673757314682, -0.4889746606349945, -0.12913677096366882], [-0.6733871698379517, 0.8359523415565491, -0.3858770430088043, 0.13325224816799164, 0.7798729538917542, 0.16868241131305695, 0.27973705530166626, 0.011795696802437305, 0.12307624518871307, 0.3511542081832886, -0.3627244234085083, 0.24622520804405212, 0.26300421357154846, 0.285361111164093, 0.41121992468833923, -0.4257242977619171, 0.5563638806343079, 1.2167495489120483, -0.27325117588043213, -0.022325925529003143, 0.9153159260749817, 0.07989828288555145, -0.19429148733615875, -0.35069987177848816, -0.3786911964416504, -0.2975446581840515, -0.7126697897911072, -0.7695556282997131, -0.2747590243816376, -0.8140144348144531, -0.46411406993865967, -0.6404532790184021], [0.5170924067497253, 0.03157886117696762, -0.1565561592578888, -0.3545367121696472, -0.12124473601579666, 0.26839375495910645, 0.29731515049934387, 0.07994247227907181, -0.08979135751724243, -0.09209002554416656, 0.1993916928768158, -0.18629513680934906, 0.29923906922340393, 0.6848275065422058, 0.08268797397613525, 0.42711061239242554, -0.5911471843719482, 0.15922924876213074, 0.013829023577272892, 0.06768284738063812, 0.49086862802505493, -0.14073269069194794, 0.5064893960952759, -0.047994669526815414, 0.21391938626766205, -0.6688615083694458, -0.0674104243516922, -0.40288808941841125, 0.0022061727941036224, -0.06420419365167618, -0.4257868826389313, -0.5257282257080078], [-0.6810693144798279, -0.004981387406587601, 0.01163752656430006, -0.41906145215034485, 0.6899084448814392, -0.48345664143562317, -0.6799367666244507, 0.6267533898353577, -0.05104803293943405, 0.4095534682273865, 0.084785595536232, 0.652258574962616, -0.49426934123039246, 0.4744574725627899, -0.6808287501335144, 0.4360348582267761, -0.5231366753578186, 0.6131252646446228, 0.2863972783088684, 0.26316630840301514, 0.445539265871048, 0.5818414092063904, -0.19848661124706268, -0.06811235845088959, -0.5319375395774841, -0.3318862318992615, 0.5911360383033752, -0.38463690876960754, -0.013034525327384472, -0.16690796613693237, -0.4039580225944519, -0.3328288793563843], [0.5325329303741455, 0.21505416929721832, -0.4793637692928314, -0.3267039656639099, -0.0871242955327034, 0.3217651844024658, -0.028905384242534637, 0.26629817485809326, -0.23406437039375305, 0.8664458394050598, -0.8995710015296936, 0.6137639284133911, -0.40634918212890625, -0.20091962814331055, 0.9328271746635437, -0.3272927403450012, -0.28181004524230957, -0.041225410997867584, 0.4157867729663849, -0.2752727270126343, 0.5118138790130615, 0.28288426995277405, -0.27826765179634094, 0.783079206943512, -0.4910924732685089, -1.0020776987075806, -0.44754987955093384, 0.4315103590488434, -0.10124865174293518, -0.06843116134405136, -0.047990813851356506, -0.01521381177008152], [-0.5486100912094116, -0.2071729451417923, 0.5877887606620789, -0.20103466510772705, 0.4778728485107422, -0.6337974667549133, 0.06337698549032211, -0.15999089181423187, -0.6825147867202759, 0.0906902328133583, -0.6306554675102234, 0.8274186849594116, 0.4212242662906647, 0.5586685538291931, 0.7022460699081421, 0.2185281217098236, -0.2023780643939972, 0.7410174012184143, -0.07311578840017319, 0.4120992124080658, -0.11769022047519684, -0.07766575366258621, -0.7804507613182068, 0.06243341043591499, -0.22498340904712677, -0.721096396446228, -0.8183504939079285, -0.4545893669128418, 0.05012285336852074, 0.351192444562912, -0.2350132018327713, -0.04241595417261124], [-0.5531153082847595, -0.2221374809741974, 0.5982368588447571, 0.4728308916091919, 0.1004474088549614, -0.23565059900283813, -0.4517148733139038, 0.19609059393405914, -0.8821628093719482, 0.5364470481872559, -0.8387036919593811, -0.2753200829029083, 0.1376376897096634, 0.5905455946922302, 0.8645749688148499, 0.12034042924642563, 0.10143635421991348, 0.848255455493927, 0.7235785722732544, -0.3460976183414459, 0.03432193398475647, 0.04180712252855301, 0.4394320845603943, -0.0820079892873764, 0.5559542179107666, -1.1006672382354736, 0.2910184860229492, 0.5229983329772949, 0.1082201674580574, -1.0326629877090454, 0.0077597638592123985, -0.6634332537651062], [0.08150582760572433, 0.595815896987915, 0.2105426788330078, -0.7057663202285767, 0.46485498547554016, -0.06207868829369545, 0.2859252989292145, -0.004400306381285191, -0.32726234197616577, 0.1746560037136078, -0.5229958891868591, -0.22763320803642273, 0.3994600474834442, -0.11247141659259796, -0.23329856991767883, -0.5219955444335938, 0.21961653232574463, 0.8030558228492737, 0.7375270128250122, -0.10117277503013611, 0.032019272446632385, -0.40383097529411316, 0.08006486296653748, -0.33959195017814636, -0.19391800463199615, -0.709472119808197, -0.45444515347480774, -0.1450403332710266, 0.1283821016550064, 0.1654287725687027, 0.71309494972229, 0.16920322179794312], [0.24216768145561218, -0.2886737585067749, -0.2357601523399353, -0.4441705346107483, -0.04706425964832306, -0.053939089179039, 0.29361462593078613, -0.03274349868297577, -0.14194123446941376, 0.31654199957847595, 0.2051117867231369, -0.19631393253803253, 0.2459939867258072, 0.42929691076278687, -0.09824399650096893, 0.21828487515449524, -0.19727709889411926, -0.09178005158901215, -0.01763943023979664, 0.13519026339054108, 0.27430033683776855, 0.30461302399635315, 0.2553234398365021, -0.07935216277837753, 0.11252311617136002, -0.4850505590438843, -0.21427451074123383, -0.14794331789016724, -0.20359888672828674, 0.12450801581144333, -0.22095336019992828, -0.4367498457431793], [0.2787857949733734, -0.3039911091327667, 0.5715388655662537, -0.2913733422756195, 0.17544853687286377, -0.3952285051345825, -0.0009435198153369129, 0.4799409508705139, -0.4695625603199005, -0.2034822702407837, -0.6338459849357605, 0.8549252152442932, 0.4858829975128174, 0.19092689454555511, -0.6729944348335266, -0.47102707624435425, 0.4635899066925049, -0.1055348813533783, 0.4752260446548462, -0.2252669632434845, 0.513238787651062, -0.20281022787094116, -0.530113935470581, 1.0205625295639038, 0.16953766345977783, 0.12579883635044098, -0.41906294226646423, 0.28313249349594116, -0.39648038148880005, -0.6297203898429871, 0.5455859303474426, 0.2181641161441803], [-0.024103131145238876, 0.39148375391960144, 0.5400453209877014, 0.19571584463119507, 1.4499812126159668, -0.9298988580703735, -1.096204400062561, 0.3582475781440735, -0.5403257012367249, 0.6262878179550171, -0.16569465398788452, -0.6560336351394653, -0.12545764446258545, 0.08127796649932861, -0.07332523912191391, 0.07674495130777359, 0.43774986267089844, 0.6150406002998352, 0.797452449798584, -0.47071290016174316, -0.1434241533279419, -0.46535351872444153, -0.031174417585134506, -0.3144395649433136, 0.5366283059120178, 0.19886717200279236, 0.09699767082929611, 0.03438624367117882, -1.000553846359253, 0.11674051731824875, -0.3270384669303894, 0.21066676080226898], [-0.438027560710907, -0.4372518062591553, -0.31691262125968933, 0.33545982837677, 0.7159691452980042, -0.7303490042686462, -0.24885879456996918, 0.9009356498718262, -0.7388657927513123, 0.48441269993782043, -0.8681915998458862, 0.5694504380226135, 0.35706597566604614, 0.7073419094085693, -0.6090848445892334, 0.25726988911628723, -0.09857098758220673, -0.1769273728132248, 0.39438509941101074, -0.1165742427110672, -0.5678367614746094, -0.18181587755680084, 0.42025843262672424, -0.19347679615020752, -0.03884775564074516, 0.423863023519516, 0.21802619099617004, -0.11216744780540466, -0.43873292207717896, -0.31278249621391296, 0.9407393336296082, -0.38669008016586304], [-0.272072434425354, 0.4648260176181793, -0.0939340740442276, 0.25260013341903687, 0.8866690397262573, 0.24685057997703552, -0.7235346436500549, 0.8342909812927246, -0.5101561546325684, -0.1373901516199112, -0.012601563706994057, -0.4791688323020935, -0.5983597636222839, -0.17938221991062164, 0.25945982336997986, -0.54600590467453, -0.30253490805625916, 0.03992035239934921, 0.9924826622009277, -0.38742196559906006, -0.024972718209028244, 0.05007736012339592, 0.17239423096179962, 0.4026760458946228, 0.6631185412406921, -1.108267903327942, 0.08318019658327103, -0.44200143218040466, 0.2747005820274353, 0.258588582277298, -0.6828467845916748, -0.17293410003185272], [-0.0014679711312055588, -0.015000411309301853, 0.5078758597373962, -0.6153225302696228, 0.3412814736366272, 0.012122263200581074, -0.2177322506904602, 0.8268082141876221, 0.46554410457611084, -0.027184858918190002, -0.18890872597694397, 0.7816627621650696, -0.9044724702835083, -0.11813897639513016, -0.11245087534189224, 0.06634595990180969, -0.36668312549591064, 0.1662585437297821, 0.7624351978302002, -0.46500933170318604, -0.27609121799468994, -0.42102137207984924, -0.8016530871391296, 0.5351359248161316, -0.19151417911052704, 0.2274400293827057, 0.597938597202301, 0.19211265444755554, 0.3150425851345062, 0.13447093963623047, -0.5557923913002014, -0.4898737967014313], [0.18240642547607422, -0.07011204957962036, -0.30959227681159973, 0.24198563396930695, 0.1692161113023758, -0.4530352056026459, -0.5692863464355469, 0.6300216317176819, 0.4678259491920471, 0.5066884756088257, -0.3342747390270233, 0.2342640906572342, -0.8458476066589355, 0.7950553297996521, -0.004480632953345776, 0.06568539887666702, -0.24415123462677002, 0.5099582076072693, -0.1912216693162918, -0.40089136362075806, -0.424455463886261, -0.5127504467964172, -0.35772570967674255, 0.3918975591659546, 0.18219801783561707, -0.5656706690788269, -0.25620031356811523, 0.6203894019126892, -0.33241134881973267, -0.3489147126674652, 0.3208458423614502, -0.013501176610589027], [0.14783897995948792, -0.6748875379562378, 0.02782551757991314, -0.04432789981365204, -0.29333600401878357, 0.013972733169794083, -0.686333179473877, 0.3179430067539215, 0.19700194895267487, -0.3523102402687073, -0.606920599937439, -0.20585989952087402, -0.6761758327484131, 0.06339877843856812, -0.4431731402873993, 0.6304243803024292, 0.12838658690452576, 1.3586573600769043, 0.3793739974498749, 0.0661533772945404, -0.37198328971862793, -0.4870173931121826, -0.5236339569091797, -0.37512797117233276, 0.5730313062667847, 0.30297327041625977, 0.034732718020677567, 0.38594046235084534, 0.4666905701160431, -0.0133556192740798, 0.41012248396873474, 0.23514091968536377], [-0.5695984959602356, 0.7005026936531067, -0.17276935279369354, 0.06335966289043427, 0.7413468956947327, -1.02064847946167, -0.47268638014793396, 0.9124014973640442, -0.9177336692810059, 0.5030664205551147, -0.1114378347992897, 0.1686336249113083, 0.10603766143321991, 0.36153361201286316, -0.39915916323661804, -0.16303084790706635, -0.5987734198570251, 0.2835357189178467, 0.4291681945323944, -0.14531992375850677, -0.6750434041023254, 0.19662180542945862, -0.2635589838027954, 0.10995622724294662, 0.23421426117420197, -0.4114361107349396, -0.33085671067237854, -0.5010886192321777, 0.46316617727279663, 0.10869304835796356, -0.31622186303138733, 0.31034761667251587], [0.1804427206516266, -0.43605270981788635, -0.5283851623535156, -0.5206233859062195, -0.1976298987865448, 0.04027711600065231, 0.22048434615135193, 0.13978716731071472, 0.012723751366138458, 0.29715147614479065, 0.19942928850650787, -0.16729402542114258, 0.2613944113254547, 0.3870779871940613, -0.47152644395828247, 0.15737201273441315, -0.023571539670228958, -0.2855493426322937, -0.1755787581205368, 0.18891625106334686, 0.5088882446289062, 0.16874457895755768, 0.1472800225019455, -0.3971630930900574, 0.16555839776992798, -0.5270137190818787, -0.3884728252887726, 0.11571340262889862, -0.009565822780132294, 0.49931013584136963, -0.15804016590118408, -0.4485791325569153], [-0.061331942677497864, -0.04690399393439293, 0.5252423882484436, -0.2546592354774475, -0.016878386959433556, 0.371671199798584, -0.0968550592660904, 0.0028527923859655857, -0.006856301333755255, 0.03339995816349983, 0.41170787811279297, -0.018500912934541702, -0.06196693331003189, -0.3847971260547638, -0.24733583629131317, -0.3288964629173279, 0.2394920438528061, -0.10054326057434082, 0.2869892120361328, 0.12821045517921448, -0.48525288701057434, -0.4365709125995636, 0.2909637689590454, 0.49247297644615173, -0.013063902966678143, 0.17591124773025513, -0.38599491119384766, 0.1911693513393402, -0.13827858865261078, 0.03881484642624855, -0.4328622817993164, 0.2887158691883087], [0.26080772280693054, 0.1684773713350296, 0.027182742953300476, -0.5940228700637817, 0.6163969039916992, -0.527863621711731, -0.666807234287262, 0.5454240441322327, -0.2934224307537079, 0.6546955704689026, -0.08533341437578201, 0.06725410372018814, -0.5402692556381226, -0.5644634962081909, 0.28534865379333496, -0.12218286097049713, 0.39311960339546204, -0.2282566875219345, 0.8458825945854187, -0.046328105032444, -0.6702613830566406, 0.38395777344703674, 0.6666547656059265, -0.385049968957901, -0.04184698313474655, 0.28222349286079407, 0.4645085632801056, 0.36105775833129883, -0.13659416139125824, -0.1178070530295372, 0.35675370693206787, -0.6944666504859924], [0.3054480254650116, 0.06924031674861908, -0.009046181105077267, 0.37002626061439514, 0.9469891786575317, -0.6878363490104675, -0.17045260965824127, 0.5658917427062988, -0.07769598066806793, -0.26284167170524597, 0.169992595911026, -0.12943702936172485, -0.2140360176563263, 0.6364542841911316, 0.4352588653564453, -0.2808220684528351, 0.01683690957725048, 0.8719422817230225, 0.0049310969188809395, 0.6333234310150146, -0.6526747941970825, -0.3373410105705261, -0.2522276043891907, 0.18831689655780792, 0.020397214218974113, -0.5427125096321106, -0.7227298617362976, 0.4414249360561371, 0.3485519587993622, 0.2556534707546234, 0.16633184254169464, -0.5156212449073792], [0.3056383728981018, -0.1526300609111786, 0.02264218218624592, -0.49213480949401855, 0.29227811098098755, 0.5530089139938354, -0.42593830823898315, 0.8380658030509949, -0.448025107383728, -0.67671799659729, -0.3503127992153168, 0.6879249811172485, -0.47227558493614197, 0.7230852246284485, -0.40404012799263, -0.5192732810974121, -0.09443775564432144, 0.1550384759902954, -0.05644547566771507, 0.31071069836616516, -0.15242359042167664, -0.4829408526420593, 0.5728648900985718, -0.07531987875699997, 0.08636614680290222, -0.7104037404060364, -0.04685766622424126, -0.04601798206567764, 0.56459641456604, 0.21696928143501282, -0.15314193069934845, -0.5370184779167175], [-0.01377363782376051, 0.22519055008888245, -0.25701895356178284, 0.22289685904979706, 0.4191654920578003, -0.40388500690460205, -0.8543276786804199, 0.6440257430076599, 0.3058345913887024, 0.7583622932434082, 0.45583677291870117, -0.24754419922828674, 0.4228740334510803, -0.1475732922554016, 0.30067765712738037, -0.16093266010284424, -0.43650105595588684, 0.48207664489746094, 0.8367612361907959, -0.379271000623703, 0.10743506252765656, -0.4045465588569641, 0.12825830280780792, 0.3380272686481476, -0.5532878041267395, -0.5679160952568054, -0.358236700296402, 0.196244016289711, 0.3695213794708252, 0.09929200261831284, 0.0795099139213562, 0.14648647606372833], [0.2656480669975281, 0.1984197497367859, 0.32507267594337463, -0.14157165586948395, -0.017260603606700897, -0.2387184202671051, 0.15012364089488983, 0.6336459517478943, -0.6319782733917236, -0.2808816134929657, 0.5476624965667725, -0.10645677149295807, -0.309000700712204, 0.6695272922515869, -0.08678073436021805, -0.03405126556754112, 0.21878136694431305, -0.01833617500960827, -0.16843004524707794, -0.3129955530166626, -0.33214667439460754, -0.4021359384059906, -0.21395893394947052, -0.38559097051620483, 0.3192494213581085, -0.26256227493286133, 0.154118150472641, 0.258966863155365, -0.33154457807540894, -0.5421397089958191, 0.3684954047203064, 0.3668065369129181], [-0.35491669178009033, -0.34557199478149414, -0.8151150941848755, 0.05232803151011467, 0.021570591256022453, 0.2838468551635742, -0.06248018890619278, -0.32431837916374207, 0.42850714921951294, -0.47428977489471436, -0.5012926459312439, -0.12803728878498077, 0.28636863827705383, -0.28850650787353516, -0.623616099357605, -0.4566819965839386, -0.31466859579086304, -0.07429305464029312, -0.07545247673988342, 0.2612776756286621, 0.06540635973215103, 0.4797852337360382, 0.4718382954597473, 0.4516429603099823, 0.39687833189964294, 0.07411378622055054, 0.2347000688314438, -0.3203693926334381, 0.3243585526943207, 0.05978536605834961, -0.4025859832763672, 0.3026829659938812], [-0.7096034288406372, -0.6687805652618408, 0.9682930111885071, 0.05452190712094307, 0.592010498046875, -0.07061251997947693, -0.029128706082701683, 0.9791570901870728, 0.41270360350608826, 0.452545166015625, -0.34238359332084656, -0.19659177958965302, -0.7740703225135803, 0.0031364336609840393, 0.4130193889141083, -0.05546914413571358, -0.2567281126976013, -0.06890930235385895, 0.1459404081106186, -0.10181348025798798, -0.08485374599695206, -0.5487490296363831, 0.6736552715301514, -0.038714587688446045, 0.18516327440738678, -0.2702926993370056, 0.11466599255800247, -0.40987661480903625, 0.1641053557395935, -1.076846957206726, 0.6209743618965149, -0.5008344650268555], [0.3789452612400055, -0.21440300345420837, -0.22177138924598694, 0.37361350655555725, 0.1943860799074173, -0.0274128969758749, -0.48770421743392944, 0.534990131855011, -0.31267085671424866, -0.0976787582039833, -0.20117054879665375, 0.2243672013282776, -0.20861901342868805, 0.5071167945861816, 0.26717671751976013, 0.22238966822624207, 1.1265487670898438, 0.0011972968932241201, 0.5213048458099365, -0.6470751762390137, 0.0348358191549778, -0.6139640808105469, 0.1817818284034729, 0.780258059501648, 0.15532387793064117, 0.160795658826828, -0.787528932094574, 0.05655895918607712, -0.36463919281959534, -0.4725742042064667, 0.6997057795524597, -1.012338638305664], [-0.38071826100349426, -0.34244871139526367, 0.7756314277648926, 0.5330265760421753, 0.05417495220899582, 0.16625943779945374, -1.2092785835266113, 0.7170854210853577, 0.13131527602672577, 0.7575923800468445, 0.44872424006462097, 0.6163756847381592, 0.20309285819530487, 0.4246317446231842, -0.8698594570159912, -0.539208173751831, -0.2057536393404007, 0.157002791762352, 0.09559033066034317, -0.44761303067207336, -0.37754297256469727, 0.21181796491146088, 0.2728496789932251, 0.036380015313625336, 0.1879248023033142, -0.4692136347293854, 0.07036389410495758, -0.33319157361984253, -0.006983459927141666, 0.03681301325559616, -0.29388368129730225, -1.0327465534210205], [-0.3008002042770386, 0.14621420204639435, -0.2125190645456314, -0.03244122117757797, -0.31169959902763367, -0.6357702612876892, -0.5370191931724548, 0.20374390482902527, -0.09937562048435211, -0.00017415249021723866, -0.7900939583778381, 0.7323219180107117, -0.18792998790740967, 0.0059261987917125225, 0.3893760144710541, -0.003780625993385911, 0.6719115376472473, 0.6236698627471924, 0.06767679005861282, -0.6214876770973206, -0.6735623478889465, 0.018284184858202934, 0.9530785083770752, 1.0201926231384277, 0.1005776897072792, 0.15568727254867554, -0.019577225670218468, -0.026349056512117386, -0.3484885096549988, -0.10967418551445007, 0.10132768750190735, -0.8822062611579895], [0.14897911250591278, 0.05965603142976761, -0.21311858296394348, -0.8118777275085449, -0.10334214568138123, -0.8708204030990601, -0.8661524057388306, 0.32117268443107605, -0.7982155680656433, 0.9879536628723145, -0.708647608757019, 0.48632070422172546, -0.080844946205616, 0.15674933791160583, -0.41069427132606506, -0.29867255687713623, 0.0070318784564733505, 0.36813879013061523, 0.43882304430007935, 0.41606777906417847, 0.35820603370666504, -0.504855215549469, 0.42442455887794495, 1.0413821935653687, -0.4074740707874298, -0.5035056471824646, 0.5198739767074585, 0.07027105242013931, 0.5727841854095459, -0.3543633222579956, 0.06113030016422272, -0.9822002649307251], [0.40176922082901, 0.7558571100234985, -0.48593342304229736, 0.3191431760787964, 0.7159959673881531, -0.715151846408844, -0.39279705286026, 0.6389856934547424, -0.2966749370098114, -0.237818643450737, -1.2447203397750854, 0.766918420791626, -0.645806074142456, 0.5415253043174744, 0.0270193200558424, -0.19402411580085754, 1.0072977542877197, 0.27559995651245117, 0.6852437257766724, 0.16817709803581238, 0.010033894330263138, 0.4386618435382843, 0.5153191089630127, -0.25399214029312134, -0.09608683735132217, -0.5550076961517334, -0.22902749478816986, 0.14536412060260773, 0.07671289891004562, 0.3651529550552368, -0.19892065227031708, 0.04941404610872269], [0.26784268021583557, -0.7492229342460632, -0.1866675615310669, 0.01727403700351715, -0.6051506400108337, 0.5292304754257202, 0.019556835293769836, -0.3242190182209015, -0.3952729403972626, 0.4037664234638214, -0.24676458537578583, -0.5266352295875549, 0.6062277555465698, 0.056672774255275726, -0.343636155128479, 0.17307975888252258, 0.8424671292304993, 0.7923198342323303, 0.6382718682289124, -0.9585419297218323, 0.6416728496551514, 0.17566028237342834, -0.6660455465316772, 0.7610587477684021, 0.3645540177822113, -0.034961551427841187, -0.15169556438922882, -0.7969930768013, -0.173918217420578, 0.016542932018637657, -0.1823457032442093, 0.4562983512878418], [0.35310253500938416, -0.3045341968536377, -0.0463094636797905, -0.4152814745903015, 0.28462153673171997, 0.22893354296684265, -0.52264404296875, 1.0593360662460327, -0.018669793382287025, 0.9207348227500916, 0.19000764191150665, 0.7855069637298584, -0.13735832273960114, -0.11033947020769119, 0.5247007012367249, -0.08676378428936005, -0.49585387110710144, -0.35256925225257874, 0.8355908989906311, -0.8881165385246277, -0.5953840017318726, -0.16129262745380402, 0.836050271987915, 0.24510012567043304, 0.3952471911907196, -0.24574419856071472, 0.2993409335613251, -0.230240136384964, -0.6821388602256775, -0.03170916810631752, 0.45703044533729553, -0.36475881934165955], [0.31894421577453613, 0.226527601480484, 0.33527466654777527, -0.09282112866640091, 0.8524802327156067, -0.35775241255760193, 0.22976602613925934, 0.2517607808113098, -0.16606712341308594, 0.7652319073677063, -0.46102482080459595, 0.03324931859970093, -0.16859930753707886, 0.5690202713012695, -0.23982204496860504, -0.059490181505680084, 1.1215845346450806, 0.23728547990322113, 0.39990630745887756, -0.5149224400520325, -0.6317651867866516, -0.11663192510604858, 0.8095079064369202, 0.22381770610809326, -0.6163913607597351, 0.10378558188676834, -0.42656847834587097, -0.10746943205595016, -0.35975533723831177, -0.515245258808136, 0.6610206365585327, -1.2034201622009277], [0.5039313435554504, 0.47088623046875, -0.6812015175819397, 0.14994871616363525, -0.22665295004844666, -0.3251534402370453, 0.04569148272275925, 0.5072873830795288, -0.14477784931659698, 0.2764398157596588, 0.1836889237165451, 0.09898736327886581, -0.07703655958175659, -0.41745492815971375, 0.24616384506225586, -0.20369280874729156, -0.0859910100698471, -0.0710146427154541, -0.10960468649864197, 0.08887151628732681, 0.7259536981582642, 0.010460087098181248, 0.39329633116722107, -0.3963387608528137, 0.1884079873561859, 0.6178304553031921, -0.05717461183667183, -0.05182081460952759, -0.2695368826389313, -0.8612992763519287, 0.48076122999191284, 0.46266788244247437], [-0.3951228857040405, -0.046840962022542953, 0.15390662848949432, -0.3260278105735779, 0.36397266387939453, -0.8093878030776978, -0.4835493266582489, -0.38157063722610474, -0.30264097452163696, 0.44794338941574097, 0.3024485409259796, -0.4650742709636688, -0.062036871910095215, -0.15076926350593567, 0.17011915147304535, 0.04519088566303253, 0.4504888653755188, 0.8517235517501831, -0.19041715562343597, 0.07479266822338104, -0.09904003143310547, 0.7181033492088318, 0.30940961837768555, -0.35261809825897217, 0.12673692405223846, -0.06792570650577545, -0.12742210924625397, 0.32542654871940613, -0.21725963056087494, -0.26455530524253845, 0.41845616698265076, -0.09828250855207443], [0.02340422198176384, 0.7576714754104614, -0.08782996237277985, -0.8202950954437256, 0.7953223586082458, 0.022567633539438248, -0.3773271143436432, 0.8911210298538208, -0.8143214583396912, 0.7127729058265686, -0.5688456296920776, 0.669842004776001, 0.3787562847137451, 0.26274871826171875, -0.1277361810207367, -0.7852787375450134, 0.0054112086072564125, -0.2674327790737152, -0.17091521620750427, 0.7180103063583374, 0.040266185998916626, -0.03363906964659691, 0.2215559035539627, 0.2102752923965454, 0.2045251876115799, 0.38896939158439636, -0.004493790678679943, 0.25977304577827454, 0.5985432863235474, -0.6651965379714966, 0.09727829694747925, -0.9361944794654846], [-0.6608205437660217, 0.6483981609344482, 0.3780219554901123, 0.3126561939716339, 0.5969673991203308, -0.34354543685913086, -0.3183700740337372, 0.5782654285430908, 0.18802456557750702, 0.6766692399978638, -0.2844979465007782, -0.5414668321609497, -0.33341076970100403, -0.015089401975274086, 0.12160824239253998, -0.029861334711313248, 0.45422881841659546, 0.20051221549510956, 0.8987289071083069, -0.4687541425228119, 0.229613795876503, 0.6198986172676086, -0.6191844344139099, 0.6584495902061462, -0.3173949718475342, 0.2413509488105774, -0.8018368482589722, -0.49518144130706787, -0.19578950107097626, -0.39434704184532166, 0.23567841947078705, -0.9433560371398926], [-0.5646103024482727, 0.10080350935459137, 0.25745248794555664, -0.12691377103328705, -0.0908866673707962, 0.19322440028190613, -0.10059012472629547, 1.2802510261535645, -0.17322053015232086, -0.00612719776108861, -0.019170060753822327, 0.428046315908432, -0.4221865236759186, 0.27321434020996094, -0.3400495648384094, 0.5976929068565369, 0.9133962392807007, 0.18648815155029297, 0.5614734888076782, -0.5702102780342102, -0.7150123715400696, 0.6512765884399414, 0.18277080357074738, 0.16844791173934937, -0.7789512872695923, 0.08984345942735672, 0.39605095982551575, 0.33773311972618103, -0.17612162232398987, -0.46717315912246704, 0.38854119181632996, -0.7812008857727051], [-0.5012057423591614, 0.07002061605453491, -0.2049972414970398, 0.5125267505645752, 0.3391246199607849, -0.37664589285850525, -0.7405313849449158, 0.7961010336875916, 0.3363164961338043, 0.9953749179840088, -0.9892222881317139, 0.6205672025680542, -0.012520371936261654, 0.3025071322917938, 0.40331825613975525, -0.24828220903873444, -0.20812682807445526, -0.14877985417842865, -0.005337640643119812, 0.30412808060646057, -0.8767967224121094, -0.2139817178249359, -0.019410716369748116, 0.11432018131017685, -0.3231991231441498, -0.013694388791918755, 0.9380262494087219, -0.11791535466909409, -0.2284853607416153, 0.20430953800678253, -0.07749968022108078, -0.20987959206104279], [-0.8239179849624634, -0.027391837909817696, -0.35228055715560913, -0.606260359287262, 0.714214026927948, -0.14340436458587646, 0.39510780572891235, 0.6156548261642456, -0.21476832032203674, 0.38411033153533936, -0.8316096663475037, -0.0240459181368351, -0.5144369006156921, -0.2061765491962433, 0.5354940295219421, 0.13640040159225464, -0.3446480333805084, 0.42302095890045166, 0.3185502290725708, -0.6266759634017944, -0.19684885442256927, 0.5500276684761047, -4.1069259168580174e-05, 0.3795248866081238, -0.6641607284545898, 0.24777784943580627, -0.22635452449321747, 0.5431270003318787, -0.5961716175079346, -0.016124673187732697, -0.13496769964694977, 0.08894343674182892], [-0.07635547965765, -0.15215817093849182, -0.12610825896263123, 0.29125669598579407, -0.08382368832826614, 0.21617168188095093, 0.34844839572906494, -0.04953358322381973, 0.3101297914981842, -0.02801888808608055, 0.442810595035553, -0.2276110053062439, -0.05426761507987976, -0.0216684453189373, 0.311545729637146, 0.3066847324371338, 0.5455995798110962, 1.1126372814178467, 0.18293096125125885, -0.41120123863220215, -0.6430683135986328, 0.17992591857910156, -0.051599856466054916, -0.34600335359573364, -0.43023255467414856, 0.275485634803772, -0.9334759712219238, -0.0888330489397049, 0.5757838487625122, -0.2206697016954422, 0.39604225754737854, -1.0831738710403442], [-0.13840746879577637, -0.3753625154495239, -0.23225626349449158, -0.050877612084150314, 0.3552791178226471, 0.47091802954673767, 0.09809254854917526, 0.15889188647270203, 0.26683977246284485, -0.5014272332191467, 0.16983690857887268, 0.6506022214889526, -0.38491687178611755, 0.28041067719459534, -0.42849043011665344, -0.35049906373023987, -0.25698670744895935, 0.4100434184074402, 0.030218033120036125, 0.5254371762275696, 0.39007532596588135, 0.485076904296875, -0.8999215960502625, -0.33119216561317444, 0.05087588354945183, -0.06036697328090668, 0.21762897074222565, -0.3258185386657715, 0.140767440199852, 0.074238121509552, 0.40260082483291626, -1.0005406141281128], [-0.6731324791908264, -0.6297814249992371, -0.7197909951210022, -0.7512603998184204, 0.229531392455101, -0.19524629414081573, -0.2162843495607376, 0.7740573883056641, 0.2207174450159073, 0.05485675856471062, 0.5544701814651489, -0.10230942815542221, -0.20388107001781464, -0.1582113355398178, -0.5362568497657776, 0.21360233426094055, -0.19799557328224182, -0.10833001136779785, 0.6340304017066956, 0.025516264140605927, -0.44331565499305725, -0.3651173412799835, -0.6624940037727356, 0.4218164086341858, 0.537125289440155, -0.12326548248529434, -0.06632749736309052, -0.07627709954977036, 0.6347448229789734, -0.3302295506000519, 0.4811464548110962, -0.08592047542333603], [-0.08254095166921616, 0.10220998525619507, -0.18960487842559814, 0.43575480580329895, -0.43886229395866394, -0.5959189534187317, -0.4910561144351959, 0.7212634086608887, 0.3998638093471527, 0.054935112595558167, -0.14539991319179535, 0.43451356887817383, 0.4286356568336487, -0.5173584222793579, -0.31504279375076294, 0.298351913690567, -0.30951833724975586, 0.08808829635381699, -0.11189350485801697, 0.1575295329093933, 0.2592344284057617, 0.0879264771938324, -0.21666769683361053, -0.5408300161361694, 0.001358124311082065, 0.17841243743896484, -0.34097734093666077, -0.11672314256429672, -0.24443116784095764, 0.36506813764572144, 0.3883000314235687, 0.16722075641155243], [-0.6577126383781433, -0.025398554280400276, 0.4019213616847992, 0.21536046266555786, -0.0782228484749794, 0.24249739944934845, -0.6408799886703491, 0.4405756890773773, 0.2721106708049774, 0.4552689492702484, -0.6837659478187561, 0.7951820492744446, 0.16290904581546783, -0.5111836791038513, 0.6970510482788086, 0.20248539745807648, -0.3579599857330322, 0.24865713715553284, 0.059197764843702316, -0.027835408225655556, -0.2383045256137848, 0.25177186727523804, 0.21913254261016846, 0.03870473802089691, -0.315752238035202, 0.31015896797180176, -0.5029954314231873, 0.0247906893491745, -0.030064156278967857, -0.03832171857357025, 0.9991894960403442, -0.9932670593261719], [-0.9239180684089661, 0.554025411605835, -0.3621014952659607, 0.4023696184158325, 0.6071929335594177, 0.15303193032741547, -0.42536216974258423, 0.20633774995803833, -0.26313263177871704, 0.6276121139526367, -1.0154589414596558, -0.17915794253349304, -0.29764872789382935, 1.0642539262771606, -0.2670978903770447, -0.3172871768474579, -0.45985540747642517, 0.10190010815858841, -0.1715879589319229, -0.14857493340969086, -0.6281301975250244, 0.3683205544948578, -0.8425723910331726, 0.7133676409721375, 0.12189873307943344, -0.8823245763778687, 0.23517253994941711, -0.28835824131965637, 0.20579777657985687, 0.5862089991569519, 0.1526734083890915, 0.08388026058673859], [0.43085363507270813, -0.05301085487008095, -0.6079994440078735, 0.1690269410610199, 0.8906843066215515, 0.3203509449958801, -0.16974696516990662, -0.5126426815986633, 0.6666016578674316, 0.6087111234664917, -0.29030734300613403, 0.07407036423683167, -0.9770255088806152, 0.09371518343687057, -0.3736492097377777, -0.38690805435180664, 0.22610510885715485, 0.5531934499740601, 0.08053372800350189, -0.26935452222824097, 0.04107440263032913, 0.012068339623510838, -0.6559362411499023, -0.3759516477584839, -0.49320757389068604, -0.45915618538856506, 0.835931658744812, 0.36722972989082336, -0.6979410648345947, 0.008296467363834381, 0.03669651597738266, 0.4402274191379547], [0.06571952253580093, 0.5862974524497986, -0.15420188009738922, -1.089108943939209, 0.036157090216875076, 0.498009592294693, -0.05812644585967064, -0.3656904995441437, 0.22393877804279327, 0.35745251178741455, -0.7633821368217468, -0.2563066780567169, -0.39716222882270813, -0.4490070044994354, 0.48604393005371094, 0.022212792187929153, 0.8846389651298523, 0.7057297825813293, 0.6459946036338806, 0.5517957806587219, 0.2001553773880005, 0.47149258852005005, -0.8390688896179199, 0.0017566309543326497, 0.2995924949645996, -0.29757165908813477, -0.21260735392570496, 0.4974357485771179, 0.4446345269680023, -0.10321209579706192, -0.34878474473953247, -0.6426961421966553], [-0.3672312796115875, 0.16723205149173737, -0.10019024461507797, 0.09505323320627213, 0.7669403553009033, 0.2541080415248871, -0.12216172367334366, 0.4025856554508209, -0.14165188372135162, 0.9735398888587952, -0.7146769762039185, 0.8685384392738342, -0.7980135679244995, 0.36742639541625977, 0.3300653100013733, -0.22836633026599884, -0.5404106974601746, 0.3185306489467621, 0.7530239820480347, -0.3217484951019287, -0.4168485999107361, -0.08520614355802536, -0.6810774207115173, 0.43272924423217773, -0.11282441765069962, 0.16136448085308075, -0.13890686631202698, -0.1703072339296341, -0.23189254105091095, -0.04512237384915352, 0.580073893070221, 0.49063095450401306], [0.362473726272583, 0.6112430095672607, -0.7669288516044617, 0.4209456443786621, -0.2572115361690521, -0.2865225076675415, 0.03359008952975273, -0.027806216850876808, -0.3297758102416992, 0.15068058669567108, -0.09158457815647125, 0.13150499761104584, -0.24359887838363647, -0.32868486642837524, 0.180480495095253, 0.40289583802223206, -0.3520779013633728, 0.14906807243824005, 0.0062202089466154575, 0.2954886555671692, 0.36984843015670776, -0.22788375616073608, 0.1099996417760849, -0.378628671169281, -0.07561986148357391, 0.3645048439502716, 0.1759117990732193, -0.13134409487247467, -0.4419424831867218, 0.3578183352947235, -0.014278295449912548, 0.2663716673851013], [-0.48444676399230957, -0.3828548789024353, -0.11735167354345322, -0.5366549491882324, -0.2029111683368683, 0.15312646329402924, 0.3178076148033142, -0.05112885683774948, 0.4089280068874359, -0.3261529207229614, -0.6049211025238037, 0.06805361807346344, 0.16472584009170532, 0.03557456657290459, -0.4587351381778717, 0.46459147334098816, -0.16573907434940338, 0.8418108820915222, -0.38722488284111023, 0.302389532327652, -0.2775435149669647, 0.571475088596344, 0.24028286337852478, 0.41367626190185547, 0.07237940281629562, 0.021693188697099686, 0.05373935401439667, -0.1304890215396881, -0.011245975270867348, 0.061590734869241714, 0.034261856228113174, 0.1927722841501236], [-0.34551671147346497, -0.18338826298713684, 0.6252976059913635, -0.5038033127784729, 0.40436840057373047, 0.01462658029049635, -0.44500216841697693, -0.05236908420920372, -0.030549561604857445, -0.30729764699935913, -0.519147515296936, 0.34552302956581116, 0.11213003844022751, 0.5492070913314819, 0.4179008901119232, 0.3477594554424286, -0.0234442837536335, -0.23180490732192993, -0.06191367655992508, -0.5730493664741516, -0.5968230962753296, 0.3489072322845459, -0.1157723218202591, -0.4611783027648926, -0.4280792474746704, 0.34217262268066406, -0.031733326613903046, 0.02907133661210537, 0.23320826888084412, 0.4085644781589508, 0.16735461354255676, 0.19948852062225342], [-0.6505782008171082, 0.44697993993759155, 0.1996138095855713, -0.2380191832780838, 0.8044040203094482, -0.11075367033481598, -0.1277688592672348, -0.016291862353682518, 0.49027758836746216, -0.07362513244152069, -0.909954845905304, 0.9991172552108765, 0.3148650527000427, 0.49523574113845825, 0.605884850025177, -0.09753850847482681, 0.37108418345451355, 0.47761183977127075, -0.18969905376434326, -0.7410041093826294, 0.04417828842997551, -0.12366052716970444, 0.3337559401988983, -0.5626294612884521, -0.4619394838809967, -0.8382648825645447, -0.35725894570350647, -0.07987242192029953, -0.26604774594306946, -0.8370824456214905, -0.2725752592086792, -0.5204449892044067], [-0.44504082202911377, -0.06991707533597946, -0.07968483120203018, -0.08494556695222855, -0.1991649568080902, -0.08653616160154343, 0.09348218888044357, 0.45591193437576294, -0.08255748450756073, 0.48961248993873596, -0.10622891038656235, 1.044127345085144, 0.04059550538659096, 0.7649831175804138, 0.09110981225967407, 0.7030164003372192, -0.37625178694725037, 0.28534916043281555, -0.32111141085624695, -0.7764379382133484, 0.4489286243915558, -0.30965301394462585, 0.12811103463172913, -0.5774036049842834, 0.08473869413137436, -0.2527250349521637, -0.4075886905193329, 0.4379178285598755, 0.6003361344337463, -0.8306605219841003, -0.03340950608253479, -0.5735620260238647], [-0.6053204536437988, -0.39877641201019287, -0.20074833929538727, -0.7024070024490356, -0.13849957287311554, -0.10794130712747574, 0.6476078629493713, 0.13500019907951355, 0.19817787408828735, 0.16084076464176178, -0.3170226514339447, 1.1057683229446411, -0.5657334327697754, 0.23142142593860626, 0.9653633236885071, 0.43998897075653076, -0.04477863758802414, 0.15861457586288452, 0.7395704388618469, 0.011034407652914524, -0.17881014943122864, -0.3994174897670746, -0.44443073868751526, 0.2671378254890442, -0.6293907761573792, -0.14532771706581116, -0.7653307318687439, 0.1931409388780594, 0.3945460915565491, -0.34065932035446167, -0.3118293881416321, -0.47651681303977966], [-0.5342305302619934, -0.03373019024729729, -0.04453723877668381, 0.016417963430285454, 0.10167207568883896, 0.14496122300624847, -0.009808657690882683, -0.44163790345191956, -0.05692113935947418, -0.35671481490135193, 0.24169909954071045, -0.17756447196006775, 0.28838226199150085, -0.39513513445854187, -0.17309409379959106, -0.1043446809053421, 0.2641136646270752, -0.4194868505001068, -0.36644789576530457, -0.5604099035263062, -0.026100292801856995, 0.5074241161346436, 0.0444851815700531, 0.2532195448875427, 0.12171675264835358, 0.022371526807546616, 0.3070262670516968, 0.3077112138271332, 0.20300514996051788, 0.2668306231498718, 0.2760055661201477, 0.4242837131023407], [0.3125252425670624, 0.4808785319328308, 0.006858163047581911, 0.3060370683670044, 0.6114235520362854, 0.1506330817937851, 0.5000412464141846, 0.027810897678136826, -0.8279414772987366, -0.051489878445863724, -0.6394653916358948, 0.07282958924770355, -0.2822967767715454, 0.8866717219352722, 0.181330606341362, -0.5189739465713501, 1.0685306787490845, 0.5990541577339172, -0.6621021628379822, 0.875930666923523, -0.1524711698293686, 0.04282093420624733, -0.1444556564092636, -0.4528525173664093, -0.2076050192117691, -0.055968306958675385, -0.6144323945045471, -0.0971272811293602, 0.4885113537311554, -0.8956591486930847, -0.18273000419139862, -0.3342615067958832], [-0.2863534390926361, 0.9104761481285095, 0.5449913740158081, -0.10198269039392471, 0.04035824537277222, 0.2526662349700928, -0.6086405515670776, 0.5570491552352905, 0.5437493920326233, -0.030725965276360512, -0.04743395373225212, -0.034975890070199966, -0.33545124530792236, 0.41916170716285706, -0.013869051821529865, -0.4624539017677307, 0.3768872916698456, 0.6569846272468567, 0.16150249540805817, -0.5982338190078735, -0.3311566710472107, 0.3967403173446655, -0.5345698595046997, -0.4643964469432831, 0.19767358899116516, 0.16203562915325165, -0.513276219367981, 0.03241731598973274, 0.34020164608955383, -0.78223717212677, -0.30468371510505676, -0.796484649181366], [0.5873416066169739, 0.0499570332467556, -0.0488186813890934, -0.021873988211154938, 0.5267382264137268, -0.3049505352973938, -0.25188198685646057, -0.2948254644870758, -0.6228043437004089, -0.09694845229387283, -0.07443069666624069, 0.20483355224132538, -0.3074790835380554, -0.03745952993631363, -0.4936397969722748, -0.5409515500068665, 0.3732283115386963, 0.9322371482849121, -0.20670302212238312, -0.5817847847938538, -0.1974894255399704, 0.1244228258728981, 0.4574509263038635, 0.8334226608276367, -0.4323444068431854, -0.6784947514533997, -0.19768479466438293, 0.32898664474487305, 0.3140231668949127, 0.1709449291229248, -0.4057793915271759, -0.3245375454425812], [-0.3793100118637085, 0.12381398677825928, 0.4555409848690033, 0.6050953269004822, -0.26104727387428284, -0.6249508261680603, -0.22889192402362823, -0.14779670536518097, -0.821799099445343, 0.8564165830612183, -0.30102425813674927, 0.16318964958190918, 0.04558409005403519, 0.17784513533115387, -0.07786019146442413, -0.30557283759117126, -0.07322069257497787, 1.0514627695083618, 0.223446324467659, -0.32108038663864136, -0.26462557911872864, -0.35379114747047424, -0.6754884123802185, 0.5149258375167847, 0.3494957983493805, 0.4172700047492981, -0.020853132009506226, 0.0942147821187973, 0.4954157769680023, 0.1390417367219925, -0.22429119050502777, -1.338777780532837], [-0.3863881528377533, 0.6638972759246826, 0.29369616508483887, -0.1336016058921814, 0.5757623910903931, -0.5228177905082703, -0.1548917442560196, 0.6039806604385376, 0.31059640645980835, -0.2231905460357666, -0.3473314642906189, -0.028690636157989502, -0.05663689598441124, 0.6078754663467407, -0.48322030901908875, -0.8759543299674988, -0.10387593507766724, 0.8725524544715881, -0.1449282318353653, -0.050732992589473724, -0.01291621569544077, -0.3689272403717041, -0.20071448385715485, 0.4742206037044525, -0.7727101445198059, 0.005546404980123043, 0.3355069160461426, -0.3630032241344452, 0.3188478946685791, -0.4908674657344818, -0.5151681303977966, -1.0697942972183228], [0.6416776180267334, -0.3687325417995453, -0.35591256618499756, -0.19638699293136597, -0.1873052567243576, 0.39133772253990173, 0.3342321813106537, 0.23676782846450806, -0.18322603404521942, 0.014327386394143105, 0.23228156566619873, -0.3594374358654022, 0.21253405511379242, 0.2939828038215637, -0.22016797959804535, 0.12526555359363556, -0.34187051653862, -0.12660028040409088, 0.08470992743968964, 0.2882707417011261, 0.24735437333583832, 0.4448912441730499, 0.2540700435638428, -0.24192413687705994, 0.14970029890537262, -0.6016128659248352, -0.17432400584220886, 0.10687396675348282, -0.19844399392604828, 0.11526286602020264, -0.20193247497081757, -0.3610944449901581], [-0.054757487028837204, 0.354336678981781, 0.2940995991230011, -0.39362820982933044, -0.2266061007976532, -0.4553650915622711, -0.49233144521713257, 0.47286370396614075, -0.39140838384628296, -0.26043668389320374, 0.04888405650854111, -0.07353584468364716, -0.15512047708034515, 0.17331482470035553, -0.27907463908195496, -0.49496954679489136, 0.377930611371994, -0.03227910026907921, -0.05628066882491112, 0.44226378202438354, -0.45905372500419617, -0.439531534910202, 0.3743578791618347, 0.5639511346817017, -0.032640352845191956, 0.22464168071746826, -0.2773956060409546, -0.11628525704145432, 0.041682131588459015, 0.2391737699508667, 0.09341501444578171, 0.2694999575614929], [0.2971916198730469, 0.19169171154499054, -0.2728773355484009, 0.07401832938194275, 0.5219278931617737, -0.7072044610977173, -0.7357321977615356, -0.21101048588752747, -0.9388730525970459, 1.262544870376587, -0.30715078115463257, -0.013197224587202072, 0.3343265652656555, 0.6336729526519775, -0.4789297580718994, 0.16133081912994385, 0.16924609243869781, 0.5470619797706604, 0.5232892036437988, 0.08540816605091095, -0.3872750699520111, 0.3575647473335266, -0.04290425777435303, 0.8134382963180542, -0.32246190309524536, -0.2808348536491394, 0.5002949237823486, 0.4129672050476074, -0.45026037096977234, 0.3811749517917633, -0.1552119255065918, 0.2330022156238556], [-0.8303678035736084, -0.6279011368751526, -0.008924545720219612, -0.3206702470779419, 0.2688344419002533, -0.5023376941680908, -0.0507812537252903, 0.03483716398477554, -0.403633713722229, 0.7777076959609985, -0.5933600664138794, -0.1488933265209198, -0.016015736386179924, 0.016747018322348595, 0.33096200227737427, -0.16658882796764374, 0.9600284695625305, 0.10532595217227936, 0.18238359689712524, 0.6305484771728516, -0.2417484074831009, -0.5372297763824463, -0.12334012985229492, -0.5364854335784912, 0.1926782876253128, 0.044368449598550797, 0.8415893912315369, 0.8186032176017761, 0.12953336536884308, -0.40067383646965027, -0.7563847899436951, 0.19480803608894348], [0.3144400119781494, 0.37008634209632874, -0.021627845242619514, 0.1624394804239273, -0.29784175753593445, -0.18003736436367035, 0.004319466650485992, 0.4850634038448334, -0.5429535508155823, 0.39639392495155334, -0.03262011706829071, 0.4923304319381714, -0.2791540026664734, -0.09464617073535919, 0.476518839597702, 0.12640950083732605, -0.02141423150897026, -0.12436224520206451, 0.6025028228759766, 0.2553907334804535, -0.02404431626200676, -0.08029762655496597, 0.3997071385383606, -0.3098026216030121, 0.27997690439224243, 0.3405258357524872, -0.2189650982618332, -0.30434688925743103, -0.4697873890399933, 0.9176449775695801, -0.004759605973958969, 0.4337174594402313], [0.05773846432566643, -0.0058563267812132835, -0.41244977712631226, 0.005496696103364229, 0.36191022396087646, -0.5493253469467163, -0.2783345580101013, 0.8960448503494263, 0.2646777927875519, 0.7356504797935486, -0.7014336585998535, -0.05098177120089531, 0.3167877197265625, 0.010091898031532764, 0.4506496489048004, 0.11352517455816269, 0.12335168570280075, 0.3389793336391449, 0.3779277503490448, -0.15822972357273102, -0.07614875584840775, -0.42824721336364746, -0.3340873122215271, -0.28053978085517883, 0.6837592124938965, -0.8993238210678101, -0.3299287259578705, 0.4208466708660126, 0.1598036140203476, -0.11477675288915634, 0.17322614789009094, 0.5872321128845215], [-0.24098274111747742, -0.19834864139556885, -0.18299783766269684, -0.6231100559234619, 0.18073689937591553, -0.09404902160167694, -0.9607861042022705, -0.10135187953710556, -0.07112455368041992, 0.17248812317848206, -0.8996614217758179, 0.6133211851119995, 0.48749834299087524, 0.5976101756095886, -0.5210830569267273, 0.6197875738143921, 0.3906688094139099, 0.7965715527534485, 0.7597000002861023, 0.12233591824769974, -0.39460232853889465, -0.06549232453107834, 0.31854844093322754, 0.31073296070098877, -0.3625051975250244, 0.3753809928894043, -0.481219083070755, 0.230414479970932, 0.10720745474100113, -0.5887856483459473, -0.7344218492507935, 0.048824891448020935], [-0.31772884726524353, -0.11720522493124008, 0.3661206066608429, -0.07908688485622406, 0.4236500859260559, 0.07723309099674225, 0.25598517060279846, -0.0597570575773716, -0.17234309017658234, 1.0323282480239868, -0.6194913387298584, 0.37776124477386475, 0.31585821509361267, 0.6951133608818054, 0.6745644807815552, -0.5740534067153931, 0.7308943271636963, 0.5258077383041382, 0.7503021955490112, 0.12230890244245529, -0.7152114510536194, 0.21875067055225372, -0.15186643600463867, -0.4037816822528839, -0.1461024135351181, -0.8360181450843811, -0.4871004521846771, 0.4791521430015564, -0.03575824201107025, 0.1594044417142868, -0.398434579372406, -0.5632249116897583], [0.04909593611955643, -0.2511058449745178, 0.34853413701057434, 0.34387093782424927, 0.559805691242218, 0.18690678477287292, -0.8369333148002625, 0.2699422836303711, -0.5830504298210144, 0.5741912722587585, -0.578472375869751, 1.344218134880066, 0.2810082733631134, -0.31330105662345886, -0.07714228332042694, -0.3936624825000763, 0.25672632455825806, -0.05689268559217453, -0.12737515568733215, -0.06912964582443237, 0.5203174948692322, -0.3875827491283417, -0.5914945006370544, 0.28625839948654175, -0.5438882112503052, 0.5581297278404236, 0.217657670378685, -0.6885226368904114, 0.23907054960727692, -0.5167198181152344, -0.7025477886199951, 0.1758580058813095], [-0.5066580772399902, 0.38836464285850525, 0.6368665099143982, 0.40854910016059875, 1.208288550376892, -0.0041911606676876545, -0.778333306312561, 0.30240774154663086, -0.8116403818130493, 0.0918608158826828, -0.8841674327850342, 0.2345694601535797, -0.21804505586624146, 0.5833469033241272, 0.3840988576412201, -0.6935675740242004, 0.44484132528305054, 0.4383285939693451, 0.04325268045067787, -0.42734378576278687, 1.0029072761535645, -0.1788250058889389, 0.3074970245361328, -0.20987285673618317, 0.17006155848503113, 0.08737282454967499, 0.24897365272045135, -0.038294579833745956, -0.46986833214759827, -0.16096436977386475, 0.099152572453022, 0.009832705371081829], [-0.5174608826637268, -0.5039973855018616, 0.43836483359336853, -0.022147078067064285, -0.2541806399822235, -0.28155896067619324, -0.014691075310111046, 0.07307852804660797, 0.0017325379885733128, 0.8374786972999573, -0.7457416653633118, 0.009125065058469772, 0.22774948179721832, 0.7831323146820068, 0.005645882338285446, 0.1978982388973236, 0.9954831004142761, 0.3338688910007477, 0.21253223717212677, 0.23699897527694702, 0.3094833195209503, -0.3269472122192383, -0.8530675172805786, 0.3124348223209381, -0.4054798483848572, -0.07842393219470978, -0.8895120620727539, 0.48709845542907715, 0.30936554074287415, 0.15954628586769104, -0.3242475986480713, -0.2928968369960785], [-0.03041171468794346, -0.4969843029975891, -0.4623691141605377, -0.5840016007423401, 0.04865243658423424, 0.10647401213645935, -0.26506248116493225, -0.16416527330875397, -0.6890653967857361, 0.6576470732688904, -0.6872543692588806, 0.5792646408081055, 0.39049339294433594, 0.3143573999404907, 0.8083470463752747, -0.15774013102054596, 0.2565540075302124, 0.4296189844608307, 0.7063308954238892, -0.5124094486236572, 0.02210172265768051, -0.346901535987854, -0.33558496832847595, -0.06689144670963287, -0.7040942311286926, 0.03311813995242119, 0.36717545986175537, 0.5428001880645752, 0.13441947102546692, 0.12571601569652557, -0.11801218241453171, -0.06279654055833817], [0.19371835887432098, -0.3251749575138092, 0.19648030400276184, -0.7095332741737366, 0.31613659858703613, 0.012436684221029282, -0.1424603909254074, -0.13791459798812866, 0.08239792287349701, -0.1427210122346878, -0.21876542270183563, -0.24599431455135345, 0.345957487821579, 0.4414198100566864, 0.2644160985946655, 0.4689299166202545, -0.035026438534259796, -0.2878808081150055, -0.0729241892695427, -0.48647230863571167, 0.10817363858222961, 0.25576624274253845, -0.11605840921401978, -0.5785704851150513, -0.40153974294662476, 0.5436608195304871, -0.528205156326294, -0.511570155620575, 0.24925711750984192, 0.5230634212493896, -0.007236568257212639, 0.23590520024299622], [0.25611743330955505, 0.04922471567988396, -0.5400142073631287, 0.7047065496444702, -0.1387065201997757, -0.37516534328460693, -0.16969873011112213, 0.34713321924209595, -0.5342518091201782, 0.7444939613342285, -0.8747613430023193, -0.7854755520820618, 0.8244733810424805, -0.2909117639064789, 0.7338834404945374, -0.42661017179489136, 0.22187617421150208, 0.2699402868747711, -0.134925976395607, 0.11553613841533661, -0.12858106195926666, 0.12724685668945312, 0.570957601070404, 0.061833158135414124, 0.21609972417354584, 0.4055122137069702, 0.1444835364818573, -0.21765391528606415, 0.5999706983566284, -0.3297147750854492, -0.7743934392929077, -0.36499810218811035], [-0.23108932375907898, -0.0832226499915123, -0.13234364986419678, -0.4075968861579895, -0.28229987621307373, 0.34143543243408203, -0.5713146328926086, -0.1151748076081276, -0.4441198408603668, -0.12350504845380783, 0.3965347409248352, 0.5660045146942139, 0.36745962500572205, -0.17055769264698029, 0.2993434965610504, 0.4853751063346863, 0.16048549115657806, 0.019879331812262535, 0.038584474474191666, -0.21937602758407593, -0.5974317193031311, 0.20746560394763947, -0.37389761209487915, 0.6007286310195923, 0.021935168653726578, 0.08616258949041367, -0.28090450167655945, 0.31514087319374084, -0.20552460849285126, 0.3349483609199524, -0.2886294722557068, 0.032618921250104904], [-1.0894486904144287, -0.19340546429157257, -0.421661376953125, -0.05108959972858429, -0.49823033809661865, 0.48464837670326233, -0.6738271117210388, 0.7207691669464111, -0.14325463771820068, 0.594818115234375, -1.0686653852462769, 0.7788118124008179, -0.40775349736213684, 0.571725070476532, -0.0608116090297699, -0.04899822175502777, 0.9231890439987183, 0.32798680663108826, 0.15885689854621887, -0.39768800139427185, 0.01329866610467434, -0.37345167994499207, 0.29177507758140564, 0.15132585167884827, 0.5736901164054871, -0.39531946182250977, 0.5951653122901917, 0.1292891800403595, -0.06019115820527077, -0.17073926329612732, 0.17974120378494263, -0.9100792407989502], [-0.942018449306488, 0.30397534370422363, 0.5001960396766663, -0.16981832683086395, -0.09736573696136475, 0.4802415370941162, -0.6040166616439819, 0.5863872766494751, 0.36967626214027405, 0.9060810208320618, 0.14177142083644867, 0.48143666982650757, -0.27820590138435364, -0.10458146780729294, 0.16512808203697205, -0.8643973469734192, 0.7021312713623047, 0.20463930070400238, 0.5510745048522949, -0.5363650321960449, 0.1845850646495819, -0.0651225596666336, -0.5864331722259521, 0.8192612528800964, 0.44210320711135864, -0.5292532444000244, -0.6052165627479553, 0.19824014604091644, 0.08283167332410812, 0.04590534791350365, -0.4556557238101959, -0.3608343005180359], [-0.3399856686592102, 0.6522930264472961, 0.05579528585076332, 0.22562135756015778, 0.16162481904029846, 0.20632818341255188, 0.049471672624349594, 0.48417460918426514, -0.859564483165741, 0.30775246024131775, -1.0988472700119019, 0.7360507249832153, -0.02803150936961174, 0.6933344006538391, 0.002732641762122512, 0.4376296103000641, 0.3708297908306122, -0.10787427425384521, 0.6157379150390625, -0.7248852849006653, -0.355180948972702, -0.3950112462043762, -0.07580737769603729, 0.2299351692199707, -0.2023051232099533, 0.10258537530899048, 0.15129882097244263, 0.43430963158607483, 0.09544958174228668, 0.4567069709300995, 0.05072584003210068, -1.1476248502731323], [0.23133130371570587, -0.2933102250099182, -0.3755324184894562, -0.12778009474277496, 0.23894840478897095, -0.5767132043838501, -0.6160622239112854, 0.3240399658679962, -1.0642880201339722, -0.10960958153009415, -0.7048835158348083, 0.13535267114639282, -0.6445049047470093, -0.08771846443414688, 0.10214216262102127, 0.5934945940971375, 0.9497387409210205, 0.7639152407646179, 0.502685546875, 0.12011631578207016, 0.36801403760910034, 0.03598344698548317, -0.3748137354850769, -0.07303441315889359, -0.18466529250144958, -0.1508985161781311, 0.6432054042816162, 0.5123440623283386, 0.49868640303611755, -1.0874534845352173, -0.23491837084293365, 0.06045922264456749], [0.02571464329957962, 0.4153417646884918, -0.38311949372291565, 0.019947148859500885, -0.2952207028865814, -0.2944161891937256, -0.14405083656311035, 0.18667438626289368, -0.13050219416618347, 0.15585657954216003, -0.05493098497390747, 0.4804231822490692, -0.09994974732398987, -0.24833540618419647, -0.005789291113615036, 0.31846627593040466, -0.24375230073928833, 0.1262543499469757, -0.11929193139076233, 0.16964291036128998, 0.2639930844306946, -0.18526221811771393, 0.1391219049692154, -0.2721501886844635, 0.06723229587078094, 0.0768788531422615, -0.14988063275814056, -0.2845095694065094, -0.3230605125427246, 0.11887095868587494, -0.16995348036289215, 0.2250717580318451], [0.5341998934745789, 0.5501514077186584, -0.09047645330429077, -0.3140126168727875, 0.7405092120170593, 0.014634818769991398, 0.24709461629390717, 0.3017306923866272, 0.3185536563396454, -0.17938567698001862, -0.6255761981010437, -0.3809676468372345, -0.9584821462631226, -0.20072512328624725, 0.3681465983390808, -0.5705604553222656, 0.7224714756011963, 0.18575316667556763, 0.7945310473442078, 0.35940244793891907, -0.5860785841941833, -0.12575647234916687, -0.1813025027513504, -0.05693906918168068, 0.44588083028793335, -0.07633837312459946, -0.7382795810699463, -0.3176869750022888, -0.44227010011672974, -0.08812788873910904, -0.19202826917171478, -0.4358948767185211], [0.06458480656147003, 0.23778438568115234, -0.06937095522880554, -0.6601794958114624, 0.550601601600647, -0.2294745296239853, -0.7413694262504578, 0.21838277578353882, 0.5307590961456299, 0.46443355083465576, -1.3551928997039795, 0.027903074398636818, -0.6015158891677856, 0.26075479388237, -0.49480023980140686, 0.4710099399089813, -0.5892871618270874, 0.4024726152420044, 0.6873562335968018, 0.7027036547660828, -0.023537665605545044, 0.22088468074798584, -0.37473809719085693, 1.1798518896102905, 0.4739956259727478, -0.48560020327568054, 0.4577251970767975, 0.01820574700832367, -0.9006789326667786, 0.3307556211948395, -0.14015209674835205, -0.7107023000717163], [-0.09452950209379196, 0.5658435225486755, -0.36646154522895813, -0.38906440138816833, 0.693483829498291, 0.20461967587471008, 0.5176842212677002, -0.43188661336898804, 0.5509776473045349, 0.4701795279979706, -0.4513818025588989, 0.8785768151283264, 0.13823527097702026, -0.3956698775291443, 0.8291910290718079, -0.11359380930662155, -0.3374171257019043, 0.12954145669937134, 0.13846644759178162, -0.6372153162956238, 0.5116913914680481, -0.3547866940498352, -0.4835089445114136, -0.14478233456611633, 0.6169609427452087, -0.3217974603176117, -0.7694391012191772, 0.6455327868461609, -0.4855839014053345, -0.15692919492721558, 0.1482011079788208, -0.8992932438850403], [-0.2202841341495514, 0.6800205707550049, 0.5625124573707581, 0.4679502248764038, 0.18168500065803528, 0.42756387591362, -0.5234972834587097, -0.45594456791877747, 0.06145578622817993, -0.03038204275071621, -0.6670924425125122, -0.478706419467926, 0.028328677639365196, -0.31218215823173523, -0.3162834942340851, -0.008021403104066849, -0.6227036118507385, 0.4942583739757538, 0.3977135717868805, -0.10489685088396072, -0.44597479701042175, 0.48811978101730347, -0.28380027413368225, 0.5306376814842224, 0.12123305350542068, -0.19139274954795837, 0.2582671046257019, 0.25304144620895386, 0.019214177504181862, 0.2015899270772934, -0.2983146607875824, -0.3523188829421997], [0.27339380979537964, -0.6109805107116699, 0.2938607633113861, -0.3520960211753845, 0.6332257986068726, -0.8462823629379272, 0.10906641185283661, 0.9482577443122864, 0.056697964668273926, 0.11313833296298981, -1.1163907051086426, 0.07573646306991577, -0.10740754753351212, 0.5868715047836304, 0.5458956360816956, -0.4900449216365814, -0.01639924943447113, -0.0957210510969162, 0.02226473018527031, -0.2772551476955414, 0.9417508244514465, 0.28939422965049744, 0.18383660912513733, 0.7186722755432129, 0.5067490339279175, 0.33465325832366943, 0.6386358141899109, -0.5682922005653381, -0.28907838463783264, -0.09475740790367126, 0.436939001083374, 0.2812456488609314], [-0.04689668491482735, -0.09017182886600494, 0.012089711613953114, 0.4643155038356781, 0.42647451162338257, -1.1411687135696411, 0.3314387798309326, -0.06844417005777359, -1.0012009143829346, -0.5385218858718872, 0.03742532804608345, 0.8164806365966797, 0.6359376907348633, 0.09604430943727493, 0.3382323980331421, -0.029994932934641838, 0.4433097839355469, 0.8120964765548706, 0.3717614412307739, -0.402332067489624, 0.4061462879180908, 0.5216560959815979, -0.1555188149213791, 0.677442729473114, -0.19590146839618683, 0.14645767211914062, 0.11149375140666962, -0.5528955459594727, -0.10920718312263489, -0.37809714674949646, 0.15559783577919006, 0.05181899294257164], [-0.052771203219890594, 0.3521236181259155, -0.6503527760505676, 0.10819374024868011, 0.6893551349639893, -0.145695298910141, -0.39022424817085266, -0.08532757312059402, 0.6103386282920837, 0.5763018727302551, 0.007717022206634283, 0.7042976021766663, 0.18098598718643188, 0.5087059140205383, 0.19158126413822174, 0.9821224212646484, -0.29387176036834717, 0.6434135437011719, 0.9167647957801819, -0.6159555912017822, -0.5673104524612427, -0.08283089101314545, 0.5112385749816895, -0.25328901410102844, 0.09421133995056152, -0.5789702534675598, -0.017077071592211723, -0.060023944824934006, -0.4455426335334778, -0.26302826404571533, 0.27917924523353577, -0.6958413124084473], [0.10295771807432175, -0.09929390996694565, -0.38883161544799805, 0.07151847332715988, -0.42748910188674927, -0.32389572262763977, 0.00423058494925499, 0.7111698985099792, -0.4884599447250366, 0.3102855086326599, -0.984362781047821, 0.35869351029396057, 0.09033326804637909, 0.7483649849891663, 0.5206851363182068, 0.8659451603889465, 0.4073777198791504, 0.42307618260383606, -0.38085877895355225, -0.6394051313400269, -0.5849031805992126, 0.20823539793491364, 0.059998683631420135, 0.1821814328432083, 0.6025534868240356, -0.38028374314308167, 0.17191091179847717, 0.42673733830451965, 0.08110660314559937, 0.35219746828079224, -0.21449945867061615, -0.5439023375511169], [0.3131081163883209, -0.3073253333568573, 0.5712631940841675, 0.7026844620704651, -0.11067826300859451, -0.30437639355659485, 0.2116164118051529, 0.5957132577896118, -0.7654726505279541, -0.3913736939430237, -1.2003719806671143, 0.6411489248275757, -0.18494123220443726, 0.38877516984939575, -0.5362887382507324, 0.6319640278816223, -0.028920607641339302, 0.6543617844581604, -0.04615265130996704, 0.04674861952662468, 0.36262065172195435, -0.029972027987241745, -0.7488135099411011, -0.15232409536838531, -0.24762991070747375, -0.21713724732398987, 0.07207091152667999, 0.19139260053634644, 0.4665566086769104, -0.6746531128883362, 0.1408049464225769, -0.3532885015010834], [-0.5366370677947998, 0.3147209584712982, 0.23993948101997375, -0.5909074544906616, -0.13836278021335602, 0.10678237676620483, -0.8226656317710876, 0.5587351322174072, 0.5966464281082153, -0.33916616439819336, -1.015568494796753, 0.7616430521011353, -0.052412889897823334, -0.2787748873233795, 0.35340023040771484, -0.012325513176620007, -0.18539771437644958, 0.9639433026313782, 0.2643164098262787, -0.16094385087490082, 0.23772378265857697, -0.5110412240028381, -0.04425780475139618, -0.07601742446422577, 0.37482544779777527, -1.0636205673217773, -0.3151884973049164, 0.46474021673202515, -0.3075975477695465, 0.4095081686973572, -0.17134881019592285, -0.37931132316589355], [0.23841620981693268, 0.03769480437040329, -0.692948579788208, 0.24989746510982513, -0.40456101298332214, 0.0912124365568161, -0.39768528938293457, 0.49251705408096313, 0.0064865220338106155, 0.6694639325141907, 0.2790907323360443, 0.8270164728164673, -0.05499928444623947, 0.07795572280883789, 0.12332908064126968, 0.4358135759830475, -0.11105303466320038, 0.23032556474208832, -0.43879085779190063, 0.09158299118280411, 0.36023908853530884, -0.2539116442203522, 0.28231555223464966, -0.21394917368888855, -0.443158358335495, -0.0854979008436203, 0.24872933328151703, -0.19767902791500092, -0.39543744921684265, 0.42931675910949707, 0.0066816131584346294, 0.33900880813598633], [0.33837276697158813, 0.10124382376670837, 0.05745679512619972, 0.34017905592918396, -0.015170416794717312, 0.3636949062347412, -0.7689464092254639, -0.35507676005363464, -0.8021795749664307, 1.185953140258789, -0.701698899269104, 0.34880170226097107, 0.48700156807899475, -0.055435050278902054, 0.2238026112318039, 0.1253131479024887, -0.14704973995685577, 0.7225245237350464, -0.28438666462898254, -0.16256532073020935, -0.0966498926281929, 0.4486697018146515, -0.762569785118103, 0.002572926925495267, 0.17542824149131775, -0.37574848532676697, -0.37485477328300476, 0.22939728200435638, 0.08531481772661209, -0.42644715309143066, -0.1165083646774292, 0.06541500240564346], [-0.09145618975162506, 0.258188933134079, -0.2779177129268646, 0.24160601198673248, -0.1695397049188614, -0.3650582432746887, 0.2143971174955368, 0.923183262348175, -0.4447542130947113, -0.3194155693054199, -0.10334065556526184, -0.08906765282154083, -0.1263396292924881, 0.08074112236499786, -0.11028384417295456, -0.4356946349143982, 0.0023186129983514547, 0.6888986825942993, 0.8872007727622986, 0.16149893403053284, 0.031712885946035385, 0.3234025537967682, -1.03721284866333, 0.3566378653049469, -0.6164941787719727, 0.1501658707857132, 0.1856972724199295, 0.732130765914917, 0.4648253917694092, 0.4700264036655426, -0.9095985293388367, 0.15271222591400146], [-0.30952712893486023, -0.1565646380186081, 0.7731218934059143, -0.16775228083133698, 0.22826269268989563, -0.6862924695014954, 0.3601626455783844, 1.3253542184829712, 0.24993939697742462, 0.18585827946662903, -0.194618359208107, 0.0736885517835617, 0.27823126316070557, -0.08310356736183167, 0.4070953130722046, 0.14450198411941528, 0.34192219376564026, 0.07492710649967194, 0.1576482206583023, -0.4089868664741516, -0.2894780933856964, 0.6980974078178406, -0.9328468441963196, -0.07992367446422577, 0.036649301648139954, -0.08278659731149673, -0.032754912972450256, -0.46724382042884827, 0.2608974277973175, -0.634421706199646, -0.7028632164001465, 0.1530664712190628], [-0.8784233331680298, -0.07348544895648956, 0.5649514198303223, 0.48360443115234375, -0.18926839530467987, 0.21900202333927155, -0.5254713296890259, 0.7490246891975403, 0.10508706420660019, 0.8136743307113647, -0.3082258403301239, 0.12064085900783539, -0.3500584363937378, 0.5556091070175171, 0.4453812837600708, -0.029642589390277863, -0.31079113483428955, 0.2217659205198288, 0.21498478949069977, -0.5616009831428528, -0.37604665756225586, 0.32544562220573425, -0.8487827777862549, -0.10092576593160629, -0.09103866666555405, -0.158828467130661, 0.1978408247232437, -0.3286678194999695, 0.13797715306282043, 0.3062014579772949, -0.6024694442749023, 0.15940722823143005], [0.013656598515808582, 0.08251863718032837, 0.8016071319580078, 0.3551230728626251, 0.6632654070854187, -0.5468478202819824, -0.8720826506614685, 0.3194117546081543, -0.684334397315979, 0.513373613357544, -0.5638041496276855, 0.603041410446167, -0.42196083068847656, 0.9085810780525208, -0.23543857038021088, 0.20098768174648285, 0.6412442922592163, 0.29384902119636536, -0.05746925249695778, -0.5284883379936218, 0.14948073029518127, -0.024190297350287437, -0.599714457988739, -0.4173416793346405, -0.7278538942337036, -0.14948028326034546, 0.599305272102356, 0.3549315333366394, -0.6189475059509277, 0.013286768458783627, 0.39317893981933594, 0.13338543474674225], [0.5534654259681702, 0.2826838195323944, 0.14213335514068604, -0.2656024098396301, 0.5078049898147583, -0.23754443228244781, -0.02076532691717148, 0.02332833968102932, -0.7112403512001038, 0.6116207242012024, 0.12222196161746979, -0.24942675232887268, -0.22925175726413727, -0.287027508020401, -0.38683152198791504, 0.12688499689102173, -0.13251787424087524, 1.0181078910827637, 0.23167109489440918, -0.4823642373085022, -0.04083094000816345, 0.31668731570243835, -0.3000018298625946, -0.15053802728652954, -0.5553450584411621, 0.0020502861589193344, -0.1152166947722435, 0.5335772037506104, 0.15267027914524078, -0.5538604855537415, 0.7407278418540955, -0.2585934102535248], [0.15082207322120667, -0.13295619189739227, -0.33027732372283936, 0.1877421736717224, 0.41935408115386963, -0.6966379880905151, -0.10866944491863251, 0.0918811708688736, 0.4658680558204651, 0.12719950079917908, -1.0064743757247925, 0.33717814087867737, 0.2013244479894638, 0.49478116631507874, 0.5653708577156067, -0.21234045922756195, 1.0319757461547852, -0.06701701879501343, 0.5400587916374207, -0.701775312423706, -1.0158698558807373, 0.5095877647399902, -0.38493913412094116, 0.8366522789001465, 0.24325984716415405, 0.21334443986415863, 0.051884353160858154, -0.3287769556045532, -0.8961960673332214, -0.1748802661895752, 0.4220973551273346, 0.017591683194041252], [0.22955940663814545, 0.12988460063934326, 0.17019939422607422, -0.0282845851033926, -0.32149937748908997, 0.39258110523223877, -0.05774197354912758, 0.2763473689556122, 0.04014294221997261, -0.125876784324646, -0.41710981726646423, 0.3044901192188263, 0.7054836750030518, -0.30339476466178894, -0.60079026222229, -0.07425159215927124, 0.5307716131210327, 1.0801081657409668, -0.18225668370723724, -0.15991583466529846, -0.24662332236766815, 0.5317744016647339, -0.5493276715278625, 0.3491610884666443, -0.6959444880485535, -0.14924252033233643, -0.45666074752807617, 0.4597174823284149, -0.0002952577779069543, -1.0197763442993164, -0.146518737077713, 0.14006537199020386], [-0.24879001080989838, 0.5933380722999573, 0.2263973206281662, 0.28761473298072815, -0.2650168240070343, -0.6696609258651733, -0.055373337119817734, 0.05844559893012047, -0.16258704662322998, 0.3162470757961273, -0.21384477615356445, 0.5119643211364746, -0.008476918563246727, -0.11829956620931625, 0.3556739389896393, 0.2703072428703308, -0.030597325414419174, 0.15031030774116516, -0.4599100947380066, 0.18070252239704132, 0.2568804621696472, -0.39574724435806274, 0.2670968174934387, -0.39101868867874146, 0.3450585603713989, 0.04533274099230766, -0.019006263464689255, -0.41288840770721436, -0.3445257246494293, 0.5403276681900024, 0.2242259532213211, 0.1974816918373108], [0.3024400472640991, 0.35368460416793823, 0.6600067019462585, -0.18905656039714813, -0.08339878916740417, 0.1481020748615265, -0.5527358055114746, 0.700156569480896, -0.4142896831035614, 0.9779072999954224, -0.14837324619293213, 0.7556256651878357, 0.13526390492916107, -0.0013360980665311217, -0.36593952775001526, 0.22099871933460236, 0.48901450634002686, 0.4638822078704834, -0.051072463393211365, -0.7589315176010132, -0.3605659604072571, -0.20068609714508057, 0.26420775055885315, -0.31745466589927673, 0.42104601860046387, -0.6518860459327698, -0.4953714609146118, -0.27112653851509094, 0.276142418384552, -0.5979238748550415, 0.526013970375061, 0.3314003646373749], [0.15576359629631042, 0.03217311203479767, 0.4496491849422455, -0.20697304606437683, 0.7443869709968567, 0.5870096683502197, -0.21944905817508698, -0.011030388996005058, -0.49742773175239563, 0.7253480553627014, 0.06911686807870865, -0.03560265526175499, -0.16245967149734497, -0.23603326082229614, -0.4592858850955963, 0.4298122525215149, -0.3063141107559204, -0.17932282388210297, -0.2157450169324875, -0.062050823122262955, -0.41812431812286377, -0.06671183556318283, -0.3295546770095825, 0.17089423537254333, -0.3346201777458191, 0.12706148624420166, -0.3925325870513916, -0.33850154280662537, -0.39974167943000793, -0.17916561663150787, 0.10249336063861847, 0.13830997049808502], [0.05691365525126457, 0.5500509142875671, 0.3511444330215454, -0.17263367772102356, 0.00021639489568769932, 0.2878318130970001, -0.3284997344017029, -0.028440365567803383, -0.4591522216796875, 0.39848044514656067, 0.22598984837532043, -0.05909636989235878, -0.2790815830230713, -0.22827701270580292, -0.2593163251876831, 0.6791793704032898, -0.4658161997795105, -0.045391686260700226, -0.3405669927597046, 0.3609101474285126, -0.010717443190515041, -0.15635986626148224, -0.34747785329818726, 0.06621365249156952, -0.3445383906364441, 0.46838921308517456, -0.21744175255298615, -0.49090129137039185, -0.4564777910709381, -0.548244059085846, 0.43009698390960693, 0.4412558674812317], [-0.16375742852687836, -0.33581531047821045, -0.020294422283768654, -0.3139117956161499, -0.27256089448928833, -0.5532125234603882, 0.3735926151275635, 0.29203394055366516, -0.5022090077400208, 0.43416479229927063, -0.6082798838615417, 0.6200773119926453, 0.6802478432655334, 0.37557095289230347, 0.41597145795822144, 0.0024489019997417927, -0.21468156576156616, 0.7019398808479309, 0.2691144049167633, 0.7865166664123535, 0.19228336215019226, 0.4829764664173126, -1.6277965307235718, 0.3771807551383972, -0.7820237278938293, -0.3228370249271393, -0.3308497369289398, 0.4097721576690674, 0.2291838824748993, -0.5770870447158813, -0.0375484824180603, -0.10290742665529251], [-0.5867461562156677, -0.19091156125068665, 0.24162839353084564, -0.065219946205616, 0.04596114158630371, 0.37453389167785645, -0.5550161004066467, -0.20819096267223358, -0.08050040155649185, -0.4009513258934021, -0.760749876499176, 0.42332911491394043, -0.7406811714172363, -0.012421909719705582, 0.8760713338851929, 0.07806694507598877, 0.18872694671154022, 1.0944008827209473, 0.2501031160354614, 0.32718631625175476, 0.201125830411911, -0.20670205354690552, -0.6087778806686401, 0.15248797833919525, -0.45552483201026917, 0.2314532995223999, 0.20797337591648102, 0.05618187040090561, 0.0921793282032013, 0.5488529801368713, -0.7806894779205322, -0.6357659101486206], [0.1631138026714325, 0.2490393966436386, 0.22150066494941711, -0.3860442042350769, 0.42609789967536926, 0.14180435240268707, -0.5193350315093994, 0.15819017589092255, 0.06504540890455246, -0.13254313170909882, -0.42133522033691406, 0.8862080574035645, 0.018281513825058937, 0.35649165511131287, 0.6804656982421875, -0.6049951910972595, 0.0293568167835474, 0.7314556837081909, 0.4356406033039093, 0.16639050841331482, -0.11668690294027328, -0.16831037402153015, -0.9611808061599731, -0.018888164311647415, -0.9910969734191895, -0.497225821018219, -0.39608052372932434, 0.6514667272567749, -0.18899567425251007, 0.09542002528905869, -0.5109685063362122, 0.3712886869907379], [-0.5222703218460083, -0.346709281206131, 0.15932849049568176, -0.21229809522628784, 0.06118757650256157, -0.6642816662788391, -0.40966084599494934, 0.6904439330101013, -0.5125616192817688, -0.24956640601158142, -0.4584231972694397, -0.07231272757053375, 0.672156035900116, 0.5619102716445923, 0.05094253644347191, 0.5565004348754883, 0.51059490442276, 0.9751802086830139, -0.32934996485710144, 0.32325172424316406, 0.32280656695365906, -0.15687213838100433, -0.9448114633560181, 0.5890982151031494, -0.5207963585853577, 0.06019085645675659, 0.455447793006897, -0.1603301465511322, 0.16915348172187805, 0.22344088554382324, 0.10201951861381531, -0.3815769553184509], [0.13927501440048218, -0.18520613014698029, 0.25381532311439514, -0.48656925559043884, 0.32481640577316284, -0.005674468819051981, -0.3314359188079834, -0.22220323979854584, -0.14464882016181946, -0.15004375576972961, -0.3125753402709961, -0.1043524295091629, 0.21804510056972504, 0.5054664611816406, 0.29623478651046753, 0.38673821091651917, 0.04376789554953575, -0.2644720673561096, -0.1567791849374771, -0.3611562252044678, -0.2297990471124649, 0.0336657352745533, -0.20337343215942383, -0.41548871994018555, -0.1723875105381012, 0.3235076069831848, -0.002569762757048011, 0.0037195992190390825, 0.17291313409805298, 0.19204743206501007, 0.25657182931900024, 0.14113791286945343], [-0.5098977088928223, -0.1582372635602951, -0.3467765152454376, 0.34834542870521545, 0.15496262907981873, -0.06393231451511383, -0.7311056852340698, 0.2275339663028717, -0.6756440997123718, -0.07940275967121124, 0.3757995665073395, 0.5546127557754517, 0.10172812640666962, -0.0632469579577446, 0.5831848382949829, 0.4493425786495209, 0.9696404337882996, 0.515990674495697, 0.496256560087204, -0.3851032853126526, -0.3904535472393036, 0.13560760021209717, 0.6285731792449951, 0.18711324036121368, 0.06017633527517319, -0.3839767575263977, -0.05783359706401825, -0.12355031818151474, 0.30854034423828125, -0.08525700122117996, 0.06109237298369408, -1.1727073192596436], [-0.5891686081886292, 0.09327984601259232, 0.3291730284690857, 0.6330008506774902, 0.6520692110061646, 0.36660003662109375, -0.059300631284713745, 0.2921343445777893, -0.42286333441734314, -0.14003200829029083, -0.3437917232513428, 0.7447029948234558, -0.225045844912529, 0.4163335859775543, 0.4854312539100647, 0.2463092803955078, 0.7207708954811096, 0.40582719445228577, -0.573942244052887, -0.40853506326675415, 0.22056090831756592, 0.6239812970161438, -0.6254215836524963, 0.45583048462867737, -0.22982192039489746, -0.08292412012815475, -0.5076990723609924, -0.04076375812292099, 0.30192840099334717, -0.40796181559562683, -0.442889928817749, -0.9770099520683289], [-0.43995046615600586, -0.1761426031589508, -0.27035990357398987, 0.05929999053478241, 0.4922278821468353, -0.47071149945259094, 0.42417484521865845, -0.0575614757835865, -0.1803090125322342, 0.5458804965019226, -0.7190998792648315, 0.7488201260566711, -0.347560852766037, 0.6280998587608337, -0.35119858384132385, 0.32879340648651123, 0.7553971409797668, 0.7993283867835999, -0.2955839931964874, 0.27556055784225464, 0.15952488780021667, -0.30037781596183777, 0.35816192626953125, 0.6332545280456543, -0.7263598442077637, 0.028740761801600456, 0.23724879324436188, -0.39517053961753845, 0.41472598910331726, 0.1031389907002449, -0.8032236099243164, -0.38238945603370667], [-0.29790621995925903, 0.4489886164665222, 0.000484839198179543, 0.09834310412406921, 0.23971709609031677, 0.113490529358387, 0.11236850172281265, -0.21264269948005676, 0.13566911220550537, -0.29882314801216125, -0.8257203102111816, -0.2550891935825348, 0.015780141577124596, -0.2752854824066162, -0.28028497099876404, -0.8396804332733154, 0.7344564199447632, -0.14299868047237396, -0.26334047317504883, -0.10059139132499695, 0.5307860970497131, 0.04898236319422722, 0.5031701326370239, 0.4136008322238922, 0.14814655482769012, -0.27342313528060913, -0.04706496745347977, -0.5474400520324707, 0.20500822365283966, 0.28389406204223633, -0.25236037373542786, 0.14464430510997772], [-0.7510931491851807, 0.6458242535591125, 0.37869560718536377, 0.09313799440860748, 0.291313111782074, 0.04863899201154709, 0.25767529010772705, -0.30698344111442566, -0.7856405377388, 1.1242804527282715, -0.9495606422424316, 0.2688889503479004, -0.5874608159065247, 0.2484533041715622,