{"tok_emb.weight": [[0.02872110903263092, -0.05954940989613533, -0.2787507474422455, -0.5298967361450195, -0.08865341544151306, 0.36343255639076233, -0.46698975563049316, 0.10379629582166672, 1.0039703845977783, -0.9896910190582275, 0.4800758957862854, -0.8879864811897278, 0.5492092967033386, 1.2944824695587158, 0.3434952199459076, 0.5760143995285034, -0.09395469725131989, -1.5157021284103394, 0.3584088087081909, 1.0248934030532837, 1.1841413974761963, 0.7992997169494629, 0.7156991362571716, -0.030606122687458992, 0.37073829770088196, -1.4862486124038696, 0.5554394125938416, -1.340536117553711, -0.8129136562347412, 1.0145477056503296, -0.6310886740684509, -2.6320762634277344], [-0.8880680799484253, 0.11959388852119446, -1.4301739931106567, 0.7053554654121399, -0.26038557291030884, -0.6262561082839966, -0.334557443857193, -0.7283423542976379, 0.5901947617530823, 1.0416940450668335, 0.4199969470500946, -0.11762242764234543, 0.06587589532136917, -0.06267451494932175, 0.1784336417913437, -0.3921273350715637, 0.5877109169960022, 1.0872621536254883, -0.9906084537506104, 0.7594789862632751, -0.817914605140686, 0.8806264400482178, 0.7059869766235352, 0.09303587675094604, 1.506300687789917, -0.5386471152305603, -0.18823808431625366, 0.5158849954605103, -0.44207775592803955, -0.5348197817802429, 0.12321501225233078, 0.15372291207313538], [0.3449362814426422, 0.6660823822021484, -0.17341916263103485, -0.7255929708480835, -0.029747571796178818, 1.0882076025009155, -1.5569320917129517, 0.7291315197944641, 0.4501175582408905, 0.46468955278396606, -0.6358943581581116, -0.051279887557029724, -0.10230910032987595, 0.07824718952178955, 0.29509007930755615, -0.9695656895637512, 0.17111286520957947, -0.3683946132659912, 0.6730946898460388, 0.5544618964195251, -0.2646254897117615, 0.3279106020927429, -0.14532263576984406, -1.1710585355758667, -1.0741009712219238, -0.7214608192443848, 0.6053462624549866, -0.48382455110549927, -0.39886224269866943, -0.47670239210128784, 0.41754987835884094, -0.9201910495758057], [-1.4846234321594238, -0.8842836618423462, -1.4018518924713135, 0.6453632712364197, -0.021355384960770607, -0.32102566957473755, 0.5139631628990173, 0.018410898745059967, 1.3357640504837036, 0.9188272356987, -0.3357127010822296, -0.18718835711479187, -1.3826287984848022, 0.0042726038955152035, -0.6632611751556396, 0.470262348651886, -0.6304001808166504, -0.31372547149658203, 0.6918456554412842, -0.18968509137630463, 0.3302735984325409, -0.00943605974316597, -0.18409597873687744, -0.512141764163971, 0.9360775947570801, -0.6668514609336853, -0.001060501323081553, 0.8358762860298157, -0.05168026685714722, 0.8561772704124451, -0.9783342480659485, -1.447448968887329], [-0.13967381417751312, -1.707471489906311, -1.0174288749694824, -0.5022725462913513, -1.0776705741882324, -0.4607037901878357, -0.5674636363983154, 0.23187270760536194, -0.9737906455993652, -0.18919329345226288, -0.2624780833721161, 1.2851214408874512, -0.4316616356372833, 0.9255359172821045, -0.9599105715751648, 0.23118716478347778, -1.5149660110473633, 0.9531075358390808, -0.10415709763765335, 1.6883771419525146, 0.4438624680042267, -0.8393307328224182, 0.19914114475250244, 0.6320312023162842, -0.3542371690273285, 0.02165086381137371, -0.3831176161766052, -0.11821706593036652, 1.1017645597457886, -0.006217035930603743, -0.04968966543674469, -0.7952560782432556], [0.2947464883327484, 2.197521448135376, -0.6956381797790527, 0.9751652479171753, -2.369763135910034, -1.285433292388916, 0.6051954030990601, 0.2689637243747711, -1.3678102493286133, -1.6853877305984497, -0.46185702085494995, 1.2084245681762695, -0.08165141940116882, -0.6729062795639038, 0.6070682406425476, 2.2473058700561523, 0.6327435374259949, -0.10947044938802719, 0.31443265080451965, 0.027908870950341225, 0.4304776191711426, 0.9105085730552673, 1.0216505527496338, 0.14689390361309052, -0.1033184602856636, 0.8172129392623901, 1.7627149820327759, -2.720867872238159, -0.8024845123291016, 0.3706376552581787, 0.7856785655021667, 0.1458253413438797], [-0.9066075086593628, -1.6751397848129272, -0.3190852105617523, -0.594180166721344, 0.7016385793685913, -0.32874754071235657, -1.942491054534912, -0.8417766094207764, 0.9357708096504211, -0.2649135887622833, -0.9680056571960449, 1.098511815071106, 1.0162657499313354, 0.13345102965831757, -0.3099159002304077, -0.19874970614910126, 0.20874430239200592, -0.2667827606201172, -0.5699441432952881, -1.1854381561279297, 1.1931705474853516, 0.30261582136154175, -0.43535447120666504, -0.44051775336265564, -0.514953076839447, 1.9047001600265503, 0.07850330322980881, -0.32456696033477783, 1.2433886528015137, 0.642839789390564, -1.0430576801300049, 0.7686300277709961], [1.520300030708313, -0.559954822063446, -0.8946211934089661, 0.4069984257221222, -0.5955942869186401, -1.1297450065612793, 0.7417486310005188, 0.13919657468795776, 1.2452601194381714, -0.3991301953792572, -0.6163362860679626, 0.12445282191038132, -0.9437193870544434, 0.1816667765378952, -0.18803665041923523, -1.2536449432373047, 0.3820250332355499, -0.710873544216156, 0.8052471280097961, 0.7362677454948425, 1.3035184144973755, 1.7447518110275269, -0.16709494590759277, -0.7007020711898804, -0.9215186238288879, -1.3714617490768433, -0.3473133444786072, 1.2794885635375977, -0.2341342270374298, 1.5846562385559082, 0.2748953402042389, -0.6553914546966553], [0.40435242652893066, 0.9445176124572754, -0.824058473110199, -2.9496545791625977, 1.0633670091629028, -0.6093907356262207, 0.0030783861875534058, -0.11767246574163437, -0.8235971927642822, -0.9978753328323364, -0.9851186871528625, 1.3344192504882812, -0.7727919816970825, 0.35999318957328796, 0.8814469575881958, -2.071653366088867, 0.3775177299976349, 0.5856987237930298, 0.44806021451950073, 0.7178195714950562, -0.9162073135375977, 1.0818594694137573, -0.22610747814178467, 0.13736027479171753, -1.1795659065246582, 0.10263319313526154, -0.3295227885246277, 0.13508078455924988, 0.29532307386398315, -0.7032361626625061, -0.6854157447814941, -0.17767775058746338], [-0.5823566317558289, -0.37639933824539185, 1.0140016078948975, -0.5030844211578369, -2.3268182277679443, -0.6740331053733826, 0.6288285255432129, -0.9188056588172913, 0.40062424540519714, 0.7492325305938721, -1.744515299797058, -1.2965537309646606, 0.04216138646006584, -0.4474392235279083, -0.5947794914245605, -0.4429042935371399, -0.024617847055196762, 1.5872466564178467, -0.757703423500061, 0.3262256979942322, 0.25486746430397034, -0.13777676224708557, -0.1888739913702011, -1.1510262489318848, 1.414551854133606, 0.6751077175140381, 0.4867843985557556, -0.2847009003162384, 1.1656655073165894, 1.4965206384658813, -0.8576328158378601, 0.5643954873085022], [-0.9688612222671509, -0.42579197883605957, -1.2839266061782837, 0.42771512269973755, -0.260995090007782, 0.1988963931798935, -1.6679725646972656, -0.07067340612411499, 0.5873071551322937, 0.43360525369644165, -0.9482102990150452, 1.2206019163131714, 1.2982497215270996, -0.581398606300354, 0.9306359887123108, 0.53343665599823, 0.16274169087409973, -1.103834867477417, 0.5406253933906555, -0.36345213651657104, 0.6470884084701538, -0.9407689571380615, 0.7167183756828308, -1.0695513486862183, 0.42428624629974365, 0.6022138595581055, 0.9731849431991577, -0.7370340824127197, -1.2330172061920166, -1.2535055875778198, 0.10744331032037735, 0.4857271611690521], [2.2905449867248535, 0.6131590008735657, -0.790381908416748, -1.7676388025283813, -0.5142675042152405, 1.3581486940383911, 0.25244709849357605, 1.0482697486877441, -0.9549916982650757, -0.08607351779937744, 0.20055215060710907, -0.985762894153595, -0.25973373651504517, -0.5019990801811218, -1.3520596027374268, -0.15379641950130463, -1.748369574546814, -0.04552597180008888, 1.089121699333191, -1.3130552768707275, 0.5291942358016968, 0.11510303616523743, 0.8615419864654541, -0.13148994743824005, -0.34555596113204956, 0.652339518070221, 0.3045802414417267, -0.3072693645954132, -1.4399027824401855, -0.3976946473121643, -0.4721410870552063, -0.8102445006370544], [-0.7959539890289307, -1.4671287536621094, 0.6014131307601929, -0.12906447052955627, 1.3589420318603516, 0.035242993384599686, 0.35940220952033997, 0.7174911499023438, 0.011085418052971363, 0.9401346445083618, -1.1749274730682373, 1.7951104640960693, -0.14721962809562683, -0.4766182601451874, 2.123562812805176, 0.593904972076416, 1.8091646432876587, 0.45931997895240784, 1.9116995334625244, -0.8091333508491516, -0.3054368197917938, 0.9584675431251526, 1.0862776041030884, 0.7703154683113098, -1.7524631023406982, -0.27052003145217896, -1.535999059677124, -0.5642659664154053, -0.2221027910709381, -2.034209966659546, 1.299414038658142, 0.17548172175884247], [-0.6292903423309326, 0.033892400562763214, 1.1309159994125366, 0.3124547302722931, -1.8632851839065552, -1.444351077079773, -0.6369710564613342, 0.9276847839355469, -0.6352047920227051, 1.0479148626327515, 1.0703606605529785, 0.3855946958065033, -0.476723849773407, 0.10008838027715683, 2.6972436904907227, -1.1495012044906616, -0.2529110908508301, 1.2939356565475464, 1.2292661666870117, 0.6502232551574707, -1.2573455572128296, -0.709981381893158, 0.13803376257419586, -0.2703816890716553, -0.085854671895504, -0.6925116777420044, 2.091996669769287, -1.0361778736114502, -0.18988363444805145, 1.094738483428955, -0.3750879764556885, 1.347795009613037], [-0.3830268383026123, 0.6270484328269958, 1.2663639783859253, 0.5500885844230652, 0.6652644872665405, 0.7625457644462585, -1.1333491802215576, -0.7054987549781799, 0.5468297004699707, -0.0740746259689331, -0.002239407040178776, 0.18412010371685028, -0.9717466831207275, 0.3470230996608734, 0.18696869909763336, 1.539098858833313, -1.644204020500183, 0.8561288714408875, 1.4593249559402466, 2.1375324726104736, 0.5238704085350037, -0.11286269128322601, 0.08839872479438782, -0.13747048377990723, 2.0012030601501465, 0.30308735370635986, -0.15349982678890228, 0.43098241090774536, -0.01586058735847473, 2.377845287322998, -0.741880476474762, -1.0282883644104004], [0.39795511960983276, -0.24459511041641235, 0.5888671875, -1.345828890800476, 0.36857739090919495, 0.2506507933139801, 0.5717642307281494, 0.07723705470561981, -1.0644935369491577, -0.5700762867927551, 0.6633123755455017, 0.20693367719650269, 0.5328598618507385, 0.1958550661802292, 0.6473079323768616, 1.3738822937011719, 0.17262938618659973, 0.30227676033973694, 0.0950719490647316, -0.9323925375938416, 0.9573553204536438, 0.2005542665719986, -0.7653730511665344, -1.0920177698135376, -0.0774354487657547, 0.250450998544693, 0.9330113530158997, -0.8799618482589722, -0.21048980951309204, -0.7124302387237549, -0.22051763534545898, -0.024884777143597603], [-1.4728924036026, 0.4640432298183441, 1.3121005296707153, -0.7479902505874634, -0.26371869444847107, 0.5743759870529175, -0.0911373645067215, 0.2720257043838501, -0.445403516292572, 0.5137773156166077, 0.7600196599960327, -0.1255054920911789, 1.0856602191925049, -0.019026948139071465, -0.08380257338285446, 0.3651842474937439, 1.7526397705078125, -0.5588555932044983, -2.073904514312744, -1.0630989074707031, 2.5146524906158447, -0.9089413285255432, -0.039928629994392395, 0.6417770385742188, -0.86380535364151, -0.8678225874900818, 0.8450469970703125, -0.07390085607767105, 0.43906864523887634, -1.1731176376342773, -1.2407546043395996, -0.4534458816051483], [0.7371044754981995, 0.47518694400787354, 0.7140188813209534, 0.3159930408000946, -0.526801347732544, 0.5416856408119202, -0.9701846837997437, 0.005458899307996035, -1.9353272914886475, -0.6434944272041321, 1.050474762916565, -1.2433120012283325, -1.4563097953796387, -0.831548810005188, -1.3988972902297974, 0.22128038108348846, 1.13196861743927, 0.3385978043079376, -0.3988252580165863, -0.7451665997505188, 0.4062817096710205, 0.03454152122139931, 1.0821318626403809, -1.4479361772537231, -0.09463155269622803, -1.374362826347351, 0.6734879016876221, -0.48255133628845215, -0.875842273235321, 0.7074098587036133, 2.0510802268981934, -1.462666630744934], [1.0817270278930664, -0.84372878074646, -0.5469659566879272, -0.08062861859798431, 0.5663663148880005, -1.9816393852233887, 0.01642562821507454, -0.12606389820575714, 0.3675093650817871, -1.318060040473938, 0.07382799685001373, -0.0013817562721669674, -0.3992191255092621, 0.9505907893180847, -0.34299954771995544, 0.16469275951385498, -0.027888059616088867, 0.8596568703651428, -0.9010204076766968, -0.33191901445388794, 1.9148308038711548, 1.3319119215011597, 0.7980172634124756, -0.4447421729564667, 1.2537895441055298, 0.7366247773170471, -0.47557246685028076, -0.5321671366691589, -1.0054107904434204, 0.9992700815200806, -0.917957603931427, -2.916386842727661], [-1.8134082555770874, 0.6199557185173035, 1.4011859893798828, -0.4083484709262848, -0.7316848039627075, 1.827418327331543, 0.3394206166267395, 0.16092278063297272, 0.3040958344936371, -0.4693281650543213, 0.47090980410575867, -1.6910614967346191, 0.12765267491340637, 0.6987779140472412, 0.568032443523407, -0.26006901264190674, -1.0699670314788818, 1.007798433303833, -0.17985205352306366, -0.9828968048095703, -1.2733792066574097, 1.1000181436538696, 1.434533953666687, -1.889318585395813, -0.7512692213058472, 1.9018888473510742, -0.8980742692947388, -0.3417004644870758, 1.7109664678573608, -0.6294714212417603, 0.9867375493049622, 0.13295680284500122], [-0.4304389953613281, 0.8843809962272644, -0.08920517563819885, -0.626366376876831, -0.05238319933414459, -1.7670855522155762, -0.9984675645828247, -0.16476844251155853, 1.3596433401107788, 0.07712702453136444, 0.6598336100578308, 0.42071136832237244, 0.29459506273269653, 0.12701064348220825, 0.44071704149246216, -0.18076318502426147, -0.9203507900238037, -0.31333065032958984, 1.1201459169387817, -0.4976264238357544, 0.5074054002761841, -0.2270902544260025, -0.6036623120307922, -0.48742231726646423, -0.09942376613616943, 0.13160297274589539, -0.9676993489265442, 0.6307553648948669, -0.6930718421936035, -1.2459335327148438, 0.2311515063047409, 1.7785847187042236], [0.47227123379707336, -0.5605471730232239, -0.6966862678527832, -0.16005851328372955, 0.314877986907959, 1.5303642749786377, -0.13331249356269836, -0.9702652096748352, 0.0484495647251606, 1.9047503471374512, 0.0722038596868515, -1.591471791267395, 1.7239108085632324, 3.0772087574005127, 1.1139514446258545, 0.0013947633560746908, 0.17762377858161926, -1.3346877098083496, 0.4131505489349365, 0.312313437461853, 1.0163969993591309, -0.6684985756874084, -0.9895597696304321, -0.694808304309845, -0.5306798219680786, 0.19996044039726257, -1.156185269355774, -0.6173387169837952, -1.0100566148757935, -0.72775799036026, -1.4556348323822021, 0.36482661962509155], [0.2081446349620819, -1.128270149230957, -1.286328911781311, -0.19523842632770538, 0.8603759407997131, -1.0630567073822021, 0.15129244327545166, -0.5473212003707886, 0.5847139358520508, -0.3571752607822418, -0.8106521964073181, -0.3008727729320526, 0.6749051809310913, -0.3622526228427887, 0.6860251426696777, 0.35879626870155334, 0.20624756813049316, 0.7712438702583313, 1.627543330192566, -0.7973747253417969, -0.24224355816841125, 0.4925249218940735, -0.12219402939081192, 0.3066336512565613, 0.9777616858482361, 1.4421167373657227, -1.4612045288085938, -0.29540202021598816, -0.3629998564720154, -0.06010770425200462, -0.8237285614013672, -0.10322369635105133], [0.5504190921783447, 0.09623847901821136, -0.15743280947208405, -0.22138158977031708, 0.7979695200920105, -1.1944671869277954, 0.37533989548683167, 0.060821373015642166, -0.691962718963623, 0.8037230968475342, -0.739393413066864, -0.2924303412437439, -0.973469078540802, 0.9945318102836609, 0.9360701441764832, -0.09261038154363632, 1.0967837572097778, -0.01229857187718153, 0.2890170216560364, 0.7667982578277588, -1.1784979104995728, 0.9965789318084717, 1.9715116024017334, -2.3207523822784424, -0.3928598463535309, -1.4524743556976318, 0.6930819749832153, -0.6124628782272339, 0.05518738925457001, 0.3043546676635742, -1.1057885885238647, 0.9706864356994629], [-0.14092139899730682, -0.9295070171356201, -0.4136351943016052, 1.0032976865768433, -1.0095471143722534, 0.712496817111969, 0.4192522168159485, -0.07108243554830551, 0.032493818551301956, -2.0087404251098633, -0.740254282951355, -0.973717451095581, 1.0797407627105713, -0.32489174604415894, 0.39297112822532654, 0.8146455883979797, 1.41202974319458, -0.14794157445430756, -0.08186653256416321, -0.24096980690956116, 0.4814448654651642, 0.5383833050727844, 0.15245398879051208, -0.777916669845581, 0.12964461743831635, -0.001859959214925766, -1.5771907567977905, 0.32814714312553406, -0.3662400543689728, -0.41505566239356995, -0.017512748017907143, 0.6669291257858276], [1.7753492593765259, -0.8540171384811401, 0.32347819209098816, -0.1144796684384346, 2.150423765182495, 0.8946253657341003, 0.05054924264550209, 0.2095266729593277, -1.3067975044250488, 1.2136189937591553, 0.24147294461727142, 0.9149773716926575, 0.2374567985534668, -0.8454413414001465, -1.0832114219665527, 1.1205259561538696, -1.2502143383026123, -1.3132871389389038, 0.8573135137557983, 1.2871543169021606, -1.0473008155822754, -0.7255125045776367, -0.12603096663951874, -0.10188876837491989, -0.09067655354738235, 1.5430409908294678, -0.24865728616714478, 0.1139204204082489, 0.28475138545036316, -0.20221450924873352, -1.068922519683838, 0.806621253490448], [-0.2770206034183502, 0.2546606659889221, 1.0948867797851562, 0.9076911807060242, -1.0251373052597046, 0.5307188630104065, 0.8091322779655457, -0.2902228832244873, 0.8262097239494324, -0.8144102692604065, -0.05695754289627075, -1.3795617818832397, 0.3949158489704132, -0.30328723788261414, 0.1232408732175827, 0.16198281943798065, -0.40455493330955505, -0.49387645721435547, 1.7873857021331787, -0.9538710713386536, 1.4301167726516724, 0.559351921081543, 1.937443494796753, 0.9957314133644104, -0.11131532490253448, -0.5446464419364929, -1.58795166015625, 0.20049022138118744, -1.7808411121368408, -1.1449434757232666, 0.47193431854248047, -2.4000470638275146], [-0.08191320300102234, -0.7442440390586853, -0.2971345782279968, 1.4990112781524658, -0.11078793555498123, 0.8307424187660217, 1.002463698387146, 1.8633971214294434, 0.8067870140075684, -0.20089273154735565, 0.6085628271102905, 0.7492413520812988, -0.22915244102478027, -0.17442603409290314, -0.4983533024787903, 1.650562047958374, 0.22013673186302185, -0.8658890724182129, 0.11505531519651413, 0.07390238344669342, -0.3271510601043701, -0.13569340109825134, 0.0031219671946018934, -0.4434111714363098, 0.36140531301498413, -1.4673243761062622, 1.324373483657837, -0.18960271775722504, 0.22599269449710846, -1.6944748163223267, -0.8080970644950867, -0.30775827169418335], [0.04535868018865585, 0.00514173274859786, -2.4049038887023926, -0.27627432346343994, -1.0737593173980713, 0.29130837321281433, -0.7718877196311951, 2.400714159011841, 0.5340182781219482, 0.39236190915107727, 0.5336076617240906, 0.5990067720413208, 0.44810566306114197, 0.6814842224121094, -1.0666699409484863, 0.6211189031600952, -0.8757028579711914, 1.043540596961975, 0.7595042586326599, 1.3748390674591064, 1.7860596179962158, -1.0556963682174683, 0.18072500824928284, 0.4649324119091034, -1.307335615158081, 0.6399933695793152, -1.262382984161377, 1.3605601787567139, 0.28819334506988525, 1.5479038953781128, -0.30425170063972473, -0.025291506201028824], [-0.44477635622024536, -1.3340184688568115, 0.9534751176834106, -0.019250765442848206, -1.4086875915527344, 0.31681111454963684, 0.9204598069190979, -0.667988121509552, 1.7372275590896606, 0.8830334544181824, -1.9542099237442017, -0.3178591728210449, 0.4411880373954773, -0.7082225680351257, -0.9110423922538757, 0.5859695076942444, -0.8565194606781006, -0.4107601046562195, -0.39694127440452576, 0.6756576895713806, -0.08251195400953293, -0.519957423210144, 2.0442631244659424, 1.1756165027618408, 1.129927396774292, 1.01676607131958, 0.8898980021476746, -0.2667788565158844, -1.2035404443740845, -0.5365495681762695, -1.24912691116333, -1.5360620021820068], [0.1285855770111084, -2.038825035095215, -0.44185671210289, 2.556375741958618, -0.814431369304657, 0.7475358247756958, -0.921168327331543, -0.09488188475370407, 1.9824930429458618, -0.29870256781578064, -0.3573608100414276, 2.2667810916900635, 0.541592538356781, -0.9378637671470642, 0.5598835349082947, -1.0079442262649536, 0.19105461239814758, 0.24362441897392273, 0.1255466341972351, -0.4207354485988617, 0.45512744784355164, 2.6414918899536133, 0.8918507695198059, 0.4645390510559082, 1.2679204940795898, 0.630013644695282, -0.5572285652160645, 0.8127192854881287, 0.4943837821483612, -1.7767378091812134, 0.5688904523849487, -1.106677532196045], [-2.2225277423858643, 0.13159525394439697, -1.0903359651565552, 0.5556997656822205, 0.28556469082832336, -1.1472162008285522, -0.4962819218635559, -0.3727896809577942, 0.030261201784014702, 0.9618900418281555, 0.32769253849983215, 1.6619906425476074, 0.24623648822307587, 0.8327573537826538, -1.2810746431350708, -1.148319125175476, -0.6429255604743958, 0.9375471472740173, -0.021242646500468254, 1.621490478515625, -0.39658495783805847, 0.6392021775245667, -0.4509277045726776, 0.07972265034914017, -1.370025396347046, 0.828420877456665, 0.08571900427341461, -0.4453403949737549, -0.5626170039176941, -0.4444609582424164, -0.21945199370384216, -0.6460452675819397], [0.23204392194747925, 1.3471790552139282, 0.9990101456642151, -0.573794960975647, -0.13852596282958984, -1.024100422859192, -0.7435768842697144, 1.3041284084320068, -0.3546784520149231, -0.04685191810131073, -0.4563131332397461, -0.0204534400254488, -1.6626604795455933, -1.3178225755691528, 0.6880632638931274, 1.6242479085922241, -2.223532199859619, -0.013124268501996994, -1.3330535888671875, -0.2042893022298813, 0.2274671047925949, -0.5066882371902466, -0.1847369372844696, -0.8554990291595459, 0.21608173847198486, 0.6310163140296936, -1.0859129428863525, 0.8142693042755127, 0.22121359407901764, -0.04522477090358734, -1.53720223903656, -0.5226991176605225], [-0.0486033596098423, -0.09499122947454453, 1.8289954662322998, -0.8908654451370239, -0.5485550761222839, 0.44639357924461365, 1.712341070175171, -1.403087854385376, -0.026785874739289284, -0.9934921860694885, 2.6319777965545654, 0.696608304977417, 0.24016255140304565, 1.163015365600586, -1.9500735998153687, -0.015540593303740025, -0.4928796589374542, 0.3315131962299347, -0.46515461802482605, -1.0976824760437012, -0.46790367364883423, 0.4447360038757324, -1.857085943222046, 1.1580489873886108, 1.9861150979995728, -1.2068551778793335, 0.6223937273025513, -0.5371198058128357, -0.3792360723018646, 2.1927428245544434, -0.3834393620491028, -1.8458679914474487], [-0.8304851651191711, 0.8287697434425354, -0.492033988237381, 0.38388797640800476, -1.0136300325393677, 1.2909846305847168, 1.668294906616211, 0.15908634662628174, -0.1248030811548233, 1.2784994840621948, -0.7737106084823608, 0.5420979857444763, 1.8078745603561401, -1.5046873092651367, -0.07091832906007767, -0.67244952917099, 0.8014765381813049, 0.08694078773260117, 0.39745715260505676, 1.7306183576583862, 0.09956881403923035, -0.7612487077713013, -0.35295525193214417, 0.017080703750252724, 0.00844188965857029, -0.31950631737709045, -1.9538743495941162, 0.11752057820558548, -0.6481907963752747, -1.3849542140960693, -0.6325443387031555, -0.3766949474811554], [0.3514155447483063, -1.0502210855484009, -0.10704948753118515, 0.8247048854827881, 0.35542359948158264, 0.8754737973213196, 0.49991971254348755, 0.5384616255760193, 0.8933578729629517, -0.9067612886428833, 0.9812831282615662, 0.166395902633667, 0.12521296739578247, -1.22226083278656, -1.3923649787902832, 1.2241767644882202, 1.2845710515975952, -0.3513747751712799, 0.18884596228599548, -0.7700570225715637, 0.24728986620903015, 0.42510515451431274, -0.20545369386672974, -0.39899566769599915, -0.9076676964759827, -0.2673138976097107, 1.6052649021148682, 0.2086743712425232, -0.5217637419700623, 0.11616092175245285, 1.3954510688781738, 0.7946359515190125], [-0.23710264265537262, -0.21011264622211456, 0.4155108332633972, -0.4343787431716919, 0.5263285636901855, -0.4193909168243408, 0.31533971428871155, -0.2050638198852539, -0.5487479567527771, 0.7448896169662476, 1.5011519193649292, -1.4645910263061523, -0.5833826661109924, 1.1885993480682373, 0.4645364582538605, -1.6306806802749634, 0.9873911142349243, -0.6091076135635376, -0.36797717213630676, -1.0541690587997437, 0.10332602262496948, 0.11813022196292877, -1.0277897119522095, -1.1875308752059937, 0.9544417262077332, -1.1251620054244995, 0.4256996214389801, 0.478398859500885, 0.049339648336172104, -2.533872127532959, 1.0025813579559326, 0.06297730654478073], [-0.7557488679885864, 0.23942087590694427, -0.037244439125061035, -0.8816152811050415, 0.7994341850280762, -0.8048716187477112, -0.15055657923221588, -0.6686110496520996, -0.6248769164085388, 1.5204334259033203, 1.1931716203689575, -1.601354718208313, -1.0658180713653564, 0.23862062394618988, 0.4899143576622009, 0.40586501359939575, 1.2397966384887695, 0.5506539940834045, -0.06259176880121231, 0.048322681337594986, 1.2447763681411743, -0.2539253532886505, 0.39060336351394653, -0.0163506418466568, -0.7050650715827942, 0.9042786359786987, -0.32046136260032654, 0.5406869053840637, 0.5247941613197327, 1.6425142288208008, -0.38939008116722107, 0.9264192581176758], [-0.3934232294559479, -1.4869288206100464, -0.7793392539024353, -0.6720937490463257, 1.005323052406311, -1.6375373601913452, 0.3324229121208191, -1.1289474964141846, -0.9480473399162292, -1.6808860301971436, -1.1323643922805786, 0.45378705859184265, 0.6820557117462158, 1.3704279661178589, -0.010279258713126183, -0.717063844203949, 0.27607712149620056, 0.3392287492752075, 0.2542968690395355, 0.9702677726745605, 0.47370240092277527, -0.27509263157844543, -0.7726958394050598, 1.0106128454208374, 0.9060239195823669, 0.7407644391059875, -0.8388017416000366, -0.029500216245651245, 0.5744091868400574, 1.9822198152542114, -0.5406748652458191, 0.6394996047019958], [0.584791362285614, -0.319805771112442, -0.32024985551834106, 1.797595739364624, -0.03484585881233215, -0.5599396824836731, -0.7779752016067505, -0.27788904309272766, -0.8426216244697571, 0.8330057263374329, -0.05074968561530113, -1.3616083860397339, -0.17225313186645508, 1.7713106870651245, 0.8461319208145142, -1.0078129768371582, 1.1402086019515991, -0.057467419654130936, 0.6788731813430786, -0.4770922362804413, -0.2337426096200943, 0.05252361670136452, 0.6601992845535278, -1.5527266263961792, 0.4588909447193146, -1.8788594007492065, -0.6453418135643005, 0.11606864631175995, -0.8364871144294739, 0.6341627240180969, 1.411157250404358, 0.02916673943400383], [-0.7023857831954956, 0.8452668190002441, -0.6333247423171997, -0.8908261656761169, 1.338672161102295, -0.9959137439727783, 0.24470925331115723, 0.8959941864013672, 0.826143205165863, -0.1603853851556778, -1.1167839765548706, -2.0716776847839355, 1.1401032209396362, -0.7283135652542114, 0.8387760519981384, -0.9767534136772156, 0.21934185922145844, 0.45743322372436523, 1.184578537940979, 0.10294592380523682, 0.39174124598503113, -1.3360185623168945, 0.39655598998069763, -0.29191407561302185, -0.43565070629119873, -2.091458320617676, -0.7587297558784485, -0.5154218673706055, 0.49673253297805786, 0.4908266067504883, 1.8453532457351685, 1.3283603191375732], [0.31696003675460815, 0.1916208416223526, 1.416914939880371, 0.2973102033138275, -1.0883433818817139, 0.5017159581184387, 1.2411412000656128, -1.025672197341919, -0.7977910041809082, -0.45969194173812866, -0.2515261769294739, 0.47243285179138184, 0.47726017236709595, -0.3744828999042511, -0.07572460919618607, 1.1598668098449707, 0.3146149218082428, -0.38812315464019775, 0.3363410234451294, 0.39374351501464844, 0.8435928821563721, -0.6113442778587341, -1.460184931755066, -0.47324976325035095, -1.1317474842071533, 0.24630923569202423, -0.301280677318573, 1.1868562698364258, 0.8480410575866699, -0.358026385307312, 0.2417420893907547, 0.017152996733784676], [-0.4876053035259247, 0.8373602628707886, 1.8039162158966064, -1.264022946357727, 0.2988148033618927, -0.8017738461494446, -0.3809718191623688, -1.1053032875061035, -1.3045058250427246, 0.1501118689775467, 1.7157530784606934, 1.2005276679992676, 0.2068931609392166, -0.34887364506721497, 0.5064983367919922, -2.5200657844543457, -0.834377110004425, -0.7819539904594421, -1.2215107679367065, -1.1287845373153687, -0.9398886561393738, -0.07957088947296143, -0.7463843822479248, 1.6578843593597412, -0.6555654406547546, -0.26910334825515747, -1.2860770225524902, 1.2451621294021606, -0.5057236552238464, -0.5943309664726257, 0.3498706817626953, -1.0804334878921509], [-0.8690242171287537, 0.06720785796642303, -0.05573539063334465, 0.4713013768196106, 1.338030457496643, -1.2719767093658447, -0.35555312037467957, 0.9183080792427063, -0.712848961353302, 1.3989825248718262, 1.082772970199585, 0.03195180743932724, -0.2970985770225525, -0.8445027470588684, -1.2435566186904907, -1.5733940601348877, 1.2280067205429077, -0.34750139713287354, 1.3743834495544434, 0.20870928466320038, 0.5351736545562744, -1.882678508758545, 1.3383961915969849, -0.3988535702228546, 0.40333640575408936, -0.5635544657707214, -0.7403765916824341, -1.3231552839279175, -0.5337979793548584, 1.7894290685653687, -2.4250683784484863, 1.1537216901779175], [-0.7589781880378723, -0.9281625151634216, -1.452157974243164, 0.17544971406459808, 0.7396644353866577, 0.38785821199417114, -0.038317784667015076, 0.21950550377368927, 0.112783282995224, -0.797328531742096, -0.02955521270632744, 0.5080872774124146, 1.3291544914245605, 2.020603895187378, -1.167098879814148, 1.5127302408218384, -0.340943306684494, -0.8759801387786865, -0.7229778170585632, -0.7396121621131897, -0.54618239402771, -0.46231532096862793, 2.3514719009399414, -0.5161735415458679, 0.5898304581642151, 1.5445188283920288, -0.35241103172302246, 0.9062247276306152, 0.4533836543560028, 2.9576849937438965, -0.4064781367778778, -0.9850062727928162], [0.4862133860588074, 0.7321547269821167, -1.0921549797058105, 1.386306643486023, 0.18042710423469543, 0.24808146059513092, -0.9052112102508545, 1.0933729410171509, -0.44066816568374634, -0.08709165453910828, 0.2943325936794281, 0.5471370220184326, 0.6139789819717407, 1.2569624185562134, -1.1287319660186768, -1.0433157682418823, -1.5420998334884644, -1.3705484867095947, -0.7552562952041626, 0.30922839045524597, 0.5385611653327942, 0.3372178077697754, 2.344860076904297, -0.4442049264907837, 0.5406250953674316, -2.0170552730560303, -1.501733422279358, -1.7208406925201416, 1.5165925025939941, 0.15424250066280365, -0.2131170779466629, -0.86786949634552], [0.7658209800720215, -1.0677294731140137, -1.042711615562439, -0.460915744304657, -0.600164532661438, 0.2554853856563568, 1.2815515995025635, 0.15540526807308197, -0.014573265798389912, -1.05067777633667, 0.64699387550354, 0.2451537400484085, 0.05216415226459503, 0.6597175598144531, -1.1631228923797607, -1.2817615270614624, 0.12439513951539993, -1.0172958374023438, -0.27723410725593567, -0.7011405229568481, 0.981388509273529, 0.002938253805041313, -0.93123459815979, 0.9464972615242004, 0.5253942012786865, -1.2646167278289795, 1.5567741394042969, 1.2171818017959595, 0.9188215732574463, 0.3775769770145416, -0.2494989037513733, -0.9201325178146362], [1.4909979104995728, -1.5736716985702515, -0.8857111930847168, 1.5937252044677734, 0.010436704382300377, -0.8832011222839355, -0.16808435320854187, 0.8771164417266846, 0.12929269671440125, -0.3768256902694702, 0.34604695439338684, 0.034351449459791183, 0.06643123924732208, 1.1656382083892822, -0.260447233915329, -1.079140305519104, -1.2442481517791748, 0.398843377828598, -1.6395654678344727, 1.0618219375610352, -1.2122138738632202, -1.0945254564285278, -1.7846581935882568, 1.38688063621521, 0.2600201368331909, -0.5893033146858215, -0.3585386276245117, 1.0666086673736572, -0.3342457413673401, 0.6892222166061401, 0.15815594792366028, -0.2874479591846466], [0.7008122205734253, 0.26482024788856506, 0.8023936748504639, -0.46687784790992737, 1.6542081832885742, -0.25785014033317566, 1.2556986808776855, -0.6853175163269043, -0.935839056968689, -0.8969541192054749, 1.26072096824646, -0.5741220712661743, -1.5483139753341675, 0.5520873665809631, -0.00937778688967228, 1.885045051574707, -0.3177627623081207, -0.021793995052576065, -0.6551752686500549, 0.6496140956878662, 0.5373178720474243, -0.27697521448135376, -1.9148950576782227, -0.3011886477470398, 2.2931833267211914, 0.22295604646205902, -0.5962518453598022, -1.1269726753234863, 1.1811720132827759, -1.6886440515518188, -0.33315351605415344, 0.07302360981702805], [-1.1050342321395874, 1.854488492012024, -1.3528411388397217, 1.4184054136276245, 1.3082566261291504, -0.9460061192512512, -1.0114179849624634, -0.8792190551757812, -0.6905349493026733, 1.446568489074707, -0.3499317169189453, 0.08657235652208328, 0.012796015478670597, 0.19614341855049133, 0.5285284519195557, -0.8397324085235596, -1.1597778797149658, -0.8254963755607605, 0.37842297554016113, -1.5060224533081055, 0.21789872646331787, 0.872542142868042, -1.049615502357483, 0.37826773524284363, 0.2224433422088623, -0.382690966129303, -0.5233953595161438, -0.019996415823698044, -0.10766862332820892, 1.6749801635742188, 0.0908874049782753, 0.08249446004629135], [0.17053990066051483, 0.34978869557380676, 1.1466625928878784, 0.6595749855041504, -1.0127644538879395, 0.34880515933036804, -1.2539255619049072, 0.1704908311367035, -0.502620279788971, -1.241294503211975, -0.356184720993042, -0.3936765491962433, -0.2292547971010208, -1.5480821132659912, 0.46441859006881714, 1.095016360282898, 0.7894056439399719, -0.7927756905555725, -1.5718629360198975, -1.2216483354568481, 0.01817943900823593, -0.7380908727645874, 0.7511650323867798, 0.9376352429389954, -0.24937866628170013, -1.541344165802002, 0.8304612040519714, 0.3941614031791687, 0.3396942615509033, -0.787048876285553, 1.443052053451538, -0.3758394718170166], [-0.36549654603004456, -0.23495501279830933, 0.8858643174171448, -0.5245459079742432, 0.17786560952663422, -0.02969380095601082, 0.6537219285964966, 1.157827377319336, 0.4347093105316162, -0.2775624096393585, 0.48697730898857117, 0.14978060126304626, 0.22593314945697784, -0.4092569351196289, -0.10908373445272446, 1.3012303113937378, -0.9663789868354797, -0.09654397517442703, 1.7834750413894653, -1.5403180122375488, 0.22629618644714355, -2.016343355178833, 1.2037688493728638, 0.6327913403511047, -1.167123556137085, 0.17545363306999207, 0.518543004989624, 1.6324909925460815, -0.948493480682373, -1.762216567993164, -0.7720452547073364, 0.19641375541687012], [0.9900557994842529, -1.5800753831863403, -0.5753664374351501, 0.08726348727941513, -0.5049827098846436, -0.6945140957832336, 0.5992321968078613, 1.2065664529800415, -1.314679741859436, 1.044321060180664, 0.5471943616867065, -0.8340708613395691, -0.996366560459137, -0.5344849824905396, 1.7503106594085693, -0.49205151200294495, 0.6451482772827148, -1.0879026651382446, 0.8535933494567871, -0.3618465065956116, -0.9017155766487122, 0.6371167302131653, 0.9951155185699463, 0.8748287558555603, -0.03306290879845619, 0.6292007565498352, 0.05414072796702385, -0.24224357306957245, 0.9902511835098267, -0.717029869556427, -1.1967053413391113, -0.4465777277946472], [1.5107264518737793, 1.2206639051437378, -0.05073976516723633, 1.4336599111557007, 0.8335266709327698, -0.41643133759498596, 1.3815358877182007, -0.19916251301765442, 1.2775540351867676, -0.6447998881340027, -0.38491708040237427, 2.1366968154907227, -1.5396250486373901, 0.3463444113731384, 1.0014382600784302, 0.4599530100822449, -0.5993966460227966, 0.30341121554374695, -0.8981450796127319, -0.29716166853904724, -0.7328677773475647, -0.7965538501739502, 0.4160330891609192, 0.7044975757598877, 0.14124076068401337, -0.00020082530681975186, 0.8118917346000671, -0.277691125869751, 0.02329401485621929, -0.40435367822647095, -0.8034000396728516, -1.6722577810287476], [-0.87190842628479, 0.4540519714355469, -0.3487968146800995, 0.9545063376426697, 0.38379257917404175, 1.1072778701782227, -0.4408414363861084, 0.06445896625518799, -0.23257175087928772, 0.07551860809326172, 0.19000379741191864, -0.43283721804618835, 1.0569162368774414, -0.8775826096534729, 0.9352785348892212, -0.8583097457885742, 0.19760742783546448, -0.4509660005569458, 0.03157425299286842, -0.9285985231399536, -0.5734006762504578, -0.3226786255836487, -0.28226161003112793, 0.49490106105804443, 0.15527626872062683, -0.04897777736186981, 0.8915612101554871, -1.2542387247085571, -0.8623188734054565, -1.0314431190490723, 1.204978108406067, 0.4931354820728302], [0.30699673295021057, 0.2708526849746704, -0.8119276762008667, 1.735089659690857, 0.9211052656173706, 0.019503889605402946, -0.2296360731124878, -0.7450736165046692, -1.0410221815109253, 0.9876131415367126, -0.6107755303382874, 0.13003189861774445, 1.3105096817016602, -0.8339912295341492, -0.27546873688697815, -0.19141584634780884, -0.9525165557861328, 0.7437354922294617, 1.1888951063156128, 0.40704259276390076, 0.9434225559234619, -0.5934910774230957, 0.8911160826683044, 1.8512777090072632, -1.751072645187378, -0.5329170227050781, -0.11841072142124176, 1.3507453203201294, 0.2592988908290863, 1.421812653541565, -1.187825322151184, 0.7558168172836304], [-1.697555661201477, -0.5775047540664673, 0.7637394070625305, -0.8604738712310791, 0.10408011078834534, -0.7826142311096191, 0.9109697341918945, 0.24029715359210968, -0.4020494818687439, 0.16728642582893372, 1.5385082960128784, 0.5827130675315857, -0.6692754626274109, 0.4756002426147461, -1.2705276012420654, 0.2854865789413452, 0.10926222801208496, -0.6993327140808105, 1.317550539970398, -0.9160378575325012, 1.9998849630355835, 0.4143236577510834, -1.0934407711029053, 0.16263678669929504, 0.423889696598053, -1.2388726472854614, -1.719903588294983, -0.4226316809654236, 0.9279300570487976, -0.10274314880371094, 0.06166811287403107, 0.19835418462753296], [1.364804983139038, 1.58133864402771, -0.9894367456436157, 2.82786226272583, 0.1060498058795929, 0.45619919896125793, -0.8985255360603333, 0.1664828360080719, 0.2018277943134308, -1.2864538431167603, -1.2508814334869385, 1.7534750699996948, 2.1760623455047607, -1.8210605382919312, -2.6627166271209717, -1.0799429416656494, 0.02905423566699028, -0.8106590509414673, -0.6116907596588135, 0.11401578038930893, 2.6139039993286133, 1.1660633087158203, 0.2485525906085968, -0.14291593432426453, 1.1754136085510254, 1.282637119293213, -0.5872913599014282, 0.12342864274978638, 0.6512612104415894, 0.6289801001548767, -0.06701762974262238, -0.032891448587179184], [0.5810052752494812, -0.9532133936882019, 1.699671745300293, -0.6631312370300293, -0.940857470035553, 0.6704521775245667, 0.1308649778366089, -0.5567644238471985, 0.8022717833518982, 0.23450417816638947, -0.18979018926620483, -0.741334080696106, -1.4880518913269043, -0.8844602704048157, -0.9119780659675598, 0.4937432110309601, 0.2109237015247345, 0.9415039420127869, 0.8152764439582825, 0.4118717610836029, 0.891078531742096, -0.44274473190307617, 1.4248623847961426, -0.29400110244750977, -0.15478229522705078, -1.1173505783081055, 0.11261506378650665, -0.154966801404953, 1.4619203805923462, -1.1132620573043823, -0.2143976092338562, -0.06844516843557358], [0.32976341247558594, 0.7754221558570862, -0.40371495485305786, -0.2525419294834137, -1.6157437562942505, 0.7490389347076416, 0.2776678204536438, -0.25621894001960754, -0.2233451008796692, -1.6064879894256592, 0.727959394454956, -1.0508201122283936, 0.17358896136283875, 0.6312549710273743, -0.5969632267951965, -0.060777924954891205, 0.8517103791236877, -1.621984601020813, 0.3026203215122223, -1.2480034828186035, 0.7134601473808289, -0.5407216548919678, 0.3068162202835083, -0.2167147397994995, 0.01736161857843399, 0.47290489077568054, -0.77364182472229, -0.5097643733024597, -1.2096004486083984, 0.23533929884433746, 0.6965667605400085, 0.22903594374656677], [-0.22981414198875427, 1.112043857574463, 1.6114095449447632, 0.1693309247493744, -0.3451410233974457, -0.14108824729919434, -1.9449893236160278, -0.6876733899116516, -0.06095259264111519, -0.9147041440010071, 1.1526219844818115, 2.5795326232910156, 1.4209672212600708, 0.06694556772708893, 0.12601779401302338, 2.041658878326416, -0.6819049715995789, 0.9757629632949829, 0.305279016494751, -0.4269186854362488, 0.49988195300102234, 1.3755336999893188, -0.9400832653045654, 0.006408213637769222, 0.28621262311935425, 0.14666594564914703, 0.27921345829963684, -0.23230545222759247, -0.009547369554638863, 0.6726689338684082, 1.4513578414916992, -0.6296138763427734], [-0.8124189376831055, -0.10005072504281998, -0.24290326237678528, 0.7953966856002808, 0.3605690002441406, -0.6418072581291199, 1.6665253639221191, -1.7760628461837769, -0.9873257279396057, 0.5454576015472412, -0.086114302277565, 0.22983418405056, 0.9020038843154907, -0.14446815848350525, 0.02395901083946228, -1.4565458297729492, 0.6549375057220459, 2.370140552520752, 0.6758201122283936, -1.1337463855743408, -1.5556542873382568, 0.21329988539218903, 1.316451907157898, 1.0472997426986694, 1.1289641857147217, 0.8485763072967529, 1.7517050504684448, 0.4086916744709015, -0.6082242131233215, 0.3982722759246826, -0.725355863571167, -1.8250231742858887], [0.9223992824554443, 0.4960085451602936, 0.5974957346916199, -0.19733330607414246, 0.9616397619247437, -0.40563708543777466, -1.086437463760376, 1.0711621046066284, -0.6535941958427429, -1.5134057998657227, -0.4711623191833496, 0.33797481656074524, 0.3002859652042389, 0.24985800683498383, -0.41429656744003296, -0.07367219775915146, 2.967395544052124, -0.7629212141036987, 0.9076430797576904, 0.15476098656654358, -0.7512848973274231, -0.3608162999153137, -0.46105629205703735, -0.4461246728897095, -1.2031358480453491, -0.3101521134376526, 0.9118697047233582, -0.511734664440155, -0.9643455147743225, -0.28502511978149414, 2.293698787689209, -0.013304895721375942], [0.12581296265125275, 1.061300277709961, 0.8413781523704529, 0.8203070759773254, -1.0307716131210327, 0.4810980558395386, 1.612280249595642, 0.7469138503074646, -1.2857627868652344, 1.1818325519561768, 1.528232216835022, -0.7590627074241638, -0.20599769055843353, 0.6053863763809204, -0.3276692032814026, 0.4586913585662842, -0.5187827944755554, -0.2905954420566559, -0.252715528011322, -0.44698426127433777, 0.6251057386398315, -0.37228095531463623, 0.3427634537220001, -0.04618040844798088, 1.748914361000061, 1.043675422668457, -0.39800339937210083, -0.15850891172885895, 1.6693018674850464, -1.424820065498352, -1.2447166442871094, 0.9484743475914001], [-0.9613646864891052, 0.09565132111310959, -1.7690001726150513, -0.1063937246799469, -0.17406733334064484, 0.10813126713037491, -1.1286118030548096, 0.993868887424469, 0.799938440322876, 0.7130122780799866, 0.07766154408454895, -0.5756313800811768, 1.4284735918045044, -0.5988290309906006, -0.22619874775409698, 1.3596506118774414, -0.16823521256446838, -0.5933926701545715, 1.5210728645324707, -0.29786044359207153, -0.7156685590744019, 0.5492165684700012, -0.11257866770029068, 1.0177135467529297, 1.1702864170074463, -0.29266631603240967, -0.1352422684431076, -0.8113895654678345, -1.7975258827209473, -0.23247162997722626, 0.5029540657997131, -0.12496176362037659], [-0.4552677869796753, 0.30820924043655396, -0.7490508556365967, 1.1616743803024292, 1.1118806600570679, 0.5136971473693848, -1.4997462034225464, -0.4767925441265106, 0.304871141910553, -0.0034099980257451534, 1.2947254180908203, -0.22608906030654907, 0.3140772581100464, -1.132108211517334, -0.23859618604183197, 0.0866704061627388, -1.1451362371444702, -0.4847213923931122, 0.29201605916023254, -1.1299772262573242, -1.1915487051010132, -0.8900223970413208, 0.07482463121414185, -0.8277341723442078, 0.8409885168075562, -0.10747551172971725, 1.0727540254592896, -0.1431770622730255, -0.9028891324996948, 1.1554523706436157, 0.11661829054355621, -0.9499290585517883], [0.9630516171455383, -0.8305007815361023, -1.0070428848266602, -1.9475220441818237, -1.1127487421035767, -0.22768811881542206, 1.1939961910247803, -0.29685327410697937, -0.11887457221746445, 0.9735341668128967, -0.09608682245016098, -2.170011520385742, -0.4313300848007202, -0.3015514016151428, -1.440199375152588, -0.4230431616306305, 0.49947652220726013, -0.7039639353752136, -0.8210858702659607, -0.11409638822078705, -1.3672492504119873, -0.6652037501335144, 1.612946629524231, 1.070952296257019, 0.33701470494270325, 1.3111778497695923, 0.8757922649383545, -0.7853938937187195, -0.6153342723846436, -0.1608852744102478, 0.2468629777431488, -0.43631598353385925], [0.8626388311386108, 0.1389346420764923, 0.8936077356338501, -1.0579279661178589, 0.826901912689209, 0.11315305531024933, 0.48515602946281433, -0.8123486638069153, -1.0742990970611572, -0.0021437632385641336, 0.0964948907494545, -0.35816890001296997, -0.4169119596481323, 1.0185171365737915, 0.07888603210449219, 1.275498628616333, -0.4799053370952606, -0.04548501595854759, 0.07031287997961044, -1.4121036529541016, 0.6682822704315186, 0.18318775296211243, -0.11553583294153214, -0.3125573694705963, -1.1605300903320312, -0.15509231388568878, 0.32378268241882324, -0.10638529807329178, 0.03340369835495949, -0.7560337781906128, 0.3338924050331116, -0.44186317920684814], [1.1905072927474976, 0.18308696150779724, 0.368282288312912, -1.062790870666504, -0.4908938407897949, 0.5906574726104736, -1.3072295188903809, -0.258014976978302, -0.1764339953660965, -0.22901903092861176, 1.4958751201629639, -0.682947039604187, 0.3905012905597687, 0.025234811007976532, 0.17851340770721436, 1.436966896057129, 1.6882133483886719, 0.7347579598426819, 0.5132818818092346, 0.9766725897789001, 0.7624675035476685, -0.7412024140357971, 0.20184843242168427, -0.45715752243995667, 1.5246303081512451, -0.964518129825592, -0.17129230499267578, -1.522005558013916, -0.7760610580444336, -1.4154260158538818, -0.2453690469264984, 1.2290139198303223], [-0.595224916934967, 0.376383900642395, -1.2749114036560059, -0.29659557342529297, 0.37061476707458496, -0.3383004665374756, 0.5931560397148132, 0.8852325677871704, -1.3795466423034668, 0.8712663054466248, -0.3229907155036926, 1.1277437210083008, -0.10688439011573792, 0.21706929802894592, 0.16236570477485657, -1.144779920578003, 0.3724524974822998, -0.7737050652503967, 2.1446878910064697, -0.20822690427303314, 1.1678292751312256, -0.33003658056259155, 0.9771763682365417, -1.1671185493469238, -0.42669251561164856, 1.3337304592132568, -0.8947529196739197, -0.08174555748701096, -0.09220060706138611, -1.8476238250732422, 0.9288874864578247, -1.7114866971969604], [-0.7019139528274536, 2.4660797119140625, 1.0243372917175293, 1.316672682762146, 0.03349967300891876, 0.22254915535449982, 0.5500681400299072, -0.2874049246311188, 0.48174145817756653, -0.2758684754371643, -1.3574440479278564, -1.4451439380645752, -1.2693710327148438, -0.9131659865379333, 0.2356933057308197, -0.04526986926794052, -1.1069445610046387, -1.4146891832351685, 1.1495704650878906, -2.4642248153686523, 0.5704795122146606, 1.5852097272872925, -0.8338000774383545, -0.36626356840133667, -1.0596667528152466, 0.8905729055404663, -0.15308819711208344, -0.08878574520349503, -0.8546372652053833, -0.4338456392288208, -0.933240532875061, 0.12322511523962021], [-1.396456003189087, -0.9245994091033936, -0.08211825042963028, 0.22405578196048737, 1.1568495035171509, -0.1488877385854721, -0.7374452352523804, -0.6377658247947693, 1.103895902633667, -0.989576518535614, 0.1157284677028656, -1.2072795629501343, -0.7753829956054688, 1.3600901365280151, 0.02017984911799431, 1.7809773683547974, 1.6365270614624023, 0.823482871055603, -0.40789157152175903, -0.40507087111473083, -0.9365472197532654, 1.3801264762878418, -1.4954938888549805, -1.6337453126907349, -2.0125250816345215, 0.08901409059762955, -0.41483959555625916, 0.9221502542495728, -0.7633618116378784, -1.1792312860488892, 0.5349523425102234, -0.3199387192726135], [-1.3719189167022705, 1.2166399955749512, -1.9676182270050049, 2.347896099090576, 0.008903197944164276, -0.32852134108543396, -0.34861209988594055, -0.40689030289649963, -0.7182167768478394, 0.13008984923362732, -0.7782965302467346, 1.137358546257019, 0.6211900115013123, 0.20946329832077026, -0.7571173310279846, -0.8213762640953064, -0.7240744233131409, 1.0266841650009155, -0.21907486021518707, 0.47261080145835876, -1.1894409656524658, -0.9099299311637878, -0.8901858329772949, -0.7373720407485962, -0.9924471378326416, 1.1765260696411133, 0.7891526818275452, 0.4412628710269928, 0.7286890149116516, -0.05869844928383827, 2.123491048812866, -0.31056857109069824], [0.13930128514766693, -1.8544949293136597, 0.3074198067188263, -0.6711175441741943, 1.7649303674697876, -1.0668121576309204, 1.628434419631958, 1.0948482751846313, -1.3849257230758667, 0.5993085503578186, -1.647384762763977, -0.285745769739151, -1.3841744661331177, 0.19404326379299164, -0.5369316339492798, 0.7046186327934265, -1.8015327453613281, 0.2735004127025604, 0.1559586524963379, -0.42568275332450867, -1.290664553642273, 0.7607990503311157, 0.05022986978292465, -0.579355001449585, -0.581628143787384, 1.9151557683944702, -0.17464196681976318, 0.95621258020401, -1.6877150535583496, 0.3244057893753052, -0.6242602467536926, 0.8767465353012085], [-1.594046711921692, 0.2638142704963684, -1.0131367444992065, 0.2613891363143921, 0.0073065729811787605, 0.9171707034111023, 0.025885088369250298, 0.9301060438156128, 1.0977914333343506, 0.7513104677200317, 0.6524036526679993, 0.07159874588251114, -1.0575780868530273, -0.2299228310585022, -0.1462818682193756, -0.3841586112976074, 1.4017614126205444, -1.4602477550506592, -0.08616876602172852, 0.7488524913787842, 0.7787315249443054, 0.9403599500656128, -2.6664319038391113, 0.3717377185821533, 1.5125813484191895, 0.4914492964744568, 0.4037213921546936, 0.3828430473804474, -1.4422032833099365, -1.1632626056671143, -0.5102919936180115, -0.5473741292953491], [0.7930247783660889, -0.0649513304233551, 1.0835298299789429, -0.2868596017360687, 0.09321565181016922, 0.4966663420200348, 0.37335503101348877, -0.5379607677459717, -0.6085514426231384, -1.0150121450424194, -0.6897464394569397, -0.7689911127090454, 0.6589251160621643, -0.24694252014160156, -1.2200894355773926, -0.4098484218120575, 1.0362284183502197, -0.17165102064609528, 0.7619214653968811, -0.7293581366539001, -0.5535786747932434, -1.3444479703903198, -0.875708818435669, -1.0091453790664673, -1.8036407232284546, -0.28527331352233887, 0.6509715914726257, 1.0243239402770996, -1.1017389297485352, 0.8083549737930298, -0.14041781425476074, 0.21149270236492157], [-0.08797173202037811, -0.1561947762966156, -0.07852903008460999, 0.7054072618484497, 0.7692490220069885, 0.06361596286296844, 1.3966012001037598, -1.2185224294662476, -0.11931147426366806, 1.0370796918869019, 1.0948090553283691, 0.09469166398048401, 0.14618436992168427, -0.9982373714447021, 0.4567020535469055, -0.07019197940826416, 0.6679838299751282, -1.6755592823028564, -0.5577014088630676, -0.19066227972507477, 1.8467395305633545, -1.311290979385376, 0.08613310009241104, -1.6449320316314697, 0.263901025056839, -2.2111098766326904, 1.5211174488067627, -0.037006791681051254, 0.28579315543174744, 1.2266409397125244, 1.5770833492279053, -0.9108219146728516], [0.32965683937072754, 0.04712781310081482, -2.566042423248291, 0.5899259448051453, 0.4271937310695648, 0.44512835144996643, 0.39259037375450134, 0.43520796298980713, 0.7635669112205505, 1.3624273538589478, -0.9222403764724731, 0.9047632813453674, 0.7115580439567566, -0.504521906375885, 0.9561126828193665, 0.2452716827392578, -0.41584542393684387, 0.15037038922309875, 0.2883123457431793, -0.25848862528800964, -0.8009616732597351, -0.02731466293334961, 0.09197019785642624, -0.05247614160180092, 0.8935705423355103, -0.21153244376182556, 0.4325573742389679, 0.8362118005752563, 1.0974714756011963, 0.3412158191204071, -0.5169691443443298, 0.8986179828643799], [1.2515602111816406, 0.7920061945915222, 1.6562895774841309, 0.5182759761810303, -0.7203148603439331, 2.066488742828369, 0.13295294344425201, -1.2008243799209595, 0.34955647587776184, 0.5743009448051453, -0.11436185240745544, -1.5891993045806885, 0.7841154336929321, -1.4578031301498413, -0.4134800136089325, 0.4418151080608368, -2.340656280517578, -0.5222879648208618, 0.27823972702026367, -0.7525716423988342, 0.18983013927936554, 0.03491697832942009, -0.39137816429138184, -0.15174070000648499, -1.0390303134918213, 1.14208984375, -0.8472851514816284, -1.3291198015213013, 0.10784675180912018, -0.11605959385633469, 0.6046494841575623, -1.2494914531707764], [-0.849797785282135, 0.5454515218734741, -1.9842051267623901, 0.31220752000808716, -1.2691690921783447, 0.2743580937385559, 0.588710606098175, -0.3222046196460724, -0.11715291440486908, -0.7232887744903564, 1.2309812307357788, 0.22095005214214325, 0.43998807668685913, 0.08240355551242828, 1.0602138042449951, 0.3488878309726715, 0.4651089310646057, -0.3827924132347107, 0.9654146432876587, 0.4488077163696289, 0.7817161083221436, -0.48910319805145264, -0.7170252203941345, -0.3320043385028839, 0.01852240599691868, 0.055565230548381805, 1.0075010061264038, -0.40928152203559875, 0.0643870085477829, -1.7411044836044312, -0.3186703026294708, 0.36737850308418274], [1.2225828170776367, 0.5878651142120361, 0.3753252923488617, -0.2377280741930008, 0.7562375068664551, 1.4866654872894287, 0.575491189956665, 0.07869234681129456, 0.4586142301559448, 0.6722893118858337, -0.12341373413801193, 1.647341251373291, 1.3569257259368896, 0.5568836331367493, 0.710066556930542, -0.33582714200019836, 0.6798415780067444, 1.0124539136886597, -1.1764075756072998, -1.0591685771942139, 0.2349131852388382, -0.2511015832424164, -0.6811081171035767, 0.0005017726798541844, 0.8821019530296326, -0.5256875157356262, -0.12224052846431732, -1.029680609703064, 0.9349686503410339, -1.320997953414917, -0.7013315558433533, -0.8034842014312744], [0.46619218587875366, -0.17169053852558136, -1.9504703283309937, -0.8402193784713745, 1.1208709478378296, 0.36145198345184326, 0.17309044301509857, -0.4532318711280823, 0.7720160484313965, 0.5365310907363892, -1.9399858713150024, -1.0846219062805176, 0.1398422122001648, -0.1248486340045929, 1.5064270496368408, -0.35646429657936096, 0.3729274868965149, 0.507388710975647, -0.5707457065582275, 2.203569173812866, -0.6375274062156677, 0.27529847621917725, 0.337927907705307, -0.3050447404384613, -0.08525645732879639, -0.7866091728210449, 0.16472342610359192, 1.4507651329040527, -0.9369019865989685, 1.0804849863052368, -0.4680001735687256, -1.9696539640426636], [-0.4976866841316223, 0.8687260150909424, 0.0547855980694294, 1.0809433460235596, 0.43806585669517517, 0.26600557565689087, -0.7873867154121399, 0.5632262825965881, 0.029429681599140167, 0.07749689370393753, -1.2622164487838745, 2.0032894611358643, -1.5568253993988037, -1.5022653341293335, 0.23715777695178986, -1.786509394645691, -0.21683871746063232, -0.5986695289611816, -0.8150168061256409, -0.12490522861480713, -1.0140326023101807, 1.107506513595581, 0.21004514396190643, -0.7472193241119385, 1.1282684803009033, 1.5455173254013062, -0.3180120289325714, -1.8133580684661865, -0.5156295895576477, 1.2084686756134033, 1.136420726776123, -0.723241925239563], [-1.5591413974761963, -0.6787398457527161, -0.06306550651788712, 1.0798470973968506, -0.37334752082824707, -1.7434582710266113, 0.16966363787651062, -1.068152666091919, 1.4515691995620728, 0.8283863067626953, 0.5670934319496155, -0.25628480315208435, 0.5057849287986755, -0.7410197257995605, -0.5689678192138672, 0.6994905471801758, -0.2970831096172333, -1.4626702070236206, 0.5568106770515442, 0.2051670253276825, -0.703889012336731, -0.7687487006187439, 0.33975955843925476, -1.4865427017211914, 1.2018539905548096, 1.039193868637085, -0.33407384157180786, 0.07362855970859528, 0.3514691889286041, -0.4634670615196228, -0.8830088973045349, -0.5858723521232605], [1.1035245656967163, 0.4311036169528961, -0.37928181886672974, -1.009987711906433, 1.2092311382293701, 0.2523535192012787, 0.0768461599946022, 0.7610669732093811, -0.07938773185014725, 0.17842014133930206, 0.5548783540725708, 2.0286433696746826, -0.5389465689659119, -0.7882404327392578, 0.48833030462265015, 0.17616231739521027, -1.1284235715866089, 0.9872984290122986, 0.10189663618803024, 0.7480466961860657, 2.586360216140747, 1.0406627655029297, -1.3830021619796753, -0.31560954451560974, -0.7993468046188354, -0.5390912294387817, 1.3086183071136475, -0.42180967330932617, -0.25109320878982544, -0.2654280662536621, 0.2854176163673401, -1.5230770111083984], [-0.9972013235092163, 0.6618154644966125, -0.713819146156311, 2.7357053756713867, -1.1544914245605469, 1.4512768983840942, 0.8807393312454224, -0.3053551912307739, 0.6506887674331665, -0.4889998733997345, -0.5687118172645569, -0.6889109015464783, 0.6830359697341919, -0.6401527523994446, -0.04872460290789604, 1.0045231580734253, -0.5172812938690186, 0.021763600409030914, -1.0685290098190308, -0.3506253957748413, 0.7558441758155823, -0.22903679311275482, -0.23694774508476257, 0.1739094853401184, 0.2589060962200165, -0.7586201429367065, 0.2316799908876419, 0.5708820819854736, 0.0930619016289711, -0.4973381459712982, -1.509864330291748, -0.21999000012874603], [-0.13498960435390472, 0.824491560459137, -0.16102296113967896, 0.16711385548114777, 2.0672075748443604, -1.3041421175003052, 0.4164500832557678, -0.65906822681427, 1.3131450414657593, -0.7751017808914185, 0.031009400263428688, 1.1432006359100342, 2.272908926010132, 0.15302953124046326, 0.7918128371238708, 1.2025750875473022, -0.8030248284339905, -0.1043042242527008, 0.04759163782000542, 0.2895830571651459, -0.0055303750559687614, -0.7088444232940674, 1.0356544256210327, -0.5721177458763123, -1.4689991474151611, -0.012693402357399464, -1.7331005334854126, 0.612962007522583, -1.5348657369613647, 0.008046019822359085, -0.13148799538612366, 0.5855122804641724], [0.2323290854692459, 0.5670165419578552, -1.501441478729248, -0.22144515812397003, -0.1248992383480072, -1.220191240310669, -0.6084086298942566, 0.7361154556274414, 0.49454084038734436, -0.6440911889076233, -1.3255820274353027, 0.20615006983280182, 0.7310380339622498, -1.6075966358184814, 1.493667483329773, -0.5271442532539368, -0.13419590890407562, -0.8670909404754639, -0.08414605259895325, 1.3215701580047607, 0.47540387511253357, -0.572105884552002, 0.4617660343647003, -1.1116065979003906, 1.4683716297149658, -0.1637948453426361, 0.14430207014083862, -1.1722217798233032, -0.710481584072113, -1.9389564990997314, -0.7044395804405212, -0.05726257339119911], [1.682741641998291, -1.334847092628479, -0.6666629314422607, -0.6316371560096741, -0.40452679991722107, -0.11800017207860947, 1.1351776123046875, 0.20579130947589874, 0.1664823591709137, 0.4565852880477905, 1.2596322298049927, 0.3876899778842926, -0.6676679849624634, -0.7841145396232605, 2.2173361778259277, 1.4745784997940063, -0.9007484912872314, -1.2583892345428467, 1.0683047771453857, -0.5714574456214905, 1.853925347328186, -1.4380110502243042, -1.0054298639297485, 0.02843964472413063, -0.5798971652984619, 1.743185043334961, -1.1042311191558838, -0.67525714635849, 1.0744616985321045, 0.5078455805778503, 1.1172994375228882, -0.3423696756362915], [0.614289402961731, 0.105184406042099, 0.6191663146018982, -0.6439830660820007, 0.41741812229156494, 0.4681159257888794, 0.7866160869598389, 0.10629487037658691, 0.6467719078063965, -0.5400711894035339, -0.707145094871521, 0.6944373846054077, 0.22407381236553192, -0.7435429096221924, 0.3715817928314209, 1.267664909362793, 0.6388384699821472, 1.4569498300552368, -1.707351803779602, 0.3107307553291321, 1.2828326225280762, 0.40967118740081787, -0.7198513746261597, -0.12379235029220581, 0.4012455642223358, 2.429717779159546, -0.4175039529800415, 1.1222118139266968, -1.5610415935516357, 2.3540825843811035, -1.8955522775650024, 1.1018844842910767], [1.5961802005767822, 0.20103836059570312, -0.28143560886383057, 1.2688922882080078, -0.061924003064632416, -0.35966378450393677, 0.05732778459787369, -0.49371495842933655, 0.08706393837928772, -0.2792099416255951, -1.127502202987671, 1.944498062133789, -1.322096347808838, -2.1895554065704346, 0.8064714670181274, 0.016858533024787903, -0.2926013469696045, -0.864167332649231, -0.8536337018013, 0.8136157989501953, -1.9715640544891357, 2.424807071685791, 1.3272514343261719, 0.9095582962036133, 0.7855058312416077, -0.34945353865623474, 0.4279141426086426, -1.2059555053710938, 0.2719617486000061, 1.0092499256134033, -2.3855905532836914, -1.1531522274017334], [-0.38129615783691406, 0.15096934139728546, 0.3830951750278473, -0.010474122129380703, 1.2205497026443481, 1.1898919343948364, -1.639102578163147, -1.0342707633972168, -0.9879559874534607, 1.08915376663208, -0.7961809039115906, -1.0703305006027222, 0.30421945452690125, -1.2625653743743896, -1.0323914289474487, -0.3043266534805298, 0.608701765537262, -1.0061843395233154, 1.0779227018356323, -0.11057582497596741, -1.258131504058838, 1.360793113708496, -0.27876564860343933, 0.8743043541908264, 0.11229049414396286, -0.6770660281181335, -0.8856086730957031, -0.7530726790428162, -2.4002037048339844, -0.7192897200584412, 0.09496933966875076, 1.5034222602844238], [-0.542219340801239, 0.15515533089637756, 0.2548966109752655, 0.3229163587093353, 0.24070841073989868, -0.017106052488088608, 1.6417065858840942, 0.48958849906921387, -1.9370216131210327, 1.5226542949676514, -0.2291327267885208, 0.29071715474128723, 0.6259254217147827, -2.7045867443084717, 0.8855813145637512, 0.7486701011657715, 0.7851234674453735, -0.21027879416942596, -0.31545335054397583, -1.7972919940948486, -1.726736068725586, -0.9789855480194092, -0.7578529119491577, -1.191349983215332, 1.2074835300445557, 0.10293688625097275, -0.3611542880535126, -0.7667412757873535, -0.6139456033706665, 0.13601809740066528, -1.231055736541748, -0.14692199230194092], [-1.1117174625396729, 0.020639585331082344, -1.2663097381591797, 0.6500826478004456, 0.4070063531398773, 0.012725220061838627, 1.5569064617156982, -0.602335512638092, -0.2283044457435608, -0.32640543580055237, 0.15321891009807587, -0.02769196406006813, 0.4390408396720886, 1.5783509016036987, -1.087575912475586, 0.306304007768631, 0.033991117030382156, -0.42189231514930725, -0.42308509349823, 0.8966862559318542, -0.13439419865608215, 0.1471942663192749, 1.9591313600540161, -2.189300060272217, 0.3222864270210266, 0.3871857523918152, -0.4490266442298889, 0.48807084560394287, -0.4318687319755554, 0.684345543384552, -0.8890710473060608, 1.1521522998809814], [1.774806261062622, -2.0842294692993164, -0.3702947497367859, 0.7871299386024475, -0.8048954606056213, -0.20098620653152466, -0.8406997919082642, 0.6918144822120667, 1.2458139657974243, -1.5295597314834595, -0.1088300496339798, -0.9113088250160217, -1.2238479852676392, -1.8951351642608643, 1.6481260061264038, -0.07035490870475769, -0.5474078059196472, -1.401076078414917, -0.7315825819969177, -0.4639400541782379, -1.025465726852417, -0.6502780318260193, -0.18743905425071716, 0.6235134601593018, 0.9258778691291809, 0.9294316172599792, 0.16577619314193726, -0.47178441286087036, 0.5444713830947876, 0.6401693820953369, 0.24278251826763153, 0.561591625213623], [0.028255419805645943, -0.9390303492546082, -1.0299803018569946, -0.47612684965133667, -0.4878261089324951, 0.5448586940765381, -0.48933953046798706, -0.7724244594573975, 0.28831925988197327, -0.8873310089111328, -0.8807287216186523, -0.33836808800697327, -0.6178675293922424, 0.6866468191146851, -0.4583761692047119, 1.0665391683578491, 1.3893206119537354, 1.3351788520812988, -0.15542659163475037, -0.29533544182777405, 0.39821189641952515, -0.608783483505249, -0.42959412932395935, -0.2251337766647339, -0.5668860077857971, -0.05477175861597061, 0.3448091745376587, 0.5678630471229553, -0.013478018343448639, -0.33948975801467896, -0.9206935167312622, 0.1286289095878601], [0.6330755949020386, 1.047102928161621, -0.5997236371040344, -0.3795289993286133, 0.4553876221179962, -0.8256313800811768, -1.2864645719528198, 1.0676803588867188, 0.594959020614624, -1.7348847389221191, 1.404825210571289, 0.48886051774024963, -0.029251275584101677, 1.6917805671691895, 0.07292596995830536, -1.1553821563720703, -0.8381505608558655, 1.251894235610962, 0.9028587937355042, 1.0938184261322021, -0.5673394203186035, -0.1390896737575531, -0.6106539368629456, 1.7515836954116821, -0.5667663216590881, 1.3062623739242554, 0.04922816902399063, -0.5383620858192444, 1.0877639055252075, 0.6468307375907898, 0.24617846310138702, 0.09021975100040436], [0.7627524137496948, -1.2915095090866089, -0.18265710771083832, 0.18806737661361694, 0.631949782371521, -1.679141879081726, -0.38007059693336487, -0.8469914793968201, -0.3889414072036743, 0.9521019458770752, -0.1586589217185974, 0.2100733518600464, -0.052761469036340714, 0.5489490032196045, -0.4351913332939148, -0.7169232368469238, 0.7258384227752686, -0.05647579953074455, 0.8511581420898438, 0.9227726459503174, 0.7687085270881653, -0.8979480862617493, -1.1997416019439697, 0.1943567991256714, -0.5306342840194702, -2.0364315509796143, 1.9148914813995361, 0.30514004826545715, -1.629469394683838, 0.3538082540035248, 0.46661892533302307, 0.3414616286754608], [0.8268001675605774, 0.7849245071411133, -0.5626099705696106, -1.239846110343933, 1.744672417640686, -1.1005163192749023, -0.3480685353279114, 0.16385093331336975, 0.2730714976787567, 0.6238334774971008, 1.1183115243911743, -0.9608916640281677, -2.781336784362793, 0.3179855942726135, 0.16138575971126556, -1.491851568222046, -0.9233110547065735, 0.0817335769534111, -0.11404276639223099, 0.01845826953649521, 0.6986495852470398, 0.12250599265098572, -0.5576761364936829, 0.07951876521110535, -0.12203092873096466, 1.1416122913360596, 0.47657889127731323, 1.6668778657913208, 0.5084449648857117, -0.9062954187393188, -0.4272488057613373, -0.4165719449520111], [2.2446706295013428, 0.3803841471672058, 0.6345282196998596, -0.8018754720687866, 0.1497424989938736, 0.4622749090194702, -0.30107027292251587, -0.48561444878578186, -1.5277471542358398, -0.32491806149482727, 0.21351151168346405, -0.8695297241210938, -2.1677563190460205, -0.15797345340251923, 0.7943137884140015, 0.7156230807304382, 0.6353079676628113, -2.163867950439453, 0.3088240921497345, 1.5183779001235962, -0.18578298389911652, -0.033685553818941116, 0.4906119704246521, 0.4425721764564514, -1.0664384365081787, 0.7455137372016907, -1.717241883277893, -0.1333102583885193, 0.8241109848022461, 1.2177276611328125, -0.7070609927177429, 0.2611030340194702], [-0.06318534910678864, 0.6808362603187561, 0.12582089006900787, 1.2451021671295166, -0.519031286239624, -1.5539802312850952, 0.20950672030448914, 0.013589205220341682, 0.550460934638977, -0.062386706471443176, 0.6657074689865112, -0.2593863606452942, -0.13323603570461273, -0.70841383934021, 0.8308696150779724, 0.4705466628074646, -0.7009065747261047, -0.7613304853439331, -0.6261845827102661, 0.36027589440345764, -0.07924581319093704, 0.009869993664324284, -0.20567993819713593, 0.35062408447265625, -1.1453936100006104, 0.49414974451065063, 0.3061831295490265, 0.050901614129543304, -0.004767653997987509, -0.5377399921417236, 1.4333034753799438, 1.154067873954773], [-1.034071445465088, 0.6013517379760742, 1.09125554561615, -0.8433857560157776, -0.10687849670648575, 0.7834761142730713, 1.9814521074295044, -0.7318077087402344, -0.9461330771446228, 1.7273447513580322, 0.3292181193828583, -1.2749873399734497, 0.46185070276260376, 0.20682303607463837, -1.2353404760360718, -0.34544387459754944, 0.33274197578430176, 1.5094736814498901, 0.12970708310604095, 0.8340805768966675, 0.22334516048431396, -0.3097781836986542, 0.6565629243850708, -2.282771587371826, 1.7016897201538086, -0.6986396312713623, -0.18639317154884338, -0.07281030714511871, -1.4295507669448853, -0.37141987681388855, -1.8972221612930298, 0.41772451996803284], [-0.1521133929491043, 1.337270736694336, -0.2890889048576355, 1.6430555582046509, 0.9509581923484802, -0.8659240007400513, 1.0069552659988403, -0.8786689639091492, 0.7855103015899658, -1.199853539466858, -0.7042457461357117, 0.07604436576366425, -0.031590379774570465, -0.17182371020317078, 0.31052786111831665, -1.1219671964645386, 0.42706742882728577, 0.7581511735916138, -1.0404386520385742, -1.4769785404205322, -0.1296314299106598, 0.766291081905365, -1.7404768466949463, -2.1209158897399902, 0.4967119097709656, -0.6187511086463928, -0.018616195768117905, -1.7663087844848633, -1.2377203702926636, -0.3867053687572479, 0.5083786845207214, -0.07148580998182297], [-0.17629708349704742, -1.0022655725479126, 0.077775739133358, 0.627048671245575, -0.1991964429616928, -0.5822319388389587, 0.9165270924568176, 0.7957752346992493, 0.19894665479660034, 0.013788927346467972, -0.13235385715961456, -0.9894262552261353, 0.624359130859375, 0.419766902923584, 0.46668756008148193, -0.7855950593948364, 0.2739233076572418, -0.6041406393051147, -0.9655989408493042, -0.9300158619880676, 1.4565905332565308, -0.02680918388068676, 0.3399820923805237, -0.6585326194763184, -0.6976687908172607, -0.000579143175855279, 0.11023374646902084, -1.8661774447537027e-05, 1.0832875967025757, -0.33662497997283936, -0.9390848875045776, -0.8758416175842285], [-0.13942791521549225, 0.7470681071281433, 0.948401927947998, 1.2491745948791504, -0.07505106180906296, -0.7832885384559631, -0.9469844102859497, -0.8565214276313782, -1.8447082042694092, 0.9221493005752563, 0.018701625987887383, -1.4488589763641357, -0.4636252820491791, 0.6013027429580688, -0.043590646237134933, -0.6513566970825195, 0.9792237281799316, 0.13496507704257965, 0.789508581161499, 0.22071455419063568, 0.8822143077850342, -0.23159347474575043, 1.18435537815094, -0.38848772644996643, -0.8412813544273376, 0.3650059700012207, 0.13726074993610382, 0.8075442910194397, -0.020977403968572617, -0.4609437882900238, 0.9931617379188538, 0.5519317388534546], [-1.0803817510604858, -0.5172668099403381, -1.160059928894043, -1.645196795463562, 1.799566388130188, 0.5286477208137512, -0.6660116314888, -0.8411547541618347, 0.5871555805206299, 1.0753823518753052, -0.9846308827400208, -1.5158910751342773, 0.158426433801651, 1.668264627456665, 1.6589465141296387, -1.3877675533294678, -0.13701994717121124, -1.2771550416946411, -0.28150835633277893, 0.0012835441157221794, 1.1076515913009644, -0.3459407389163971, 0.6712492108345032, -0.7948699593544006, -0.15391837060451508, -0.3006732165813446, -0.6093279123306274, 0.41820594668388367, -0.7100295424461365, 0.5044475793838501, -0.009428662247955799, -0.21579842269420624], [-0.33105963468551636, 1.0256742238998413, -0.4797307848930359, -0.27280718088150024, 0.8436890840530396, -0.19531475007534027, 0.861143946647644, -0.6969170570373535, 0.3057985007762909, 0.39149248600006104, 0.634733259677887, -0.46856075525283813, 0.6135073304176331, -0.6995096802711487, 0.5906064510345459, -0.3428642451763153, 0.5121853947639465, 0.483022540807724, -1.2734861373901367, 0.5220004916191101, 0.6842111349105835, -0.8433513641357422, 0.9084323644638062, -1.1148884296417236, 0.9066681861877441, -0.3522241413593292, 0.8332683444023132, 0.9069023132324219, -1.2634655237197876, 0.4266778528690338, -0.7809692025184631, -0.14328566193580627], [0.22960959374904633, 0.5555926561355591, 0.31570863723754883, -0.8333189487457275, -0.7599843740463257, 0.5412636399269104, -0.0825749933719635, -1.427272915840149, 0.6747509837150574, -0.9716128706932068, -0.15263478457927704, -0.58095782995224, 0.2949720621109009, -0.23316912353038788, -0.7435044050216675, 0.8187124729156494, 0.1877766251564026, -0.06933213770389557, 0.015110760927200317, 0.2956262528896332, 0.6590591669082642, -0.1191801056265831, 0.35816529393196106, 0.0701524168252945, -1.2204540967941284, -0.4469822943210602, 0.04277823492884636, 0.7217241525650024, 1.1074551343917847, -0.833572506904602, 1.0629924535751343, 0.40302813053131104], [0.7383028864860535, -0.43766507506370544, -0.6680490374565125, 0.7445823550224304, -0.43419644236564636, -1.0491938591003418, -1.729643702507019, 1.978255271911621, 1.3820775747299194, -0.8697550892829895, 0.370335191488266, -1.4205858707427979, 1.1417981386184692, 0.17647644877433777, 0.5178146958351135, 1.5603344440460205, 0.14286625385284424, 2.7946712970733643, 0.6129837036132812, -0.39219364523887634, -0.09164384007453918, -1.1379765272140503, -1.610852837562561, -0.7919199466705322, -0.34229981899261475, 0.26991334557533264, -0.295328825712204, 0.5069501996040344, -0.4581841826438904, -0.0015182527713477612, -0.401856929063797, 1.0045007467269897], [-0.4466696083545685, 0.8896155953407288, 0.9217647314071655, 0.7780743837356567, -0.33428359031677246, 0.2736888527870178, -0.38875970244407654, -1.5869876146316528, -0.2893806993961334, -0.19527319073677063, 0.5845621824264526, -2.0978360176086426, 1.5449798107147217, 0.11996155232191086, -1.4512220621109009, -1.8915125131607056, -0.09686093777418137, -1.1535457372665405, -0.7261408567428589, -0.13933773338794708, -0.270499050617218, 1.778429388999939, -0.4509499967098236, -0.1635362207889557, -1.1949793100357056, 0.3497462868690491, 0.3789505958557129, 1.4791733026504517, -0.021904651075601578, 0.2815382778644562, -2.2969295978546143, 0.8420420289039612], [-0.09116706252098083, 0.5244362950325012, 0.1359376758337021, -0.773548424243927, 0.6097428202629089, -0.33110511302948, -0.9369696378707886, 0.6545455455780029, -1.4462597370147705, 1.5019720792770386, 0.24215605854988098, -1.4915393590927124, 1.0155045986175537, 0.596104085445404, 0.5897159576416016, 1.0323108434677124, 0.2568487823009491, 0.27840954065322876, 1.0276284217834473, 1.7148572206497192, 0.08468983322381973, -0.5319086909294128, 0.06934274733066559, -0.7175942659378052, 0.24169854819774628, 0.875255286693573, -0.6309872269630432, -0.7935072779655457, -1.3454225063323975, -0.3314022123813629, -0.08349908143281937, 0.8769530057907104], [-0.8704610466957092, 0.49215713143348694, 0.7882193922996521, 0.3096872866153717, -1.7777047157287598, -0.4861144721508026, -0.2899189889431, -0.6760058999061584, -1.4345626831054688, 0.41331619024276733, 1.5171027183532715, 0.8732861876487732, -0.6843394041061401, 0.6336392164230347, 0.9655784964561462, -1.7579345703125, -0.0052357870154082775, 0.19140085577964783, -0.4564058184623718, -0.037620000541210175, 0.0038196276873350143, 0.6241923570632935, 0.2569860517978668, 1.595009684562683, 0.1542579084634781, -0.6745092272758484, -0.909267008304596, 0.15053372085094452, -0.8257404565811157, 1.0633246898651123, -0.034278884530067444, 1.1783668994903564], [0.8211038112640381, 0.8919080495834351, -0.38179755210876465, -0.792945384979248, -0.6301818490028381, -1.7366290092468262, -1.9741302728652954, -0.4923308193683624, 0.32153287529945374, -1.2407060861587524, 0.2578786313533783, -0.28944772481918335, 1.6978018283843994, -0.8185602426528931, -0.17436470091342926, -0.6796022057533264, 0.6865559816360474, -0.4459865987300873, 0.048317503184080124, 1.2501300573349, 0.864171028137207, -0.1592816263437271, -0.3134143352508545, 0.9444461464881897, 0.6222582459449768, 0.3418857753276825, 1.7972928285598755, 0.7947157025337219, -1.117717981338501, -0.9666922688484192, 0.6420615315437317, 0.8519504070281982], [-2.004854202270508, -0.38302651047706604, 1.465360164642334, 0.6492170691490173, -0.44992804527282715, 0.44727230072021484, -1.007864236831665, 1.2318172454833984, 0.3709157407283783, 1.1116470098495483, 0.9229573011398315, 2.0607078075408936, -1.3700627088546753, -0.4843626618385315, 0.7257727384567261, -1.4518821239471436, -0.4649411737918854, 0.3898329734802246, 1.0771831274032593, -0.8964288830757141, 0.7613799571990967, -0.07749511301517487, -0.4129839241504669, 0.9069809317588806, 1.0095423460006714, -1.4022027254104614, -1.4664503335952759, 1.7008408308029175, -0.2542349398136139, 0.084206223487854, -1.9123258590698242, 0.6720555424690247], [-0.2758660614490509, -0.06294621527194977, 0.06593309342861176, -1.1148254871368408, -0.3623509109020233, 0.11959946900606155, 0.9864968061447144, 0.288713663816452, -0.655020534992218, -1.130940556526184, 0.14026424288749695, -0.5487880110740662, -0.2134215235710144, -0.4700824022293091, -0.10493423044681549, 0.5713694095611572, -0.827538013458252, 0.2430254966020584, -0.8164658546447754, -0.7418652772903442, 1.02431321144104, 0.20796124637126923, 1.1157282590866089, 0.15198065340518951, -1.3438148498535156, -0.4055980443954468, 0.16885708272457123, 0.48218607902526855, 0.19040855765342712, -0.8607842326164246, 0.9857194423675537, 0.31597626209259033], [-0.20340487360954285, -0.2497444748878479, 0.1661854386329651, 0.6003290414810181, -0.3428644835948944, -1.5280442237854004, -1.9181638956069946, 0.8794559240341187, 0.7608531713485718, -0.45149290561676025, 0.43884941935539246, 0.24972666800022125, 0.39919981360435486, -0.29717421531677246, 0.061780329793691635, -1.0445606708526611, 0.6827054023742676, 1.8123034238815308, 0.43161725997924805, 1.3853754997253418, -0.034140076488256454, 1.0451918840408325, -0.7937897443771362, -0.7380059361457825, -0.8943930268287659, -0.33823704719543457, 0.7837468981742859, 0.23047810792922974, -1.4172537326812744, 0.6174609065055847, 0.18628384172916412, -0.1306730955839157], [1.1789971590042114, -0.7951891422271729, 0.02245362102985382, 0.7231569290161133, 0.12376316636800766, -1.2686618566513062, 0.07895974814891815, 0.5366030335426331, 0.6613086462020874, -0.515920877456665, 0.7109236121177673, 0.20909762382507324, 0.6716787219047546, 0.3580234944820404, -0.24893906712532043, -0.4386548101902008, 2.651834011077881, 0.14720092713832855, 0.08317718654870987, 0.11488005518913269, -1.2610770463943481, 0.9324216842651367, -0.8616434931755066, -0.9327436089515686, 0.9070851802825928, 0.7633330225944519, 0.2903458774089813, -0.81351637840271, -1.2860267162322998, -0.8238869309425354, 0.5502777695655823, -0.040349412709474564], [1.1953790187835693, 1.8946597576141357, -1.2594913244247437, -0.2833198606967926, 0.05539720132946968, 0.7141937017440796, 1.3744993209838867, -1.6519941091537476, 1.811841368675232, -0.6851139664649963, 1.230362057685852, 1.0641173124313354, 0.806281328201294, 1.2093900442123413, -0.015196616761386395, -0.09275493025779724, -1.2400314807891846, 0.4814048111438751, 0.14224308729171753, 0.2960188388824463, -0.11182742565870285, -1.0229743719100952, 0.6175954341888428, 0.10099146515130997, 0.9013808369636536, 0.05538683384656906, 0.04449005052447319, 0.7413555979728699, -1.2293071746826172, -0.14961670339107513, -0.7104336023330688, -1.343554973602295], [-0.5567207336425781, 0.5086065530776978, 0.11916586011648178, -0.707410454750061, -0.9115555882453918, 0.7081169486045837, 0.39927223324775696, 0.05380391329526901, -0.4580695629119873, 1.1932437419891357, 0.04070102050900459, 0.7926810383796692, 0.83100426197052, 1.1900029182434082, -0.1443062126636505, 0.5614647269248962, 0.6928015351295471, 0.2972145080566406, 0.22459079325199127, -1.1039081811904907, 0.38891109824180603, -1.5755360126495361, -0.5712944269180298, -0.5411047339439392, 0.4872630834579468, 1.0557188987731934, -0.19615589082241058, 0.2639460861682892, 0.07608000934123993, -0.536996066570282, 1.4070895910263062, 0.06739095598459244], [0.514449954032898, -0.5646964907646179, -1.1628406047821045, 1.3758693933486938, 0.30478230118751526, -2.0699877738952637, 0.41328251361846924, 1.905165433883667, -0.28577545285224915, 0.4261048436164856, -1.4793837070465088, -0.6593954563140869, -0.4919068217277527, 0.5534281134605408, 1.2748358249664307, -1.480058193206787, -0.4186041057109833, -1.6953210830688477, 1.2185055017471313, 1.3148542642593384, 1.216279149055481, 0.0023318585008382797, 0.274013876914978, 0.13862594962120056, 0.34773874282836914, -0.5558956265449524, -0.5463846921920776, 0.11058612912893295, -0.14488111436367035, 0.40140020847320557, -0.7345331907272339, 0.10148957371711731], [-0.1918598711490631, -0.8789515495300293, -1.1823869943618774, -1.7806396484375, 0.43567797541618347, -0.8467681407928467, 0.3066742718219757, -0.6226282715797424, 0.35460174083709717, 0.15404048562049866, 0.682513415813446, 2.322327136993408, 1.1297330856323242, -1.8816460371017456, -0.22891780734062195, 0.6703394055366516, 0.989168643951416, 0.377294659614563, 0.13978074491024017, 0.6974403262138367, 1.5299842357635498, 0.3435392677783966, -0.8818724155426025, 0.7738205790519714, -0.29428568482398987, 0.6677061319351196, -1.7684091329574585, -1.0476423501968384, 0.3827310800552368, 0.5089364051818848, -2.4250779151916504, 2.003782272338867], [-1.1464905738830566, 0.6098715662956238, -0.22885772585868835, 0.07383901625871658, 0.9461937546730042, 1.1825237274169922, 1.7959245443344116, 1.4601818323135376, 1.2896710634231567, -0.9080131649971008, 0.4516617953777313, 0.18420863151550293, 0.1736898124217987, -1.1235185861587524, 1.4297622442245483, 0.19029897451400757, 0.332851767539978, -0.08014082908630371, 1.0561259984970093, -0.9760980606079102, 0.06659593433141708, -0.9611324667930603, -0.8466296792030334, -0.8920687437057495, 1.2830700874328613, -0.9639613628387451, -0.2644813358783722, 0.19479525089263916, 0.05274258553981781, -1.4688466787338257, -0.2504544258117676, 0.32041308283805847], [0.05600263178348541, -1.3890026807785034, -1.6371619701385498, 0.16888876259326935, -1.2730976343154907, -1.5157109498977661, -1.0562646389007568, 0.8237926363945007, -1.5667805671691895, 0.1865958571434021, 0.33064934611320496, 1.2752540111541748, 1.1599774360656738, 0.5446594953536987, 1.5132938623428345, 1.2617374658584595, -0.9157826900482178, 0.2583170533180237, -0.9755743145942688, -0.9237523078918457, -0.4360578954219818, -1.30128812789917, 0.0993533506989479, 0.4185367822647095, 0.9452539086341858, 1.4282413721084595, 1.8612730503082275, 0.21129781007766724, 0.4618845582008362, 1.4068342447280884, 0.03691641986370087, -0.5260594487190247], [1.953758955001831, -0.6325810551643372, 0.6080247759819031, 1.1888045072555542, 0.1948605477809906, 0.3603052496910095, 1.4827897548675537, -0.00900200568139553, -0.8076775670051575, -1.6420985460281372, 0.5004311203956604, -0.8494186401367188, 0.34903931617736816, 1.4672971963882446, -1.0416711568832397, -0.1216619461774826, -0.39737430214881897, 0.3306746780872345, -0.5011408925056458, 0.6708390116691589, 0.2057056427001953, -0.20610679686069489, 0.2629150450229645, -0.04189565032720566, 0.01390081923455, -0.04141108691692352, 0.496925950050354, 0.1038433387875557, 0.7994921803474426, -0.019506806507706642, 1.0335845947265625, -0.6906920671463013], [-0.7519212365150452, 0.028709199279546738, -0.3734438121318817, -1.8663932085037231, 0.5655680298805237, -0.4890199899673462, 0.7654662728309631, -0.5832020044326782, -0.3190394937992096, -0.3867935240268707, -0.6248393058776855, -0.06349142640829086, 0.33585289120674133, 0.1842363029718399, -0.36995428800582886, 1.1869783401489258, -0.49784618616104126, -0.7811731100082397, -0.5127903819084167, -0.9687855839729309, 0.9007889628410339, -0.7547324895858765, 0.4965243935585022, -0.5459470152854919, -0.2002354860305786, -1.6588090658187866, 0.6183916926383972, 1.028436303138733, -0.6885697841644287, -0.008994204923510551, 0.9273950457572937, 0.47572383284568787], [-0.8447886109352112, -0.12161795049905777, 0.6286481022834778, 1.2810758352279663, -0.9595116972923279, 1.2217185497283936, -0.07280948758125305, -1.0563491582870483, 0.5278868675231934, -1.3872150182724, 1.551608920097351, -0.9464927911758423, -0.5573853254318237, -1.2190196514129639, -0.8196398019790649, -0.43619880080223083, 0.3804001808166504, 0.24212509393692017, -1.3755099773406982, -0.22853022813796997, -0.626791775226593, -0.913715124130249, 0.1425008922815323, -0.31222793459892273, -0.8321876525878906, -0.22146673500537872, 0.5469352602958679, -0.09813590347766876, -0.12295591831207275, -0.3865239918231964, 2.8768675327301025, -0.9361410737037659], [1.4319263696670532, -0.288718581199646, -0.5891515016555786, 0.3208427131175995, -0.5317626595497131, 0.27286142110824585, -0.8743504881858826, 1.3511470556259155, -2.41817307472229, 1.9861506223678589, -0.27097272872924805, 1.5633000135421753, 2.0017271041870117, -1.5511552095413208, 0.642268717288971, 0.431109219789505, -1.277657151222229, 1.0293159484863281, -0.6810498833656311, 0.6924493908882141, -0.34169644117355347, -0.13076047599315643, 0.13260677456855774, -1.0229161977767944, 0.7456458210945129, -0.2282639443874359, -0.5681904554367065, 0.2380945384502411, -0.1727515459060669, -1.0948773622512817, -0.05892588198184967, 0.2735418677330017], [0.94180828332901, 1.926814079284668, 1.9244534969329834, -1.2937817573547363, -0.4811711311340332, -1.7144488096237183, 1.6819977760314941, -0.6041685342788696, -0.01960703358054161, 0.9679916501045227, 1.755532145500183, -0.5276978015899658, 0.2645682394504547, 0.7481814622879028, 0.8359630703926086, 0.8025794625282288, 0.5873196125030518, 0.26345688104629517, 0.34926456212997437, 1.0831602811813354, -1.0118224620819092, -0.8788247108459473, -2.351358413696289, 0.029539605602622032, -1.000836968421936, -0.4677044451236725, -0.8904439806938171, 2.2178053855895996, -0.5773689150810242, -0.40746423602104187, -1.1470733880996704, 0.06093154847621918], [-1.132161259651184, 0.3696228563785553, 0.11527279019355774, 0.4999110996723175, 0.32756900787353516, 0.007128581404685974, 1.1898547410964966, 0.6628671288490295, -0.2590778172016144, 0.7282909154891968, 0.45564183592796326, -0.4011082649230957, -0.3105197548866272, -1.2137441635131836, -0.36109843850135803, 1.6901394128799438, 0.5664768815040588, -1.0756398439407349, -0.020372847095131874, -0.15586085617542267, -0.8326720595359802, 0.8927409052848816, -2.3595285415649414, -0.1993078887462616, 0.07807683944702148, 0.6538119316101074, -0.38239967823028564, -0.004347595386207104, -0.4414026141166687, 0.03980231657624245, -1.2304043769836426, -0.5277993083000183], [-1.0387614965438843, -0.840570867061615, 0.9854525923728943, 0.6059880256652832, -2.1302378177642822, 0.2708091735839844, 0.5305573344230652, 0.9551472663879395, -0.5451699495315552, 0.23661820590496063, 1.7412508726119995, -1.7283451557159424, -0.3859952390193939, 0.7859431505203247, 0.6871433854103088, 0.8954493403434753, -0.5606759190559387, 0.12471609562635422, -0.4121495485305786, -0.039494093507528305, 1.2502659559249878, 1.27316415309906, -1.5141315460205078, 0.6571211814880371, -0.5490514636039734, -0.3141685426235199, 0.5807993412017822, -0.31906867027282715, 0.3945002555847168, 0.5752840042114258, -0.7520946264266968, -0.5436604022979736], [-1.2819843292236328, 0.14502248167991638, 0.26099374890327454, 0.4254246950149536, -0.2624426782131195, -1.4618847370147705, -0.28655120730400085, 0.6948150992393494, 0.19939760863780975, 0.5037475228309631, -1.0462404489517212, -0.5969679951667786, -0.014227003790438175, -1.086990237236023, -0.3944994807243347, 0.8862659335136414, 0.07996264845132828, 0.8293831944465637, -0.12706542015075684, -0.10507658123970032, -0.23940525949001312, -0.25722455978393555, -0.8873217105865479, -1.3769032955169678, 0.6876079440116882, -0.4335991144180298, 0.8625179529190063, -0.965661346912384, 0.044890180230140686, 0.552749514579773, 1.0938493013381958, -0.6204091310501099], [0.6688123941421509, 0.01753457449376583, -0.41389787197113037, 1.00045645236969, -0.2727262079715729, 0.7615876197814941, 1.132540225982666, 0.20200799405574799, -0.7204036712646484, -1.9215922355651855, -0.5870078802108765, -0.6210640072822571, 0.6196168065071106, -0.8843241333961487, -0.44734635949134827, 1.0180397033691406, 0.23273396492004395, 0.7104224562644958, 0.4052901268005371, 0.029464639723300934, -0.0022503985092043877, -0.336516797542572, -1.1369644403457642, -0.5129423141479492, -1.9902420043945312, -1.0738797187805176, 0.7223508358001709, 0.3012045919895172, 1.1013720035552979, -0.3636513948440552, -0.13135364651679993, -0.8205247521400452], [-0.323294460773468, 0.07645285874605179, -2.2206735610961914, 0.6274208426475525, 0.867821991443634, -0.182850182056427, -1.05392587184906, -2.4575016498565674, 1.0719772577285767, 0.21325989067554474, -0.5208280086517334, 1.8895213603973389, 0.5469582676887512, 1.18576979637146, 0.08078993856906891, -0.10334174335002899, 0.8194111585617065, 0.6764994263648987, 1.06746244430542, 0.42429473996162415, 0.5139182209968567, 1.1236075162887573, -0.33786800503730774, 1.247178077697754, 0.8599873185157776, 0.9272923469543457, 0.9125577211380005, 1.6981061697006226, -1.2203449010849, -0.36423978209495544, 0.030944177880883217, -0.04904865473508835], [-0.5928424596786499, 0.9847495555877686, -1.0618133544921875, -1.6363693475723267, -0.9533442258834839, -0.5213503837585449, 0.05115212872624397, 0.05120271444320679, -0.5773526430130005, -0.03252444416284561, 2.4075376987457275, 0.08739674836397171, -0.34839725494384766, -0.06304958462715149, -1.5278575420379639, 0.7185291051864624, -1.0853493213653564, -1.639317274093628, 0.2869161367416382, 0.842077910900116, -0.3725280463695526, 0.04870736598968506, 0.6998561024665833, 0.8255637288093567, -0.4852737486362457, 0.32175931334495544, 0.578300416469574, 0.25626227259635925, 0.9185840487480164, -0.73201584815979, -2.0851573944091797, -1.345347285270691], [-0.42008933424949646, 0.25370898842811584, 0.1545354574918747, -0.8319387435913086, -1.0538021326065063, -0.06138148158788681, 1.512365460395813, -0.6493286490440369, -1.2635650634765625, -1.1044585704803467, -1.1251482963562012, -0.2623023986816406, 0.19068433344364166, 0.8679326176643372, 0.9815052151679993, -0.3956294059753418, 0.23360353708267212, 1.1518187522888184, -1.3757810592651367, -0.1857113093137741, 1.343510627746582, -0.7972739338874817, 0.45504945516586304, 0.5432367920875549, -1.1859891414642334, 0.30711260437965393, 0.47047170996665955, -0.12271766364574432, -0.5454897880554199, 1.5694189071655273, 1.048235297203064, -0.4803566634654999], [-0.36380335688591003, -1.2746171951293945, 1.2624527215957642, 1.3179821968078613, -0.31330251693725586, -0.18049828708171844, 1.1498003005981445, 0.4901752769947052, 0.3979891240596771, -1.2287508249282837, 0.196961909532547, 0.07630173116922379, 1.4160430431365967, -2.0599162578582764, 0.5822700262069702, -0.2363305538892746, 0.5369665622711182, 1.2956337928771973, 0.19651691615581512, -0.6691216230392456, -0.4491061568260193, -0.9608892798423767, 0.025709591805934906, -0.8461631536483765, 0.654582142829895, 2.088836669921875, 0.8252134919166565, -0.6884120106697083, -0.4345286190509796, -0.0023290065582841635, -0.9739159941673279, 0.4864630401134491], [0.28938788175582886, 0.49174410104751587, 0.012954676523804665, 0.30994322896003723, 1.0119080543518066, -2.914816379547119, -1.4536805152893066, -0.3607423007488251, -0.8079841732978821, 0.11922799050807953, -0.12046919763088226, -1.228481650352478, 0.0989070013165474, -0.7220191359519958, 0.7114207148551941, -0.6610401272773743, 0.9511734843254089, 4.023864269256592, 0.9224338531494141, 0.9905121326446533, 0.06393658369779587, -0.6086447834968567, 0.26912373304367065, -0.561245858669281, 0.6852325201034546, -0.4495044946670532, -0.6583340764045715, -0.9878218173980713, -0.5297409296035767, 1.6382546424865723, 0.10408210754394531, 0.3376224935054779], [-0.10296931117773056, -1.3487991094589233, -2.0154075622558594, -0.8224306702613831, -0.4079102575778961, -0.6907904744148254, 1.722311019897461, 1.2042720317840576, 0.15022943913936615, 1.5064219236373901, -0.41810935735702515, -0.9552006721496582, 0.37884384393692017, 0.8284305334091187, -0.7873404622077942, 0.8284221291542053, 1.208330750465393, -0.20443479716777802, -1.4322904348373413, 0.024963734671473503, 1.2087398767471313, 0.7115358114242554, 0.04355326667428017, 0.28521445393562317, 1.1570382118225098, 0.6219400763511658, -1.160798192024231, -0.04978925734758377, 0.5093763470649719, -0.4754968285560608, 0.7783178091049194, -1.3238518238067627], [0.47287002205848694, -1.1682802438735962, -0.6963245868682861, -1.2497186660766602, 0.9356889724731445, 0.19981837272644043, -0.2278156727552414, -1.7014402151107788, -0.8532311320304871, -0.8787081241607666, 2.844463586807251, 1.029802918434143, -1.667271614074707, 0.6760673522949219, 1.5976338386535645, 0.5947475433349609, 0.2151431441307068, 0.3361254632472992, -1.0257326364517212, 0.6447129845619202, -1.112254023551941, -0.8009727597236633, 0.022245703265070915, 0.3277340829372406, 0.681742787361145, -1.1001031398773193, -0.6825286149978638, 1.0076730251312256, -0.7511113882064819, -1.0231684446334839, -1.6468976736068726, -0.24272504448890686], [-0.7788797616958618, -0.2083781361579895, 0.4050080180168152, -1.1434962749481201, 1.0688774585723877, 0.19625787436962128, 0.0814996063709259, -0.8587279319763184, -2.13999605178833, 0.09341887384653091, 0.10140548646450043, -0.9003278613090515, -0.21553784608840942, -1.120237112045288, -0.23388081789016724, 0.1637084037065506, -0.5685629844665527, -0.41783854365348816, -2.025042772293091, -0.10397029668092728, -1.1036996841430664, 1.3609544038772583, 1.1920675039291382, -0.23071646690368652, -0.5467174649238586, -0.010238060727715492, 0.30228883028030396, -0.8099682331085205, -0.25807371735572815, -1.3581868410110474, 1.8055239915847778, -0.6316381096839905], [1.5794509649276733, 0.11554481089115143, -0.24544286727905273, 0.07435185462236404, -0.0326397605240345, 0.4040689468383789, -0.38624903559684753, -1.1687579154968262, -0.704900860786438, 0.09250757843255997, -1.3631561994552612, 0.11683472990989685, -0.4990769922733307, 0.7716306447982788, 0.46253204345703125, -0.703863799571991, -0.35093167424201965, 0.05842655152082443, -1.8389774560928345, 1.3920716047286987, 0.7538577914237976, 0.43533411622047424, -1.9276443719863892, -0.3641291558742523, 0.2259669452905655, 0.16283957660198212, -0.7840266227722168, 0.09698420017957687, -0.6716033220291138, 1.1919431686401367, 1.0052034854888916, 1.0554794073104858], [-0.4166243374347687, -0.9567943811416626, -0.8113321661949158, -1.087302565574646, -0.8419973850250244, 0.876164972782135, 0.2672601044178009, 1.8603142499923706, 0.5496087670326233, -0.08529695868492126, -0.14728911221027374, -0.24577650427818298, -0.5950742959976196, -0.474345326423645, -0.4238303005695343, -1.542731761932373, -0.3299456238746643, 1.1097748279571533, -0.7698585987091064, 0.13614848256111145, 0.5957297086715698, 0.0944378674030304, -1.6188734769821167, -1.291457176208496, 0.31142139434814453, 0.7758440971374512, -0.8129748702049255, -0.02784394845366478, 0.503568172454834, 0.31532761454582214, -0.8914490938186646, 0.07445734739303589], [-0.05837493762373924, -1.6539335250854492, -0.6340388655662537, -0.860867440700531, -1.07212233543396, 1.243668794631958, 0.3136284053325653, -0.04375206306576729, 0.3573654890060425, -0.08282695710659027, 0.02077832818031311, 0.2613450884819031, 0.4105534553527832, -1.4221696853637695, 0.8526179194450378, 0.26409342885017395, -1.206552505493164, 0.5572341084480286, -0.9738820791244507, -0.907195508480072, -1.0619868040084839, -0.16203594207763672, 0.4383786916732788, -0.12345105409622192, 1.168148398399353, -0.8488548398017883, 1.1078321933746338, 0.5080140233039856, 0.7472127676010132, -0.206607386469841, -1.0041636228561401, 1.464539647102356], [0.24251988530158997, 0.3807487189769745, -0.6831991672515869, 0.8262243270874023, -0.9277779459953308, 2.5227787494659424, 0.06395508348941803, 0.9741668105125427, -0.1761111468076706, -1.1871992349624634, 0.9664695262908936, -0.9935048222541809, 0.891372799873352, -1.4820375442504883, 0.32277819514274597, -0.31253719329833984, 0.41565975546836853, -0.8520370125770569, 0.3357846140861511, 0.8375716805458069, 0.10663563758134842, 0.06418240815401077, -0.7365388870239258, -0.2866608202457428, 0.6808286905288696, -0.28960201144218445, 0.8978222608566284, -1.0003637075424194, -1.7790343761444092, 0.6668851375579834, 1.2876780033111572, 0.0027734909672290087], [-1.4930678606033325, -0.00032392004504799843, -0.11173675954341888, 0.4831438362598419, 2.179591655731201, 0.8979880809783936, -0.32660478353500366, -0.5320385694503784, -0.9114497303962708, -0.19559325277805328, -0.417077898979187, -0.2628463804721832, 0.09103956073522568, 0.41062578558921814, 1.5303330421447754, -0.31781652569770813, 0.023306315764784813, -0.4424894154071808, -1.0174643993377686, -0.16983310878276825, 0.46354901790618896, -0.2774209678173065, -0.6040100455284119, 0.6948661804199219, 0.5180753469467163, -0.10971590131521225, -1.4649425745010376, -1.0127737522125244, 0.11019691824913025, -2.0938332080841064, -1.0352871417999268, -1.3252791166305542], [1.2173594236373901, 1.2621678113937378, -1.3183302879333496, 0.11641334742307663, -0.8361659049987793, 0.1878236085176468, 1.316412091255188, 0.346417635679245, -0.17406721413135529, 1.3772577047348022, 1.7737782001495361, -0.6261565089225769, -0.1599419116973877, -1.4544243812561035, -0.6625774502754211, 0.9355703592300415, 1.1661759614944458, 0.3014712333679199, 1.1013376712799072, 0.36556556820869446, 0.09943579882383347, -1.362027883529663, -1.7879050970077515, -0.08413796871900558, 1.2711642980575562, 0.1510317623615265, -0.10475354641675949, -0.055374328047037125, -1.362101674079895, -0.9086573123931885, 0.8775023221969604, -0.3968741297721863], [0.09703265875577927, 1.5951341390609741, -0.18918439745903015, 1.282995581626892, 1.0844635963439941, -0.1637623906135559, -1.6026924848556519, 1.0564032793045044, -0.321365088224411, -0.7764282822608948, -0.05236252769827843, 0.934378981590271, 0.3752725422382355, -1.0650333166122437, 1.0901622772216797, 0.2172822803258896, 1.0448514223098755, 0.035815849900245667, -0.9990993738174438, 1.2679845094680786, -0.7832021713256836, 0.6708698272705078, 0.7190431952476501, 0.3704999089241028, 1.1518337726593018, -2.0183298587799072, 0.39367133378982544, 0.6830868124961853, 0.5427471399307251, -0.3447989523410797, 0.6718905568122864, -1.1652452945709229], [0.052448008209466934, 0.9442441463470459, -0.07281700521707535, 0.8119288086891174, -0.11793535202741623, 1.235571265220642, -0.35985067486763, -0.8872785568237305, -1.7526408433914185, 0.4649737477302551, -0.07749594748020172, -1.091701626777649, -0.1854257732629776, -1.895630121231079, -1.8579623699188232, 0.2603458762168884, 1.3848061561584473, 0.10579518228769302, 1.5942180156707764, 1.686370611190796, 0.19229738414287567, -0.569426417350769, -0.5656257271766663, 0.35646137595176697, -0.7868674993515015, -0.8299199938774109, 1.2288603782653809, 0.7530191540718079, 0.2066536247730255, -0.13361524045467377, 0.275485634803772, 0.28599226474761963], [0.9784827828407288, 1.7216066122055054, -1.8692359924316406, 1.99289870262146, 1.7266803979873657, -0.19150328636169434, 1.8724008798599243, -2.166849136352539, 0.817937970161438, 0.9559135437011719, -1.632592797279358, -1.171850323677063, 0.3787967562675476, -0.16710759699344635, -0.17944645881652832, 0.2792048752307892, 1.008535623550415, 0.37057167291641235, 1.918170690536499, -0.07327444851398468, -0.9056153893470764, -0.42717674374580383, -0.549784243106842, -2.013845920562744, -2.305408477783203, 0.5365686416625977, -1.3713499307632446, 0.2210918515920639, 1.3852938413619995, 0.540134608745575, 0.7832764387130737, 0.7533972859382629], [1.8803045749664307, -1.0794681310653687, 0.5033878087997437, -0.4398028552532196, 0.9157703518867493, -2.308886766433716, -0.17512822151184082, 1.5223523378372192, 0.7058001160621643, 0.7851204872131348, 1.8704582452774048, 0.949743926525116, 0.2554955780506134, -0.18826721608638763, -0.974028468132019, 1.1143672466278076, 0.3389902710914612, 0.2958737909793854, 0.6086907982826233, 0.12449216097593307, -0.5492703318595886, -0.9799416661262512, -0.1448897272348404, -0.06809985637664795, -0.5902783870697021, -0.541110098361969, -1.223250150680542, -0.41673678159713745, -0.5209165811538696, -0.0776037648320198, 0.5453572869300842, -1.1210768222808838], [0.6699470281600952, 1.5027788877487183, 0.7089663147926331, -0.7880299091339111, 1.5933477878570557, 0.4729779362678528, -1.2183477878570557, -1.1360697746276855, -0.3649149537086487, 0.9182552695274353, 0.682489812374115, -0.5354112386703491, 0.28482186794281006, -0.3819546699523926, -0.9562918543815613, -3.400524377822876, 0.3694884479045868, -0.604023277759552, -0.4712870121002197, 0.9537283778190613, -0.023526102304458618, -0.7805574536323547, 0.14341801404953003, 0.7841418981552124, -0.9406327605247498, 