{"out_head.weight": [[0.25388211011886597, -0.08883095532655716, -0.604779839515686, 0.14927925169467926, -0.18319456279277802, 0.06027449667453766, -0.08274021744728088, 0.19638089835643768, 0.09336262941360474, 0.10711353272199631, -0.1453174352645874, 0.1393585205078125, -0.06079963222146034, -0.1377520114183426, -0.09415112435817719, 0.2592114806175232, -0.07038088142871857, 0.11983585357666016, -0.11112407594919205, -0.12649638950824738, 0.23762668669223785, -0.20794667303562164, -0.19736939668655396, 0.21822968125343323, 0.188251793384552, 0.0036714717280119658, 0.05693650245666504, 0.18179284036159515, 0.6174090504646301, 0.08990577608346939, -0.4663031995296478, 0.054949771612882614], [-0.1699870377779007, -0.022579779848456383, -0.19652581214904785, 0.52143394947052, 0.31731176376342773, 0.016963301226496696, 0.44095849990844727, -0.39009878039360046, -0.34111732244491577, 0.36855512857437134, 0.1223006322979927, -0.4114380180835724, -0.1036466434597969, -0.3418901860713959, 0.2153385728597641, -0.43626919388771057, 0.2804393172264099, -0.49630722403526306, 0.1762707531452179, 0.4532129466533661, 0.7204322814941406, -0.3590073585510254, 0.18532682955265045, 0.0958985909819603, -0.26213759183883667, 0.31419408321380615, -0.6224152445793152, -0.1737746298313141, 0.686771810054779, -0.5513456463813782, -0.16281381249427795, 0.4959302842617035], [0.21522745490074158, -0.20145073533058167, -0.589907705783844, 0.22290605306625366, -0.24210327863693237, 0.06130342558026314, -0.19464729726314545, 0.29888811707496643, 0.1574472188949585, 0.16901397705078125, -0.06826150417327881, 0.20390541851520538, -0.06091001257300377, -0.2063828408718109, -0.08299173414707184, 0.2670147716999054, -0.08652913570404053, 0.27116671204566956, -0.05843286216259003, -0.06232449784874916, 0.3198550045490265, -0.10235880315303802, -0.1565377563238144, 0.22507904469966888, 0.12874425947666168, 0.07805611938238144, 0.05770491808652878, 0.29348859190940857, 0.7445844411849976, 0.08847229182720184, -0.4532925486564636, 0.04389842972159386], [0.19301636517047882, -0.15777549147605896, -0.7321167588233948, 0.19687077403068542, -0.25892940163612366, 0.10213793069124222, -0.3049636781215668, 0.17495320737361908, 0.14365632832050323, 0.24860121309757233, -0.1778487265110016, 0.13374461233615875, -0.09933798015117645, -0.309846431016922, -0.29029378294944763, 0.28629156947135925, -0.0952252522110939, 0.26577818393707275, 0.025189895182847977, -0.21027794480323792, 0.3019806146621704, -0.1795559972524643, -0.23190373182296753, 0.23383945226669312, 0.2519959807395935, 0.03513041138648987, 0.10454858839511871, 0.2714273929595947, 0.7407399415969849, 0.014698108658194542, -0.4283183217048645, 0.14073112607002258], [-0.32845544815063477, 0.332162082195282, -0.15057894587516785, -0.3734435737133026, -0.7028211951255798, -0.026482418179512024, 0.1415383517742157, -0.23425504565238953, 0.762826681137085, -0.3663511276245117, 0.1089228168129921, 0.44285711646080017, -0.06326109915971756, -0.1942906528711319, 0.42190274596214294, 0.6227549314498901, 0.27795907855033875, -0.3737225830554962, 0.45426297187805176, -0.31070783734321594, 0.23976360261440277, 0.288335919380188, 0.3771360218524933, -0.2518194913864136, -0.5363380312919617, -0.3509610891342163, -0.029688160866498947, -0.174611896276474, 0.7352280020713806, -0.6521621942520142, -0.1301761418581009, -0.05827558785676956], [0.042466409504413605, -0.5117666125297546, 0.41153499484062195, -0.4034614562988281, 0.4815647602081299, -0.05557411164045334, 0.12699195742607117, -0.0701666995882988, 0.5118386745452881, -0.17975492775440216, 0.26181408762931824, -0.11351054161787033, 0.5891582369804382, -0.3526251018047333, 0.151276096701622, -0.27839723229408264, 0.177989661693573, -0.3168533742427826, 0.4314918518066406, 0.4821762442588806, 0.32356560230255127, -0.31373292207717896, 0.3533021807670593, -0.390586256980896, 0.2718456983566284, -0.5923448801040649, -0.32334330677986145, 0.320382297039032, -0.36907461285591125, 0.28915005922317505, 0.4422256648540497, -0.2167944312095642], [-0.5054992437362671, 0.09366616606712341, 0.5709037184715271, 0.10981596261262894, 0.05693942680954933, -0.3267832398414612, 0.3899008631706238, 0.12365368753671646, -0.17056047916412354, -0.262179970741272, 0.2316431999206543, -0.40449631214141846, -0.13367483019828796, -0.3391987085342407, 0.17503617703914642, 0.19623000919818878, 0.3220061957836151, -0.2585681676864624, 0.6409023404121399, 0.4053466022014618, 0.16897132992744446, -0.5106209516525269, 0.377535879611969, -0.4455134868621826, 0.41694238781929016, -0.6132780909538269, -0.2686784863471985, -0.24498356878757477, -0.5349397659301758, 0.27290958166122437, 0.6049074530601501, -0.2753860056400299], [-0.004063756205141544, 0.05476154386997223, 0.46460849046707153, -0.3310070335865021, -0.017417745664715767, 0.11904328316450119, 0.380253404378891, -0.5054351687431335, -0.16509491205215454, 0.07983262836933136, 0.21945174038410187, -0.6230851411819458, 0.3420373201370239, 0.43347862362861633, -0.3014584183692932, -0.40911146998405457, 0.5646597743034363, -0.03592346981167793, -0.2866820991039276, 0.05055946856737137, -0.3910491466522217, 0.36177894473075867, -0.1625111997127533, 0.23151901364326477, 0.06560308486223221, 0.3497437536716461, 0.04566600173711777, -0.1407010853290558, -0.6131892204284668, -0.2866324484348297, -0.7010881900787354, -0.271249920129776], [0.5732723474502563, 0.25255918502807617, -0.2609238922595978, -0.32328322529792786, 0.3420604467391968, 0.14834466576576233, -0.017269808799028397, 0.013364819809794426, 0.16935783624649048, 0.29233765602111816, -0.2610948979854584, -0.13801586627960205, -0.24532252550125122, 0.16043445467948914, 0.3656688630580902, -0.22469393908977509, -0.23789182305335999, -0.07984007894992828, -0.514820396900177, -0.4912823438644409, -0.04104931652545929, 0.26568397879600525, 0.09510312229394913, 0.31687405705451965, -0.32423409819602966, -0.334855318069458, 0.4126717150211334, 0.3412321209907532, 0.3933170437812805, 0.09815990179777145, 0.3247300684452057, -0.4964502453804016], [-0.23511217534542084, 0.57669997215271, -0.5066249966621399, -0.24017763137817383, -0.058916062116622925, -0.0872059166431427, -0.010736974887549877, -0.3650350868701935, -0.6115204095840454, 0.05788060277700424, 0.3696344792842865, 0.4452296793460846, 0.19941847026348114, -0.4667247235774994, 0.8558930158615112, -0.026263980194926262, 0.04501107707619667, -0.3205021023750305, -0.206020787358284, 0.5345345139503479, 0.058540310710668564, 0.11811314523220062, -0.5278874635696411, 0.5052856206893921, 0.2502504587173462, -0.05185193195939064, 0.40835651755332947, -0.14091303944587708, -0.0038733966648578644, -0.7922741174697876, 0.14125968515872955, -0.37928056716918945], [-0.3171490430831909, -0.32747578620910645, -1.165135383605957, 0.0828278586268425, -0.1715785413980484, -0.1384708136320114, 0.544053852558136, -0.16992080211639404, -0.006567120086401701, -0.15899676084518433, 0.0740220695734024, 0.21559715270996094, -0.3371357023715973, -0.13075868785381317, 0.5953735709190369, -0.09051743894815445, -0.5612366199493408, -0.47124096751213074, -0.7793472409248352, 0.09901318699121475, 0.9288403391838074, 0.06794799119234085, -0.21911443769931793, -0.1301622837781906, 0.84913170337677, -0.3591161370277405, 0.5500380992889404, -0.06400483101606369, 0.2799903154373169, 0.2569192945957184, 0.034757863730192184, 0.32493337988853455], [-0.5660184621810913, -0.0019855217542499304, 0.4774165451526642, 0.699194610118866, -0.635189414024353, -0.10190348327159882, -0.023592500016093254, 0.6557339429855347, -0.13629275560379028, 0.12726587057113647, 0.22368744015693665, -0.5011511445045471, -0.16037102043628693, 0.3394598066806793, 0.5470823645591736, 0.2189667671918869, -0.03183501213788986, 0.2548488676548004, 0.4039803445339203, -0.28702491521835327, -0.09211444109678268, -0.27159300446510315, 0.15552112460136414, 0.3248172700405121, -0.24007900059223175, -0.5801873803138733, 0.5728146433830261, -0.2520911991596222, -0.1116083636879921, -0.5763845443725586, -0.22550912201404572, 0.3476767838001251], [0.6602601408958435, 0.40243351459503174, -0.35860633850097656, -0.19603149592876434, -0.010369027964770794, 0.8604303002357483, 0.34243226051330566, 0.24242570996284485, 0.097590371966362, 0.5740587711334229, -0.16124635934829712, 0.09528940916061401, -0.26845115423202515, -0.794414222240448, -0.045474886894226074, 0.21453507244586945, -0.4002673029899597, -0.0874895378947258, 0.38917815685272217, 0.1410539597272873, -0.2903975248336792, -0.8822775483131409, -0.023235123604536057, -0.08063474297523499, 0.15497438609600067, 0.18157340586185455, 0.2728622853755951, 0.1503220647573471, 0.22402648627758026, -0.0016538321506232023, -0.24001875519752502, -0.5639774799346924], [0.29182544350624084, -0.7532017827033997, -0.312748521566391, 0.4169905185699463, -0.0017939179670065641, -0.15482817590236664, 0.14421874284744263, 0.02561710774898529, -0.0482662171125412, -0.41896164417266846, -0.09699168056249619, -0.07659474015235901, 0.1480855494737625, -1.3336721658706665, 0.012764157727360725, 0.7672387361526489, 0.0002718036121223122, 0.7089718580245972, -0.5288558602333069, 0.1703438013792038, 0.11770528554916382, -0.41608330607414246, -0.3651266396045685, 0.0001556801435071975, 0.0010981267550960183, 0.2585308253765106, -0.26553428173065186, -0.14794278144836426, 1.0933438539505005, 0.18930061161518097, 0.07780014723539352, -0.21414858102798462], [-0.12817604839801788, 0.4464517831802368, 0.17719058692455292, -0.4251476526260376, 0.2986185848712921, 0.05019667372107506, 0.2387358397245407, -0.15975554287433624, 0.28689277172088623, 0.05490625277161598, 0.34745392203330994, -0.26188069581985474, -0.0069964188151061535, 0.19081366062164307, -0.24017445743083954, -0.4048287868499756, -0.1349693238735199, 0.045973774045705795, -0.011042945086956024, -0.08015969395637512, -0.5730551481246948, 0.28727781772613525, 0.46266287565231323, -0.3241941034793854, -0.5791125297546387, 0.39409393072128296, 0.5939744710922241, -0.32748961448669434, -0.36153343319892883, -0.0292016863822937, -0.12733696401119232, -0.038067929446697235], [-0.4361189603805542, -0.23107172548770905, -0.6183959245681763, -0.029372865334153175, 0.34443819522857666, 0.1361032873392105, 0.011976008303463459, -0.19245626032352448, -0.13559980690479279, -0.07654400914907455, 0.546097993850708, 0.2971079647541046, -0.3887679874897003, -0.6743542551994324, -0.6991591453552246, 0.4155368208885193, -0.6536276340484619, 0.3861068785190582, -0.16747187077999115, 0.4454604387283325, 0.5596086978912354, -0.006195795256644487, -0.6837359666824341, -0.11170709133148193, 0.47397544980049133, -0.024294713512063026, -0.34536832571029663, 0.4445609152317047, 0.5889149904251099, 0.5275931358337402, -0.2607262134552002, -0.22876250743865967], [-0.28187504410743713, 0.15623007714748383, 0.46376174688339233, 0.17113208770751953, -0.3101809024810791, -0.1465839147567749, 0.2999711036682129, 0.3454282581806183, -0.4050498902797699, -0.28605321049690247, 0.3363687992095947, -0.3029234707355499, -0.2009807974100113, -0.20405034720897675, 0.3154831528663635, 0.1146295964717865, -0.05982854962348938, 0.1792372614145279, 0.36322692036628723, 0.4498656988143921, 0.21521642804145813, -0.3922574818134308, 0.15692107379436493, -0.3714256286621094, 0.42136433720588684, -0.4563227891921997, -0.4141729176044464, -0.08649218082427979, -0.41053563356399536, 0.6225208640098572, 0.3716118037700653, -0.0009933870751410723], [-0.15402008593082428, 0.034901175647974014, 0.2600734233856201, -0.25422176718711853, -0.409647136926651, 0.42914319038391113, -0.006665760651230812, -0.17456382513046265, 0.3761990964412689, 0.3634187579154968, 0.06682148575782776, -0.22293590009212494, 0.22550804913043976, -0.015317593701183796, -0.23082450032234192, 0.1814299076795578, 0.2724819481372833, -0.28168702125549316, -0.4541822671890259, -0.14669223129749298, 0.16536250710487366, 0.3082186281681061, -0.49110883474349976, 0.359626829624176, 0.2503770887851715, -0.0628557950258255, -0.04131188988685608, 0.1279570758342743, -0.043280310928821564, -0.10703717172145844, -0.6049261689186096, -0.14129899442195892], [-0.25862425565719604, -0.2699216902256012, -0.5787135362625122, 0.037855375558137894, 0.07181975245475769, -0.4178997278213501, -0.7127162218093872, 0.5035132169723511, -0.1745891273021698, 0.10529856383800507, 0.3721860945224762, 0.47216978669166565, -0.7533137798309326, 0.24126781523227692, -0.3524167239665985, 0.10277624428272247, 0.03815320506691933, 0.38314345479011536, 0.0274182315915823, -0.4696364104747772, -0.27307015657424927, -0.36537906527519226, -0.4019347131252289, 0.8261669874191284, 0.6248446106910706, 0.3200860321521759, -0.26819780468940735, 0.20761780440807343, 0.3125440180301666, 0.49228668212890625, -0.21564090251922607, 0.02170279622077942], [0.1619037687778473, 0.31963133811950684, -0.9152712225914001, -0.4109451472759247, 0.27475541830062866, -0.11402798444032669, -0.19017089903354645, -0.21077865362167358, -0.4813137650489807, -0.2862871289253235, 0.04762795567512512, 0.6249011158943176, 0.3798251450061798, 0.15623249113559723, -0.20323844254016876, -0.2412053793668747, -0.21996049582958221, 0.05843665823340416, -0.43391987681388855, -0.03838828578591347, -0.17266008257865906, -0.22154556214809418, 0.605078935623169, 0.38119426369667053, 0.524347722530365, 0.4095729887485504, 0.7088309526443481, 0.3626895248889923, -0.052618782967329025, 0.19049783051013947, -0.226800799369812, -0.41642460227012634], [-0.3981330990791321, -0.24322231113910675, -0.5012341141700745, 0.530131459236145, -0.08003875613212585, 0.6245681047439575, -0.7766692638397217, -0.3122790455818176, -0.1974714696407318, -0.16949552297592163, -0.9795567393302917, -0.2673913836479187, -0.47985219955444336, -0.06897304207086563, 0.1530429869890213, 0.07743905484676361, -0.24268878996372223, 0.4951156973838806, -0.21908952295780182, -0.4080669581890106, -0.2297382354736328, -0.26680025458335876, 0.3295981287956238, -0.16379787027835846, 0.028049565851688385, 0.08160900324583054, -0.2292856127023697, 0.49243518710136414, 0.6483970284461975, -0.19846251606941223, -0.23794865608215332, 0.6639378666877747], [0.14745427668094635, -0.32810521125793457, -0.2529529929161072, -0.011942899785935879, -0.4078030586242676, 0.30441275238990784, -0.5857864022254944, -0.6354559063911438, 0.44227874279022217, 0.2935350835323334, -0.18445366621017456, 0.48773834109306335, -0.425326406955719, 0.16477642953395844, -0.4177578389644623, -0.011640733107924461, -0.02923082932829857, 0.7176133990287781, -0.32652920484542847, -0.6639530062675476, 0.7164462208747864, -0.7243752479553223, 0.4118354618549347, 0.09720703214406967, 0.4745213985443115, 0.13242779672145844, 0.31567057967185974, -0.20503191649913788, 0.8927927017211914, -0.16046540439128876, -0.14187274873256683, 0.24228417873382568], [-0.45225292444229126, 0.4475041627883911, -0.4231685996055603, 0.22751741111278534, -0.05677107349038124, 0.5408188104629517, 0.20288842916488647, -0.7235950827598572, 0.5587421655654907, 0.6060190796852112, -0.5903891324996948, 0.4850877821445465, -0.45975515246391296, 0.11899011582136154, 0.44930028915405273, -0.06810709089040756, -0.08717189729213715, -0.23468200862407684, -0.15080605447292328, -0.4046972990036011, -0.37297868728637695, -0.37817272543907166, 0.02452973648905754, 0.6045923233032227, -0.049507543444633484, 0.16488991677761078, 0.05292833596467972, 0.33221450448036194, 0.847898542881012, -0.06964007019996643, -0.854841947555542, 0.23437602818012238], [0.4347391128540039, -0.7548766732215881, -0.5373839735984802, 0.5493068695068359, 0.16539078950881958, -0.08959310501813889, -0.5149680972099304, -0.40558576583862305, 0.0689406543970108, -0.2727827727794647, -0.18753232061862946, 0.2782230079174042, -0.04798354208469391, -0.3605634570121765, -0.2306056022644043, 0.6094222068786621, 0.34107160568237305, 0.4989772140979767, 0.13273736834526062, -0.7666542530059814, -0.23569254577159882, -0.4282951354980469, -0.13763216137886047, -0.6146748661994934, 0.7591490745544434, 0.34091824293136597, -0.3245158791542053, -0.2076978087425232, 0.9243828654289246, 0.27873021364212036, 0.22033382952213287, 0.028263038024306297], [0.04040452837944031, 0.5894764065742493, 0.29407909512519836, 0.17385827004909515, 0.05072983354330063, 0.10986045747995377, -0.20108173787593842, 0.571745753288269, -0.2959054708480835, -0.48999926447868347, -0.4992799162864685, 0.2770647704601288, -0.5129185914993286, 0.3632810115814209, 0.3517027199268341, -0.19494827091693878, 0.536138653755188, 0.2687920331954956, 0.2597685158252716, -0.19014114141464233, 0.06200319156050682, -0.40799978375434875, -0.1348300278186798, -0.08279156684875488, -0.26678869128227234, -0.35444650053977966, 0.08314896374940872, -0.34796828031539917, -0.22873568534851074, -0.35211116075515747, 0.20024646818637848, 0.441051721572876], [-0.3391290605068207, -0.06520728766918182, 0.45956146717071533, 0.09619421511888504, -0.06640617549419403, -0.1472739726305008, 0.31316354870796204, 0.3095789849758148, -0.08622585237026215, -0.30223917961120605, 0.6592718958854675, -0.3056480586528778, -0.3424193859100342, 0.2105586677789688, 0.22298723459243774, -0.0828876942396164, 0.14328435063362122, -0.2279931604862213, 0.4723457992076874, 0.35880282521247864, 0.20512431859970093, -0.2391105443239212, 0.07902328670024872, -0.47560495138168335, 0.3163990080356598, -0.5234878063201904, -0.36475053429603577, 0.11663635820150375, -0.33718904852867126, 0.43382084369659424, 0.46028080582618713, -0.20632107555866241], [0.4005476236343384, -0.003547081258147955, 0.2920894920825958, 0.46025583148002625, 0.1942877620458603, 0.17864790558815002, -0.016167737543582916, -0.22233225405216217, -0.4571378827095032, 0.07157555967569351, 0.1666613221168518, -0.2539239525794983, -0.20430003106594086, 0.1745278537273407, -0.31549715995788574, -0.11474666744470596, -0.24254263937473297, 0.08836427330970764, 0.27585652470588684, 0.4505726397037506, -0.16337807476520538, -0.21887077391147614, -0.3167853057384491, 0.3910297453403473, 0.5107218027114868, 0.09381572157144547, -0.09321697801351547, 0.4391339123249054, -0.15499423444271088, -0.2287209928035736, -0.4567399024963379, 0.13084495067596436], [-0.19981320202350616, 0.0968703031539917, -0.23789896070957184, -0.18307526409626007, 0.3192305564880371, 0.4133993089199066, 0.1814592480659485, 0.4472939074039459, 0.3491952419281006, -0.631819486618042, -0.6656975150108337, -0.3013509213924408, -0.49498558044433594, -0.6870443224906921, -0.6842046976089478, -0.44260933995246887, -0.09620881080627441, -0.5750128030776978, 0.29555487632751465, 0.34909117221832275, 0.6348617076873779, 0.0744987353682518, 0.24180936813354492, 0.2978423535823822, -0.24137946963310242, 0.4044947028160095, -0.01988598145544529, 0.13994234800338745, 0.675362229347229, 0.3094351887702942, 0.28429779410362244, 0.28320837020874023], [0.18429721891880035, -0.6857439279556274, -0.0691090002655983, 0.39752182364463806, -0.5004221200942993, -0.6242207884788513, -0.6788421273231506, 0.5067446827888489, -0.5011454820632935, -0.19555306434631348, -0.43363264203071594, 0.3868446946144104, 0.31034907698631287, -0.06436484307050705, -0.5413036346435547, -0.4247865378856659, -0.26062875986099243, 0.633354902267456, 0.20920728147029877, -0.5153642296791077, 0.6948246955871582, 0.2434292584657669, -0.00340828625485301, -0.40808212757110596, -0.09771126508712769, 0.010167487896978855, 0.5291663408279419, 0.04814670607447624, 0.48969629406929016, 0.6806537508964539, -0.645397961139679, -0.2012501358985901], [-0.006662401370704174, 0.17221613228321075, -0.8361756801605225, -0.026787852868437767, -0.29791608452796936, 0.5642881989479065, -0.6493545770645142, 0.8517064452171326, 0.21425697207450867, -0.0784248635172844, -0.44253453612327576, 0.21622665226459503, 0.1778509020805359, 0.17507639527320862, -0.38928067684173584, 0.4072117209434509, -0.48424243927001953, 0.5318807363510132, -0.16297881305217743, 0.2843949496746063, 0.5949028134346008, 0.38666731119155884, -0.029514051973819733, -0.16492168605327606, -0.564481258392334, -0.4655850827693939, 0.05826506018638611, -0.12599995732307434, 0.244894877076149, 0.6460351347923279, -0.5581067800521851, 0.3327115476131439], [0.06176041439175606, -0.47510215640068054, 0.013021239079535007, -0.2301984429359436, 0.3072897791862488, -0.012721976265311241, -0.0004612217308022082, -0.012990904971957207, 0.33993294835090637, -0.045664820820093155, 0.15023408830165863, 0.0855078399181366, 0.38086065649986267, -0.4048735499382019, 0.083872489631176, -0.2380073070526123, 0.10466091334819794, -0.22454257309436798, 0.32042592763900757, 0.29144737124443054, 0.41302624344825745, -0.12550614774227142, 0.2681267261505127, -0.1906263828277588, 0.36606159806251526, -0.296185165643692, -0.239202618598938, 0.3929320275783539, -0.07811938971281052, 0.27750536799430847, 0.15066379308700562, -0.07048048079013824], [0.8040536046028137, 0.16925321519374847, -0.20493526756763458, 0.7426301836967468, -0.6423970460891724, -0.11888064444065094, -0.08289770781993866, -0.2526434361934662, 0.24040533602237701, -0.4145684838294983, -0.20714204013347626, -0.09786583483219147, -0.38290950655937195, 0.33208388090133667, -0.06503956019878387, -0.03558290749788284, -0.04715956375002861, -0.7892228960990906, 0.4473716616630554, 0.18749560415744781, 0.6144808530807495, 0.1769699901342392, -0.5005155205726624, -0.3257727026939392, 0.5051857829093933, 0.6377643942832947, -0.4355021119117737, -0.29779255390167236, 0.19768330454826355, -0.2159574031829834, 0.32795917987823486, 0.20846869051456451], [-0.12860071659088135, 0.3774070143699646, -0.5188890099525452, -0.029035549610853195, -0.8408571481704712, -0.10681848227977753, -0.6420949697494507, -0.023457832634449005, -0.3908596336841583, 0.5287928581237793, -0.17998799681663513, -0.1093190461397171, 0.17087261378765106, 0.397187739610672, 0.2453964352607727, -0.10414644330739975, -0.22222135961055756, 0.674242377281189, -0.09752457588911057, 0.17291302978992462, 0.19341720640659332, -0.6009783148765564, -0.6593451499938965, 0.403829962015152, 0.08432050049304962, 0.04488735273480415, 0.6568329334259033, 0.2238529771566391, 0.1315942108631134, 0.10516498982906342, -0.7764609456062317, -0.049389321357011795], [0.2674291729927063, -0.23740902543067932, -0.8523079752922058, -0.636391282081604, -0.42854413390159607, -0.15933112800121307, -0.9207075238227844, 0.0733654573559761, 0.4940207898616791, -0.09495124965906143, 0.46793994307518005, 0.3559490442276001, 0.2312818169593811, -0.009794807992875576, 0.6411699652671814, 0.09938541054725647, 0.13914504647254944, 0.9716059565544128, -0.38742488622665405, -0.7909003496170044, 0.5449209809303284, 0.17695224285125732, 0.30325421690940857, 0.11050689220428467, 0.20510168373584747, -0.4952719211578369, 0.361990749835968, -0.36737239360809326, 0.07684320956468582, 0.467611700296402, -0.5611434578895569, 0.0822174921631813], [-0.08845598995685577, 0.5343056917190552, 0.004597166553139687, -0.17671814560890198, 0.2630515992641449, 0.14162278175354004, 0.2842777669429779, -0.2612904906272888, 0.060534846037626266, -0.04201900213956833, 0.4633653163909912, 0.3541552424430847, 0.1040317565202713, -0.7373342514038086, 0.15848733484745026, -0.4424600303173065, 0.22563354671001434, -0.14864568412303925, -0.2291841059923172, -0.36066314578056335, -0.4917261004447937, 0.29849034547805786, 0.4275383949279785, 0.4585905075073242, -0.42453181743621826, 0.1197747066617012, 0.5190411806106567, -0.2792932689189911, 0.07831741124391556, 0.5699073076248169, -0.08895085752010345, -0.11970189958810806], [0.16444611549377441, 0.254973441362381, -0.3486233949661255, -0.09361191093921661, -0.7637624740600586, -0.12961973249912262, -0.3110964000225067, 0.09486312419176102, 0.3123014569282532, 0.42248013615608215, -0.2760389447212219, 0.03775207698345184, -0.05466724559664726, -0.2257494181394577, 0.07663671672344208, -0.057412728667259216, -0.22181716561317444, 0.597356379032135, -0.10574007034301758, 0.4611172080039978, 1.0312087535858154, 0.04378020763397217, -0.2643181383609772, 0.1583942174911499, 0.01035174448043108, 0.5358741879463196, -0.2847077548503876, -0.20337636768817902, 0.5699811577796936, -0.404247909784317, -1.0211186408996582, 0.7461723685264587], [0.2835020124912262, -0.7605411410331726, 0.14840978384017944, -0.22672298550605774, 0.07022369652986526, -0.29177507758140564, -0.002220367779955268, -0.06713410466909409, 0.797482430934906, -0.2346130758523941, 0.24939094483852386, 0.0265200138092041, 0.405426025390625, -0.002090456197038293, 0.3192601501941681, -0.28880760073661804, 0.013042508624494076, 0.03067203238606453, 0.3841114938259125, 0.4924984872341156, 0.5858671069145203, -0.3601963520050049, 0.3271790146827698, -0.10486122965812683, 0.5919433832168579, -0.3921867609024048, -0.18751466274261475, 0.03825091943144798, -0.02328534983098507, 0.10997384041547775, 0.08350104093551636, -0.040158435702323914], [0.44258934259414673, -0.20702172815799713, -0.6003255844116211, 0.5458983778953552, 0.1866208016872406, -0.3765391409397125, -0.5651860237121582, 0.22007569670677185, 0.32081055641174316, 0.5099193453788757, -0.03421546146273613, -0.16351911425590515, 0.073065385222435, 0.2066226601600647, -0.008442225866019726, 0.587235689163208, -0.051202014088630676, 0.7582818269729614, -0.5338984131813049, 0.16438090801239014, -0.009642116725444794, -0.8544133305549622, -0.5702108144760132, 0.2639544606208801, 0.0755361020565033, -0.33600765466690063, 0.5830589532852173, -0.43892914056777954, 0.14650948345661163, 0.3298673629760742, -0.6610922813415527, -0.028142049908638], [0.5834969282150269, -0.12987935543060303, -0.7902497053146362, -0.36227312684059143, -0.7402098774909973, 0.08924096822738647, -0.02612561546266079, -0.1401483714580536, 0.26798775792121887, 0.16277280449867249, -0.15493038296699524, 0.27012303471565247, -0.22205062210559845, -0.5146979093551636, 0.4216804504394531, -0.16539254784584045, 0.2762579321861267, -0.04347630590200424, 0.38973385095596313, -0.18707002699375153, 0.9732006192207336, -0.7283434867858887, -0.5875171422958374, 0.03858773037791252, 0.11317785829305649, 0.4179840683937073, -0.238528773188591, 0.09190972149372101, 0.0055150906555354595, 0.5507741570472717, 0.004428526386618614, 0.4516868591308594], [-0.42856717109680176, -0.4021696448326111, -0.495565801858902, -0.06721272319555283, 0.037113554775714874, -0.14596350491046906, -0.3861781060695648, 0.5672377943992615, -0.26870197057724, 0.4963432848453522, 0.2609177529811859, -0.28950080275535583, 0.36644619703292847, -0.5190227627754211, -0.029328858479857445, 0.38384413719177246, -0.0015483181923627853, 0.5586785078048706, -0.3087847828865051, 0.07968322932720184, 0.22988492250442505, -0.6961129903793335, -0.40252843499183655, 0.4494991898536682, 0.4084520936012268, 0.03073458932340145, -0.11783932894468307, -0.39726635813713074, 0.6439765691757202, 0.6050724387168884, -0.6196542978286743, 0.3853248953819275], [-0.027267223224043846, -0.26160529255867004, -0.4514433443546295, 0.35898175835609436, -0.2724466025829315, -0.060477569699287415, -0.6861709356307983, 0.11141162365674973, -0.15329916775226593, 0.6308200359344482, -0.4495791494846344, -0.42392656207084656, 0.4436529874801636, -0.5110697746276855, 0.3067699670791626, -0.001350154634565115, 0.26381224393844604, 0.5826249718666077, 0.5081655383110046, -0.10490906238555908, 0.7073832750320435, -0.47140246629714966, -0.3364321291446686, -0.12753742933273315, -0.05444025248289108, 0.01876920461654663, 0.6206214427947998, -0.29304441809654236, 0.6959259510040283, -0.05188288539648056, -0.02243592031300068, 0.40467455983161926], [0.37821462750434875, 0.03230013698339462, -0.5411758422851562, -0.3637462556362152, -0.780150830745697, 0.5932918787002563, -0.11415218561887741, 0.05437152087688446, -0.15519778430461884, -0.030042754486203194, 0.5055028200149536, -0.0640571117401123, 0.451399564743042, -0.6560858488082886, 0.3157211244106293, -0.03116898238658905, -0.20551954209804535, 0.1707887202501297, 0.3290904462337494, 0.1444120705127716, 0.6540543437004089, -0.12644900381565094, -0.1771346628665924, -0.47631189227104187, 0.44291964173316956, 0.19609715044498444, -0.23697084188461304, -0.3023918867111206, 0.4257188141345978, -0.23513653874397278, -0.24455419182777405, 0.39514651894569397], [0.1706189215183258, -0.4825129508972168, 0.11355645209550858, -0.29211047291755676, 0.2671371102333069, -0.06868013739585876, 0.05207807570695877, 0.04060249775648117, 0.5647967457771301, -0.12735240161418915, 0.2556324005126953, 0.14353248476982117, 0.4291970133781433, -0.3822019398212433, 0.17407342791557312, -0.16558149456977844, 0.12416967004537582, -0.16326108574867249, 0.395951509475708, 0.3199644982814789, 0.2872903645038605, -0.1938120573759079, 0.20228053629398346, -0.2075987011194229, 0.17703478038311005, -0.2738071382045746, -0.2690475583076477, 0.5395137071609497, -0.07240259647369385, 0.3107873499393463, 0.19449983537197113, -0.23335734009742737], [0.6374610066413879, -0.8401236534118652, 0.12398786842823029, 0.2045556902885437, 0.27542683482170105, -0.1107119619846344, 0.050027795135974884, 1.3559898138046265, -0.37833288311958313, -0.23032192885875702, 0.2829790711402893, 0.2224726378917694, -0.4146793484687805, -0.9831902384757996, -0.6611015796661377, -0.5427210927009583, 0.21814769506454468, 0.307086318731308, -0.3331318497657776, -0.8988823294639587, -0.09747359901666641, 0.1313963085412979, -0.4382935166358948, -0.2318306565284729, 0.4754731357097626, -0.042306460440158844, 0.5774474143981934, 0.3023572862148285, 0.10379722714424133, 0.20569609105587006, -0.8157942891120911, 0.2317584753036499], [-0.014458908699452877, 0.4675617516040802, -0.08656817674636841, 0.3327244520187378, 0.4554521441459656, -0.5105422735214233, -0.6357722878456116, 0.3950501084327698, 0.12429460138082504, -0.6336393356323242, 0.15577714145183563, -0.2443440705537796, -0.40913817286491394, -0.8084949851036072, -0.5053616762161255, 0.5804190039634705, 0.5515190958976746, 0.33436501026153564, -0.1645319014787674, -0.244068905711174, 0.3279527723789215, 0.06480535119771957, 0.31391605734825134, -0.08265610784292221, 0.05620943009853363, -0.025594202801585197, 0.556115448474884, -0.034863509237766266, 0.3397773206233978, -0.1892515867948532, -0.700298011302948, 0.26976558566093445], [-0.34742432832717896, -0.40571311116218567, -0.2755444049835205, 0.5915201306343079, 0.2582629323005676, 0.7666511535644531, -0.24448692798614502, 0.3801666796207428, -0.11106790602207184, -0.5969067811965942, 0.04469594731926918, 0.32000550627708435, -0.053958237171173096, -0.32066306471824646, -0.6502419114112854, 0.3751670718193054, -0.5066489577293396, 0.07728898525238037, -0.7840334177017212, 0.15566465258598328, -0.2054089605808258, 0.0402839370071888, 0.2958316504955292, -0.2623389661312103, 0.13796135783195496, 0.061222802847623825, 0.105382040143013, 0.056429050862789154, 1.0172942876815796, 0.6732988357543945, -0.763664960861206, 0.09977700561285019], [0.31223270297050476, 0.008233838714659214, -0.43778833746910095, 0.5052366852760315, 0.5207158923149109, -0.17328768968582153, -0.5521858334541321, 0.17190346121788025, -0.09510670602321625, -0.5276331305503845, 0.31873729825019836, 0.0875520184636116, -0.4893448054790497, 0.36934298276901245, -0.06842093169689178, 0.09354865550994873, -0.4506681263446808, -0.29829949140548706, 0.35624948143959045, -0.4724165201187134, -0.06438091397285461, 0.19107837975025177, -0.007825578562915325, -0.0032177043613046408, 0.3655191957950592, -0.4958636164665222, -0.14854630827903748, -0.6765083074569702, 1.0077763795852661, 0.674303412437439, 0.09524185210466385, 0.22558680176734924], [0.5007240176200867, -0.21254803240299225, -0.017018578946590424, -0.10539253056049347, 0.5455015301704407, -0.39120662212371826, -0.15385375916957855, 0.10405807942152023, -0.22332046926021576, -0.5904504656791687, -0.6433521509170532, 0.8322925567626953, -0.5229039788246155, 0.3186158835887909, -0.5432929992675781, -0.23287874460220337, -0.2647762596607208, -0.20455008745193481, 0.08916887640953064, 0.38667550683021545, 0.11387412995100021, -0.33986201882362366, 0.12107369303703308, -0.2997705936431885, -0.3012123703956604, 0.1043754443526268, 0.4310199022293091, 0.49395522475242615, 1.1822586059570312, -0.29010099172592163, -0.8359879851341248, 0.08713550120592117], [0.5847036242485046, -0.4764256477355957, -0.7150307297706604, 0.9737524390220642, 0.33458149433135986, -0.07843298465013504, -0.5599039793014526, -0.16898775100708008, 0.637972891330719, -0.29467862844467163, -0.22323013842105865, 0.24820967018604279, -0.27644842863082886, 0.3963821828365326, -0.2415241301059723, 0.3219720125198364, -0.006280803587287664, -0.2948167324066162, -0.7562015056610107, -0.3418424725532532, 0.32617101073265076, -0.007437776308506727, -0.26565292477607727, 0.12917286157608032, 0.1404675543308258, -0.41581016778945923, 0.09905689209699631, 0.5534582734107971, 0.5279194116592407, -0.45910224318504333, -0.20658953487873077, 0.21227526664733887], [0.6881662607192993, -0.630257248878479, -0.6250182390213013, 0.5630638599395752, -0.1126219779253006, -0.12371660768985748, -0.13923560082912445, 0.2109382152557373, -0.0029005869291722775, 0.12911328673362732, -0.9017494916915894, -0.05860240012407303, -0.14978723227977753, 0.3709498643875122, -0.3401505947113037, 0.119246706366539, 0.5976601839065552, 0.15740898251533508, -0.48576924204826355, 0.20187334716320038, -0.12450996041297913, -0.5855637192726135, 0.4678588807582855, -0.4608761966228485, -0.01414892915636301, 0.18813203275203705, 0.5024272203445435, -0.11162006109952927, 0.14037451148033142, -0.2770686447620392, 0.1372719705104828, 0.2886433005332947], [0.0260766688734293, 0.10157177597284317, -0.42401114106178284, 0.7762158513069153, -0.5514991879463196, -0.5650023818016052, -0.27681615948677063, -0.26430845260620117, 0.004901369567960501, -0.2835064232349396, -0.012705850414931774, 0.07396804541349411, 0.5343629717826843, -0.7819730639457703, -0.4116242527961731, -0.02646380104124546, -0.10128907859325409, 0.2788241505622864, 0.34495070576667786, -0.36736875772476196, 0.5138707160949707, 0.07164818048477173, -0.7878415584564209, 0.5367623567581177, 0.24493682384490967, -0.020492784678936005, 0.32172691822052, -0.24196438491344452, 1.0438191890716553, 0.7285555601119995, -0.0413375161588192, 0.4651106595993042], [-0.3190520703792572, -0.6493481397628784, 0.07630307972431183, -0.33865249156951904, 0.2868879437446594, 0.01210158783942461, -0.08115514367818832, 0.10761808604001999, 0.7509905695915222, -0.04012637212872505, 0.25827428698539734, 0.05787331983447075, 0.569004237651825, -0.32031986117362976, 0.062150441110134125, -0.16743779182434082, 0.3229820728302002, -0.08477360010147095, 0.11295333504676819, 0.38246703147888184, 0.4869448244571686, -0.4773036539554596, 0.4594743847846985, -0.5113444924354553, 0.2941027879714966, -0.14586269855499268, -0.29217055439949036, 0.17201821506023407, -0.04264945536851883, -0.02260817028582096, 0.21810580790042877, -0.28599992394447327], [0.30269327759742737, -0.256480872631073, 0.22179487347602844, 0.019559649750590324, -0.4937715232372284, 0.45142948627471924, 0.42361631989479065, 0.0027765545528382063, -0.18185783922672272, 0.21100619435310364, -0.0966227799654007, 0.028839046135544777, -0.17427122592926025, -0.018240302801132202, -0.6027151942253113, 0.13518226146697998, 0.034644827246665955, -0.3224819302558899, 0.28165435791015625, -0.3709219992160797, -0.058508653193712234, -0.022995397448539734, 0.5763474106788635, 0.6841810941696167, 0.4199135899543762, 0.09279698133468628, 0.37056928873062134, -0.154816672205925, -0.31738853454589844, -0.2076139897108078, -0.5349937081336975, -0.3355916142463684], [0.9053176641464233, -0.8000217080116272, -0.3921775221824646, -0.27343860268592834, -0.352152943611145, -0.2681334912776947, -0.15164636075496674, 0.10092475265264511, -0.4912027418613434, 0.2170012891292572, 0.5823993682861328, -0.23358221352100372, -0.5710839033126831, 0.1316758543252945, -0.2558123767375946, 0.6231844425201416, 0.23631922900676727, 0.18916428089141846, 0.3645365536212921, -0.4787353277206421, 0.018906526267528534, 0.018179189413785934, -0.550470769405365, 0.6084438562393188, -0.03977851942181587, -0.4547533392906189, 0.1339288055896759, 0.15175361931324005, 0.7145131230354309, 0.49763602018356323, -0.6504166126251221, 0.10689488798379898], [0.4437342584133148, -0.28061723709106445, -0.7250162363052368, 0.8063886761665344, -0.2295624166727066, -0.3592855632305145, -0.2780711352825165, 0.631235659122467, -0.30581986904144287, -0.07173199951648712, -0.13625803589820862, 0.0973237156867981, 0.01785370148718357, 0.37155216932296753, 0.0066644721664488316, 0.11056769639253616, 0.1248042955994606, -0.13730649650096893, -0.40618225932121277, 0.13197290897369385, 0.08224351704120636, -0.03223853185772896, -0.9350290894508362, 0.42872804403305054, 0.7187976241111755, -0.03170008212327957, 0.4983091354370117, -0.07803412526845932, 0.7531734704971313, -0.06714057922363281, 0.17495740950107574, 0.13488797843456268], [0.12966717779636383, -0.34853965044021606, -0.4781953692436218, -0.07112254947423935, -0.5659987926483154, -0.6626506447792053, -0.4137378931045532, 0.38820981979370117, -0.29346203804016113, 0.5748412013053894, -0.4991675913333893, -0.05210378021001816, -0.3052250146865845, 0.25887531042099, -0.15200960636138916, -0.1965208351612091, -0.2851216495037079, -0.07127015292644501, -0.002162737073376775, 0.5618671774864197, 0.6630809307098389, 0.29859626293182373, 0.5750451683998108, -0.11870744824409485, 0.07631510496139526, -0.28022536635398865, 0.544757604598999, -0.17203661799430847, 0.7202513813972473, -0.23229804635047913, -0.4520704746246338, -0.08335054665803909], [0.5936691761016846, 0.3975924849510193, -0.7895330786705017, 0.4462178349494934, -0.8357284665107727, -0.017674846574664116, -0.6385590434074402, -0.49872907996177673, 0.11613702028989792, 0.0795864537358284, -0.32368698716163635, -0.28373825550079346, 0.24754874408245087, -0.24886339902877808, -0.11948255449533463, 0.31312981247901917, 0.3282583951950073, 0.10709553956985474, 0.2922392785549164, 0.26281973719596863, 0.45815688371658325, -0.1868988275527954, 0.32198241353034973, 0.3622049391269684, -0.1361301839351654, -0.35967686772346497, -0.1222265213727951, -0.33341947197914124, 0.065121591091156, 0.4782664477825165, -0.7419026494026184, 0.6775755882263184], [-0.4751487970352173, -0.0956215187907219, 0.4174327254295349, 0.48280104994773865, -0.6442220211029053, 0.2091725617647171, -0.43758875131607056, 0.5140282511711121, -0.5005532503128052, 0.5174789428710938, 0.4408101439476013, -0.4325331449508667, -0.06459315121173859, 0.3572705090045929, 0.03348278999328613, 0.4525538980960846, 0.2657618224620819, 0.29163631796836853, 0.48886001110076904, -0.7120159864425659, -0.3042713403701782, -0.40947824716567993, -0.3249134421348572, 0.208776593208313, 0.13610856235027313, -0.3335321247577667, 0.5036184787750244, -0.06789571791887283, 0.28413134813308716, -0.436074823141098, -0.6743091940879822, 0.21745659410953522], [0.3509421646595001, 0.5612884759902954, 0.2693248689174652, -0.3086760640144348, -0.1560969352722168, -0.14491213858127594, 0.18365396559238434, 0.05435386300086975, 0.06103328615427017, -0.29285138845443726, -0.06734776496887207, 0.6756691336631775, 0.23982010781764984, -0.21739338338375092, -0.2548813819885254, -0.6813667416572571, -0.23867781460285187, -0.1039411872625351, -0.3352239727973938, -0.14335843920707703, -0.4975411295890808, 0.45934125781059265, 0.2844680845737457, -0.09387937188148499, -0.1850070208311081, 0.6100503206253052, -0.4328491687774658, -0.35043054819107056, -0.4462859630584717, 0.2620443105697632, 0.05557209625840187, 0.4766313135623932], [0.16655340790748596, -0.3224937319755554, 0.35757771134376526, -0.15066884458065033, -0.2551535367965698, 0.2931833267211914, -0.5040206909179688, 1.2692718505859375, 0.3477782607078552, -0.29281094670295715, -0.2958815395832062, -0.21521106362342834, -0.45857489109039307, -0.05458908528089523, 0.40877699851989746, -0.2519712746143341, 0.05245023965835571, -0.0695408508181572, -0.09410354495048523, -0.7664753794670105, -0.011592209339141846, -0.46145668625831604, 0.35304969549179077, -0.021781690418720245, 0.5856976509094238, 0.23160849511623383, -0.09786166250705719, -0.03291010856628418, 0.9850977063179016, -0.2460075169801712, -0.8358775973320007, 0.07040644437074661], [-0.26564088463783264, -0.15264397859573364, -0.9882771968841553, 0.6650049090385437, -0.7634222507476807, -0.010404020547866821, -0.7832257747650146, 0.4429759383201599, 0.2822783887386322, 0.0118316151201725, 0.1796472668647766, -0.3452295660972595, -0.16974686086177826, 0.004790267441421747, -0.3325212299823761, 0.5182932019233704, 0.38806813955307007, -0.33693385124206543, -0.37484824657440186, -0.6705499887466431, 0.62115877866745, -0.07041671872138977, -0.26547136902809143, 0.43752405047416687, 0.4586474597454071, -0.041961245238780975, -0.17429989576339722, 0.14135754108428955, 0.6364538669586182, 0.06491260230541229, 0.392192006111145, -0.09370076656341553], [0.1730033904314041, 0.31350064277648926, -0.4461507797241211, 0.9512768983840942, -0.8862490653991699, -0.5747095942497253, -0.8639002442359924, 0.34397369623184204, 0.634223222732544, -0.1515657603740692, 0.0731344148516655, -0.06850354373455048, -0.3655863106250763, -0.2887762784957886, -0.4550577998161316, 0.6465850472450256, -0.6919578909873962, 0.29018890857696533, -0.18586181104183197, 0.033525846898555756, 0.011795071884989738, 0.2574046552181244, -0.04214034229516983, -0.028277095407247543, -0.24666930735111237, 0.14625447988510132, 0.25385022163391113, -0.4078417718410492, 0.7025001049041748, 0.2834632098674774, 0.011159366928040981, -0.45578861236572266], [-0.21039626002311707, 0.2951469123363495, -0.5642001628875732, 0.48264917731285095, -0.33689969778060913, 0.12257368117570877, -0.5548455119132996, 0.4501418471336365, 0.2946912944316864, -0.25127658247947693, -0.2318417876958847, 0.5208165049552917, 0.1574152261018753, 0.5328667163848877, -0.4097350537776947, -0.4991995394229889, -0.10673685371875763, 0.6617051362991333, 0.4330475926399231, -0.5349085927009583, -0.2810342609882355, -0.32257622480392456, 0.06575749069452286, 0.422610878944397, 0.3114736080169678, 0.2130616009235382, 0.1622587889432907, 0.535994291305542, 0.3665584325790405, -0.21316400170326233, -0.5401310920715332, 0.008949318900704384], [-0.3281254470348358, -0.18985682725906372, 0.043091654777526855, 0.3319140672683716, -0.028352171182632446, -0.06310662627220154, -0.8031465411186218, 0.6908078193664551, 0.5803923606872559, 0.08404487371444702, -0.2669631838798523, 0.19866535067558289, -0.3947826027870178, 0.1308041363954544, -0.23254534602165222, -0.44627276062965393, 0.373856782913208, 0.9214959144592285, -0.5352555513381958, 0.05890972539782524, 0.31602269411087036, -0.5070127844810486, -0.06052602455019951, 0.2331913560628891, 0.7739740014076233, -0.1270965337753296, 0.15185315907001495, -0.0016973112942650914, 0.8994365334510803, -0.37776461243629456, -0.5978571176528931, -0.2613832652568817], [0.2888531982898712, 0.07976647466421127, -0.6544936299324036, 0.587276041507721, -0.6477768421173096, -0.5236798524856567, -0.3724064528942108, 0.2541052997112274, 0.2974891662597656, -0.15246422588825226, -0.5563601851463318, 0.4358537495136261, -0.7305209040641785, 0.1995067149400711, -0.16691520810127258, -0.20528526604175568, 0.3243822157382965, 0.6590542793273926, -0.5984650254249573, 0.11921477317810059, 0.4593065679073334, 0.1858881264925003, 0.017689241096377373, 0.13401110470294952, 0.10139854997396469, 0.2580455243587494, -0.1602233350276947, 0.6963158845901489, 0.7283304333686829, 0.4834948778152466, -0.3312668204307556, -0.12407203763723373], [-0.40062999725341797, 0.01862223818898201, -0.2576179802417755, 0.6773104667663574, 0.19109801948070526, -0.3929099142551422, -0.31933996081352234, 0.035108938813209534, -0.46902361512184143, 0.42601314187049866, -0.5219057202339172, -0.3183954358100891, 0.581663966178894, -0.7670238018035889, -0.4306614398956299, 0.4921257495880127, 0.14404618740081787, -0.07548056542873383, 0.13989490270614624, 0.295518696308136, -0.13017241656780243, 0.7223268151283264, -0.2695131301879883, 0.5793652534484863, -0.35976463556289673, 0.24009329080581665, -0.04050666466355324, -0.31589841842651367, 0.2509188950061798, -0.4178257882595062, 0.38544198870658875, -0.15322613716125488], [0.46983301639556885, -0.17461101710796356, -0.5335214138031006, 0.587154746055603, -0.5129987001419067, 0.010975858196616173, -0.5525747537612915, 0.5626064538955688, 0.14147311449050903, 0.5241624116897583, 0.5823794007301331, 0.34448644518852234, -0.22769486904144287, 0.15915606915950775, 0.2904978394508362, -0.3083914518356323, -0.268952339887619, 0.34716281294822693, -0.04382883757352829, -0.4794031083583832, -0.4360330402851105, -0.7733872532844543, 0.1504622846841812, -0.24359868466854095, -0.06053386256098747, 0.003595431335270405, -0.30086037516593933, 0.07621460407972336, 0.24058037996292114, -0.06273789703845978, -0.19119657576084137, -0.3589840829372406], [-0.26304394006729126, -0.4073326885700226, -0.6039085984230042, 0.6065271496772766, -0.2071310430765152, 0.7339907288551331, -0.09438773989677429, 1.128399133682251, -0.29054659605026245, 0.5220898389816284, 0.04295806214213371, -0.26746803522109985, -0.39941632747650146, -0.617268443107605, -0.27542105317115784, -0.06676457822322845, 0.11392717063426971, 0.20397688448429108, -0.25453484058380127, 0.26787489652633667, -0.0933210477232933, 0.00995814148336649, 0.22412507236003876, 0.545522153377533, 0.4143298268318176, -0.20720593631267548, 0.04059448465704918, 0.25863611698150635, 0.7806897759437561, -0.08765281736850739, -0.09050639718770981, 0.125139057636261], [-0.28183215856552124, 0.44610679149627686, 0.34164923429489136, 0.07693610340356827, -0.3346743583679199, -0.1419239640235901, 0.45205551385879517, 0.36705172061920166, -0.25296011567115784, -0.490192174911499, -0.07332682609558105, 0.014473170973360538, -0.6445444822311401, -0.14911235868930817, 0.35722705721855164, 0.22385719418525696, -0.06506618857383728, 0.5003349781036377, 0.63216233253479, -0.11043810099363327, 0.48632434010505676, -0.13498005270957947, 0.2409973293542862, -0.3008847236633301, 0.049460701644420624, -0.053885769098997116, -0.24178700149059296, 0.2872917056083679, -0.4682829976081848, -0.09807921946048737, 0.06909043341875076, -0.17101940512657166], [-0.16161060333251953, -0.08999902755022049, 0.21347317099571228, -0.297421395778656, -0.259910523891449, -0.011004841886460781, -0.9051042795181274, 0.5248438119888306, 0.3863685131072998, -0.049448270350694656, 0.3981932997703552, -0.17996425926685333, 0.2858046591281891, -0.6074943542480469, -0.4648433029651642, 0.08779842406511307, 0.3443267047405243, 0.8696538805961609, 0.30107977986335754, -0.05453716218471527, -0.23699580132961273, 0.4179708659648895, -0.1866857409477234, 0.09705524891614914, -0.15616077184677124, -0.3341172933578491, 0.6183430552482605, 0.762907862663269, -0.02177078276872635, -0.2857726514339447, -0.37331393361091614, -0.4925241768360138], [-0.23497693240642548, 0.27069658041000366, -0.25038865208625793, -0.04419579356908798, 0.04774602875113487, 0.308827668428421, -0.2956596612930298, 0.6270349621772766, -0.7094592452049255, 0.6706445217132568, -0.014632306061685085, 0.33447369933128357, -0.5852979421615601, 0.24924038350582123, -0.19820742309093475, -0.12345556914806366, 0.06386041641235352, 0.6436828970909119, -0.003739369800314307, -0.28148239850997925, 0.137119859457016, -0.47721755504608154, -0.629637598991394, -0.357389360666275, 0.036217305809259415, 0.523946225643158, -0.5458282828330994, 0.5362106561660767, 0.6776819229125977, -0.383491575717926, -0.1628682166337967, -0.1073828637599945], [0.1068950667977333, -0.42557787895202637, -0.5192872285842896, 0.34403327107429504, -0.7023661732673645, 0.18140849471092224, -0.1487308293581009, 0.19524472951889038, 0.36370590329170227, -0.27680912613868713, 0.1671171933412552, -0.4340273439884186, 0.22387036681175232, -0.5129672288894653, 0.1400761902332306, 0.4863768219947815, 0.1289612501859665, 0.17434948682785034, 0.5671231746673584, -0.5061880946159363, 0.13906610012054443, 0.1864509880542755, -0.7948215007781982, 0.7121667861938477, -0.04715196415781975, -0.04473482817411423, -0.6536402702331543, 0.721310555934906, 0.3674166202545166, 0.40626099705696106, 0.012885845266282558, 0.11054784059524536], [0.6109218001365662, -0.408233642578125, -0.25643524527549744, -0.3675297200679779, -0.6841592192649841, 0.24778954684734344, -0.08337182551622391, 0.9731331467628479, 0.11176680028438568, 0.011518694460391998, 0.1677962839603424, -0.3764383792877197, 0.06331255286931992, 0.2024623453617096, -0.5020343065261841, 0.7853600978851318, -0.24311098456382751, 0.2940007448196411, 0.16217736899852753, -0.2522710859775543, -0.12146618962287903, 0.12512218952178955, -0.6476461291313171, -0.06716346740722656, -0.45960479974746704, -0.17672476172447205, -0.3567389249801636, 0.9614191055297852, 0.7770288586616516, 0.039491795003414154, -0.28361591696739197, -0.427629292011261], [-0.405493825674057, 0.5564733147621155, -0.6474882364273071, 0.4524139165878296, -0.328825443983078, 0.435086190700531, -0.31994298100471497, 0.2824590504169464, -0.16319960355758667, 0.031108308583498, -0.5731782913208008, 0.7686910033226013, -0.0254947729408741, 0.38220927119255066, -0.2149815857410431, -0.1682995855808258, -0.36178332567214966, 0.271912157535553, 0.23022973537445068, 0.28917092084884644, 0.3126956522464752, -0.5910336971282959, -0.08798528462648392, -0.41753068566322327, -0.4941825568675995, 0.4829094409942627, 0.06507682055234909, 0.12171213328838348, 0.4755612313747406, 0.11278858780860901, 0.026530612260103226, -0.025642655789852142], [0.2394796907901764, -0.5722526907920837, -0.6722397208213806, -0.32436031103134155, 0.2383498251438141, -0.029994415119290352, 0.03684275969862938, 0.09915245324373245, 0.03392225503921509, -0.21006447076797485, 0.08366236835718155, 0.18060193955898285, -0.05727977678179741, 0.17743144929409027, -0.20105509459972382, 0.4773120582103729, -0.08311110734939575, 0.16503795981407166, 0.8414232134819031, -0.4334300458431244, 0.27106061577796936, -0.03231050819158554, -0.1373453140258789, 0.38112756609916687, 0.12112294137477875, 0.1422281563282013, -0.49611273407936096, 1.221158742904663, 0.5772191286087036, -0.32516178488731384, -0.4253406524658203, -0.16471505165100098], [-0.2719283998012543, -0.2694268822669983, -0.8289528489112854, 0.6343541741371155, -0.10441095381975174, 1.132956624031067, 0.5455018877983093, -0.29690995812416077, -0.08692774921655655, -0.33860093355178833, 0.10415203869342804, -0.15037228167057037, -0.07266751676797867, -0.44433334469795227, 0.13535287976264954, 0.2812531888484955, -0.16166402399539948, 0.6289090514183044, 0.24383167922496796, 0.07868879288434982, 0.1447669416666031, 0.02186833880841732, -0.06294265389442444, -0.18791429698467255, -0.3734852969646454, 0.3499615490436554, -0.5900260210037231, 0.3428826332092285, 0.4723738729953766, 0.1322067677974701, 0.3998737037181854, -0.2700529992580414], [-0.56307053565979, -0.281785786151886, -0.27899932861328125, -0.4382172226905823, 0.08066779375076294, -0.5494903922080994, 0.30599597096443176, -0.06594647467136383, -0.032020628452301025, 0.5777532458305359, -0.3338104486465454, 0.5044616460800171, -0.20619606971740723, 0.16041095554828644, -0.014138324186205864, -0.11086810380220413, -0.5077639222145081, 0.1605982780456543, -0.18610726296901703, 0.11935669928789139, -0.4589916467666626, 0.009155772626399994, 0.1347188949584961, -0.12068746238946915, 0.052071668207645416, 0.14220629632472992, -0.18472176790237427, -0.032361943274736404, 0.4815441071987152, 0.29453882575035095, 0.38567087054252625, -0.22666622698307037], [-0.5446659326553345, -0.44669437408447266, -0.2757547199726105, -0.2785814702510834, -0.5664997696876526, -0.15279169380664825, 0.3962114751338959, 0.04295147582888603, -0.09568390995264053, 0.6942362189292908, 0.2724263668060303, -0.09898708015680313, 0.34970995783805847, 0.13233955204486847, 0.2855912148952484, 0.2601640224456787, -0.07018067687749863, -0.6421896815299988, 0.36696380376815796, -0.33780309557914734, -0.32162588834762573, -0.03788693621754646, -0.18501783907413483, 0.14483019709587097, 0.5539886951446533, 0.5136228203773499, -0.3549681305885315, -0.04245300963521004, 0.14972110092639923, -0.38140687346458435, 0.25966522097587585, 0.08150921016931534], [-0.11370844393968582, 0.5201221704483032, 0.277988463640213, 0.5326416492462158, -0.7507166862487793, -0.46858078241348267, 0.5744706392288208, 0.07502476125955582, -0.10187295079231262, -0.26685285568237305, -0.009505124762654305, 0.15611784160137177, -0.21589027345180511, 0.10117564350366592, 0.22320817410945892, 0.8393725752830505, 0.10870839655399323, 0.29717764258384705, -0.034655213356018066, 0.019271990284323692, -0.2629820704460144, -0.48403289914131165, -0.012486709281802177, -0.2206936776638031, 0.0290827713906765, -0.2490430772304535, -0.5118550658226013, 0.009118993766605854, -0.04367459565401077, 0.1707695573568344, 0.38263481855392456, -0.25352156162261963], [-0.35270458459854126, -0.6650842428207397, -0.4376336932182312, 0.1575593501329422, -0.18653784692287445, 0.5727109313011169, -0.47188442945480347, -0.08246709406375885, 0.3608968257904053, 0.4203742444515228, -0.022670026868581772, 0.3384324312210083, -0.27476823329925537, 0.34485575556755066, -0.02682838961482048, 0.6754963397979736, -0.5376290678977966, 0.5666343569755554, -0.12661047279834747, 0.13395994901657104, 0.2008398175239563, -0.5870066285133362, 0.5893213748931885, -0.3163897395133972, 0.30797260999679565, 0.2387569546699524, -0.4685669243335724, 0.5853374600410461, 0.18784043192863464, 0.13845756649971008, -0.17302283644676208, 0.43042507767677307], [-0.5675042271614075, 0.11924751847982407, -0.5579931139945984, 0.3642197549343109, -0.08661957830190659, -0.1466452032327652, -0.15701791644096375, -0.3688434064388275, -0.5257542729377747, 0.39605841040611267, -0.2664879560470581, 0.1933014690876007, -0.4218977093696594, 0.17902225255966187, 0.11545109748840332, 0.40794795751571655, -0.4595235586166382, -0.48354342579841614, 0.0335015207529068, 0.259173184633255, 0.0018964471528306603, -0.25045350193977356, -0.8118175268173218, 0.6958852410316467, 0.26668062806129456, 0.5302038788795471, 0.5354005098342896, -0.02640322968363762, 0.40318480134010315, 0.7204990386962891, -0.03264689818024635, 0.4678965210914612], [0.3921927213668823, 0.7410287857055664, -0.7604289650917053, 0.6671823263168335, 0.5148382186889648, 0.001292749191634357, 0.23386286199092865, -0.5005505681037903, 0.10778737813234329, -0.2863282561302185, -0.2823162376880646, 0.5753305554389954, -0.46740373969078064, -0.35651877522468567, 0.08438306301832199, 0.19130244851112366, -0.11057031899690628, -0.33352017402648926, -0.5708689093589783, 0.5080036520957947, 0.04600584879517555, -0.24290379881858826, -0.3476806581020355, -0.2098139226436615, -0.19810575246810913, 0.08169319480657578, 0.4342971742153168, 0.6707864999771118, -0.17883484065532684, -0.20223824679851532, 0.24015475809574127, -0.1789759397506714], [-0.13285478949546814, 0.3066098392009735, -0.5792350769042969, 0.07444153726100922, 0.25624075531959534, 0.29118430614471436, -0.3838910758495331, -0.01910756155848503, -0.08396858721971512, 0.08816718310117722, -0.6591253280639648, 0.18856197595596313, 0.018741676583886147, -0.07798592746257782, -0.533603310585022, -0.5403509140014648, 0.3590395450592041, 0.43547195196151733, 0.7391665577888489, 0.25064268708229065, -0.13993343710899353, -0.7747748494148254, -0.23164302110671997, -0.1352996677160263, 0.23697707056999207, 0.170301154255867, -0.2752755284309387, 0.9921424388885498, 0.10574899613857269, 0.7269979119300842, -0.4526651203632355, -0.38374194502830505], [0.4261903762817383, -0.27461040019989014, -0.8201791048049927, 0.6905422806739807, -0.0077875046990811825, 0.5816695094108582, 0.10998204350471497, -0.12082596868276596, -0.6915814280509949, 0.5138835906982422, -0.4174719452857971, 0.545396089553833, -0.48671403527259827, 0.15874718129634857, 0.15684713423252106, 0.08091746270656586, -0.6122477054595947, 0.18893195688724518, 0.048137448728084564, -0.10283434391021729, -0.07462495565414429, -0.8542267084121704, -0.11163980513811111, -0.368888795375824, 0.04963316768407822, 0.37073636054992676, 0.5635588765144348, 0.6194658875465393, 0.25316473841667175, 0.3720223307609558, 0.002187183825299144, 0.5621523261070251], [-0.36744022369384766, 0.5409482717514038, 0.19494561851024628, 0.3614455759525299, -0.36795052886009216, -0.4272017478942871, 0.13896872103214264, 0.17454087734222412, -0.15627726912498474, -0.39316195249557495, 0.32504260540008545, -0.21405737102031708, -0.6620411276817322, -0.13503451645374298, 0.422843873500824, 0.19786608219146729, 0.30313053727149963, 0.41627463698387146, 0.3706243932247162, 0.2705100476741791, 0.05517887324094772, -0.4756000339984894, -0.42772307991981506, -0.18530483543872833, 0.007954136468470097, -0.4684182405471802, -0.05589962750673294, -0.18512864410877228, -0.32891103625297546, 0.4456501603126526, 0.29701367020606995, -0.018548374995589256], [0.3618713915348053, -0.050846926867961884, 0.16935989260673523, -0.2355169951915741, -0.47823381423950195, -0.023452650755643845, 0.18600787222385406, 0.688897967338562, 0.5058472752571106, -0.021550077944993973, -0.412722647190094, 0.22152692079544067, 0.34631145000457764, -0.14847178757190704, -0.20327092707157135, 0.12203308939933777, -0.32428398728370667, -0.07119792699813843, -0.5059226751327515, 0.14966969192028046, -0.2066192775964737, 0.23551949858665466, 0.005806050729006529, -0.40647557377815247, 0.21629571914672852, 0.3797302544116974, -0.508132815361023, -0.08577345311641693, -0.013333518989384174, -0.10200978815555573, -0.11996494233608246, 0.45054739713668823], [-0.08488495647907257, -0.23125676810741425, -0.10654991865158081, -0.3826843500137329, 0.2381136268377304, -0.4827636182308197, -0.16558684408664703, -0.10732994973659515, 0.3657430112361908, -0.20403029024600983, 0.09134876728057861, -0.28663796186447144, 0.31379586458206177, 0.3148723244667053, 0.04002276435494423, 0.25281646847724915, -0.3686431050300598, 0.3664042055606842, -0.034636568278074265, 0.0023232053499668837, -0.08620034158229828, 0.44822433590888977, 0.040101129561662674, 0.06529265642166138, 0.06525883078575134, 0.3270666003227234, 0.2917581796646118, 0.08323650062084198, -0.32112789154052734, -0.0241937767714262, -0.6048570871353149, -0.17919713258743286], [0.4098372459411621, 0.1364903748035431, -0.2741134464740753, -0.2832944691181183, -0.15034626424312592, -0.19546224176883698, -0.20688511431217194, -0.17160211503505707, 0.3197178542613983, 0.18994572758674622, 0.18971556425094604, 0.7300347685813904, 0.07404220849275589, -0.3454382121562958, -0.004801085684448481, 1.075472116470337, -0.5170876383781433, 0.359038382768631, 0.01081978902220726, 0.41081950068473816, 0.6637603044509888, 0.40494054555892944, 0.008195667527616024, 0.15978528559207916, 0.09843368083238602, -0.37853342294692993, -0.43885380029678345, 0.16499117016792297, 0.17957034707069397, -0.050003908574581146, -0.8529644012451172, 0.47680848836898804], [0.908240556716919, -0.8906069993972778, -0.29719090461730957, 0.2961834669113159, 0.04886858910322189, -0.04925031587481499, -0.18696773052215576, 0.1192636713385582, 0.033340439200401306, 0.5186185836791992, -0.59112548828125, 0.31340962648391724, -0.18936356902122498, -0.08300933986902237, -0.2691612243652344, 0.7345713973045349, -0.49834775924682617, 0.12431949377059937, 0.1609133929014206, -0.1686122864484787, 0.7665154337882996, 0.345723032951355, 0.23864728212356567, 0.08987411856651306, 0.45163097977638245, -0.32359230518341064, -0.1117832288146019, 0.3104894459247589, -0.1996282935142517, -0.299823135137558, -0.6878187656402588, 0.6086176633834839], [0.15395385026931763, -0.3749162554740906, -0.2835483253002167, 0.1532839685678482, -0.02461216412484646, -0.12503843009471893, 0.3262805640697479, -0.2202003300189972, -0.3608722388744354, 0.5432558059692383, -0.27909624576568604, 0.6214972138404846, -0.1040048748254776, -0.19099558889865875, -0.24794375896453857, 0.513238251209259, -0.6354013085365295, -0.270994633436203, -0.03686612471938133, -0.42927369475364685, 0.5232343077659607, 0.29451701045036316, -0.7616705298423767, -0.37958580255508423, -0.13049831986427307, 0.18076243996620178, -0.49205338954925537, 0.18600675463676453, 0.4562591314315796, 0.09610612690448761, -0.16297735273838043, 0.6727144718170166], [-0.25550684332847595, 0.14803999662399292, 0.2561803460121155, -0.427191823720932, -0.11704999208450317, 0.30635154247283936, 0.05346463993191719, -0.2602253556251526, 0.4739021062850952, 0.08571596443653107, 0.32169410586357117, -0.46526312828063965, 0.3500252366065979, 0.09269999712705612, -0.30152323842048645, -0.27820801734924316, 0.3033536672592163, -0.2780325412750244, -0.3739805221557617, 0.007564726285636425, -0.0999297946691513, 0.3706451952457428, -0.21705958247184753, 0.07792694866657257, -0.3626733720302582, 0.3886919319629669, 0.44551655650138855, -0.3384231626987457, -0.32612383365631104, 0.32544174790382385, -0.2512924075126648, -0.2317170947790146], [0.6189338564872742, -0.360562264919281, -0.09889823943376541, 0.7160977721214294, -0.2499280720949173, -0.3028271496295929, 0.2728080153465271, -0.33486148715019226, 0.07716356217861176, 0.11214619874954224, -0.7372178435325623, -0.11625925451517105, -0.38224196434020996, -0.5932381749153137, -0.48674944043159485, -0.17189009487628937, -0.4158000648021698, 0.1574680358171463, -0.0363042838871479, 0.36116403341293335, -0.2386881411075592, 0.2950765788555145, 0.3557995557785034, 0.2530897557735443, 0.17742390930652618, 0.09244759380817413, 0.10943061858415604, -0.2111097127199173, 0.8894858956336975, -0.36875343322753906, -0.6726487874984741, 0.3306125998497009], [0.1923133134841919, -0.2528299391269684, -0.730283796787262, 0.45864495635032654, -0.7868986129760742, 0.02783864550292492, 0.26604264974594116, 0.036496009677648544, 0.37272554636001587, -0.08391433954238892, -0.6577830910682678, -0.43586301803588867, -0.5161485075950623, -0.8097386956214905, 0.14853805303573608, 0.43377363681793213, 0.3831862807273865, 0.22497586905956268, 0.37545546889305115, -0.0954025387763977, -0.14082136750221252, 0.3088037371635437, -0.27246126532554626, -0.11581619083881378, 0.10643164813518524, 0.19422753155231476, -0.2836744487285614, 0.2663407623767853, 0.7755255699157715, 0.14271260797977448, -0.4172515571117401, 0.4578700363636017], [0.7756308317184448, 0.1386662870645523, -0.6054732203483582, 0.4136977791786194, -0.3026944100856781, -0.4223264455795288, -0.07073214650154114, 0.40537717938423157, -0.06479702889919281, 0.19696909189224243, 0.6672114133834839, -0.24169711768627167, -0.5140268206596375, -0.5286571383476257, -0.010104009881615639, -0.26192110776901245, 0.0459512360394001, 0.26389041543006897, -0.5927108526229858, 0.07741487771272659, 0.23907682299613953, -0.18671850860118866, -0.023415664210915565, 0.174293652176857, -0.3289715349674225, 0.32049912214279175, 0.21106302738189697, 0.8742924928665161, -0.0965714231133461, 0.32369309663772583, -0.7308073043823242, 0.5135016441345215], [0.09736025333404541, -0.08258066326379776, -0.5638279914855957, 0.6220953464508057, -0.13319189846515656, -0.5652567148208618, 0.1326981633901596, 0.18367916345596313, -0.35878685116767883, 0.30869415402412415, -0.739973247051239, -0.07833044975996017, -0.1949918121099472, -0.7174307107925415, -0.17273519933223724, -0.3652193248271942, -0.07793727517127991, 0.7416592240333557, 0.4401724934577942, -0.44600212574005127, -0.05007214471697807, 0.11144512891769409, -0.030039677396416664, 0.32440218329429626, 0.12364470213651657, 0.25762391090393066, 0.6057000160217285, 0.3060382008552551, 0.6522697806358337, 0.25914129614830017, -0.2812505066394806, 0.0766005590558052], [-0.24967510998249054, 0.10972487926483154, -0.2468378096818924, 0.6975533962249756, 0.02396930567920208, -0.27022022008895874, -0.27492275834083557, 0.016435643658041954, 0.36336901783943176, 0.21275083720684052, -0.5059552192687988, -0.45750799775123596, -0.24720382690429688, 0.22140581905841827, -0.3529469072818756, 0.4154898524284363, -0.24390549957752228, -0.029745154082775116, -0.06919315457344055, 0.4481397867202759, 0.170938640832901, -0.25078994035720825, -0.4536493420600891, 0.5866548418998718, 0.02727990597486496, -0.1832810789346695, 0.5408679842948914, 0.27057763934135437, 0.9966458082199097, -0.027749013155698776, -0.7163940668106079, 0.3930395543575287], [0.14006753265857697, -0.40954071283340454, 0.14498189091682434, -0.30801916122436523, 0.3562636375427246, -0.08428685367107391, 0.34980788826942444, 0.06791229546070099, 0.884045422077179, -0.24241556227207184, 0.17344418168067932, 0.17033100128173828, 0.2662406265735626, -0.3327690362930298, -0.01625029183924198, -0.2146555334329605, 0.022542651742696762, -0.5231205224990845, 0.4641173481941223, 0.4098201394081116, 0.33790501952171326, -0.2983432412147522, 0.24733588099479675, -0.41473087668418884, 0.2842269539833069, -0.30672937631607056, -0.02332550846040249, 0.3259674608707428, -0.1132938340306282, 0.05705946311354637, 0.24078087508678436, -0.09610389918088913], [-0.25006183981895447, -0.12285112589597702, 0.06398160755634308, 0.4578702747821808, -0.5397059321403503, 0.30588197708129883, 0.11842416226863861, 0.5539453029632568, -0.41211163997650146, -0.07547488808631897, -0.047048818320035934, 0.25056594610214233, 0.4298483729362488, 0.19651052355766296, -0.5304294228553772, -0.1556716412305832, -0.31981199979782104, 0.07033593952655792, -0.21942991018295288, -0.5361886620521545, 0.13784900307655334, -0.2538452744483948, -0.24286505579948425, 0.6120549440383911, 0.5165781378746033, 0.43506520986557007, 0.3498801290988922, -0.050830766558647156, -0.20004090666770935, 0.3159330487251282, 0.15937133133411407, -0.36373957991600037], [-0.1342698037624359, 0.3112552762031555, -1.015211582183838, -0.18476608395576477, -0.26531982421875, 0.5048778057098389, -0.3605320453643799, -0.057663168758153915, -0.42451655864715576, 0.9199241995811462, -0.14236003160476685, -0.10078801959753036, 0.09278776496648788, -0.185429185628891, -0.6976355314254761, 0.2602885067462921, 0.17304962873458862, 0.4795423448085785, -0.14171579480171204, -0.12511590123176575, 0.6535224914550781, -0.048248082399368286, -0.19083230197429657, 0.3083355724811554, -0.3539954125881195, -0.3487735986709595, 0.7213397026062012, 0.49150654673576355, -0.2156442403793335, -0.23814474046230316, -0.21354910731315613, -0.2639482021331787], [0.30827268958091736, 0.3441208600997925, 0.07910171896219254, -0.32322391867637634, -0.5642252564430237, -0.08035013824701309, -0.08286359906196594, 1.0802171230316162, 0.12742552161216736, -0.18010063469409943, -0.40891942381858826, -0.17447051405906677, 0.21713310480117798, -0.4459432065486908, 0.41615185141563416, -0.3659208416938782, 0.3915462791919708, -0.2500871419906616, 0.04678403213620186, 0.10456393659114838, 0.3891104459762573, -0.5264801383018494, 0.11769925802946091, -0.5312047600746155, -0.04838705062866211, 0.4216144382953644, 0.11113579571247101, 0.9297789931297302, -0.1718934327363968, -0.42012903094291687, -0.8364931344985962, 0.14542758464813232], [-0.1618162989616394, 0.4202226996421814, 0.23427696526050568, 0.4705619215965271, -0.5108970999717712, 0.16600732505321503, 0.3149714171886444, 0.7022497057914734, -0.26349952816963196, -0.186526358127594, 0.08461374044418335, -0.24858108162879944, -0.4506326913833618, -0.5999114513397217, 0.6770197153091431, 0.1878957450389862, 0.04038041830062866, -0.3974043130874634, 0.3626919984817505, -0.24491244554519653, 0.47602328658103943, -0.18033643066883087, -0.11161383986473083, -0.21210947632789612, 0.05290282890200615, -0.23831409215927124, -0.3009175658226013, -0.1810445338487625, -0.23241212964057922, 0.2766032814979553, -0.052319955080747604, -0.2243654727935791], [0.443403035402298, 0.019446471706032753, -0.9672344326972961, 0.566185474395752, -0.09550721198320389, 0.3696281313896179, 0.2508343458175659, -0.073635533452034, 0.31753432750701904, 0.2637634873390198, -0.7245753407478333, -0.029144462198019028, 0.04663453623652458, 0.02814379893243313, 0.4169209599494934, 0.5293788909912109, -0.28508806228637695, -0.2492740899324417, 0.1000342071056366, -0.4714272916316986, 0.4870019853115082, 0.14225104451179504, 0.37751516699790955, -0.20700109004974365, -0.04592856392264366, -0.23645196855068207, -0.4071299135684967, 0.7626305222511292, -0.0027253583539277315, -0.46791768074035645, -0.37091442942619324, 0.20176123082637787], [0.4831945300102234, -0.9336928725242615, -0.4140366017818451, -0.10778162628412247, -0.2549346685409546, -0.28986549377441406, -0.05818488076329231, 0.026120226830244064, -0.055627480149269104, 0.506982147693634, -0.03990129008889198, -0.0786336213350296, 0.14419908821582794, -0.3940436542034149, -0.008105806075036526, 0.12972436845302582, 0.322510689496994, 0.34421196579933167, 0.140530526638031, 0.08324719220399857, 0.16565780341625214, -0.8741720914840698, 0.23522092401981354, 0.1028277724981308, 0.5210286974906921, 0.22040560841560364, -0.5269977450370789, 1.0832637548446655, 0.12089160829782486, 0.23111113905906677, -0.8664451837539673, 0.5543619990348816], [-0.05091656744480133, -0.11123570054769516, -0.4458366632461548, -0.24855433404445648, 0.17617292702198029, 0.103431835770607, -1.0036002397537231, 0.6945176124572754, -0.6346145272254944, 0.567902684211731, -0.1831173300743103, -0.21392619609832764, 0.1855211853981018, -0.8404623866081238, 0.191914364695549, 0.2776481509208679, 0.5778780579566956, 0.12962132692337036, -0.2630321979522705, 0.14551931619644165, 0.43862178921699524, 0.24471578001976013, -0.48237332701683044, 0.13995975255966187, 0.1194700226187706, -0.11059681326150894, -0.583591639995575, 0.6329092383384705, 0.6142634749412537, 0.3177729845046997, -0.29936185479164124, -0.11393821984529495], [0.502180814743042, -0.29019105434417725, 0.1788150519132614, -0.0627952292561531, 0.7047407627105713, -0.294391930103302, -0.4720548689365387, 0.2838188409805298, -0.7488227486610413, -0.032288964837789536, 0.267711341381073, 0.5453547239303589, -0.4389311671257019, -0.23450130224227905, -0.4069998860359192, 0.5053829550743103, 0.21220529079437256, -0.8521115183830261, 0.04574430361390114, -0.22557078301906586, 0.022548791021108627, -0.3036618232727051, 0.3569658100605011, 0.09104976058006287, -0.2501567304134369, 0.39777135848999023, -0.6216365694999695, 0.037432972341775894, 0.6376057267189026, 0.16329888999462128, -0.5203054547309875, 0.7808877825737], [-0.4876664876937866, -0.05486789718270302, -0.010528750717639923, 0.6496859192848206, 0.09103726595640182, 0.4374511241912842, -1.029866337776184, 0.582139790058136, 0.24756324291229248, -0.13245689868927002, -0.5329021215438843, -0.24714110791683197, -0.1907462179660797, -0.1007942333817482, 0.06525548547506332, 0.44042670726776123, 0.08040571957826614, -0.5517740249633789, -0.0004038242041133344, -0.1593915820121765, 0.5042166709899902, 0.20982088148593903, -0.08012475073337555, -0.09673082828521729, -0.05404658615589142, -0.3155420422554016, 0.7935794591903687, 0.04462778568267822, 0.6237479448318481, 0.24092496931552887, -0.9166162014007568, 0.5704394578933716], [-0.26532986760139465, -0.8184171915054321, -0.5652384757995605, 0.24045124650001526, -0.03361707925796509, 0.19047293066978455, 0.5351400375366211, 0.15434330701828003, 0.3976998031139374, 0.33385926485061646, 0.1115320473909378, 0.33291491866111755, 0.0021875135134905577, 0.6186813116073608, -0.17729800939559937, 0.339962899684906, 0.32340681552886963, -0.03552848473191261, -0.4264179468154907, -0.2149694859981537, 0.2023671716451645, -0.6768684983253479, -0.1850549727678299, -0.0038507706485688686, 0.33129677176475525, -0.5759944319725037, -0.1602703183889389, 0.23819929361343384, 0.3694571554660797, 0.1393975466489792, -0.9299434423446655, 0.1249176561832428], [0.2900593876838684, -0.900734543800354, -0.472778856754303, 0.20391947031021118, -0.07928336411714554, 0.31822147965431213, 0.0964120477437973, -0.1094934344291687, -0.614058256149292, 0.07790210098028183, 0.04651155322790146, 0.20517012476921082, -0.047810494899749756, -0.3233720064163208, 0.029669104143977165, 0.02633235976099968, 0.4984285831451416, 0.31218960881233215, -0.7098931670188904, -0.40005409717559814, 0.015150421299040318, -0.5986679792404175, 0.30697548389434814, 0.14569857716560364, -0.3472133278846741, 0.21385711431503296, -0.4479517936706543, 0.7784755825996399, 0.7710291743278503, 0.40756353735923767, -0.2775168716907501, 0.33897557854652405], [-0.10231239348649979, -0.29654186964035034, 0.12712931632995605, -0.294238418340683, 0.3002530038356781, -0.31273069977760315, -0.4444049894809723, -0.1475793570280075, 0.4463658332824707, -0.18192017078399658, 0.43432605266571045, -0.2993115782737732, 0.2367904931306839, 0.24438431859016418, -0.07084469497203827, -0.12408135086297989, -0.1763029396533966, 0.3368509113788605, -0.33231449127197266, 0.008175857365131378, -0.02120797336101532, 0.257350891828537, -0.29403913021087646, -0.07669566571712494, -0.25403937697410583, 0.33753007650375366, -0.3831120431423187, 0.27137455344200134, -0.07962165772914886, 0.13309764862060547, -0.5086893439292908, 0.07406169176101685], [0.39583393931388855, -0.21464310586452484, -0.8173773288726807, 0.4189632833003998, 0.3898259401321411, 0.043165549635887146, 0.5109115839004517, 0.432287335395813, -0.23912981152534485, -0.6136886477470398, 0.6231275796890259, 0.15615981817245483, 0.4469044506549835, -0.4620831608772278, 0.16364574432373047, 0.07075000554323196, 0.12328048050403595, -0.0005934251821599901, 0.7129121422767639, -0.4734719693660736, -0.626333475112915, 0.0256654005497694, 0.09026192873716354, -0.1630699783563614, -0.09408637136220932, 0.49753135442733765, 0.45236778259277344, -0.5066908597946167, 0.03770940378308296, -0.3645365536212921, -0.11284910887479782, -0.24767136573791504], [0.17588092386722565, 0.1859225332736969, -0.13583345711231232, 0.46592164039611816, -0.1593836098909378, 0.2555166482925415, 0.2017499953508377, -0.17366307973861694, -0.4681051969528198, -0.07730169594287872, 0.3771776854991913, -0.09070170670747757, 0.39104583859443665, -0.1031893715262413, -0.4000452160835266, 0.057325270026922226, 0.3767111003398895, 0.49062803387641907, -0.37921929359436035, -0.0675654411315918, 0.04613971710205078, 0.5474148392677307, -0.3348127007484436, 0.3016399145126343, 0.34423691034317017, 0.1842133104801178, -0.24384427070617676, 0.3897676169872284, -0.3973149061203003, 0.14965832233428955, -0.4269709289073944, -0.2716139853000641], [-0.14424113929271698, 0.18895776569843292, -0.48481467366218567, -0.1415092796087265, -0.29914629459381104, 0.8634721636772156, -0.5325159430503845, 1.1178518533706665, -0.013743729330599308, -0.25105172395706177, -0.1690085530281067, 0.7857906818389893, -0.2892284095287323, -0.2476090043783188, -0.4815240800380707, 0.34487301111221313, 0.34044572710990906, -0.07500746101140976, -0.0771360695362091, -0.34429046511650085, -0.43238577246665955, 0.31771308183670044, -0.07755594700574875, -0.33964288234710693, -0.0018400270491838455, 0.17037557065486908, 0.26350533962249756, -0.12882159650325775, 0.16000515222549438, -0.10444134473800659, -0.29949918389320374, -0.08404936641454697], [-0.4740404784679413, 0.11865071952342987, -0.7385356426239014, -0.024640372022986412, -0.4167041480541229, 0.42415598034858704, -0.5274513363838196, -0.002213271101936698, -0.037776608020067215, 0.07251563668251038, 0.4024822413921356, 0.7842355966567993, -0.012520911172032356, -0.7417707443237305, -0.2056346982717514, 0.22650502622127533, 0.06298504769802094, -0.6364817023277283, -0.049853283911943436, -0.023193247616291046, 0.5608119368553162, 0.2955876588821411, -0.6347208023071289, 0.41548430919647217, -0.17053835093975067, 0.16723577678203583, -0.60731440782547, 0.6798109412193298, -0.10885327309370041, -0.195908784866333, -0.4132075905799866, -0.22425836324691772], [-0.0190065186470747, -0.29659873247146606, -0.8021003007888794, 0.10956928879022598, -0.33192944526672363, 0.997035026550293, -0.17496392130851746, 0.7428275346755981, -0.6506708860397339, 0.04847459867596626, 0.3419789969921112, 0.18378481268882751, -0.17651382088661194, -0.2502546012401581, -0.5485336780548096, 0.3052385449409485, -0.052745409309864044, -0.3162645399570465, -0.1430431306362152, -0.4040379226207733, -0.035108212381601334, -0.4952024519443512, 0.3885337710380554, 0.21650171279907227, -0.25866609811782837, 0.39531609416007996, -0.23334160447120667, 0.3195468485355377, 0.5850847959518433, 0.6948232054710388, -0.10622307658195496, -0.20891642570495605], [0.5994921922683716, 0.20895016193389893, -0.6214478015899658, 0.2708578109741211, -0.07222169637680054, -0.3546578884124756, -0.7506240010261536, 0.501345694065094, -0.24103565514087677, -0.46893295645713806, -0.05710231512784958, -0.056280527263879776, 0.21898679435253143, -0.8852474689483643, 0.021517513319849968, 0.4769151210784912, 0.2875976860523224, -0.05997557193040848, -0.29672425985336304, 0.7435417771339417, 0.23734234273433685, 0.22998014092445374, -0.1707836240530014, 0.012565932236611843, -0.20417626202106476, -0.05539875477552414, 0.44414353370666504, 0.8344349265098572, 0.7970920205116272, -0.20665186643600464, -0.14246141910552979, 0.07967203855514526], [-0.21181590855121613, 0.27552530169487, 0.14074350893497467, 0.3556883931159973, -0.49659720063209534, -0.07046275585889816, 0.16043971478939056, 0.49681755900382996, -0.2819277048110962, -0.04063805565237999, -0.13163986802101135, -0.017111141234636307, -0.44328221678733826, -0.16047123074531555, 0.19188915193080902, 0.3737020194530487, 0.0945187360048294, 0.36349236965179443, 0.1967019885778427, 0.06938545405864716, 0.0501662902534008, -0.4570608139038086, -0.11471792310476303, -0.06503870338201523, 0.22302931547164917, -0.25200483202934265, 0.04530242457985878, 0.001532832975499332, -0.21184177696704865, 0.17381484806537628, 0.18616148829460144, -0.11400987207889557], [0.09649232774972916, 0.022509101778268814, -0.057161685079336166, 0.09658169001340866, -0.3039073944091797, -0.2990288734436035, 0.2600087821483612, -0.019378073513507843, 0.541632354259491, -0.5920436978340149, 0.016189558431506157, 0.18848267197608948, -0.3975307047367096, -0.8488363027572632, 0.014907078817486763, 0.0906587690114975, 0.39828798174858093, -0.2817983329296112, 0.46166107058525085, 0.18991868197917938, 0.2263784557580948, -0.1664832979440689, -0.4598555862903595, 0.1181243360042572, 0.36090371012687683, 0.08921846747398376, -0.5304384827613831, 0.8814548254013062, 0.8103227019309998, 0.5195149779319763, -0.35226890444755554, -0.0887974426150322], [-0.4156269133090973, -0.012531849555671215, -0.3639751672744751, 0.16737160086631775, 0.43246105313301086, 0.21131621301174164, -0.25581586360931396, -0.27651771903038025, 0.5731635689735413, -0.07274352014064789, 0.1621718853712082, 0.22357937693595886, -0.09843936562538147, 0.05756659805774689, -0.5945243835449219, -0.111500084400177, -0.466256320476532, -0.468684583902359, 0.10870680212974548, 0.32008495926856995, -0.09372203797101974, -1.2390618324279785, -0.6178876161575317, 0.4415290951728821, 0.8442720174789429, -0.042831044644117355, -0.277627170085907, 0.4720468819141388, 0.8441211581230164, 0.3775864541530609, -0.19803300499916077, 0.13320526480674744], [-0.5130051374435425, 0.3700188398361206, -0.883092999458313, 0.22423270344734192, 0.3226746916770935, 0.31069397926330566, 0.0016962388763204217, -0.6465111970901489, 0.636118471622467, -0.3540615737438202, 0.08941741287708282, 0.5721330046653748, -0.32744210958480835, -0.23508678376674652, 0.11674447357654572, -0.5683015584945679, -0.4148023724555969, -0.1638823300600052, 0.07142341136932373, -0.2580650746822357, 0.7655583024024963, -0.4270099997520447, 0.45968660712242126, 0.27767205238342285, 0.25978076457977295, 0.10825126618146896, -0.6794353723526001, 0.31793636083602905, 0.4096323251724243, 0.2337380200624466, 0.34104591608047485, -0.4492059648036957], [-0.14238357543945312, 0.11052566766738892, -0.6406301259994507, -0.0689849779009819, -0.36406147480010986, -0.24418681859970093, -0.4083978831768036, -0.359386146068573, 0.10946422070264816, 0.2707405984401703, 0.10847458988428116, -0.21969982981681824, 0.12586946785449982, -0.3275003135204315, 0.3217827379703522, -0.2571429908275604, -0.6322060823440552, 0.6513422131538391, 0.6689023971557617, 0.39664316177368164, -0.39842066168785095, -0.1388646960258484, -0.14543837308883667, 0.27844715118408203, 0.3163049817085266, 0.11246558278799057, -0.26982614398002625, 0.4353877604007721, 0.03815643861889839, -0.16991207003593445, 0.2599600851535797, 0.6418051719665527], [-0.2338503897190094, -0.08853092044591904, -0.5594611167907715, 0.07000918686389923, -0.4891740679740906, -0.1586131900548935, -0.15348055958747864, -0.1179218664765358, -0.07044325023889542, 0.2298281192779541, -0.6532209515571594, 0.039592474699020386, 0.03484654054045677, -0.23968452215194702, 0.3699756860733032, -0.04768220707774162, -0.39801716804504395, -0.33296310901641846, -0.04991152510046959, -0.15743109583854675, 0.6209120750427246, -0.7760938405990601, 0.0598481185734272, -0.34532755613327026, -0.22311663627624512, -0.0318625383079052, 1.066886067390442, 0.2967820167541504, 1.032699704170227, 0.04853079468011856, 0.023721517994999886, 0.4467284381389618], [0.03167176619172096, -0.12422987073659897, -0.36564546823501587, -0.32606184482574463, -0.4713141620159149, -0.02573225647211075, -0.005590200889855623, 0.15155191719532013, -0.8009356260299683, -0.28395965695381165, 0.4071706533432007, -0.141936257481575, -0.038935139775276184, -0.7467057108879089, -0.020057091489434242, 0.7165179252624512, -0.24036729335784912, 0.37388789653778076, -0.05649586394429207, -0.2729385495185852, -0.06749308109283447, 0.2793121039867401, 0.21173566579818726, 0.5511864423751831, -0.03137844055891037, 0.3432248532772064, 0.4305110573768616, 0.45422235131263733, 0.4289854168891907, -0.31475529074668884, -0.8309800624847412, -0.6608161330223083], [0.5818158984184265, -0.1614447683095932, -0.5467787384986877, 0.5998638272285461, -0.09756079316139221, 0.3913682699203491, -1.0646467208862305, -0.2983298599720001, 0.32550710439682007, 0.4982457160949707, -0.03801482170820236, 0.48762816190719604, -0.573974609375, -0.09539251774549484, -0.1000637486577034, 0.6728388667106628, 0.11345387995243073, -0.036762792617082596, 0.49617999792099, -0.20810258388519287, 0.049127139151096344, -0.100320965051651, -0.20618893206119537, -0.44733643531799316, -0.059898003935813904, 0.11166942864656448, 0.155464768409729, -0.11047335714101791, 0.5548854470252991, -0.13030560314655304, 0.474934846162796, 0.14090290665626526], [-0.35615673661231995, -0.597422182559967, -0.6904727220535278, 0.45940423011779785, -0.7193711400032043, -0.16694732010364532, 0.08472996950149536, -0.0920993983745575, 0.02990129217505455, 0.46206778287887573, -0.4553298056125641, 0.45320504903793335, 0.19133621454238892, -0.00026832116418518126, -0.3546798527240753, 0.6397228240966797, -0.04032623767852783, -0.16263197362422943, 0.12493611872196198, -0.49089542031288147, 0.29767656326293945, -0.5344182848930359, 0.10566632449626923, -0.6567414402961731, 0.3130374252796173, 0.3738812804222107, 0.4517315924167633, 0.27848580479621887, 0.7159333229064941, 0.16213904321193695, 0.19748400151729584, 0.30868393182754517], [0.10370112210512161, -0.44289878010749817, -0.6026470065116882, 0.4926499128341675, 0.16274721920490265, -0.20082709193229675, 0.3594750165939331, 0.2717098295688629, -0.0488310270011425, -0.0846635103225708, -0.6188955903053284, -0.10102945566177368, -0.5629782676696777, 0.00054121547145769, -0.5914086699485779, 0.677229642868042, -0.48496752977371216, 0.06850907951593399, -0.31432217359542847, 0.2976881265640259, 0.7506293058395386, -0.3964380621910095, -0.3905286490917206, -0.11725776642560959, 0.5743384957313538, 0.42508283257484436, 0.6799798607826233, 0.2764163315296173, 0.39127036929130554, -0.4470725655555725, 0.06177675724029541, -0.2271338850259781], [-0.2199750542640686, 0.18748287856578827, -0.1998676061630249, -0.31921178102493286, -0.20029853284358978, 0.029946744441986084, -0.7225309610366821, 0.8492028713226318, 0.514009416103363, 0.5873593688011169, -0.491146445274353, -0.06430017203092575, -0.014606291428208351, 0.10563718527555466, 0.3250128924846649, 0.1507948935031891, -0.42323946952819824, -0.6386335492134094, 0.2504975199699402, 0.15188704431056976, 0.4833589792251587, 0.19607697427272797, 0.16422241926193237, -0.5825082659721375, 0.2723999321460724, 0.1803652048110962, -0.3438921272754669, 0.5320727825164795, 0.1229926347732544, 0.17935402691364288, -0.49546343088150024, -0.6375443339347839], [-0.15619534254074097, -0.0793081521987915, 0.2861488163471222, 0.3774400055408478, -0.6498403549194336, 0.2869187295436859, 0.03634852543473244, 0.7180219888687134, -0.09261326491832733, -0.3077434003353119, -0.07852105051279068, 0.5084792375564575, -0.5757269263267517, 0.25813281536102295, 0.13778507709503174, 0.26036232709884644, 0.2550516128540039, 0.2615092992782593, 0.4340309202671051, 0.1901557296514511, 0.584995448589325, -0.24522176384925842, 0.23203888535499573, -0.0770474299788475, -0.008962254039943218, -0.26341161131858826, -0.015171031467616558, -0.18473152816295624, -0.2937176525592804, 0.20377038419246674, 0.053057897835969925, -0.15791022777557373], [-0.1408379226922989, -0.1980973780155182, -0.20679964125156403, 0.18572528660297394, -0.051374487578868866, 0.5667331218719482, -0.16400381922721863, -0.036726195365190506, -0.4995996356010437, 0.5229061841964722, -0.11462277919054031, -0.16526341438293457, 0.20937438309192657, -0.45784512162208557, -0.1542879045009613, 0.6004213094711304, 0.13180546462535858, 0.45154905319213867, 0.4643120765686035, 0.0641588494181633, 0.22208599746227264, 0.39892885088920593, -0.5548030734062195, -0.7027158737182617, 0.22953832149505615, 0.1490246057510376, -0.35797956585884094, 0.8862574100494385, 0.38717949390411377, -0.45359528064727783, -0.19752877950668335, 0.13957804441452026], [0.12322770804166794, 0.2041996568441391, -0.38018742203712463, -0.4501988887786865, -0.1629902720451355, -0.2717803418636322, -0.21668441593647003, 0.052589066326618195, 0.4002801179885864, -0.368960440158844, -0.09491128474473953, 0.26438772678375244, -0.13952918350696564, 0.23920497298240662, -0.6783720850944519, 0.053524624556303024, 0.09572003036737442, 0.3598545789718628, 0.5951813459396362, -0.5437589883804321, 0.5859797596931458, 0.3465604782104492, -0.1978083848953247, 0.5680086016654968, -0.19899530708789825, -0.33745893836021423, 0.05577905848622322, 0.9267709851264954, -0.11885317414999008, 0.5883955359458923, -0.4263826310634613, -0.5579260587692261], [-0.003551939968019724, -0.1100485697388649, -0.011650880798697472, -0.22663363814353943, -0.020065752789378166, -0.1891861855983734, 0.2105533927679062, 0.8477470874786377, -0.5359527468681335, -0.3289817273616791, 0.30596408247947693, 0.009232725948095322, 0.3012736439704895, -0.3877243101596832, -0.28811290860176086, 0.6686440110206604, -0.44087302684783936, -0.2905430495738983, 0.3574955463409424, -0.7194963693618774, 0.48792240023612976, 0.19324244558811188, -0.7252167463302612, 0.2491968423128128, -0.1690090149641037, -0.030979130417108536, 0.07654854655265808, 0.15791885554790497, 0.05698033794760704, -0.14808474481105804, -0.9151226282119751, -0.0740480124950409], [-0.2725139260292053, -0.3422279357910156, -0.7319599986076355, -0.31819814443588257, -0.41800546646118164, 0.4183257222175598, -0.20450304448604584, 0.9120439887046814, 0.207182839512825, -0.14173665642738342, 0.17209933698177338, 0.09195439517498016, -0.09139049798250198, 0.4859304428100586, 0.08731120824813843, 0.5236918926239014, -0.00688489293679595, -0.4342452585697174, 0.1332494169473648, -0.20606446266174316, 0.7026984691619873, 0.25833821296691895, -0.5551089644432068, 0.13086701929569244, 0.21518133580684662, -0.28362971544265747, 0.4463334381580353, 0.17246441543102264, 0.0324225053191185, -0.01034390740096569, -0.6159493923187256, 0.11624238640069962], [0.5981528759002686, -0.3004674017429352, -0.44289079308509827, 0.14952053129673004, 0.2395126223564148, -0.21947605907917023, -0.31928741931915283, 0.8700150847434998, -0.5660156607627869, -0.09470023959875107, 0.0025039890315383673, -0.23795269429683685, -0.11365391314029694, 0.16273930668830872, -0.4029132127761841, 0.8220590353012085, 0.45879927277565, 0.13914431631565094, -0.3397986888885498, -0.003973081707954407, 0.842921257019043, 0.005730022210627794, -0.2621392607688904, -0.3916388750076294, -0.4614962935447693, 0.04524725303053856, 0.2929297089576721, 0.15660029649734497, 0.029999442398548126, 0.5130978226661682, -0.5181567072868347, -0.17274916172027588], [0.531937301158905, -0.1721246987581253, -0.18330782651901245, -0.6014584302902222, 0.439479798078537, 0.522889256477356, -0.20235127210617065, 1.0013413429260254, 0.29687029123306274, -0.19531677663326263, 0.17388489842414856, -0.20985929667949677, -0.446566641330719, -0.26289069652557373, -1.1720712184906006, 0.08398562669754028, -0.31867730617523193, 0.4006335437297821, 0.30483007431030273, -0.3479588031768799, 0.16561459004878998, -0.11592649668455124, -0.41752761602401733, -0.1382344365119934, 0.38201770186424255, -0.21933774650096893, 0.15766900777816772, 1.016931414604187, 0.08978287875652313, -0.09011846780776978, -0.6645626425743103, 0.462158739566803], [-0.04619728773832321, -0.19237753748893738, -0.3473779857158661, 0.49942442774772644, -0.12712228298187256, -0.11170544475317001, -0.15878289937973022, -0.46387267112731934, -0.05006781592965126, -0.1884007602930069, -0.8702141046524048, 0.4801326394081116, 0.3856463134288788, -0.2502988874912262, -0.03886473923921585, 0.2625826895236969, 0.4675852358341217, 0.6387325525283813, 0.4703109860420227, -0.48447030782699585, 0.12850506603717804, -0.570015013217926, -0.907814621925354, 0.31168365478515625, 0.7242385745048523, 0.37904661893844604, 0.8031904101371765, 0.1511445939540863, 0.8734481930732727, -0.5107783675193787, 0.28827807307243347, -0.007692559156566858], [0.06325587630271912, -0.4860563576221466, -0.16026733815670013, 0.6883522272109985, -0.1660809963941574, 0.42282626032829285, 0.41881418228149414, 0.0008345262613147497, 0.25163400173187256, -0.5743252635002136, -1.0000145435333252, 0.1197507306933403, 0.45819610357284546, -0.8709303140640259, -0.8101269006729126, 0.6149924397468567, 0.09579286724328995, 0.4197840690612793, 0.23297306895256042, 0.42511871457099915, 0.507931649684906, 0.031995777040719986, 0.5438336133956909, 0.056168679147958755, -0.10738257318735123, 0.10825804620981216, -0.36373579502105713, 0.48445039987564087, 0.21157662570476532, -0.456180602312088, -0.6982240080833435, 0.11872757971286774], [-0.39494627714157104, 0.3826032876968384, 0.16311529278755188, 0.4952869415283203, -0.5483939051628113, 0.13494448363780975, 0.02360185608267784, 0.38363078236579895, -0.10162662714719772, -0.4082263112068176, 0.0591307170689106, -0.036172449588775635, -0.46270206570625305, 0.21001304686069489, 0.10783672332763672, 0.39759063720703125, 0.05831354856491089, 0.2618076205253601, -0.11395000666379929, 0.21073828637599945, 0.5649765729904175, -0.15228667855262756, -0.23159751296043396, -0.2947421371936798, 0.44370347261428833, -0.3221644163131714, -0.3923407793045044, -0.22021542489528656, -0.08695405721664429, 0.33986565470695496, 0.0846066027879715, 0.5744416117668152], [-0.24979066848754883, -0.7569574117660522, 0.06617528200149536, 0.6473252177238464, -0.3506210148334503, 0.36652737855911255, -0.6317765712738037, -0.38625213503837585, 0.2918758988380432, -0.5759652853012085, 0.25961926579475403, 0.440222829580307, -0.1513148993253708, -0.12950770556926727, -0.8826879262924194, 0.16749709844589233, -0.24365440011024475, 0.6843329668045044, -0.2636944055557251, 0.04684361442923546, 0.6746626496315002, -0.08410917222499847, 0.07900470495223999, 0.02101696841418743, 0.49011996388435364, -0.26358962059020996, 0.6695600748062134, 0.09871212393045425, 0.6018874645233154, 0.05529472976922989, -0.5362035036087036, 0.24072998762130737], [0.3981720209121704, -0.08410530537366867, 0.18699800968170166, 0.47878339886665344, 0.1812966763973236, 0.38779217004776, 0.18545059859752655, -0.24013115465641022, -0.630329966545105, -0.08794946223497391, 0.19973163306713104, -0.12119404971599579, -0.5736960172653198, 0.06459619849920273, -0.31186145544052124, -0.35156145691871643, -0.3168070912361145, 0.11088133603334427, 0.08319935947656631, 0.6052736043930054, -0.15171146392822266, -0.23377253115177155, -0.16877101361751556, 0.4662976562976837, 0.40973544120788574, 0.08226675540208817, -0.1907082498073578, 0.6281598806381226, -0.08923476934432983, -0.14706654846668243, -0.5542114973068237, 0.05399247258901596], [-0.09992895275354385, 0.21153879165649414, 0.3570540249347687, 0.49896007776260376, 0.12470356374979019, -0.3370393216609955, 0.25805824995040894, -0.21715515851974487, -0.5544302463531494, -0.18973308801651, 0.08816332370042801, -0.1801409125328064, -0.517064094543457, 0.22577914595603943, -0.23537677526474, 0.2064703404903412, -0.06866717338562012, 0.3021462559700012, 0.3388049006462097, 0.5751712918281555, -0.20710353553295135, -0.5046114325523376, -0.3732442259788513, 0.24328650534152985, 0.3536511957645416, -0.1919669210910797, -0.1485329121351242, 0.3645150065422058, -0.4417744278907776, -0.22721733152866364, -0.11547354608774185, 0.10289344936609268], [0.03329187631607056, -0.612703800201416, -0.3334560990333557, -0.4009133279323578, -0.4054740369319916, 0.3823064863681793, -0.5004361271858215, 0.9186277389526367, 0.5046423673629761, 0.24119225144386292, -0.7942954301834106, 0.8903012871742249, 0.42280125617980957, 0.05512750893831253, -0.0772509053349495, 0.5554122924804688, 0.07538425922393799, 0.3871452510356903, 0.9108073115348816, -0.7183349132537842, 0.3283012807369232, -0.9850056171417236, -0.8916350603103638, 0.13487592339515686, 0.536521852016449, 0.017073743045330048, 0.03887435048818588, 0.7741128206253052, 0.10489196330308914, 0.3015281558036804, -0.12190031260251999, 0.3471865952014923], [-0.1932835429906845, -0.30589979887008667, -0.667938768863678, -0.21242521703243256, 0.21851682662963867, 0.18267706036567688, 0.190435990691185, 0.3440999984741211, -0.14749157428741455, -0.289246141910553, -0.6225054860115051, 0.3774415850639343, -0.06828416138887405, 0.32334157824516296, -0.4918827712535858, 0.3889065086841583, -0.5568392872810364, -0.16656425595283508, 0.6850312352180481, -0.222331240773201, 0.5987193584442139, 0.23384800553321838, -0.19463126361370087, -0.4677893817424774, 0.9469329118728638, 0.2008713036775589, 0.044929515570402145, 0.4327159523963928, -0.07221803814172745, 0.3201996982097626, -0.828845739364624, 0.02912190929055214], [0.027851412072777748, 0.23944319784641266, -0.845231294631958, -0.17982198297977448, -0.16606447100639343, 1.1084798574447632, 0.09154062718153, -0.35892271995544434, 0.30655938386917114, -0.2014613151550293, -0.5068503022193909, 0.21592706441879272, -0.0694187730550766, -0.9040828347206116, -0.0249148178845644, 0.2850729823112488, -0.521325409412384, 0.42570313811302185, 0.7305130362510681, -0.3490773141384125, 0.5887970924377441, -0.05499895662069321, -0.9519328474998474, -0.05237005650997162, 0.12143702805042267, -0.3338448703289032, -0.1656886339187622, 0.4381709694862366, 0.1653781533241272, 0.623104989528656, -0.4635879397392273, 0.42532944679260254], [-0.41652607917785645, -0.5477067828178406, -0.04474225267767906, -0.16847938299179077, 0.16651678085327148, -0.4190225303173065, -0.14792194962501526, 0.23666484653949738, -0.1474197506904602, 0.32809439301490784, -0.4337577819824219, 0.4899763762950897, 0.3399331569671631, -0.04516393691301346, -0.38284191489219666, 0.7059721946716309, 0.08128558099269867, 0.027222374454140663, 0.24772143363952637, -0.4151320159435272, 0.536979079246521, -1.148660659790039, 0.07606680691242218, -0.072755366563797, 0.20240284502506256, 0.1268775463104248, 0.7566346526145935, 0.13289101421833038, 0.11267365515232086, -0.020226595923304558, -0.9666127562522888, 0.3156014680862427], [-0.1792561113834381, -0.2469835877418518, 0.05821049585938454, -0.10548540949821472, 0.2699756324291229, -0.10399193316698074, -0.36514201760292053, -0.2262766808271408, 0.1620231717824936, -0.16770201921463013, 0.16955126821994781, -0.20319947600364685, 0.2099638730287552, 0.32906508445739746, 0.018726445734500885, -0.035735707730054855, -0.018139684572815895, 0.3749296963214874, -0.06389401108026505, -0.14718423783779144, -0.0566408596932888, 0.1313156932592392, -0.20557399094104767, -0.17607209086418152, 0.021883683279156685, 0.289628803730011, -0.3037719428539276, 0.08190740644931793, -0.10057512670755386, -0.13429789245128632, -0.45994675159454346, -0.255861759185791], [-0.056343723088502884, -0.2224719375371933, -0.6817537546157837, 0.391623318195343, -0.33290430903434753, -0.25882279872894287, -0.6449000835418701, 0.7590953707695007, 0.2626078724861145, -0.19118167459964752, 0.2988962233066559, 0.6892254948616028, -0.13424323499202728, -0.7959372997283936, 0.2844142019748688, 0.2628870904445648, -0.24933476746082306, -0.10118698328733444, -0.4727165997028351, -0.3712647259235382, -0.20113204419612885, 0.04216086119413376, 0.063944973051548, -0.05630868300795555, 0.82757169008255, 0.37520912289619446, 0.5174420475959778, 0.04027385264635086, -0.3218627870082855, -0.3132393956184387, -0.1419541835784912, -0.1258661299943924], [-0.5148812532424927, -0.31509068608283997, -0.5248671174049377, 0.5248297452926636, 0.35530179738998413, 0.3173583745956421, 0.044215135276317596, 0.4993399381637573, 0.1443125307559967, -0.29402485489845276, 0.22375188767910004, -0.14129984378814697, 0.1914733201265335, -0.945831298828125, -0.07452339679002762, 0.7030324935913086, -0.4177924394607544, -0.25016382336616516, -0.6552848815917969, -0.17955094575881958, 0.33191946148872375, 0.05608360096812248, -0.32640179991722107, 0.47537514567375183, -0.4576301574707031, -0.023793641477823257, -0.3298609256744385, 0.06725011020898819, 0.33289825916290283, -0.05739675834774971, -0.38569942116737366, 0.34127378463745117], [0.04322272539138794, -0.022317178547382355, 0.01564365066587925, 0.029156802222132683, 0.043617233633995056, -0.3350421190261841, -0.1442570835351944, 0.2384597212076187, 0.38568776845932007, 0.36149951815605164, -0.892152726650238, 0.7329721450805664, -0.17676062881946564, -0.23385325074195862, -0.8393477201461792, 0.44495123624801636, -0.059415820986032486, 0.2726544439792633, -0.31949231028556824, 0.49970534443855286, 0.47233980894088745, -0.07843059301376343, -0.6751813888549805, 0.021931292489171028, -0.1530255824327469, -0.3312877416610718, 0.6689812541007996, 0.27222856879234314, 0.051622603088617325, -0.5482730865478516, -1.0628176927566528, 0.33546707034111023], [-0.16356509923934937, 0.14336895942687988, 0.10377608239650726, -0.21492482721805573, -0.10593534260988235, 0.1474951207637787, 0.09155353158712387, -0.24869750440120697, 0.6699898838996887, -0.11385782063007355, 0.14787493646144867, 0.6656343936920166, -0.2399325966835022, -0.6638232469558716, -0.1668313443660736, -0.24524810910224915, 0.38658371567726135, 0.08171842247247696, -0.3454090356826782, -0.19047802686691284, -0.1948709338903427, -0.1794218271970749, -0.10332488268613815, 0.1087293028831482, -0.373044490814209, 0.3808329701423645, 0.15515664219856262, -0.1649959832429886, -0.16222035884857178, 0.5469481945037842, -0.05132700875401497, 0.3614402115345001], [0.07135168462991714, -0.71748948097229, -0.3812273442745209, 0.14142946898937225, -0.3968997895717621, 