{"tok_emb.weight": [[0.21448016166687012, -0.0916343480348587, -0.17714430391788483, -0.4453907012939453, 0.295614093542099, 0.556206464767456, 0.31497979164123535, -0.0021183823700994253, 0.8514164686203003, -0.6175196170806885, 0.8729167580604553, -1.5883324146270752, 0.4523905813694, 1.5065628290176392, 0.12634557485580444, 0.39978012442588806, -0.4489750266075134, -1.32663893699646, -0.10327330976724625, 1.5421476364135742, 1.6902837753295898, 0.9843165278434753, 1.0583770275115967, 0.3005455434322357, -0.0005546306492760777, -1.2081820964813232, 0.3668847382068634, -1.0072780847549438, -1.5884668827056885, 0.8565186262130737, -0.824005126953125, -3.4307613372802734], [-0.8880680799484253, 0.11959388852119446, -1.4301739931106567, 0.7053554654121399, -0.26038557291030884, -0.6262561082839966, -0.334557443857193, -0.7283423542976379, 0.5901947617530823, 1.0416940450668335, 0.4199969470500946, -0.11762242764234543, 0.06587589532136917, -0.06267451494932175, 0.1784336417913437, -0.3921273350715637, 0.5877109169960022, 1.0872621536254883, -0.9906084537506104, 0.7594789862632751, -0.817914605140686, 0.8806264400482178, 0.7059869766235352, 0.09303587675094604, 1.506300687789917, -0.5386471152305603, -0.18823808431625366, 0.5158849954605103, -0.44207775592803955, -0.5348197817802429, 0.12321501225233078, 0.15372291207313538], [0.3449362814426422, 0.6660823822021484, -0.17341916263103485, -0.7255929708480835, -0.029747571796178818, 1.0882076025009155, -1.5569320917129517, 0.7291315197944641, 0.4501175582408905, 0.46468955278396606, -0.6358943581581116, -0.051279887557029724, -0.10230910032987595, 0.07824718952178955, 0.29509007930755615, -0.9695656895637512, 0.17111286520957947, -0.3683946132659912, 0.6730946898460388, 0.5544618964195251, -0.2646254897117615, 0.3279106020927429, -0.14532263576984406, -1.1710585355758667, -1.0741009712219238, -0.7214608192443848, 0.6053462624549866, -0.48382455110549927, -0.39886224269866943, -0.47670239210128784, 0.41754987835884094, -0.9201910495758057], [-1.4846234321594238, -0.8842836618423462, -1.4018518924713135, 0.6453632712364197, -0.021355384960770607, -0.32102566957473755, 0.5139631628990173, 0.018410898745059967, 1.3357640504837036, 0.9188272356987, -0.3357127010822296, -0.18718835711479187, -1.3826287984848022, 0.0042726038955152035, -0.6632611751556396, 0.470262348651886, -0.6304001808166504, -0.31372547149658203, 0.6918456554412842, -0.18968509137630463, 0.3302735984325409, -0.00943605974316597, -0.18409597873687744, -0.512141764163971, 0.9360775947570801, -0.6668514609336853, -0.001060501323081553, 0.8358762860298157, -0.05168026685714722, 0.8561772704124451, -0.9783342480659485, -1.447448968887329], [0.09721481055021286, -1.866652011871338, -0.23993432521820068, -0.9281630516052246, -1.2908713817596436, -0.07080352306365967, -0.3302805423736572, 0.1473720818758011, -1.5510597229003906, -0.7007594704627991, 0.3709060549736023, 0.8469845056533813, -0.5798250436782837, 0.9599944353103638, -1.382149577140808, 0.07473242282867432, -1.3799115419387817, 0.7466519474983215, -0.1012960746884346, 1.6436740159988403, 0.9743479490280151, -0.32635828852653503, 0.7734231948852539, 0.02121821790933609, -0.15285322070121765, -0.30409786105155945, -0.7459473609924316, -0.3508518934249878, 0.7113503813743591, 1.0223302841186523, 0.18060719966888428, -0.4332177937030792], [0.29426297545433044, 2.18182110786438, -0.350047767162323, 0.9684575200080872, -4.156552791595459, -0.9225266575813293, 0.3545474410057068, 0.5490553975105286, -1.025788426399231, -1.115321159362793, -0.2629224956035614, 1.108105182647705, 0.12919822335243225, -0.8638797998428345, 0.6009787917137146, 1.858430027961731, -0.10238736867904663, -0.20815925300121307, 0.24911390244960785, 0.47035667300224304, 1.0932387113571167, 1.4118316173553467, 0.8252907991409302, -0.34117576479911804, 0.1152535229921341, 0.8393689393997192, 1.6227316856384277, -2.2452385425567627, -1.6960381269454956, -0.6230417490005493, 0.9240131974220276, 1.1029301881790161], [-0.7313615083694458, -1.8247030973434448, -0.33681720495224, -0.7081370949745178, 1.1801116466522217, -0.276784211397171, -1.683632254600525, -1.51670503616333, 0.5618453025817871, -0.5116549730300903, -0.8358324766159058, 0.9482261538505554, 1.1679356098175049, -0.1733483076095581, 0.36785098910331726, 0.10078192502260208, -0.2038034051656723, 0.31508174538612366, -0.7723292708396912, -0.8806098699569702, 0.875400960445404, 0.20021861791610718, -0.32125377655029297, -0.27068617939949036, -0.838236391544342, 1.9699428081512451, -0.20511029660701752, -0.0692225769162178, 1.0800114870071411, 0.37266916036605835, -0.8704971671104431, 0.9186000823974609], [0.5671042203903198, 0.34875816106796265, -1.103058099746704, 0.33278802037239075, -1.9285417795181274, -1.0952553749084473, 0.664481520652771, -0.08068922907114029, 1.0747822523117065, -0.41121944785118103, -1.089922547340393, 1.157439947128296, -1.617385745048523, 0.23702728748321533, -0.35163700580596924, -1.269469976425171, 0.39522626996040344, -0.39804282784461975, 0.4512241780757904, 1.1649490594863892, 1.9543005228042603, 2.21211314201355, -0.06713296473026276, -0.5257847905158997, -0.7302087545394897, -0.42587512731552124, -0.5538439750671387, 1.7703925371170044, -0.7063381671905518, 1.0536848306655884, -0.423673540353775, -0.7912776470184326], [0.22142305970191956, 1.6165286302566528, -0.701140284538269, -2.83840274810791, 1.4663399457931519, -1.5492701530456543, 0.421963632106781, 0.4096033573150635, -1.1978689432144165, 0.05479416251182556, -1.056118369102478, -0.2304861843585968, -0.4537717401981354, 0.14498275518417358, 1.2136586904525757, -2.3083035945892334, 0.9148510694503784, 1.374913215637207, 1.0070171356201172, -0.5671119093894958, -1.1375800371170044, 1.5025105476379395, -0.8088012933731079, -0.26943978667259216, -1.2209192514419556, 0.08658529818058014, 0.813166081905365, -0.8106197714805603, -0.283028244972229, -0.5820974707603455, 0.0744771957397461, -0.9349777698516846], [-0.5258681178092957, -1.1900782585144043, 0.7213971018791199, -0.8341699242591858, -2.3556292057037354, -0.47502249479293823, 0.6797015070915222, -2.23730731010437, 0.07293149828910828, -0.9645349383354187, -1.6321754455566406, -0.8688191175460815, -0.3696041703224182, -0.583415687084198, -0.0354074202477932, -0.39831140637397766, 0.2582896053791046, 1.1482138633728027, -1.217589020729065, 0.5945819020271301, -0.04531848430633545, -0.1437559723854065, 0.35120391845703125, -0.36321401596069336, 0.22532229125499725, 0.6462616920471191, 1.4326895475387573, 1.0729310512542725, 0.6820046901702881, 1.433284878730774, 0.14590990543365479, 1.6449360847473145], [0.6037983298301697, -0.9321158528327942, -1.3534055948257446, -0.10603442788124084, 0.9344227313995361, -0.5141662955284119, -1.7743632793426514, -0.7197100520133972, 1.2594267129898071, 0.4110482931137085, -0.9083722233772278, 2.6112353801727295, 0.8933513164520264, -0.6894052028656006, 1.9592878818511963, -0.1272887885570526, -0.15870919823646545, -0.4905504882335663, -0.6921840906143188, -0.45555999875068665, 0.8119877576828003, -0.4907168447971344, -0.18908046185970306, 0.46003466844558716, 1.0493708848953247, -0.3517342507839203, 1.582090973854065, -3.234900951385498, -0.4134794771671295, -0.5302631855010986, -0.6795413494110107, 0.15364520251750946], [2.268515110015869, 0.0854949802160263, -0.7604679465293884, -1.0519846677780151, -0.432387113571167, 1.1982848644256592, 0.9625325202941895, 0.5921267867088318, -1.4154311418533325, 0.05773419886827469, 1.4506040811538696, -1.0832054615020752, 0.047399796545505524, -0.6454257965087891, -1.6579971313476562, -0.8992641568183899, -0.7349486351013184, 0.7612819671630859, 1.6115522384643555, -0.8796389102935791, 0.4414046108722687, 0.22585627436637878, 0.8896145224571228, -0.41903045773506165, -0.1957656741142273, -0.025160018354654312, 0.10052775591611862, 0.9594486951828003, -1.9539426565170288, -1.315414547920227, -0.8626369833946228, -0.7997217178344727], [-2.069509983062744, -1.5931228399276733, -0.14398372173309326, 0.37704741954803467, 1.5238511562347412, -0.7457389831542969, 1.3310645818710327, 0.3173169493675232, -0.12452352792024612, -0.3850236237049103, -1.6818379163742065, 1.1777220964431763, 0.28079020977020264, -1.4026957750320435, 1.0410761833190918, -0.47648173570632935, 1.73148512840271, 1.0045522451400757, 0.6459693908691406, -0.32830795645713806, -0.32737845182418823, 0.8244812488555908, 1.8336515426635742, -0.9552556872367859, 0.05160660296678543, 0.5053496956825256, 0.1823834329843521, -1.5055867433547974, 0.3510165214538574, 0.08109856396913528, 3.113503932952881, 1.156190276145935], [0.8359260559082031, 0.91282057762146, 0.7400671243667603, 0.38145655393600464, -1.7688456773757935, 0.31696614623069763, -1.372611165046692, 1.505955457687378, -0.5503339767456055, -0.46553748846054077, -0.4259081482887268, -0.44171926379203796, -0.0859125554561615, 0.8212445974349976, 2.156386613845825, -1.3646411895751953, 1.155993103981018, 1.6044329404830933, -1.0440549850463867, 0.5864855647087097, -1.03800630569458, 0.7716609835624695, 0.5124136209487915, 0.4647611379623413, 0.07982546091079712, -0.4802696108818054, 1.478934645652771, -0.8764778971672058, -1.348512053489685, 0.9940137267112732, 0.03789077326655388, 1.0577365159988403], [-0.8532075881958008, 1.4425300359725952, -0.0003949141828343272, 0.8889116644859314, 0.6203898787498474, 0.9279882311820984, -0.886605978012085, -0.6736232042312622, 0.4914783537387848, -0.6773442029953003, -0.6290186643600464, -0.29796335101127625, -1.3402892351150513, -0.07814068347215652, -0.1916245073080063, 0.8590359687805176, -0.8612878918647766, 1.4045337438583374, 1.5637352466583252, 2.786921739578247, 0.42556095123291016, 1.048397183418274, -0.320997953414917, 0.5051862597465515, 1.5175658464431763, -0.3023708760738373, -0.09714844822883606, 0.05446891486644745, -0.15644054114818573, 1.7922090291976929, -0.5154266953468323, -0.9241030812263489], [-0.3245086073875427, 0.00693634245544672, 0.5494870543479919, -1.5059185028076172, 0.37733176350593567, 0.06445737928152084, 0.4325449764728546, 0.19558380544185638, -0.49780037999153137, 0.028502721339464188, 0.4244574308395386, 0.25505751371383667, 0.6983940601348877, 0.19382454454898834, -0.6021738648414612, 1.3118183612823486, 0.5785661935806274, 0.8397879600524902, 0.08307696133852005, -0.7507239580154419, 0.947214663028717, -0.04414510354399681, -0.931175172328949, -0.994581937789917, 1.2698566913604736, -0.24644725024700165, 0.763385534286499, -1.7691981792449951, 0.08747226744890213, -0.3213516175746918, 0.1409928947687149, -0.1734427809715271], [-1.8316327333450317, 1.0976933240890503, 0.10992735624313354, -0.8478098511695862, 1.6563817262649536, 1.882887601852417, -0.22384074330329895, -0.7018190026283264, -0.7436971664428711, 0.12804311513900757, 0.941571831703186, -0.14125485718250275, 0.31630197167396545, -0.06557095795869827, -0.27934619784355164, 0.6642928719520569, 1.475317120552063, -0.985543966293335, -1.0939022302627563, -1.4572514295578003, 2.5321543216705322, -0.26253291964530945, 0.3686991035938263, 0.4934673011302948, -1.0714573860168457, -1.1578953266143799, 0.76898592710495, -0.42030611634254456, 0.17403647303581238, -0.5671761631965637, -1.294918417930603, -0.2516512870788574], [1.0993638038635254, 1.4215503931045532, 1.5104683637619019, -0.9955877661705017, 0.7078235149383545, -0.31746816635131836, -0.7755783200263977, -1.22743558883667, -0.6900359392166138, -0.5755844712257385, 1.589735746383667, -0.33224764466285706, -1.0270054340362549, -1.2989132404327393, -1.084092378616333, -0.5751065611839294, -0.5350533127784729, 2.28029727935791, 0.05162439122796059, -0.6544722318649292, -0.4896487891674042, -1.076684594154358, 1.7105319499969482, -2.14151668548584, -0.29597949981689453, -0.4007735550403595, 0.8777428865432739, 0.5334191918373108, -2.1766257286071777, 0.877591609954834, 1.7455326318740845, -1.571038842201233], [-1.3133785724639893, -0.5895518660545349, 0.5401701331138611, 1.296305537223816, -0.21985220909118652, -0.05561646446585655, -0.46612104773521423, -0.42484086751937866, 0.1399344652891159, -0.9478253126144409, -1.8957154750823975, -2.0797576904296875, 0.3464537560939789, 1.3664546012878418, -1.9271714687347412, 0.7846837639808655, 0.6174359321594238, 1.390254020690918, -1.6959532499313354, -0.9214863181114197, 2.420470952987671, 0.9381614327430725, -0.19255663454532623, 2.4266104698181152, 0.06334760785102844, 0.6214788556098938, -1.170913815498352, 0.41452673077583313, 1.438115119934082, 0.503701388835907, 0.21445274353027344, -2.23685359954834], [-1.7192479372024536, 0.17649005353450775, 0.2797794044017792, 0.2501111328601837, -0.8267318606376648, 1.8194645643234253, 0.7662246227264404, -0.49881404638290405, 1.6942239999771118, 0.005454740487039089, 0.49020037055015564, -0.19876274466514587, 0.04614027217030525, 1.1616064310073853, -0.6518071889877319, -0.21095329523086548, -0.7310753464698792, 1.9781949520111084, -0.11292078346014023, 0.510193943977356, -1.521315574645996, 0.07079118490219116, 0.5707119107246399, -2.221386432647705, -0.5983589291572571, 2.3278026580810547, -1.4420127868652344, 0.12843909859657288, 2.1625423431396484, -1.4579241275787354, 1.424199104309082, -1.314599871635437], [-1.051392912864685, 0.7958642244338989, -0.5734270811080933, 0.1560145616531372, -0.5445920825004578, -0.1957833617925644, -1.0500340461730957, 0.3057820498943329, 2.8592658042907715, -0.366039901971817, 0.1446489542722702, 0.5973108410835266, 0.4077167212963104, -0.1688947081565857, 0.31799304485321045, 0.46881791949272156, -1.1093988418579102, 0.12456796318292618, -0.06092924252152443, 0.24315935373306274, 0.3110833466053009, -0.4947802424430847, -0.6283645629882812, -1.3318283557891846, 0.4061172306537628, 0.4080192446708679, -0.627545952796936, -0.7622835040092468, 0.47094541788101196, -1.1360560655593872, 0.5273744463920593, 0.6585161685943604], [0.6144946217536926, 0.8459950089454651, -1.1242690086364746, 0.375487744808197, -1.6858868598937988, 0.7212872505187988, 0.9889687299728394, -0.9952691793441772, 1.098588228225708, 1.1878563165664673, 0.2783530354499817, 0.03846628963947296, 1.8148342370986938, 1.3875306844711304, 1.5984654426574707, 1.065993070602417, -0.11793512105941772, -0.7645272612571716, -1.2336074113845825, -1.012447476387024, -0.9085829257965088, 0.8378276228904724, -1.03992760181427, -2.0189929008483887, -0.4787101149559021, -0.30028799176216125, 0.7534418702125549, 0.3659592866897583, 0.646607518196106, 0.8017972111701965, -1.208013892173767, -1.3719640970230103], [0.19310714304447174, -1.186611294746399, -2.3587591648101807, 1.031410813331604, 1.2049791812896729, -0.7759712338447571, -1.0862255096435547, -0.9635688066482544, 1.3809479475021362, -0.9794594645500183, -0.3395744860172272, -0.3311663866043091, 0.2481900453567505, -0.14341804385185242, 1.3811705112457275, -0.9478963017463684, 0.373457133769989, 1.6434050798416138, 0.7582892179489136, -0.38886335492134094, -0.47323212027549744, 1.8970965147018433, -0.723448634147644, 0.46871238946914673, 0.22524306178092957, 1.5230218172073364, -0.18970099091529846, -1.7211917638778687, -0.15090614557266235, -0.6460089087486267, -0.8050771951675415, 0.5510850548744202], [1.7675997018814087, -0.31283465027809143, 0.025371553376317024, -0.8369895219802856, 0.26081839203834534, -1.1701470613479614, 0.23042650520801544, 1.6632012128829956, -0.18976952135562897, 0.23489846289157867, 0.5428403615951538, 0.8104066252708435, -0.672723114490509, 0.251991331577301, 0.42401134967803955, -0.6465002298355103, 1.0154054164886475, 0.11356689780950546, -0.9993290901184082, 1.0732440948486328, -1.0186564922332764, 1.6386336088180542, 1.3629392385482788, -1.191588044166565, -0.8500544428825378, -0.6932598352432251, 1.01653254032135, 0.15882688760757446, -0.9725086688995361, -0.725960910320282, -2.787886142730713, 1.3969342708587646], [0.027209153398871422, 0.3527156710624695, 0.03881165012717247, 1.1547701358795166, -1.3090943098068237, 0.1929159313440323, 1.5962728261947632, 0.03400964289903641, -0.733733057975769, -1.3927706480026245, -0.7942768931388855, -0.13722647726535797, 0.667829155921936, 0.04042012616991997, 0.8325968384742737, 0.8135836124420166, 0.8619202971458435, -0.43833550810813904, 0.7354899644851685, 0.8391602635383606, -0.245182067155838, -1.6616133451461792, -0.613043487071991, -1.5188032388687134, -1.209861159324646, 0.48472529649734497, -1.0054830312728882, 0.3004749119281769, 0.0946439579129219, 1.3803118467330933, -0.26935914158821106, 0.35895365476608276], [1.1270360946655273, -0.14235055446624756, 1.2262687683105469, 0.2419072389602661, 2.1407816410064697, 0.5399242043495178, 0.22681328654289246, -0.3962860703468323, -0.7284240126609802, 0.6880407333374023, 0.6138911843299866, 1.3074086904525757, 0.052853263914585114, -1.5653411149978638, -0.4438841938972473, 0.8903261423110962, -1.677832007408142, -2.0101444721221924, 0.2751539945602417, 1.912792444229126, -0.49611353874206543, 0.0512884184718132, -1.2855713367462158, 1.1187148094177246, -0.6565645337104797, 0.8229426145553589, 0.1246153935790062, 0.0226912684738636, 0.40671247243881226, -0.44541898369789124, -0.9691157341003418, 0.7588985562324524], [1.2573518753051758, -0.7105213403701782, 0.17611204087734222, 0.9689789414405823, -0.11824343353509903, 0.10045096278190613, 1.5390092134475708, -0.4170934557914734, 2.5622663497924805, 0.13861967623233795, -2.1120591163635254, 0.43506669998168945, 1.5299187898635864, 0.2592359185218811, -2.0804970264434814, -0.970304548740387, 0.1973074972629547, 0.05093593895435333, 1.9431626796722412, -0.6413261294364929, 2.6766839027404785, 0.7026823163032532, -0.5877205729484558, 1.3342771530151367, 1.4204378128051758, -1.702449083328247, -1.821942925453186, 1.4824697971343994, -1.52554452419281, -1.5266996622085571, -0.34209275245666504, -2.95969820022583], [-0.4199863076210022, -0.30597132444381714, -0.699596107006073, 0.17061737179756165, 1.072226643562317, 0.14976824820041656, 1.1817392110824585, 1.4870489835739136, 1.2900558710098267, 0.13094326853752136, 0.9694478511810303, -0.2790350019931793, 0.38207587599754333, -0.8014938235282898, 0.15723225474357605, 1.227783441543579, -0.11440689861774445, -1.1474138498306274, -0.09143967926502228, -0.263139009475708, 0.05125323683023453, -0.3720439672470093, 1.1214661598205566, -0.6864011883735657, 0.6692641377449036, -2.3110363483428955, 2.0017263889312744, -1.486563801765442, 0.34111732244491577, -1.098639726638794, 0.14240002632141113, 0.3462032079696655], [1.4139947891235352, 0.027730537578463554, -2.5214591026306152, -1.5005613565444946, -1.7995989322662354, 0.9412440657615662, 0.26550647616386414, 1.9590420722961426, -0.47854161262512207, -0.7465200424194336, -0.9250377416610718, 1.425191044807434, 2.2771756649017334, 1.4384605884552002, 0.23491249978542328, -1.1849020719528198, -1.0159053802490234, 0.7002103924751282, -0.02632354386150837, 1.6100188493728638, 1.3872634172439575, -0.36355653405189514, 0.6839410066604614, -0.07752347737550735, -0.8058754801750183, -0.16529738903045654, -1.45481538772583, 0.598212718963623, -0.19625508785247803, 2.5583393573760986, 0.19692818820476532, 0.2810152471065521], [-0.24743719398975372, -1.629396915435791, 0.5855959057807922, 1.2862236499786377, 1.3224397897720337, 0.20103520154953003, 0.17096252739429474, -0.3107049763202667, 0.6541248559951782, 0.8665838837623596, -1.4757742881774902, 0.9627065062522888, 1.1046720743179321, 0.3122067451477051, -0.3862841725349426, 0.24617227911949158, 0.40388748049736023, -0.14550986886024475, 1.4055955410003662, 0.5878608822822571, -0.2078855186700821, -0.5733498930931091, 0.7154435515403748, 0.028796527534723282, 0.6998369097709656, 2.053910970687866, -2.668078660964966, 1.0967857837677002, -1.005001187324524, -1.6218034029006958, -1.0464060306549072, -1.1695685386657715], [-0.4684641361236572, -2.990593433380127, -1.2867615222930908, 1.9256600141525269, -0.9921603202819824, 1.566483736038208, -0.03485285863280296, -1.050919532775879, 1.3341330289840698, -0.4692854881286621, 0.6772939562797546, 3.6174490451812744, -0.10851068794727325, 1.2729520797729492, 1.0523841381072998, 0.7440277338027954, 0.373309850692749, -0.5472050905227661, 0.9169309735298157, 0.029795780777931213, -0.1621447205543518, 0.58283531665802, -0.04566287621855736, -1.8848621845245361, 1.0877604484558105, -0.7395360469818115, 0.7801192402839661, 0.8344709873199463, -0.03651243448257446, -1.0927791595458984, 0.29064133763313293, 0.5053977966308594], [-2.572044610977173, -0.6283904910087585, -0.7153995633125305, 1.2493621110916138, -0.13921140134334564, -1.0415396690368652, -0.6400420069694519, -0.1198430135846138, 0.2906644344329834, 0.9402913451194763, 0.986140787601471, 1.6553468704223633, -0.8527607917785645, 1.184231162071228, -0.2717011272907257, -0.40628325939178467, -0.4819176197052002, 0.6264073252677917, -0.4893490672111511, 1.0408687591552734, -0.7513776421546936, 1.4166650772094727, 0.34526315331459045, 0.3886648714542389, -1.8746105432510376, 0.3952440619468689, 0.8207600116729736, -1.3391000032424927, -0.7336683869361877, 0.09480732679367065, -0.06749576330184937, -0.29918336868286133], [0.8201389908790588, -0.07186011224985123, 0.6412559747695923, -0.9744052290916443, -0.4638773202896118, -0.27447712421417236, -2.4150772094726562, 0.2481779307126999, 0.4748932123184204, 0.9009969234466553, 0.806125819683075, -0.41899189352989197, -1.512938141822815, -1.387944221496582, -0.4334856867790222, 2.2282137870788574, -1.286219835281372, 0.7484375238418579, -1.4187864065170288, -0.889087975025177, 0.3235129117965698, -0.5905417203903198, -0.5222975611686707, -0.1679137647151947, -0.5242051482200623, 0.3576851785182953, -0.04520609602332115, 2.3725686073303223, -0.6931924819946289, 0.4156806170940399, -0.7144597768783569, -0.7821018695831299], [0.12717022001743317, -1.2908532619476318, 2.6852521896362305, -0.010456588119268417, -1.1325345039367676, -0.42750978469848633, 1.9782483577728271, -1.5924686193466187, -0.7507407069206238, -0.5515074729919434, 0.7035707831382751, 0.5786150693893433, 2.554088592529297, -0.1356211006641388, -0.09936457872390747, -1.474398136138916, -2.1016764640808105, -0.06655164808034897, 0.006725362967699766, 0.7182800769805908, 0.22987201809883118, 1.5181269645690918, -3.754261016845703, 0.27814051508903503, 2.554762363433838, -0.9088656902313232, -0.42974406480789185, 0.22911612689495087, 0.0722193494439125, 1.868598222732544, -0.8768377304077148, -2.040332078933716], [-0.15926593542099, 0.7631051540374756, -0.039317332208156586, 0.16227078437805176, -1.053465485572815, 0.603049635887146, 0.6675976514816284, 0.024452464655041695, 0.6990505456924438, 1.4180676937103271, -0.5968897342681885, 0.2995959222316742, 1.4264291524887085, -1.647489309310913, 0.6105791926383972, -0.46451473236083984, 0.6518567800521851, 0.5862805843353271, 0.2654862701892853, 1.3865251541137695, -0.7109957337379456, 0.12740033864974976, -0.22432367503643036, 0.2639896273612976, -0.6389175653457642, -0.3331802487373352, -1.4820619821548462, 0.0887051373720169, -0.9245621562004089, -0.9606555104255676, 0.5035130381584167, -0.7705761194229126], [-0.20836326479911804, -1.7749607563018799, 0.1239546611905098, 0.711087167263031, 1.1607099771499634, -0.04517311230301857, 0.8623155355453491, -0.19085325300693512, 2.6380252838134766, 1.1969449520111084, 0.856756329536438, -1.3106114864349365, 1.187550663948059, -1.0418356657028198, -0.9161460399627686, 1.6213685274124146, 0.5650401711463928, 0.38282710313796997, -0.6430373191833496, -0.028013888746500015, -0.05432102456688881, 0.6384702324867249, 0.029260827228426933, -0.9945852160453796, -0.3175067603588104, -0.9110153317451477, 1.3956358432769775, -1.0865566730499268, 0.3791634738445282, 0.7861282229423523, 0.8798021674156189, 0.861903727054596], [0.20045877993106842, -0.3211651146411896, 0.4792206883430481, -0.5419183373451233, 0.6124842762947083, -0.28633564710617065, 1.9794981479644775, -0.29049447178840637, -2.479593515396118, -0.0975596085190773, 1.9099212884902954, 0.15023672580718994, -1.4289549589157104, 2.743377923965454, -0.7412382364273071, -0.950208306312561, 1.5379763841629028, -0.6865381598472595, 0.0897696390748024, -0.09035535901784897, 0.40279635787010193, -0.2029888778924942, -1.749699592590332, -1.94829261302948, -0.36339715123176575, -0.8352848291397095, 0.1640382707118988, 0.022526100277900696, 0.832761287689209, -1.5470184087753296, 0.2619805335998535, 0.5060383677482605], [0.5386469960212708, 0.4247216284275055, 0.936602771282196, -1.288149356842041, 1.4606921672821045, -0.24262869358062744, -0.2230195254087448, -1.8773118257522583, -0.11750908195972443, 0.03633497282862663, 0.5862091183662415, -1.951566457748413, 0.048662733286619186, -1.3470877408981323, 0.9433205723762512, 0.8263432383537292, 0.024908192455768585, 0.019150419160723686, -0.6985626816749573, -0.2842828333377838, 1.6843464374542236, 0.3455398678779602, 0.10270517319440842, 0.25659915804862976, -1.5994892120361328, 0.8822379112243652, 0.34645819664001465, 1.6261235475540161, 0.843687891960144, 1.9502551555633545, 0.22422586381435394, 0.9675816297531128], [-0.6829928755760193, -2.2158279418945312, -0.35902613401412964, -0.013353711925446987, 1.482154369354248, -2.113246440887451, -0.15850864350795746, -1.282345175743103, -1.3734747171401978, -1.8102971315383911, -0.815823495388031, 1.124013900756836, 0.6865127682685852, 0.11199241876602173, -0.12961089611053467, -0.49937891960144043, -0.0038192784413695335, -0.0984416976571083, 0.024786608293652534, 0.8368604183197021, 0.5542205572128296, 0.4337811768054962, -0.9588147401809692, 0.17662413418293, 0.14847758412361145, 0.24416278302669525, -0.14406748116016388, 0.3423715829849243, 1.5056915283203125, 2.0171608924865723, 0.006146917585283518, 1.575219988822937], [0.104020856320858, -0.8709853887557983, 0.03911684453487396, 1.852591872215271, 0.5610877871513367, 0.18027232587337494, -1.588910698890686, 0.32086122035980225, -0.36414244771003723, 0.6655275821685791, -0.5391436219215393, -1.735884666442871, -0.5458177328109741, 1.043007254600525, 1.5494664907455444, -0.7787323594093323, 1.0132163763046265, -0.10729875415563583, 0.9660637974739075, -1.0193805694580078, -1.0071016550064087, 0.6302505135536194, 1.2203195095062256, -0.45061030983924866, 1.2355495691299438, -0.33389541506767273, 0.45410940051078796, 0.6990108489990234, -0.7746917605400085, -1.4757975339889526, 1.0783253908157349, -0.419904887676239], [-0.262565940618515, 1.1432726383209229, -0.15495063364505768, -0.8431252837181091, 0.9245647192001343, -0.2775212228298187, -0.5273184776306152, 0.04178190603852272, 0.6734692454338074, 0.20628605782985687, -1.745013952255249, -1.2439466714859009, 2.159778356552124, -1.8322525024414062, -0.1415254771709442, -1.1022180318832397, -1.2427656650543213, 0.2556675672531128, 1.1239583492279053, 0.4596594572067261, -0.24001958966255188, -0.8821043968200684, 1.2354485988616943, -0.40137356519699097, -0.9738332033157349, -1.1408721208572388, -1.2780507802963257, -0.39826497435569763, 0.7695094347000122, 0.366668701171875, 2.8781304359436035, 1.8007479906082153], [0.03194781765341759, 0.3982982635498047, 1.354416012763977, 0.8471104502677917, -0.2613855004310608, 0.6122277975082397, 0.7344160079956055, -1.3280616998672485, -0.24474753439426422, 0.3126644790172577, -0.22262224555015564, 0.41885170340538025, 1.2861473560333252, 0.23893755674362183, -0.27755704522132874, 0.8745143413543701, 0.22360065579414368, -0.5261446237564087, 0.051592979580163956, 0.48875510692596436, 0.07922680675983429, -0.4563603103160858, -1.2970755100250244, -0.5572340488433838, -0.47599655389785767, 0.5142409205436707, -0.6736905574798584, 0.7723056674003601, 0.5486286878585815, 0.018883710727095604, -0.12065757811069489, 0.14110396802425385], [0.6568904519081116, -0.9834374189376831, 0.6324332356452942, -1.2395901679992676, 0.7444745898246765, -0.702111542224884, 1.126186490058899, 0.7331064939498901, -2.4714081287384033, -2.151092529296875, -1.3157720565795898, 0.9962734580039978, -0.41321632266044617, 0.6362281441688538, -1.6216953992843628, -1.2805607318878174, -0.8872609734535217, -1.2349320650100708, -0.5678274035453796, -0.3252476751804352, 0.05468609929084778, 0.8283703923225403, -1.7291487455368042, 1.047995924949646, -0.3307376503944397, 0.5518541932106018, -0.5397952795028687, 1.890500783920288, 0.2984638512134552, -0.6367653012275696, 0.76112961769104, -1.2365655899047852], [-0.5967472195625305, 0.1101190596818924, -0.2370479851961136, -0.4007509648799896, 1.7586733102798462, -1.9312357902526855, -0.26469993591308594, 2.0148634910583496, -0.9999472498893738, 1.079135537147522, 1.09490966796875, 0.14661496877670288, 0.7442458868026733, -1.5267971754074097, -2.517515182495117, -0.17913515865802765, 1.5709501504898071, 1.0951976776123047, 0.9323068857192993, -0.11650117486715317, 0.6986944079399109, -2.159095048904419, 1.633589267730713, -1.3181747198104858, 0.016762617975473404, 0.6780754923820496, 0.6356351375579834, -0.7012690305709839, 0.3029162585735321, 0.8286167979240417, -1.394901156425476, 0.6426430940628052], [-0.958354115486145, -0.4714687168598175, -0.2706735134124756, 0.6620106101036072, 1.7631645202636719, 0.2724682688713074, -0.2484629899263382, 1.1054731607437134, -0.9780811071395874, -0.7358125448226929, -1.540992259979248, -0.3656879961490631, 0.8231808543205261, 1.5387609004974365, -2.534236192703247, 1.6428821086883545, -0.2477126568555832, -0.9348492622375488, 0.7874409556388855, -0.12688516080379486, -0.8914226293563843, 1.0897777080535889, 2.67094087600708, 0.30721259117126465, -0.6383562684059143, 0.8745545148849487, -0.6213185787200928, 0.10165794938802719, 0.033163584768772125, 1.5062687397003174, 0.8812742233276367, -0.7060232758522034], [-0.9015833735466003, 0.7812173366546631, 0.4997755289077759, 1.4400774240493774, 0.62690669298172, -0.07177779078483582, -1.5172641277313232, 0.6479626893997192, -0.4542919397354126, -0.6389836072921753, -0.943373441696167, 0.4430365562438965, 0.04841453954577446, 0.47734448313713074, -0.6629570722579956, -0.559485673904419, -0.05366608500480652, -2.542133092880249, 0.16354289650917053, 0.2716968357563019, 0.1671406477689743, 1.4729704856872559, 1.7832361459732056, 0.42199480533599854, 0.5972170233726501, -2.150386095046997, -2.0843145847320557, -1.3481221199035645, 1.25371253490448, -1.0819318294525146, -0.4551319181919098, -0.18480756878852844], [0.20883263647556305, -0.469571977853775, 0.6937332153320312, 0.9211298227310181, -0.4296104907989502, -0.34167250990867615, 1.1896729469299316, -0.8310232758522034, -0.0770605131983757, -1.2918699979782104, 0.3291819393634796, -0.9685626029968262, 1.1790326833724976, 0.6092661619186401, -0.005647142883390188, -1.4225448369979858, -0.5163347721099854, -1.2705711126327515, 0.2568550705909729, -1.4702993631362915, 1.3222459554672241, -0.5972079634666443, -1.361156702041626, -0.07743875682353973, 1.0235008001327515, -1.0133419036865234, 0.39550983905792236, 1.4458467960357666, 1.5502806901931763, -0.17141729593276978, -1.1031008958816528, -0.355245441198349], [1.286453366279602, -1.903273344039917, -1.783695101737976, 2.6779773235321045, -0.6078829765319824, -0.11105126887559891, -0.16033606231212616, 1.6080719232559204, 0.6647694110870361, -0.14330549538135529, -0.09162783622741699, -0.2720450162887573, -0.3486003279685974, 1.0305399894714355, 0.4425532817840576, -0.7259919047355652, -1.6714953184127808, 0.224151611328125, -2.4217450618743896, 1.2134333848953247, -1.575461983680725, -0.9941926002502441, -1.0536829233169556, 1.10161292552948, -0.07765094935894012, 0.5100094079971313, 0.5573580265045166, 1.314051866531372, -1.1450674533843994, 0.2051626741886139, -0.31050020456314087, -1.3433853387832642], [-0.08310386538505554, -0.03997940942645073, -0.21828176081180573, 0.18650361895561218, 1.311892032623291, -1.0169548988342285, 0.10158999264240265, -0.32782161235809326, -1.221081018447876, -1.4730952978134155, 1.081758737564087, -0.2715063691139221, -0.7898772358894348, 0.10719739645719528, 0.8357832431793213, 0.78612220287323, 0.23846299946308136, 1.3900007009506226, -1.1540813446044922, -0.3072565793991089, -0.2771075963973999, -0.2552115321159363, -2.8214054107666016, 0.13369065523147583, 1.1328123807907104, 0.6291426420211792, 1.149834156036377, 0.12687085568904877, 1.1244988441467285, -1.6340171098709106, 0.6018694639205933, -0.12100545316934586], [-1.1998273134231567, 1.38556706905365, -1.843104600906372, 1.7254574298858643, 1.722977876663208, -1.2218259572982788, -1.5832315683364868, -0.9563742876052856, -0.9158357381820679, 1.1948314905166626, 0.344041645526886, 0.9211448431015015, 0.572157621383667, 0.29857274889945984, -0.1519489288330078, -0.3793516457080841, -1.1517589092254639, -0.12070275843143463, 0.8790034651756287, -1.255573034286499, -0.4025169312953949, 0.42570069432258606, -1.2062913179397583, 0.812871515750885, -1.0956169366836548, -0.724861204624176, -0.9017218947410583, -0.2151203602552414, 1.713485598564148, 1.6705334186553955, 0.348637193441391, 0.6937334537506104], [0.03556565195322037, 0.13265186548233032, 1.1216517686843872, -0.19994638860225677, 0.0047756400890648365, 0.20148660242557526, -1.0603806972503662, -0.0410211980342865, -0.45510849356651306, 0.22975392639636993, 0.7814404964447021, -0.1758304387331009, 0.33608391880989075, -0.5835798978805542, -1.2748039960861206, 1.3542132377624512, 2.531799077987671, 0.05414944142103195, -0.9865282773971558, -1.841779351234436, 1.7947736978530884, -1.050927758216858, 0.28277716040611267, 0.08508434146642685, -0.3670150339603424, -1.2003811597824097, 0.03862837702035904, -1.3557071685791016, 1.636783480644226, -0.6399585008621216, -0.9270709753036499, -0.3432343304157257], [-0.36719247698783875, 0.1870177835226059, 0.732580304145813, -0.8587092161178589, -0.2282503992319107, -0.22271259129047394, 0.5492913722991943, 0.9531737565994263, 0.8662561178207397, -0.3002232313156128, 0.6014255285263062, 0.19189435243606567, 0.2784311771392822, -0.9652674198150635, -1.0428255796432495, 0.6898812651634216, -0.9022507071495056, 0.34649503231048584, 2.5744211673736572, -1.6433745622634888, -0.5578773617744446, -1.3748151063919067, 0.22325409948825836, 0.9503868222236633, -0.9585845470428467, 0.13892194628715515, 0.8251362442970276, 2.0986616611480713, -0.8343856930732727, -0.9042338132858276, -1.1919584274291992, -0.18626323342323303], [0.3680245578289032, -1.6372950077056885, -0.36424943804740906, 0.670396625995636, -0.6387494206428528, -0.14991678297519684, 0.04997575283050537, 1.5000330209732056, -1.172013759613037, -0.1388951987028122, 0.7509462833404541, -0.3017358183860779, -1.580590844154358, -0.010687578469514847, 2.034989356994629, -0.7777714729309082, 1.4516950845718384, -2.134251117706299, 0.9817180633544922, 0.24955755472183228, -0.17574778199195862, 0.7465161681175232, 0.019476210698485374, -1.364147424697876, -0.43960222601890564, 0.9239000082015991, 0.47125494480133057, 0.13060037791728973, 0.3172741234302521, -0.7007107734680176, -1.0202144384384155, -0.9405913949012756], [1.4006208181381226, 1.9025853872299194, 0.15479059517383575, 1.353338599205017, 0.41998371481895447, -0.20056673884391785, 1.8402259349822998, 1.3265315294265747, 2.462066888809204, -0.9974449872970581, -1.6382015943527222, 1.979579210281372, -1.9621199369430542, -1.2681069374084473, -0.025010963901877403, 0.8632141351699829, -1.3047363758087158, 0.21998253464698792, 0.06027606129646301, -0.42479097843170166, 0.5890699028968811, -0.17504671216011047, -0.8959150910377502, 0.7199053764343262, -0.7260526418685913, -1.263522982597351, 1.1644986867904663, -1.6888086795806885, 0.635535478591919, 1.4315476417541504, -1.4659839868545532, -0.5370880961418152], [0.1412411332130432, -0.2495255023241043, 0.20657117664813995, 1.2823034524917603, 0.7658604383468628, 0.29063326120376587, 0.20479249954223633, 0.6055402755737305, -0.0028543747030198574, -0.2582136392593384, 0.7564799785614014, 0.19784435629844666, 0.7220163941383362, 0.5340829491615295, 0.7506980895996094, -2.4460525512695312, -0.0010702160652726889, -0.36757582426071167, 0.10962197184562683, -1.253112554550171, -0.2782096564769745, -0.2411785125732422, -0.8334647417068481, -0.465326726436615, 0.3732587695121765, -0.28901395201683044, 0.7485197186470032, -0.7205987572669983, 0.14486706256866455, -0.5574325323104858, 0.09704145044088364, -0.06909266114234924], [-0.03160536289215088, 0.1123516857624054, -0.42075908184051514, 1.6629831790924072, 1.006712794303894, -0.2827196419239044, -0.16947615146636963, -0.3128913938999176, -0.5208914875984192, 0.15903344750404358, 0.22900548577308655, -0.8373371958732605, 1.4974135160446167, -1.314789056777954, -0.21758894622325897, 0.14860659837722778, -0.9527881145477295, 1.3445656299591064, 0.8470295071601868, 0.7151502966880798, 1.4114136695861816, -1.0134445428848267, 0.6391541957855225, 2.104936122894287, -1.3949332237243652, -1.387453317642212, -0.24035483598709106, 0.31322959065437317, 0.8549747467041016, 1.0355405807495117, -0.9345418214797974, 1.0348584651947021], [-1.451210618019104, -0.7113604545593262, -1.8851649761199951, -1.2000864744186401, -0.44652801752090454, -1.5018959045410156, 0.5824494957923889, 0.2534937560558319, -0.34114736318588257, 1.610833764076233, 1.931997537612915, -0.8186932802200317, -0.26325783133506775, 0.8883041143417358, -2.7652459144592285, 0.6654079556465149, 0.7443305253982544, -0.8376414179801941, -0.263474702835083, -0.18543873727321625, 2.039684772491455, 2.2657077312469482, -0.8088467717170715, -0.9044702053070068, 0.25617122650146484, -1.3623446226119995, -1.867093801498413, 0.9785308241844177, 0.564468502998352, 0.1669442504644394, 0.23028944432735443, 0.4179474711418152], [1.0301554203033447, 1.048148512840271, -0.004506437573581934, 1.7038400173187256, 0.33414652943611145, 0.27833861112594604, -1.3277218341827393, -0.5859463214874268, 0.6344970464706421, -1.4663950204849243, -0.8157985806465149, 1.3347461223602295, 2.617180347442627, -1.999640703201294, -1.7106552124023438, -2.222177743911743, 0.399701863527298, -1.6796187162399292, -1.707778811454773, 0.23187117278575897, 3.064748764038086, 0.7263663411140442, 1.0246893167495728, -0.7814533710479736, 2.5844225883483887, 0.8514022827148438, 0.8549054265022278, -0.37982603907585144, 1.0096372365951538, 1.4757059812545776, 0.4550420045852661, 0.7663547992706299], [0.27963846921920776, -1.502086877822876, 1.2932746410369873, 0.40896838903427124, -0.14224152266979218, 0.7244932651519775, 0.6716739535331726, -1.1993093490600586, 1.6358281373977661, 0.2680041491985321, 0.0059974100440740585, -0.8858287334442139, -1.6215561628341675, -1.0752915143966675, -0.23689956963062286, 1.2842954397201538, -0.6685890555381775, -0.3452606201171875, 0.9716624617576599, 0.781004786491394, 0.5268946290016174, -0.7422513961791992, 1.8401235342025757, -1.031354546546936, -0.17606504261493683, -1.1683118343353271, 0.27534350752830505, 0.05687062069773674, 1.6251142024993896, -1.5594737529754639, 0.5588602423667908, -0.6304775476455688], [0.31742557883262634, 0.9919251203536987, -0.4375310242176056, 0.030125342309474945, -2.12933087348938, 1.4378662109375, 0.2648453116416931, 0.4923505485057831, 0.2157915234565735, -0.3932837247848511, 0.5263970494270325, -1.879391074180603, 1.0192228555679321, 0.6157893538475037, 0.2494286745786667, -0.5060818791389465, 1.5794322490692139, -0.9743183851242065, 0.15260350704193115, -1.4697076082229614, -0.2670591175556183, -0.7902347445487976, -0.07080014050006866, 0.24323920905590057, 0.904111921787262, 0.48946624994277954, -1.3905029296875, 0.8193382620811462, -1.8509691953659058, 0.24231979250907898, 0.6455033421516418, -0.8655415773391724], [-0.8067365884780884, 0.8429019451141357, 0.5516838431358337, 0.9910329580307007, -0.03739805892109871, -0.10900849103927612, -2.3861405849456787, 1.5208146572113037, 1.3943897485733032, 0.7557762861251831, 1.0389808416366577, 2.2496519088745117, 2.092968702316284, 1.1169021129608154, -1.6988195180892944, 1.6199344396591187, -0.5075324773788452, 0.990362286567688, 0.41798800230026245, -1.7992674112319946, 0.7808784246444702, 0.4170365035533905, -0.7396470308303833, 0.2905524969100952, -1.1131834983825684, 0.2981763482093811, 1.2023869752883911, -1.6351760625839233, 0.8026846051216125, -0.7574202418327332, 0.9600995182991028, -0.960399866104126], [-0.9668819308280945, 0.8393487930297852, -1.2751063108444214, 1.6860644817352295, -1.3129223585128784, 0.776645839214325, 1.005132794380188, -1.118943214416504, -1.3092657327651978, -0.3236366808414459, -1.1220591068267822, -0.3173463046550751, 0.13450179994106293, 1.1266175508499146, -0.7932332754135132, -0.46247535943984985, -1.4397896528244019, 1.4786748886108398, -0.1351424902677536, -0.7213425040245056, 0.030836308375000954, 0.5930988192558289, 0.70266193151474, 1.8635815382003784, -0.676816463470459, 1.1451442241668701, 0.3289170563220978, 1.0003458261489868, -0.9081454873085022, 0.5948302745819092, 0.13118943572044373, -2.8816113471984863], [1.1923364400863647, -0.23967072367668152, -0.25020334124565125, -0.17139911651611328, -0.34972772002220154, -0.10154265910387039, -1.1749956607818604, 1.4959335327148438, -1.1134812831878662, 0.29024073481559753, 0.02534417435526848, -1.2281535863876343, 0.24362494051456451, 0.1157301589846611, -0.9988840818405151, 0.2981453239917755, 2.467371940612793, -1.091511607170105, 0.6477836966514587, -0.27433621883392334, -1.9412245750427246, -0.4046114683151245, 1.0378103256225586, -0.7219215631484985, 1.1777311563491821, 0.06286505609750748, 0.37957432866096497, -0.9895999431610107, -1.1341358423233032, -0.31239593029022217, 1.9420647621154785, 0.9328005313873291], [0.4867042899131775, 1.7706689834594727, 1.5779098272323608, -0.8924233317375183, -1.215408444404602, 0.2328190803527832, 1.7634793519973755, 0.0824144035577774, -1.5321673154830933, 0.5710543394088745, 0.940931499004364, -1.6505357027053833, 0.24509671330451965, -0.6350027918815613, 0.08527158200740814, 1.1470445394515991, 0.19138462841510773, 0.2328103631734848, -0.9661837816238403, -1.9494010210037231, 0.8700098991394043, -0.3075680732727051, 1.2810121774673462, 0.2799501121044159, 1.004732370376587, 0.1482844054698944, 0.4935283362865448, 0.8419350981712341, 1.5720477104187012, 0.4645499289035797, -0.7352262139320374, 0.568790853023529], [0.5029319524765015, -0.9557949304580688, -1.596984624862671, -0.04241052642464638, -0.7053437829017639, -0.01526013482362032, -0.8419444561004639, 1.0655821561813354, 0.21791771054267883, -0.0213692057877779, 0.4755876064300537, -1.7671443223953247, 0.20410488545894623, -0.934994637966156, 0.8704289197921753, 0.5646324753761292, -0.12087394297122955, -0.9195004105567932, 1.0711787939071655, -0.9907122254371643, 1.6308257579803467, 1.0546602010726929, -1.3756635189056396, 1.518898844718933, 1.4448338747024536, -0.8249539136886597, -0.262545645236969, -0.6475114822387695, -1.417717456817627, 0.20498651266098022, -0.3500027358531952, 0.8513801097869873], [-0.4519955515861511, -0.582419753074646, -1.0813807249069214, 1.8355202674865723, 0.2677285671234131, 0.9630334377288818, -1.6060751676559448, 0.013464746065437794, 0.1912696361541748, 0.04235682263970375, 1.4099583625793457, 0.09807130694389343, -0.14500640332698822, -0.8929375410079956, -0.29599592089653015, 0.046728815883398056, -0.831988513469696, -0.3055790364742279, -0.03802134469151497, -0.819786548614502, -1.0098700523376465, 0.23033872246742249, 0.7773790955543518, -0.7849208116531372, 0.21362581849098206, -0.423433780670166, 1.2082802057266235, 0.10940367728471756, -1.5987277030944824, 1.434551477432251, 0.28083643317222595, -1.6070492267608643], [1.727500319480896, 0.13760241866111755, -1.8949177265167236, -0.6617274880409241, -0.8663982152938843, 0.47458648681640625, 1.2609293460845947, -0.32189565896987915, 0.7238193154335022, -0.5028107762336731, 0.4525783658027649, -2.853285312652588, -0.8319836854934692, -0.5202741622924805, -1.7075144052505493, -0.8784663677215576, 0.11674259603023529, -0.9159733653068542, -0.7120874524116516, -0.9288485646247864, -0.9110594987869263, -0.03082367405295372, 1.328341007232666, -0.5874217748641968, 0.2503443658351898, 1.9773920774459839, 0.23656228184700012, -0.2856493890285492, -0.5396052002906799, -0.9079425930976868, 1.7876118421554565, -1.5792490243911743], [0.42464038729667664, 0.4007273316383362, 0.8060541152954102, -1.6852116584777832, 1.0918775796890259, -0.06772708147764206, 0.7860807180404663, -0.13493727147579193, -0.3436994254589081, -0.2627809941768646, 1.176270604133606, -0.11443421989679337, 0.08062121272087097, 1.4282649755477905, 0.19013617932796478, 1.2733147144317627, 0.25659748911857605, -0.6661205291748047, 0.45366382598876953, -1.7482101917266846, 0.1065031886100769, -0.43571752309799194, -0.2281329184770584, -0.1625375598669052, 0.10903307795524597, -0.23251542448997498, -0.09282044321298599, -0.7768996357917786, -0.2654573917388916, -1.0157755613327026, -0.34664976596832275, -0.39931246638298035], [0.5487335324287415, -0.738957941532135, 0.32575052976608276, 0.3184834122657776, -1.1703189611434937, 0.948347270488739, -1.6402610540390015, -0.45006856322288513, 0.4586220383644104, 0.72468501329422, 1.9424759149551392, -2.8700265884399414, 0.18517862260341644, -0.4514862298965454, 0.5731355547904968, 1.2170631885528564, 1.7490538358688354, 1.4550449848175049, 1.2059518098831177, 0.217246875166893, 1.02132248878479, -1.1136143207550049, 0.13389357924461365, -0.5163736939430237, 0.6960592865943909, -0.055726390331983566, 0.13938339054584503, -0.2728354036808014, -1.2106541395187378, -0.7090840339660645, 0.04788396507501602, 0.6093922257423401], [0.2189180999994278, 0.6084675788879395, -1.741737961769104, -0.33901944756507874, 0.7426645755767822, -0.5101709961891174, -1.8100582361221313, 2.2518956661224365, -1.2492038011550903, 1.31864333152771, -0.7056636214256287, 0.9573394060134888, 0.3040986955165863, 1.3942385911941528, 1.0338008403778076, -2.362907648086548, -0.655009925365448, -1.3069859743118286, 0.7036787867546082, 0.7827703356742859, 2.123967170715332, 0.06672289967536926, 0.6628994941711426, -1.4565725326538086, -0.24781394004821777, 0.7716793417930603, -1.6357678174972534, 0.09003959596157074, 0.7865508198738098, -1.6623526811599731, 0.9594272375106812, -0.58012855052948], [-0.3662196397781372, 0.8677642345428467, 1.5397682189941406, -0.6657571196556091, -0.049006666988134384, 1.7598975896835327, 1.1086417436599731, -0.5055248141288757, 1.2202823162078857, -0.8171189427375793, -0.558312177658081, -1.196184754371643, -0.31011831760406494, -0.5223164558410645, -0.45501694083213806, -1.6661969423294067, -1.2225240468978882, -0.7132053375244141, 0.6793928742408752, -1.7974364757537842, -0.06728137284517288, 0.3114053010940552, 0.6824540495872498, 0.548748254776001, -0.5523624420166016, 1.4194393157958984, -1.1034702062606812, -1.6653438806533813, -0.8347591757774353, -2.1564879417419434, 0.44358062744140625, -0.6009560823440552], [-0.7619146704673767, -1.2873563766479492, 0.4551013708114624, -0.666170597076416, 0.45715561509132385, 0.711207389831543, -0.4495977461338043, -0.15819917619228363, 0.9976183176040649, -0.18728519976139069, 0.6022036671638489, 1.3664820194244385, -1.502842664718628, 0.7295401692390442, 0.814315915107727, 1.6423871517181396, 0.2580692768096924, -0.8250492811203003, -0.22286878526210785, -0.38821229338645935, -0.7564821243286133, 0.7041526436805725, -0.4731422960758209, -1.7214374542236328, -2.495511531829834, 1.6644527912139893, -1.4820632934570312, 0.6148034930229187, -0.437711626291275, -1.3548402786254883, -0.4175676703453064, -1.090080976486206], [0.00796311441808939, -0.15511824190616608, -0.9234060049057007, 0.812834620475769, -1.862499713897705, -0.8065581321716309, -0.522954523563385, -0.2891986072063446, 1.5826756954193115, 1.6562327146530151, -1.2464290857315063, 1.1509437561035156, 2.0427145957946777, -0.7601222991943359, 0.9608250856399536, -0.40956640243530273, -1.3714286088943481, -0.059436023235321045, 1.9812350273132324, 0.9099084138870239, -1.1418770551681519, -0.7020068764686584, -0.5409190058708191, -0.8061761856079102, -2.148392677307129, 0.9640616178512573, -0.0200845655053854, 0.5452722311019897, -0.47655734419822693, -0.0028530957642942667, -0.0589350201189518, 0.05993351712822914], [-0.7749430537223816, -3.2318527698516846, -0.4365766942501068, -1.1839061975479126, 1.3035670518875122, -0.1698453426361084, 1.7712976932525635, 1.0840773582458496, -1.0247970819473267, 1.8532483577728271, -2.1547250747680664, 0.5310149192810059, -0.9928651452064514, -0.5947933793067932, 0.35527846217155457, 1.0955010652542114, -2.95528507232666, 0.7503463625907898, 0.5550269484519958, 0.15649019181728363, -0.5834515690803528, 0.9920528531074524, 0.46503642201423645, 0.6468698978424072, -1.5253677368164062, 1.288291573524475, -0.593784749507904, 1.448622703552246, -2.0882012844085693, 1.0308557748794556, -0.0529973991215229, 0.9553293585777283], [-0.8942281603813171, 1.0311390161514282, 0.8195189833641052, -2.4273338317871094, 0.6733274459838867, 1.17159104347229, -1.3992502689361572, -0.16079574823379517, 0.4317857623100281, -0.5193211436271667, 0.1371736377477646, 0.07440468668937683, -0.04189085215330124, 0.03476082533597946, 1.4910762310028076, -0.811296284198761, 1.520009160041809, 0.021540412679314613, -1.0230059623718262, 0.05228431895375252, 0.3780592381954193, 0.6343350410461426, -2.894698143005371, 1.3408244848251343, 0.26264235377311707, 2.063680410385132, -0.11664460599422455, -1.6954402923583984, -0.5708538889884949, -2.0822219848632812, -0.2350047528743744, 0.7898103594779968], [0.4213152229785919, -0.5626385807991028, 0.7051085233688354, -0.2032070904970169, 1.0230450630187988, 0.8311910033226013, 0.9967622756958008, -0.5437942147254944, -0.03454010933637619, -1.1049858331680298, 0.16635282337665558, 0.09188766032457352, 0.558471143245697, 0.02577642723917961, -0.5927781462669373, -0.4622737169265747, 1.1755622625350952, 0.7301610708236694, -0.05604452267289162, 0.8749157190322876, -3.6883127689361572, -1.8548859357833862, -0.7657144069671631, -0.9735647439956665, -0.8732797503471375, -0.6435667872428894, -1.3475587368011475, -1.415945053100586, 0.24409274756908417, 1.0231271982192993, -0.3913499414920807, 0.45785558223724365], [-0.5289992690086365, -0.09007414430379868, -0.12275129556655884, 0.35101577639579773, 1.4396156072616577, 0.5253193378448486, 1.5701220035552979, -1.5939819812774658, -0.22999022901058197, 1.918786644935608, 0.6076816320419312, 0.6612670421600342, -0.6000550389289856, -0.33704715967178345, -0.8504776358604431, -0.3777133524417877, -0.18790602684020996, -1.274031639099121, -0.3343048393726349, 0.9460894465446472, 1.8358535766601562, -1.9593151807785034, -1.1658955812454224, -1.529025673866272, 0.6153507828712463, -0.6260921359062195, 1.7797778844833374, 0.2852915823459625, 0.4201716482639313, 1.0962775945663452, 1.2669825553894043, 0.049338627606630325], [-0.4247073531150818, 0.049323540180921555, -1.8113006353378296, 1.4645460844039917, -0.6407192349433899, 0.14279299974441528, 0.05776522681117058, 0.6787143349647522, 1.374795913696289, 0.9368588328361511, -1.2230033874511719, -0.2467842698097229, 1.0137357711791992, -0.9621608853340149, 0.4529266357421875, 0.918543815612793, -0.022917117923498154, -0.03927522897720337, -0.02294599637389183, 1.0865070819854736, -0.1475314348936081, 1.09676194190979, 0.0562678761780262, -1.3257277011871338, 0.6200399398803711, -0.6462773680686951, 0.03241436555981636, 0.8031613230705261, 0.4471738934516907, -0.3303295969963074, -0.7072097659111023, 1.084233283996582], [-0.2640182077884674, 0.6373200416564941, 1.3411619663238525, 0.27037861943244934, -0.8116226196289062, 2.1274073123931885, -0.7223228812217712, -0.4098595976829529, -0.324509859085083, 1.2594058513641357, -1.3270407915115356, -0.7834511399269104, 0.6271690130233765, -2.317777395248413, -0.9592412114143372, -0.22675323486328125, -1.7410740852355957, -0.5908523797988892, 1.1626867055892944, -0.41010811924934387, -0.35852915048599243, 0.7082743048667908, 0.2761673629283905, 0.2568747401237488, -0.8085904717445374, 1.3670036792755127, -0.42037227749824524, -0.542683482170105, -0.4774860143661499, 0.0179904792457819, 0.29703617095947266, -2.3338022232055664], [-1.0100713968276978, 1.192706823348999, -1.2914494276046753, 0.44744250178337097, -0.8157817125320435, 1.7770607471466064, 0.11189599335193634, 0.1576402634382248, -0.4513031840324402, -0.717790424823761, 1.3020625114440918, -0.5471654534339905, 1.4789897203445435, 0.8813105225563049, -0.09272509813308716, 0.20800510048866272, -0.10362662374973297, 1.180161476135254, 0.3879947364330292, -0.4802965223789215, 0.9000604152679443, -0.03142997995018959, -0.31472671031951904, -0.7920828461647034, 0.9302250146865845, 0.37743479013442993, 2.0785415172576904, -1.861621618270874, 1.6971839666366577, -1.8936161994934082, 0.08384574204683304, -0.16591186821460724], [1.806928277015686, 0.5684253573417664, -0.27645018696784973, 0.7607200741767883, 0.6916660666465759, 0.3415950536727905, 0.06706921756267548, -0.2583460211753845, 1.257438063621521, 0.778983473777771, -0.7246748805046082, 1.3510606288909912, 0.5195374488830566, 0.6565158367156982, 0.021269619464874268, -0.12669816613197327, 0.4506552219390869, 0.628103494644165, -0.45970210433006287, 0.6235421895980835, 0.5491791367530823, 0.5273720622062683, -1.5706970691680908, 0.16703757643699646, 1.0961884260177612, -1.2719711065292358, 0.5577061772346497, -0.2518140375614166, -0.23798973858356476, -1.9906373023986816, -1.3059139251708984, -1.0287330150604248], [-0.044344622641801834, -1.1717013120651245, -0.9912245869636536, -0.18186011910438538, 1.0559121370315552, 0.24820248782634735, 0.20494447648525238, -1.3035491704940796, 0.2007158398628235, -0.45270994305610657, -0.9237514138221741, -0.6015456914901733, -0.2918744385242462, -0.1932777762413025, 0.9868893027305603, -1.987534999847412, 0.2709845006465912, 0.9393299221992493, 0.16823631525039673, 3.5229685306549072, -0.5917021036148071, 1.2120627164840698, 0.5160171389579773, -0.04060062766075134, 0.12867531180381775, -1.6254156827926636, -0.3036983609199524, 1.6949048042297363, -0.3982577323913574, 0.7053384780883789, 0.4075845777988434, -2.412980079650879], [0.5816795825958252, 0.2524704337120056, -0.8648363351821899, 0.7671093940734863, 0.900966465473175, 0.5220177173614502, -0.06673240661621094, -0.46865224838256836, 0.872968852519989, 0.28725728392601013, -2.0768308639526367, 2.0714588165283203, -1.5559918880462646, -0.4675978422164917, -1.0629072189331055, -0.0032266261987388134, -1.218003511428833, -0.4783240258693695, 1.5549558401107788, 0.9821891188621521, -0.9304963946342468, 0.6621508002281189, -1.553619384765625, -0.07272431999444962, 0.4640779197216034, 0.8068302869796753, -0.8764039278030396, -0.28372883796691895, -1.4064127206802368, -0.2847915589809418, 0.6392346620559692, 1.5049670934677124], [-1.6310347318649292, -0.6150018572807312, -1.6863796710968018, 1.3151397705078125, -1.0020346641540527, -2.0643959045410156, 0.44292500615119934, 0.6426132321357727, 1.7125513553619385, 0.24122996628284454, -1.3673206567764282, -0.2598027288913727, 0.35527849197387695, -1.2208199501037598, 1.3796476125717163, 1.4210379123687744, -2.2947497367858887, -1.1326640844345093, -0.19965386390686035, 1.297014594078064, -1.3508334159851074, -0.539442777633667, 1.301181674003601, 0.5588904619216919, -0.7937942743301392, 1.9424915313720703, 0.09149656444787979, -0.23960775136947632, -0.919682502746582, -1.3836209774017334, -0.2435736358165741, -1.6368931531906128], [1.067132830619812, 0.01933843083679676, -0.5028700828552246, -0.2983035147190094, 1.1684041023254395, 1.0096237659454346, -0.17995791137218475, 1.67618989944458, -0.7991189956665039, 0.23211967945098877, -0.22567220032215118, 0.7948604226112366, 0.9950625896453857, -0.8034136891365051, -0.018764028325676918, -0.041405897587537766, -1.0616843700408936, 2.3347411155700684, -0.23444077372550964, 0.559416651725769, 2.7842161655426025, 0.33085623383522034, -1.8508096933364868, -0.8702186346054077, 0.09063586592674255, -1.5989857912063599, 1.8651317358016968, -0.5942592024803162, -0.9150958061218262, 0.16699758172035217, 0.9659039378166199, -3.0664939880371094], [-0.031308501958847046, -0.3389822244644165, -0.5055403113365173, 2.4487011432647705, -0.3115585744380951, 0.14524677395820618, 0.5813733339309692, -1.7890796661376953, 0.9981264472007751, -0.11268053203821182, 0.8790323138237, -0.046350762248039246, 1.0071210861206055, 0.4970434606075287, -1.0312367677688599, 1.8228552341461182, -0.38553789258003235, 0.23449726402759552, 0.5148117542266846, -0.48740339279174805, 1.1897294521331787, -1.0985448360443115, -0.4339226484298706, -0.6578356027603149, -0.6558341979980469, -0.288092702627182, 0.1659310758113861, 1.3963758945465088, 0.7460254430770874, -0.9509783983230591, -1.8194423913955688, 0.5729020833969116], [0.9281615018844604, 0.7816938161849976, 0.9052685499191284, 0.2092379629611969, 2.5646791458129883, -0.5335186123847961, -0.09596395492553711, -1.6944173574447632, 1.4187074899673462, -2.417564630508423, -0.2251843512058258, 2.407759428024292, 0.054578930139541626, 0.025570353493094444, 1.4793696403503418, 1.022085428237915, -1.919823408126831, 0.5725407004356384, -0.2415120154619217, 0.8987364172935486, -0.5004017949104309, 0.4691017270088196, -0.7992928624153137, 0.3322739899158478, -2.6586825847625732, 0.5671364665031433, -0.5885549783706665, -0.3151339292526245, -0.0059274290688335896, 0.12741458415985107, 0.794660747051239, 0.9653164744377136], [0.2535921037197113, -0.452847957611084, -1.9031296968460083, 0.13834775984287262, 0.15027329325675964, -0.8957772254943848, -0.365853488445282, 0.7223716378211975, 0.8670722246170044, -0.7913984060287476, -0.708696186542511, 0.14510390162467957, 0.057434987276792526, -2.1265573501586914, 0.424373984336853, -0.42130783200263977, 0.8079118132591248, -1.8936840295791626, -0.8815405964851379, 1.926152229309082, 0.41872209310531616, -0.8863110542297363, 0.02210373245179653, -1.352301836013794, 0.8034263253211975, -1.2508069276809692, -0.18880344927310944, -0.362827867269516, 1.1309077739715576, -1.0482323169708252, -2.251542329788208, 0.3660503327846527], [2.351769208908081, -1.4029216766357422, 1.0396099090576172, -1.007603406906128, -0.6162546277046204, 0.8677080869674683, 0.692814290523529, -1.316017746925354, 0.7585291862487793, 0.5586607456207275, -0.088014155626297, 1.49104642868042, 0.03545931354165077, -0.7896576523780823, 0.9017707109451294, 1.2537575960159302, -2.6934335231781006, -0.46054115891456604, 1.9971896409988403, 0.3056166470050812, 1.186479926109314, -0.4177636504173279, -2.044198751449585, 0.6160563826560974, 0.25936684012413025, 1.50763738155365, -2.569636344909668, -0.47834154963493347, 2.500706672668457, 0.8373143672943115, 0.6846209168434143, -0.8063234090805054], [-0.5465225577354431, 0.8781867027282715, 1.4308182001113892, -2.080331563949585, -0.5405633449554443, 1.4931418895721436, 1.7604035139083862, 1.1763396263122559, 3.0991506576538086, -2.255855083465576, -2.055485248565674, 0.5909582376480103, 0.5873400568962097, -0.7419325709342957, -0.7278401851654053, 0.78826904296875, -0.47435930371284485, 1.3989015817642212, -1.5977706909179688, 0.5189502239227295, 1.3563538789749146, 0.2959999144077301, 0.31389933824539185, 0.2403673678636551, 0.7170419692993164, 2.000863790512085, 0.4287693202495575, 1.3211655616760254, -1.7932085990905762, 1.7390984296798706, -1.4524871110916138, -0.07948081940412521], [2.733933210372925, -0.036766987293958664, 0.4108719229698181, 1.2576020956039429, 0.580816388130188, -1.0804578065872192, -0.08293038606643677, -1.0937236547470093, 0.26145514845848083, -1.975608468055725, -0.39965057373046875, 2.776616334915161, -0.6890994906425476, -1.2241170406341553, 0.1340600848197937, 0.013076692819595337, -1.2486441135406494, -0.7868597507476807, -0.8988858461380005, 1.276615023612976, -1.3463051319122314, 1.9521770477294922, 0.6157636642456055, 0.8757754564285278, 0.8367046117782593, -1.1089704036712646, 0.16802650690078735, -0.06595645099878311, 0.8146769404411316, -0.5238925218582153, -1.891616940498352, -1.4736034870147705], [0.9826924800872803, -0.6151558756828308, 0.5185284614562988, -0.061065781861543655, 0.6843554377555847, 1.5880963802337646, -1.2728608846664429, -0.4977823495864868, -1.2317496538162231, 0.3715369403362274, -0.7794213891029358, -0.5299531817436218, 0.5310055613517761, -0.8310646414756775, -2.3788745403289795, -0.5902197957038879, 0.6392208337783813, 0.23671801388263702, 1.383685827255249, -1.8527127504348755, 0.29107770323753357, 0.5314270257949829, -2.7725110054016113, 1.236937403678894, 0.36594682931900024, -0.7690629959106445, -1.9084079265594482, -0.5468840003013611, -0.9478589296340942, 0.09095745533704758, -0.20517590641975403, 1.8082011938095093], [1.2046000957489014, 0.4811384081840515, -0.2641655206680298, 0.15792158246040344, 0.13134104013442993, -1.6482212543487549, 0.9006489515304565, 1.1244139671325684, -0.9367960095405579, -0.34139442443847656, -0.6324479579925537, 0.51755291223526, 1.0350264310836792, -3.2065765857696533, 2.0840866565704346, -0.9388370513916016, 0.7492780089378357, -1.370703101158142, -0.6467708349227905, -1.5962430238723755, -1.6069623231887817, 0.2609897255897522, -1.2867107391357422, -0.4013992249965668, 2.3804967403411865, 0.6159400939941406, 0.961251437664032, -1.320540189743042, -0.027971578761935234, -0.28686434030532837, -0.6891852021217346, 0.2616916000843048], [-2.337311267852783, -0.87799072265625, -1.4843599796295166, 1.1240808963775635, -0.05231042951345444, 0.29202279448509216, 2.205129861831665, -0.35476043820381165, -0.7747045755386353, -2.2093098163604736, -0.38481050729751587, -0.9270394444465637, 1.0469677448272705, 0.6025621294975281, -0.3092118501663208, 0.09739817678928375, 0.31469646096229553, 0.04099205508828163, -0.6791585683822632, 0.9884744882583618, 0.7789610624313354, -0.33481675386428833, 2.6483728885650635, -0.2546916902065277, -0.7169187664985657, -0.5760417580604553, -0.318073034286499, 0.5579383373260498, 0.30494633316993713, -0.39164724946022034, 0.8457916975021362, 1.094447374343872], [1.5469775199890137, -2.4056618213653564, 0.32862743735313416, 0.49590325355529785, -0.03733202442526817, -0.49277812242507935, -0.11388940364122391, -0.17839397490024567, 0.9357401728630066, -0.621310830116272, 0.5045968890190125, 0.3657323122024536, -0.6619429588317871, -0.28424495458602905, 1.6633741855621338, -0.06982675194740295, 0.08615395426750183, -2.267578363418579, -0.3801780641078949, 0.0889577642083168, -0.7423722743988037, -1.2272591590881348, 0.11925315856933594, -0.9821658730506897, 0.7007531523704529, 1.7452467679977417, 1.0065888166427612, -0.0972096398472786, 0.7623607516288757, -1.061752200126648, -2.7393319606781006, 0.5506654977798462], [-0.07593732327222824, -0.2316599190235138, -0.6820937991142273, -0.3202074468135834, -0.17368195950984955, 0.6286791563034058, -0.28612416982650757, -0.7317823171615601, 0.1523182988166809, 0.6301906108856201, -0.2056611180305481, -0.7081332802772522, -0.10666655749082565, 0.7452082633972168, -0.3227004110813141, 1.582080364227295, 0.9644975066184998, 0.9219558238983154, 0.7149220108985901, -0.5897626280784607, 0.2816104590892792, -1.5235967636108398, -1.5365217924118042, -0.19349227845668793, 0.08488637953996658, -0.5179173946380615, -0.24176467955112457, -1.0575635433197021, 0.03903808444738388, -0.43932095170021057, -0.6733916401863098, -0.7176711559295654], [0.17323321104049683, 0.9540985822677612, -0.7910629510879517, -0.04853957146406174, 0.12772879004478455, -1.2977980375289917, -0.7824023365974426, 1.2203373908996582, 0.14614951610565186, -2.6401731967926025, 0.6757696270942688, 0.5545228123664856, 0.25740301609039307, 1.7865972518920898, -0.5139288902282715, -0.9349504113197327, 0.49646469950675964, 0.3106289803981781, 1.3571323156356812, 0.9793089032173157, -0.7026681900024414, -0.8846175670623779, 0.293567955493927, 2.056069850921631, 0.041002776473760605, 2.6363003253936768, -0.18744707107543945, -0.46416541934013367, 0.2680054008960724, 0.7507913112640381, -0.0346551351249218, 0.9266802668571472], [-0.43623799085617065, -1.8264559507369995, -1.8141522407531738, 1.6868798732757568, -0.4064912497997284, -1.0708876848220825, -0.5916553139686584, -0.2885484993457794, -1.0417360067367554, 1.3661317825317383, 1.5831035375595093, 0.46320366859436035, 0.5210011601448059, 1.6814175844192505, -1.8697212934494019, 0.2943061590194702, 0.19520489871501923, -0.07632502913475037, 1.0928648710250854, 0.31007176637649536, 0.34454941749572754, 0.10149350017309189, -0.8755747079849243, 0.9617685079574585, -0.8061397075653076, -1.0906516313552856, 1.3927521705627441, 0.284431129693985, -0.7514799237251282, 0.9195627570152283, -0.9002710580825806, -0.2644822299480438], [-1.6516823768615723, -0.10939192026853561, -0.7088133692741394, 0.602897584438324, 2.490586280822754, 0.4348568022251129, -0.2804977297782898, 0.34510231018066406, -0.49711140990257263, 1.129927158355713, 0.8034194111824036, -0.5690638422966003, -2.8022677898406982, -0.4627848267555237, -0.20108996331691742, -0.007346841506659985, -0.6104990839958191, 0.5757500529289246, -0.7866418361663818, 0.7597744464874268, 1.0633389949798584, 0.2728116512298584, -0.908061146736145, -0.22603385150432587, 1.6597594022750854, -0.11336278915405273, 0.9941578507423401, 1.064274549484253, -1.5381361246109009, -0.16098831593990326, -0.04648219794034958, -2.5657198429107666], [1.1160094738006592, 1.1999844312667847, 0.45155543088912964, -0.9924628734588623, 0.1575118601322174, 0.9004163146018982, -0.2367006242275238, -1.3205522298812866, -1.6890419721603394, -1.3575540781021118, 0.29018107056617737, 0.6031490564346313, -1.3704777956008911, -0.18561376631259918, 0.4911125898361206, 0.841742753982544, 0.4232189953327179, -2.3729076385498047, 1.0348600149154663, 0.9968588352203369, -0.6377959251403809, 0.20261581242084503, 1.1994251012802124, -1.7532483339309692, 0.1462070643901825, 0.5095674395561218, -1.2768480777740479, -0.3591885268688202, -0.7925492525100708, 1.1043732166290283, -0.7899305820465088, 0.37131738662719727], [-0.8480319976806641, 0.8014768958091736, -1.0031306743621826, 0.4150482714176178, 0.09345312416553497, -1.118974208831787, 0.4588127136230469, 2.021160364151001, -0.39906296133995056, -0.18342529237270355, 0.6548242568969727, 1.1077866554260254, -0.4514528214931488, -0.8171331882476807, 1.6759816408157349, -0.6069777607917786, -0.6066939830780029, 0.3797978460788727, -1.5445410013198853, -0.5301703214645386, -0.45022711157798767, 0.5067880749702454, 0.06864538788795471, 1.305044412612915, -2.1297709941864014, 1.081264853477478, 0.7244086265563965, -1.6491401195526123, -0.40092793107032776, 0.17290140688419342, 1.5518018007278442, 0.7358825206756592], [-1.75803804397583, 0.46280738711357117, 0.46023640036582947, -0.6768093109130859, -0.5873456597328186, -1.1870173215866089, -0.9953427910804749, 0.9750333428382874, -2.319908380508423, 2.264610767364502, -0.35382720828056335, -1.3390185832977295, 1.5748920440673828, 0.5743531584739685, -0.7257624864578247, -1.2501674890518188, 0.1593591719865799, 0.10430153459310532, 0.37587305903434753, 1.6111338138580322, 0.19679215550422668, 0.4927038252353668, 0.3318693935871124, -2.1278600692749023, 1.7409685850143433, -0.061378151178359985, 1.4812473058700562, 1.0154552459716797, -0.9045047760009766, 0.20932988822460175, -1.2161755561828613, 0.1513853669166565], [1.3469786643981934, 0.6040886044502258, -0.3701538145542145, 1.2654606103897095, 1.1354442834854126, -0.041684892028570175, -0.009171049110591412, -0.24020476639270782, 0.5354524254798889, -1.0364689826965332, -1.528106927871704, -0.9849368929862976, -0.6701735854148865, -0.9387611746788025, -0.34310635924339294, -0.6860767602920532, -0.5635051131248474, 0.040330175310373306, -0.21952278912067413, -0.3907838463783264, 0.46554267406463623, 0.9582939743995667, -1.6983485221862793, -1.756017804145813, -0.5513597726821899, -0.17567896842956543, 0.5752242803573608, 0.03450900688767433, -1.8583629131317139, 0.11650881916284561, 0.11886709928512573, 0.6678595542907715], [-0.7643277645111084, -0.6565892100334167, 0.6043403148651123, 0.4537253975868225, 0.3900887370109558, 0.19201211631298065, 1.0082505941390991, 0.46347150206565857, 0.18839658796787262, 0.12451019138097763, 0.4860674738883972, -1.0315475463867188, 0.9334309697151184, 0.9096254706382751, -0.03584511950612068, -0.5646506547927856, 0.04397779703140259, -0.4285522997379303, -0.21353021264076233, -0.4820828139781952, 1.4028759002685547, -0.6459807753562927, -0.03690711408853531, -0.973912239074707, -0.028878770768642426, -1.3233567476272583, -0.6587545275688171, -0.6201465129852295, 1.3199348449707031, -0.14641940593719482, -1.1191898584365845, -1.0067503452301025], [0.12470386922359467, 0.762730062007904, 0.7517368197441101, 0.7253658771514893, 0.041965167969465256, -0.6722580790519714, -0.3874019384384155, -0.018523914739489555, -2.797513484954834, 0.4365382194519043, -0.45402050018310547, -0.4390724003314972, 0.19503137469291687, 1.2631124258041382, -0.48412778973579407, -0.19472169876098633, 0.5594074726104736, 0.8457399606704712, 0.029114555567502975, 0.2882201373577118, 1.1363847255706787, -0.6494491696357727, 1.0922284126281738, -0.2670784890651703, -1.4750008583068848, 0.42731773853302, 1.2324141263961792, 0.5701816082000732, -0.5267876386642456, -1.5732427835464478, 0.5591866374015808, 0.15147896111011505], [-1.787150502204895, 0.021821824833750725, -0.7339481711387634, -2.19315242767334, 0.3711356520652771, -0.5785441398620605, 0.05442759767174721, -0.63829505443573, 0.9346513152122498, 2.2097573280334473, -2.380964756011963, -0.8306270241737366, 0.1777607500553131, 1.6379222869873047, 2.92875337600708, 0.4509374499320984, 0.4221164286136627, -0.6077813506126404, -1.6642848253250122, 0.5304411053657532, -0.953574001789093, 0.8770909309387207, 0.19076037406921387, 0.18684057891368866, -0.76423579454422, -1.6092866659164429, 1.0230488777160645, -0.2804569602012634, -1.3149912357330322, 0.929512619972229, -0.2074383646249771, -1.0688679218292236], [-1.0352060794830322, 1.0745370388031006, 0.01762695237994194, -1.9431504011154175, 0.27080410718917847, -1.0977120399475098, -0.07484935224056244, 0.08206076174974442, 0.4277976453304291, 1.9918246269226074, -0.5195078253746033, -0.8065308332443237, 2.060452461242676, 0.13311126828193665, 1.5308952331542969, -0.7860497236251831, 0.860187828540802, -0.2593539357185364, -1.516960620880127, 1.1615608930587769, 0.8485137224197388, -0.8658677339553833, 0.35053715109825134, -0.7967847585678101, 0.7512199282646179, -0.9172161817550659, 1.4239223003387451, 0.6935496926307678, -0.612159013748169, 0.11685140430927277, 0.10923374444246292, -0.17381511628627777], [0.5669335126876831, 0.8193644881248474, 0.989563524723053, -0.5164015293121338, -0.46915408968925476, -0.01895461417734623, 0.05871952325105667, -1.391271710395813, 0.5564697980880737, -0.2027289867401123, 0.4163017272949219, 0.3547630310058594, 0.7461726665496826, 0.4754215180873871, -1.1999675035476685, 1.007270097732544, -0.2772645950317383, -0.08253970742225647, 0.2593291401863098, 0.22113144397735596, -0.04437774792313576, -0.1630084067583084, -0.6656087040901184, -0.2720089554786682, -0.3252498209476471, -0.5253430604934692, -0.18006005883216858, 0.029185842722654343, 1.2662489414215088, -1.203869342803955, 0.19680719077587128, 0.036380041390657425], [-0.034151237457990646, -0.03692994639277458, -1.8628121614456177, 1.1823915243148804, 1.0498422384262085, -1.769117832183838, -2.323549270629883, 1.680020809173584, 0.49119704961776733, 0.13451603055000305, 0.7796638011932373, -1.4870396852493286, 0.7010544538497925, 1.2950167655944824, 0.7612554430961609, -0.16719700396060944, 2.329491376876831, 2.712272882461548, -0.09528397023677826, -0.329041451215744, 0.3696683645248413, -1.491258144378662, -1.1807974576950073, 0.1185876727104187, -0.4343593120574951, 0.9226049184799194, -1.3403838872909546, -0.8616883158683777, 0.06117895618081093, -0.0608033761382103, -0.37535417079925537, 0.8164005875587463], [-0.48840466141700745, 1.1520639657974243, 0.5915387272834778, -0.22177967429161072, -0.06500192731618881, 0.6142082810401917, -0.6300225257873535, -1.9881432056427002, -0.7262130975723267, -1.821838617324829, 0.7644981145858765, -1.469169020652771, 1.3438730239868164, -0.7194019556045532, -0.9776413440704346, -0.34199100732803345, -0.32026639580726624, -0.7339545488357544, 0.2621879279613495, 0.3091978430747986, -0.11527415364980698, 1.9843415021896362, -0.15935729444026947, 0.10315137356519699, -1.9531795978546143, -0.5330644249916077, 0.16614210605621338, 2.03023362159729, -0.79913330078125, 0.23037829995155334, -1.7819055318832397, 1.0167601108551025], [0.992691695690155, -0.42701825499534607, -1.4389420747756958, 0.19733263552188873, 0.37865498661994934, -0.6239304542541504, -0.7822529673576355, -0.4905337393283844, -0.6611568331718445, 2.243013381958008, -0.6868467926979065, -0.914109468460083, 1.80780827999115, 0.17948254942893982, -0.48281607031822205, 0.316373735666275, -0.5811033844947815, 0.2686826288700104, 1.171775460243225, -0.17213785648345947, 1.2855631113052368, -1.6797115802764893, -0.19036193192005157, 0.6557011008262634, -0.477890282869339, 0.4751662313938141, 0.902457594871521, -0.9928640723228455, -1.0571640729904175, 0.35595983266830444, 1.0324482917785645, 1.9413138628005981], [-1.7522588968276978, 0.6077596545219421, 1.8247981071472168, 0.07782775908708572, -1.0204092264175415, 0.9489949345588684, 0.5720406174659729, -0.2634861469268799, -2.323255777359009, -0.0404401458799839, 1.7028470039367676, 0.8457852602005005, -0.9727144837379456, -0.4965064227581024, 0.12356315553188324, -0.4280957579612732, 0.010169715620577335, -0.5157384276390076, -1.049713134765625, 0.8160300254821777, -1.3230329751968384, 0.5537717342376709, -1.368780493736267, 1.0770578384399414, 2.3307058811187744, -0.13916797935962677, -1.9131288528442383, 0.4985872805118561, 0.026706092059612274, 2.0196871757507324, 0.41556307673454285, 0.008642979897558689], [2.1699604988098145, 0.36175107955932617, -0.8023277521133423, 0.5356652736663818, -0.6614266633987427, -0.3948668837547302, -1.7156356573104858, -0.25070998072624207, -0.02807081863284111, -1.323457956314087, 0.8571133017539978, -1.539229393005371, 0.49372923374176025, -1.4761089086532593, 0.7584436535835266, -0.45410776138305664, 2.303654670715332, -0.7861275672912598, 0.45504966378211975, -0.34002840518951416, 1.0398327112197876, -0.8275021910667419, -0.09415774792432785, 0.13400888442993164, -1.4750986099243164, -0.2945253849029541, 1.5223666429519653, 0.6266880035400391, -0.5162361264228821, -2.044311761856079, -0.7701979279518127, 0.5448012351989746], [-1.8344444036483765, -1.5559862852096558, 0.07865670323371887, -0.8351348042488098, -1.6462668180465698, 0.9337379336357117, -1.109871745109558, 2.698528528213501, 1.3197486400604248, 1.8864774703979492, 0.6831934452056885, 2.669405698776245, -3.000925064086914, -1.1517823934555054, 0.8067176342010498, -1.1757444143295288, -0.12127697467803955, 0.1914939135313034, 0.3110920786857605, -0.25417423248291016, 0.40823861956596375, 0.6400032639503479, -0.9903737306594849, 0.2982388734817505, 1.442994236946106, 0.14355026185512543, -1.0818289518356323, 1.4964598417282104, 0.605025589466095, 0.4085586369037628, 0.58461594581604, 0.9093543887138367], [-1.2774134874343872, 0.4050757884979248, 0.3593007028102875, -0.9167945981025696, 0.6082075834274292, -0.5850172638893127, 0.5954710245132446, 0.7174502611160278, 0.1073966696858406, 0.3926253914833069, 0.5460266470909119, 0.005631296429783106, 0.53949373960495, 0.23049373924732208, 0.20946954190731049, 0.8432375192642212, -0.6597633361816406, 0.3001396656036377, -0.35489925742149353, -1.7540117502212524, 0.29262635111808777, -0.5676981210708618, -0.17306508123874664, -0.33313068747520447, -0.49546346068382263, -0.6712619066238403, 0.019648529589176178, -0.6393337845802307, 1.3688137531280518, -1.4071133136749268, 0.854670524597168, -0.42021894454956055], [-1.4121267795562744, -1.0931849479675293, -0.9836724400520325, 0.4227813482284546, 1.1237809658050537, -1.561784029006958, -1.6527838706970215, 1.5218762159347534, 0.17374368011951447, 2.111095905303955, 0.5905007719993591, -0.9107477068901062, -1.098907232284546, -0.10594326257705688, -0.9648084044456482, -0.8458342552185059, 0.6949456930160522, 2.4556264877319336, 0.8028249740600586, 1.5789731740951538, 0.8487652540206909, 1.825229525566101, 0.13822537660598755, -0.2863484025001526, 0.3100612461566925, -1.2869853973388672, 0.5617972016334534, -1.4300386905670166, 0.0979427918791771, 0.07043050229549408, 0.8391375541687012, -0.8608793616294861], [1.6671459674835205, -0.7330692410469055, 0.3082643151283264, -0.1958501636981964, -0.1467929184436798, -0.8461808562278748, 0.5121904611587524, -0.5606645345687866, 0.5360671281814575, 0.3181074559688568, 2.1162824630737305, 0.32755476236343384, 0.18612492084503174, -0.3933355212211609, 0.2814268171787262, -1.456113338470459, 2.9282724857330322, 0.14811138808727264, -0.5259639620780945, -0.859271228313446, -0.9023983478546143, 0.16743911802768707, 0.2305784374475479, -1.493372917175293, 1.3240983486175537, 0.8784337043762207, -0.627044141292572, 0.10209347307682037, -0.9262932538986206, -0.5028786659240723, 0.4522766172885895, 0.35346800088882446], [0.793583333492279, 1.6127142906188965, -1.6832356452941895, -0.5592823624610901, 0.6170188188552856, 1.5797595977783203, 2.145608901977539, -2.537870407104492, 1.4446649551391602, -0.8924936056137085, 0.2744687795639038, 1.8134188652038574, 0.68495112657547, -0.7274714708328247, 1.5219403505325317, 0.37825167179107666, -1.5852906703948975, 0.35677817463874817, -0.878899872303009, 0.31727680563926697, 1.9339956045150757, -0.8660966753959656, 0.46211034059524536, 1.0305931568145752, 0.8110699653625488, -0.8570114374160767, -0.655825674533844, 1.5425384044647217, -0.14504030346870422, -0.337451696395874, -0.495947003364563, -1.0473664999008179], [-0.5384829640388489, 0.7056522369384766, -0.2607085406780243, -0.7166181206703186, -0.5657591223716736, 0.6732370257377625, 0.3419460356235504, 0.6574544906616211, -0.03290499746799469, 1.5982482433319092, 0.012268858961760998, -0.3862917125225067, 0.9183226823806763, 1.5401873588562012, -0.09237657487392426, -0.01391537208110094, 0.7798886299133301, 0.2719149887561798, 0.16303297877311707, -1.7102185487747192, 0.16771866381168365, -1.4375524520874023, -0.8502167463302612, -0.3442780375480652, 0.8643999695777893, 0.47796374559402466, -0.04197866469621658, -1.001966118812561, -0.8250361084938049, 0.8599106073379517, 0.8328642845153809, 0.4463227093219757], [-0.27333855628967285, -0.7891659140586853, -0.68421471118927, 0.48765885829925537, 1.1241127252578735, -2.4614992141723633, -0.8016811609268188, 1.3001104593276978, -0.12476735562086105, -0.7239435911178589, -3.0077645778656006, -0.7690682411193848, 0.4298394024372101, 0.7523143291473389, 1.5620653629302979, -1.4786332845687866, -0.0729750394821167, -1.9013030529022217, 1.348665475845337, 1.440538763999939, 2.5395970344543457, -0.05269968509674072, 0.1964217573404312, 0.7926657795906067, 0.3446495831012726, -0.5101990103721619, -0.6538453102111816, 1.5539696216583252, -1.0180000066757202, -0.21856193244457245, 1.1453043222427368, -0.027476362884044647], [-1.481584906578064, -1.2659882307052612, -1.1365553140640259, -1.8109301328659058, 0.569548487663269, -1.6633265018463135, -0.08563582599163055, -0.8855854272842407, -1.6324585676193237, -0.5815445184707642, 0.29979920387268066, 1.848695158958435, 0.7283797860145569, -1.2861578464508057, 1.3288367986679077, -0.488242506980896, 0.576660692691803, 0.8058755993843079, -0.8233381509780884, 0.9997686743736267, 1.7125539779663086, 0.8534008264541626, 0.26130083203315735, 0.8037698268890381, -1.2558594942092896, 0.6563658714294434, 1.8996806144714355, 0.8346123099327087, 1.4905884265899658, -0.1951925903558731, 0.2582753300666809, 0.5123899579048157], [-0.5039629340171814, 0.672600269317627, -0.4977271258831024, 0.48240816593170166, 2.001295804977417, 1.0149517059326172, -0.004965994972735643, 1.096943974494934, 1.3516311645507812, -0.22910284996032715, 0.002033180557191372, -0.16988971829414368, -0.142409548163414, -1.1826648712158203, 0.28228798508644104, 1.3212528228759766, 0.8721026182174683, 0.025589939206838608, 0.658721923828125, -0.9255952835083008, -0.7898155450820923, -1.4036251306533813, -1.1073390245437622, -0.4432676434516907, 1.1372854709625244, -0.452854722738266, -0.6995136737823486, -0.3676084876060486, 1.2051279544830322, 0.008157027885317802, -0.7649177312850952, 1.0656312704086304], [0.6796060800552368, -1.0038002729415894, -1.72163724899292, 1.6854181289672852, -1.6028039455413818, -0.5412020087242126, -1.613161563873291, 1.1454039812088013, -2.817239284515381, -0.590509831905365, 0.3052019774913788, 0.2726852595806122, 0.5579071044921875, 0.6986311674118042, 2.3630740642547607, 2.0081911087036133, -0.8489575982093811, 0.0049395691603422165, -0.1880532056093216, -1.560371994972229, -0.7348130345344543, 0.013010801747441292, 0.26334789395332336, -0.44007354974746704, 0.5771833658218384, 1.5442272424697876, -0.5696299076080322, 1.9208898544311523, 1.4239124059677124, 1.3594305515289307, -0.5953484177589417, -1.7513923645019531], [2.312323808670044, -0.759937047958374, 1.6282232999801636, 1.537321925163269, -0.6020607948303223, 0.3862897455692291, 1.5150166749954224, 0.918492317199707, -1.6651057004928589, -1.1874934434890747, -1.3063468933105469, -0.5964151620864868, -0.20307427644729614, 0.45235365629196167, -0.8283122181892395, 0.2703167796134949, -1.1445083618164062, -0.99651038646698, -0.8982405662536621, 1.4873193502426147, 1.4034841060638428, 0.46892645955085754, -1.1113247871398926, 0.750303328037262, -0.5410873889923096, 0.013273732736706734, 1.0837541818618774, 1.0100010633468628, 0.9006322622299194, -0.8361140489578247, -0.10295182466506958, -0.4388420879840851], [-1.0543911457061768, 0.8013110756874084, -0.6923827528953552, -1.316185474395752, 0.9515618085861206, -0.5364062786102295, 0.7924420237541199, -0.5067694783210754, 0.13518162071704865, 0.301686555147171, -0.2913571894168854, 0.049761250615119934, 1.1202263832092285, 0.33536261320114136, -0.4595010578632355, 1.6467180252075195, -0.01845431514084339, -0.7253561019897461, -0.17991650104522705, -1.2718651294708252, 0.3356361985206604, -1.0634150505065918, -0.3418826460838318, -1.1672953367233276, 0.7244643568992615, -0.9384357929229736, 0.6671249866485596, 0.2214297354221344, -0.17746169865131378, -0.8909482955932617, -0.01111786998808384, -0.3101443946361542], [0.52970290184021, -0.3126896023750305, 0.2684604227542877, 1.4169617891311646, -0.6200106739997864, 0.8739907145500183, 0.20605963468551636, -1.1942646503448486, 0.8371631503105164, -0.07216150313615799, 2.3195457458496094, -1.0623410940170288, -0.03933233395218849, -0.3391672670841217, -0.8986430764198303, -0.8347799181938171, 1.242262840270996, 0.018684163689613342, -1.6027336120605469, -0.26985520124435425, -1.3769848346710205, -1.1143943071365356, 0.17255732417106628, -1.7970073223114014, -0.8923625946044922, 0.3437266945838928, -0.6119183897972107, -1.213761329650879, 0.9408364295959473, 0.08024536073207855, 0.6299043297767639, -1.1111631393432617], [1.263576626777649, -0.574607253074646, -0.9852278828620911, 1.8196417093276978, -1.4466949701309204, 0.41102975606918335, -2.52193284034729, -0.599011242389679, -1.8078811168670654, 2.638432025909424, -1.3997403383255005, 2.1184918880462646, 1.0165083408355713, -2.064279317855835, 0.9437015056610107, 0.6343392133712769, -0.5042200088500977, 2.089221715927124, 0.5336146950721741, 2.0529956817626953, 0.7333611249923706, -0.07150395959615707, 0.03888365998864174, -0.6152180433273315, -0.05531826242804527, -0.6293143033981323, -0.0559074841439724, 0.2881251275539398, 0.9365466833114624, -1.4488657712936401, 0.39715954661369324, 0.18140636384487152], [1.304904818534851, 2.6420681476593018, 1.5710781812667847, -1.5861560106277466, -0.5419366955757141, -0.9097127318382263, 0.04199625551700592, -0.6207931637763977, 0.37539950013160706, -1.1244724988937378, 1.473190426826477, -0.9793254733085632, 0.6914200186729431, -1.020434856414795, 0.7987282872200012, 1.0434997081756592, 0.6007826924324036, -0.11181424558162689, 1.504507064819336, -0.19597862660884857, -1.3435460329055786, -0.46040162444114685, -3.0193700790405273, -0.8647264838218689, -0.8308820724487305, -0.34145939350128174, 1.1449309587478638, 2.717539072036743, 0.36864444613456726, 0.629572331905365, -1.1690757274627686, -0.452464759349823], [-0.3923787772655487, -0.04721805080771446, 0.18353810906410217, -1.0593147277832031, 0.5681406259536743, -0.502291202545166, 0.8038148880004883, 1.1769518852233887, -0.20831361413002014, -0.5113110542297363, -0.13982728123664856, 0.7342395782470703, 0.2808662950992584, -1.39693021774292, 0.6277459859848022, 1.9770952463150024, 0.5716147422790527, -0.6887251138687134, -0.9069040417671204, -0.185021311044693, -0.09558255225419998, 0.9986858367919922, -1.891432523727417, 0.17235441505908966, -0.007503685541450977, 0.11947168409824371, -0.29081377387046814, -0.30730924010276794, 1.071014165878296, -0.6737759113311768, -1.7448915243148804, 0.46788570284843445], [-1.123087763786316, -1.1605795621871948, 0.7919071316719055, 2.350231170654297, -1.3736995458602905, 0.3065565526485443, 1.0561134815216064, -0.06982796639204025, -0.7662710547447205, 0.9430716037750244, 2.199451446533203, -1.125976800918579, -1.177798867225647, 0.287232369184494, -0.510403573513031, 0.7868944406509399, 0.27272921800613403, -0.6576434969902039, 0.5446358323097229, 0.25445517897605896, 0.20281177759170532, -0.4652075469493866, -2.809669256210327, 0.681331992149353, -0.8449835777282715, -0.8268383145332336, 0.6523445248603821, 0.018668528646230698, 0.7892889380455017, 1.2038650512695312, -0.5974168181419373, -0.7351524233818054], [-0.09740760177373886, -0.6845332384109497, 1.0335485935211182, 0.05862350016832352, -0.0690661370754242, -0.5091664791107178, 0.8074072003364563, 0.8056710362434387, -0.5673151612281799, -0.5106216669082642, -0.8271074295043945, -1.2572972774505615, 0.035657454282045364, -2.180992364883423, -0.6309291124343872, -0.5138394236564636, 0.8419792056083679, 0.08395139127969742, -0.8508630990982056, 0.05604485422372818, -1.0761940479278564, -0.7450116872787476, -0.2653845250606537, -0.7309260368347168, 1.8236050605773926, -0.4321878254413605, -0.3491184115409851, -1.2143750190734863, 0.8155854940414429, 1.133914828300476, 1.0897855758666992, 0.03390135616064072], [-0.4069049656391144, 0.40444502234458923, 0.1664234846830368, 0.7684646248817444, 1.1295210123062134, 1.2501088380813599, 1.0980466604232788, -0.21760590374469757, -0.2405608892440796, -1.1831386089324951, -0.20814302563667297, -0.4942403733730316, 1.3604892492294312, 0.6970266103744507, -0.35914430022239685, 1.809265375137329, 1.4751722812652588, 0.9203085899353027, 0.924448549747467, -0.6123453378677368, -0.7570456266403198, -1.0039602518081665, -1.8620262145996094, -0.8651273846626282, -0.9096518158912659, -0.8845622539520264, 0.5426531434059143, -0.24729597568511963, 1.73350989818573, -0.3189508616924286, -0.21611419320106506, -1.2934783697128296], [0.6030641794204712, 0.23809458315372467, -0.9637507200241089, 0.567175567150116, 1.496501088142395, -0.17438888549804688, -0.48463961482048035, -1.605384349822998, 1.2614246606826782, 0.6616784930229187, 0.032988663762807846, 1.6334259510040283, -1.0089175701141357, 0.5043784976005554, 0.37721797823905945, 1.0190242528915405, 1.5305789709091187, -0.6555851101875305, 0.26308804750442505, -0.26748523116111755, 1.265476107597351, 1.1656639575958252, -2.0233638286590576, 1.3035725355148315, -0.5147858262062073, -0.2644249498844147, -0.09082997590303421, 1.225178599357605, -0.6604881286621094, -1.0377253293991089, 2.131254196166992, 0.15602624416351318], [-0.6670640707015991, 0.7209945321083069, -0.5885191559791565, -1.9428176879882812, -1.3846187591552734, -1.1775462627410889, -0.29330548644065857, 0.13125760853290558, -0.03732592985033989, 0.26450487971305847, 2.542292594909668, -1.0751500129699707, 1.2369908094406128, 1.1896519660949707, -0.5689291954040527, 1.36823570728302, -0.1629861295223236, -1.6409101486206055, 0.10837525129318237, 1.324988603591919, -0.4525030851364136, 0.06511497497558594, -1.5797970294952393, 1.4506940841674805, -0.9902167916297913, 0.9417892694473267, 0.9617149829864502, -0.43729984760284424, 0.9996240139007568, -0.8551291227340698, -2.8467910289764404, -1.0111792087554932], [-1.4430515766143799, 1.060766577720642, 0.2763248682022095, -0.08844495564699173, -0.7328101992607117, -0.20363938808441162, 2.2268877029418945, 0.16992734372615814, -1.6042513847351074, -0.594784140586853, -0.9962440133094788, 0.2720120847225189, 0.6758010983467102, 0.4026776850223541, 0.49812933802604675, 1.0384154319763184, 1.1247155666351318, 0.9462460279464722, -0.9523331522941589, -0.53757643699646, 0.10579260438680649, -2.191418409347534, -0.19218985736370087, -0.7504639625549316, 0.009744781069457531, 0.5163545608520508, -0.023456847295165062, -0.7671037316322327, 0.3037256896495819, 1.4482898712158203, 2.432772636413574, -1.0989134311676025], [0.10396925359964371, -0.7403992414474487, 0.34315764904022217, -1.0294346809387207, 0.7951338887214661, 0.39813023805618286, 0.729113757610321, 0.4994376301765442, 2.0464937686920166, -2.277637004852295, -0.4759235084056854, 1.1264851093292236, 2.2738895416259766, -2.753183603286743, 0.16914887726306915, 0.02227731980383396, -0.3442736566066742, 1.6412986516952515, -0.3442019522190094, -0.9170952439308167, -0.13901689648628235, -1.78376305103302, -0.4344974756240845, 1.0044723749160767, -0.04167105630040169, 1.359387993812561, 0.99906986951828, -1.4466913938522339, -0.2444375455379486, 0.11817257106304169, -0.5465251207351685, 0.5611095428466797], [1.7685807943344116, -0.20618879795074463, 0.07325815409421921, 0.4017656743526459, 1.0455210208892822, -2.5146121978759766, -0.9842994809150696, 0.056720051914453506, -1.3727160692214966, 0.4861147999763489, 0.3092653453350067, -3.032741069793701, 0.7456499338150024, -1.7541340589523315, 0.2734324038028717, -0.2666340470314026, 1.3799962997436523, 2.8759257793426514, 1.7668930292129517, 0.2374580353498459, -0.07234494388103485, -0.9909371733665466, 1.1258366107940674, -0.7126629948616028, 0.25687575340270996, 0.6307830810546875, -0.755282461643219, -0.797848641872406, -0.8054839968681335, 1.988715410232544, 1.6988438367843628, -0.5283606648445129], [-1.5509154796600342, 0.23573625087738037, -0.8481547236442566, -0.30163469910621643, 0.37910276651382446, -0.09093785285949707, 0.9517095685005188, 1.2343534231185913, -0.7422465085983276, 1.039981484413147, 0.1719743013381958, -0.41055789589881897, 1.146702527999878, 1.166068434715271, -1.1020112037658691, 2.6064298152923584, 1.406264066696167, -1.603398323059082, -1.1929668188095093, -0.9180163145065308, 0.9971996545791626, -0.1618996411561966, 0.5266836881637573, -0.29529622197151184, 1.349371075630188, 1.2381577491760254, -1.2859270572662354, -0.8088678121566772, -0.3507057726383209, -0.9301395416259766, 0.7116032838821411, -0.6382929086685181], [1.1058945655822754, -0.6757602095603943, -1.3138012886047363, -1.5000743865966797, 0.8043066263198853, 0.6531291007995605, -0.859722375869751, -0.6502851843833923, 0.6207020878791809, -1.6006133556365967, 2.599238395690918, 0.47442111372947693, -1.7493094205856323, -0.7383381128311157, 1.4212737083435059, 1.2003408670425415, -0.36587828397750854, 1.728700041770935, -0.42408302426338196, -0.7106015682220459, -0.41248729825019836, -2.4525463581085205, -0.05436302721500397, 0.6297192573547363, 0.36881595849990845, -0.821770966053009, 0.692348301410675, 1.4377673864364624, -2.4471864700317383, -0.8384147882461548, 0.5141929388046265, -0.11305338144302368], [-1.6181542873382568, -0.6766360402107239, 1.5772820711135864, -1.710076093673706, 0.6824294328689575, 0.030068309977650642, 0.03073558397591114, 0.7917159199714661, -0.8873550295829773, 0.02225169725716114, 0.8774288892745972, 0.04127521067857742, 0.05660264939069748, -1.0852950811386108, 0.41479435563087463, -0.004508059471845627, -0.842210590839386, 1.6747736930847168, -2.3114254474639893, -0.20989492535591125, -0.5248273611068726, -0.5400970578193665, 0.5413467884063721, -0.9066776037216187, 0.806241512298584, -0.31617850065231323, 0.5609328746795654, -1.2728536128997803, -1.143093228340149, -1.8162236213684082, 1.3146249055862427, -0.8232564926147461], [1.1336902379989624, -0.3777770400047302, -0.3549574315547943, -0.3051908016204834, -1.6475090980529785, 0.6225919127464294, 0.7131745219230652, -0.4879879057407379, 0.09202884137630463, -0.8119461536407471, -0.8013073205947876, 0.5637884140014648, -0.3178950548171997, 0.37270811200141907, 0.8830425143241882, -0.5604570508003235, 0.19140464067459106, 0.6939541101455688, -1.2624540328979492, 2.2371649742126465, -0.4177400469779968, -0.5028554797172546, -1.3422980308532715, -1.1240513324737549, 0.11264161020517349, 0.25798988342285156, -1.1028099060058594, 0.9503939747810364, -1.4433081150054932, 0.6801685094833374, -0.2998605966567993, 2.3600754737854004], [-0.24797338247299194, 0.16780036687850952, -0.5426409244537354, -1.2413783073425293, -0.16264896094799042, -0.7173568606376648, 0.16449733078479767, 1.8686513900756836, 1.7289366722106934, -0.2388916313648224, 0.652636706829071, -0.6569555401802063, 0.6060365438461304, -1.3847278356552124, -0.2802489399909973, -0.3859785795211792, 0.43967387080192566, 0.8646565079689026, -1.741272211074829, -0.35580843687057495, 0.19957850873470306, -0.28811129927635193, -2.602762460708618, -0.8807669281959534, 0.7232111692428589, 0.7974426746368408, -1.083400011062622, -0.8934623003005981, -0.0044343494810163975, 0.07006601244211197, -0.7688365578651428, 0.782913863658905], [1.0984864234924316, -0.6766764521598816, -1.3997676372528076, 1.8056539297103882, -1.7463414669036865, -1.7026301622390747, -0.8949135541915894, 0.7817414999008179, -0.845704197883606, 0.9984549283981323, -1.3359296321868896, -1.4990010261535645, 1.2001729011535645, -0.8243781328201294, 1.4797511100769043, -0.6797586679458618, 0.2354823350906372, 0.17647624015808105, -0.9613955020904541, -0.8715245723724365, -0.8760616183280945, 0.42742180824279785, -0.1913651078939438, 1.885548710823059, 1.3242912292480469, 0.1813158541917801, -0.21951912343502045, -0.49362653493881226, 2.247769594192505, -1.5697667598724365, -0.9419683218002319, 1.3898464441299438], [0.5374841094017029, -0.5716841816902161, -0.9297114610671997, 0.09847468137741089, -1.1031274795532227, 2.6562108993530273, 1.0805460214614868, -0.0657401978969574, 0.009162421338260174, -0.8669960498809814, 1.2125065326690674, -0.884583592414856, 2.2045328617095947, -2.0559773445129395, 0.5249499082565308, 0.5599063038825989, 1.0820648670196533, 0.558594822883606, 0.3241632580757141, 0.23934049904346466, 0.769453763961792, -1.78972327709198, -0.8509826064109802, 0.4307902455329895, 1.9439042806625366, -0.4201361835002899, -1.8241266012191772, -1.6730369329452515, -1.7976876497268677, 0.6830958724021912, 0.674288809299469, 1.3754167556762695], [-1.2330933809280396, -0.5773285031318665, 0.7534770369529724, 1.0947175025939941, 2.4447669982910156, 0.7664623260498047, 0.0027658825274556875, -1.1810206174850464, -1.0320032835006714, -1.571667194366455, 0.07279621809720993, -0.340407133102417, -1.002168893814087, -0.3469333350658417, 0.9681479930877686, -0.4578537344932556, -0.3236961364746094, -0.5911643505096436, -1.778861403465271, 0.2725563645362854, 0.1112225130200386, -0.06716547906398773, -0.782447099685669, 0.9649553894996643, 0.05860813707113266, -0.5738756656646729, -1.6282315254211426, -0.1990882158279419, 0.1007661297917366, -0.6603458523750305, 0.37753307819366455, -1.079960584640503], [-0.7650787234306335, 0.7747135162353516, -0.5079694390296936, 0.9333927035331726, -0.4449388086795807, -1.097009301185608, 1.0329363346099854, 0.8657517433166504, 0.5819118618965149, 1.0569684505462646, 2.301926374435425, -0.15097227692604065, 1.2735651731491089, -1.324826955795288, -1.5913227796554565, 0.9127617478370667, 1.2917656898498535, -0.17893989384174347, 0.4897267818450928, -0.2912401258945465, -0.6063213348388672, -1.4983762502670288, -1.9385534524917603, 0.09175639599561691, 0.9775484204292297, -0.4683084785938263, 0.39362263679504395, -0.3615899085998535, 0.15515273809432983, 0.10477198660373688, 1.1238682270050049, 0.3277905285358429], [0.1822252869606018, 0.33217963576316833, -1.0573084354400635, 1.4300907850265503, 1.6077566146850586, 0.9651111960411072, -2.3498103618621826, 0.37905657291412354, 0.16420523822307587, -0.0946272611618042, -0.7451969981193542, -0.3624230623245239, -0.1384347826242447, -1.0509366989135742, 0.6941704154014587, 0.12779204547405243, 0.9672034978866577, 0.015174957923591137, -0.590640664100647, 1.8113372325897217, -0.17904366552829742, -0.7558493614196777, 0.4879094362258911, 0.9576842188835144, -0.6673389673233032, -1.544043779373169, 1.02128005027771, 1.8095563650131226, -0.4505991041660309, -1.0614938735961914, -0.49501100182533264, 0.04847275838255882], [0.27274012565612793, -0.08215060830116272, 1.3571544885635376, -0.37254470586776733, -1.4026480913162231, 0.8935366868972778, 0.8390855193138123, -0.2541891932487488, -1.2200019359588623, -2.1859982013702393, 1.105504035949707, 0.23360557854175568, 0.832747757434845, -2.072871685028076, -1.849677562713623, 0.34939172863960266, 1.9574213027954102, -0.005000988952815533, 1.101319432258606, 1.5079967975616455, -0.10450384020805359, -1.240195393562317, 2.119342803955078, -1.568891167640686, -0.17300838232040405, -0.9510145783424377, 0.3185608685016632, 0.6599891781806946, -1.4650564193725586, 0.6728996634483337, 0.8321356773376465, 0.3303946256637573], [0.5757421255111694, 2.2956809997558594, -2.4021553993225098, 1.1607908010482788, 0.22562973201274872, -0.9127956628799438, 0.37547871470451355, -1.8829113245010376, -1.0192768573760986, -0.12759949266910553, -1.374650239944458, -0.013494694605469704, -0.4124702215194702, 0.3869108557701111, 0.10728490352630615, 1.064483880996704, 1.5918471813201904, -0.07364627718925476, 2.695253610610962, 0.5409624576568604, -0.3214578330516815, -0.4950263798236847, -1.3655041456222534, -0.40840524435043335, -2.0434210300445557, 1.0303460359573364, -0.0716564953327179, 0.3233153820037842, 0.39551079273223877, 0.5642486214637756, 0.9063805937767029, 1.6179821491241455], [0.6760089993476868, -1.2722209692001343, 1.225898265838623, -1.1345422267913818, 0.7746642231941223, -1.3263555765151978, -0.5850588083267212, 1.378722071647644, 0.7584271430969238, 1.1960318088531494, 1.132446050643921, 0.48844078183174133, 0.321912944316864, -0.5376467704772949, -0.439805269241333, 1.156813621520996, 1.5533537864685059, 0.486463338136673, 0.7089252471923828, 0.29101303219795227, -1.3455455303192139, -2.646164655685425, 0.9983794689178467, -0.12366625666618347, -0.6916878819465637, -0.15816478431224823, -0.7075087428092957, -0.19910337030887604, -0.6455031037330627, 0.33019259572029114, 0.7972169518470764, -1.273726463317871], [0.010417002253234386, 1.0020259618759155, -0.279344767332077, -0.599773645401001, 0.5129591226577759, 0.20942550897598267, -0.3958582878112793, -0.7503807544708252, 0.34737688302993774, -0.9501296281814575, 0.16184353828430176, -1.0871634483337402, 0.2816181480884552, -1.7517390251159668, -0.7932646870613098, -2.700746774673462, 1.125339388847351, 0.48703062534332275, -0.7950835824012756, -0.5650581121444702, 0.566245436668396, 0.20019972324371338, 1.7652500867843628, 0.6471108794212341, -1.315327525138855, 0.6824113726615906, -1.261769413948059, -0.1933104246854782, -0.355226069688797, 0.8947317600250244, -0.357000470161438, 0.12598134577274323], [0.5773543119430542, -0.0009100607130676508, -0.8977808356285095, 0.4853980243206024, 0.9818112850189209, -0.6108874678611755, 0.36175835132598877, 