{"out_head.weight": [[-0.20458988845348358, 0.16084758937358856, 0.2275947779417038, -0.23077073693275452, 0.4336393177509308, -0.18165287375450134, -0.3041597306728363, 0.27187883853912354, -0.14498820900917053, 0.21278052031993866, -0.26902249455451965, 0.33025774359703064, -0.1107628345489502, 0.24112190306186676, 0.04124342277646065, -0.03697594255208969, 0.19357998669147491, 0.5001899600028992, 0.30035001039505005, -0.22456589341163635, -0.5852500200271606, 0.03819822520017624, -0.2719390094280243, 0.24676156044006348, -0.11282311379909515, -0.5781565308570862, -0.267550528049469, 0.10551302134990692, -0.002014647703617811, -0.2462996393442154, 0.030660251155495644, -0.40584442019462585], [-0.08701471239328384, -0.28201162815093994, 0.3777664005756378, 0.4066956043243408, 0.5679835677146912, 0.4191499948501587, 0.7065045833587646, -0.23640991747379303, 0.38793352246284485, 0.5363695025444031, -0.24852201342582703, -0.5500749945640564, 0.6027871370315552, 0.6775152087211609, -0.3851098120212555, 0.40010032057762146, 0.27564936876296997, 0.45832550525665283, 0.08610827475786209, -0.4431973993778229, -0.6144622564315796, -0.9832178354263306, -0.3355562388896942, -0.4967387020587921, -0.06576497107744217, -0.9046354293823242, 0.21799451112747192, -0.30049607157707214, 0.9660582542419434, -0.1828392595052719, -0.5395678281784058, -0.29885268211364746], [-0.15272843837738037, 0.2171761691570282, 0.1883845329284668, -0.22743406891822815, 0.44344115257263184, -0.24734726548194885, -0.3097726106643677, 0.31640225648880005, -0.2026948481798172, 0.2635715901851654, -0.27354100346565247, 0.2381977140903473, -0.1002953052520752, 0.21592263877391815, 0.11012046784162521, -0.05255500599741936, 0.1835789829492569, 0.499742716550827, 0.2574659585952759, -0.20908308029174805, -0.5643295049667358, 0.04149607568979263, -0.21289438009262085, 0.18828605115413666, -0.13774684071540833, -0.6594731211662292, -0.11959919333457947, 0.10687734931707382, 0.06944041699171066, -0.20204560458660126, 0.05154133215546608, -0.4219048321247101], [-0.18993914127349854, 0.17995046079158783, 0.19817988574504852, -0.28096580505371094, 0.32163774967193604, -0.3091775178909302, -0.22030885517597198, 0.3058250844478607, -0.23566295206546783, 0.2613150477409363, -0.41689401865005493, 0.2763475775718689, -0.14092881977558136, 0.14414913952350616, 0.089089535176754, -0.005898905452340841, 0.23590435087680817, 0.5166597962379456, 0.24851872026920319, -0.3760964572429657, -0.3903714120388031, 0.01371729839593172, -0.28567010164260864, 0.2918746769428253, -0.11789201945066452, -0.529331386089325, -0.16219879686832428, 0.12693221867084503, 0.08602360635995865, -0.18503515422344208, -0.04767715930938721, -0.5424947142601013], [0.3514009714126587, 0.17843465507030487, 0.19676728546619415, 0.19916971027851105, 0.12027724087238312, 0.27425116300582886, -0.4987504184246063, 0.8983237147331238, 0.876041829586029, 0.08414831012487411, 0.6733978390693665, 0.028171639889478683, 0.34919247031211853, -0.6536786556243896, 0.593166172504425, -0.5331051349639893, 0.8373586535453796, -0.27019229531288147, -0.1062597706913948, -0.9925395250320435, -0.4674507677555084, -0.10052687674760818, -0.4617778956890106, -0.6064121723175049, 0.08928390592336655, -0.4595787525177002, 0.0840282216668129, -0.9565137028694153, 0.07821836322546005, 0.04693412780761719, 0.10305905342102051, 0.14578095078468323], [0.3163738250732422, -0.08131895959377289, -0.15117761492729187, 0.11926572769880295, -0.28007569909095764, 0.1060715839266777, 0.45656517148017883, 0.023500243201851845, -0.022120511159300804, 0.1457788348197937, 0.4379017949104309, -0.23442821204662323, 0.31768321990966797, 0.3111310601234436, -0.0868087038397789, 0.46759846806526184, -0.3425765335559845, -0.48451128602027893, 0.035777777433395386, 0.5174275636672974, 0.5068564414978027, 0.22539189457893372, 0.2621508240699768, -0.13693925738334656, 0.17704789340496063, -0.47854605317115784, -0.07457856088876724, -0.10291953384876251, -0.34903788566589355, 0.19145451486110687, -0.218000128865242, -0.4867625832557678], [0.36170753836631775, 0.2616226375102997, -0.4556026756763458, 0.43203845620155334, -0.4643537998199463, 0.17557069659233093, 0.45399922132492065, -0.16378922760486603, -0.06022223085165024, -0.039421044290065765, 0.507530152797699, 0.0044968584552407265, 0.20727068185806274, -0.16574785113334656, -0.2642192542552948, 0.5933557748794556, -0.20234501361846924, -0.24066764116287231, 0.07909392565488815, 0.5460383296012878, 0.45984596014022827, -0.0685567632317543, 0.3493625819683075, -0.5773175358772278, 0.35015881061553955, 0.12369140982627869, -0.147857666015625, -0.3849567472934723, -0.5552580952644348, -0.04183131456375122, -0.42168939113616943, 0.2435617297887802], [-0.03716989606618881, 0.06372516602277756, 0.3601708710193634, -0.6295311450958252, 0.2238321304321289, 0.12674129009246826, -0.09904438257217407, -0.4371711015701294, -0.05487488955259323, -0.43873679637908936, 0.33135345578193665, -0.4918220341205597, 0.17055857181549072, -0.6051863431930542, -0.1436057984828949, 0.4563470482826233, 0.0843396708369255, -0.5037355422973633, -0.2740049362182617, -0.09129079431295395, -0.5079178810119629, -0.30915191769599915, -0.1626778393983841, 0.5040624737739563, -0.07679617404937744, 0.49805134534835815, 0.2130744606256485, 0.5180205702781677, 0.11932680755853653, 0.3611636161804199, 0.24111682176589966, 0.5977724194526672], [0.03155767172574997, -0.1969306617975235, 0.06468234211206436, 0.851656436920166, -0.39244937896728516, 0.03516382351517677, 0.2813533842563629, -0.4074706733226776, 0.20074303448200226, 0.22110849618911743, 0.19466078281402588, 0.32978948950767517, -0.40139240026474, 0.5111908316612244, -0.38918474316596985, -0.4290311634540558, -0.13239170610904694, -0.12339705973863602, 0.6030517816543579, 0.04348926246166229, 0.39735013246536255, 0.577807605266571, -0.15102995932102203, 0.05637286975979805, -0.44238975644111633, 0.0382659025490284, 0.10900283604860306, 0.5484806895256042, 0.06374966353178024, -0.3433956205844879, 0.43026280403137207, -0.38328367471694946], [-0.4226599335670471, -0.3531273603439331, -0.28962841629981995, -0.01897154375910759, 0.6371248364448547, 0.20227713882923126, 1.0249584913253784, 0.1852155476808548, -0.4283166229724884, 0.37556642293930054, 0.5269009470939636, -0.6982612013816833, -0.09667698293924332, 0.3804882764816284, 1.0678976774215698, 0.28730717301368713, -0.06915593147277832, 1.0091418027877808, -0.5906177163124084, -0.6081124544143677, -0.22877098619937897, -0.2484290599822998, -0.8767863512039185, 0.19488772749900818, 0.1991027146577835, -0.4173467755317688, 0.7451786994934082, 0.12113770097494125, -0.9584048390388489, -1.1951409578323364, 0.8219605088233948, -0.747249960899353], [-0.8188250064849854, -0.06757856905460358, 0.26500076055526733, 0.5988398194313049, 0.541949987411499, -0.704243004322052, 0.0920986458659172, -0.6447521448135376, -0.01740049198269844, -0.3572928011417389, 0.07665137201547623, 1.3371167182922363, -0.35449454188346863, 0.5245022773742676, 0.8655116558074951, -0.8339697122573853, 0.02950247935950756, -0.14382506906986237, 0.8208678364753723, -0.2703363001346588, 0.9421531558036804, -0.4647442698478699, -0.909031867980957, -0.12865935266017914, 0.3077090084552765, -1.4381518363952637, 0.4263577163219452, -0.010252449661493301, -0.820554792881012, 0.15915147960186005, 0.5385363698005676, 0.4806970953941345], [0.382144957780838, 0.1725737750530243, 0.3286347985267639, 0.2724725902080536, -0.6939615607261658, 0.5623579025268555, -0.0854499340057373, 1.0252028703689575, -0.5064372420310974, -0.6567140817642212, 0.448537141084671, -0.28258609771728516, -0.2063988298177719, 0.3187255561351776, 0.30595865845680237, -0.05665293335914612, -0.23360690474510193, 0.33038005232810974, -0.40973666310310364, -0.1544456034898758, -0.24186602234840393, -0.17530333995819092, 0.017262104898691177, -0.014496680349111557, 0.3690938949584961, 0.22720389068126678, 0.8482884764671326, -0.25899359583854675, -0.5084917545318604, -0.3001466691493988, 0.7305456399917603, 0.29040956497192383], [0.4710831642150879, -0.051289789378643036, 0.3190750181674957, -0.0685529112815857, -0.23078632354736328, 0.23092426359653473, -0.021565528586506844, 0.6276906728744507, -0.2103436440229416, 0.783847987651825, 0.10506191104650497, -0.06891656666994095, 0.6268478035926819, -0.12511780858039856, -0.32490161061286926, -0.18503053486347198, 0.44043517112731934, 0.07254946976900101, 0.6665646433830261, -0.7231963276863098, -0.5010895729064941, 0.33078834414482117, -0.5329004526138306, 0.4237537980079651, 0.2940300405025482, -0.840431809425354, -0.07937455177307129, 1.1722726821899414, -0.49326375126838684, -0.659288763999939, 0.11152462661266327, -0.5051388144493103], [-0.17415519058704376, -0.2626921236515045, -0.30976685881614685, 0.20835931599140167, 0.7589948177337646, -0.6892268657684326, 0.049926310777664185, -0.01931985840201378, -0.35687577724456787, -0.14258132874965668, -0.8498347997665405, 0.5887001156806946, 0.5942012667655945, -0.3704574704170227, 0.010895472951233387, 0.28543126583099365, 0.8172503709793091, 0.706451416015625, 0.8331656455993652, -0.6160672903060913, -0.465053915977478, 0.09416833519935608, 0.08501923829317093, -0.22455112636089325, -0.1822895109653473, -0.65735924243927, -0.170657217502594, -0.7446572184562683, -0.570079505443573, -0.6500510573387146, 1.0186049938201904, -0.16401849687099457], [0.0979875773191452, -0.5653459429740906, 0.13742250204086304, 0.0018218111945316195, 0.31441351771354675, 0.16454914212226868, -0.08968455344438553, -0.6206505298614502, -0.3498975932598114, -0.45014703273773193, 0.006863399874418974, 0.25136682391166687, 0.3637641370296478, -0.13985158503055573, -0.4180181324481964, -0.3297014832496643, -0.34968674182891846, -0.14378167688846588, -0.7356564998626709, -0.6949408650398254, -0.10208036750555038, 0.22756662964820862, 0.39586931467056274, -0.0992928147315979, 0.23479309678077698, 0.5457872152328491, 0.4217294752597809, 0.4605359137058258, 0.5014090538024902, 0.33407655358314514, -0.1329285204410553, 0.35374540090560913], [-1.0781728029251099, 0.5166100263595581, 1.067297339439392, 0.32459700107574463, 0.4253630042076111, 0.28563955426216125, 0.10365287959575653, 0.001514716655947268, -0.3781728446483612, -0.1906755566596985, -0.22013668715953827, -0.3840234875679016, -0.4203328490257263, 0.06430841237306595, 0.23540039360523224, 0.2035249024629593, 0.3370327353477478, 1.1080774068832397, 0.9200976490974426, 0.08222747594118118, -0.4587249159812927, 0.48540574312210083, 0.24180035293102264, 0.7859033346176147, 0.3432636857032776, -1.0040639638900757, -0.45169153809547424, -0.606856107711792, -1.1331565380096436, -0.5622935891151428, 0.6961746215820312, -0.7828384637832642], [0.051455698907375336, 0.6436144113540649, -0.1591137796640396, 0.1641702651977539, -0.3445880115032196, 0.06428156048059464, 0.2423078864812851, 0.8408405780792236, -0.2809627950191498, 0.03289831429719925, 0.21726557612419128, 0.05634836480021477, 0.005422601941972971, -0.21601518988609314, -0.3777604401111603, 0.49952131509780884, -0.2671894431114197, -0.04669369012117386, -0.24633128941059113, 0.3896366357803345, 0.425132691860199, -0.06871713697910309, 0.2897302508354187, -0.4649668037891388, 0.031274184584617615, 0.1675233542919159, -0.3463662564754486, -0.3285066485404968, -0.42603349685668945, 0.4050200283527374, -0.08930174261331558, 0.2606113851070404], [-0.3954885005950928, 0.4896559715270996, 0.30347973108291626, -0.5173799991607666, 0.4497295320034027, 0.1703711301088333, -0.211922749876976, -0.11457131803035736, 0.22841396927833557, -0.31041714549064636, 0.3776582181453705, -0.366826593875885, -0.0675760805606842, -0.0870574414730072, -0.0943346917629242, 0.3164971172809601, 0.2754705846309662, -0.2529068887233734, -0.16778554022312164, -0.36409467458724976, 0.11758540570735931, -0.12243957072496414, 0.2582436800003052, 0.3303758203983307, 0.09275834262371063, 0.03605453670024872, 0.41204825043678284, 0.34032532572746277, -0.21221452951431274, 0.12988652288913727, 0.17036038637161255, -0.47455739974975586], [-0.5498901605606079, 0.6952943801879883, -0.26510435342788696, -0.29078367352485657, 0.011807444505393505, -0.327491819858551, -0.46723875403404236, -0.3080623149871826, -0.8596097826957703, 0.008685529232025146, 0.34731584787368774, 0.3632832169532776, -0.5711138844490051, -0.3412645757198334, 0.2710208594799042, 0.706746518611908, -0.1839248239994049, 0.7513229846954346, 0.027259882539510727, 0.5535280108451843, 0.35585179924964905, -0.0672370120882988, -0.4514153301715851, 0.7221773266792297, 0.4295037090778351, -0.2003200203180313, -0.5304377675056458, -0.05806087702512741, 0.5712965130805969, 0.13038548827171326, 0.025089574977755547, -0.7887981534004211], [-0.8866284489631653, -0.2388845533132553, -0.25015854835510254, 0.8024182319641113, 0.014002900570631027, 0.3506617546081543, -0.12639328837394714, 0.04205794632434845, -0.43112459778785706, -0.5609086155891418, -0.7911912202835083, -0.5957616567611694, 0.06493624299764633, 0.5344018936157227, -0.43657606840133667, 0.24481013417243958, -0.013025352731347084, 0.22253203392028809, -0.08332610130310059, 0.25775009393692017, 0.07571261376142502, 0.5226965546607971, 0.26257115602493286, 1.0240117311477661, 0.09984671324491501, 0.7631024122238159, -0.5418767333030701, -0.11341103911399841, 0.2895318269729614, 0.4896066188812256, 0.42626044154167175, -1.326184868812561], [-0.5577855110168457, 0.29421481490135193, -0.012379173189401627, -0.3171682059764862, 0.5728934407234192, -0.02922113984823227, -0.4337373673915863, -0.026127664372324944, 0.13719947636127472, 0.1456843912601471, -0.559826135635376, 0.6490772366523743, -0.5380447506904602, 0.7372344136238098, 0.6614975929260254, -0.23786143958568573, -0.16165493428707123, 0.6428429484367371, 0.1475246697664261, 0.4301641881465912, -0.6480255126953125, -0.14489459991455078, 0.432467520236969, -0.49158939719200134, 0.3311203420162201, 0.4803193509578705, -0.9657033085823059, -0.2987493872642517, 0.2720984220504761, -0.8380873203277588, 0.4118247628211975, -0.5042855739593506], [0.31314605474472046, -0.327950656414032, 0.055917758494615555, -0.1751837581396103, -0.1486721634864807, 0.08218523114919662, -0.8278031945228577, -0.3241712749004364, 0.07474397122859955, 0.7870194315910339, -0.09278182685375214, 0.06816894561052322, 0.009134519845247269, 0.11291219294071198, 0.2471192479133606, 0.4112575650215149, 0.008795677684247494, 1.0323878526687622, -0.6111173629760742, -0.6129416227340698, 0.4306395649909973, 0.02366865985095501, 0.3252021074295044, 0.5069926977157593, -0.40149733424186707, -0.4591331481933594, -0.96975177526474, 0.5194950103759766, 0.4615068733692169, -0.07934238761663437, 0.21568961441516876, -0.345831036567688], [-0.32763275504112244, 0.5568403601646423, -0.12387228012084961, -0.4922112822532654, -0.6447400450706482, 0.719809353351593, -0.0693853572010994, 0.15274178981781006, 0.49143680930137634, 0.9491284489631653, -0.9979374408721924, 0.7158916592597961, 0.7889226675033569, 0.6513901948928833, 0.7436927556991577, -0.26782578229904175, 0.9699283242225647, -0.5127644538879395, -0.6954675912857056, -0.3514045178890228, -0.8827590942382812, 0.6097298860549927, -0.2057267427444458, -0.5276167392730713, 0.20021966099739075, -1.1988383531570435, 0.27291250228881836, -0.12498485296964645, -0.32126128673553467, -0.3057429790496826, -0.35581594705581665, -1.0106961727142334], [0.5260864496231079, -0.5355833768844604, -0.36402496695518494, 0.19497424364089966, 0.6410718560218811, -0.7485715746879578, -0.6193419694900513, -0.3960445523262024, 0.5325319766998291, -0.11752374470233917, -0.5082206726074219, 0.5701515674591064, 0.12184680998325348, -0.046613629907369614, 0.48661673069000244, 0.5660877227783203, 0.3457323908805847, 0.9245463013648987, 0.6946204304695129, 0.27664440870285034, 0.05211535841226578, 0.39358267188072205, -0.33122560381889343, -0.0028393492102622986, -0.25880712270736694, 0.33837682008743286, -0.30751916766166687, -0.6164095401763916, -0.011833024211227894, -0.16017326712608337, -0.3467164635658264, -0.0447155237197876], [0.7618622779846191, 0.061991140246391296, -0.2643245756626129, -0.45035403966903687, -0.3338060975074768, -0.047669973224401474, 0.2795872688293457, 0.6686954498291016, 0.012569714337587357, 0.2116442620754242, -0.21251793205738068, 0.10320069640874863, -0.7360080480575562, 0.35343748331069946, 0.19883203506469727, -0.04586319252848625, 0.8573853969573975, -0.04029238969087601, -0.6364542245864868, 0.48937538266181946, 0.10653859376907349, 0.27044323086738586, 0.44058647751808167, -0.401905357837677, -0.6710085868835449, 0.326542466878891, 0.47845974564552307, 0.18856628239154816, -0.4015396535396576, -0.30186063051223755, -0.3867788314819336, 0.36724138259887695], [0.394225150346756, 0.3864681124687195, 0.007851425558328629, 0.42335161566734314, -0.3428465723991394, 0.33211562037467957, 0.41594013571739197, -0.26278045773506165, -0.5010173320770264, 0.3587680459022522, 0.01883518695831299, -0.30158624053001404, -0.06626240909099579, -0.16650088131427765, 0.8836731910705566, 0.5197263360023499, -0.563113272190094, -0.24136461317539215, -0.023798974230885506, 0.341264009475708, 0.2715940773487091, -0.40735799074172974, 0.508632242679596, -0.6535013318061829, 0.2642277181148529, 0.013342250138521194, -0.1767226904630661, -0.12724508345127106, -0.4077082872390747, 0.2342839539051056, 0.14283809065818787, 0.28064292669296265], [0.3542380928993225, 0.24128325283527374, 0.5196115374565125, -0.2601383626461029, 0.3757613003253937, 0.2075796127319336, -0.07983120530843735, -0.04165599122643471, -0.46264857053756714, 0.3546978533267975, 0.16451098024845123, -0.2088140994310379, -0.37847042083740234, -0.2284345030784607, -0.347931444644928, 0.34162282943725586, -0.2995533347129822, -0.10422570258378983, -0.13871808350086212, 0.2131163477897644, -0.31426283717155457, 0.1409383863210678, -0.29909393191337585, 0.3116031587123871, -0.3848659098148346, 0.14813384413719177, 0.09579335153102875, -0.1163608580827713, -0.054850175976753235, -0.40441232919692993, 0.2740320563316345, 0.04099377617239952], [0.39922472834587097, -0.5697564482688904, 0.06123713403940201, 0.9037647247314453, 0.15664683282375336, 0.3320867717266083, 0.5776097178459167, 0.5630841851234436, 0.4745014011859894, 0.25348952412605286, -1.6176650524139404, 0.40945762395858765, -0.03558991849422455, 0.20478734374046326, -0.17999009788036346, -0.3324371576309204, 0.40792515873908997, -0.671811580657959, 0.7263275384902954, -0.9466214179992676, 0.5201467275619507, -0.42923834919929504, 0.09382707625627518, 0.4018366038799286, 0.4849447011947632, -0.5423693656921387, -0.03287140652537346, 1.0167663097381592, 0.19931897521018982, -0.8056509494781494, -0.5841479897499084, -0.8779711127281189], [0.21491491794586182, -0.2970183491706848, 0.5011205673217773, -0.40444129705429077, -0.25770044326782227, -0.6554870009422302, 0.05298147723078728, 1.090915322303772, -0.6850252747535706, -0.037281762808561325, -0.17616049945354462, 0.5072692632675171, -0.6934685707092285, 0.2738381028175354, -0.5014251470565796, 0.2170051634311676, 0.014930152334272861, 0.8264533281326294, 0.19718687236309052, -0.1063867062330246, -0.08052949607372284, 0.7211054563522339, 0.8435268998146057, -0.027673516422510147, -0.7897235751152039, -0.5912579298019409, -0.8574653267860413, -0.5120870471000671, 0.4220925569534302, -0.1688835769891739, -0.07407570630311966, 0.13370802998542786], [0.20838330686092377, 0.48358145356178284, -0.7497798204421997, -0.830845057964325, 0.13027971982955933, -0.2751987874507904, 0.1977127641439438, 0.827174186706543, 0.3305387794971466, -0.1640787571668625, -1.0521221160888672, -0.03854433447122574, 0.6931765079498291, 1.0600461959838867, 0.29125696420669556, -0.5791729092597961, -0.5918172001838684, 0.9033957719802856, 0.2704019844532013, -0.10382120311260223, 0.07323968410491943, -0.06616770476102829, 0.2672733664512634, -0.020931124687194824, -0.6746879816055298, -0.23778964579105377, -0.8731911182403564, -0.018962211906909943, -0.08345784991979599, 0.2882751226425171, -0.08220765739679337, -0.12383417785167694], [0.11946761608123779, -0.13793271780014038, -0.10852427035570145, -0.03700771555304527, -0.09218130260705948, 0.19032734632492065, 0.1732606589794159, -0.12929540872573853, -0.0707944929599762, -0.07245542854070663, 0.1396036297082901, -0.1902986764907837, 0.23182690143585205, 0.1166185736656189, 0.13779324293136597, 0.3417486250400543, -0.2708589434623718, -0.15728425979614258, 0.05690809339284897, 0.24118413031101227, 0.2266075611114502, 0.2271185666322708, 0.1379775106906891, -0.13513222336769104, 0.15105025470256805, -0.5202443599700928, -0.10634151101112366, -0.1261441707611084, -0.309450626373291, 0.09097514301538467, -0.27902913093566895, -0.5275235176086426], [0.8038303852081299, -0.8149169087409973, -0.541356086730957, -0.25645262002944946, 0.24049808084964752, -0.4086455702781677, 0.8374531865119934, -0.3154982030391693, -0.2299058735370636, -0.012145043350756168, -0.3826356530189514, 0.9363343119621277, -0.6352598667144775, 0.9644399881362915, 0.8018602728843689, -0.382900595664978, 1.1481928825378418, -0.1449665129184723, 0.15222862362861633, -0.1158505231142044, -0.548225462436676, -0.6025789380073547, -0.24625195562839508, -0.5169997811317444, 0.10652022063732147, -0.37842679023742676, -0.17511187493801117, 0.07358172535896301, 0.018054679036140442, -0.656550407409668, -0.6073482632637024, 0.4299129247665405], [-0.2370101511478424, 0.6764418482780457, -0.2148207128047943, -0.48620083928108215, 0.3117236793041229, -1.1715859174728394, -0.2278933972120285, -0.7800226211547852, 0.016502926126122475, 0.34050413966178894, 0.15628108382225037, 0.27146297693252563, -0.2454032152891159, 0.4939679503440857, 0.46098485589027405, 0.3657441735267639, -0.07982643693685532, 0.7719801068305969, -0.37030261754989624, 0.1438784897327423, -1.0202512741088867, 0.6056972146034241, -0.3494914770126343, 0.312971293926239, -0.439992755651474, -0.20059731602668762, 0.2745998799800873, -0.34537217020988464, -0.4799274504184723, -0.036175165325403214, 0.4749683439731598, -0.40360644459724426], [0.23493556678295135, 0.054348863661289215, -0.5096166729927063, -0.6949575543403625, -0.40652817487716675, -0.6579790711402893, -0.012879517860710621, -0.26803624629974365, 0.11924581974744797, -0.35407713055610657, -0.1025601327419281, 0.29244306683540344, -0.7503142952919006, 0.469519704580307, 1.4141826629638672, 0.18351958692073822, 1.119206428527832, 0.8509941697120667, -0.22854389250278473, -0.18698176741600037, 0.313616007566452, 0.5632263422012329, 0.5583105087280273, -0.1729048192501068, 0.0605795793235302, -0.9850624799728394, -0.2623319625854492, -0.8840115666389465, 0.3979770243167877, 0.6356062293052673, 0.5666808485984802, -1.0160377025604248], [0.17264805734157562, -0.5817566514015198, 0.2603054642677307, 0.1357172578573227, -0.12660877406597137, -0.2962256371974945, 0.45241254568099976, -0.283323734998703, 0.3410096764564514, -0.4479081928730011, 0.07316824793815613, 0.5010524392127991, 0.6771888136863708, 0.0945231169462204, 0.2242581993341446, -0.576324999332428, -0.2417592704296112, -0.2961753010749817, -0.21425822377204895, -0.36812204122543335, -0.24142871797084808, 0.4492132067680359, -0.6111763715744019, 0.6072821021080017, 0.5892320871353149, 0.021382300183176994, -0.08019378781318665, -0.16199804842472076, 0.5753318071365356, 0.37224388122558594, -0.6217297315597534, -0.11469793319702148], [-0.7031816840171814, 0.7652864456176758, 0.032956477254629135, 0.06237358599901199, 0.8652087450027466, -0.20862799882888794, 0.8078950047492981, 0.31664571166038513, -0.044312018901109695, 0.49355700612068176, -0.3905298411846161, 0.5107079744338989, 0.3166867792606354, -0.01122110616415739, 0.6261986494064331, -0.6216222643852234, 0.25189319252967834, 1.2495323419570923, -0.3404763638973236, -0.08055245131254196, -0.04959235340356827, 0.25625085830688477, 0.1783672422170639, -0.7489457130432129, -0.666528582572937, -0.9522801041603088, -0.7764002084732056, -0.9395859837532043, -0.44616541266441345, -0.5411704182624817, -0.6451444029808044, -0.036131955683231354], [0.5651135444641113, -0.10102102905511856, 0.009696435183286667, -0.31316399574279785, -0.07577770203351974, 0.19690334796905518, 0.22284211218357086, 0.2623882293701172, -0.13634520769119263, 0.1321241706609726, 0.4220438599586487, 0.22225914895534515, 0.5158480405807495, 0.3578628897666931, -0.31477317214012146, 0.35296347737312317, -0.49963268637657166, 0.019966095685958862, -0.8205684423446655, 0.025523535907268524, 0.5610033273696899, 0.03655260428786278, 0.059831805527210236, -0.38022851943969727, 0.09944936633110046, -0.8565112352371216, -0.12639202177524567, -0.3687511086463928, -0.04630851000547409, -0.1412246972322464, -0.612091600894928, -0.4201102554798126], [-0.6404860019683838, -0.06764131039381027, -0.06407464295625687, 0.01889844238758087, 0.6439558863639832, -0.718433678150177, -0.0029065883718430996, 0.17141371965408325, -0.11460831016302109, -0.18388916552066803, 0.351406067609787, 0.9911545515060425, 0.30009663105010986, 0.179634690284729, -0.45226818323135376, 0.5227468609809875, -0.04084840416908264, 0.8503909111022949, -0.7303816676139832, 0.23207519948482513, -0.1858881115913391, 0.7729237675666809, -0.2294655293226242, -0.061580922454595566, -0.17683006823062897, -0.3433588445186615, -0.1729087084531784, -0.36671650409698486, -0.28048548102378845, -0.3050442636013031, -0.3622640073299408, -0.5029621124267578], [0.31844258308410645, 0.5264853835105896, -0.3405300974845886, -0.5305825471878052, 0.03805341199040413, -0.0647607073187828, 0.4422711133956909, 0.16328531503677368, -0.194982647895813, -0.3801085650920868, -0.32048720121383667, 0.20631644129753113, -0.3254745304584503, 0.8198662996292114, 0.7995367646217346, -0.20441573858261108, 0.038667187094688416, -0.019501913338899612, 0.11967642605304718, -0.45785412192344666, -0.013399028219282627, 0.6999496817588806, -0.6444412469863892, -0.32547733187675476, -0.6968832015991211, -1.2122490406036377, -0.04241662099957466, 0.24134086072444916, 0.38707175850868225, -0.04433250054717064, 0.16442865133285522, 0.23465892672538757], [-0.49053817987442017, -0.49662521481513977, 0.43356943130493164, -0.7677279114723206, 0.7205485105514526, -0.8048709630966187, 0.1705830842256546, -0.280741423368454, -1.007672667503357, 0.13765861093997955, -0.4902467727661133, 0.7625157833099365, 0.5224966406822205, 0.3507271409034729, 0.47777166962623596, 0.20968900620937347, 0.8744600415229797, 0.19880478084087372, -0.05109896510839462, 0.05533898249268532, -0.07481063902378082, 0.07520750164985657, -0.3393283486366272, -0.14877931773662567, -0.09673631936311722, -0.6789281964302063, -0.6192709803581238, -0.04644220322370529, 0.07987376302480698, 0.4315023124217987, -0.05446832627058029, -0.35792845487594604], [0.18317916989326477, -0.18461166322231293, 1.1383390426635742, 0.4100116491317749, 0.31904077529907227, -0.47586143016815186, 0.13361389935016632, 0.4623939096927643, -0.9564773440361023, 0.5883272290229797, -0.5803361535072327, -0.13599425554275513, -0.09522759914398193, 0.3723669946193695, 1.0733752250671387, -0.05931143835186958, 0.15833324193954468, 0.41254785656929016, 0.8933383226394653, -0.47813838720321655, -0.45647236704826355, 0.12348564714193344, 0.6861384510993958, -0.23177668452262878, 0.2200581431388855, -0.7221585512161255, 0.23519732058048248, 0.8707780241966248, 0.1803707778453827, -1.375518798828125, -0.00025982127408497036, -0.46261218190193176], [-0.21239420771598816, 0.9548181295394897, 0.16605708003044128, -0.8130001425743103, 0.49166563153266907, -0.2962237000465393, 0.2966357469558716, 0.220681294798851, -0.29173991084098816, 0.3409861624240875, -0.8780534267425537, -0.21896585822105408, 0.5541463494300842, -0.21567566692829132, -0.24504701793193817, -0.4579906165599823, -0.3290610909461975, 0.8015615344047546, 0.4646300673484802, -0.2607435882091522, 0.4300818145275116, -0.506860077381134, 0.12627436220645905, -0.2533518671989441, -0.5851916670799255, -0.7620567679405212, -0.5656954050064087, 0.09788715839385986, 0.43601885437965393, -0.23385493457317352, 0.7033334374427795, 0.2932549715042114], [0.2397686392068863, -0.3163900375366211, -0.23494666814804077, -0.38446494936943054, 0.02302723377943039, -0.163507878780365, 0.281812846660614, -0.0982203558087349, -0.16629114747047424, 0.3669854998588562, 0.25903892517089844, -0.15718601644039154, 0.19670793414115906, 0.2899688184261322, -0.19863054156303406, 0.19794701039791107, -0.24226230382919312, -0.1225375384092331, -0.04858651012182236, 0.16563566029071808, 0.32447171211242676, 0.2601828873157501, 0.21363288164138794, -0.09360983967781067, 0.1057501807808876, -0.5106629729270935, -0.21639738976955414, -0.16949458420276642, -0.2902824580669403, 0.1609647125005722, -0.31816133856773376, -0.4796522259712219], [0.16589359939098358, 0.006803332827985287, 0.5863990187644958, 0.003064327873289585, 0.38753166794776917, -0.23493501543998718, 0.4790225028991699, 1.0519596338272095, -0.7464237809181213, -0.10984788835048676, -0.6000120043754578, 0.5873949527740479, -0.20880255103111267, 0.5233401656150818, -0.5827975273132324, -0.2873363494873047, -0.07709766924381256, 0.08316542208194733, -0.02127252146601677, -0.08645781874656677, 0.13089893758296967, -0.3014867603778839, -0.6992313265800476, 0.7686517238616943, -0.2500517964363098, 0.10478003323078156, -0.3003495931625366, 0.7452670931816101, -0.6156251430511475, -0.45323723554611206, 0.3435260057449341, -0.08904045075178146], [0.1588592827320099, -0.10496468096971512, -0.21671530604362488, -0.04547463729977608, 1.5871870517730713, -1.2659687995910645, -1.0731569528579712, 0.21259865164756775, -0.6583266854286194, 0.5230998396873474, -0.4971015453338623, -0.6231461763381958, 0.6138638257980347, -0.26787567138671875, 0.24827706813812256, 0.20040282607078552, 0.5812498927116394, 0.9263150095939636, 0.6210196614265442, -0.5564535856246948, 0.16557803750038147, -0.7538753151893616, 0.1830674558877945, -0.17794674634933472, -0.058749280869960785, 0.5331483483314514, 0.007242645137012005, -0.2748147249221802, -0.6660459637641907, 0.049564179033041, -0.3018133342266083, 0.08545784652233124], [-0.6668996214866638, -0.26218825578689575, 0.11578895896673203, 0.252431720495224, 0.9561658501625061, -0.5714442133903503, -0.5226265788078308, 1.0309512615203857, -0.606947124004364, 0.4202563166618347, -1.3927501440048218, 0.5966297388076782, 0.28764212131500244, 0.45349133014678955, -0.6300678849220276, 0.900882363319397, -0.22995582222938538, -0.26690882444381714, 0.20013022422790527, -0.36509671807289124, -0.609937310218811, -0.10201982408761978, 0.47007060050964355, 0.16868039965629578, -0.4221250116825104, 0.27318570017814636, 0.04143751412630081, -0.4462888240814209, -0.46254196763038635, 0.05716618150472641, 0.7083181738853455, -0.8992810249328613], [-0.17349426448345184, 0.2986341714859009, -0.3829655051231384, 0.5566499829292297, 1.0451805591583252, 0.1818527728319168, -0.16651219129562378, 0.5027825832366943, -0.7425644397735596, -0.11837314069271088, 0.3386533260345459, 0.04206134006381035, -1.1051459312438965, 0.1184745654463768, 0.1763504296541214, -0.4257167875766754, -0.47276756167411804, -0.17769265174865723, 0.9357156753540039, -0.1836397647857666, -0.09339631348848343, -0.416532427072525, 0.5410498380661011, 0.979745626449585, 0.95149827003479, -0.25140273571014404, -0.24663302302360535, -0.5293470621109009, -0.44751402735710144, 0.1709255427122116, -0.539732813835144, -0.644745409488678], [0.20692481100559235, 0.8832688331604004, 0.044603295624256134, -0.7549545764923096, 0.5363070368766785, 0.15654614567756653, -0.05532695725560188, 0.663543701171875, 0.2781406342983246, 0.013016071170568466, -0.19683429598808289, 0.8320650458335876, -0.8127179145812988, -0.5081772208213806, -0.4579628109931946, -0.05449569225311279, -0.22251927852630615, 0.3144126832485199, 0.6346259713172913, -0.6371329426765442, 0.026675133034586906, -0.580004870891571, -0.4539704918861389, 0.34560346603393555, -0.9280404448509216, -0.11258959770202637, 0.6815816164016724, -0.326179176568985, 0.30107682943344116, 0.40774449706077576, -0.5169414281845093, -0.2633688151836395], [0.16053949296474457, 0.12511824071407318, -0.26968997716903687, 0.5961182713508606, -0.14836369454860687, -0.4870971143245697, -0.19047190248966217, 0.9123724102973938, 0.5848039388656616, 0.38521966338157654, -0.5141319632530212, 0.3531535565853119, -0.9039018750190735, 0.5179865956306458, -0.23838098347187042, 0.20924817025661469, -0.41903433203697205, 0.3791140615940094, -0.5427371263504028, -0.3378969430923462, -0.4871521294116974, -0.5697596073150635, -0.2537112534046173, 0.4275820255279541, -0.4013187885284424, -0.6125332117080688, 0.34710225462913513, 0.7326921224594116, -0.3917407989501953, -0.5617029070854187, 0.1063450425863266, -0.5219440460205078], [0.4624805450439453, -0.4183625280857086, -0.0764252170920372, 0.07290132343769073, -0.40201079845428467, -0.279523104429245, -0.6348578333854675, 0.3326556086540222, 0.18938903510570526, -0.6501410007476807, -0.8439130783081055, 0.6751336455345154, -0.7317710518836975, 0.04589970037341118, -0.4621773958206177, 0.9914265275001526, 0.3187869191169739, 1.0849082469940186, 0.05961058661341667, 0.25394245982170105, -0.2747594118118286, -0.6090056896209717, -0.5017610788345337, -0.20264063775539398, 0.48679497838020325, -0.30521056056022644, 0.5717483162879944, 0.23970869183540344, 0.7198663949966431, -0.7049254179000854, 0.1951567530632019, 0.4822355806827545], [-0.41698989272117615, 0.819426417350769, 0.07546386867761612, 0.6175312399864197, 0.3345167934894562, -1.017114281654358, -0.8817172646522522, 0.8468218445777893, -0.6896818280220032, 0.6139211058616638, -0.07662337273359299, 0.2729734778404236, -0.175616055727005, -0.04939667880535126, -0.16597338020801544, -0.20815367996692657, -0.5751718878746033, 0.29617631435394287, 0.4836457669734955, -0.4829767644405365, -0.6699227094650269, 0.22212517261505127, -0.4300132691860199, 0.26617372035980225, -0.6061630845069885, 0.09484834969043732, -0.20878612995147705, -0.15650594234466553, 0.7213712930679321, 0.2387555092573166, -0.016727974638342857, 0.24788671731948853], [-0.0297293309122324, -0.40571168065071106, -0.8740234375, -0.3029949367046356, -0.17780917882919312, -0.2660329341888428, 0.22811798751354218, 0.04276442155241966, 0.1303396224975586, 0.1637072116136551, 0.2898274064064026, -0.12800903618335724, 0.21669110655784607, 0.7825772762298584, -0.9433146715164185, 0.33472904562950134, -0.12050153315067291, -0.33706134557724, -0.2927144169807434, 0.16343477368354797, 0.4959081709384918, 0.31511086225509644, 0.14111866056919098, -0.39101529121398926, -0.32399141788482666, -0.7246248126029968, 0.14860783517360687, 0.31145578622817993, 0.05474631488323212, 0.5045416355133057, -0.17873124778270721, -0.478885293006897], [0.19427061080932617, 0.1323147714138031, 0.5358424186706543, -0.4087109863758087, 0.04386428743600845, 0.0843878909945488, 0.05871310457587242, 0.23234160244464874, -0.0740898996591568, 0.08362352102994919, 0.4332560896873474, -0.056106340140104294, -0.10265230387449265, -0.44380810856819153, -0.3575004041194916, -0.015372837893664837, 0.127714142203331, -0.07030162215232849, 0.24592386186122894, 0.10298682749271393, -0.4207415282726288, -0.49589529633522034, 0.02223009057343006, 0.5374840497970581, -0.21137066185474396, 0.13780154287815094, -0.3398286700248718, -0.01782010681927204, 0.10929899662733078, 0.09818210452795029, -0.4397045373916626, 0.33192577958106995], [0.210667684674263, -0.23804619908332825, 0.4963865280151367, 0.11297280341386795, 0.744088351726532, -0.6249330639839172, -0.6630135774612427, 0.4579084813594818, -0.6228914260864258, 0.6945081949234009, 0.19788914918899536, 0.290721595287323, -0.5500812530517578, 0.4401969611644745, 0.31425705552101135, -0.6373334527015686, 0.18858972191810608, -0.30449894070625305, 0.7273378968238831, 0.12733536958694458, -0.4499339461326599, -0.09661881625652313, 0.43247663974761963, -0.5280686020851135, 0.20534241199493408, 0.17574287950992584, 0.3800693154335022, 0.5217860341072083, -0.06374090909957886, -0.29212507605552673, 0.020696192979812622, -0.6669569611549377], [0.7573073506355286, -0.08799684047698975, -0.4532974064350128, 0.8227854371070862, 0.22469140589237213, -1.097011685371399, -0.19237148761749268, 0.47580477595329285, -0.23469266295433044, 0.14733554422855377, 0.3248561918735504, 0.007881475612521172, -0.7881037592887878, 0.36594781279563904, 0.46535322070121765, 0.1048966720700264, 0.37283456325531006, 0.7205708622932434, -0.28848370909690857, 0.35511961579322815, -0.8051506280899048, -0.6006755828857422, 0.018017038702964783, 0.984400749206543, 0.13413670659065247, -0.456993043422699, 0.19760827720165253, 0.35638755559921265, 0.008350325748324394, -0.21484827995300293, 0.4211190938949585, -0.5482476353645325], [-0.4397968351840973, -0.2702716588973999, 0.2692229449748993, -0.4452531039714813, 0.27938607335090637, -0.06760081648826599, -0.5941442847251892, 0.9343313574790955, 0.06668559461832047, -0.744862973690033, -0.37651175260543823, 1.0524091720581055, -0.4348143935203552, 0.9832819104194641, -0.38927650451660156, -0.7503195405006409, -0.06427502632141113, 0.3431251347064972, 0.17839214205741882, 0.06884327530860901, -0.12387902289628983, -0.516438901424408, 0.21005220711231232, -0.697421669960022, 0.3569549024105072, -0.8716253042221069, 0.07153203338384628, 0.2957499325275421, 0.4594070315361023, 0.25095734000205994, 0.2779594361782074, -0.36160942912101746], [-0.2902514934539795, 0.17012189328670502, -0.269660085439682, 0.5354546904563904, -0.06337706744670868, -0.5324992537498474, -0.9841194748878479, 0.9174939393997192, 0.02566608600318432, 0.36608749628067017, 0.025593310594558716, -0.22127124667167664, 0.2652255892753601, 0.24581849575042725, 0.6699102520942688, -0.08830085396766663, -0.7150432467460632, 1.2288436889648438, 0.7588770389556885, -0.05584156885743141, 0.25328388810157776, -0.4533708095550537, 0.42382746934890747, 0.23643575608730316, -0.8188307881355286, -0.4018215537071228, -0.008029711432754993, 0.5819768309593201, 0.5297707915306091, -0.058369189500808716, -0.2640400230884552, -0.05642225220799446], [0.31668534874916077, 0.36441874504089355, 0.2414247989654541, -0.02295643649995327, 0.25954732298851013, -0.08773324638605118, 0.25518351793289185, 0.5324960947036743, -0.636547327041626, -0.4496917128562927, 0.4365016222000122, -0.1729644536972046, -0.35508087277412415, 0.7057142853736877, -0.28666195273399353, -0.2221989631652832, -0.12812493741512299, 0.29061856865882874, -0.18473786115646362, -0.11445356160402298, -0.3135051131248474, -0.39741888642311096, -0.1633947342634201, -0.38806799054145813, 0.2737138569355011, -0.03449755907058716, 0.3485648036003113, -0.3055403232574463, -0.250605970621109, -0.5494190454483032, 0.2964451014995575, 0.3224751353263855], [0.03191518783569336, 0.08258626610040665, -0.6677838563919067, 0.21430614590644836, -0.13106806576251984, 0.34848979115486145, -0.033559974282979965, -0.48337775468826294, 0.16666917502880096, -0.5251984000205994, -0.7031989097595215, -0.2925678789615631, 0.11876872926950455, -0.37354424595832825, -0.5596869587898254, -0.598002552986145, -0.14824318885803223, -0.10988081246614456, -0.2191535383462906, 0.20161694288253784, 0.41266360878944397, 0.806864321231842, 0.7697872519493103, 0.5333729982376099, 0.4785870313644409, -0.032181739807128906, 0.42940768599510193, -0.34917834401130676, 0.36976879835128784, 0.3236549198627472, -0.5838353037834167, 0.24566639959812164], [-0.7425425052642822, -0.26151853799819946, 0.3976963460445404, 0.15337851643562317, 0.64593106508255, 0.2723851203918457, 0.4990042746067047, 0.3599785566329956, 0.35363081097602844, 0.13388092815876007, -0.29755520820617676, 0.1845027655363083, -0.9045202136039734, -0.11989787220954895, 0.24579471349716187, 0.15899421274662018, -0.14504225552082062, -0.1175396665930748, -0.4311370849609375, 0.17162741720676422, -0.1641404777765274, -0.6235373616218567, 0.4836939871311188, 0.12977969646453857, 0.36890584230422974, -0.279573917388916, 0.23224550485610962, -0.37339746952056885, 0.2963354289531708, -1.4109337329864502, 0.5044846534729004, -0.4408780336380005], [0.3995242416858673, 0.8591744303703308, -0.40099453926086426, 0.648642361164093, -0.3355642259120941, 0.20890745520591736, -0.37817567586898804, 0.42349475622177124, -0.05761679261922836, -0.47728654742240906, 0.16437923908233643, 0.19309556484222412, -0.5914843082427979, 0.3715386390686035, 0.8344556093215942, 0.05441960692405701, 1.0962940454483032, 0.1331133246421814, -0.2218359112739563, -0.5786496996879578, 0.11921574175357819, -0.4866813123226166, -0.383477121591568, 0.689081072807312, 0.6753252744674683, 0.009784767404198647, -0.6438437104225159, 0.15445849299430847, -0.19030676782131195, -0.0401182547211647, 0.3255704939365387, -1.4048781394958496], [-0.9137549996376038, 0.4605925679206848, 1.1195124387741089, 0.4275164008140564, 0.18361884355545044, 0.07934881001710892, -0.7886149287223816, 0.7469719052314758, 0.12196390330791473, 0.3198082149028778, 0.08089684695005417, 0.7927666306495667, 0.38457196950912476, 0.1071518138051033, -0.9553976058959961, -0.2430361956357956, -0.12067472189664841, 0.1785629242658615, 0.4518366754055023, -0.632788896560669, -0.12779903411865234, -0.31549227237701416, 0.3092213571071625, 0.22974325716495514, -0.16453391313552856, -0.09480182826519012, 0.3134106993675232, -0.4451024830341339, -0.17538118362426758, -0.12374036759138107, -0.5386801958084106, -1.4794840812683105], [-0.5412443280220032, 1.0145431756973267, -0.7698279023170471, 0.1415814906358719, 0.16157427430152893, -0.4377524256706238, -0.5357731580734253, 0.08180708438158035, -0.17131760716438293, 0.06328229606151581, -0.9855573773384094, 0.5492079257965088, -0.23004406690597534, 1.071604609489441, 0.6080898642539978, -0.12326958775520325, -0.5682774186134338, 0.7253600358963013, -0.27663353085517883, -0.29246068000793457, -0.8301995396614075, 0.20124760270118713, 0.5822688937187195, 0.983271062374115, -0.054376278072595596, 0.2258502095937729, -0.08959411829710007, 0.5018739700317383, -0.28232648968696594, -0.18652509152889252, 0.4462122917175293, -0.6765389442443848], [0.18810081481933594, 0.638116180896759, -0.8790627717971802, -0.9285253286361694, -0.1944686621427536, -0.6138314008712769, -0.48457494378089905, 0.25049716234207153, -0.5837424397468567, 1.232858657836914, -0.5721135139465332, 0.16022299230098724, -0.8754802942276001, 0.8180069923400879, -0.2327674925327301, -0.012716030701994896, -0.040239010006189346, 0.315758615732193, 0.24291515350341797, 0.5884894132614136, 0.05295351520180702, -0.13224752247333527, 0.5201380848884583, 0.6764115691184998, 0.16196361184120178, -1.1031343936920166, 0.2775026857852936, 0.042273301631212234, -0.0641968622803688, 0.16956646740436554, -0.6064987182617188, -0.5030989646911621], [0.007600177079439163, 0.8185173273086548, -0.5095941424369812, 0.062398720532655716, 0.983574390411377, -1.0923329591751099, -0.2326865792274475, 0.4377415180206299, 0.6127140522003174, -0.3127027750015259, -0.9992594122886658, 0.9512044191360474, -0.8686094880104065, 0.9376726150512695, -0.33102673292160034, -0.15325835347175598, 0.11704681813716888, 0.5545962452888489, 0.47937270998954773, 0.16350039839744568, -0.41041871905326843, 0.4979555308818817, 0.5259597897529602, -0.00837122555822134, -0.20025482773780823, -0.5923148989677429, 0.06648615002632141, 0.3923425078392029, -0.5615254640579224, 0.18476903438568115, 0.13238050043582916, 0.02436092123389244], [0.1403598040342331, -0.7188922166824341, -0.7046077251434326, -0.09504777193069458, -0.46118107438087463, 0.39981308579444885, -0.2203257530927658, -0.05151874199509621, -0.2988106608390808, 0.8230317234992981, -0.03213144466280937, -0.2536853849887848, 1.0167608261108398, -0.4807729423046112, -0.40509578585624695, 0.09810763597488403, 0.6222010850906372, 0.41232824325561523, 0.7718468308448792, -0.6619948744773865, 0.5068981647491455, -0.15787672996520996, -0.6603272557258606, 1.0078849792480469, 0.23010699450969696, -0.028526777401566505, -0.3925907015800476, -0.689293622970581, -0.4191323518753052, -0.2176913022994995, 0.0039627146907150745, 0.5178750157356262], [0.3646167516708374, 0.07067714631557465, -0.02451249770820141, -0.38514697551727295, 0.09773226082324982, 0.3479449450969696, -0.16443955898284912, 0.6920471787452698, -0.03342774137854576, 0.70650714635849, -0.007423767354339361, 0.6623458862304688, 0.04056958109140396, 0.12323405593633652, 0.3955722749233246, 0.4874749779701233, -0.767829418182373, 0.9868617057800293, 1.049594521522522, -0.5221553444862366, -0.8938648700714111, -0.0925237387418747, 0.6442626118659973, 0.22731220722198486, -0.015395809896290302, -1.1855345964431763, 0.6776220202445984, -0.611869215965271, -0.7134478092193604, 0.3697531819343567, 0.6350871324539185, -0.6481202244758606], [0.2669261693954468, 0.0012748680310323834, 0.09371940046548843, -0.9853009581565857, 0.6547098159790039, 0.20652157068252563, 0.4213623106479645, 0.45180433988571167, -0.06915558874607086, 0.5382943749427795, -0.14476895332336426, -0.15882904827594757, -0.3568764328956604, 0.7021324038505554, -0.40570199489593506, -0.04880179092288017, 0.6547281742095947, 0.6423426866531372, -0.16234248876571655, -0.6093093752861023, -0.3702235817909241, -0.2666858732700348, 0.7467777729034424, -0.3457767069339752, 0.38169580698013306, 0.30231788754463196, -0.549798309803009, -0.09715522825717926, -0.37680238485336304, -0.3494127690792084, 0.760922372341156, -1.4779688119888306], [0.7615145444869995, 0.5426058173179626, -0.5534574389457703, -0.15594589710235596, -0.19908146560192108, -0.3675864636898041, 0.1287882775068283, 0.6076101064682007, -0.06950011849403381, 0.014386801980435848, 0.07302908599376678, -0.3685150146484375, -0.173566535115242, -0.5209496021270752, 0.27453669905662537, -0.21484258770942688, -0.26148664951324463, 0.18688718974590302, 0.17299103736877441, 0.007489589508622885, 0.5980780720710754, 0.13592086732387543, 0.42326289415359497, -0.49581781029701233, 0.04180262237787247, 0.588096022605896, -0.06704003363847733, -0.003911420702934265, -0.3656783699989319, -0.8620256185531616, 0.4983910918235779, 0.4039663076400757], [-0.22330787777900696, -0.07854658365249634, 0.13283300399780273, -0.33846086263656616, 0.2107137143611908, -0.9053080677986145, -0.4282498061656952, -0.19739553332328796, -0.2964864671230316, 0.6541032791137695, 0.3345702290534973, -0.4364475905895233, -0.0642973780632019, -0.20902793109416962, 0.17560650408267975, 0.0363624207675457, 0.4622544050216675, 1.139963150024414, -0.3124843239784241, -0.1885097324848175, 0.04417669400572777, 0.5036242604255676, -0.013072513975203037, -0.2283591777086258, 0.2978457510471344, 0.019124288111925125, -0.26825156807899475, 0.3753744661808014, -0.28008168935775757, -0.1860094517469406, 0.572990357875824, 0.03221447393298149], [-0.0449252687394619, 0.11976248025894165, -0.4397127330303192, -0.6228347420692444, 0.6242512464523315, 0.15794359147548676, -0.39595964550971985, 0.743354320526123, -0.810950517654419, 0.3465806841850281, -0.020694078877568245, 1.0433849096298218, -0.2725571095943451, 0.3646470308303833, 0.48797011375427246, -0.5675483345985413, -0.28569045662879944, 0.0037724883295595646, -0.0033441628329455853, 0.2461368292570114, 0.4320942759513855, 0.23901304602622986, 0.7454989552497864, -0.2072152942419052, -0.21910667419433594, 0.22970359027385712, -0.9429736137390137, -0.07509962469339371, 0.34692445397377014, -0.6989333033561707, 0.4871118664741516, -1.0388134717941284], [0.2399236559867859, 0.8035943508148193, -0.3774356245994568, -0.1439475268125534, 0.5409079194068909, 0.11147250980138779, 0.12990446388721466, -0.11886369436979294, -0.3270935118198395, -0.39237645268440247, -0.10955625772476196, -0.13996660709381104, -0.32339373230934143, -0.05142797529697418, 0.7784100770950317, -0.4916544258594513, 0.22680997848510742, -0.10222135484218597, 0.8660957217216492, -0.7750019431114197, -0.032172832638025284, 0.12092165648937225, 1.007239580154419, 1.2367812395095825, 0.0008239549933932722, 0.395835816860199, -1.0156480073928833, -0.6651955842971802, -0.4388861358165741, -1.017158031463623, 0.6216734647750854, -0.9182540774345398], [-0.2948199212551117, 0.21869468688964844, -0.01813764125108719, -0.3129652440547943, 0.46457943320274353, 0.16991104185581207, -0.28894269466400146, 1.1070795059204102, -0.16086269915103912, 0.07702038437128067, 0.33967286348342896, 1.0817958116531372, -0.416081964969635, -0.19225487112998962, 0.04958100989460945, 0.45198243856430054, 0.7696813941001892, -0.22091926634311676, 0.29191896319389343, -0.6995583176612854, -0.4183233380317688, 0.6259797215461731, 0.6196659207344055, -0.28013092279434204, -0.755386233329773, 0.5617583394050598, -0.13699090480804443, 0.2657270133495331, -0.19742532074451447, -0.9980663061141968, -0.03536643832921982, -1.5366570949554443], [-0.3050677478313446, -0.23257383704185486, -0.40013760328292847, 0.6449573040008545, 0.26839110255241394, -0.7417601346969604, -0.7132740020751953, 0.11408773064613342, 0.637671709060669, 1.006407618522644, -1.0970966815948486, 0.6398044228553772, 0.7965964078903198, 0.11117082089185715, 0.832502543926239, -0.33205777406692505, -0.014670288190245628, -0.065794937312603, 0.9171541929244995, 0.12378152459859848, -0.8705366253852844, -0.2754751443862915, 0.3198578953742981, 0.07556735724210739, -0.5102021098136902, 0.11181683838367462, -0.44944778084754944, 0.4844411313533783, -0.48611143231391907, 0.03327982500195503, 0.2024005651473999, -0.44716113805770874], [-0.39101144671440125, -0.7352645993232727, -0.42125827074050903, -1.0196306705474854, 0.582787275314331, 0.03282932937145233, 0.08546752482652664, 0.577795147895813, -0.04829278588294983, 0.8726545572280884, -0.796085000038147, -0.023076515644788742, -0.21598079800605774, -0.20093323290348053, 0.7751124501228333, -0.09242558479309082, -0.5222663879394531, 0.43616199493408203, 0.6420640349388123, -0.6667225956916809, 0.030115609988570213, 0.6031712889671326, -0.16223354637622833, 0.677916944026947, -0.5451666116714478, 0.30800509452819824, -0.3099735379219055, 0.8273650407791138, -0.8355123400688171, 0.512213408946991, -0.174221009016037, -0.11510926485061646], [-0.43559685349464417, 0.9674596190452576, -0.650324285030365, 0.47071945667266846, -0.5299409031867981, 0.1902836561203003, -0.45364537835121155, -0.5979295372962952, 0.03021049126982689, 0.2520478069782257, 0.5111806392669678, 0.017311861738562584, 0.16925998032093048, 0.3125194311141968, 0.6687856912612915, -0.008242517709732056, 1.0756559371948242, 1.2705291509628296, -0.5064367055892944, -0.16133615374565125, -0.5486724972724915, -0.05588965862989426, -0.026798004284501076, -0.08245371282100677, 0.0019476828165352345, 0.1460791528224945, -1.1620657444000244, -0.18279126286506653, 0.9499391913414001, -0.6940250396728516, 0.31024402379989624, -1.4400883913040161], [-0.4406340420246124, -0.4501025676727295, -0.23289775848388672, -0.22533375024795532, 0.10034021735191345, 0.2752571702003479, 0.14133334159851074, 0.021039929240942, 0.47714468836784363, -0.6866134405136108, -0.16565106809139252, 0.7417062520980835, -0.40212345123291016, 0.03140139952301979, -0.6663951873779297, -0.3183731436729431, -0.27996960282325745, 0.47517821192741394, 0.6534139513969421, 0.8144961595535278, 0.4204627275466919, 0.49022454023361206, -0.9698134660720825, 0.1252065747976303, 0.1848156899213791, 0.062351156026124954, 0.26005229353904724, -0.5192918181419373, 0.2900782525539398, 0.15856923162937164, 0.3146435618400574, -0.8464516401290894], [-0.3060510456562042, -0.09325945377349854, -0.6894093751907349, -1.1423077583312988, 0.5497074127197266, -0.036352481693029404, 0.3897183835506439, 0.6305111646652222, -0.11657766997814178, 0.015967009589076042, 0.5793238282203674, -0.06687803566455841, -0.27749842405319214, -0.3435062766075134, -0.486609548330307, 0.1579122394323349, -0.2349996566772461, -0.36214306950569153, 0.6910350322723389, 0.013119553215801716, -0.30750197172164917, -0.43431752920150757, -0.6181662678718567, 0.14464731514453888, 0.6778865456581116, -0.3495785593986511, 0.08946076035499573, -0.09425278753042221, 0.6834399104118347, -0.3971816599369049, 0.36883434653282166, -0.1664557307958603], [0.08913753926753998, 0.18738298118114471, -0.3109166622161865, 0.2747948467731476, -0.47788968682289124, -0.7258325219154358, -0.07532588392496109, 0.850897490978241, 0.5613611340522766, 0.6957489848136902, -0.25035232305526733, 0.7460460066795349, 0.618358314037323, -0.48276659846305847, -0.23036900162696838, 0.5541489124298096, 0.27036237716674805, 0.0436023585498333, 0.3704249858856201, 0.06949188560247421, 0.005192236974835396, -0.04048340395092964, -0.09823231399059296, -0.8178815841674805, -0.06276001781225204, 0.22445523738861084, 0.3720879554748535, -0.22885246574878693, -0.20861127972602844, 0.027686113491654396, -0.4130982458591461, 0.11055392026901245], [-0.6375635862350464, 0.5625742077827454, 0.1602851003408432, 0.028919437900185585, 0.4832775294780731, 0.1203753724694252, -0.5628644227981567, 0.2579113841056824, 0.6937071084976196, 0.7114389538764954, -0.9287822246551514, 0.48747488856315613, 0.38002142310142517, -0.28900718688964844, 1.0355408191680908, 1.0518553256988525, -0.1753082573413849, 0.04496631398797035, -0.1907953917980194, 0.11210265010595322, -0.7569593787193298, 0.46376708149909973, 0.774967610836029, 0.5430066585540771, -0.6202932596206665, -0.0806192010641098, -0.2557833194732666, -0.5639175176620483, -0.3336107134819031, -0.618432879447937, 0.25586995482444763, -1.301206350326538], [-1.0060410499572754, 0.6415441036224365, -0.393172025680542, 0.0035129408352077007, 0.40872183442115784, 0.6099796891212463, -0.8085978031158447, -0.3368672728538513, -0.4175558388233185, 0.8929338455200195, -0.7640576958656311, 0.5579634308815002, -0.3487209677696228, 0.7863788604736328, -0.20069976150989532, -0.023373918607831, -0.01976676657795906, 0.5852119326591492, -0.8114320039749146, -0.4105844795703888, -0.5456951260566711, -0.051171742379665375, -0.9650796055793762, 0.6748327612876892, 0.38215893507003784, -0.947293758392334, 0.4192239046096802, -0.18865391612052917, 0.31842103600502014, 0.5804277658462524, 0.859058678150177, 0.4049324095249176], [0.8567034006118774, 0.22221888601779938, -0.23867158591747284, 0.24832451343536377, 1.2495732307434082, 0.14173318445682526, -0.6677655577659607, -0.4589158296585083, 0.577634871006012, 0.9281671047210693, -0.7363244891166687, 0.3717189133167267, -0.7052635550498962, 0.21654750406742096, -0.30516985058784485, -0.2118823528289795, -0.13090623915195465, 0.10189007222652435, 0.09305036067962646, -0.14766578376293182, 0.3962785303592682, -0.3848303556442261, -1.1589394807815552, -0.6505812406539917, -0.4918651878833771, -0.7830134630203247, 0.5409489274024963, 0.4043734073638916, -0.8399626612663269, -0.1828293800354004, -0.2721761167049408, 0.7985312342643738], [0.5550152063369751, 0.42048946022987366, 0.28520962595939636, 0.058253251016139984, -0.25757288932800293, 0.05419182404875755, -0.8359768390655518, -0.31790030002593994, 0.37753868103027344, -0.36915814876556396, -0.07896120101213455, -0.38480618596076965, 0.042497169226408005, 0.0940045490860939, 0.3587002754211426, -0.608148455619812, 0.5152881741523743, 0.6408042311668396, 0.17675325274467468, 0.3979743421077728, 0.056874632835388184, 0.4421197474002838, -0.3784623444080353, 0.72271329164505, 0.13944295048713684, -0.5789580345153809, -1.1418465375900269, 0.657745897769928, -0.14509367942810059, 0.07876227796077728, -0.43187132477760315, -0.7003633975982666], [0.17738912999629974, 0.31412091851234436, -0.3714553713798523, -0.126804918050766, 0.6777500510215759, 0.5631297826766968, 0.003755847690626979, 0.17891716957092285, 0.11912022531032562, 0.710404634475708, -1.1585650444030762, 0.8976468443870544, -0.7542427778244019, 0.33880317211151123, 0.3248513638973236, -0.13235752284526825, -0.6772598028182983, 0.47462373971939087, 1.0018579959869385, 0.24958401918411255, -0.4680595397949219, 0.6139574646949768, -0.9401975870132446, 0.20766568183898926, 0.1431688368320465, -0.0033763786777853966, -0.35641732811927795, -0.39717888832092285, -0.012684900313615799, -0.35786643624305725, 0.30036279559135437, 0.22673586010932922], [0.38499337434768677, 0.6119488477706909, -0.9288979172706604, 0.501700758934021, -0.2968504726886749, -0.31997567415237427, 0.10760269314050674, -0.3444524109363556, -0.5397145748138428, 0.032157450914382935, -0.1393575668334961, 0.4534516930580139, -0.4172908365726471, -0.29475048184394836, 0.33033689856529236, 0.4436190128326416, -0.336249440908432, 0.057078298181295395, 0.04392622783780098, 0.3022274076938629, 0.3058094382286072, -0.3138282001018524, 0.22041897475719452, -0.25171032547950745, 0.2869819104671478, 0.3515221178531647, 0.11684457957744598, -0.10356874018907547, -0.3994210362434387, -0.21895535290241241, -0.10769611597061157, 0.3035701513290405], [-0.277666300535202, -0.29962998628616333, 0.36954349279403687, -0.45441552996635437, -0.2268020510673523, 0.11535566300153732, 0.357611745595932, -0.1626720279455185, 0.5330520272254944, -0.30758312344551086, -0.749915361404419, -0.028016261756420135, 0.1812025010585785, 0.05192877724766731, -0.48633378744125366, 0.17037789523601532, -0.19819748401641846, 0.9689481854438782, -0.49021103978157043, 0.16681158542633057, -0.037527795881032944, 0.5348226428031921, 0.3057236075401306, 0.01461821235716343, 0.0021534019615501165, 0.031743038445711136, 0.15029577910900116, -0.15375161170959473, 0.18208391964435577, 0.12619559466838837, -0.39523032307624817, 0.035518828779459], [-0.42268499732017517, -0.36651507019996643, 0.3564552068710327, -0.5893988013267517, 0.36123257875442505, 0.047063831239938736, -0.46824413537979126, -0.005177586805075407, 0.06430181860923767, -0.1393747478723526, -0.20073801279067993, 0.18551814556121826, 0.5035662055015564, -0.2578037977218628, -0.06804393231868744, 0.5957894921302795, -0.11453411728143692, -0.1862238645553589, 0.04865439608693123, -0.6230151057243347, -0.9510775208473206, 0.3746887147426605, -0.05430198460817337, -0.3364577293395996, -0.4598918855190277, 0.23524317145347595, -0.481644868850708, -0.016367580741643906, 0.2236671894788742, 0.0032849961426109076, 0.2795944809913635, 0.2403867244720459], [-0.1954466700553894, 0.8736361265182495, 0.42767515778541565, -0.45043885707855225, 1.1163222789764404, -0.03408241271972656, -0.6217997670173645, -0.3615121841430664, 0.3910498321056366, -0.42557963728904724, -0.8201415538787842, 0.9050263166427612, -0.14302724599838257, 0.12213067710399628, 0.9465917944908142, 0.4189734160900116, 0.04701531305909157, 0.5249981880187988, -0.3804784417152405, 0.010416923090815544, -0.43803995847702026, -0.4263290464878082, 0.043430257588624954, -0.3433070778846741, -0.9394559860229492, -0.9861180782318115, -0.6134064197540283, -0.18772247433662415, -0.44234395027160645, -0.26658862829208374, 0.6930499076843262, -0.007694851141422987], [-0.5775243639945984, -0.47637641429901123, 0.5833684206008911, 0.4660942554473877, -0.2585851550102234, 0.36541232466697693, 0.02006577141582966, 0.37664690613746643, -0.5930780172348022, 1.0859801769256592, 0.314523309469223, 0.8043242692947388, -0.7887986302375793, 0.990409791469574, -0.23156549036502838, 0.50640869140625, -0.18547247350215912, -0.3458622992038727, 0.24389003217220306, -0.8226841688156128, 0.5506396889686584, -0.12009181082248688, -0.017700279131531715, -0.5835707187652588, 0.31972646713256836, -0.7988523244857788, -0.5570992827415466, -0.2135915607213974, 0.5959181785583496, -0.5189425349235535, 0.08156437426805496, -0.6314917206764221], [0.13973134756088257, -0.8178963661193848, 0.03787407651543617, -0.5722638964653015, -0.3595666289329529, 0.3131353259086609, 0.17025788128376007, -0.2876856029033661, 0.2938392460346222, 0.37663716077804565, -0.2631301283836365, 0.8518309593200684, -0.4771915078163147, 0.32723185420036316, -0.028748968616127968, -0.1658211648464203, -0.2254030853509903, 0.4633782207965851, 0.8180533051490784, 0.03055448643863201, 0.4010378420352936, -0.07066026329994202, -0.8639923334121704, 0.14400869607925415, 0.36391985416412354, -0.09868006408214569, -1.2124468088150024, 0.38559502363204956, 0.8046238422393799, 0.020366061478853226, -0.19672808051109314, -0.5730606317520142], [-0.4697183072566986, -0.06871537119150162, -0.05966196209192276, 0.22376634180545807, 0.18405938148498535, -0.09532494097948074, -0.2508077323436737, -0.3300122022628784, 0.1867063045501709, -0.35249561071395874, 0.12069912254810333, -0.4801503121852875, 0.09084656089544296, -0.2777571678161621, -0.22863279283046722, -0.27720925211906433, 0.4478977620601654, -0.4139834940433502, -0.3186000883579254, -0.4498865008354187, 0.08386530727148056, 0.2374284267425537, 0.007434802129864693, 0.3123416006565094, 0.006603224202990532, 0.2603495121002197, 0.3699416220188141, 0.42884960770606995, 0.06801392883062363, 0.4109792411327362, 0.037078797817230225, 0.4162733852863312], [-0.2629614472389221, -0.03149111568927765, 0.4970760643482208, 0.13225769996643066, 0.17027795314788818, 0.11225742101669312, 0.6177752614021301, 0.32270607352256775, 0.09985614567995071, -0.5147392749786377, -0.24165156483650208, -0.08577418327331543, 0.42647409439086914, 0.34543004631996155, 0.3364729583263397, -0.5781288146972656, 1.1107832193374634, 0.9011657238006592, -0.3064059615135193, 0.46451613306999207, -0.3449842929840088, -0.2786175012588501, -0.34156787395477295, 0.18086674809455872, -0.599984884262085, -0.6943961381912231, -0.6461398005485535, -0.6473777890205383, 0.6045752167701721, -1.0464180707931519, 0.32118090987205505, 0.3044654130935669], [-0.8667921423912048, 1.1756139993667603, 0.4905955195426941, 0.15951672196388245, 0.11793453246355057, 0.04138109087944031, -0.42075079679489136, 0.7569912075996399, 0.5987541079521179, -0.1923685371875763, -0.14291197061538696, 0.15644727647304535, -0.6330252885818481, 0.555904746055603, -0.03824589401483536, -0.6186931729316711, 0.7162601351737976, 1.045424222946167, 0.14118428528308868, -0.4210400879383087, -0.6942672729492188, 0.10947476327419281, -0.014532806351780891, -0.5159050226211548, 0.027334310114383698, 0.12278507649898529, -0.5860325694084167, -0.21758635342121124, 0.40378066897392273, -0.7935985326766968, 0.06431451439857483, -0.8849857449531555], [0.6705701351165771, 0.5215202569961548, -0.20923106372356415, 0.13766084611415863, 0.8303633332252502, -0.580997109413147, -0.5351273417472839, -0.7330194711685181, -0.4176516830921173, 0.13484925031661987, -0.5959369540214539, -0.0385434664785862, -0.003429934848099947, 0.0624651163816452, -0.15983976423740387, -0.25889357924461365, 0.6526278853416443, 1.3019384145736694, 0.10335972160100937, -0.9132970571517944, 0.07497899234294891, -0.18424320220947266, 0.4509756565093994, 0.8044089674949646, -0.8724538683891296, -0.65192711353302, -0.7170484662055969, -0.2558082640171051, -0.056855522096157074, 0.2782474160194397, -0.5645174980163574, -0.1307966411113739], [-0.20070023834705353, 1.3031604290008545, 0.47968512773513794, 0.3593636453151703, -0.6855464577674866, -0.036506082862615585, 0.540856122970581, 0.11401600390672684, -1.0791434049606323, 0.2705307900905609, -0.8116138577461243, 0.7056455612182617, -0.032770175486803055, 0.37232956290245056, -0.6571996212005615, -0.47186312079429626, 0.34824037551879883, 1.1389366388320923, 0.5235857367515564, -0.6066509485244751, -0.21201778948307037, -0.3417060971260071, 0.05119671672582626, 0.9663577079772949, -0.1858406960964203, 0.2394053339958191, -0.2658734619617462, 0.29339924454689026, 0.4405944347381592, -0.257856160402298, -0.7392826676368713, -0.9005016088485718], [-0.7206077575683594, 0.6975834965705872, 0.29291245341300964, -0.4042976200580597, 0.4630720317363739, -0.5354981422424316, 0.07403454184532166, 0.5636294484138489, 0.3034961223602295, 0.5203179717063904, -0.6524227857589722, -0.34231945872306824, 0.14221586287021637, 0.7558254599571228, -0.5801741480827332, -0.181662917137146, 0.06910209357738495, 0.7064868211746216, -0.1559416502714157, 0.5620618462562561, -0.40754392743110657, -0.5490314364433289, -0.1598042994737625, 0.3468206822872162, -0.6796172261238098, -0.03180515766143799, 0.3346474766731262, -0.30213847756385803, 0.22422806918621063, -0.4687078893184662, -0.6265655159950256, -0.3492346704006195], [0.4174167513847351, -0.22011354565620422, -0.34747132658958435, 0.093466617166996, -0.09026646614074707, 0.2984485328197479, 0.3493551015853882, 0.2260865569114685, 0.02868553437292576, 0.3094910681247711, 0.28355491161346436, -0.3462924361228943, 0.2139671891927719, 0.2580755054950714, -0.6156842708587646, 0.14265932142734528, -0.41088128089904785, -0.10618886351585388, -0.1324445903301239, 0.2598554193973541, 0.32987716794013977, 0.37736034393310547, 0.13804534077644348, -0.021848181262612343, 0.08350473642349243, -0.4757833480834961, 0.29465803503990173, 0.16838353872299194, -0.3424261212348938, 0.0616544745862484, -0.5867793560028076, -0.46400418877601624], [0.14185622334480286, 0.11447915434837341, 0.29201140999794006, -0.25282448530197144, -0.17890630662441254, -0.33832210302352905, -0.5257188081741333, 0.5745941400527954, -0.5279964804649353, -0.2820575535297394, 0.26675987243652344, 0.40111079812049866, 0.21801915764808655, 0.5484700202941895, -0.1830974966287613, -0.5215794444084167, 0.33272239565849304, -0.0804382786154747, 0.4418218433856964, 0.45713573694229126, -0.43477484583854675, -0.44953590631484985, 0.03356480598449707, 0.5713964104652405, 0.025115197524428368, 0.19441762566566467, -0.5070433020591736, -0.16424943506717682, 0.08737622201442719, 0.21462595462799072, -0.0728195533156395, 0.2310166358947754], [0.1407403200864792, 0.2513456344604492, -0.33992189168930054, 0.37228313088417053, 0.5180725455284119, -0.9189749956130981, -0.4609232246875763, -0.12093202024698257, -0.7883197665214539, 0.9945647716522217, 0.20121002197265625, 0.059707511216402054, 0.15642225742340088, 0.7834424376487732, -0.5016231536865234, 0.3372434973716736, -0.09072539955377579, 0.527037501335144, 0.49549248814582825, -0.02671463042497635, -0.5184001922607422, -0.006744127720594406, -0.38154110312461853, 0.8834283351898193, 0.3096124827861786, -0.4088599979877472, 0.2951742708683014, 0.4385100305080414, -0.41968268156051636, 0.1563412845134735, 0.31206756830215454, -0.25695666670799255], [-0.4067234992980957, -0.3508138954639435, 0.1173977255821228, -0.8016605377197266, 0.09387171268463135, -0.3019442558288574, 0.1321253776550293, -0.18370993435382843, -0.10540669411420822, 1.1817349195480347, -1.296792984008789, -0.2587004005908966, -0.06165121868252754, -0.32644185423851013, 0.7802098393440247, 0.1721222698688507, 0.8341451287269592, 0.10156238079071045, -0.02773045375943184, 0.7821663618087769, 0.04153945669531822, -0.5863562226295471, -0.15069203078746796, -0.5394154787063599, 0.6516708135604858, -0.3968517780303955, 0.9045311212539673, 0.49336883425712585, 0.21313628554344177, -0.42739763855934143, -0.06028006598353386, -0.026753956452012062], [0.4681990444660187, 0.5961400866508484, 0.1791355311870575, -0.29497334361076355, -0.23039546608924866, 0.07000745087862015, 0.017218489199876785, 0.5830101370811462, -0.5490556359291077, 0.045860689133405685, -0.06523676216602325, 1.192590594291687, -0.16323699057102203, -0.2144736796617508, 0.553382933139801, 0.3063012957572937, -0.49565589427948, -0.1865505874156952, 0.30091023445129395, 0.19191879034042358, -0.18334822356700897, -0.10156933963298798, 0.4001244604587555, -0.36756017804145813, 0.28533491492271423, 0.19655781984329224, -0.08242610841989517, -0.15994703769683838, -0.42897555232048035, 0.1986519694328308, -0.09133262932300568, 0.3277951776981354], [0.12310292571783066, -0.24594438076019287, -0.40593668818473816, 0.27550214529037476, -0.004631446208804846, -0.06087770313024521, -0.589684009552002, 0.5545997619628906, 0.4452081322669983, 1.2144562005996704, -0.6869850158691406, 0.28043344616889954, 0.4394650161266327, 0.009644945152103901, 0.8042174577713013, 0.3041861653327942, 0.11556030064821243, 0.4156697690486908, 0.293984591960907, -0.2601909339427948, -0.02711453288793564, -0.37743785977363586, 0.2682826519012451, -0.5183663368225098, 0.29964888095855713, -0.9334472417831421, 0.0004633427888620645, 0.40443381667137146, 0.35096731781959534, -0.04953636974096298, -0.30029600858688354, -0.09519203007221222], [0.26983213424682617, -0.34319308400154114, -0.39111441373825073, -0.48221343755722046, 0.41808268427848816, 0.0845639631152153, -1.3007086515426636, 0.4878707230091095, 0.36310267448425293, -0.1697424054145813, -0.8587883710861206, 0.556920051574707, 0.5017500519752502, 0.1749909222126007, 0.16286569833755493, 0.5654534101486206, 0.5129643678665161, 0.776401162147522, 0.4211939573287964, 0.09052854031324387, -0.5493431091308594, -0.3730560541152954, -0.7126055359840393, 0.09871039539575577, -0.6534073948860168, 0.47513261437416077, 0.06986089050769806, -0.21522265672683716, -0.06470044702291489, -1.0459342002868652, 0.07066098600625992, 0.05035948380827904], [-1.0238046646118164, -0.17645160853862762, 0.44870054721832275, -0.6171475052833557, 0.6812789440155029, 0.4350292980670929, 0.1803669035434723, -0.015321425162255764, -0.5863614082336426, 0.6292105317115784, -0.49772122502326965, 0.17084601521492004, 0.07775378972291946, 0.6060179471969604, 0.8813095688819885, -0.522478461265564, 0.9772946834564209, 0.6070318818092346, 0.4902265965938568, 0.5387742519378662, -0.34691572189331055, -0.11881828308105469, -0.15867012739181519, -0.11222990602254868, -0.4476863741874695, -0.7339123487472534, -0.5292964577674866, 0.4110575020313263, -0.30206868052482605, -0.10657806694507599, 0.2952372431755066, -1.1057754755020142], [0.2592998743057251, -0.21588601171970367, 0.45317575335502625, 0.5728968381881714, 0.7692774534225464, 0.1121709793806076, -0.8813406825065613, 0.39082449674606323, -0.4430193603038788, 0.9016350507736206, -0.5834874510765076, 1.6094239950180054, 0.10793560743331909, -0.37587761878967285, 0.470650315284729, 0.05255967378616333, -0.2782343626022339, -0.08696050196886063, 0.3281959593296051, -0.21423418819904327, 0.23801882565021515, -0.2649707794189453, -0.5329055190086365, -0.0007887387182563543, -0.8287009000778198, 0.5302374958992004, -0.1456170380115509, -0.4953782558441162, 0.3617089092731476, -1.0652551651000977, -1.2265874147415161, 0.0035330455284565687], [-0.6774176359176636, -0.11145025491714478, 0.6461217403411865, 0.6624007225036621, 0.9625205397605896, -0.27673712372779846, -0.33191758394241333, 0.45170465111732483, -0.8209455609321594, 0.21664828062057495, -1.2423460483551025, -0.35807889699935913, -0.08815006166696548, 0.25302430987358093, 0.5442284941673279, -0.26815342903137207, 0.6865788102149963, 0.18834245204925537, -0.16539742052555084, 0.0001347066427115351, 0.05289923772215843, -0.3278225064277649, 0.4894740581512451, -0.2552754282951355, 0.009979547001421452, -0.16180576384067535, 0.4987562298774719, -0.5201674699783325, -0.04946479573845863, -1.0950077772140503, 0.4981531798839569, 0.17546522617340088], [-0.5350037217140198, -0.456569105386734, 0.311821848154068, -0.09651114046573639, -0.09221202880144119, 0.5923916101455688, -0.3352856934070587, 0.6100642085075378, -0.19825498759746552, 0.37381088733673096, -0.4955046772956848, -0.1779501885175705, 0.2049238234758377, 0.1970185786485672, -0.35723361372947693, 0.41703149676322937, 0.7642799019813538, 0.28393641114234924, 0.010769366286695004, 0.2802582085132599, 0.3047817051410675, -0.6221940517425537, -0.602577269077301, -0.3341251611709595, -0.24047501385211945, -0.1652199923992157, -0.5776304006576538, 0.6397262811660767, 0.7727784514427185, -0.029140925034880638, 0.27249401807785034, -0.7932186722755432], [0.1551068127155304, -0.5557205080986023, -0.717164158821106, -0.49251189827919006, 0.2695481777191162, 0.24817804992198944, 0.5061284303665161, -0.2396569401025772, -0.9144895076751709, 0.45616066455841064, -0.7180713415145874, 0.43508613109588623, 0.26137810945510864, 0.45491641759872437, 0.8897448778152466, -0.1241002008318901, -0.19973693788051605, 0.35870561003685, 0.22051164507865906, -0.5470842719078064, 0.32845214009284973, -0.21406389772891998, -1.1551717519760132, 0.04963555559515953, -0.5031455755233765, 0.22123731672763824, 0.061455145478248596, -0.2602933645248413, 0.3469142019748688, -0.7572324275970459, -0.14187517762184143, -0.14668874442577362], [-0.043691813945770264, -0.5148293375968933, 0.42681577801704407, -0.6514622569084167, 0.3523920476436615, -0.5767260789871216, -0.22897914052009583, -0.10169985145330429, -0.17785625159740448, -0.1302376240491867, -0.3567824959754944, 0.010326236486434937, -0.11581186950206757, 0.1397179216146469, 0.4275094270706177, 0.4292074143886566, -0.17653411626815796, -0.2786763310432434, -0.23224018514156342, -0.8429909348487854, 0.006068785674870014, 0.5849539637565613, -0.007176817860454321, -0.1849878430366516, -0.5709925889968872, 0.4509659707546234, -0.2410806566476822, -0.2508442997932434, 0.4319359362125397, 0.30886414647102356, 0.18620435893535614, 0.1362656205892563], [0.42591574788093567, -0.2542184293270111, -0.8622807264328003, 0.9295534491539001, -0.24692507088184357, -0.228534996509552, -0.19118346273899078, 0.5730056762695312, -0.6957037448883057, 0.8668560981750488, -0.3452852964401245, -0.6106107831001282, 0.7478005290031433, -0.057107534259557724, 0.4810582399368286, -0.7184326648712158, 0.10017756372690201, 0.14295890927314758, -0.11983951926231384, -0.3884507417678833, -0.20990076661109924, 0.4764677584171295, 0.12541161477565765, -0.020118342712521553, 0.660210132598877, 0.8891873955726624, 0.24244961142539978, -0.18999552726745605, 0.4237135946750641, -0.4276036322116852, -0.585182785987854, -0.3518437445163727], [-0.21227863430976868, -0.04283061623573303, 0.5585136413574219, -0.1517428457736969, -0.01769932359457016, 0.39757663011550903, -0.421927273273468, -0.2603558599948883, -0.7277840375900269, -0.3702835142612457, 0.5592973232269287, 0.08523716032505035, 0.30219921469688416, -0.010620261542499065, -0.05513140559196472, 0.6173895001411438, 0.3651570677757263, -0.06389261782169342, 0.31160521507263184, 0.06280308216810226, -0.7045220136642456, 0.13183832168579102, -0.46610090136528015, 0.49019673466682434, 0.21133720874786377, -0.1489567756652832, -0.40405553579330444, 0.4382374882698059, -0.23209308087825775, 0.41521015763282776, -0.046631697565317154, 0.11521255224943161], [-0.9125319123268127, -0.10271739214658737, -0.5231050252914429, -0.12861250340938568, -0.17332269251346588, 0.6211853623390198, -0.18828555941581726, 0.4432384669780731, -0.1599031686782837, 0.4708165228366852, -0.4745657444000244, 0.06563735008239746, -0.18816088140010834, 0.4404210150241852, -0.26232004165649414, 0.38042548298835754, 1.0450425148010254, -0.2090488225221634, -0.18521429598331451, -0.3911772072315216, -0.944405734539032, -0.18081137537956238, 0.7541192173957825, 0.39208072423934937, 0.7397066354751587, -1.0042338371276855, 0.20141375064849854, 0.3827952444553375, -0.20932640135288239, 0.4064030647277832, 0.13581746816635132, -0.7274953126907349], [-1.06254243850708, 0.4970652163028717, 0.5883485078811646, -0.9257023334503174, -0.22007553279399872, 0.7982226014137268, -0.5716347098350525, 1.1167564392089844, -0.25023153424263, 0.9353836178779602, 0.10668182373046875, 0.7698065042495728, -0.8973445296287537, -0.22589506208896637, 0.3808203935623169, -0.3089146018028259, 0.7674067616462708, -0.031135553494095802, 0.635736882686615, -0.5990837812423706, -0.6207795739173889, 0.3369315266609192, -0.4199679493904114, 0.3580089509487152, 0.4809572398662567, -1.4446508884429932, -0.5355731844902039, 0.6242606043815613, -0.15164777636528015, -0.20260576903820038, -0.21067851781845093, -0.05408606305718422], [0.07331748306751251, 0.47871533036231995, -0.6039015054702759, -0.16589993238449097, 0.7759847640991211, 0.18732106685638428, 0.7032058835029602, 0.1635521799325943, -0.7701692581176758, 0.35779115557670593, -0.8152604699134827, 0.4399953782558441, 0.35164856910705566, 0.612108051776886, -0.06787292659282684, 0.4007432460784912, -0.0642949789762497, -0.49232521653175354, 1.0432459115982056, -0.9664255380630493, -0.3496493697166443, -0.10780839622020721, 0.4579335153102875, 0.7373886108398438, -0.0265909843146801, -0.6182940006256104, 0.1966269165277481, -1.0052788257598877, 0.2880404591560364, 0.060209181159734726, 0.2954063415527344, -0.7368984818458557], [0.48441216349601746, -0.19209305942058563, -0.39501065015792847, 0.02283596061170101, 0.6614915728569031, 0.05875850096344948, -0.6540592908859253, -0.1829218715429306, -0.789668619632721, -0.10099615156650543, -0.9252414107322693, 0.3532112240791321, -0.29249152541160583, -0.05561434477567673, 0.3753315806388855, 0.18274785578250885, 0.8635790944099426, 0.48581862449645996, 0.08178151398897171, 0.24022971093654633, 0.6021794080734253, -0.5008566379547119, -0.27920079231262207, -0.029269596561789513, -0.9256944060325623, -0.3846985995769501, 0.704707145690918, 0.9822325110435486, 0.39578038454055786, -1.3954896926879883, -0.6549712419509888, -0.2884058356285095], [0.03767479583621025, 0.4492962658405304, -0.3493818938732147, 0.04922650754451752, -0.3080432415008545, -0.2276100367307663, -0.039958588778972626, 0.0732898935675621, -0.19042159616947174, 0.07917173951864243, -0.070106640458107, 0.3040928542613983, -0.1798228919506073, -0.24958838522434235, -0.014707422815263271, 0.37005823850631714, -0.12638871371746063, 0.21084293723106384, -0.01989375799894333, 0.14981907606124878, 0.1567143350839615, -0.23581238090991974, 0.2156716287136078, -0.25191837549209595, -0.011233421042561531, 0.11664491891860962, -0.39899322390556335, -0.24418923258781433, -0.321462482213974, -0.15732645988464355, -0.1483924388885498, 0.23889657855033875], [0.6519081592559814, 0.7723107933998108, 0.6879133582115173, -0.8458430171012878, 0.8446860313415527, -0.013512883335351944, 0.01957998424768448, -0.17896562814712524, 0.24158431589603424, 0.6175127625465393, -1.0765166282653809, -0.22726982831954956, -0.49911394715309143, -0.0730702131986618, 0.6109275221824646, 0.13232477009296417, 0.8616775274276733, 0.1051701158285141, 1.260495901107788, -0.32854676246643066, 0.14909109473228455, 0.10177554190158844, -0.505368709564209, -0.26677554845809937, 0.4268532991409302, -0.45086348056793213, -1.028607964515686, 0.019270339980721474, -0.9595590829849243, 0.19451400637626648, -0.5004876255989075, -0.7946081161499023], [-0.14692723751068115, 0.5381069183349609, -0.4427281618118286, -0.5452726483345032, 0.22275876998901367, 0.11158157140016556, -0.24976544082164764, -0.2182917594909668, 0.24517306685447693, 0.4859433174133301, -1.0230481624603271, -0.3722793459892273, -0.3265160322189331, -0.07198973745107651, -0.29618018865585327, 0.6503802537918091, -0.6706638336181641, 0.9334762096405029, 0.5658581852912903, 0.7384330630302429, -0.6454362869262695, 0.36381790041923523, 0.2435918152332306, 1.073060393333435, 0.4015369415283203, -0.39991986751556396, 0.4123302698135376, -0.07432422786951065, -0.898587703704834, 0.1695958524942398, 0.24717533588409424, -0.7293282151222229], [-0.06064455583691597, 0.6090924143791199, -0.456213116645813, -0.5966436862945557, 0.6068673729896545, 0.6883562803268433, 0.7095453143119812, -0.7481468915939331, 0.37681683897972107, -0.09812646359205246, -0.3856929540634155, 0.77607661485672, -0.2357446402311325, -0.7521643042564392, 1.0651897192001343, -0.3655864894390106, -0.34885257482528687, 0.27475348114967346, -0.23122790455818176, -0.5678948760032654, 0.6105753183364868, -0.28228235244750977, -0.32372644543647766, 0.16627974808216095, 0.3699260950088501, -0.8727814555168152, -0.3831736147403717, 0.8282278180122375, -0.525707483291626, 0.5091798305511475, -0.0005528291803784668, -0.7586748003959656], [-0.12481226027011871, 0.7109736800193787, 0.4814409613609314, 0.49434664845466614, 0.19360090792179108, 0.27779629826545715, -0.39888063073158264, -0.4531668722629547, 0.3346793055534363, 0.23466777801513672, -0.17227278649806976, -0.3913140296936035, 0.243141770362854, -0.14399369060993195, -0.3386017680168152, 0.023729844018816948, -0.584382951259613, 0.40062856674194336, 0.6509082317352295, -0.21981100738048553, -0.6163935661315918, 0.4143578112125397, -0.08856584876775742, 0.25925832986831665, -0.04423077031970024, 0.09736379235982895, -0.07651466131210327, 0.2805812358856201, 0.06956721097230911, -0.007502675987780094, -0.2957376539707184, -0.31562507152557373], [-0.5313915014266968, -0.6704022288322449, 1.2442466020584106, 0.09856487065553665, 0.6591213345527649, -1.0179208517074585, -0.6053630709648132, 0.47651246190071106, 0.051819585263729095, 0.4472864866256714, -1.1488252878189087, 0.5985562205314636, 0.7636229395866394, 0.8262562155723572, 0.6908174753189087, -0.6743612885475159, -0.2486303746700287, -0.19063234329223633, -0.14273984730243683, 0.48941782116889954, 0.9381515383720398, -0.16528308391571045, 0.18572594225406647, 0.4219299852848053, 0.5755707025527954, -0.5706366300582886, 0.28105947375297546, 0.7346814870834351, -0.4145832359790802, -1.2762702703475952, 0.8246102929115295, -0.20128190517425537], [-0.7816706895828247, -0.3136303722858429, -0.1445358395576477, -0.765787661075592, 0.5265238285064697, -0.6344663500785828, -0.6927040815353394, 0.43099814653396606, -0.8589723110198975, -0.16787120699882507, -0.10942152142524719, 0.7456165552139282, 0.6154640913009644, -0.5630926489830017, 0.7661059498786926, 0.223345085978508, -0.0052655660547316074, 0.03269193321466446, 0.07533077895641327, 0.2032400667667389, 0.6548520922660828, 0.2942942678928375, -0.3138454854488373, 0.5294719934463501, -0.30233827233314514, 0.09596136212348938, 1.1651111841201782, -0.1804945021867752, 0.1217295229434967, -0.5479293465614319, -0.44132062792778015, -0.23409882187843323], [-0.2071724236011505, 0.3889714777469635, 0.2097504734992981, 0.449383407831192, -0.253682017326355, 0.40414729714393616, -0.675524890422821, 0.13633334636688232, 0.6106090545654297, 0.937698483467102, 0.08319545537233353, 0.97276371717453, -0.40785208344459534, 0.30114561319351196, -0.03903554379940033, 0.9353049993515015, 0.14813955128192902, 0.3967616558074951, 0.2485852837562561, -0.6649370193481445, 0.06444907933473587, -0.2695164382457733, 0.5307629704475403, -0.20660202205181122, 0.0988021194934845, -1.327640414237976, 0.7777486443519592, 0.8049606084823608, -0.5099601149559021, 0.09521960467100143, -0.3126511573791504, -0.9834572076797485], [0.21719606220722198, -0.30859073996543884, 0.3122383952140808, 0.53570556640625, -0.49192559719085693, -0.31372198462486267, -0.5678902268409729, 1.004608392715454, -0.4920269250869751, 0.36925166845321655, -0.7673854827880859, 0.64731764793396, 0.3199487328529358, 0.5571725368499756, 0.6934534907341003, 0.9153456091880798, 0.7709477543830872, -0.03835210204124451, -0.14560255408287048, -0.5604701638221741, -0.37140804529190063, -0.41307926177978516, -0.400750070810318, 0.4132353365421295, 0.04995269328355789, -0.44439831376075745, 0.2445477545261383, 1.0498028993606567, 0.19001375138759613, 0.16727383434772491, -0.45320066809654236, -1.0401475429534912], [0.49308639764785767, -0.011188616044819355, 0.8752235770225525, 0.5297735333442688, 0.087338387966156, 0.02029634453356266, -0.09079276025295258, 0.5968754291534424, -0.6656164526939392, -0.3000676929950714, -0.856786847114563, 0.53220534324646, -0.43569695949554443, 0.31092360615730286, -0.4841289520263672, 0.7443445324897766, 0.17788003385066986, 0.4409688115119934, -0.3357827663421631, 0.3576248288154602, 0.12088277190923691, -0.2163703441619873, -0.6690195798873901, -0.1393749713897705, -0.4523828327655792, -0.2238006442785263, -0.11443138122558594, 0.45337486267089844, 0.4793080985546112, -0.5654246807098389, -0.33930259943008423, -1.0537744760513306], [-0.11354842782020569, 0.7694845199584961, 0.3929498493671417, -0.9053710699081421, -0.6323651075363159, 0.2615032494068146, -0.9003307223320007, 0.8438654541969299, 0.5519699454307556, -0.25915107131004333, -0.8263641595840454, 1.0522617101669312, 0.2323923259973526, -0.015512656420469284, 0.4281521737575531, 0.43760019540786743, -0.2972668707370758, 0.31797099113464355, -0.16780108213424683, -0.5279767513275146, -0.04091266170144081, -0.7027497887611389, 0.23224268853664398, 0.18828167021274567, 0.7749363780021667, -0.5985957980155945, -0.8105440139770508, 0.6688968539237976, 0.06986405700445175, 0.3206891119480133, -0.30672329664230347, -0.5166348218917847], [0.09416588395833969, 0.08461177349090576, -0.3770676851272583, 0.1605328619480133, -0.31674379110336304, -0.025209913030266762, -0.38261711597442627, 0.7095320224761963, -0.1308930218219757, 0.33708491921424866, 0.37347450852394104, 1.0036500692367554, -0.6048625111579895, 0.16771960258483887, 0.2859880328178406, 0.4748234152793884, -0.4873737096786499, 0.09020665287971497, -0.36063456535339355, 0.10537257045507431, 0.3088385760784149, -0.2385067194700241, 0.2667621374130249, -0.19691826403141022, 0.36415696144104004, -0.021378247067332268, 0.030484680086374283, -0.15762309730052948, -0.40945762395858765, -0.4757618010044098, 0.08881479501724243, 0.3597843647003174], [0.5510280728340149, 0.988275945186615, 0.3659920394420624, 0.1730383038520813, -0.3686026930809021, -0.1719924509525299, -0.9369145631790161, -0.2593099772930145, -0.5411752462387085, 1.030156135559082, -0.034836139529943466, 0.4263131022453308, 0.46982717514038086, -0.4827268719673157, 0.00288714119233191, 0.05750240013003349, -0.02614797092974186, 0.9096949100494385, 0.12054819613695145, 0.25637882947921753, 0.01949036493897438, 0.384398877620697, -0.0005727989482693374, 0.08640933781862259, -0.10810691863298416, -1.016742467880249, -0.7602011561393738, -0.08103736490011215, 0.6524106860160828, -1.0878796577453613, 0.3859928548336029, 0.09462608397006989], [-0.2956191599369049, 0.19416916370391846, -0.3719176650047302, 0.12273143231868744, 0.9067094326019287, -0.8294902443885803, 0.14559191465377808, 0.526594340801239, -0.22689662873744965, -0.4404422342777252, 0.6055015325546265, 0.599773108959198, 0.05938812717795372, -0.3440961241722107, 0.21688440442085266, -0.5553934574127197, 0.7536287307739258, 0.28721606731414795, 0.853850245475769, 0.11043708771467209, 0.15435002744197845, 0.7260096073150635, -0.09730977565050125, 0.08166901767253876, -1.043499231338501, -0.2687845528125763, -0.46826109290122986, 0.5909067988395691, -0.558965802192688, 0.4546626806259155, -0.7507334351539612, 0.10103906691074371], [-0.17270244657993317, 0.2191370576620102, 0.48522844910621643, -0.956904947757721, 1.1232467889785767, -0.6797991394996643, 0.4342060387134552, 1.1455023288726807, -0.38676321506500244, 0.02311735786497593, 0.1484527736902237, 0.6276907324790955, 0.2135419100522995, -0.46603596210479736, 0.5669923424720764, 0.5992283821105957, 0.7087888717651367, 0.19235365092754364, 0.20474833250045776, -0.7126637697219849, -0.24428683519363403, 0.8648424744606018, -0.5062620043754578, 0.49648457765579224, -0.29888418316841125, -0.9547995924949646, -0.13555607199668884, 0.0015994777204468846, -0.057561106979846954, -0.6039066314697266, -0.5102257132530212, 0.042396366596221924], [-0.8698278665542603, -0.5047497749328613, 0.7832611799240112, 0.5718420147895813, 0.24169068038463593, -0.4696372151374817, -0.04995834082365036, 0.6879451870918274, 0.13989491760730743, 0.5039530396461487, 0.2469336837530136, -0.013391807675361633, -0.8470900058746338, 0.5655147433280945, 0.6020521521568298, 0.20102663338184357, 0.11893413215875626, 0.3181819021701813, 0.09285783767700195, -0.006147591397166252, -0.08354242891073227, -0.1445668637752533, -1.0855298042297363, 0.05224810168147087, -0.1854766607284546, -0.3911280632019043, -0.12822189927101135, -0.4324401617050171, -0.29283446073532104, 0.12408624589443207, -0.31180086731910706, 0.009610114619135857], [0.153147891163826, 0.131675586104393, 0.1814395785331726, 0.6874869465827942, 1.172153353691101, -1.0307990312576294, -0.5399296879768372, 0.6474363803863525, -1.143895149230957, -0.01603311114013195, -0.07262427359819412, 0.7396026253700256, 0.38524797558784485, 1.0542782545089722, -0.08483806252479553, 0.14875003695487976, 0.17611277103424072, 0.40257513523101807, -0.11556357890367508, -0.2536860704421997, 0.19528543949127197, -0.11301686614751816, 0.6119573712348938, -0.5124930143356323, -0.7326723337173462, -0.12119081616401672, 0.14431750774383545, -0.16423268616199493, -0.6878295540809631, -0.7750533223152161, 0.37924548983573914, -0.19279734790325165], [0.36332887411117554, 0.5806300640106201, 0.20528271794319153, -0.17776042222976685, 0.8192842602729797, -0.8980408310890198, 0.09426392614841461, 0.02018679864704609, 0.040045253932476044, 0.646273672580719, 0.14972661435604095, -0.0948299691081047, -0.018766308203339577, -0.07125154137611389, -0.6040294170379639, 0.025971032679080963, -0.29981085658073425, 0.9063214063644409, -0.14725367724895477, -0.6291959881782532, 0.13602010905742645, -0.034499138593673706, 0.34139347076416016, 0.22886218130588531, -0.46350160241127014, -0.040105629712343216, -1.0613733530044556, 0.6779852509498596, -0.5393184423446655, -0.41285890340805054, 0.6071105003356934, -0.07654676586389542], [0.2756733298301697, -0.0530647374689579, -0.34176066517829895, -0.11913833022117615, 0.9359318017959595, -1.016187310218811, -0.2656853497028351, -0.039152082055807114, 0.6219792366027832, -0.011609346605837345, -0.6323313117027283, 0.45250827074050903, -0.6605254411697388, 0.202443927526474, 0.7461416125297546, 0.5554561614990234, 0.0970490574836731, 0.8283544778823853, 0.034859031438827515, -0.6243327260017395, -0.8488878607749939, 0.3039282262325287, -0.9444818496704102, 1.5777798891067505, 0.356380432844162, -0.08289504796266556, 0.6554995775222778, -0.41155025362968445, -0.6991246938705444, -0.49824392795562744, 0.3521011173725128, -0.27390897274017334], [-0.010641925036907196, 0.20394672453403473, 0.269214928150177, 1.3435790606308728e-05, -0.2549208998680115, -0.1605360060930252, 0.17942751944065094, 0.27662113308906555, 0.21494141221046448, -0.09027181565761566, 0.15504473447799683, 0.3090035915374756, 0.6081687808036804, -0.6893627047538757, -0.38991454243659973, 0.5293928384780884, 0.29018014669418335, 0.7986104488372803, -0.06662257760763168, -0.23005937039852142, -1.0329447984695435, 0.5202339291572571, -0.10990894585847855, 0.6117978692054749, -0.8736653923988342, 0.07712045311927795, -0.7229089736938477, 0.370827317237854, -0.20177610218524933, -1.0982283353805542, 0.18625745177268982, 0.1125258207321167], [-0.5736438035964966, 0.6045459508895874, 0.01157690491527319, 0.3431028127670288, -0.20181448757648468, -0.38015714287757874, 0.09664716571569443, 0.32384732365608215, -0.14983825385570526, -0.0410529188811779, -0.11983733624219894, 0.13117985427379608, -0.27420997619628906, -0.06394654512405396, 0.6003935933113098, 0.36827990412712097, 0.312531977891922, 0.10457628220319748, -0.3112401068210602, 0.20809032022953033, 0.09630153328180313, -0.5621360540390015, 0.2771035134792328, -0.4551286995410919, 0.43356913328170776, 0.06085886433720589, -0.316816508769989, -0.4128783941268921, -0.3549248278141022, 0.4565610885620117, 0.46242430806159973, 0.10868111252784729], [-0.02200300060212612, -0.07538331300020218, 0.222689688205719, -0.002075434662401676, -0.02437867410480976, -0.5104818344116211, -0.49790382385253906, 0.7794623970985413, -0.17799502611160278, 1.2413098812103271, -0.25939300656318665, 0.057310737669467926, -1.0687596797943115, 0.10351598262786865, 0.10685508698225021, 0.5890589356422424, -0.36125969886779785, 0.6850455403327942, 0.7182811498641968, -0.01785028912127018, -0.4713333249092102, -0.4416731297969818, 0.08470059186220169, 0.37912043929100037, 0.6644006371498108, -0.4147805869579315, -0.7113210558891296, -0.14483405649662018, 0.10516535490751266, 0.216620072722435, 0.6865591406822205, 0.22275310754776], [0.09955152124166489, 0.08196840435266495, 0.4913223087787628, -0.24620625376701355, 0.5801894664764404, 0.5501028895378113, -0.21048815548419952, -0.15963062644004822, -0.6611627340316772, 0.6139442920684814, 0.16871735453605652, -0.09500684589147568, -0.37463662028312683, -0.37197479605674744, -0.6793248057365417, 0.5343894362449646, -0.27331671118736267, -0.04846864193677902, -0.055306326597929, 0.18041262030601501, -0.4592982530593872, -0.3223083019256592, -0.38921549916267395, 0.11664614081382751, -0.2857542634010315, 0.040533799678087234, -0.09718340635299683, 0.06779605895280838, -0.26471906900405884, -0.1542012244462967, 0.1704053431749344, 0.037748925387859344], [0.14115001261234283, 0.5730203986167908, 0.3369899392127991, 0.3768885135650635, -0.03473389148712158, 0.3490578532218933, -0.05968526378273964, -0.02831404097378254, -0.48645883798599243, 0.40731021761894226, 0.17268463969230652, -0.20685814321041107, -0.4157772362232208, -0.35632529854774475, -0.5713732838630676, 0.5757597088813782, -0.21684685349464417, 0.06783454120159149, -0.20493848621845245, 0.3786228895187378, -0.1593158096075058, -0.04782518744468689, -0.2227264940738678, 0.07628117501735687, -0.6321420073509216, 0.5262693762779236, 0.3509523570537567, -0.4461912214756012, -0.4082007110118866, -0.555958092212677, 0.2753147482872009, 0.3736187517642975], [-0.035289034247398376, 0.04213052988052368, -0.3396758735179901, -1.094326138496399, 0.012917885556817055, -0.3974899351596832, 0.1342598795890808, -0.36838215589523315, -0.09431972354650497, 0.9294071197509766, -0.07458888739347458, 1.0049570798873901, 0.11640851199626923, 0.013309027999639511, 0.17092671990394592, -0.5108338594436646, -0.24188822507858276, 0.7487848401069641, -0.017460474744439125, 0.8086618185043335, -0.08651228994131088, 0.28546926379203796, 0.2708638608455658, 0.12649324536323547, -1.073287010192871, 0.08144452422857285, -0.6814824342727661, 0.5755189657211304, 0.6335790157318115, -0.5416508913040161, -0.20016436278820038, -0.8542376756668091], [-0.6260260939598083, 0.5155709981918335, -0.29977574944496155, -0.7720146179199219, 0.679929256439209, -0.02695293165743351, -0.25560328364372253, -0.5214794278144836, -0.5333750247955322, 0.5818949341773987, -0.2881832718849182, 0.559287965297699, -0.25173619389533997, 0.13221223652362823, 0.903089702129364, 0.30291858315467834, -0.5285953283309937, 1.4005632400512695, 0.5536748766899109, 0.2848321199417114, 0.4838820993900299, 0.06853360682725906, 0.13441811501979828, -0.30527353286743164, 0.04783188924193382, -0.027754178270697594, -1.0589509010314941, 0.0200196523219347, 0.03228246793150902, 0.27746957540512085, -0.9359498620033264, -0.10952591896057129], [0.3870660960674286, 0.05856619402766228, -0.0891106128692627, -0.6119961738586426, -0.05268419533967972, 0.38673263788223267, -0.25451064109802246, -0.09177078306674957, 0.18155735731124878, 0.2514490485191345, 0.07703899592161179, 0.6462035775184631, 0.20707818865776062, 0.01631758362054825, 0.7248969078063965, -0.8665911555290222, 0.49382948875427246, 1.0636889934539795, -0.060113612562417984, 0.24749316275119781, -0.02088014967739582, -0.29292669892311096, -0.9742902517318726, -0.37171539664268494, -0.42374691367149353, -0.2834244668483734, -0.8171404004096985, 0.5025122761726379, -0.21265605092048645, 0.04923788830637932, 0.12354764342308044, 0.18247774243354797], [-0.470024049282074, -0.4627279043197632, 0.23280276358127594, -0.04302046447992325, -0.0926240086555481, -0.6506380438804626, -0.37810975313186646, -0.0737403929233551, -0.6209008097648621, 0.6742976307868958, 0.11705652624368668, 0.8732292056083679, 0.8361826539039612, 0.7562538981437683, -0.2805001437664032, 0.2623898684978485, -0.09001047909259796, 1.0394991636276245, -0.39520061016082764, 0.28403618931770325, -0.14307598769664764, 0.038423918187618256, 0.0016957060433924198, 0.5028756856918335, -0.44037991762161255, -0.4662531912326813, -0.7607507109642029, 0.5243799090385437, 0.5002686381340027, 0.2600131928920746, -0.5400251746177673, -0.8429849147796631], [-0.16346944868564606, -0.05704851821064949, 0.18489179015159607, -0.4559314250946045, 0.31583884358406067, 0.01819699816405773, -0.4375839829444885, -0.19658270478248596, -0.013805708847939968, -0.0003474550903774798, -0.4174162745475769, -0.07690344750881195, 0.23162071406841278, 0.22352167963981628, 0.42336323857307434, 0.43706727027893066, -0.1660577952861786, -0.2439521998167038, -0.18107306957244873, -0.35421180725097656, -0.34376925230026245, 0.2738284766674042, -0.26751017570495605, -0.3260936439037323, -0.2659838795661926, 0.2809794545173645, -0.11230677366256714, 0.23193567991256714, 0.18500390648841858, 0.14961040019989014, 0.33204951882362366, 0.14981335401535034], [-0.44450637698173523, -0.08381225913763046, -0.2579462230205536, 0.4929612874984741, 0.21964645385742188, -0.14051006734371185, -0.5863838791847229, -0.6197640299797058, -0.8526356816291809, -0.023750321939587593, 0.2945994734764099, 0.35431867837905884, -0.18377739191055298, 0.08775195479393005, 0.793224573135376, 0.2710948586463928, 1.021047592163086, 0.27636733651161194, 0.3749297857284546, -0.43745821714401245, -0.21761411428451538, 0.3515128791332245, 0.5175458788871765, 0.2854861617088318, 0.3458344042301178, -0.7973768711090088, 0.2221972644329071, -0.33036890625953674, 0.35606470704078674, 0.15100838243961334, 0.28498122096061707, -1.067845344543457], [-0.8517117500305176, 0.1199609711766243, 1.1264979839324951, 0.5567154884338379, 0.8083165884017944, 0.5638697743415833, 0.04301419109106064, 0.4214639961719513, -1.3195873498916626, -0.3572349548339844, -0.19961611926555634, 0.6932809948921204, -0.5141327381134033, -0.15432745218276978, 0.749780535697937, 0.2741866111755371, 0.5681758522987366, -0.1594054102897644, -0.2819053828716278, -0.7792320847511292, 0.5629976987838745, 0.20697185397148132, -0.16941626369953156, 0.7004069685935974, -0.0016322234878316522, -0.6725583076477051, -0.6755186319351196, -0.10538934916257858, 0.32961755990982056, -0.28169599175453186, -0.28884536027908325, -0.512099027633667], [-0.4162589907646179, -0.47611385583877563, 0.2052958607673645, 0.37028756737709045, 0.4503951966762543, -0.5274080634117126, 0.344837486743927, 0.2660011649131775, -0.43136483430862427, 0.5597419738769531, -0.9812671542167664, 1.1023756265640259, -0.12798842787742615, 1.3805431127548218, -0.3213316798210144, -0.05710387974977493, -0.10089502483606339, 0.631057620048523, -0.6328850388526917, -0.02168242819607258, 0.16896887123584747, -0.014598795212805271, -0.2767737805843353, 0.2493681013584137, 0.39961010217666626, -0.5299647450447083, -0.28499290347099304, -0.048272039741277695, -0.3825947940349579, 0.036311645060777664, -0.8353115916252136, 0.6110438108444214], [-0.446725994348526, 0.24979330599308014, 0.06868033856153488, -0.4520793855190277, 0.08953908085823059, 0.47987112402915955, 0.19137002527713776, -0.15559954941272736, 0.4661458432674408, -0.16787689924240112, -0.724333643913269, 0.2452733963727951, 0.12164442241191864, -0.4041363596916199, -0.058431874960660934, -0.5320031046867371, 0.7926720976829529, -0.1667289286851883, -0.3087514340877533, -0.5489534735679626, 0.08730418980121613, -0.20957307517528534, 0.2961130738258362, 0.7004388570785522, 0.0736747533082962, -0.13888226449489594, -0.29268595576286316, -0.17169837653636932, 0.035630002617836, 0.23405948281288147, -0.06846476346254349, 0.20881669223308563], [-1.0115413665771484, 0.8505025506019592, 0.4989590644836426, -0.1841014325618744, 0.29003849625587463, 0.6202266216278076, -0.19786161184310913, -0.586412787437439, -0.4053860008716583, 1.0639125108718872, -0.28878283500671387, 0.8303530812263489, -0.44013890624046326, 0.30673182010650635, -0.15618811547756195, -0.4764343500137329, -0.1932448148727417, -0.1786046326160431, 0.29526180028915405, 0.2596064805984497, -0.11716512590646744, -0.2845175862312317, -0.03858081251382828, 0.798459529876709, 0.43857571482658386, 